svm_type c_svc
kernel_type rbf
gamma 0.5
nr_class 2
total_sv 130
rho -0.148069
label 1 -1
nr_sv 67 63
SV
0.8517478730600208 1:160 2:0 
1 1:146 2:0 
1 1:146 2:0 
1 1:146 2:0 
1 1:146 2:0 
0.8519454297770606 1:170 2:64 
0.3305842381115726 1:146 2:64 
1 1:170 2:74 
1 1:146 2:73 
0.9010857797054739 1:146 2:75 
0.9007198433861038 1:146 2:76 
0.5343410926359452 1:156 2:78 
0.5388742924634975 1:156 2:79 
1 1:146 2:78 
1 1:146 2:81 
1 1:156 2:83 
1 1:170 2:85 
0.7209352854571783 1:170 2:88 
0.515895001416709 1:160 2:89 
1 1:170 2:90 
0.889589536178564 1:170 2:90 
1 1:160 2:90 
0.7256497404071455 1:160 2:93 
1 1:170 2:93 
1 1:170 2:94 
0.4131202313108569 1:160 2:94 
0.8630530537844101 1:146 2:93 
1 1:156 2:95 
1 1:156 2:96 
0.8469568764658931 1:160 2:97 
1 1:146 2:98 
0.8644699481333671 1:170 2:100 
0.8138154082769123 1:156 2:100 
1 1:170 2:101 
0.5286978089328233 1:160 2:101 
0.3735241509531269 1:156 2:101 
0.5315065251650595 1:160 2:102 
0.8433257487966461 1:174 2:102 
1 1:170 2:103 
1 1:156 2:103 
1 1:170 2:104 
0.7420594651174912 1:174 2:105 
0.9873354366307785 1:146 2:104 
0.8521801664446621 1:156 2:106 
0.7429711574914338 1:174 2:107 
1 1:156 2:107 
1 1:170 2:109 
1 1:156 2:109 
0.852364827169477 1:160 2:110 
0.843027544796553 1:174 2:110 
0.851810142017385 1:146 2:109 
1 1:156 2:112 
1 1:156 2:112 
0.8521065435153452 1:160 2:9 
0.8517645466160408 1:156 2:0 
0.02519149490816543 1:160 2:74 
0.3883231007219048 1:156 2:113 
0.8520000727125823 1:146 2:118 
0.8519898757504544 1:156 2:68 
1 1:146 2:62 
1 1:160 2:74 
0.9923130190074704 1:146 2:64 
1 1:156 2:77 
0.8517026354123033 1:174 2:114 
0.8518957590920464 1:146 2:0 
0.8629301774498744 1:146 2:21 
1 1:146 2:60 
-1 1:146 2:0 
-1 1:146 2:0 
-1 1:146 2:0 
-1 1:146 2:0 
-1 1:146 2:5 
-1 1:146 2:12 
-1 1:146 2:18 
-1 1:160 2:43 
-1 1:146 2:44 
-1 1:146 2:48 
-1 1:146 2:50 
-1 1:170 2:56 
-1 1:146 2:55 
-0.7149260685021767 1:156 2:60 
-0.7144008102165673 1:156 2:61 
-1 1:146 2:59 
-1 1:146 2:63 
-1 1:160 2:68 
-1 1:160 2:70 
-1 1:170 2:73 
-0.7088579742345029 1:156 2:74 
-1 1:170 2:75 
-0.7241219544504127 1:156 2:75 
-0.6657253280418211 1:170 2:76 
-0.3306656616040814 1:160 2:76 
-0.9450788435879756 1:160 2:76 
-1 1:146 2:74 
-1 1:156 2:77 
-1 1:160 2:79 
-1 1:146 2:77 
-1 1:170 2:81 
-1 1:146 2:80 
-1 1:156 2:82 
-0.5415940477017254 1:170 2:83 
-1 1:170 2:84 
-1 1:160 2:87 
-1 1:146 2:87 
-1 1:170 2:90 
-1 1:160 2:91 
-1 1:146 2:90 
-1 1:170 2:92 
-1 1:170 2:93 
-1 1:156 2:95 
-0.2465389580700507 1:170 2:97 
-0.9222926097392414 1:170 2:97 
-0.4673147347232073 1:156 2:98 
-0.9305270128281481 1:156 2:98 
-1 1:146 2:99 
-1 1:170 2:101 
-1 1:170 2:103 
-1 1:156 2:103 
-1 1:146 2:102 
-0.209876611414177 1:170 2:106 
-0.9495552252971277 1:170 2:106 
-1 1:156 2:107 
-1 1:170 2:108 
-1 1:156 2:109 
-0.6819908995249762 1:156 2:110 
-1 1:156 2:111 
-1 1:156 2:112 
-0.8277395397426778 1:170 2:113 
-0.510597549593465 1:170 2:114 
-1 1:170 2:116 
