svm_type c_svc
kernel_type linear
nr_class 2
total_sv 135
rho -1
label 1 -1
nr_sv 70 65
SV
1 1:160 2:0
1 1:160 2:0
1 1:160 2:0
1 1:156 2:0
-1 1:146 2:0
-1 1:146 2:0
-1 1:146 2:0
-1 1:146 2:0
0.176422 1:146 2:0
1 1:146 2:0
1 1:146 2:0
1 1:146 2:0
1 1:146 2:0
1 1:146 2:0
1 1:146 2:0
1 1:146 2:0
1 1:146 2:0
1 1:146 2:0
-1 1:146 2:5
-1 1:146 2:12
-1 1:146 2:18
-1 1:160 2:43
-1 1:146 2:44
-1 1:146 2:48
-1 1:146 2:49
-1 1:146 2:50
-1 1:170 2:56
-1 1:146 2:55
-1 1:156 2:60
-1 1:156 2:61
-1 1:146 2:59
0.409356 1:170 2:64
-1 1:146 2:63
-1 1:160 2:68
-1 1:160 2:70
-1 1:170 2:73
1 1:170 2:74
-1 1:156 2:74
-1 1:170 2:75
-1 1:156 2:75
-1 1:170 2:76
-1 1:160 2:76
-1 1:160 2:76
-1 1:146 2:74
0.78366 1:146 2:75
-1 1:156 2:77
1 1:146 2:76
-1 1:160 2:79
-1 1:146 2:77
0.0556027 1:156 2:79
1 1:146 2:78
-1 1:170 2:81
-1 1:146 2:80
-1 1:156 2:82
-1 1:170 2:83
1 1:146 2:81
1 1:156 2:83
-1 1:170 2:84
1 1:170 2:85
-1 1:160 2:87
1 1:170 2:88
-1 1:146 2:87
1 1:160 2:89
-1 1:170 2:90
1 1:170 2:90
1 1:170 2:90
1 1:160 2:90
-1 1:160 2:91
-1 1:146 2:90
-1 1:170 2:92
-1 1:170 2:93
1 1:160 2:93
1 1:170 2:93
1 1:170 2:94
1 1:160 2:94
1 1:160 2:94
1 1:146 2:93
1 1:146 2:93
-1 1:156 2:95
1 1:156 2:95
1 1:156 2:96
-1 1:170 2:97
-1 1:170 2:97
1 1:160 2:97
-1 1:156 2:98
-1 1:156 2:98
1 1:146 2:98
1 1:170 2:100
1 1:156 2:100
-1 1:146 2:99
-1 1:170 2:101
1 1:170 2:101
1 1:160 2:101
1 1:156 2:101
1 1:160 2:102
1 1:160 2:102
1 1:174 2:102
-1 1:170 2:103
1 1:170 2:103
-1 1:156 2:103
1 1:156 2:103
-1 1:146 2:102
1 1:170 2:104
1 1:174 2:105
1 1:146 2:104
-1 1:170 2:106
-1 1:170 2:106
-1 1:170 2:106
1 1:156 2:106
-1 1:156 2:107
1 1:174 2:107
1 1:156 2:107
-1 1:170 2:108
1 1:170 2:109
-1 1:156 2:109
1 1:156 2:109
1 1:160 2:110
-1 1:156 2:110
1 1:174 2:110
1 1:146 2:109
-1 1:156 2:111
-1 1:156 2:112
1 1:156 2:112
1 1:156 2:112
0.0401106 1:160 2:9
1 1:156 2:113
0.505789 1:156 2:0
1 1:156 2:113
1 1:146 2:118
1 1:174 2:114
-1 1:170 2:113
-1 1:170 2:114
-1 1:170 2:116
0.807841 1:146 2:0
0.221218 1:146 2:60
