svm_type c_svc
kernel_type rbf
gamma 0.5
nr_class 2
total_sv 5009
rho -0.294883
label 1 -1
nr_sv 2695 2314
SV
1 1:98 2:387 
1 1:114 2:367 
0.3128507097529587 1:118 2:351 
1 1:120 2:346 
0.922268002817108 1:122 2:271 
0.4851633629082537 1:132 2:250 
0.6157413761452453 1:134 2:234 
0.6585991083068372 1:136 2:250 
0.1449391058171444 1:140 2:281 
1 1:144 2:257 
0.5151401905825019 1:148 2:213 
1 1:150 2:274 
1 1:154 2:298 
0.5960634230732462 1:156 2:187 
1 1:158 2:288 
0.5794338302221854 1:160 2:241 
0.4680589012515802 1:162 2:290 
0.7043390308624518 1:168 2:328 
0.621897522401511 1:170 2:222 
0.3626163354252087 1:172 2:292 
0.3807018956855056 1:178 2:337 
1 1:186 2:292 
0.9355188904288425 1:188 2:317 
1 1:190 2:328 
1 1:192 2:350 
0.2988690665929548 1:102 2:380 
1 1:104 2:350 
1 1:108 2:375 
1 1:114 2:367 
1 1:116 2:360 
0.2725551511020931 1:118 2:355 
1 1:120 2:358 
0.4491394025830342 1:126 2:363 
1 1:128 2:353 
1 1:130 2:248 
0.3645495860159222 1:134 2:247 
0.693005033200676 1:136 2:256 
0.855671143354062 1:140 2:277 
0.311917139491778 1:144 2:253 
1 1:148 2:229 
0.5949193008792081 1:154 2:291 
1 1:156 2:203 
0.08584565923675881 1:158 2:291 
0.5477209821854994 1:160 2:249 
0.3792143163227001 1:162 2:300 
0.621207400692466 1:164 2:339 
0.4376208800307364 1:168 2:332 
0.6716971383366764 1:170 2:239 
0.3579659169452621 1:172 2:299 
0.4964272280206023 1:174 2:283 
1 1:186 2:306 
0.1592075778755421 1:188 2:318 
1 1:104 2:353 
0.4876267676847887 1:106 2:375 
1 1:116 2:368 
0.5791203160803415 1:118 2:360 
0.9720246427072006 1:140 2:281 
1 1:144 2:247 
0.8248273745189894 1:148 2:237 
1 1:154 2:290 
0.7056590388467739 1:156 2:204 
0.798656469502883 1:158 2:292 
0.6497541446337263 1:160 2:257 
0.3979478858931095 1:162 2:299 
0.6206301048217227 1:164 2:337 
0.4395459407749893 1:168 2:333 
0.4725735161952507 1:170 2:233 
0.6288395476290103 1:174 2:280 
0.5513042605946381 1:176 2:335 
1 1:188 2:318 
1 1:98 2:390 
1 1:100 2:388 
0.263722053569302 1:102 2:384 
1 1:114 2:374 
1 1:118 2:365 
1 1:120 2:366 
1 1:130 2:293 
1 1:132 2:335 
1 1:134 2:327 
0.6733548118627523 1:136 2:290 
0.7987549058173651 1:140 2:310 
1 1:142 2:279 
1 1:148 2:243 
1 1:154 2:293 
0.3470402232638824 1:156 2:206 
1 1:158 2:291 
1 1:160 2:261 
0.2566353912504864 1:162 2:287 
0.6350397118636675 1:164 2:332 
0.3061195913375699 1:168 2:323 
0.2695246303944128 1:170 2:240 
0.8412031718450418 1:174 2:294 
0.4317101224551541 1:190 2:370 
0.4561961302830331 1:192 2:374 
0.5968035052313063 1:194 2:379 
0.1443429658984904 1:198 2:384 
0.3766463359585632 1:200 2:386 
1 1:98 2:394 
1 1:100 2:393 
1 1:102 2:389 
1 1:104 2:364 
0.4848281395411713 1:116 2:370 
1 1:118 2:366 
0.3249893908131394 1:122 2:299 
0.1695507036358848 1:128 2:368 
1 1:132 2:343 
1 1:134 2:338 
0.3622244020507275 1:136 2:303 
0.3687491135915774 1:140 2:305 
1 1:142 2:298 
0.3320493180257285 1:150 2:272 
0.6461929679519811 1:154 2:282 
0.4969123046254773 1:156 2:195 
0.5810124029163282 1:158 2:286 
1 1:160 2:265 
0.3670509358755326 1:162 2:291 
0.5155474810798786 1:164 2:330 
0.6577755650769874 1:168 2:321 
0.2228191135410834 1:170 2:241 
0.541167667734425 1:172 2:266 
0.3894655458983933 1:178 2:348 
0.5000826148543993 1:184 2:357 
0.6656253397538683 1:186 2:365 
0.4098248364309237 1:190 2:374 
0.5561233400402315 1:192 2:378 
0.4320998907537813 1:194 2:383 
1 1:98 2:393 
1 1:100 2:393 
1 1:102 2:389 
0.2172714875952418 1:108 2:382 
1 1:114 2:377 
1 1:116 2:368 
0.8470288762174848 1:118 2:362 
0.2902308371900083 1:120 2:359 
1 1:122 2:299 
0.5786426946412982 1:130 2:298 
1 1:132 2:344 
0.3610317116697236 1:134 2:335 
0.8908965462457005 1:136 2:306 
0.740801523296897 1:140 2:317 
1 1:142 2:294 
0.07990633395024171 1:144 2:277 
1 1:148 2:217 
0.513867955063973 1:154 2:280 
0.2593486444101036 1:156 2:194 
0.3123018373076713 1:160 2:258 
0.623095821102631 1:162 2:283 
0.7695290998544575 1:164 2:328 
0.6584465993180449 1:168 2:316 
0.7691615946549072 1:170 2:248 
0.4518839411023954 1:176 2:326 
0.3535223799056842 1:184 2:355 
0.5839051456187698 1:186 2:362 
0.424265601191078 1:188 2:363 
0.699496655951666 1:194 2:386 
0.5746272545917881 1:198 2:387 
0.5683844848713948 1:200 2:390 
0.4459145509879145 1:202 2:393 
1 1:98 2:394 
1 1:100 2:392 
1 1:102 2:388 
1 1:116 2:367 
1 1:118 2:362 
1 1:120 2:359 
1 1:122 2:289 
0.5732434765998764 1:126 2:370 
0.5704800552902335 1:128 2:367 
0.9662555082290822 1:130 2:289 
1 1:132 2:343 
1 1:134 2:335 
1 1:136 2:298 
1 1:140 2:307 
0.1485539291890435 1:142 2:289 
0.5754978226209014 1:148 2:200 
0.9056496263050222 1:150 2:261 
0.2959266846994116 1:156 2:190 
0.7583768769550557 1:158 2:266 
0.9577005124662501 1:160 2:263 
0.6690412929624727 1:162 2:286 
0.7781411543624505 1:164 2:318 
0.3044984683262981 1:168 2:314 
0.4448387020049274 1:170 2:242 
0.4600210775827341 1:172 2:268 
0.8370468365340582 1:174 2:254 
0.3171501935765766 1:190 2:371 
0.4673304824860012 1:192 2:376 
0.4359358881404326 1:194 2:382 
0.4205997995474291 1:198 2:385 
0.4532206094848752 1:200 2:388 
0.2964833298912092 1:202 2:392 
1 1:98 2:394 
1 1:100 2:394 
1 1:102 2:389 
1 1:104 2:368 
1 1:108 2:379 
0.1369800760224058 1:114 2:376 
0.001446191689724791 1:116 2:369 
0.615148299183892 1:118 2:356 
1 1:120 2:350 
0.7562299643856728 1:122 2:308 
0.3090702895265873 1:126 2:372 
0.1884838670962674 1:128 2:369 
0.3149996919683739 1:130 2:284 
1 1:132 2:343 
1 1:134 2:335 
1 1:136 2:296 
0.9951626487663965 1:140 2:305 
0.185451611572994 1:142 2:290 
1 1:144 2:272 
0.2936102968920306 1:148 2:233 
0.6300407083425452 1:150 2:277 
0.7700731466223617 1:154 2:278 
0.7993379883788755 1:156 2:214 
0.652676603118433 1:158 2:269 
0.7111196127351473 1:160 2:279 
0.6168984529757447 1:162 2:294 
1 1:164 2:324 
0.5116236197138816 1:168 2:324 
0.7772461738886184 1:170 2:259 
0.6189969466066855 1:172 2:277 
0.5528552622980263 1:176 2:337 
0.3844206948963986 1:178 2:349 
0.6150870487551836 1:180 2:353 
0.5857731882429117 1:184 2:359 
0.529668306647477 1:186 2:360 
0.3072882870766195 1:188 2:364 
0.2178403112335104 1:198 2:382 
1 1:98 2:394 
1 1:100 2:395 
1 1:102 2:393 
1 1:104 2:372 
0.7034870351072313 1:112 2:383 
0.4009399493041547 1:114 2:383 
1 1:116 2:374 
0.4088766320977957 1:118 2:352 
1 1:120 2:348 
0.5101665094800255 1:126 2:373 
0.4773493150200518 1:128 2:370 
1 1:130 2:286 
1 1:132 2:338 
1 1:134 2:324 
0.671884916681834 1:136 2:271 
1 1:140 2:308 
1 1:142 2:284 
0.7063747629415226 1:144 2:212 
0.9439559771299779 1:148 2:230 
1 1:150 2:276 
0.01654891573856157 1:154 2:274 
0.4776990588588461 1:156 2:208 
1 1:158 2:262 
1 1:160 2:267 
0.6932897757056007 1:162 2:281 
1 1:164 2:321 
0.5135555484122942 1:168 2:313 
0.5789851796899557 1:170 2:251 
0.449547934920017 1:172 2:270 
0.7197057548351847 1:174 2:268 
0.2800215548670466 1:176 2:330 
0.5116388092365597 1:180 2:350 
0.3461900832179852 1:186 2:357 
0.5146598482838154 1:188 2:359 
0.3613764773923057 1:190 2:373 
0.01414647102606874 1:192 2:375 
0.3971241233800829 1:202 2:390 
0.531052660006158 1:204 2:394 
0.6245009094417328 1:206 2:396 
1 1:98 2:392 
1 1:100 2:393 
1 1:104 2:373 
1 1:108 2:379 
0.228519668529313 1:112 2:380 
1 1:116 2:368 
1 1:118 2:335 
1 1:122 2:276 
1 1:126 2:361 
1 1:132 2:292 
0.5140166845161097 1:136 2:240 
0.6320576273236755 1:142 2:233 
0.4674445525104961 1:144 2:207 
0.3259175473447078 1:146 2:41 
0.7985261873077028 1:148 2:193 
1 1:150 2:253 
0.5705806876840309 1:154 2:178 
1 1:156 2:155 
1 1:158 2:238 
0.7459511701193764 1:160 2:237 
0.3170680147885562 1:162 2:264 
0.5685198988420905 1:170 2:176 
0.6115328324132443 1:178 2:345 
0.2346245918808837 1:180 2:343 
0.0986647177618826 1:184 2:349 
0.4851111628517258 1:188 2:357 
1 1:98 2:387 
1 1:100 2:390 
1 1:102 2:370 
1 1:104 2:366 
1 1:108 2:371 
1 1:114 2:368 
0.8171357522835273 1:118 2:320 
1 1:126 2:361 
0.9377843539343146 1:130 2:242 
0.4891706762833228 1:134 2:289 
0.4382928440227236 1:136 2:187 
0.6110851297787206 1:140 2:248 
0.7044915756807277 1:142 2:239 
0.8424698127013437 1:144 2:164 
0.8404696719438498 1:146 2:104 
0.05006478528924586 1:150 2:250 
0.7274237768952634 1:154 2:238 
0.9103413650022649 1:156 2:96 
1 1:158 2:211 
1 1:160 2:197 
1 1:168 2:270 
1 1:172 2:240 
0.5656271375929068 1:174 2:236 
0.5773108946858836 1:176 2:323 
0.3565584994113093 1:184 2:339 
0.3171821942156491 1:198 2:383 
0.1081678832764109 1:202 2:389 
1 1:98 2:387 
1 1:100 2:382 
1 1:106 2:364 
1 1:108 2:369 
1 1:116 2:342 
0.4582206619534597 1:120 2:316 
1 1:130 2:240 
0.7926147856870751 1:132 2:287 
1 1:134 2:280 
0.7051028461296167 1:136 2:164 
0.6940808334138608 1:140 2:204 
0.6078368783461653 1:142 2:206 
0.8172480588381296 1:144 2:144 
0.4103931580758935 1:146 2:22 
0.2352411322008468 1:154 2:191 
0.7488830348445672 1:156 2:100 
0.449118245144091 1:158 2:182 
1 1:160 2:181 
1 1:162 2:235 
0.5023866444991467 1:164 2:268 
0.2658754455836375 1:168 2:263 
0.8797764264778143 1:174 2:248 
0.5836101969526508 1:176 2:332 
1 1:98 2:383 
0.7660306611775894 1:100 2:374 
1 1:102 2:373 
1 1:104 2:356 
1 1:108 2:368 
1 1:112 2:366 
1 1:114 2:362 
1 1:116 2:354 
1 1:122 2:277 
0.8582311535210457 1:130 2:261 
0.749117618729491 1:134 2:261 
0.6207924684239499 1:136 2:214 
0.7046171905346845 1:140 2:190 
0.7049893667216558 1:142 2:158 
1 1:148 2:227 
1 1:150 2:244 
0.4432407803381254 1:156 2:78 
1 1:158 2:232 
1 1:160 2:192 
0.4996707410011755 1:164 2:300 
0.6333310812987537 1:168 2:282 
0.5248088006462621 1:170 2:160 
1 1:172 2:257 
0.8497430791655353 1:174 2:263 
0.3983213136029803 1:176 2:340 
0.7047087495448277 1:180 2:359 
0.4623504685263394 1:184 2:352 
0.3086582266781887 1:186 2:356 
1 1:98 2:376 
0.4902526830203686 1:100 2:367 
0.002545282771606178 1:102 2:365 
0.7565390582499412 1:104 2:347 
1 1:106 2:361 
1 1:108 2:360 
0.7907160831163353 1:112 2:359 
0.394548140237929 1:114 2:358 
0.4278229790070199 1:116 2:354 
0.3845687086655707 1:118 2:285 
1 1:126 2:355 
0.177501119475819 1:130 2:225 
0.850964248036478 1:132 2:283 
0.7051042344719189 1:136 2:194 
0.6240990586503357 1:140 2:243 
0.7052931629946676 1:142 2:197 
0.70494421761062 1:144 2:201 
1 1:148 2:229 
0.7592322306381398 1:150 2:247 
1 1:156 2:103 
1 1:158 2:225 
1 1:160 2:211 
1 1:172 2:257 
0.3079234639960006 1:174 2:284 
0.3895837157874635 1:176 2:341 
0.2110431645875487 1:178 2:341 
0.6212929546170316 1:180 2:355 
0.4463747600697968 1:184 2:348 
0.4305480319520166 1:186 2:354 
0.5327687418859643 1:188 2:354 
0.4160364060200993 1:190 2:365 
0.2893803080192149 1:200 2:384 
0.4521583564746444 1:98 2:372 
0.2201554631859478 1:102 2:354 
0.8095242784776578 1:104 2:339 
0.4829464215061899 1:106 2:351 
1 1:114 2:355 
0.3250837884747507 1:122 2:268 
1 1:128 2:331 
0.6975742457510571 1:130 2:219 
0.4979287121173368 1:132 2:257 
0.4750169364690225 1:134 2:249 
0.4391444236252482 1:136 2:186 
0.6528462149555261 1:140 2:232 
0.5950522163226014 1:142 2:236 
0.6577798859812586 1:144 2:170 
0.4978424103469388 1:148 2:220 
0.4858296886465713 1:150 2:218 
0.4165137658489653 1:154 2:210 
0.7055410173872523 1:156 2:68 
1 1:158 2:213 
0.740115940132989 1:162 2:248 
1 1:164 2:287 
0.1705718604684509 1:170 2:173 
1 1:172 2:250 
0.7005103169746485 1:174 2:270 
0.450845689362091 1:176 2:329 
0.4443945296436332 1:178 2:332 
0.2171312331487738 1:180 2:344 
0.5183266654281037 1:186 2:352 
0.3346278132104258 1:188 2:350 
1 1:192 2:360 
0.4068945705918847 1:194 2:377 
0.5348602796427061 1:98 2:362 
0.4126461301390452 1:100 2:360 
1 1:104 2:346 
1 1:106 2:348 
0.704924561970335 1:118 2:254 
0.4238971749650986 1:120 2:330 
0.1593513560852486 1:126 2:339 
1 1:128 2:328 
0.3920125107379718 1:132 2:251 
0.7561036744972628 1:134 2:263 
0.7050781595339872 1:136 2:210 
0.5488924946436974 1:140 2:255 
0.3896088211358504 1:142 2:242 
0.3407255942407761 1:144 2:206 
0.1639174995381057 1:148 2:201 
1 1:160 2:193 
1 1:162 2:254 
0.427724505617105 1:168 2:287 
0.02180954308031399 1:172 2:265 
0.6291367112709517 1:174 2:277 
0.2339958077013892 1:180 2:349 
0.3472460810039009 1:184 2:354 
0.4449225567893688 1:186 2:348 
0.3286275584302883 1:188 2:351 
0.1841353094379694 1:194 2:374 
0.24958946364422 1:198 2:380 
0.5488130060380924 1:98 2:354 
0.4870156007272173 1:100 2:354 
1 1:104 2:342 
0.6158425321322482 1:108 2:354 
0.1164762870604586 1:112 2:358 
1 1:114 2:347 
1 1:116 2:350 
0.6971780547604991 1:118 2:246 
1 1:120 2:335 
0.9880391086297697 1:126 2:339 
0.7841680435362216 1:128 2:328 
1 1:130 2:239 
0.5042099504977281 1:132 2:255 
1 1:134 2:273 
0.6933651113660781 1:136 2:232 
0.5582507229817969 1:140 2:257 
0.9916181940956519 1:146 2:0 
0.6701378155031057 1:150 2:221 
0.3601309370923214 1:154 2:209 
0.6277177835110715 1:156 2:42 
0.5488284824277354 1:160 2:189 
1 1:162 2:258 
0.6029327817033431 1:164 2:292 
0.1517469202518321 1:170 2:168 
0.5485379476350428 1:172 2:264 
0.5633713774426943 1:180 2:347 
0.4526361407966137 1:184 2:350 
0.1135828385123293 1:186 2:347 
0.1903571703515984 1:188 2:346 
0.2339811843218489 1:198 2:378 
0.1082751317325228 1:200 2:385 
0.2339354743687415 1:202 2:387 
0.03133521953992702 1:206 2:395 
0.5753642053092611 1:98 2:342 
0.5533097584940311 1:100 2:350 
0.4603939724555843 1:102 2:342 
0.3976852783462415 1:112 2:354 
1 1:114 2:344 
0.6603097706602494 1:116 2:335 
0.6976967156225855 1:118 2:243 
1 1:120 2:331 
0.2076670207847063 1:122 2:252 
0.001009810268178618 1:126 2:334 
1 1:128 2:326 
0.6789828881631045 1:130 2:222 
0.4362557721489314 1:132 2:253 
1 1:134 2:274 
0.620029770637287 1:140 2:264 
0.3602569375773638 1:142 2:243 
0.5720917887490821 1:144 2:240 
1 1:146 2:0 
0.2417449985833544 1:150 2:210 
0.6159744740413645 1:154 2:200 
0.7047232233935561 1:156 2:25 
0.1692965350586994 1:160 2:163 
0.1659320844486517 1:164 2:293 
1 1:168 2:271 
1 1:170 2:155 
1 1:172 2:261 
0.5161582070446923 1:174 2:256 
0.6619057866588128 1:176 2:314 
0.0840057231150052 1:184 2:351 
0.2057306646704763 1:186 2:346 
0.4294282391846184 1:192 2:367 
0.5455062471901303 1:100 2:343 
0.5404176262062987 1:102 2:343 
1 1:106 2:341 
0.2042057581384281 1:116 2:325 
0.6212447184486324 1:118 2:230 
1 1:120 2:330 
0.3784548455960942 1:122 2:249 
1 1:126 2:330 
1 1:128 2:321 
1 1:130 2:227 
0.09484520309497889 1:132 2:254 
0.6440522316739983 1:134 2:258 
0.4238491806929344 1:140 2:270 
0.545175252017717 1:142 2:255 
0.6934747035500062 1:144 2:231 
1 1:146 2:0 
0.2164060253521408 1:148 2:203 
0.5586687336709545 1:150 2:209 
0.7522427209627286 1:154 2:197 
0.4392064582396569 1:156 2:18 
0.3812866389841235 1:158 2:164 
0.04251747021252123 1:160 2:136 
0.491267575774818 1:162 2:230 
1 1:168 2:272 
1 1:170 2:153 
1 1:172 2:250 
0.5070066935965223 1:174 2:239 
1 1:176 2:306 
0.07272943943833174 1:178 2:331 
0.4459104308168185 1:184 2:346 
0.2528696994213646 1:198 2:379 
0.6971364491493325 1:98 2:319 
0.5811668640401005 1:100 2:325 
0.3857708181942508 1:102 2:326 
0.2921416765856616 1:104 2:320 
1 1:106 2:336 
0.1823248046375799 1:108 2:347 
0.5654005739000831 1:112 2:343 
0.4321384771046035 1:116 2:317 
0.3227197877397946 1:122 2:229 
0.561103018641262 1:126 2:325 
1 1:128 2:322 
0.9631448536986116 1:130 2:225 
0.7315778711008616 1:132 2:245 
0.1158780840058897 1:134 2:248 
0.5170571537458089 1:136 2:244 
1 1:144 2:237 
1 1:146 2:0 
0.6256822963167886 1:148 2:197 
0.2606642734215425 1:150 2:193 
0.4278387041906294 1:154 2:185 
0.7051052528792887 1:156 2:6 
0.1676265116511097 1:158 2:162 
0.3261639083355152 1:160 2:118 
1 1:170 2:134 
0.187075370113221 1:174 2:238 
0.2750765731502569 1:178 2:330 
0.2738906901042031 1:180 2:329 
0.3165344614286149 1:188 2:341 
0.2452096229366166 1:194 2:372 
0.6182749248323259 1:98 2:325 
0.6324080650893851 1:100 2:286 
0.5871721245467159 1:102 2:318 
0.6502611612383034 1:104 2:285 
1 1:112 2:345 
0.6282365244952093 1:116 2:308 
1 1:122 2:230 
0.396211205429762 1:126 2:319 
1 1:128 2:315 
1 1:130 2:233 
0.7411874532604796 1:132 2:235 
0.3545402043052453 1:134 2:245 
0.6804531200073149 1:140 2:274 
0.6209877699438265 1:142 2:264 
1 1:144 2:249 
0.6141767657495734 1:146 2:32 
0.6736108877873479 1:148 2:172 
0.3263771573857881 1:154 2:180 
0.7133483254843807 1:158 2:144 
0.06839341235165368 1:164 2:256 
0.2599856906269485 1:168 2:265 
0.9488461611048142 1:170 2:137 
0.4504856205463412 1:172 2:243 
0.3748887296361159 1:174 2:231 
1 1:180 2:325 
0.2372835675139645 1:188 2:340 
1 1:190 2:349 
0.7048936989127164 1:98 2:330 
0.6326807733938183 1:100 2:282 
0.5384137630325014 1:102 2:296 
0.3962785810082975 1:104 2:288 
1 1:106 2:318 
0.4070603092590442 1:108 2:337 
0.5543539274062819 1:114 2:326 
0.6859203935109922 1:116 2:303 
0.6974074614598715 1:118 2:208 
1 1:120 2:314 
1 1:122 2:229 
1 1:126 2:321 
0.701431703251888 1:128 2:312 
0.04563262793432712 1:130 2:224 
0.8573332973588692 1:132 2:232 
0.4846856286373241 1:134 2:243 
0.6345823735059597 1:136 2:238 
0.3608737746799304 1:142 2:257 
0.3173816796567799 1:144 2:241 
0.3249053332247262 1:146 2:21 
1 1:148 2:187 
0.6140640892776804 1:150 2:197 
1 1:158 2:152 
0.1791112624519807 1:162 2:189 
1 1:164 2:256 
1 1:170 2:138 
0.3310184444532868 1:174 2:232 
1 1:176 2:288 
0.1599329670077756 1:178 2:316 
1 1:192 2:360 
0.7042159847908673 1:98 2:346 
0.5341860972381511 1:100 2:284 
0.6095295336757645 1:102 2:294 
0.6831709604461909 1:106 2:321 
0.7405295730918993 1:108 2:342 
0.9761251878015604 1:110 2:400 
0.5594712393113783 1:116 2:306 
0.70515651105217 1:118 2:216 
0.5076676169566017 1:122 2:245 
0.9762446777542098 1:124 2:400 
1 1:126 2:325 
1 1:128 2:320 
0.05033837865361898 1:130 2:229 
0.8138756420456169 1:132 2:239 
0.4674273792160059 1:134 2:241 
0.481023448131722 1:136 2:242 
0.9767817187965644 1:138 2:400 
1 1:140 2:272 
0.02669206340145684 1:142 2:260 
0.9234789532872183 1:144 2:265 
0.6912632550109424 1:146 2:27 
0.5136909813943605 1:150 2:202 
0.9768761767090665 1:152 2:400 
0.6440901572798474 1:154 2:169 
0.5374887991303169 1:158 2:153 
0.4400974092109233 1:160 2:61 
1 1:162 2:190 
0.6025134622638019 1:164 2:257 
0.9771187692763654 1:166 2:400 
1 1:168 2:261 
0.6581919553327056 1:170 2:144 
1 1:172 2:229 
1 1:174 2:221 
1 1:176 2:290 
1 1:178 2:315 
0.9786810425002443 1:182 2:400 
1 1:188 2:328 
1 1:190 2:347 
1 1:194 2:366 
0.9808215928091366 1:196 2:400 
0.6262555630975486 1:98 2:340 
0.7052275640305913 1:100 2:272 
0.7049296340975868 1:102 2:300 
0.563961658053289 1:104 2:290 
0.4828607272439778 1:106 2:330 
0.449484139204175 1:108 2:340 
1 1:110 2:400 
1 1:112 2:345 
0.4755968053805962 1:116 2:318 
0.6978038050858959 1:118 2:211 
0.7614174365145888 1:120 2:312 
1 1:124 2:400 
1 1:126 2:319 
1 1:128 2:318 
0.9080300525234212 1:130 2:230 
0.5433275785986634 1:132 2:241 
0.09775236352755891 1:134 2:246 
0.009396626592899939 1:136 2:243 
1 1:138 2:400 
0.4393166973392345 1:140 2:271 
0.791046098733031 1:142 2:268 
1 1:144 2:269 
0.5936085762831459 1:150 2:194 
1 1:152 2:400 
0.6277397228259727 1:154 2:176 
0.978484240110989 1:158 2:128 
0.4263187467175846 1:160 2:51 
0.3659368730729786 1:162 2:182 
0.2408135241700938 1:164 2:254 
1 1:166 2:400 
1 1:168 2:246 
0.5123615718709404 1:170 2:141 
0.6708231676794951 1:172 2:223 
0.1959585948396493 1:176 2:284 
1 1:178 2:314 
1 1:182 2:400 
1 1:188 2:327 
1 1:190 2:342 
0.1242596236458363 1:194 2:368 
1 1:196 2:400 
0.1025280744070837 1:98 2:367 
0.7052164064311137 1:100 2:242 
0.4049787835567451 1:102 2:327 
0.6210762435495358 1:104 2:296 
0.6261317635058012 1:106 2:327 
0.5706200825895584 1:108 2:338 
1 1:110 2:400 
1 1:112 2:350 
0.5471811985386578 1:114 2:328 
0.874189075052453 1:116 2:323 
1 1:120 2:332 
1 1:124 2:400 
0.7690451896197972 1:128 2:308 
1 1:130 2:252 
1 1:132 2:266 
1 1:134 2:281 
0.6210660039439013 1:136 2:216 
1 1:138 2:400 
0.7336144067553121 1:140 2:294 
0.6926403935323117 1:142 2:261 
1 1:144 2:248 
0.8099068398405459 1:146 2:76 
1 1:148 2:217 
0.5567484114311309 1:150 2:235 
1 1:152 2:400 
0.6248655951852242 1:154 2:189 
0.3257129227654377 1:158 2:197 
1 1:162 2:225 
0.3018097690352569 1:164 2:238 
1 1:166 2:400 
0.2592772822046749 1:174 2:205 
1 1:176 2:280 
1 1:182 2:400 
0.3585840698783672 1:184 2:334 
1 1:196 2:400 
1 1:198 2:371 
0.7052347817862632 1:100 2:257 
0.5491566294776145 1:102 2:320 
0.3703625081663423 1:104 2:287 
1 1:106 2:316 
0.5769903811298512 1:108 2:345 
1 1:110 2:400 
0.03527256105322071 1:112 2:347 
0.5535322414573159 1:114 2:330 
0.5535233201614208 1:116 2:320 
0.621017214589429 1:118 2:232 
0.418687206834342 1:122 2:248 
1 1:124 2:400 
0.6828902964659993 1:128 2:297 
0.1498196930617961 1:130 2:253 
1 1:132 2:271 
1 1:134 2:276 
0.2980343911081769 1:136 2:246 
1 1:138 2:400 
1 1:140 2:285 
0.7272481138651067 1:142 2:259 
1 1:144 2:245 
0.4655872385524619 1:148 2:215 
1 1:152 2:400 
0.6978529256131589 1:154 2:166 
0.7056861769232423 1:158 2:171 
0.6322144743613082 1:160 2:33 
1 1:162 2:225 
1 1:164 2:242 
1 1:166 2:400 
1 1:168 2:250 
0.3051414702775802 1:170 2:142 
1 1:172 2:217 
1 1:174 2:220 
1 1:176 2:274 
0.7897985299564477 1:178 2:323 
0.2382302566733639 1:180 2:330 
1 1:182 2:400 
0.07523827168939572 1:184 2:335 
1 1:192 2:359 
1 1:194 2:368 
1 1:196 2:400 
0.6897129888003823 1:98 2:322 
0.7050962898046824 1:100 2:309 
0.6513926069596145 1:102 2:330 
0.6172984408592214 1:104 2:292 
0.2737172698313163 1:106 2:329 
0.6122082649732011 1:108 2:348 
1 1:110 2:400 
0.4393088167056575 1:112 2:344 
0.2182754307622482 1:114 2:335 
0.432740979009919 1:116 2:326 
0.7055351537680831 1:118 2:238 
0.9661444497855256 1:120 2:327 
0.6512013805676042 1:122 2:259 
1 1:124 2:400 
1 1:126 2:336 
0.6941975411042489 1:128 2:301 
0.6278390694769249 1:130 2:257 
0.8236704116957652 1:132 2:266 
0.2185595314322676 1:134 2:288 
0.429511986932003 1:136 2:247 
1 1:138 2:400 
1 1:140 2:284 
0.6941467857324741 1:142 2:248 
0.2336388008735395 1:144 2:236 
0.4942346259074327 1:146 2:62 
0.1911219160007337 1:150 2:234 
1 1:152 2:400 
0.7049732197575178 1:154 2:161 
0.6024830892714643 1:158 2:175 
0.4383893437076299 1:160 2:60 
0.723468094790884 1:162 2:215 
0.5964349167347336 1:164 2:230 
1 1:166 2:400 
1 1:168 2:237 
1 1:170 2:131 
1 1:172 2:209 
0.3153074582807137 1:174 2:226 
1 1:176 2:268 
1 1:178 2:319 
0.3339463625768517 1:180 2:327 
1 1:182 2:400 
1 1:196 2:400 
1 1:198 2:362 
0.1330827102254871 1:100 2:366 
0.4338687738815028 1:102 2:360 
1 1:104 2:340 
0.308425043473355 1:108 2:359 
1 1:110 2:400 
1 1:112 2:363 
0.7372979914551258 1:116 2:347 
0.5762222982059771 1:118 2:274 
0.3635004402084732 1:122 2:257 
1 1:124 2:400 
1 1:128 2:321 
0.6083031034217222 1:130 2:280 
1 1:134 2:310 
1 1:136 2:300 
1 1:138 2:400 
0.4536102605839242 1:140 2:324 
1 1:142 2:292 
1 1:144 2:253 
1 1:146 2:6 
1 1:148 2:223 
0.8079912172291993 1:150 2:241 
1 1:152 2:400 
0.7044962848662534 1:156 2:0 
0.4272426374348547 1:158 2:190 
0.7056702440962889 1:160 2:110 
0.6567742619488008 1:162 2:240 
1 1:164 2:262 
1 1:166 2:400 
1 1:170 2:172 
1 1:172 2:260 
1 1:176 2:276 
1 1:182 2:400 
0.3467725851703657 1:184 2:338 
1 1:196 2:400 
1 1:98 2:391 
1 1:100 2:388 
1 1:102 2:372 
1 1:104 2:369 
1 1:108 2:366 
1 1:110 2:400 
1 1:112 2:365 
1 1:114 2:365 
0.08247375549265588 1:116 2:352 
0.6465058508151931 1:118 2:305 
1 1:120 2:347 
1 1:122 2:277 
1 1:124 2:400 
1 1:132 2:318 
1 1:134 2:333 
1 1:136 2:334 
1 1:138 2:400 
1 1:140 2:345 
1 1:142 2:321 
0.03063997995415424 1:144 2:310 
0.5834519869606869 1:148 2:272 
1 1:150 2:287 
1 1:152 2:400 
1 1:154 2:270 
0.9203982371794487 1:156 2:140 
1 1:158 2:221 
0.6988700879889913 1:160 2:176 
1 1:162 2:264 
0.6536755432830591 1:164 2:276 
1 1:166 2:400 
0.3335043791620881 1:168 2:276 
0.9605694749978624 1:170 2:192 
1 1:172 2:254 
0.4399279701225164 1:174 2:234 
0.9750661348019803 1:176 2:284 
0.4768676165522011 1:178 2:335 
0.3768115309815112 1:180 2:345 
1 1:182 2:400 
0.3086478073313913 1:184 2:344 
0.3453052483290615 1:186 2:345 
0.1170472817476943 1:188 2:347 
0.3021002014034371 1:190 2:364 
1 1:196 2:400 
0.5491234555858018 1:98 2:399 
1 1:102 2:389 
0.0531908997763212 1:104 2:377 
0.6988046307643848 1:106 2:392 
1 1:108 2:383 
1 1:110 2:400 
0.3902773651275795 1:112 2:381 
0.3627141793828279 1:114 2:382 
0.5526805817526285 1:118 2:311 
1 1:124 2:400 
0.3491218810706948 1:126 2:362 
1 1:128 2:340 
1 1:130 2:303 
1 1:134 2:332 
1 1:138 2:400 
1 1:142 2:336 
0.7055227218724458 1:144 2:321 
0.812411584968173 1:146 2:131 
1 1:148 2:250 
0.9261591424429096 1:150 2:279 
1 1:152 2:400 
0.313305179493871 1:154 2:262 
0.3017026495548686 1:158 2:187 
0.7870634981212854 1:160 2:135 
0.3869536294952627 1:164 2:270 
1 1:166 2:400 
1 1:168 2:271 
1 1:172 2:252 
1 1:176 2:285 
0.2394339258061401 1:178 2:328 
1 1:182 2:400 
0.1464382398944528 1:184 2:342 
0.4290889720772454 1:186 2:343 
1 1:196 2:400 
0.1841187588009628 1:200 2:383 
0.9513958783954668 1:98 2:396 
1 1:100 2:394 
1 1:104 2:375 
0.8467156623403348 1:106 2:384 
1 1:108 2:379 
1 1:110 2:400 
0.6146552718666801 1:114 2:379 
1 1:116 2:360 
0.324050989242897 1:118 2:291 
0.852282476597279 1:120 2:363 
0.7382338696873667 1:122 2:280 
1 1:124 2:400 
1 1:128 2:347 
1 1:130 2:303 
0.866137174805091 1:132 2:320 
1 1:134 2:330 
1 1:136 2:325 
1 1:138 2:400 
1 1:142 2:332 
1 1:144 2:316 
0.438266346858769 1:146 2:124 
1 1:150 2:268 
1 1:152 2:400 
0.6167658042284074 1:156 2:136 
0.6958353685426899 1:158 2:180 
1 1:160 2:126 
1 1:162 2:245 
1 1:164 2:267 
1 1:166 2:400 
0.6486984632704302 1:168 2:275 
1 1:170 2:170 
1 1:172 2:248 
0.5112374132255713 1:174 2:228 
1 1:176 2:268 
1 1:182 2:400 
0.2702406857642584 1:184 2:343 
0.4668516513645384 1:192 2:371 
1 1:196 2:400 
0.1684250125646304 1:202 2:386 
1 1:98 2:395 
1 1:100 2:394 
1 1:104 2:374 
0.2489851363088907 1:108 2:377 
1 1:110 2:400 
0.3196616884752373 1:112 2:377 
1 1:114 2:372 
1 1:116 2:367 
0.34370925986065 1:118 2:286 
1 1:120 2:357 
1 1:122 2:279 
1 1:124 2:400 
1 1:126 2:352 
1 1:128 2:342 
1 1:132 2:321 
1 1:134 2:332 
1 1:138 2:400 
1 1:140 2:348 
1 1:142 2:328 
1 1:144 2:300 
0.7051162620029718 1:146 2:118 
1 1:148 2:238 
0.2432455557830298 1:150 2:254 
1 1:152 2:400 
0.7232016526245186 1:154 2:223 
0.8279576188696457 1:162 2:246 
1 1:164 2:265 
1 1:166 2:400 
0.2567587257878897 1:170 2:161 
0.4813789662901387 1:172 2:242 
0.1362445539738156 1:174 2:227 
0.1154365406894935 1:176 2:279 
0.8759496254734247 1:178 2:328 
0.3470270879825563 1:180 2:334 
1 1:182 2:400 
0.4566316869407151 1:192 2:369 
1 1:196 2:400 
0.2704196196567183 1:198 2:381 
0.1878348325902742 1:200 2:382 
0.2641797913619105 1:202 2:388 
0.1282388484887274 1:204 2:391 
0.7712524172300698 1:102 2:387 
1 1:104 2:374 
0.6154369130930821 1:106 2:387 
1 1:110 2:400 
0.6716184234184713 1:112 2:374 
1 1:114 2:373 
0.6094634169557811 1:116 2:365 
0.1437565479012402 1:118 2:292 
1 1:120 2:355 
0.723640971675155 1:122 2:271 
1 1:124 2:400 
0.4421821927023732 1:126 2:358 
0.0767986419481901 1:128 2:344 
1 1:130 2:311 
1 1:134 2:330 
1 1:136 2:321 
1 1:138 2:400 
0.9294556702557587 1:140 2:346 
0.2244366597249251 1:142 2:330 
1 1:144 2:311 
1 1:146 2:81 
1 1:152 2:400 
0.4480786710442862 1:156 2:79 
0.6454072971262284 1:158 2:194 
0.7292187944244319 1:160 2:143 
1 1:162 2:236 
1 1:164 2:262 
1 1:166 2:400 
0.5717176018146449 1:168 2:260 
1 1:170 2:143 
0.9750799821512077 1:172 2:232 
1 1:174 2:214 
1 1:176 2:264 
0.6857289870526718 1:178 2:315 
0.2648408033631325 1:180 2:331 
1 1:182 2:400 
0.4515645942633203 1:184 2:341 
0.1508370685757777 1:190 2:355 
0.3277864622288639 1:194 2:375 
1 1:196 2:400 
0.3328407355773949 1:204 2:390 
1 1:100 2:394 
1 1:104 2:371 
1 1:108 2:378 
1 1:110 2:400 
1 1:116 2:363 
0.5200260273066132 1:118 2:293 
0.8600835251193145 1:120 2:361 
1 1:122 2:287 
1 1:124 2:400 
1 1:126 2:357 
1 1:128 2:344 
0.3661699341298907 1:130 2:314 
1 1:134 2:332 
1 1:138 2:400 
1 1:148 2:258 
0.738977005802572 1:150 2:269 
1 1:152 2:400 
0.8919059106822047 1:154 2:234 
1 1:156 2:109 
0.4697409738047267 1:158 2:203 
0.8941926160845733 1:160 2:148 
1 1:162 2:256 
1 1:166 2:400 
1 1:168 2:265 
0.3437975480110453 1:170 2:175 
0.09582582894614568 1:172 2:238 
1 1:174 2:206 
1 1:176 2:265 
1 1:178 2:320 
0.5132622155741664 1:180 2:340 
1 1:182 2:400 
0.1294059939301497 1:184 2:345 
0.02572694404347276 1:186 2:342 
0.3999812019064664 1:188 2:348 
0.1415151216861088 1:194 2:376 
1 1:196 2:400 
0.509940492000998 1:100 2:398 
1 1:104 2:370 
1 1:108 2:377 
1 1:110 2:400 
0.8518545184163584 1:112 2:373 
1 1:114 2:369 
1 1:116 2:361 
0.4992565763845956 1:118 2:296 
1 1:122 2:287 
1 1:124 2:400 
0.8895085086500724 1:126 2:359 
0.062045095913311 1:128 2:343 
1 1:130 2:311 
0.5740249517048954 1:132 2:330 
1 1:134 2:332 
1 1:136 2:322 
1 1:138 2:400 
0.9012070914983653 1:142 2:333 
1 1:144 2:298 
1 1:146 2:130 
0.376607907616373 1:148 2:257 
1 1:150 2:272 
1 1:152 2:400 
0.8409246842297559 1:154 2:229 
0.4272426072695842 1:156 2:119 
0.2303154293499897 1:158 2:198 
1 1:160 2:131 
0.9085570880713223 1:162 2:247 
0.5036501433983437 1:164 2:260 
1 1:166 2:400 
1 1:168 2:259 
0.1521632005265684 1:172 2:227 
0.555061822459513 1:174 2:184 
1 1:176 2:250 
1 1:178 2:313 
0.4508075177044635 1:180 2:336 
1 1:182 2:400 
0.3368529102857063 1:188 2:345 
0.1325475851148981 1:192 2:366 
1 1:194 2:368 
1 1:196 2:400 
0.2335866333010883 1:200 2:379 
0.964330062633275 1:100 2:396 
0.3639591983943919 1:102 2:383 
1 1:104 2:370 
1 1:108 2:379 
1 1:110 2:400 
0.6206870208155979 1:112 2:376 
1 1:114 2:368 
1 1:116 2:362 
0.6922061279334222 1:118 2:300 
1 1:120 2:360 
1 1:122 2:286 
1 1:124 2:400 
1 1:126 2:358 
1 1:128 2:345 
1 1:130 2:308 
1 1:134 2:335 
1 1:138 2:400 
0.4674475777291707 1:140 2:343 
1 1:142 2:332 
1 1:144 2:310 
1 1:148 2:260 
1 1:152 2:400 
1 1:154 2:240 
0.01800058399427534 1:156 2:139 
0.5941282411495186 1:158 2:199 
0.1204369194853478 1:160 2:137 
0.06936943322181571 1:162 2:229 
1 1:164 2:250 
1 1:166 2:400 
0.4797007328646808 1:168 2:257 
1 1:172 2:229 
0.5734979710447523 1:174 2:175 
1 1:178 2:300 
0.3784770513600476 1:180 2:322 
1 1:182 2:400 
0.175436439780859 1:184 2:333 
1 1:196 2:400 
1 1:200 2:376 
1 1:108 2:377 
1 1:110 2:400 
0.2170861844528017 1:112 2:379 
1 1:114 2:369 
1 1:116 2:366 
1 1:118 2:331 
1 1:124 2:400 
0.5305258232535276 1:126 2:354 
0.3217987847495155 1:128 2:349 
0.6172319236099634 1:136 2:326 
1 1:138 2:400 
0.6403825472037308 1:144 2:319 
0.6143498924063855 1:146 2:152 
0.9731287678298706 1:148 2:274 
0.8620976682514194 1:150 2:290 
1 1:152 2:400 
0.7042352269141678 1:154 2:255 
0.2429899718395447 1:156 2:113 
1 1:158 2:250 
0.4395269439408706 1:160 2:102 
1 1:162 2:259 
1 1:164 2:272 
1 1:166 2:400 
1 1:168 2:259 
1 1:170 2:163 
0.6481267302664152 1:172 2:247 
1 1:174 2:172 
1 1:178 2:307 
1 1:180 2:315 
1 1:182 2:400 
0.3571980910103447 1:186 2:329 
0.3128716133231267 1:194 2:373 
1 1:196 2:400 
1 1:100 2:394 
1 1:102 2:380 
1 1:104 2:379 
0.3337737677280233 1:106 2:381 
0.4600020154860682 1:108 2:380 
1 1:110 2:400 
1 1:112 2:377 
1 1:114 2:373 
1 1:116 2:363 
1 1:118 2:331 
1 1:124 2:400 
1 1:126 2:352 
1 1:128 2:349 
1 1:138 2:400 
1 1:142 2:341 
1 1:144 2:326 
0.5300897801254529 1:146 2:155 
0.5857613293187748 1:148 2:270 
0.9236691476542604 1:150 2:283 
1 1:152 2:400 
0.6077046861707728 1:154 2:257 
0.7001496863087285 1:156 2:122 
0.2381794883019226 1:158 2:242 
0.4377016146458524 1:160 2:101 
0.6307072283834362 1:162 2:254 
1 1:166 2:400 
0.6439315497910216 1:168 2:254 
1 1:170 2:166 
0.2976822274542927 1:172 2:246 
0.9925218300202536 1:174 2:175 
0.3863065269676959 1:176 2:243 
1 1:178 2:306 
1 1:180 2:319 
1 1:182 2:400 
0.3362637242975232 1:186 2:337 
1 1:196 2:400 
1 1:100 2:394 
1 1:104 2:377 
1 1:108 2:377 
1 1:110 2:400 
0.2912264962254479 1:112 2:378 
1 1:114 2:371 
1 1:116 2:364 
1 1:118 2:328 
0.744690883673339 1:122 2:310 
1 1:124 2:400 
1 1:126 2:355 
0.9462794946138841 1:128 2:349 
0.1390662322882512 1:130 2:318 
0.4803628592975978 1:132 2:332 
0.9951468988238653 1:136 2:326 
1 1:138 2:400 
0.6743005014764571 1:140 2:347 
1 1:142 2:336 
0.7244708881201797 1:150 2:286 
1 1:152 2:400 
1 1:154 2:266 
0.4451363216741476 1:156 2:118 
1 1:158 2:245 
1 1:162 2:246 
1 1:164 2:264 
1 1:166 2:400 
1 1:168 2:249 
0.7063054003392473 1:170 2:179 
1 1:172 2:237 
1 1:174 2:179 
0.1600572169713577 1:176 2:235 
1 1:178 2:304 
1 1:180 2:316 
1 1:182 2:400 
0.4861980370118529 1:186 2:335 
0.322688827234594 1:190 2:353 
1 1:196 2:400 
1 1:98 2:394 
1 1:100 2:393 
1 1:104 2:377 
0.06568943057543308 1:106 2:380 
1 1:108 2:378 
1 1:110 2:400 
0.7258326731163337 1:112 2:376 
1 1:114 2:369 
0.8090546484496148 1:116 2:366 
1 1:118 2:326 
0.05532995198066663 1:120 2:317 
1 1:122 2:318 
1 1:124 2:400 
1 1:126 2:353 
0.1918285151104939 1:130 2:316 
1 1:138 2:400 
0.9874841411919975 1:140 2:346 
1 1:142 2:340 
0.7811952069827433 1:144 2:324 
1 1:150 2:291 
1 1:152 2:400 
1 1:154 2:264 
1 1:156 2:112 
1 1:158 2:232 
0.3243602605717953 1:160 2:94 
0.6792129127900288 1:162 2:252 
0.3596534529174476 1:164 2:275 
1 1:166 2:400 
1 1:168 2:245 
1 1:170 2:180 
1 1:172 2:234 
1 1:174 2:182 
0.999197090772741 1:176 2:243 
1 1:178 2:311 
1 1:180 2:315 
1 1:182 2:400 
0.2267406327512233 1:184 2:330 
0.08712487356363331 1:190 2:357 
1 1:194 2:367 
1 1:196 2:400 
0.2440059567954957 1:200 2:381 
0.7571358896197861 1:98 2:395 
1 1:100 2:395 
0.7471946128544875 1:106 2:378 
0.9855260432883877 1:108 2:377 
1 1:110 2:400 
0.001302003220512271 1:112 2:375 
1 1:114 2:371 
1 1:116 2:365 
1 1:118 2:329 
0.3305200911956916 1:120 2:320 
1 1:122 2:311 
1 1:124 2:400 
1 1:126 2:352 
0.1060743539218441 1:128 2:348 
0.2511831939237901 1:130 2:315 
0.9982350740500177 1:132 2:332 
1 1:136 2:328 
1 1:138 2:400 
0.5942547966048749 1:140 2:349 
1 1:142 2:339 
1 1:144 2:328 
0.6368482469093085 1:146 2:141 
1 1:148 2:251 
0.7036848422334806 1:150 2:279 
1 1:152 2:400 
0.6204301411048896 1:154 2:259 
1 1:156 2:107 
1 1:158 2:227 
0.8960134377947815 1:160 2:74 
1 1:166 2:400 
0.8934906340005373 1:168 2:246 
0.5986522880614796 1:170 2:167 
0.6811400538304775 1:172 2:226 
1 1:174 2:165 
1 1:178 2:305 
1 1:180 2:318 
1 1:182 2:400 
0.06940900012584225 1:184 2:326 
0.5124083122346292 1:190 2:360 
1 1:192 2:358 
1 1:196 2:400 
0.1468815849404601 1:200 2:380 
0.1695013718925335 1:98 2:398 
0.9944275255175447 1:102 2:387 
1 1:104 2:383 
0.6144660065441192 1:106 2:389 
1 1:108 2:385 
1 1:110 2:400 
1 1:114 2:376 
1 1:116 2:370 
1 1:120 2:338 
1 1:124 2:400 
1 1:126 2:357 
1 1:128 2:352 
1 1:132 2:334 
1 1:136 2:333 
1 1:138 2:400 
1 1:142 2:343 
1 1:144 2:313 
0.4554405956367727 1:148 2:267 
1 1:150 2:293 
1 1:152 2:400 
0.6528419833356798 1:154 2:263 
0.7015080314036081 1:160 2:97 
1 1:162 2:244 
0.04416454431016977 1:164 2:269 
1 1:166 2:400 
0.3257454639363542 1:168 2:256 
0.8801162817721182 1:170 2:184 
0.9651569621192735 1:172 2:230 
1 1:174 2:189 
1 1:176 2:269 
1 1:178 2:316 
1 1:182 2:400 
0.3650411044920098 1:186 2:339 
0.3523981496853766 1:188 2:343 
0.08451111095015235 1:192 2:364 
0.2655853807494307 1:194 2:371 
1 1:196 2:400 
0.23005923249396 1:198 2:375 
0.315279498950561 1:202 2:385 
0.3398597031957158 1:204 2:392 
0.3660707188912869 1:206 2:394 
1 1:98 2:394 
1 1:100 2:393 
0.2056515891115752 1:102 2:385 
1 1:104 2:380 
1 1:108 2:380 
1 1:110 2:400 
0.9203915120872511 1:112 2:377 
1 1:114 2:372 
1 1:116 2:370 
1 1:118 2:322 
0.209366743315754 1:120 2:333 
1 1:124 2:400 
1 1:126 2:351 
1 1:128 2:347 
0.7507700568433793 1:130 2:319 
0.7175627350169046 1:132 2:334 
1 1:134 2:335 
0.693884574501425 1:136 2:329 
1 1:138 2:400 
1 1:142 2:342 
1 1:144 2:315 
0.621282650099644 1:146 2:150 
0.7229255979415448 1:148 2:262 
1 1:152 2:400 
1 1:154 2:274 
0.6546471471124684 1:156 2:170 
0.8107960418200525 1:158 2:249 
1 1:160 2:90 
0.6941655217111503 1:162 2:236 
1 1:164 2:268 
1 1:166 2:400 
1 1:172 2:220 
1 1:174 2:180 
1 1:176 2:260 
1 1:178 2:319 
1 1:182 2:400 
0.1260498534278841 1:188 2:342 
0.3478940630401975 1:190 2:358 
0.5499271409750813 1:192 2:361 
1 1:196 2:400 
0.6212708088570268 1:100 2:386 
1 1:102 2:372 
1 1:108 2:369 
1 1:110 2:400 
1 1:112 2:363 
0.999172104169498 1:114 2:358 
0.3467535386660056 1:116 2:353 
0.4152961268358965 1:118 2:277 
1 1:120 2:327 
1 1:122 2:297 
1 1:124 2:400 
0.6148897819397108 1:126 2:343 
1 1:128 2:334 
0.7610943180306616 1:130 2:300 
1 1:132 2:315 
0.8706752331555438 1:134 2:316 
1 1:136 2:316 
1 1:138 2:400 
1 1:140 2:342 
1 1:142 2:322 
1 1:144 2:283 
0.7162132036358981 1:146 2:93 
0.9600858219590885 1:148 2:203 
1 1:152 2:400 
0.5276132403733945 1:154 2:244 
1 1:156 2:112 
0.6890146554366636 1:158 2:202 
0.9363355039194585 1:162 2:202 
0.03103449684375121 1:164 2:235 
1 1:166 2:400 
0.8928997341602778 1:168 2:229 
1 1:170 2:121 
0.5525380738789963 1:172 2:181 
1 1:174 2:158 
1 1:176 2:256 
1 1:178 2:317 
0.2135103860767237 1:180 2:328 
1 1:182 2:400 
0.4862073162138007 1:184 2:336 
0.07804889173698995 1:186 2:338 
1 1:192 2:360 
1 1:194 2:365 
1 1:196 2:400 
0.03534460310840228 1:204 2:389 
1 1:98 2:382 
1 1:100 2:376 
0.7279083176553885 1:102 2:364 
1 1:104 2:351 
1 1:106 2:369 
1 1:108 2:363 
1 1:110 2:400 
1 1:112 2:363 
0.6982182580256171 1:116 2:351 
0.1416727780039233 1:118 2:289 
1 1:120 2:322 
0.5721284917339506 1:122 2:282 
1 1:124 2:400 
0.9887897871191977 1:126 2:341 
0.6414462515384651 1:128 2:332 
1 1:130 2:296 
1 1:132 2:314 
1 1:134 2:313 
1 1:136 2:311 
1 1:138 2:400 
1 1:140 2:330 
1 1:142 2:319 
0.250094085590655 1:144 2:303 
1 1:146 2:98 
0.9933553785267952 1:148 2:220 
1 1:152 2:400 
0.49555200920442 1:154 2:181 
0.4235366979487044 1:156 2:59 
0.006462318539679296 1:158 2:216 
0.4236035909124873 1:162 2:181 
0.496425939065161 1:164 2:239 
1 1:166 2:400 
1 1:168 2:225 
0.8524706008269697 1:170 2:127 
1 1:172 2:188 
1 1:174 2:151 
0.3744290202830568 1:176 2:247 
1 1:178 2:308 
1 1:182 2:400 
0.3809421129472906 1:184 2:327 
0.4089553111217108 1:186 2:341 
0.430416547079965 1:188 2:339 
0.1655325629434707 1:190 2:350 
1 1:192 2:359 
0.4495244643749052 1:194 2:367 
1 1:196 2:400 
0.1916342192795825 1:206 2:393 
0.374455227566403 1:100 2:365 
0.6213457510045799 1:104 2:340 
0.7116549964390916 1:106 2:352 
1 1:110 2:400 
1 1:114 2:353 
1 1:116 2:345 
0.3303096773997897 1:118 2:295 
0.6707725626557358 1:120 2:285 
1 1:122 2:275 
1 1:124 2:400 
1 1:126 2:331 
1 1:128 2:325 
0.7983920693317299 1:130 2:290 
1 1:132 2:303 
0.2615368792225662 1:134 2:301 
1 1:136 2:295 
1 1:138 2:400 
0.09609435135207423 1:140 2:318 
0.7564509233107575 1:142 2:305 
1 1:144 2:300 
0.7135246632911875 1:146 2:0 
0.6209398445176116 1:148 2:155 
0.5220533763170228 1:150 2:223 
1 1:152 2:400 
0.3933334783703169 1:154 2:212 
0.7049219357111177 1:156 2:34 
0.5071766500004022 1:158 2:196 
0.7046848509880556 1:160 2:9 
0.367408674373584 1:162 2:164 
0.3060402845096152 1:164 2:236 
1 1:166 2:400 
0.1350601433638272 1:168 2:224 
1 1:170 2:103 
0.8045223419955325 1:172 2:169 
0.4398883562160177 1:174 2:136 
0.657666000060694 1:176 2:240 
1 1:178 2:296 
1 1:180 2:317 
1 1:182 2:400 
1 1:184 2:321 
0.3967023219032756 1:186 2:333 
1 1:188 2:334 
0.3790261858585308 1:190 2:346 
0.2127915092994122 1:194 2:370 
1 1:196 2:400 
0.2126793403446964 1:202 2:383 
0.4550609917505093 1:100 2:352 
0.5817830981954336 1:102 2:350 
0.8304263417814645 1:104 2:324 
1 1:106 2:342 
1 1:110 2:400 
1 1:114 2:350 
1 1:116 2:342 
0.5190918496903359 1:118 2:288 
0.5288883462876404 1:120 2:283 
1 1:122 2:264 
1 1:124 2:400 
1 1:126 2:327 
1 1:128 2:325 
0.03300542331192657 1:132 2:289 
0.7463563886153622 1:134 2:295 
0.419056086047097 1:136 2:285 
1 1:138 2:400 
1 1:140 2:300 
0.6741663159617958 1:142 2:303 
1 1:144 2:289 
1 1:146 2:19 
0.6157818711170877 1:148 2:138 
0.6575977641423385 1:150 2:204 
1 1:152 2:400 
1 1:154 2:194 
0.4383873475254131 1:156 2:19 
0.7045218785960093 1:160 2:0 
1 1:162 2:164 
1 1:164 2:218 
1 1:166 2:400 
1 1:168 2:219 
1 1:170 2:93 
0.6889797824167485 1:172 2:158 
0.6984515186802194 1:174 2:102 
0.7786204852941336 1:176 2:219 
1 1:178 2:292 
1 1:180 2:313 
1 1:182 2:400 
0.3687970753501245 1:184 2:317 
1 1:186 2:322 
0.7357928481544377 1:188 2:325 
1 1:196 2:400 
1 1:198 2:365 
0.06414009597065627 1:202 2:377 
0.6050735165496979 1:98 2:356 
0.6061492566640543 1:102 2:339 
1 1:104 2:334 
1 1:110 2:400 
0.4891341239942598 1:112 2:349 
0.9104969734280952 1:114 2:340 
0.9586342632069091 1:116 2:345 
0.3277719592919169 1:118 2:290 
0.6926900233010728 1:120 2:278 
0.4096126246910999 1:122 2:269 
1 1:124 2:400 
1 1:126 2:332 
1 1:128 2:323 
1 1:130 2:292 
0.6175532182017252 1:132 2:294 
1 1:134 2:286 
1 1:136 2:291 
1 1:138 2:400 
1 1:140 2:299 
0.6960416214951277 1:142 2:297 
1 1:146 2:60 
0.7294134033511244 1:148 2:147 
0.575139409644751 1:150 2:212 
1 1:152 2:400 
0.4388379886408197 1:154 2:184 
0.5699820492096905 1:156 2:44 
0.8206192299603575 1:158 2:206 
0.4387051228277912 1:160 2:23 
0.9589483099733385 1:162 2:194 
1 1:164 2:216 
1 1:166 2:400 
1 1:168 2:207 
0.719366921015256 1:170 2:100 
0.8070318332627027 1:172 2:151 
1 1:178 2:288 
1 1:180 2:305 
1 1:182 2:400 
1 1:184 2:317 
1 1:186 2:323 
1 1:188 2:322 
0.3802381570646828 1:194 2:364 
1 1:196 2:400 
1 1:198 2:366 
0.9222538015773055 1:200 2:373 
1 1:206 2:384 
0.4313663920747483 1:98 2:366 
0.5249413568590254 1:100 2:358 
1 1:102 2:368 
0.4515470725936568 1:104 2:319 
1 1:106 2:361 
0.2734662123697839 1:108 2:357 
1 1:110 2:400 
1 1:112 2:349 
1 1:116 2:348 
0.5737289808532964 1:118 2:282 
0.8079758588210002 1:120 2:340 
0.4888188506061371 1:122 2:251 
1 1:124 2:400 
1 1:128 2:348 
1 1:130 2:281 
0.5313300050480543 1:132 2:316 
0.2548746402213057 1:134 2:312 
1 1:136 2:289 
1 1:138 2:400 
1 1:140 2:332 
0.2168523712254627 1:142 2:285 
1 1:144 2:304 
0.614521601276637 1:146 2:30 
0.7746384988874504 1:148 2:264 
0.996249152087846 1:150 2:254 
1 1:152 2:400 
0.8845665802232074 1:154 2:240 
0.2673470195821381 1:156 2:101 
1 1:158 2:216 
0.6325855063468995 1:160 2:93 
1 1:162 2:202 
1 1:166 2:400 
0.9396455380044415 1:168 2:268 
1 1:170 2:109 
1 1:172 2:227 
1 1:176 2:247 
0.8852122452609564 1:178 2:307 
1 1:180 2:306 
1 1:182 2:400 
1 1:184 2:320 
0.0764399952987414 1:186 2:334 
1 1:188 2:338 
1 1:192 2:359 
1 1:196 2:400 
0.5174766408725101 1:204 2:388 
0.5276606798065413 1:98 2:364 
0.6207860963601266 1:100 2:362 
0.9990573261653345 1:102 2:365 
0.8959433072562391 1:104 2:315 
1 1:106 2:353 
1 1:110 2:400 
0.7230859421673153 1:112 2:346 
1 1:114 2:352 
0.5534214799541082 1:118 2:272 
1 1:120 2:334 
1 1:122 2:266 
1 1:124 2:400 
0.9828521201649829 1:126 2:337 
1 1:128 2:344 
1 1:132 2:311 
0.9801341797886484 1:134 2:312 
1 1:136 2:288 
1 1:138 2:400 
1 1:140 2:323 
0.5326040220547715 1:142 2:276 
1 1:144 2:293 
1 1:148 2:251 
0.5405077190781529 1:150 2:237 
1 1:152 2:400 
0.6597354095685661 1:154 2:235 
1 1:156 2:95 
0.8264126758490209 1:158 2:207 
0.3690656270065271 1:160 2:89 
0.3726062072056687 1:164 2:255 
1 1:166 2:400 
1 1:168 2:251 
0.5918995452362117 1:170 2:88 
1 1:172 2:205 
0.7052048958945358 1:174 2:126 
1 1:176 2:262 
1 1:178 2:295 
1 1:180 2:309 
1 1:182 2:400 
0.2814532323356631 1:186 2:330 
0.3503662073147595 1:188 2:336 
1 1:192 2:359 
1 1:196 2:400 
1 1:198 2:371 
1 1:202 2:379 
0.5655308784342619 1:104 2:328 
1 1:106 2:340 
0.5441763062535178 1:108 2:351 
1 1:110 2:400 
0.4024791007693636 1:112 2:341 
1 1:114 2:350 
0.6051124463113173 1:116 2:344 
0.2528076978938952 1:120 2:321 
0.2224807039672186 1:122 2:263 
1 1:124 2:400 
1 1:126 2:334 
1 1:128 2:335 
0.5791985073065812 1:132 2:298 
1 1:134 2:305 
1 1:136 2:284 
1 1:138 2:400 
0.1166229912940641 1:140 2:319 
1 1:142 2:287 
0.6427819892061014 1:146 2:42 
1 1:148 2:245 
0.2797507221442994 1:150 2:226 
1 1:152 2:400 
0.3903455913727048 1:154 2:213 
1 1:156 2:83 
0.2842521415651512 1:158 2:189 
0.4465859521290975 1:160 2:52 
1 1:164 2:252 
1 1:166 2:400 
1 1:168 2:241 
1 1:170 2:74 
1 1:172 2:198 
0.5124022927585885 1:174 2:121 
1 1:178 2:283 
0.8495513980734536 1:180 2:303 
1 1:182 2:400 
1 1:184 2:319 
1 1:188 2:334 
1 1:190 2:342 
1 1:192 2:358 
1 1:196 2:400 
1 1:198 2:370 
0.6144534469818506 1:98 2:359 
0.1083983960962465 1:106 2:346 
1 1:110 2:400 
0.9844062675692954 1:112 2:349 
1 1:114 2:342 
1 1:116 2:342 
0.3621865770933115 1:118 2:276 
0.3140437263350553 1:120 2:322 
1 1:124 2:400 
1 1:126 2:334 
1 1:128 2:336 
0.4925661011432743 1:130 2:277 
0.7663049254181633 1:132 2:298 
0.6281866392930002 1:134 2:297 
1 1:138 2:400 
1 1:140 2:318 
1 1:142 2:286 
0.6164820722216146 1:144 2:275 
0.8092588914489878 1:146 2:75 
1 1:148 2:189 
0.5326664269828797 1:150 2:216 
1 1:152 2:400 
0.4408967646182278 1:154 2:206 
1 1:156 2:59 
0.6564648806370162 1:158 2:184 
0.8644923140501672 1:162 2:204 
0.2814140753398384 1:164 2:237 
1 1:166 2:400 
0.9808496718711032 1:168 2:224 
0.7053084391308027 1:170 2:64 
1 1:172 2:203 
0.3059709772890872 1:174 2:120 
0.6392749170471816 1:178 2:287 
1 1:180 2:305 
1 1:182 2:400 
1 1:184 2:317 
1 1:188 2:336 
1 1:190 2:348 
1 1:196 2:400 
0.4697818157798104 1:200 2:370 
1 1:202 2:377 
0.9267517263231373 1:206 2:390 
0.3590370181745585 1:98 2:368 
1 1:100 2:374 
0.3063574711659204 1:102 2:355 
1 1:104 2:337 
0.5942907454361177 1:106 2:347 
0.9958518554926022 1:108 2:359 
1 1:110 2:400 
1 1:112 2:352 
1 1:114 2:342 
1 1:116 2:344 
0.6091948266949231 1:118 2:280 
1 1:122 2:261 
1 1:124 2:400 
1 1:126 2:332 
0.2128076351054233 1:128 2:341 
0.8147011163355933 1:132 2:305 
0.0486178779007807 1:136 2:277 
1 1:138 2:400 
1 1:140 2:320 
0.8292374305426757 1:142 2:295 
1 1:146 2:73 
0.9303098324647443 1:148 2:192 
0.6948153079772592 1:150 2:232 
1 1:152 2:400 
0.2977362920602254 1:154 2:218 
1 1:156 2:77 
0.69986375652372 1:160 2:48 
0.794289241733653 1:162 2:198 
1 1:164 2:229 
1 1:166 2:400 
1 1:168 2:222 
0.8796387412893203 1:170 2:104 
1 1:172 2:201 
0.4380675482846025 1:174 2:137 
0.1391588548536661 1:176 2:236 
1 1:178 2:290 
1 1:180 2:307 
1 1:182 2:400 
0.2468318559177667 1:186 2:327 
0.9345225750184252 1:188 2:339 
0.9609701729510707 1:190 2:350 
1 1:194 2:364 
1 1:196 2:400 
0.03457578135280914 1:198 2:372 
0.8174880020809956 1:202 2:380 
0.362392243454763 1:206 2:389 
0.1362372120230888 1:98 2:369 
0.6240634699682254 1:102 2:352 
1 1:106 2:337 
1 1:110 2:400 
1 1:116 2:339 
1 1:120 2:314 
1 1:124 2:400 
1 1:126 2:334 
1 1:128 2:337 
0.4950885908457401 1:130 2:276 
0.5707049395275136 1:134 2:300 
0.832806514546127 1:136 2:268 
1 1:138 2:400 
1 1:140 2:314 
1 1:142 2:285 
0.5536782193040548 1:144 2:281 
1 1:146 2:58 
0.8153766589952491 1:148 2:168 
0.2741176045458161 1:150 2:219 
1 1:152 2:400 
0.5273265689986469 1:154 2:195 
0.689821764019619 1:156 2:56 
0.3608510642092893 1:158 2:165 
0.7049112447694603 1:160 2:28 
0.8353440845614928 1:162 2:185 
1 1:164 2:211 
1 1:166 2:400 
0.8618514570249267 1:168 2:213 
1 1:170 2:101 
1 1:172 2:180 
0.7051543726672094 1:174 2:114 
1 1:176 2:242 
1 1:178 2:288 
1 1:180 2:302 
1 1:182 2:400 
1 1:184 2:319 
1 1:186 2:327 
1 1:188 2:327 
1 1:190 2:345 
1 1:192 2:354 
1 1:194 2:364 
1 1:196 2:400 
1 1:198 2:367 
0.317393391229096 1:200 2:374 
0.008065332863229521 1:204 2:386 
0.349324420524265 1:98 2:370 
0.7928112484129621 1:100 2:371 
0.3791831376423376 1:102 2:357 
1 1:104 2:341 
0.8490197029738636 1:106 2:344 
1 1:108 2:357 
1 1:110 2:400 
0.3557243435894981 1:112 2:355 
0.9062332581598622 1:114 2:340 
0.1921556212427378 1:116 2:337 
0.5444123323544797 1:118 2:270 
0.5975095501446992 1:120 2:318 
0.2160782121468714 1:122 2:253 
1 1:124 2:400 
0.02317701188218997 1:126 2:329 
1 1:128 2:339 
1 1:130 2:273 
0.6637937793224677 1:132 2:290 
1 1:136 2:275 
1 1:138 2:400 
1 1:140 2:311 
1 1:142 2:288 
0.8972285238587971 1:144 2:278 
0.6382207060130619 1:146 2:64 
0.4258087474162068 1:148 2:177 
0.3705219941379924 1:150 2:225 
1 1:152 2:400 
0.6994368155313468 1:156 2:50 
1 1:158 2:158 
0.4386330295050692 1:160 2:24 
1 1:162 2:178 
1 1:164 2:221 
1 1:166 2:400 
0.8549985151575366 1:170 2:94 
1 1:172 2:179 
0.6144176874498057 1:174 2:107 
0.4175892121090883 1:176 2:229 
1 1:178 2:287 
1 1:180 2:302 
1 1:182 2:400 
1 1:184 2:310 
1 1:186 2:321 
1 1:188 2:327 
0.7367891428231085 1:190 2:343 
1 1:192 2:357 
1 1:194 2:363 
1 1:196 2:400 
1 1:198 2:367 
1 1:204 2:383 
0.276745833168472 1:206 2:392 
0.7076436173321924 1:98 2:374 
0.6067373449135151 1:100 2:369 
0.9064319869068822 1:104 2:334 
0.9365320703098086 1:106 2:340 
1 1:110 2:400 
0.3683850657308514 1:112 2:356 
0.8142721837484679 1:114 2:337 
1 1:116 2:337 
0.6310869413474185 1:118 2:268 
0.3364261834689809 1:122 2:246 
1 1:124 2:400 
0.6862338348241024 1:126 2:327 
1 1:128 2:341 
0.4359866748791225 1:130 2:279 
1 1:132 2:294 
0.20233534203708 1:134 2:302 
0.8669646062819197 1:136 2:274 
1 1:138 2:400 
1 1:142 2:293 
0.1902283327456384 1:144 2:276 
0.8515769331885925 1:146 2:53 
0.4654201949525414 1:148 2:176 
0.8199009336289923 1:150 2:228 
1 1:152 2:400 
0.7434572156214212 1:154 2:202 
0.6788641282216186 1:158 2:161 
1 1:162 2:171 
1 1:164 2:214 
1 1:166 2:400 
0.6677824183220279 1:168 2:210 
1 1:170 2:90 
0.5631695231010683 1:172 2:182 
0.6580610890659895 1:174 2:118 
0.5065635910516801 1:176 2:234 
1 1:178 2:287 
1 1:180 2:299 
1 1:182 2:400 
1 1:184 2:313 
0.3578842399187993 1:186 2:325 
1 1:190 2:346 
1 1:194 2:363 
1 1:196 2:400 
1 1:200 2:374 
1 1:202 2:379 
1 1:206 2:389 
0.07815323575004415 1:98 2:371 
1 1:100 2:374 
0.2354906100166872 1:102 2:359 
0.3239251030222042 1:104 2:332 
1 1:106 2:355 
0.5272466052154214 1:108 2:356 
1 1:110 2:400 
1 1:112 2:358 
0.4307030182693071 1:114 2:334 
1 1:116 2:339 
1 1:120 2:317 
0.481215761343349 1:122 2:254 
1 1:124 2:400 
1 1:126 2:323 
1 1:128 2:341 
1 1:130 2:284 
0.6013403446446723 1:132 2:302 
0.9543162060642787 1:134 2:296 
0.4693123173570329 1:136 2:278 
1 1:138 2:400 
0.7501289595235651 1:140 2:313 
0.9968570582126507 1:142 2:289 
1 1:144 2:262 
0.6385873378899014 1:146 2:24 
1 1:148 2:206 
1 1:150 2:242 
1 1:152 2:400 
0.5056443215621537 1:154 2:192 
0.3302131495975095 1:156 2:46 
0.2024594164538262 1:158 2:168 
0.5341971867330666 1:160 2:35 
0.6518450146567427 1:162 2:159 
1 1:164 2:205 
1 1:166 2:400 
0.130962257673509 1:168 2:208 
1 1:170 2:85 
1 1:172 2:182 
0.6143171669071145 1:174 2:105 
0.4052686613876896 1:176 2:230 
1 1:178 2:286 
1 1:180 2:292 
1 1:182 2:400 
1 1:184 2:311 
1 1:186 2:326 
0.3564820744920067 1:188 2:338 
1 1:190 2:345 
1 1:192 2:357 
1 1:194 2:361 
1 1:196 2:400 
1 1:198 2:367 
1 1:200 2:370 
1 1:202 2:377 
1 1:98 2:377 
0.3823241647310273 1:100 2:373 
0.1780255243035561 1:102 2:356 
0.3942237072165998 1:104 2:331 
0.3109471977199787 1:106 2:359 
0.3319444745290873 1:108 2:353 
1 1:110 2:400 
1 1:112 2:352 
0.5685636444033266 1:114 2:332 
1 1:116 2:339 
0.7050415239908492 1:118 2:262 
0.6439629090721266 1:120 2:323 
0.4097171559167272 1:122 2:256 
1 1:124 2:400 
0.9786640371095026 1:126 2:325 
1 1:128 2:339 
1 1:130 2:284 
0.3606372900346533 1:132 2:297 
0.2666339856853424 1:134 2:303 
1 1:136 2:278 
1 1:138 2:400 
1 1:140 2:321 
1 1:142 2:283 
1 1:144 2:253 
0.6984341419028933 1:146 2:35 
0.5765603994463612 1:148 2:211 
1 1:150 2:252 
1 1:152 2:400 
0.4901828412843779 1:156 2:47 
0.9866232680447063 1:158 2:168 
0.6326672674229128 1:160 2:37 
1 1:162 2:174 
1 1:164 2:199 
1 1:166 2:400 
1 1:168 2:205 
0.7597019791221986 1:170 2:90 
1 1:172 2:188 
0.698038115757886 1:174 2:110 
0.5139429273810223 1:176 2:237 
1 1:178 2:289 
1 1:180 2:307 
1 1:182 2:400 
1 1:184 2:315 
1 1:186 2:323 
1 1:188 2:330 
1 1:190 2:345 
1 1:194 2:362 
1 1:196 2:400 
1 1:200 2:372 
1 1:202 2:374 
0.7248530685804987 1:204 2:387 
0.2610453758211751 1:206 2:391 
1 1:102 2:370 
0.6232586025841703 1:104 2:357 
1 1:106 2:367 
1 1:108 2:365 
1 1:110 2:400 
1 1:112 2:362 
1 1:114 2:356 
0.2849848887699059 1:118 2:312 
0.6438697682633466 1:120 2:302 
0.8359779692584834 1:122 2:287 
1 1:124 2:400 
0.9664646143286202 1:126 2:337 
1 1:128 2:352 
1 1:130 2:301 
1 1:132 2:311 
0.2321776518937478 1:134 2:331 
1 1:136 2:303 
1 1:138 2:400 
1 1:140 2:331 
1 1:142 2:325 
0.138957547297298 1:144 2:290 
0.6218548643639752 1:146 2:157 
0.8516538431600857 1:148 2:248 
0.7509542956539724 1:150 2:282 
1 1:152 2:400 
0.9846949773176162 1:154 2:244 
1 1:156 2:118 
0.4615207232524502 1:158 2:186 
0.6427743916544816 1:160 2:117 
0.6433143529762703 1:162 2:220 
0.6469101316190528 1:164 2:234 
1 1:166 2:400 
1 1:168 2:234 
0.007167565960142838 1:170 2:162 
0.528451838050879 1:172 2:225 
0.2858773331431422 1:174 2:159 
0.7768340737919209 1:176 2:256 
1 1:178 2:309 
1 1:180 2:317 
1 1:182 2:400 
0.7337179977466564 1:184 2:322 
1 1:186 2:322 
1 1:188 2:330 
0.3148363857890034 1:190 2:356 
1 1:194 2:360 
1 1:196 2:400 
0.9763139659548181 1:198 2:370 
1 1:200 2:376 
1 1:204 2:382 
0.2730597160827447 1:206 2:390 
1 1:98 2:394 
1 1:100 2:391 
1 1:104 2:370 
0.1388305525078085 1:106 2:376 
0.9982030549977172 1:108 2:380 
1 1:110 2:400 
1 1:112 2:378 
0.9646837324198383 1:114 2:375 
0.9992853302827911 1:116 2:370 
1 1:118 2:338 
1 1:120 2:329 
1 1:122 2:292 
1 1:124 2:400 
1 1:126 2:347 
0.09511385126010578 1:128 2:361 
1 1:130 2:307 
1 1:132 2:336 
1 1:136 2:321 
1 1:138 2:400 
1 1:140 2:344 
0.6613561472581821 1:142 2:348 
1 1:144 2:329 
0.6063472465137605 1:146 2:171 
1 1:148 2:267 
0.5553297893546119 1:150 2:284 
1 1:152 2:400 
0.3523277418476854 1:156 2:135 
1 1:158 2:245 
1 1:160 2:138 
0.5273841041202372 1:162 2:242 
1 1:166 2:400 
0.4510891693369685 1:168 2:262 
1 1:170 2:195 
0.6319290542854032 1:172 2:272 
1 1:174 2:197 
1 1:176 2:252 
1 1:178 2:295 
0.8741469002050061 1:180 2:323 
1 1:182 2:400 
1 1:184 2:323 
0.3868452989407994 1:186 2:328 
0.5307243858461363 1:188 2:331 
0.460883986946295 1:190 2:352 
0.2910665432950119 1:192 2:365 
0.3222861112338372 1:194 2:369 
1 1:196 2:400 
0.1996778396337321 1:198 2:376 
0.7281864552091883 1:200 2:376 
1 1:202 2:377 
0.9890535122907179 1:204 2:384 
0.4521814166996042 1:206 2:388 
1 1:98 2:389 
1 1:100 2:388 
1 1:102 2:383 
0.7666324150413848 1:104 2:362 
0.290033609806043 1:106 2:382 
0.004845247016137763 1:108 2:381 
1 1:110 2:400 
0.218983988287197 1:112 2:372 
1 1:116 2:364 
1 1:118 2:337 
0.9828282910014481 1:120 2:330 
1 1:122 2:316 
1 1:124 2:400 
1 1:126 2:356 
0.5105881853707165 1:128 2:362 
1 1:130 2:305 
0.4432339871583743 1:132 2:337 
0.350363350582245 1:136 2:332 
1 1:138 2:400 
1 1:140 2:344 
1 1:142 2:325 
1 1:144 2:329 
1 1:146 2:78 
0.4024410972109879 1:148 2:256 
0.3995014782343863 1:150 2:259 
1 1:152 2:400 
0.9234802433607997 1:154 2:251 
1 1:156 2:170 
0.4141275544327204 1:158 2:268 
1 1:160 2:158 
1 1:162 2:230 
1 1:164 2:282 
1 1:166 2:400 
1 1:168 2:286 
1 1:170 2:183 
0.6248968819667303 1:172 2:286 
0.9533139884384507 1:174 2:184 
0.3546660698590509 1:176 2:308 
0.680181076369621 1:178 2:278 
1 1:180 2:317 
1 1:182 2:400 
1 1:184 2:323 
0.9858021055798447 1:186 2:320 
0.6563383266517293 1:188 2:333 
0.2647804612497974 1:190 2:354 
0.6604866867615816 1:192 2:359 
1 1:194 2:366 
1 1:196 2:400 
0.9290027163100133 1:202 2:381 
1 1:204 2:384 
1 1:206 2:385 
1 1:98 2:388 
0.4540878324197601 1:104 2:359 
0.2826253383845004 1:108 2:374 
1 1:110 2:400 
0.8683697901037651 1:112 2:373 
1 1:114 2:370 
0.9861020200576229 1:116 2:365 
1 1:118 2:345 
1 1:120 2:323 
1 1:122 2:308 
1 1:124 2:400 
0.4565358416881117 1:126 2:353 
0.550663227677809 1:128 2:357 
0.842684989720744 1:130 2:299 
0.8423319397314386 1:134 2:342 
1 1:138 2:400 
0.9956967251782407 1:142 2:330 
0.8833935170940999 1:144 2:284 
1 1:146 2:63 
0.5973660733630187 1:148 2:253 
0.5525105331545189 1:150 2:257 
1 1:152 2:400 
1 1:154 2:238 
0.3967499835621561 1:156 2:191 
1 1:158 2:240 
0.4862849839375467 1:160 2:162 
0.9186490566755435 1:162 2:268 
0.4214741812292059 1:164 2:297 
1 1:166 2:400 
0.8282922172500377 1:168 2:298 
0.7864267062929662 1:170 2:204 
0.484153924719428 1:172 2:298 
0.8882598931311672 1:174 2:213 
0.3290250377234542 1:176 2:325 
1 1:178 2:313 
1 1:180 2:292 
1 1:182 2:400 
1 1:184 2:315 
1 1:186 2:307 
0.4962718043181553 1:188 2:332 
0.467177339814499 1:190 2:345 
0.41976244280812 1:192 2:363 
0.3462965327224562 1:194 2:365 
1 1:196 2:400 
0.3002098146626251 1:198 2:377 
0.3749547877204729 1:200 2:378 
0.1154917557942433 1:202 2:384 
1 1:204 2:383 
1 1:206 2:383 
1 1:98 2:389 
0.3414162229673477 1:102 2:379 
1 1:110 2:400 
0.6542586908739243 1:112 2:370 
0.7587424513638332 1:114 2:370 
1 1:116 2:364 
1 1:118 2:339 
0.297320148220277 1:120 2:325 
1 1:122 2:311 
1 1:124 2:400 
1 1:126 2:350 
0.847407518041861 1:130 2:303 
0.8255752448252146 1:132 2:336 
0.4796272375938624 1:136 2:339 
1 1:138 2:400 
0.6365173745438693 1:140 2:355 
1 1:142 2:308 
1 1:144 2:281 
1 1:146 2:146 
1 1:148 2:242 
1 1:152 2:400 
0.8159432628550377 1:154 2:233 
1 1:156 2:135 
1 1:158 2:242 
0.5183077850034412 1:160 2:173 
0.7563954740640464 1:162 2:275 
0.7756953190392433 1:164 2:304 
1 1:166 2:400 
0.620307749968857 1:168 2:302 
0.471883651675405 1:170 2:232 
1 1:174 2:222 
0.4521604354904293 1:178 2:339 
0.4899596496655855 1:180 2:338 
1 1:182 2:400 
1 1:184 2:297 
1 1:186 2:316 
1 1:190 2:338 
0.6813738352196967 1:192 2:355 
1 1:194 2:366 
1 1:196 2:400 
0.3412943576281596 1:198 2:374 
0.1339600280332231 1:200 2:375 
1 1:202 2:381 
1 1:204 2:386 
0.5792361026343793 1:206 2:387 
1 1:110 2:400 
1 1:112 2:371 
1 1:114 2:366 
1 1:116 2:362 
0.2243230154832634 1:118 2:325 
1 1:120 2:346 
0.8592732002229879 1:122 2:306 
1 1:124 2:400 
1 1:126 2:348 
1 1:128 2:354 
0.9624626273246739 1:130 2:308 
1 1:132 2:338 
0.1570435015617522 1:134 2:346 
0.6504143330066533 1:136 2:341 
1 1:138 2:400 
0.4985192226291056 1:140 2:353 
1 1:142 2:312 
1 1:144 2:268 
0.6947273791802333 1:146 2:132 
0.8696905910634219 1:148 2:226 
0.4779261774660375 1:150 2:249 
1 1:152 2:400 
0.5726222960081662 1:154 2:219 
1 1:156 2:162 
1 1:158 2:254 
0.07410118489182979 1:160 2:182 
0.3986660966468178 1:162 2:271 
1 1:166 2:400 
0.621034486649919 1:168 2:304 
0.6110028727290397 1:170 2:228 
0.3571596154163936 1:172 2:301 
0.4837320836198359 1:174 2:225 
0.5325254913488826 1:176 2:320 
0.4408228607347979 1:178 2:342 
0.3805408302670254 1:180 2:342 
1 1:182 2:400 
1 1:184 2:305 
1 1:186 2:317 
1 1:188 2:304 
1 1:190 2:343 
0.6438145939626111 1:192 2:357 
1 1:194 2:366 
1 1:196 2:400 
0.9886312190760393 1:198 2:374 
0.7866628635441868 1:200 2:377 
0.5894085849317466 1:202 2:382 
1 1:206 2:388 
1 1:98 2:387 
0.8325738658490024 1:100 2:383 
0.539358959086489 1:102 2:381 
0.0661877376958836 1:104 2:361 
0.454923826981122 1:106 2:379 
0.7626591637964543 1:108 2:372 
1 1:110 2:400 
1 1:112 2:372 
0.7726943745811752 1:116 2:358 
0.7182288089324427 1:118 2:316 
1 1:120 2:343 
1 1:122 2:303 
1 1:124 2:400 
1 1:126 2:347 
1 1:128 2:358 
1 1:132 2:335 
0.63341894993852 1:134 2:349 
0.5165283821635417 1:136 2:338 
1 1:138 2:400 
0.814562309538532 1:142 2:334 
1 1:144 2:255 
0.5880432882130879 1:146 2:137 
1 1:148 2:234 
1 1:152 2:400 
0.2033963287972073 1:154 2:217 
1 1:156 2:156 
1 1:158 2:237 
0.4362069939228544 1:160 2:174 
0.3663845536858719 1:162 2:270 
0.5248999610036825 1:164 2:302 
1 1:166 2:400 
1 1:168 2:295 
0.5011666021348965 1:170 2:230 
0.4843971277052493 1:172 2:302 
0.8164734575497882 1:174 2:217 
0.4690743027552411 1:176 2:319 
0.1071046785151007 1:180 2:335 
1 1:182 2:400 
0.3078003582995389 1:184 2:332 
1 1:186 2:287 
0.5014720000619812 1:188 2:297 
1 1:190 2:325 
1 1:192 2:349 
0.7819983616112861 1:194 2:362 
1 1:196 2:400 
1 1:198 2:372 
0.9852248288704737 1:200 2:374 
1 1:202 2:379 
0.009118572928025094 1:204 2:385 
1 1:206 2:388 
1 1:98 2:383 
1 1:100 2:382 
0.2144575164576525 1:106 2:372 
0.9993374323323746 1:108 2:372 
1 1:110 2:400 
1 1:112 2:370 
0.3032755687166871 1:116 2:355 
1 1:118 2:323 
0.8383630945548211 1:120 2:334 
0.8590141479870462 1:122 2:293 
1 1:124 2:400 
0.2388950264387933 1:128 2:356 
0.130645224532913 1:130 2:313 
0.5844435483853605 1:134 2:345 
0.3625072437791431 1:136 2:336 
1 1:138 2:400 
0.4900689250288079 1:140 2:351 
1 1:142 2:327 
0.7906041760150118 1:144 2:257 
0.4887429639382487 1:146 2:139 
1 1:148 2:238 
0.05518316011772498 1:150 2:243 
1 1:152 2:400 
0.5338685597770809 1:154 2:216 
0.7054482442986216 1:156 2:106 
1 1:158 2:219 
0.5755468229412948 1:160 2:167 
1 1:162 2:260 
0.3363765879104217 1:164 2:298 
1 1:166 2:400 
1 1:168 2:289 
0.983604873555662 1:170 2:215 
0.4105155327696631 1:172 2:293 
1 1:174 2:206 
0.6011888625721455 1:176 2:317 
0.2438797010381596 1:180 2:333 
1 1:182 2:400 
0.2755365702525683 1:184 2:329 
1 1:186 2:287 
1 1:188 2:296 
1 1:190 2:311 
1 1:192 2:341 
0.8859249310513072 1:194 2:363 
1 1:196 2:400 
0.0007368223405438412 1:198 2:368 
1 1:200 2:370 
0.00138437345174891 1:202 2:378 
1 1:204 2:382 
1 1:206 2:387 
0.3851377823437809 1:98 2:385 
0.4269376179465489 1:100 2:384 
0.6054761528318173 1:102 2:376 
1 1:104 2:356 
1 1:106 2:371 
1 1:108 2:375 
1 1:110 2:400 
0.2064240082829922 1:112 2:371 
0.7659689094916001 1:114 2:361 
0.8163547696472836 1:116 2:358 
1 1:118 2:324 
1 1:120 2:333 
1 1:122 2:300 
1 1:124 2:400 
0.6315727201693196 1:126 2:346 
0.3656162106383865 1:128 2:360 
0.5706769491811989 1:130 2:321 
0.6682399076978845 1:132 2:325 
0.5273298666016129 1:134 2:347 
0.6314979808279475 1:136 2:333 
1 1:138 2:400 
0.8069585241075458 1:142 2:335 
1 1:146 2:143 
0.6660838238595004 1:150 2:251 
1 1:152 2:400 
1 1:154 2:220 
0.8313927166307926 1:156 2:126 
0.493058249917377 1:158 2:223 
0.4834822265557734 1:160 2:169 
0.46727448400096 1:164 2:295 
1 1:166 2:400 
1 1:168 2:290 
0.4428774207908455 1:170 2:224 
0.5778790431966239 1:172 2:290 
1 1:174 2:203 
0.1387241626691514 1:176 2:316 
0.05337262496137998 1:178 2:338 
0.01032174537703496 1:180 2:339 
1 1:182 2:400 
0.2755070903682935 1:184 2:331 
1 1:186 2:298 
1 1:188 2:290 
0.8792808036829449 1:190 2:313 
1 1:192 2:337 
1 1:194 2:356 
1 1:196 2:400 
1 1:198 2:366 
0.02934214465515672 1:200 2:371 
1 1:202 2:378 
1 1:204 2:382 
0.6022485133886787 1:206 2:388 
0.9986077411253507 1:98 2:385 
0.9709801897426072 1:100 2:386 
0.7585781288277911 1:102 2:378 
0.3602833967577849 1:104 2:354 
0.9436798716170954 1:106 2:372 
0.9293245636513964 1:108 2:374 
1 1:110 2:400 
1 1:112 2:370 
1 1:114 2:361 
0.2233747008952345 1:116 2:356 
1 1:118 2:324 
1 1:120 2:338 
1 1:122 2:292 
1 1:124 2:400 
1 1:126 2:346 
0.5278241651329709 1:128 2:355 
0.666496330989468 1:130 2:312 
0.02148990508698104 1:132 2:326 
0.1726048042477316 1:136 2:330 
1 1:138 2:400 
0.02047468711984922 1:140 2:350 
1 1:142 2:337 
1 1:144 2:320 
0.7051282586798043 1:146 2:109 
1 1:148 2:265 
1 1:150 2:245 
1 1:152 2:400 
0.3149521065605137 1:154 2:207 
1 1:156 2:139 
1 1:158 2:216 
0.6188133920771184 1:160 2:165 
0.9247834201870674 1:164 2:292 
1 1:166 2:400 
0.4455087181008041 1:168 2:288 
0.7343358015597558 1:170 2:206 
1 1:174 2:209 
0.5029479086412181 1:176 2:310 
0.2196963328796899 1:178 2:329 
1 1:182 2:400 
0.5305481068633575 1:184 2:325 
1 1:186 2:280 
0.187081019763662 1:188 2:287 
0.7598710125283457 1:190 2:308 
1 1:192 2:331 
1 1:194 2:358 
1 1:196 2:400 
1 1:198 2:365 
1 1:200 2:370 
1 1:202 2:374 
1 1:204 2:383 
0.8771226185399509 1:206 2:385 
1 1:98 2:389 
0.3182267094416054 1:100 2:387 
1 1:102 2:382 
1 1:104 2:354 
0.3437414526067391 1:106 2:374 
1 1:108 2:375 
0.7290598389536529 1:110 2:400 
1 1:114 2:362 
0.01627910785820971 1:116 2:357 
1 1:118 2:326 
1 1:120 2:333 
0.8116899030381194 1:122 2:307 
0.7289866214143927 1:124 2:400 
1 1:126 2:344 
0.3032988841391305 1:128 2:359 
0.351437802027816 1:130 2:317 
0.8038517675856462 1:132 2:327 
0.07126050804038542 1:134 2:343 
0.3085346406828894 1:136 2:335 
0.7284005105570931 1:138 2:400 
0.08906861620532827 1:140 2:352 
1 1:142 2:340 
1 1:144 2:327 
0.439614111930733 1:146 2:125 
0.158443785362508 1:148 2:269 
0.8976120715200118 1:150 2:261 
0.7283112776024533 1:152 2:400 
1 1:154 2:217 
0.8536006488431164 1:156 2:143 
0.8002971904740146 1:158 2:208 
0.5931279470634985 1:160 2:170 
0.9369344539553242 1:162 2:262 
0.1612383615972229 1:164 2:294 
0.7281002009302188 1:166 2:400 
0.6147547908205735 1:168 2:284 
0.8877873115274179 1:170 2:218 
0.5421107116319988 1:172 2:288 
1 1:174 2:210 
0.1416786586984275 1:176 2:309 
0.4654110729503411 1:178 2:327 
0.2400835715647946 1:180 2:332 
0.7265441738295759 1:182 2:400 
0.1504162995006679 1:184 2:328 
1 1:186 2:289 
0.7199015883828038 1:188 2:288 
0.9292332462079458 1:190 2:306 
0.8666759508774495 1:192 2:326 
1 1:194 2:356 
0.7243966441356647 1:196 2:400 
0.6468702549671653 1:198 2:368 
1 1:200 2:369 
0.241414478956661 1:202 2:378 
0.8167362125522405 1:204 2:384 
0.751079237590944 1:206 2:386 
-1 1:104 2:370 
-1 1:106 2:354 
-1 1:108 2:376 
-1 1:110 2:400 
-1 1:112 2:358 
-1 1:114 2:368 
-1 1:116 2:358 
-0.008395342343908818 1:118 2:343 
-1 1:120 2:357 
-1 1:122 2:277 
-1 1:124 2:400 
-0.08103893555502859 1:126 2:356 
-1 1:128 2:329 
-1 1:130 2:307 
-1 1:132 2:337 
-0.7573267979946197 1:134 2:328 
-0.4099114861981026 1:136 2:319 
-1 1:138 2:400 
-1 1:140 2:345 
-1 1:142 2:341 
-1 1:144 2:329 
-0.3531078602768018 1:146 2:167 
-1 1:148 2:281 
-0.08333564784035516 1:150 2:312 
-1 1:152 2:400 
-0.8754487763358492 1:154 2:299 
-1 1:156 2:111 
-1 1:158 2:260 
-1 1:160 2:192 
-1 1:162 2:261 
-1 1:164 2:282 
-1 1:166 2:400 
-1 1:168 2:272 
-1 1:170 2:171 
-1 1:172 2:260 
-1 1:174 2:200 
-0.9960956230793707 1:176 2:273 
-0.9881586570924795 1:178 2:318 
-1 1:180 2:304 
-1 1:182 2:400 
-1 1:184 2:262 
-1 1:186 2:256 
-1 1:188 2:264 
-1 1:190 2:304 
-1 1:192 2:330 
-1 1:194 2:338 
-1 1:196 2:400 
-1 1:198 2:339 
-1 1:200 2:344 
-1 1:202 2:351 
-1 1:204 2:365 
-0.00383149831880164 1:98 2:392 
-0.8841497939283577 1:100 2:391 
-0.8279973498472936 1:104 2:367 
-1 1:106 2:356 
-1 1:108 2:376 
-1 1:110 2:400 
-0.6675465558917978 1:112 2:361 
-1 1:114 2:369 
-1 1:116 2:364 
-0.1246804164631612 1:118 2:338 
-0.8257108952949969 1:120 2:349 
-1 1:122 2:279 
-1 1:124 2:400 
-1 1:126 2:352 
-0.8502777202029832 1:128 2:335 
-1 1:130 2:301 
-1 1:132 2:335 
-1 1:134 2:323 
-0.7051442390247959 1:136 2:320 
-1 1:138 2:400 
-1 1:140 2:345 
-1 1:142 2:345 
-1 1:144 2:329 
-0.4884709874013301 1:146 2:145 
-0.1245137474240413 1:148 2:292 
-0.9234606741033219 1:150 2:307 
-1 1:152 2:400 
-1 1:154 2:299 
-1 1:156 2:107 
-1 1:158 2:254 
-1 1:160 2:202 
-1 1:162 2:258 
-1 1:164 2:280 
-1 1:166 2:400 
-1 1:168 2:272 
-1 1:170 2:164 
-1 1:172 2:261 
-1 1:174 2:202 
-1 1:176 2:275 
-1 1:178 2:305 
-0.8568291278674987 1:180 2:286 
-1 1:182 2:400 
-1 1:186 2:267 
-1 1:188 2:270 
-0.2084070091994924 1:190 2:317 
-0.7227208682692651 1:192 2:329 
-0.6850617711786695 1:194 2:346 
-1 1:196 2:400 
-1 1:198 2:347 
-1 1:200 2:347 
-1 1:202 2:359 
-1 1:100 2:394 
-1 1:108 2:379 
-1 1:110 2:400 
-0.142214980368006 1:112 2:364 
-1 1:114 2:374 
-1 1:116 2:368 
-1 1:118 2:345 
-1 1:120 2:338 
-1 1:122 2:300 
-1 1:124 2:400 
-1 1:126 2:348 
-1 1:128 2:349 
-1 1:130 2:311 
-1 1:132 2:335 
-0.5240809662849918 1:134 2:326 
-0.1324063864466888 1:136 2:310 
-1 1:138 2:400 
-0.5075034468464014 1:140 2:339 
-1 1:142 2:337 
-1 1:144 2:327 
-0.8870806825872042 1:146 2:145 
-1 1:148 2:287 
-0.1070113988926712 1:150 2:304 
-1 1:152 2:400 
-0.2761743923282478 1:154 2:302 
-1 1:156 2:128 
-0.7544752306869789 1:158 2:246 
-0.04094945022509258 1:160 2:206 
-1 1:162 2:256 
-1 1:164 2:267 
-1 1:166 2:400 
-1 1:168 2:266 
-1 1:170 2:155 
-1 1:172 2:249 
-0.2516809430449556 1:174 2:178 
-1 1:176 2:226 
-0.7593820865028607 1:180 2:308 
-1 1:182 2:400 
-1 1:186 2:281 
-1 1:188 2:313 
-1 1:190 2:325 
-0.7634509234632552 1:192 2:336 
-0.01639407478856938 1:194 2:350 
-1 1:196 2:400 
-1 1:198 2:352 
-0.504054499905759 1:200 2:356 
-0.194484342706708 1:206 2:378 
-1 1:98 2:393 
-1 1:100 2:393 
-0.5047639747208732 1:102 2:394 
-0.7181343879569311 1:104 2:378 
-0.1913153317076132 1:106 2:368 
-0.05293970981655263 1:108 2:384 
-1 1:110 2:400 
-1 1:112 2:370 
-1 1:114 2:373 
-1 1:116 2:365 
-1 1:118 2:343 
-1 1:122 2:300 
-1 1:124 2:400 
-0.966544652743941 1:126 2:351 
-1 1:128 2:348 
-1 1:130 2:311 
-1 1:132 2:335 
-1 1:134 2:326 
-1 1:138 2:400 
-1 1:140 2:343 
-1 1:142 2:335 
-1 1:144 2:327 
-1 1:146 2:146 
-1 1:148 2:265 
-0.09359844606487289 1:150 2:309 
-1 1:152 2:400 
-1 1:154 2:311 
-0.7662319571201381 1:156 2:129 
-1 1:158 2:246 
-0.182681206555105 1:160 2:205 
-1 1:162 2:254 
-1 1:164 2:264 
-1 1:166 2:400 
-1 1:168 2:273 
-1 1:170 2:143 
-1 1:172 2:240 
-1 1:174 2:166 
-0.6176719825117095 1:176 2:268 
-0.02058402363681719 1:178 2:321 
-1 1:180 2:318 
-1 1:182 2:400 
-1 1:184 2:304 
-1 1:186 2:286 
-0.954897563718881 1:188 2:320 
-0.2231129965513263 1:190 2:331 
-0.5846605713509581 1:194 2:347 
-1 1:196 2:400 
-0.1528829154408813 1:200 2:362 
-0.435978571425686 1:202 2:367 
-0.4844582344960419 1:204 2:377 
-1 1:98 2:395 
-1 1:100 2:394 
-0.948402565874139 1:102 2:394 
-0.8884982011962087 1:104 2:379 
-1 1:108 2:380 
-1 1:110 2:400 
-0.1538786809234752 1:112 2:366 
-1 1:114 2:371 
-1 1:120 2:323 
-0.3138874309172622 1:122 2:296 
-1 1:124 2:400 
-1 1:126 2:347 
-0.08315954324258484 1:128 2:345 
-1 1:130 2:308 
-0.9331426442854263 1:132 2:322 
-1 1:134 2:333 
-1 1:136 2:317 
-1 1:138 2:400 
-0.127100707131565 1:140 2:337 
-1 1:142 2:336 
-1 1:144 2:312 
-1 1:146 2:129 
-1 1:148 2:239 
-0.5631938549416626 1:150 2:298 
-1 1:152 2:400 
-1 1:154 2:285 
-1 1:156 2:132 
-1 1:158 2:241 
-1 1:160 2:194 
-1 1:162 2:247 
-1 1:164 2:263 
-1 1:166 2:400 
-1 1:168 2:259 
-1 1:172 2:230 
-0.7249684802672279 1:174 2:177 
-1 1:176 2:281 
-0.9516768052447788 1:178 2:321 
-0.9517394552313573 1:180 2:315 
-1 1:182 2:400 
-0.2191965609951465 1:184 2:300 
-0.1250741918490222 1:186 2:294 
-1 1:188 2:329 
-0.923896395199828 1:190 2:328 
-1 1:192 2:349 
-1 1:196 2:400 
-0.2798031995118542 1:198 2:359 
-0.5791032939371717 1:200 2:364 
-0.3641176330695871 1:202 2:372 
-1 1:206 2:386 
-1 1:98 2:394 
-1 1:100 2:394 
-0.3144402098599952 1:104 2:379 
-1 1:108 2:379 
-1 1:110 2:400 
-1 1:114 2:369 
-1 1:116 2:364 
-1 1:118 2:330 
-1 1:120 2:322 
-1 1:122 2:297 
-1 1:124 2:400 
-1 1:126 2:352 
-0.4809398549541857 1:130 2:306 
-0.9974663441824065 1:132 2:322 
-1 1:134 2:334 
-0.7286400383568418 1:136 2:320 
-1 1:138 2:400 
-1 1:142 2:327 
-1 1:144 2:299 
-1 1:146 2:90 
-1 1:148 2:251 
-0.1991482862192341 1:150 2:299 
-1 1:152 2:400 
-1 1:154 2:290 
-0.8165630251471689 1:156 2:147 
-1 1:158 2:250 
-1 1:160 2:210 
-1 1:162 2:235 
-1 1:164 2:246 
-1 1:166 2:400 
-1 1:168 2:245 
-1 1:170 2:152 
-1 1:172 2:256 
-1 1:174 2:221 
-0.3232662734461867 1:176 2:296 
-1 1:178 2:328 
-1 1:180 2:324 
-1 1:182 2:400 
-0.9011653631535703 1:184 2:315 
-1 1:186 2:321 
-1 1:188 2:338 
-1 1:190 2:347 
-1 1:192 2:360 
-1 1:194 2:366 
-1 1:196 2:400 
-0.6991196980062653 1:198 2:365 
-1 1:200 2:376 
-1 1:202 2:378 
-1 1:204 2:385 
-1 1:206 2:387 
-1 1:98 2:393 
-1 1:100 2:395 
-0.7040466754862148 1:104 2:374 
-1 1:106 2:371 
-1 1:108 2:380 
-1 1:110 2:400 
-0.08357707556212017 1:112 2:366 
-1 1:114 2:371 
-0.9601946109891717 1:116 2:363 
-0.9880334747124428 1:118 2:323 
-1 1:120 2:314 
-1 1:122 2:292 
-1 1:124 2:400 
-0.9783782645372689 1:126 2:351 
-1 1:128 2:351 
-1 1:130 2:305 
-1 1:132 2:318 
-1 1:134 2:329 
-1 1:138 2:400 
-1 1:142 2:328 
-1 1:144 2:288 
-1 1:146 2:80 
-1 1:148 2:228 
-1 1:150 2:292 
-1 1:152 2:400 
-0.4555545860772882 1:154 2:270 
-0.7900972527091006 1:156 2:148 
-1 1:158 2:239 
-1 1:160 2:204 
-1 1:162 2:225 
-0.04159533469116991 1:164 2:244 
-1 1:166 2:400 
-1 1:168 2:238 
-1 1:170 2:133 
-1 1:172 2:249 
-0.003276969553608511 1:174 2:208 
-0.53769659550453 1:176 2:295 
-1 1:178 2:316 
-1 1:180 2:317 
-1 1:182 2:400 
-1 1:184 2:317 
-1 1:186 2:322 
-1 1:188 2:339 
-1 1:190 2:345 
-1 1:192 2:360 
-1 1:194 2:368 
-1 1:196 2:400 
-1 1:198 2:366 
-1 1:200 2:373 
-1 1:202 2:381 
-1 1:204 2:383 
-1 1:206 2:388 
-1 1:98 2:395 
-1 1:100 2:394 
-0.6343574302100674 1:102 2:392 
-1 1:104 2:371 
-1 1:106 2:371 
-1 1:108 2:378 
-1 1:110 2:400 
-0.931977218545619 1:112 2:366 
-0.8133229965493678 1:114 2:372 
-1 1:116 2:360 
-0.9972092178468618 1:118 2:323 
-1 1:120 2:314 
-1 1:122 2:286 
-1 1:124 2:400 
-0.61875388213549 1:126 2:350 
-0.7282792516823523 1:128 2:346 
-1 1:130 2:299 
-0.4270131045186593 1:132 2:308 
-1 1:134 2:332 
-1 1:138 2:400 
-0.1534128901164551 1:140 2:334 
-1 1:142 2:322 
-1 1:144 2:268 
-1 1:146 2:87 
-0.2941320080941833 1:148 2:240 
-1 1:150 2:279 
-1 1:152 2:400 
-0.2897619779769893 1:154 2:272 
-1 1:156 2:138 
-1 1:158 2:233 
-1 1:160 2:196 
-1 1:162 2:224 
-1 1:164 2:243 
-1 1:166 2:400 
-1 1:168 2:227 
-0.06118326926045865 1:170 2:119 
-1 1:172 2:254 
-0.3177098778560584 1:174 2:208 
-0.7439428458575442 1:176 2:297 
-1 1:178 2:314 
-1 1:180 2:317 
-1 1:182 2:400 
-1 1:184 2:323 
-1 1:186 2:326 
-1 1:188 2:334 
-1 1:190 2:345 
-1 1:192 2:359 
-1 1:194 2:366 
-1 1:196 2:400 
-1 1:198 2:367 
-1 1:200 2:374 
-1 1:202 2:379 
-1 1:204 2:387 
-1 1:206 2:388 
-1 1:98 2:395 
-1 1:100 2:395 
-0.08743996053429154 1:102 2:390 
-1 1:104 2:378 
-1 1:108 2:378 
-1 1:110 2:400 
-0.0533708708269056 1:112 2:368 
-1 1:114 2:372 
-1 1:116 2:366 
-1 1:118 2:324 
-1 1:120 2:317 
-0.9717512178913883 1:122 2:291 
-1 1:124 2:400 
-1 1:126 2:350 
-1 1:128 2:348 
-0.8851450622072115 1:130 2:306 
-1 1:132 2:311 
-1 1:134 2:332 
-1 1:138 2:400 
-1 1:140 2:334 
-1 1:142 2:326 
-1 1:144 2:271 
-1 1:146 2:102 
-1 1:148 2:246 
-1 1:150 2:287 
-1 1:152 2:400 
-0.2903257294901544 1:154 2:288 
-1 1:156 2:154 
-1 1:158 2:237 
-1 1:160 2:208 
-0.8964953503880658 1:162 2:232 
-1 1:164 2:248 
-1 1:166 2:400 
-1 1:168 2:240 
-0.9276010897776235 1:170 2:129 
-1 1:172 2:258 
-1 1:174 2:209 
-0.04829519848619804 1:176 2:299 
-1 1:178 2:314 
-1 1:180 2:316 
-1 1:182 2:400 
-1 1:184 2:320 
-1 1:186 2:323 
-1 1:188 2:334 
-1 1:190 2:349 
-1 1:192 2:359 
-1 1:194 2:367 
-1 1:196 2:400 
-1 1:198 2:371 
-1 1:200 2:376 
-1 1:202 2:381 
-1 1:204 2:384 
-1 1:206 2:389 
-1 1:98 2:394 
-1 1:100 2:394 
-0.8891054434266495 1:102 2:389 
-1 1:108 2:375 
-1 1:110 2:400 
-1 1:114 2:372 
-1 1:116 2:360 
-0.8073068337326502 1:118 2:335 
-1 1:120 2:310 
-1 1:122 2:275 
-1 1:124 2:400 
-1 1:126 2:347 
-0.6899982297114077 1:128 2:345 
-1 1:130 2:303 
-0.8901146876679411 1:132 2:308 
-0.04736764226121591 1:134 2:327 
-0.6441051379559216 1:136 2:311 
-1 1:138 2:400 
-1 1:140 2:330 
-1 1:142 2:320 
-1 1:144 2:260 
-1 1:146 2:99 
-1 1:148 2:250 
-1 1:150 2:293 
-1 1:152 2:400 
-1 1:154 2:288 
-1 1:156 2:135 
-1 1:158 2:212 
-1 1:160 2:198 
-1 1:162 2:231 
-0.6705768721777129 1:164 2:244 
-1 1:166 2:400 
-1 1:168 2:231 
-0.7404667333470707 1:170 2:119 
-1 1:172 2:248 
-0.8497252243145852 1:174 2:198 
-1 1:176 2:292 
-1 1:178 2:317 
-0.8592762011593509 1:180 2:314 
-1 1:182 2:400 
-1 1:184 2:319 
-1 1:186 2:312 
-1 1:188 2:327 
-1 1:190 2:343 
-1 1:192 2:359 
-1 1:194 2:368 
-1 1:196 2:400 
-1 1:198 2:367 
-1 1:200 2:374 
-1 1:202 2:378 
-0.7474465711839411 1:204 2:382 
-1 1:206 2:390 
-1 1:98 2:394 
-1 1:100 2:393 
-0.9982928754062508 1:104 2:374 
-0.6316356118145205 1:106 2:364 
-1 1:108 2:378 
-1 1:110 2:400 
-1 1:112 2:373 
-1 1:114 2:367 
-1 1:116 2:364 
-1 1:120 2:328 
-0.7245677345524293 1:122 2:290 
-1 1:124 2:400 
-1 1:126 2:348 
-1 1:128 2:345 
-1 1:130 2:304 
-1 1:132 2:312 
-1 1:134 2:332 
-1 1:136 2:316 
-1 1:138 2:400 
-1 1:140 2:332 
-1 1:142 2:325 
-1 1:144 2:280 
-1 1:146 2:143 
-1 1:148 2:260 
-1 1:152 2:400 
-1 1:154 2:307 
-1 1:156 2:170 
-1 1:158 2:226 
-1 1:160 2:218 
-1 1:162 2:236 
-1 1:164 2:264 
-1 1:166 2:400 
-0.335122036043027 1:168 2:239 
-1 1:170 2:132 
-1 1:172 2:250 
-1 1:174 2:207 
-1 1:176 2:305 
-0.9979436931070229 1:178 2:321 
-1 1:180 2:316 
-1 1:182 2:400 
-1 1:184 2:316 
-0.4997773132847011 1:186 2:314 
-0.9260901535437235 1:188 2:328 
-1 1:190 2:338 
-1 1:192 2:360 
-1 1:194 2:366 
-1 1:196 2:400 
-1 1:198 2:374 
-1 1:200 2:377 
-1 1:202 2:379 
-1 1:204 2:383 
-1 1:206 2:385 
-1 1:98 2:393 
-1 1:100 2:394 
-0.7849616141778595 1:104 2:374 
-0.3734661432410267 1:106 2:367 
-1 1:108 2:375 
-1 1:110 2:400 
-1 1:114 2:367 
-0.08082665886489407 1:116 2:361 
-0.3816014743164908 1:118 2:342 
-1 1:120 2:334 
-1 1:122 2:289 
-1 1:124 2:400 
-1 1:126 2:344 
-1 1:128 2:341 
-1 1:130 2:302 
-1 1:132 2:314 
-0.5019578206914052 1:134 2:322 
-0.8043921384014454 1:136 2:312 
-1 1:138 2:400 
-0.5012118143213382 1:140 2:329 
-1 1:142 2:320 
-1 1:144 2:295 
-1 1:146 2:174 
-1 1:148 2:242 
-0.6262003753967778 1:150 2:297 
-1 1:152 2:400 
-0.2277063808221208 1:154 2:295 
-1 1:156 2:162 
-1 1:158 2:232 
-1 1:160 2:206 
-1 1:162 2:246 
-1 1:164 2:256 
-1 1:166 2:400 
-1 1:168 2:241 
-0.8835931812677499 1:170 2:135 
-1 1:172 2:252 
-1 1:174 2:206 
-1 1:176 2:302 
-1 1:178 2:319 
-1 1:182 2:400 
-1 1:184 2:315 
-1 1:186 2:317 
-1 1:188 2:329 
-1 1:190 2:342 
-1 1:192 2:359 
-1 1:194 2:364 
-1 1:196 2:400 
-1 1:198 2:370 
-1 1:200 2:371 
-1 1:202 2:376 
-1 1:204 2:382 
-1 1:206 2:388 
-1 1:98 2:393 
-1 1:100 2:394 
-0.6789280507460607 1:102 2:389 
-1 1:104 2:383 
-1 1:106 2:353 
-1 1:108 2:385 
-1 1:110 2:400 
-0.7210132455013522 1:112 2:386 
-0.1225162134767796 1:114 2:363 
-1 1:116 2:363 
-0.7629532295819554 1:118 2:338 
-1 1:120 2:349 
-1 1:122 2:276 
-1 1:124 2:400 
-1 1:126 2:337 
-1 1:128 2:354 
-1 1:130 2:292 
-1 1:132 2:315 
-1 1:134 2:313 
-1 1:136 2:311 
-1 1:138 2:400 
-1 1:140 2:321 
-1 1:142 2:331 
-0.5543061476640201 1:144 2:306 
-1 1:146 2:183 
-1 1:148 2:237 
-0.5108619273318487 1:150 2:305 
-1 1:152 2:400 
-1 1:154 2:296 
-1 1:156 2:197 
-1 1:158 2:245 
-1 1:160 2:180 
-1 1:162 2:245 
-1 1:164 2:278 
-1 1:166 2:400 
-1 1:168 2:234 
-1 1:170 2:166 
-1 1:172 2:233 
-1 1:174 2:209 
-0.9992296214946662 1:176 2:299 
-1 1:178 2:319 
-1 1:180 2:316 
-1 1:182 2:400 
-1 1:184 2:311 
-1 1:186 2:315 
-1 1:188 2:327 
-1 1:190 2:342 
-1 1:192 2:358 
-0.1382969179780363 1:194 2:357 
-1 1:196 2:400 
-0.9981652880463617 1:198 2:365 
-1 1:202 2:374 
-0.2353866692132558 1:204 2:381 
-1 1:100 2:393 
-1 1:102 2:383 
-1 1:104 2:380 
-1 1:106 2:349 
-1 1:108 2:384 
-1 1:110 2:400 
-0.9605303473370044 1:112 2:385 
-1 1:114 2:362 
-1 1:116 2:363 
-1 1:118 2:338 
-1 1:120 2:348 
-1 1:122 2:278 
-1 1:124 2:400 
-1 1:126 2:340 
-1 1:128 2:352 
-0.4959174983594042 1:130 2:286 
-1 1:132 2:303 
-1 1:134 2:314 
-0.9863777329657964 1:136 2:314 
-1 1:138 2:400 
-1 1:140 2:321 
-0.8886804842325507 1:142 2:324 
-1 1:144 2:299 
-1 1:146 2:180 
-1 1:148 2:250 
-0.7010735836899986 1:150 2:304 
-1 1:152 2:400 
-1 1:154 2:294 
-1 1:156 2:218 
-1 1:158 2:238 
-1 1:160 2:192 
-1 1:162 2:238 
-0.08341931645275966 1:164 2:279 
-1 1:166 2:400 
-1 1:168 2:270 
-1 1:170 2:189 
-1 1:172 2:236 
-1 1:174 2:221 
-1 1:176 2:284 
-1 1:178 2:312 
-1 1:182 2:400 
-1 1:184 2:312 
-1 1:186 2:322 
-1 1:188 2:331 
-1 1:190 2:346 
-1 1:192 2:357 
-1 1:194 2:363 
-1 1:196 2:400 
-1 1:198 2:367 
-1 1:202 2:376 
-1 1:204 2:383 
-0.008888975742717853 1:206 2:383 
-1 1:98 2:387 
-1 1:100 2:386 
-1 1:102 2:382 
-1 1:104 2:378 
-1 1:106 2:348 
-1 1:108 2:379 
-1 1:110 2:400 
-1 1:112 2:378 
-1 1:114 2:362 
-1 1:116 2:361 
-0.7260458694151606 1:118 2:336 
-1 1:120 2:346 
-1 1:122 2:271 
-1 1:124 2:400 
-1 1:126 2:335 
-1 1:128 2:346 
-1 1:130 2:273 
-1 1:132 2:298 
-0.04948081092252511 1:134 2:309 
-0.1398820829525579 1:136 2:313 
-1 1:138 2:400 
-1 1:140 2:318 
-1 1:142 2:324 
-1 1:144 2:297 
-1 1:146 2:164 
-1 1:148 2:258 
-0.935837568936251 1:150 2:300 
-1 1:152 2:400 
-0.1154628048343832 1:154 2:271 
-1 1:156 2:225 
-1 1:158 2:227 
-1 1:160 2:157 
-1 1:162 2:225 
-1 1:164 2:262 
-1 1:166 2:400 
-1 1:168 2:247 
-1 1:170 2:180 
-0.3695948895025859 1:172 2:221 
-1 1:174 2:219 
-1 1:176 2:287 
-1 1:178 2:309 
-1 1:180 2:314 
-1 1:182 2:400 
-1 1:184 2:321 
-1 1:186 2:322 
-1 1:188 2:335 
-1 1:190 2:345 
-1 1:192 2:357 
-1 1:194 2:366 
-1 1:196 2:400 
-1 1:198 2:371 
-1 1:204 2:382 
-0.3420362195694924 1:206 2:383 
-1 1:98 2:382 
-1 1:100 2:382 
-1 1:102 2:370 
-1 1:104 2:373 
-0.4900201224759675 1:106 2:335 
-1 1:108 2:375 
-1 1:110 2:400 
-1 1:112 2:377 
-1 1:114 2:352 
-1 1:116 2:354 
-1 1:118 2:335 
-1 1:120 2:342 
-1 1:122 2:261 
-1 1:124 2:400 
-1 1:126 2:326 
-1 1:128 2:342 
-1 1:130 2:267 
-1 1:132 2:293 
-1 1:134 2:309 
-1 1:136 2:304 
-1 1:138 2:400 
-1 1:140 2:314 
-1 1:142 2:313 
-1 1:144 2:283 
-1 1:146 2:131 
-1 1:148 2:242 
-1 1:150 2:289 
-1 1:152 2:400 
-1 1:154 2:249 
-1 1:156 2:202 
-1 1:158 2:207 
-1 1:160 2:123 
-1 1:162 2:202 
-1 1:164 2:229 
-1 1:166 2:400 
-0.8102511004278145 1:168 2:232 
-1 1:170 2:154 
-1 1:172 2:214 
-1 1:174 2:214 
-1 1:176 2:289 
-1 1:178 2:319 
-0.3655265802258357 1:180 2:315 
-1 1:182 2:400 
-1 1:184 2:323 
-1 1:186 2:327 
-1 1:188 2:328 
-1 1:190 2:349 
-1 1:192 2:358 
-1 1:194 2:363 
-1 1:196 2:400 
-1 1:198 2:371 
-1 1:200 2:369 
-1 1:202 2:376 
-1 1:204 2:383 
-1 1:206 2:384 
-1 1:98 2:382 
-0.6995980668293089 1:100 2:380 
-1 1:102 2:366 
-1 1:106 2:324 
-1 1:108 2:368 
-1 1:110 2:400 
-0.6285801638802656 1:112 2:368 
-0.8538045180582967 1:114 2:351 
-1 1:116 2:345 
-1 1:118 2:322 
-1 1:120 2:335 
-1 1:124 2:400 
-1 1:126 2:311 
-1 1:128 2:327 
-1 1:130 2:251 
-0.106176460037903 1:132 2:280 
-1 1:134 2:296 
-1 1:136 2:289 
-1 1:138 2:400 
-1 1:140 2:301 
-1 1:142 2:294 
-1 1:144 2:249 
-1 1:146 2:74 
-1 1:148 2:204 
-1 1:150 2:262 
-1 1:152 2:400 
-1 1:154 2:217 
-1 1:156 2:156 
-1 1:158 2:159 
-1 1:160 2:79 
-0.2985614144685551 1:162 2:150 
-1 1:164 2:217 
-1 1:166 2:400 
-1 1:168 2:196 
-0.3856482670024788 1:170 2:106 
-0.1433464933788736 1:172 2:191 
-1 1:176 2:266 
-1 1:178 2:303 
-1 1:182 2:400 
-1 1:186 2:307 
-1 1:188 2:323 
-0.6329433239058239 1:190 2:337 
-1 1:192 2:353 
-0.1770011868830828 1:194 2:358 
-1 1:196 2:400 
-1 1:198 2:365 
-1 1:200 2:369 
-0.9056834756214853 1:202 2:372 
-0.6490096425720682 1:204 2:382 
-0.01364501601018644 1:98 2:377 
-0.6326534773594615 1:100 2:378 
-1 1:102 2:363 
-1 1:104 2:351 
-0.6094885412132744 1:106 2:315 
-0.1217851001575077 1:108 2:364 
-1 1:110 2:400 
-0.09227180868379278 1:114 2:343 
-1 1:118 2:322 
-1 1:120 2:329 
-0.3663272777470185 1:122 2:224 
-1 1:124 2:400 
-1 1:126 2:307 
-1 1:128 2:326 
-1 1:130 2:226 
-0.4559124816928939 1:132 2:274 
-0.2793615707598003 1:134 2:281 
-1 1:136 2:275 
-1 1:138 2:400 
-1 1:140 2:283 
-0.6205727454897723 1:142 2:279 
-1 1:144 2:246 
-1 1:146 2:12 
-1 1:148 2:191 
-1 1:150 2:242 
-1 1:152 2:400 
-1 1:154 2:194 
-1 1:156 2:118 
-1 1:158 2:139 
-1 1:160 2:43 
-0.4451748186543201 1:162 2:149 
-1 1:164 2:199 
-1 1:166 2:400 
-0.7462130207092192 1:168 2:204 
-1 1:170 2:75 
-1 1:172 2:180 
-1 1:174 2:169 
-1 1:176 2:259 
-1 1:178 2:296 
-0.08258866496955299 1:180 2:297 
-1 1:182 2:400 
-1 1:188 2:319 
-1 1:190 2:331 
-1 1:192 2:350 
-0.551496870942413 1:194 2:354 
-1 1:196 2:400 
-1 1:198 2:365 
-0.435810812256495 1:200 2:363 
-1 1:202 2:379 
-0.2576879387311732 1:98 2:376 
-0.1760780344170762 1:102 2:371 
-1 1:104 2:349 
-0.4267181379015208 1:106 2:314 
-0.8295625672778566 1:108 2:363 
-1 1:110 2:400 
-1 1:112 2:363 
-1 1:114 2:343 
-1 1:118 2:324 
-0.1001344850178807 1:122 2:237 
-1 1:124 2:400 
-1 1:126 2:305 
-0.5837625647660073 1:128 2:323 
-0.3478959369555474 1:130 2:236 
-0.7138382988057975 1:132 2:269 
-1 1:136 2:279 
-1 1:138 2:400 
-1 1:140 2:286 
-1 1:142 2:286 
-1 1:144 2:253 
-1 1:146 2:5 
-1 1:148 2:188 
-1 1:150 2:245 
-1 1:152 2:400 
-1 1:154 2:220 
-1 1:156 2:103 
-1 1:158 2:142 
-1 1:160 2:70 
-1 1:162 2:148 
-1 1:164 2:191 
-1 1:166 2:400 
-1 1:170 2:84 
-1 1:172 2:187 
-1 1:174 2:195 
-1 1:178 2:306 
-1 1:180 2:305 
-1 1:182 2:400 
-0.7461410261487454 1:184 2:306 
-0.9944071178373445 1:186 2:300 
-0.2341165129158871 1:188 2:314 
-1 1:190 2:333 
-1 1:192 2:347 
-1 1:194 2:360 
-1 1:196 2:400 
-0.5321992113834568 1:204 2:381 
-0.4687309015827431 1:206 2:378 
-0.8729884165850175 1:98 2:377 
-1 1:102 2:369 
-1 1:104 2:346 
-1 1:106 2:318 
-0.2029196692068496 1:108 2:367 
-1 1:110 2:400 
-1 1:114 2:343 
-1 1:116 2:342 
-1 1:118 2:331 
-1 1:120 2:331 
-1 1:124 2:400 
-0.09745987353077357 1:126 2:310 
-1 1:128 2:320 
-0.1254791036039502 1:132 2:273 
-1 1:134 2:285 
-0.5747597647066882 1:136 2:282 
-1 1:138 2:400 
-0.4833704042686813 1:140 2:279 
-1 1:142 2:288 
-1 1:144 2:254 
-1 1:146 2:0 
-1 1:148 2:194 
-1 1:150 2:252 
-1 1:152 2:400 
-1 1:154 2:227 
-1 1:156 2:95 
-0.7738117640983488 1:158 2:151 
-1 1:160 2:68 
-0.8885107336076445 1:162 2:170 
-1 1:164 2:204 
-1 1:166 2:400 
-1 1:168 2:225 
-0.4049598599005642 1:170 2:97 
-1 1:172 2:209 
-0.5793165936236324 1:174 2:197 
-1 1:176 2:274 
-1 1:178 2:308 
-0.6895940020867996 1:180 2:312 
-1 1:182 2:400 
-0.4901532175629551 1:184 2:308 
-0.6710273437509954 1:186 2:305 
-0.3855805993987168 1:188 2:315 
-1 1:190 2:339 
-0.1589218040327686 1:192 2:351 
-0.8735242832289019 1:194 2:359 
-1 1:196 2:400 
-0.8183556992774307 1:198 2:355 
-1 1:200 2:370 
-0.3235644112315797 1:202 2:370 
-1 1:206 2:383 
-1 1:102 2:368 
-1 1:104 2:351 
-0.7159907725769468 1:106 2:317 
-0.1205211654085936 1:108 2:364 
-1 1:110 2:400 
-0.4727134937686278 1:112 2:365 
-1 1:114 2:343 
-1 1:116 2:342 
-1 1:118 2:328 
-0.2492184190739285 1:120 2:336 
-1 1:124 2:400 
-1 1:126 2:309 
-1 1:128 2:322 
-1 1:132 2:266 
-0.9418070228656389 1:134 2:282 
-1 1:138 2:400 
-1 1:140 2:272 
-0.8513664580062947 1:142 2:292 
-1 1:144 2:238 
-1 1:146 2:0 
-1 1:148 2:189 
-1 1:150 2:253 
-1 1:152 2:400 
-1 1:154 2:239 
-0.8132363260059131 1:156 2:75 
-0.968356686669388 1:158 2:151 
-0.4947006877672463 1:160 2:76 
-1 1:162 2:156 
-0.1770147397360581 1:164 2:209 
-1 1:166 2:400 
-0.4594316986101008 1:168 2:215 
-1 1:170 2:90 
-1 1:172 2:193 
-1 1:174 2:187 
-0.9043200071802384 1:178 2:300 
-1 1:180 2:301 
-1 1:182 2:400 
-0.0009467065759469484 1:184 2:308 
-0.9961322492075068 1:186 2:305 
-0.4018932503387971 1:188 2:307 
-0.9680132344379407 1:192 2:351 
-0.05445799759044749 1:194 2:359 
-1 1:196 2:400 
-0.1679294652386562 1:202 2:369 
-0.9336070623189546 1:206 2:383 
-1 1:102 2:373 
-1 1:104 2:352 
-0.9110514697581681 1:106 2:315 
-1 1:108 2:365 
-1 1:110 2:400 
-1 1:114 2:346 
-1 1:116 2:350 
-1 1:118 2:326 
-1 1:120 2:331 
-0.9961055637786079 1:122 2:232 
-1 1:124 2:400 
-1 1:126 2:325 
-0.8066384740135034 1:130 2:239 
-0.9909112044469884 1:132 2:273 
-0.9566767627099861 1:134 2:281 
-1 1:136 2:287 
-1 1:138 2:400 
-0.9814633276082217 1:142 2:292 
-1 1:144 2:248 
-1 1:146 2:0 
-1 1:148 2:218 
-1 1:150 2:253 
-1 1:152 2:400 
-1 1:154 2:243 
-0.5851019827349241 1:156 2:98 
-1 1:158 2:155 
-1 1:160 2:87 
-0.8692210806624248 1:162 2:169 
-1 1:164 2:222 
-1 1:166 2:400 
-1 1:168 2:218 
-1 1:170 2:93 
-1 1:172 2:197 
-1 1:174 2:197 
-0.09298211724356797 1:176 2:271 
-1 1:178 2:314 
-1 1:180 2:299 
-1 1:182 2:400 
-0.2108156129534086 1:184 2:301 
-0.8139483634418772 1:186 2:302 
-1 1:188 2:305 
-0.8482007098923697 1:190 2:336 
-1 1:192 2:354 
-0.8281688765294475 1:194 2:357 
-1 1:196 2:400 
-0.4060731103114176 1:200 2:367 
-0.5917957991217453 1:202 2:370 
-0.5141420739352438 1:204 2:375 
-0.4949561741617128 1:206 2:381 
-0.9259074419070829 1:98 2:376 
-1 1:104 2:356 
-1 1:106 2:312 
-1 1:108 2:357 
-1 1:110 2:400 
-1 1:112 2:362 
-1 1:114 2:339 
-1 1:116 2:348 
-1 1:118 2:318 
-0.6038093190182504 1:120 2:332 
-0.1339683490877595 1:122 2:240 
-1 1:124 2:400 
-1 1:126 2:314 
-1 1:128 2:318 
-1 1:130 2:232 
-1 1:132 2:261 
-1 1:134 2:268 
-1 1:136 2:289 
-1 1:138 2:400 
-0.9207907308866582 1:140 2:279 
-1 1:142 2:288 
-1 1:144 2:248 
-1 1:146 2:0 
-1 1:148 2:207 
-1 1:150 2:245 
-1 1:152 2:400 
-1 1:154 2:234 
-0.9375176195629973 1:156 2:98 
-0.3797052136837783 1:158 2:150 
-0.9101207416440337 1:160 2:76 
-1 1:162 2:151 
-1 1:164 2:211 
-1 1:166 2:400 
-1 1:168 2:205 
-1 1:170 2:56 
-0.2636771906679493 1:174 2:170 
-1 1:176 2:265 
-0.902232847953789 1:178 2:300 
-1 1:182 2:400 
-1 1:184 2:292 
-1 1:186 2:291 
-1 1:188 2:299 
-0.3011910284342117 1:192 2:344 
-0.8113458068794996 1:194 2:354 
-1 1:196 2:400 
-0.5319241178821503 1:198 2:360 
-1 1:100 2:375 
-1 1:104 2:356 
-1 1:106 2:317 
-1 1:108 2:360 
-1 1:110 2:400 
-1 1:114 2:339 
-1 1:116 2:345 
-1 1:118 2:328 
-0.9441633972267377 1:120 2:331 
-1 1:122 2:242 
-1 1:124 2:400 
-1 1:126 2:320 
-1 1:130 2:232 
-1 1:132 2:263 
-0.1362493270233281 1:134 2:280 
-1 1:136 2:296 
-1 1:138 2:400 
-1 1:140 2:284 
-1 1:142 2:293 
-1 1:144 2:251 
-1 1:146 2:18 
-1 1:148 2:222 
-1 1:150 2:262 
-1 1:152 2:400 
-1 1:154 2:239 
-1 1:156 2:112 
-1 1:158 2:169 
-1 1:160 2:91 
-0.3983788973833426 1:162 2:174 
-0.00937302013407168 1:164 2:209 
-1 1:166 2:400 
-0.2032377000916124 1:168 2:216 
-1 1:170 2:73 
-0.9041002359398931 1:172 2:191 
-1 1:174 2:180 
-1 1:182 2:400 
-0.6022538188975658 1:184 2:300 
-1 1:186 2:288 
-1 1:190 2:326 
-0.2188852918396469 1:194 2:353 
-1 1:196 2:400 
-0.6150659711821009 1:198 2:358 
-0.5364622333656824 1:204 2:377 
-0.00768866001535351 1:206 2:381 
-0.02115641367263228 1:98 2:379 
-1 1:102 2:373 
-1 1:104 2:334 
-1 1:106 2:338 
-1 1:108 2:371 
-1 1:110 2:400 
-1 1:112 2:345 
-1 1:114 2:355 
-1 1:116 2:343 
-1 1:118 2:327 
-1 1:120 2:344 
-0.8936598806696946 1:122 2:240 
-1 1:124 2:400 
-1 1:126 2:322 
-1 1:128 2:324 
-0.9971314436645864 1:130 2:239 
-0.7734585266164158 1:132 2:292 
-0.7311251523390708 1:134 2:274 
-0.6680679424619411 1:136 2:280 
-1 1:138 2:400 
-1 1:140 2:308 
-1 1:142 2:279 
-1 1:144 2:263 
-1 1:146 2:63 
-1 1:148 2:235 
-1 1:150 2:274 
-1 1:152 2:400 
-1 1:154 2:272 
-0.8812178169521445 1:156 2:61 
-1 1:158 2:229 
-0.5401814445419013 1:160 2:129 
-1 1:162 2:171 
-1 1:164 2:194 
-1 1:166 2:400 
-1 1:168 2:223 
-0.8123966583424254 1:170 2:76 
-1 1:172 2:201 
-0.0005504999662465371 1:174 2:157 
-0.6346784917580959 1:176 2:263 
-0.3640486095456061 1:178 2:293 
-1 1:180 2:308 
-1 1:182 2:400 
-1 1:184 2:319 
-0.1712637264911389 1:186 2:284 
-1 1:188 2:290 
-0.5089891499718533 1:192 2:343 
-1 1:194 2:365 
-1 1:196 2:400 
-0.4737564624659179 1:198 2:362 
-1 1:200 2:369 
-0.5595430160179327 1:202 2:363 
-0.9956022352889072 1:98 2:376 
-0.06963929725832935 1:100 2:377 
-1 1:104 2:337 
-1 1:106 2:336 
-1 1:110 2:400 
-1 1:112 2:345 
-1 1:114 2:355 
-0.4084756027333111 1:116 2:341 
-0.04402907629004243 1:118 2:333 
-1 1:120 2:346 
-1 1:122 2:230 
-1 1:124 2:400 
-1 1:126 2:331 
-1 1:128 2:320 
-0.01028318042773108 1:130 2:236 
-1 1:132 2:281 
-1 1:134 2:276 
-1 1:136 2:283 
-1 1:138 2:400 
-1 1:140 2:307 
-1 1:142 2:284 
-1 1:144 2:256 
-1 1:146 2:50 
-1 1:148 2:228 
-0.6940774811049162 1:150 2:266 
-1 1:152 2:400 
-0.9546678440372429 1:154 2:265 
-1 1:156 2:60 
-1 1:158 2:220 
-1 1:160 2:126 
-1 1:162 2:165 
-0.167338808902904 1:164 2:202 
-1 1:166 2:400 
-1 1:170 2:81 
-1 1:172 2:188 
-0.6999533963724416 1:174 2:167 
-0.988367840925266 1:176 2:263 
-0.5522665637455295 1:178 2:302 
-0.2212310280697169 1:180 2:310 
-1 1:182 2:400 
-0.7019408185258996 1:186 2:285 
-1 1:188 2:295 
-0.9699558316470543 1:190 2:323 
-0.1149571525619529 1:192 2:345 
-1 1:194 2:363 
-1 1:196 2:400 
-0.59914000126113 1:198 2:363 
-0.1497777544663499 1:202 2:364 
-0.4297995483681099 1:204 2:374 
-0.03540732644018389 1:98 2:379 
-1 1:104 2:342 
-1 1:106 2:341 
-1 1:108 2:360 
-1 1:110 2:400 
-0.9422152979635409 1:112 2:351 
-0.0452668907177725 1:114 2:354 
-0.1017502069068069 1:116 2:341 
-1 1:118 2:331 
-0.07477488824244236 1:120 2:336 
-0.9698674230961042 1:122 2:236 
-1 1:124 2:400 
-1 1:126 2:326 
-1 1:128 2:320 
-1 1:130 2:236 
-0.9172592126910876 1:134 2:279 
-1 1:136 2:292 
-1 1:138 2:400 
-1 1:140 2:303 
-1 1:142 2:284 
-1 1:144 2:258 
-1 1:146 2:44 
-1 1:148 2:227 
-1 1:150 2:268 
-1 1:152 2:400 
-0.9809274477944711 1:154 2:269 
-1 1:156 2:77 
-0.09395114403708602 1:158 2:213 
-1 1:160 2:115 
-0.9626979415548278 1:162 2:166 
-1 1:164 2:196 
-1 1:166 2:400 
-0.688174399859117 1:170 2:83 
-1 1:172 2:206 
-1 1:174 2:151 
-1 1:176 2:263 
-1 1:178 2:296 
-1 1:180 2:306 
-1 1:182 2:400 
-0.827701278878144 1:184 2:309 
-0.9412429429252707 1:186 2:283 
-1 1:188 2:290 
-0.5652725368601562 1:192 2:337 
-1 1:194 2:362 
-1 1:196 2:400 
-0.06620270287059686 1:198 2:360 
-0.1400311195690378 1:200 2:367 
-0.1069031617516304 1:98 2:379 
-0.0508127707728773 1:100 2:376 
-0.07745470368722006 1:102 2:372 
-0.9203842221772967 1:104 2:343 
-1 1:106 2:340 
-0.8019941157627495 1:108 2:363 
-1 1:110 2:400 
-1 1:112 2:350 
-1 1:114 2:354 
-1 1:116 2:339 
-0.04602219584823457 1:118 2:333 
-0.5438298539368258 1:120 2:337 
-0.9635042018382074 1:122 2:238 
-1 1:124 2:400 
-1 1:126 2:333 
-1 1:128 2:315 
-1 1:130 2:240 
-0.9355019779708658 1:132 2:279 
-1 1:134 2:274 
-1 1:136 2:296 
-1 1:138 2:400 
-1 1:140 2:308 
-0.9032535999772529 1:142 2:280 
-0.433150236626805 1:144 2:259 
-1 1:146 2:48 
-1 1:148 2:239 
-1 1:150 2:267 
-1 1:152 2:400 
-0.7116430541293011 1:154 2:266 
-0.802310883668519 1:156 2:74 
-1 1:158 2:214 
-1 1:160 2:133 
-1 1:162 2:174 
-0.8911881246827187 1:164 2:209 
-1 1:166 2:400 
-0.1482158762703635 1:168 2:216 
-0.9040373308271787 1:170 2:106 
-0.03087770449787233 1:172 2:192 
-0.3721057988503655 1:174 2:156 
-1 1:176 2:268 
-0.05534650409706715 1:178 2:297 
-0.6715265808247912 1:180 2:309 
-1 1:182 2:400 
-0.9176758702016504 1:184 2:306 
-0.001283746743128256 1:186 2:294 
-0.7778666538772989 1:188 2:301 
-1 1:190 2:318 
-0.2190640849104481 1:192 2:341 
-1 1:194 2:360 
-1 1:196 2:400 
-0.1918218101449138 1:202 2:364 
-0.04716693509007047 1:204 2:378 
-1 1:100 2:377 
-1 1:102 2:372 
-1 1:104 2:340 
-1 1:106 2:342 
-0.08404322069476923 1:108 2:361 
-1 1:110 2:400 
-1 1:114 2:353 
-0.4879590282879389 1:116 2:340 
-0.3473292835436976 1:118 2:332 
-1 1:120 2:332 
-1 1:122 2:230 
-1 1:124 2:400 
-1 1:126 2:335 
-0.9869025703878433 1:128 2:323 
-1 1:130 2:240 
-0.001270036169384536 1:132 2:280 
-1 1:136 2:298 
-1 1:138 2:400 
-1 1:140 2:311 
-1 1:142 2:283 
-1 1:144 2:262 
-0.08211645628778144 1:146 2:49 
-1 1:148 2:221 
-1 1:150 2:274 
-1 1:152 2:400 
-1 1:154 2:264 
-1 1:156 2:82 
-1 1:158 2:216 
-1 1:160 2:126 
-1 1:162 2:177 
-0.2754533195857891 1:164 2:203 
-1 1:166 2:400 
-0.8518612834176431 1:168 2:215 
-1 1:170 2:92 
-1 1:172 2:179 
-0.7704272225018686 1:174 2:157 
-0.979804911893386 1:176 2:271 
-1 1:178 2:292 
-1 1:180 2:307 
-1 1:182 2:400 
-1 1:184 2:310 
-0.07322294703891305 1:186 2:296 
-0.07341378994476276 1:188 2:300 
-0.4469743453149438 1:190 2:321 
-0.9595305660440545 1:192 2:340 
-1 1:194 2:361 
-1 1:196 2:400 
-0.05115877092037902 1:198 2:360 
-0.02423659155922957 1:200 2:367 
-0.3972793803681981 1:202 2:366 
-0.839307086492494 1:204 2:373 
-0.001890593832663961 1:206 2:380 
-0.7895623954557665 1:98 2:380 
-1 1:100 2:375 
-0.9582495002865288 1:102 2:371 
-1 1:104 2:340 
-1 1:106 2:342 
-0.09024485055864495 1:108 2:362 
-1 1:110 2:400 
-0.9944977741773606 1:112 2:351 
-0.9919779475456654 1:114 2:351 
-1 1:116 2:338 
-0.6797574287105765 1:118 2:337 
-1 1:120 2:334 
-0.9821638325954952 1:122 2:234 
-1 1:124 2:400 
-1 1:126 2:332 
-1 1:128 2:325 
-1 1:130 2:248 
-1 1:132 2:277 
-1 1:134 2:280 
-1 1:136 2:300 
-1 1:138 2:400 
-1 1:140 2:306 
-1 1:142 2:287 
-1 1:144 2:267 
-1 1:146 2:59 
-1 1:148 2:229 
-1 1:150 2:276 
-1 1:152 2:400 
-1 1:154 2:270 
-1 1:156 2:109 
-1 1:158 2:213 
-1 1:160 2:139 
-1 1:162 2:191 
-1 1:164 2:214 
-1 1:166 2:400 
-0.9616149371891471 1:168 2:218 
-1 1:170 2:108 
-1 1:172 2:182 
-1 1:174 2:157 
-0.8957217899691942 1:176 2:269 
-0.007484706377443232 1:178 2:298 
-1 1:182 2:400 
-0.6217905106956351 1:184 2:302 
-0.7426717439551597 1:186 2:296 
-1 1:188 2:308 
-0.02068213422490466 1:192 2:345 
-1 1:194 2:364 
-1 1:196 2:400 
-0.3499212459303896 1:198 2:361 
-0.551172039810661 1:202 2:368 
-0.9415150095331983 1:204 2:379 
-0.8236409451648224 1:98 2:378 
-1 1:100 2:375 
-1 1:102 2:372 
-1 1:104 2:342 
-1 1:106 2:338 
-0.7161366040832461 1:108 2:361 
-1 1:110 2:400 
-1 1:112 2:349 
-1 1:114 2:345 
-0.9912016258259074 1:116 2:340 
-1 1:118 2:338 
-1 1:120 2:332 
-0.9285375237259751 1:122 2:224 
-1 1:124 2:400 
-1 1:126 2:331 
-0.5949948657503141 1:128 2:319 
-1 1:130 2:244 
-1 1:132 2:270 
-1 1:134 2:274 
-1 1:136 2:295 
-1 1:138 2:400 
-0.2884226480624077 1:140 2:302 
-1 1:142 2:293 
-0.6736551734214007 1:144 2:270 
-1 1:146 2:55 
-1 1:148 2:217 
-1 1:150 2:273 
-1 1:152 2:400 
-1 1:154 2:266 
-0.8271558145080284 1:156 2:110 
-1 1:158 2:211 
-0.5803998354494548 1:160 2:130 
-1 1:162 2:174 
-0.9786810425002443 1:164 2:202 
-1 1:166 2:400 
-1 1:168 2:206 
-1 1:170 2:101 
-1 1:172 2:177 
-1 1:174 2:146 
-0.9030517964236168 1:176 2:268 
-1 1:178 2:288 
-0.9091011073419324 1:180 2:310 
-1 1:182 2:400 
-0.293123663710428 1:184 2:303 
-1 1:186 2:289 
-0.9661014830332514 1:190 2:316 
-0.6584658417288649 1:192 2:342 
-1 1:194 2:357 
-1 1:196 2:400 
-0.2598115910515156 1:198 2:358 
-0.4351710793904009 1:202 2:365 
-1 1:98 2:383 
-1 1:100 2:373 
-1 1:102 2:370 
-1 1:104 2:336 
-0.9191686184044965 1:106 2:335 
-1 1:110 2:400 
-1 1:112 2:350 
-1 1:114 2:350 
-1 1:116 2:339 
-1 1:120 2:328 
-0.07363713999364872 1:122 2:233 
-1 1:124 2:400 
-1 1:126 2:333 
-1 1:128 2:322 
-1 1:130 2:247 
-1 1:134 2:276 
-1 1:136 2:301 
-1 1:138 2:400 
-1 1:140 2:299 
-1 1:142 2:298 
-1 1:144 2:269 
-1 1:146 2:77 
-1 1:148 2:231 
-1 1:150 2:283 
-1 1:152 2:400 
-1 1:154 2:276 
-1 1:156 2:141 
-1 1:158 2:218 
-1 1:160 2:130 
-1 1:162 2:178 
-1 1:164 2:207 
-1 1:166 2:400 
-0.8971745856100894 1:168 2:203 
-0.9071652724709275 1:170 2:97 
-0.6017921850708912 1:172 2:185 
-1 1:174 2:171 
-0.03144533301605626 1:176 2:272 
-1 1:178 2:294 
-1 1:180 2:306 
-1 1:182 2:400 
-0.4749269821652468 1:188 2:303 
-0.5804849517286611 1:190 2:320 
-1 1:194 2:357 
-1 1:196 2:400 
-0.112909588974506 1:206 2:375 
-1 1:98 2:385 
-1 1:100 2:381 
-1 1:102 2:380 
-1 1:104 2:354 
-1 1:106 2:354 
-1 1:108 2:365 
-1 1:110 2:400 
-1 1:114 2:358 
-1 1:116 2:342 
-1 1:118 2:340 
-1 1:120 2:308 
-1 1:122 2:265 
-1 1:124 2:400 
-1 1:126 2:336 
-1 1:128 2:331 
-1 1:130 2:271 
-1 1:132 2:292 
-1 1:134 2:293 
-0.9862702111028885 1:136 2:309 
-1 1:138 2:400 
-1 1:140 2:322 
-1 1:142 2:307 
-1 1:144 2:301 
-1 1:146 2:167 
-1 1:148 2:266 
-1 1:150 2:295 
-1 1:152 2:400 
-0.9979658574853458 1:154 2:302 
-1 1:156 2:203 
-1 1:158 2:263 
-1 1:160 2:185 
-1 1:162 2:210 
-1 1:164 2:251 
-1 1:166 2:400 
-1 1:168 2:191 
-0.6018848317438378 1:170 2:114 
-1 1:172 2:188 
-0.9265249369340787 1:174 2:191 
-1 1:176 2:286 
-1 1:178 2:307 
-1 1:180 2:319 
-1 1:182 2:400 
-1 1:184 2:315 
-1 1:186 2:309 
-1 1:188 2:316 
-0.9915867655537881 1:190 2:328 
-0.7478048942274917 1:192 2:345 
-0.9337096363028247 1:194 2:351 
-1 1:196 2:400 
-0.7083545774968287 1:200 2:366 
-0.5044041500095984 1:204 2:371 
-0.7268037647187201 1:206 2:380 
-1 1:98 2:391 
-1 1:100 2:383 
-1 1:104 2:366 
-1 1:106 2:364 
-1 1:108 2:378 
-1 1:110 2:400 
-1 1:112 2:371 
-1 1:114 2:370 
-1 1:116 2:367 
-1 1:118 2:333 
-1 1:120 2:337 
-1 1:122 2:287 
-1 1:124 2:400 
-1 1:126 2:353 
-1 1:128 2:345 
-1 1:130 2:291 
-1 1:132 2:312 
-1 1:134 2:306 
-1 1:138 2:400 
-1 1:140 2:329 
-1 1:142 2:322 
-1 1:146 2:209 
-0.9073882466514316 1:148 2:305 
-0.8047208594867142 1:150 2:324 
-1 1:152 2:400 
-1 1:154 2:334 
-0.3641851807583075 1:156 2:247 
-1 1:158 2:293 
-0.8982151576326841 1:160 2:230 
-1 1:162 2:265 
-1 1:164 2:286 
-1 1:166 2:400 
-1 1:168 2:250 
-1 1:170 2:183 
-1 1:172 2:204 
-1 1:174 2:174 
-0.321084121872357 1:176 2:267 
-0.1956963970179511 1:178 2:301 
-0.8939576406382903 1:180 2:312 
-1 1:182 2:400 
-0.03185471033276552 1:184 2:307 
-1 1:186 2:297 
-1 1:188 2:303 
-1 1:192 2:341 
-1 1:194 2:349 
-1 1:196 2:400 
-1 1:198 2:362 
-0.8329660266207879 1:200 2:361 
-0.1253490267367021 1:202 2:362 
-0.6731976704324545 1:204 2:370 
-0.5704240429579661 1:206 2:377 
-1 1:98 2:394 
-1 1:100 2:394 
-1 1:102 2:396 
-1 1:104 2:374 
-1 1:106 2:369 
-0.9993513091880145 1:108 2:384 
-1 1:110 2:400 
-1 1:112 2:377 
-1 1:114 2:377 
-1 1:116 2:373 
-1 1:118 2:348 
-1 1:120 2:347 
-1 1:122 2:287 
-1 1:124 2:400 
-1 1:126 2:345 
-1 1:128 2:358 
-1 1:130 2:285 
-1 1:132 2:319 
-1 1:134 2:310 
-1 1:138 2:400 
-1 1:140 2:332 
-1 1:142 2:317 
-1 1:144 2:305 
-1 1:146 2:222 
-0.0419475852080048 1:148 2:300 
-0.8072145436528181 1:150 2:325 
-1 1:152 2:400 
-0.283310872357963 1:154 2:337 
-0.265695284885869 1:156 2:246 
-1 1:158 2:289 
-1 1:160 2:225 
-1 1:162 2:244 
-1 1:164 2:268 
-1 1:166 2:400 
-1 1:168 2:245 
-1 1:170 2:149 
-1 1:172 2:184 
-1 1:174 2:182 
-1 1:176 2:251 
-1 1:178 2:295 
-1 1:180 2:302 
-1 1:182 2:400 
-1 1:184 2:298 
-1 1:186 2:294 
-0.5461674008459571 1:188 2:306 
-0.3111742995611527 1:190 2:322 
-1 1:192 2:337 
-0.5514753636936411 1:194 2:344 
-1 1:196 2:400 
-0.5227461429724993 1:198 2:356 
-0.8237527909672822 1:200 2:357 
-0.02950359964001608 1:202 2:361 
-0.8570390352608843 1:204 2:362 
-0.9582247467125811 1:206 2:375 
-1 1:98 2:389 
-0.6773352242247477 1:100 2:389 
-1 1:102 2:389 
-1 1:104 2:365 
