svm_type c_svc
kernel_type linear
nr_class 2
total_sv 647
rho 0.302478
label -1 1
nr_sv 321 326
SV
1 1:-0.099187 2:0.045227 3:0.099996 4:0.098723 5:0.092191 6:0.089849 7:0.098267 8:-0.076857 9:-0.07155 10:-0.082893 11:-0.083362 12:0.088571 13:0.087473 14:0.048105 15:0.028774 16:0.043142 17:-0.091486 18:0.081146 19:-0.081544 20:-0.065039 21:-0.035 22:0.029088 23:0.046569 24:0.015595 25:0.088183 26:-0.013299 27:-0.084837 28:0.077611 29:0.043531 30:-0.032663 31:0.099657 32:-0.033348 33:0.048599 34:-0.089204 35:-0.043751 36:-0.094138 37:-0.027016 38:-0.040266 39:-0.083648 40:0.085026 41:-0.084548 42:-0.054447 43:-0.099758 44:-0.099988 45:0.097794 46:0.098678 47:0.095236 48:-0.097147 49:0.091093 50:-0.094254 51:-0.097119 52:0.091283 53:0.043067 54:0.070044 55:0.054563 56:-0.075938 57:-0.091491 58:-0.097139 59:0.097665 60:-0.099997 61:0.092007 62:-0.098121 63:0.091118 64:-0.005794 65:-0.015648 66:-0.042252 67:-0.021039 68:0.079257 69:0.084573 70:-0.034887 71:-0.096114 72:-0.005979 73:0.08912 74:0.062367 75:-0.040033 76:-0.09414 77:0.074973 78:-0.094251 79:0.019017 80:-0.025698 81:0.09422 82:0.015763 83:-0.096167 84:-0.099983 85:-0.0189 86:-0.098987 87:-0.007573 88:-0.049199 89:0.002602 90:-0.071873 91:0.080773 92:0.013608 93:0.09762 94:-0.076125 95:-0.086432 96:0.046099 97:0.074212 98:-0.01252 99:0.015181 100:0.055645 
1 1:-0.099995 2:0.042055 3:0.099981 4:0.096561 5:0.097761 6:0.086276 7:0.099998 8:-0.07738 9:-0.058888 10:-0.084742 11:-0.069072 12:0.090057 13:0.098132 14:0.044146 15:0.060997 16:0.034754 17:-0.099164 18:0.074376 19:-0.053701 20:-0.064599 21:-0.03354 22:0.022399 23:0.028397 24:-0.001576 25:0.09144 26:-0.032108 27:-0.092089 28:0.077895 29:0.045001 30:-0.052309 31:0.098854 32:-0.03136 33:0.050699 34:-0.094156 35:-0.066068 36:-0.098158 37:-0.062154 38:-0.048361 39:-0.072227 40:0.08501 41:-0.079649 42:-0.06873 43:-0.098313 44:-0.092779 45:0.098742 46:0.097431 47:0.096881 48:-0.099323 49:0.097551 50:-0.096211 51:-0.08917 52:0.09403 53:0.076089 54:0.047072 55:0.052485 56:-0.078746 57:-0.099999 58:-0.097986 59:0.096348 60:-0.099343 61:0.097991 62:-0.097766 63:0.099998 64:0.012404 65:-0.007349 66:-0.029626 67:-0.009869 68:0.064453 69:0.080555 70:-0.045046 71:-0.085831 72:-0.018307 73:0.071759 74:0.037322 75:-0.061806 76:-0.095123 77:0.054831 78:-0.083967 79:0.005018 80:-0.03554 81:0.091845 82:0.031901 83:-0.098747 84:-0.097964 85:-0.001797 86:-0.099999 87:-0.025209 88:-0.052911 89:0.013455 90:-0.05783 91:0.096636 92:0.01435 93:0.088227 94:-0.078941 95:-0.099061 96:0.049336 97:0.071805 98:-0.002714 99:0.005949 100:0.060201 
1 1:-0.099995 2:0.042055 3:0.099981 4:0.096561 5:0.097761 6:0.086276 7:0.099998 8:-0.07738 9:-0.058888 10:-0.084742 11:-0.069072 12:0.090057 13:0.098132 14:0.044146 15:0.060997 16:0.034754 17:-0.099164 18:0.074376 19:-0.053701 20:-0.064599 21:-0.03354 22:0.022399 23:0.028397 24:-0.001576 25:0.09144 26:-0.032108 27:-0.092089 28:0.077895 29:0.045001 30:-0.052309 31:0.098854 32:-0.03136 33:0.050699 34:-0.094156 35:-0.066068 36:-0.098158 37:-0.062154 38:-0.048361 39:-0.072227 40:0.08501 41:-0.079649 42:-0.06873 43:-0.098313 44:-0.092779 45:0.098742 46:0.097431 47:0.096881 48:-0.099323 49:0.097551 50:-0.096211 51:-0.08917 52:0.09403 53:0.076089 54:0.047072 55:0.052485 56:-0.078746 57:-0.099999 58:-0.097986 59:0.096348 60:-0.099343 61:0.097991 62:-0.097766 63:0.099998 64:0.012404 65:-0.007349 66:-0.029626 67:-0.009869 68:0.064453 69:0.080555 70:-0.045046 71:-0.085831 72:-0.018307 73:0.071759 74:0.037322 75:-0.061806 76:-0.095123 77:0.054831 78:-0.083967 79:0.005018 80:-0.03554 81:0.091845 82:0.031901 83:-0.098747 84:-0.097964 85:-0.001797 86:-0.099999 87:-0.025209 88:-0.052911 89:0.013455 90:-0.05783 91:0.096636 92:0.01435 93:0.088227 94:-0.078941 95:-0.099061 96:0.049336 97:0.071805 98:-0.002714 99:0.005949 100:0.060201 
1 1:-0.068394 2:0.060169 3:0.098874 4:0.09376 5:0.02415 6:0.099708 7:0.046402 8:-0.074163 9:-0.09979 10:-0.072266 11:-0.086254 12:0.079728 13:-0.047664 14:0.066312 15:-0.099913 16:0.078435 17:0.027238 18:0.099645 19:-0.025231 20:-0.067205 21:-0.042167 22:0.059827 23:0.09946 24:0.085123 25:0.065048 26:0.074064 27:-0.022361 28:0.07617 29:0.036013 30:0.068597 31:0.031073 32:-0.043048 33:0.037699 34:-0.045727 35:0.077809 36:-0.04506 37:0.099003 38:0.003734 39:-0.094315 40:0.085107 41:-0.099112 42:0.032811 43:-0.087635 44:0.042122 45:-0.046696 46:0.098738 47:0.082117 48:-0.065666 49:0.012773 50:-0.078809 51:-0.061781 52:0.070575 53:-0.099671 54:0.080521 55:0.064434 56:-0.059779 57:0.078559 58:-0.090752 59:0.099841 60:-0.086416 61:0.015894 62:-0.09944 63:-0.081055 64:-0.082467 65:-0.054382 66:-0.089724 67:-0.070154 68:0.091421 69:0.09788 70:0.019694 71:-0.052682 72:0.053254 73:0.051698 74:0.084861 75:0.075788 76:-0.08794 77:0.081768 78:-0.067768 79:0.078147 80:0.025452 81:0.099986 82:-0.062387 83:-0.064168 84:-0.06207 85:-0.086791 86:-0.066954 87:0.073075 88:-0.029407 89:-0.049573 90:-0.098758 91:-0.079049 92:0.009885 93:0.04185 94:-0.059895 95:0.078662 96:0.029069 97:0.084811 98:-0.057898 99:0.057837 100:0.030558 
1 1:-0.033266 2:0.068266 3:0.097249 4:0.07874 5:-0.030841 6:0.09887 7:-0.005852 8:-0.072486 9:-0.084306 10:-0.064872 11:-0.036239 12:0.073361 13:-0.099064 14:0.07571 15:-0.0497 16:0.092269 17:0.090632 18:0.097143 19:0.078628 20:-0.068478 21:-0.046347 22:0.075066 23:0.088445 24:0.099937 25:0.046648 26:0.098781 27:0.024441 28:0.075286 29:0.031383 30:0.098696 31:-0.037762 32:-0.048647 33:0.030883 34:-0.009862 35:0.099188 36:-0.001188 37:0.023576 38:0.030355 39:-0.062936 40:0.085155 41:-0.099224 42:0.077096 43:-0.066312 44:0.099832 45:-0.099974 46:0.093864 47:0.070682 48:-0.034045 49:-0.04639 50:-0.065504 51:0.002133 52:0.053412 53:-0.022922 54:0.007822 55:0.069899 56:-0.048623 57:0.084287 58:-0.085271 59:0.097589 60:-0.066126 61:-0.043098 62:-0.09986 63:-0.08086 64:-0.099853 65:-0.073502 66:-0.09987 67:-0.089875 68:0.048795 69:0.099997 70:0.050639 71:0.02207 72:0.080427 73:-0.03482 74:0.014 75:0.099863 76:-0.083233 77:0.01548 78:-0.004444 79:0.096882 80:0.053769 81:0.098417 82:-0.092187 83:-0.033242 84:-0.011771 85:-0.1 86:-0.031149 87:0.097714 88:-0.016814 89:-0.07483 90:-0.075591 91:-0.08996 92:0.007645 93:-0.03735 94:-0.048674 95:0.087567 96:0.018341 97:0.089927 98:-0.079112 99:0.078042 100:0.014233 
1 1:-0.033266 2:0.068266 3:0.097249 4:0.07874 5:-0.030841 6:0.09887 7:-0.005852 8:-0.072486 9:-0.084306 10:-0.064872 11:-0.036239 12:0.073361 13:-0.099064 14:0.07571 15:-0.0497 16:0.092269 17:0.090632 18:0.097143 19:0.078628 20:-0.068478 21:-0.046347 22:0.075066 23:0.088445 24:0.099937 25:0.046648 26:0.098781 27:0.024441 28:0.075286 29:0.031383 30:0.098696 31:-0.037762 32:-0.048647 33:0.030883 34:-0.009862 35:0.099188 36:-0.001188 37:0.023576 38:0.030355 39:-0.062936 40:0.085155 41:-0.099224 42:0.077096 43:-0.066312 44:0.099832 45:-0.099974 46:0.093864 47:0.070682 48:-0.034045 49:-0.04639 50:-0.065504 51:0.002133 52:0.053412 53:-0.022922 54:0.007822 55:0.069899 56:-0.048623 57:0.084287 58:-0.085271 59:0.097589 60:-0.066126 61:-0.043098 62:-0.09986 63:-0.08086 64:-0.099853 65:-0.073502 66:-0.09987 67:-0.089875 68:0.048795 69:0.099997 70:0.050639 71:0.02207 72:0.080427 73:-0.03482 74:0.014 75:0.099863 76:-0.083233 77:0.01548 78:-0.004444 79:0.096882 80:0.053769 81:0.098417 82:-0.092187 83:-0.033242 84:-0.011771 85:-0.1 86:-0.031149 87:0.097714 88:-0.016814 89:-0.07483 90:-0.075591 91:-0.08996 92:0.007645 93:-0.03735 94:-0.048674 95:0.087567 96:0.018341 97:0.089927 98:-0.079112 99:0.078042 100:0.014233 
1 1:-0.084596 2:0.028883 3:0.099121 4:0.078061 5:0.086218 6:0.067299 7:0.075487 8:-0.079421 9:0.004097 10:-0.091144 11:0.012972 12:0.095002 13:0.049256 14:0.027512 15:0.085674 16:-0.000952 17:-0.052729 18:0.039566 19:0.083024 20:-0.062819 21:-0.027623 22:-0.005103 23:-0.047766 24:-0.064814 25:0.099286 26:-0.089157 27:-0.097379 28:0.079013 29:0.050756 30:-0.098886 31:0.046328 32:-0.02328 33:0.05879 34:-0.098755 35:-0.097446 36:-0.091505 37:-0.077221 38:-0.076187 39:-0.0072 40:0.084946 41:-0.054592 42:-0.099639 43:-0.080112 44:0.039267 45:-0.006492 46:0.088486 47:0.099992 48:-0.093031 49:0.082972 50:-0.099983 51:-0.018366 52:0.099854 53:0.056393 54:-0.0608 55:0.043868 56:-0.088382 57:0.007255 58:-0.099894 59:0.088262 60:-0.085635 61:0.082186 62:-0.096039 63:-0.009562 64:0.07537 65:0.025779 66:0.02387 67:0.03463 68:-0.015736 69:0.060625 70:-0.07901 71:0.000455 72:-0.062976 73:-0.038785 74:-0.070426 75:-0.099362 76:-0.098165 77:-0.046966 78:-0.006309 79:-0.049196 80:-0.070124 81:0.078596 82:0.083617 83:-0.094967 84:-0.059169 85:0.062153 86:-0.085135 87:-0.082546 88:-0.066707 89:0.054024 90:0.012432 91:0.034233 92:0.017311 93:-0.000544 94:-0.088583 95:-0.014814 96:0.061571 97:0.061317 98:0.035827 99:-0.030691 100:0.076412 
1 1:-0.080799 2:0.05574 3:0.088616 4:0.077082 5:0.099337 6:0.067067 7:0.020351 8:-0.08442 9:-0.041492 10:-0.02561 11:-0.055733 12:0.099233 13:0.078016 14:0.090178 15:0.099606 16:0.023247 17:-0.097966 18:0.039392 19:0.096065 20:-0.099994 21:0.097021 22:-0.005431 23:-0.097874 24:-0.078901 25:0.067574 26:-0.097558 27:-0.070096 28:0.002027 29:0.047083 30:-0.093149 31:0.095508 32:-0.056722 33:0.006749 34:-0.099193 35:-0.099923 36:-0.096452 37:-0.09188 38:-0.011319 39:0.058362 40:0.078121 41:-0.002796 42:-0.098256 43:-0.099899 44:-0.055552 45:-0.040257 46:0.099293 47:0.099416 48:-0.083897 49:0.06986 50:-0.040198 51:-0.067714 52:0.077943 53:0.094727 54:0.016441 55:0.064462 56:-0.077128 57:-0.017197 58:-0.033386 59:0.098695 60:-0.046424 61:0.083636 62:-0.07794 63:0.050487 64:0.073345 65:-0.005021 66:-0.070726 67:0.085778 68:0.000562 69:0.096117 70:-0.045893 71:-0.009906 72:0.005965 73:-0.039004 74:-0.091356 75:-0.093868 76:-0.096609 77:0.062355 78:-0.022986 79:-0.071559 80:-0.034162 81:0.098405 82:0.05458 83:-0.095635 84:-0.097475 85:0.071845 86:-0.083606 87:-0.098461 88:-0.099253 89:0.093809 90:-0.03692 91:0.05896 92:0.030483 93:-0.013553 94:-0.065689 95:-0.020361 96:0.095527 97:0.098546 98:0.054112 99:-0.04623 100:0.038578 
1 1:-0.066861 2:0.022065 3:0.098214 4:0.063622 5:0.061937 6:0.055387 7:0.04748 8:-0.08041 9:0.036749 10:-0.093723 11:0.054499 12:0.096856 13:-0.010943 14:0.018833 15:0.029607 16:-0.019059 17:0.0017 18:0.018969 19:0.098349 20:-0.061917 21:-0.024622 22:-0.01884 23:-0.077767 24:-0.086734 25:0.099958 26:-0.099656 27:-0.085542 28:0.079563 29:0.053553 30:-0.095936 31:0.001291 32:-0.019175 33:0.062633 34:-0.091762 35:-0.072189 36:-0.075255 37:-0.008791 38:-0.086588 39:0.029117 40:0.084914 41:-0.039447 42:-0.096132 43:-0.064447 44:0.093186 45:-0.071976 46:0.081773 47:0.099433 48:-0.081299 49:0.054099 50:-0.099387 51:0.027008 52:0.09957 53:-0.023746 54:-0.094093 55:0.039394 56:-0.092177 57:0.078095 58:-0.099951 59:0.082617 60:-0.072716 61:0.053221 62:-0.094996 63:-0.080297 64:0.093853 65:0.041494 66:0.048986 67:0.054791 68:-0.055405 69:0.048704 70:-0.090561 71:0.049931 72:-0.08015 73:-0.084018 74:-0.097855 75:-0.081283 76:-0.099143 77:-0.085395 78:0.039276 79:-0.071499 80:-0.083274 81:0.069921 82:0.096947 83:-0.084876 84:-0.026229 85:0.08495 86:-0.067478 87:-0.097094 88:-0.072884 89:0.070937 90:0.047528 91:-0.038145 92:0.018786 93:-0.05214 94:-0.092365 95:0.058992 96:0.067203 97:0.055603 98:0.053389 99:-0.047738 100:0.083133 
1 1:-0.055995 2:0.018613 3:0.097642 4:0.055351 5:0.046367 6:0.048939 7:0.030922 8:-0.080896 9:0.051754 10:-0.094851 11:0.071702 12:0.097626 13:-0.040958 14:0.014433 15:-0.006355 16:-0.027912 17:0.029858 18:0.008278 19:0.084268 20:-0.061462 21:-0.023113 22:-0.025589 23:-0.088544 24:-0.093985 25:0.099467 26:-0.099391 27:-0.076361 28:0.079835 29:0.054931 30:-0.087574 31:-0.021968 32:-0.01711 33:0.064501 34:-0.086071 35:-0.051211 36:-0.064428 37:0.030422 38:-0.090749 39:0.046107 40:0.084898 41:-0.031409 42:-0.089558 43:-0.055296 44:0.099964 45:-0.09218 46:0.077901 47:0.098626 48:-0.073541 49:0.035987 50:-0.098468 51:0.048168 52:0.098624 53:-0.061248 54:-0.099823 55:0.037121 56:-0.093804 57:0.096566 58:-0.099755 59:0.079421 60:-0.064969 61:0.035178 62:-0.09443 63:-0.097583 64:0.098556 65:0.048944 66:0.06031 67:0.063883 68:-0.071863 69:0.042356 70:-0.094699 71:0.070465 72:-0.086945 73:-0.096282 74:-0.099652 75:-0.064008 76:-0.099495 77:-0.096107 78:0.05948 79:-0.080623 80:-0.088546 81:0.065131 82:0.099669 83:-0.077981 84:-0.008142 85:0.092733 86:-0.056606 87:-0.099804 88:-0.075772 89:0.07818 90:0.062927 91:-0.069018 92:0.019522 93:-0.073116 94:-0.093982 95:0.085252 96:0.069885 97:0.05264 98:0.061437 99:-0.055681 100:0.086109 
1 1:0.02113 2:0.07786 3:0.093996 4:0.047457 5:-0.087077 6:0.089918 7:-0.070327 8:-0.070181 9:-0.032621 10:-0.053985 11:0.049839 12:0.063762 13:-0.044251 14:0.086107 15:0.08055 16:0.099951 17:0.075933 18:0.078288 19:0.063685 20:-0.070143 21:-0.051763 22:0.09027 23:0.029494 24:0.079369 25:0.0187 26:0.081526 27:0.076871 28:0.074087 29:0.025094 30:0.075883 31:-0.096989 32:-0.055808 33:0.021549 34:0.039196 35:0.03595 36:0.056095 37:-0.097585 38:0.062086 39:0.005426 40:0.085219 41:-0.08922 42:0.099929 43:-0.026414 44:-0.007905 45:-0.0071 46:0.081987 47:0.052017 48:0.014409 49:-0.096258 50:-0.044062 51:0.08062 52:0.026685 53:0.099229 54:-0.087495 55:0.076587 56:-0.03245 57:-0.060084 58:-0.076188 59:0.090547 60:-0.029028 61:-0.094977 62:-0.099984 63:0.066777 64:-0.078063 65:-0.091679 66:-0.088193 67:-0.1 68:-0.034165 69:0.09574 70:0.082752 71:0.09518 72:0.099033 73:-0.099986 74:-0.085388 75:0.048014 76:-0.075886 77:-0.079185 78:0.07765 79:0.095105 80:0.083133 81:0.090557 82:-0.096439 83:0.013778 84:0.057903 85:-0.077418 86:0.023675 87:0.087665 88:0.000377 89:-0.095838 90:-0.01155 91:0.035477 92:0.004652 93:-0.099481 94:-0.032396 95:-0.04728 96:0.003711 97:0.095179 98:-0.09652 99:0.095415 100:-0.008074 
1 1:-0.024807 2:0.040314 3:0.081198 4:0.035695 5:0.050255 6:0.03495 7:-0.064182 8:-0.086552 9:0.039903 10:-0.041555 11:0.050082 12:0.095848 13:-0.061845 14:0.078379 15:-0.033236 16:-0.021918 17:0.006225 18:-0.013455 19:-0.008069 20:-0.099922 21:0.098609 22:-0.038991 23:-0.071382 24:-0.098004 25:0.089724 26:-0.03727 27:0.001064 28:0.004281 29:0.054149 30:-0.07542 31:0.009782 32:-0.047775 33:0.018738 34:-0.087768 35:-0.018607 36:-0.088135 37:0.073162 38:-0.05356 39:0.099958 40:0.078025 41:0.039127 42:-0.074982 43:-0.081561 44:0.098562 45:-0.077142 46:0.09795 47:0.091889 48:-0.037131 49:-0.024161 50:-0.009111 51:0.039089 52:0.095222 53:-0.019891 54:-0.095342 55:0.054594 56:-0.089232 57:0.09507 58:-0.014621 59:0.090705 60:0.005217 61:-0.001804 62:-0.083158 63:-0.099996 64:0.098654 65:0.03594 66:-0.010814 67:0.099967 68:-0.087595 69:0.080438 70:-0.085801 71:0.093074 72:-0.053265 73:-0.094664 74:-0.050968 75:-0.060588 76:-0.099407 77:-0.061572 78:0.080459 79:-0.099771 80:-0.076167 81:0.087578 82:0.098699 83:-0.095539 84:-0.04134 85:0.099581 86:-0.029107 87:-0.07521 88:-0.099563 89:0.098182 90:0.052137 91:-0.093956 92:0.034031 93:-0.099702 94:-0.08074 95:0.098503 96:0.099327 97:0.094043 98:0.087417 99:-0.081046 100:0.062538 
1 1:0.009557 2:0.001092 3:0.093623 4:0.007137 5:-0.04322 6:0.013291 7:-0.055422 8:-0.083244 9:0.098229 10:-0.098836 11:0.094127 12:0.099859 13:-0.091597 14:-0.007821 15:-0.095122 16:-0.067315 17:0.098668 18:-0.044124 19:-0.08021 20:-0.059159 21:-0.01549 22:-0.056874 23:-0.087804 24:-0.087122 25:0.088937 26:-0.04732 27:-0.008142 28:0.081172 29:0.061588 30:0.00217 31:-0.098431 32:-0.006686 33:0.073251 34:-0.039838 35:0.072209 36:0.005915 37:0.074913 38:-0.099983 39:0.09851 40:0.084817 41:0.011025 42:-0.019835 43:-0.001382 44:-0.043124 45:-0.012239 46:0.054069 47:0.089453 48:-0.020972 49:-0.060465 50:-0.087869 51:0.099702 52:0.086142 53:-0.037572 54:-0.019944 55:0.025446 56:-0.099127 57:-0.02234 58:-0.096542 59:0.060108 60:-0.017136 61:-0.060454 62:-0.091162 63:0.029565 64:0.073744 65:0.08012 66:0.096986 67:0.095165 68:-0.095413 69:0.00807 70:-0.097423 71:0.087431 72:-0.099452 73:-0.033918 74:-0.003251 75:0.054579 76:-0.099867 77:-0.049182 78:0.097294 79:-0.099736 80:-0.099942 81:0.037502 82:0.073127 83:-0.029361 84:0.074324 85:0.088826 86:0.009287 87:-0.067296 88:-0.087992 89:0.099175 90:0.099934 91:-0.050376 92:0.023184 93:-0.082145 94:-0.099212 95:0.017086 96:0.081801 97:0.036924 98:0.09142 99:-0.086984 100:0.096796 
1 1:0.078516 2:0.087659 3:0.088245 4:-0.002066 5:-0.091511 6:0.067414 7:-0.099385 8:-0.067194 9:0.048471 10:-0.039005 11:0.099778 12:0.050221 13:0.08927 14:0.095224 15:0.037486 16:0.091134 17:-0.053857 18:0.035173 19:-0.094663 20:-0.072171 21:-0.058249 22:0.099514 23:-0.063113 24:0.005509 25:-0.018238 26:-0.001423 27:0.099564 28:0.072554 29:0.017084 30:-0.022522 31:-0.060106 32:-0.064199 33:0.009609 34:0.085713 35:-0.082867 36:0.097676 37:0.019348 38:0.09008 39:0.082661 40:0.085298 41:-0.062272 42:0.058359 43:0.030008 44:-0.08784 45:0.097919 46:0.059668 47:0.024704 48:0.068861 49:-0.073643 50:-0.013345 51:0.087159 52:-0.009641 53:-0.039138 54:-0.060257 55:0.083898 56:-0.010866 57:-0.042423 58:-0.062298 59:0.07576 60:0.023814 61:-0.077101 62:-0.09944 63:0.031376 64:0.001598 65:-0.099997 66:-0.039189 67:-0.084502 68:-0.098891 69:0.079636 70:0.099914 71:0.055378 72:0.088597 73:-0.008891 74:-0.061579 75:-0.069694 76:-0.065137 77:-0.077782 78:0.088457 79:0.05235 80:0.09974 81:0.072278 82:-0.045393 83:0.067028 84:0.099943 85:-0.002458 86:0.080385 87:0.017276 88:0.02179 89:-0.096762 90:0.072488 91:0.079984 92:0.000904 93:-0.030991 94:-0.010666 95:-0.064423 96:-0.014652 97:0.099082 98:-0.097427 99:0.098717 100:-0.035264 
1 1:0.086289 2:0.089301 3:0.086879 4:-0.012337 5:-0.082486 6:0.061642 7:-0.095785 8:-0.066583 9:0.062388 10:-0.035861 11:0.09583 12:0.047335 13:0.098799 14:0.096492 15:0.002008 16:0.08701 17:-0.075453 18:0.024881 19:-0.099829 20:-0.072569 21:-0.059505 22:0.099957 23:-0.077042 24:-0.011696 25:-0.025486 26:-0.020622 27:0.09687 28:0.072243 29:0.015466 30:-0.043037 31:-0.039901 32:-0.065796 33:0.007198 34:0.091482 35:-0.094759 36:0.099794 37:0.05579 38:0.093631 39:0.091553 40:0.085314 41:-0.055321 42:0.042696 43:0.040703 44:-0.062452 45:0.083996 46:0.054383 47:0.018899 48:0.077237 49:-0.058451 50:-0.006931 51:0.073748 52:-0.016908 53:-0.073222 54:-0.035303 55:0.085212 56:-0.006451 57:-0.002632 58:-0.059222 59:0.072087 60:0.03405 61:-0.062778 62:-0.099238 63:-0.009893 64:0.019701 65:-0.09959 66:-0.026407 67:-0.077926 68:-0.099785 69:0.075124 70:0.099759 71:0.032194 72:0.082165 73:0.020907 74:-0.036388 75:-0.085498 76:-0.062798 77:-0.058419 78:0.075273 79:0.039844 80:0.099951 81:0.067639 82:-0.030008 83:0.075382 84:0.098877 85:0.014705 86:0.087849 87:-0.000542 88:0.025983 89:-0.093444 90:0.08394 91:0.052834 92:0.000155 93:-0.004356 94:-0.006222 95:-0.030524 96:-0.018285 97:0.099497 98:-0.094742 99:0.096811 100:-0.040438 
1 1:-0.060104 2:0.097869 3:0.053957 4:0.084811 5:-0.09944 6:0.099483 7:0.074005 8:-0.090041 9:0.052625 10:0.06869 11:0.089103 12:0.068641 13:-0.050921 14:-0.060756 15:0.077309 16:0.091587 17:-0.064148 18:0.098402 19:-0.036428 20:0.063913 21:-0.090712 22:0.07194 23:-0.087905 24:0.067057 25:-0.092523 26:-0.089227 27:-0.097204 28:-0.076987 29:0.017905 30:0.087287 31:-0.011248 32:-0.097691 33:-0.09978 34:0.074222 35:0.079691 36:0.074544 37:-0.052517 38:0.024127 39:0.00643 40:0.056836 41:0.026758 42:0.091138 43:0.096522 44:-0.098178 45:-0.018513 46:-0.075901 47:0.094474 48:-0.089498 49:0.033105 50:0.09891 51:0.095737 52:-0.099995 53:-0.081912 54:-0.047715 55:0.099858 56:0.018002 57:0.034238 58:0.069961 59:0.022917 60:-0.044102 61:-0.042189 62:0.098803 63:0.086067 64:-0.099923 65:-0.09549 66:0.094507 67:0.096625 68:0.00443 69:-0.059786 70:0.091131 71:0.044051 72:-0.031832 73:-0.019621 74:0.099993 75:0.00179 76:-0.068595 77:0.059475 78:0.041657 79:0.025605 80:0.090266 81:-0.027812 82:-0.057018 83:0.098317 84:0.075652 85:-0.085386 86:-0.046704 87:-0.021563 88:-0.042359 89:0.099504 90:0.072434 91:-0.031452 92:0.052734 93:0.020821 94:0.069609 95:0.087453 96:0.072654 97:-0.052169 98:-0.01442 99:0.025575 100:-0.099648 
1 1:0.092421 2:0.090832 3:0.085443 4:-0.022478 5:-0.070622 6:0.055517 7:-0.089079 8:-0.065967 9:0.074555 10:-0.032675 11:0.087131 12:0.044399 13:0.098767 14:0.097567 15:-0.033734 16:0.082165 17:-0.090911 18:0.014298 19:-0.090259 20:-0.072966 21:-0.060747 22:0.09992 23:-0.088005 24:-0.028554 25:-0.032594 26:-0.039052 27:0.091778 28:0.071931 29:0.013845 30:-0.06152 31:-0.017514 32:-0.067363 33:0.004784 34:0.095814 35:-0.099842 36:0.099616 37:0.083548 38:0.096418 39:0.097361 40:0.08533 41:-0.047962 42:0.025623 43:0.050865 44:-0.027301 45:0.05875 46:0.048873 47:0.013028 48:0.084447 49:-0.040848 50:-0.000488 51:0.056484 52:-0.024084 53:-0.094612 54:-0.007482 55:0.086473 56:-0.002023 57:0.037599 58:-0.056058 59:0.0682 60:0.043896 61:-0.045908 62:-0.099004 63:-0.049457 64:0.037152 65:-0.098487 66:-0.01314 67:-0.070354 68:-0.096102 69:0.07023 70:0.098379 71:0.006859 72:0.074466 73:0.048842 74:-0.008137 75:-0.095799 76:-0.060401 77:-0.034906 78:0.058006 79:0.026546 80:0.099092 81:0.062713 82:-0.013794 83:0.082665 84:0.094477 85:0.031433 86:0.093619 87:-0.018342 88:0.030127 89:-0.089019 90:0.092518 91:0.018519 92:-0.000595 93:0.022598 94:-0.001765 95:0.007954 96:-0.021893 97:0.099788 98:-0.09114 99:0.094071 100:-0.045486 
1 1:-0.036048 2:0.096179 3:0.058632 4:0.072177 5:-0.088812 6:0.096818 7:0.09298 8:-0.089313 9:0.077676 10:0.063606 11:0.060783 12:0.073295 13:0.009029 14:-0.067594 15:0.099915 16:0.082794 17:-0.095476 18:0.092301 19:0.038975 20:0.064796 21:-0.091976 22:0.08084 23:-0.06295 24:0.08818 25:-0.085887 26:-0.06559 27:-0.099697 28:-0.076409 29:0.01467 30:0.058557 31:0.034859 32:-0.096707 33:-0.099342 34:0.08853 35:0.037499 36:0.051198 37:-0.097511 38:0.006292 39:-0.029854 40:0.056887 41:0.009873 42:0.099819 43:0.099936 44:-0.055106 45:-0.079843 46:-0.083632 47:0.089915 48:-0.075941 49:-0.006951 50:0.099982 51:0.073085 52:-0.098777 53:-0.097413 54:0.007434 55:0.099475 56:0.026639 57:-0.045656 58:0.075281 59:0.012178 60:-0.062155 61:-0.074397 62:0.098197 63:0.095466 64:-0.094755 65:-0.08922 66:0.082314 67:0.088383 68:-0.037546 69:-0.070574 70:0.079839 71:0.082738 72:-0.054176 73:-0.071512 74:0.084205 75:-0.047139 76:-0.064042 77:0.092137 78:0.078111 79:0.051517 80:0.0795 81:-0.040026 82:-0.027052 83:0.091215 84:0.047082 85:-0.097945 86:-0.020655 87:0.014029 88:-0.050014 89:0.095001 90:0.092488 91:0.04085 92:0.051454 93:-0.032717 94:0.075729 95:0.028099 96:0.077514 97:-0.058046 98:-0.033489 99:0.042988 100:-0.099961 
1 1:-0.022873 2:0.095154 3:0.0609 4:0.064676 5:-0.078793 6:0.094651 7:0.098074 8:-0.08894 9:0.087097 10:0.060954 11:0.041704 12:0.075503 13:0.039195 14:-0.070814 15:0.091895 16:0.077348 17:-0.099988 18:0.087617 19:0.070821 20:0.065235 21:-0.092575 22:0.084718 23:-0.04657 24:0.094962 25:-0.081847 26:-0.049852 27:-0.097243 28:-0.076117 29:0.013046 30:0.039663 31:0.055675 32:-0.096151 33:-0.099036 34:0.09365 35:0.011524 36:0.037615 37:-0.098498 38:-0.002739 39:-0.04679 40:0.056912 41:0.00129 42:0.099258 43:0.09969 44:-0.018458 45:-0.096192 46:-0.086985 47:0.087154 48:-0.067385 49:-0.026967 50:0.099896 51:0.055675 52:-0.097369 53:-0.079765 54:0.035257 55:0.099193 56:0.030884 57:-0.077449 58:0.077773 59:0.006747 60:-0.070166 61:-0.086277 62:0.097849 63:0.075146 64:-0.08739 65:-0.085138 66:0.073892 67:0.082538 68:-0.056423 69:-0.075443 70:0.072683 71:0.094367 72:-0.064178 73:-0.08896 74:0.065191 75:-0.067816 76:-0.061675 77:0.099131 78:0.090434 79:0.063061 80:0.072811 81:-0.045892 82:-0.010733 83:0.08569 84:0.030157 85:-0.099952 86:-0.006905 87:0.031437 88:-0.053705 89:0.091043 90:0.097911 91:0.071119 92:0.05081 93:-0.056862 94:0.078566 95:-0.01048 96:0.079788 97:-0.060879 98:-0.042583 99:0.051175 100:-0.099649 
1 1:0.06559 2:0.016733 3:0.068125 4:-0.034871 5:-0.06991 6:-0.017143 7:-0.092544 8:-0.08929 9:0.099991 10:-0.061779 11:0.086992 12:0.086756 13:-0.028447 14:0.055499 15:-0.025093 16:-0.075706 17:0.088 18:-0.077755 19:-0.034718 20:-0.099681 21:0.099831 22:-0.077405 23:0.054839 24:-0.01635 25:0.099803 26:0.082627 27:0.089701 28:0.007432 29:0.063419 30:0.062075 31:-0.099961 32:-0.034389 33:0.035025 34:-0.019211 35:0.099229 36:-0.001575 37:-0.044316 38:-0.09312 39:0.030827 40:0.077892 41:0.084361 42:0.04135 43:-0.015227 44:-0.086508 45:0.099119 46:0.079403 47:0.06808 48:0.046227 49:-0.099523 50:0.035244 51:0.09071 52:0.097947 53:-0.000524 54:0.012384 55:0.039428 56:-0.098753 57:-0.099842 58:0.012408 59:0.068473 60:0.071816 61:-0.099013 62:-0.089369 63:0.097531 64:0.012988 65:0.081494 66:0.074451 67:0.0684 68:-0.054128 69:0.042178 70:-0.097204 71:0.01309 72:-0.099034 73:0.075455 74:0.099763 75:0.090434 76:-0.099459 77:-0.057049 78:0.054208 79:-0.060559 80:-0.099982 81:0.057467 82:0.053754 83:-0.042238 84:0.075848 85:0.027058 86:0.062667 87:0.039133 88:-0.092269 89:0.05788 90:0.096245 91:0.062287 92:0.038917 93:0.024997 94:-0.094961 95:-0.097144 96:0.098997 97:0.082896 98:0.098355 99:-0.099971 100:0.087576 
1 1:-0.009263 2:0.09401 3:0.06312 4:0.056489 5:-0.06606 6:0.091943 7:0.099987 8:-0.088561 9:0.094075 10:0.058231 11:0.020557 12:0.077629 13:0.065569 14:-0.073894 15:0.071822 16:0.07126 17:-0.096365 18:0.081913 19:0.092214 20:0.065672 21:-0.093152 22:0.088191 23:-0.028398 24:0.09893 25:-0.077357 26:-0.032254 27:-0.092382 28:-0.075824 29:0.011419 30:0.018896 31:0.073445 32:-0.095553 33:-0.098672 34:0.0973 35:-0.015279 36:0.023167 37:-0.084152 38:-0.011748 39:-0.062151 40:0.056937 41:-0.007303 42:0.095418 43:0.09814 44:0.021075 45:-0.099574 46:-0.089978 47:0.084085 48:-0.057811 49:-0.045871 50:0.099394 51:0.035356 52:-0.095437 53:-0.048288 54:0.060217 55:0.098851 56:0.035067 57:-0.096294 58:0.080149 59:0.001295 60:-0.077373 61:-0.094658 62:0.097469 63:0.041871 64:-0.077127 65:-0.080463 66:0.064117 67:0.075638 68:-0.072711 69:-0.079929 70:0.064634 71:0.099695 72:-0.073189 73:-0.098478 74:0.040698 75:-0.084128 76:-0.059251 77:0.099084 78:0.097853 79:0.073351 80:0.065343 81:-0.051564 82:0.005882 83:0.078948 84:0.012215 85:-0.099004 86:0.006978 87:0.047841 88:-0.057297 89:0.086006 90:0.099981 91:0.091743 92:0.050163 93:-0.076841 94:0.081247 95:-0.047487 96:0.081954 97:-0.063636 98:-0.051265 99:0.058922 100:-0.099026 
1 1:0.004523 2:0.09275 3:0.065289 4:0.047703 5:-0.051054 6:0.088709 7:0.098656 8:-0.088176 9:0.098415 10:0.055441 11:-0.00161 12:0.079669 13:0.085597 14:-0.076826 15:0.042329 16:0.064581 17:-0.084903 18:0.075254 19:0.099994 20:0.066106 21:-0.093706 22:0.091241 23:-0.009133 24:0.099966 25:-0.072439 26:-0.013451 27:-0.085235 28:-0.075529 29:0.009789 30:-0.002762 31:0.087199 32:-0.094912 33:-0.098251 34:0.099423 35:-0.040985 36:0.008184 37:-0.056708 38:-0.02066 39:-0.075419 40:0.056962 41:-0.015842 42:0.088426 43:0.095307 44:0.057314 45:-0.089534 46:-0.092598 47:0.080719 48:-0.047364 49:-0.062882 50:0.098479 51:0.01319 52:-0.092993 53:-0.008439 54:0.080289 55:0.09845 56:0.039182 57:-0.09904 58:0.082404 59:-0.004161 60:-0.083696 61:-0.0992 62:0.09706 63:0.001378 64:-0.064307 65:-0.075225 66:0.053166 67:0.067771 68:-0.085663 69:-0.084008 70:0.05579 71:0.098366 72:-0.081072 73:-0.09922 74:0.012783 75:-0.095025 76:-0.056772 77:0.092 78:0.099967 79:0.082183 80:0.057177 81:-0.057019 82:0.022335 83:0.071084 84:-0.006139 85:-0.095129 86:0.020727 87:0.062715 88:-0.060781 89:0.079948 90:0.098627 91:0.099924 92:0.049513 93:-0.091189 94:0.083766 95:-0.077369 96:0.084008 97:-0.066313 98:-0.059451 99:0.066161 100:-0.098092 
1 1:0.031576 2:0.089886 3:0.069468 4:0.028712 5:-0.016345 6:0.080742 7:0.086538 8:-0.087389 9:0.09877 10:0.049673 11:-0.044608 12:0.083488 13:0.09967 14:-0.082226 15:-0.028715 16:0.049674 17:-0.04275 18:0.059396 19:0.072305 20:0.066968 21:-0.094746 22:0.096017 23:0.029695 24:0.093211 25:-0.061434 26:0.024938 27:-0.064843 28:-0.074935 29:0.006521 30:-0.044672 31:0.099909 32:-0.093506 33:-0.097235 34:0.098976 35:-0.081923 36:-0.021995 37:0.019017 38:-0.037909 39:-0.093976 40:0.057012 41:-0.032507 42:0.066005 43:0.085955 44:0.09865 45:-0.036227 46:-0.096679 47:0.073142 48:-0.02449 49:-0.088524 50:0.095426 51:-0.032016 52:-0.08662 53:0.068485 54:0.099777 55:0.097468 56:0.047174 57:-0.057167 58:0.086542 59:-0.015019 60:-0.093409 61:-0.096192 62:0.096149 63:-0.073299 64:-0.032768 65:-0.063216 66:0.028563 67:0.049549 68:-0.099364 69:-0.090866 70:0.036163 71:0.076531 72:-0.092983 73:-0.074897 74:-0.043834 75:-0.098162 76:-0.051659 77:0.059192 78:0.088112 79:0.0948 80:0.039104 81:-0.067184 82:0.052952 83:0.052451 84:-0.041614 85:-0.079137 86:0.046769 87:0.086036 88:-0.067403 89:0.065074 90:0.085948 91:0.076361 92:0.048205 93:-0.099279 94:0.0883 95:-0.099563 96:0.087773 97:-0.071419 98:-0.074024 99:0.07887 100:-0.095311 
1 1:0.06708 2:0.084756 3:0.075316 4:-0.001786 5:0.038319 6:0.065405 7:0.048366 8:-0.086163 9:0.078997 10:0.040601 11:-0.090518 12:0.088527 13:0.052479 14:-0.089087 15:-0.098256 16:0.0244 17:0.040491 18:0.030702 19:-0.034442 20:0.068245 21:-0.096134 22:0.099715 23:0.077767 24:0.063125 25:-0.042471 26:0.073961 27:-0.023098 28:-0.074033 29:0.001607 30:-0.089848 31:0.078973 32:-0.091088 33:-0.095286 34:0.086811 35:-0.098086 36:-0.062671 37:0.098237 38:-0.061302 39:-0.097959 40:0.057087 41:-0.055559 42:0.017396 43:0.063741 44:0.051525 45:0.067208 46:-0.099787 47:0.059875 48:0.012127 49:-0.099198 50:0.087897 51:-0.084852 52:-0.073627 53:0.090393 54:0.070322 55:0.095553 56:0.058447 57:0.058657 58:0.091767 59:-0.030932 60:-0.099903 61:-0.063557 62:0.09456 63:-0.087437 64:0.021154 65:-0.042016 66:-0.011643 67:0.017809 68:-0.086233 69:-0.09766 70:0.003725 71:0.0094 72:-0.099999 73:0.005244 74:-0.097034 75:-0.057746 76:-0.043637 77:-0.01677 78:0.036913 79:0.099505 80:0.009129 81:-0.080259 82:0.0871 83:0.01931 84:-0.083096 85:-0.038624 86:0.07855 87:0.1 88:-0.076381 89:0.037253 90:0.046026 91:-0.023989 92:0.046222 93:-0.059406 94:0.093773 95:-0.0303 96:0.092522 97:-0.078405 98:-0.090381 99:0.092736 100:-0.08892 
1 1:0.076645 2:0.082833 3:0.077147 4:-0.01206 5:0.054724 6:0.059503 7:0.031881 8:-0.085743 9:0.067658 10:0.03748 11:-0.09768 12:0.090015 13:0.023783 14:-0.091024 15:-0.098436 16:0.015475 17:0.064658 18:0.020267 19:-0.067298 20:0.068666 21:-0.09655 22:0.099998 23:0.088543 24:0.048889 25:-0.035633 26:0.085522 27:-0.007554 28:-0.073729 29:-3.2e-05 30:-0.09721 31:0.062566 32:-0.090201 33:-0.094524 34:0.079922 35:-0.08939 36:-0.073738 37:0.097821 38:-0.068181 39:-0.092637 40:0.057112 41:-0.062495 42:-0.000716 43:0.054527 44:0.014282 45:0.089403 46:-0.1 47:0.055007 48:0.024213 49:-0.094598 50:0.084641 51:-0.094652 52:-0.068471 53:0.065139 54:0.047415 55:0.094799 56:0.061985 57:0.086169 58:0.093237 59:-0.036073 60:-0.099802 61:-0.046799 62:0.093971 63:-0.060192 64:0.038525 65:-0.034294 66:-0.024948 67:0.006588 68:-0.073472 69:-0.098944 70:-0.007359 71:-0.016424 72:-0.099277 73:0.034489 74:-0.099891 75:-0.035342 76:-0.040879 77:-0.042215 78:0.014419 79:0.097119 80:-0.001203 81:-0.083963 82:0.094034 83:0.007498 84:-0.091868 85:-0.02225 86:0.086364 87:0.09836 88:-0.079096 89:0.026943 90:0.02888 91:-0.057502 92:0.045556 93:-0.035655 94:0.095229 95:0.008189 96:0.093856 97:-0.080543 98:-0.094148 99:0.095806 100:-0.086225 
1 1:0.084752 2:0.080806 3:0.078916 4:-0.022205 5:0.069244 6:0.053262 7:0.014362 8:-0.085317 9:0.05442 10:0.034314 11:-0.099997 12:0.091405 13:-0.007215 14:-0.092781 15:-0.085705 16:0.006421 17:0.083564 18:0.009597 19:-0.090219 20:0.069084 21:-0.096943 22:0.099802 23:0.095913 24:0.033204 25:-0.028599 26:0.093891 27:0.008177 28:-0.073423 29:-0.001671 30:-0.099982 31:0.042738 32:-0.089274 33:-0.093707 34:0.071778 35:-0.074269 36:-0.083107 37:0.082178 38:-0.074504 39:-0.084195 40:0.057137 41:-0.068969 42:-0.018805 43:0.0446 44:-0.025193 45:0.099546 46:-0.099799 47:0.049945 48:0.035934 49:-0.086094 50:0.081034 51:-0.099506 52:-0.062946 53:0.028593 54:0.02066 55:0.093987 56:0.065401 57:0.099276 58:0.094567 59:-0.041106 60:-0.098561 61:-0.028143 62:0.093353 63:-0.022569 64:0.054619 65:-0.026333 66:-0.037796 67:-0.004717 68:-0.05734 69:-0.099725 70:-0.018353 71:-0.041152 72:-0.097024 73:0.06066 74:-0.09435 75:-0.010664 76:-0.038083 77:-0.064661 78:-0.008858 79:0.092801 80:-0.011522 81:-0.087313 82:0.09837 83:-0.004421 84:-0.097542 85:-0.005219 86:0.092514 87:0.093575 88:-0.081663 89:0.016312 90:0.010744 91:-0.083217 92:0.044887 93:-0.009291 94:0.096495 95:0.045449 96:0.095063 97:-0.082581 98:-0.097004 99:0.098051 100:-0.08326 
1 1:0.096925 2:-0.011372 3:0.049959 4:-0.092476 5:-0.077135 6:-0.070129 7:0.025774 8:-0.092056 9:0.021449 10:-0.080592 11:-0.066694 12:0.070743 13:0.080242 14:0.022929 15:0.046347 16:-0.099986 17:-0.093694 18:-0.098317 19:0.039246 20:-0.099207 21:0.099781 22:-0.099134 23:0.083564 24:0.093721 25:0.079171 26:0.058206 27:0.069529 28:0.011023 29:0.072986 30:0.066688 31:0.027283 32:-0.018198 33:0.052386 34:0.072412 35:-0.064774 36:0.09317 37:0.047475 38:-0.093946 39:-0.091546 40:0.077738 41:0.099267 42:0.095185 43:0.069072 44:0.088554 45:-0.09985 46:0.03917 47:0.026959 48:0.099436 49:0.015418 50:0.076823 51:-0.064146 52:0.070406 53:-0.020721 54:0.066699 55:0.020695 56:-0.098076 57:0.097826 58:0.042074 59:0.031236 60:0.099628 61:-0.009742 62:-0.094794 63:-0.099983 64:-0.097076 65:0.099873 66:0.093847 67:-0.015113 68:0.091066 69:-0.013473 70:-0.043173 71:-0.093198 72:-0.065607 73:-0.01104 74:-0.063501 75:-0.002335 76:-0.094022 77:0.099922 78:-0.096198 79:0.046052 80:-0.066237 81:0.009224 82:-0.069156 83:0.049524 84:0.072398 85:-0.089272 86:0.097633 87:0.096545 88:-0.073764 89:-0.025154 90:-0.018562 91:-0.047402 92:0.044369 93:0.065694 94:-0.099927 95:0.096572 96:0.090627 97:0.064067 98:0.056632 99:-0.071989 100:0.09984 
1 1:0.096925 2:-0.011372 3:0.049959 4:-0.092476 5:-0.077135 6:-0.070129 7:0.025774 8:-0.092056 9:0.021449 10:-0.080592 11:-0.066694 12:0.070743 13:0.080242 14:0.022929 15:0.046347 16:-0.099986 17:-0.093694 18:-0.098317 19:0.039246 20:-0.099207 21:0.099781 22:-0.099134 23:0.083564 24:0.093721 25:0.079171 26:0.058206 27:0.069529 28:0.011023 29:0.072986 30:0.066688 31:0.027283 32:-0.018198 33:0.052386 34:0.072412 35:-0.064774 36:0.09317 37:0.047475 38:-0.093946 39:-0.091546 40:0.077738 41:0.099267 42:0.095185 43:0.069072 44:0.088554 45:-0.09985 46:0.03917 47:0.026959 48:0.099436 49:0.015418 50:0.076823 51:-0.064146 52:0.070406 53:-0.020721 54:0.066699 55:0.020695 56:-0.098076 57:0.097826 58:0.042074 59:0.031236 60:0.099628 61:-0.009742 62:-0.094794 63:-0.099983 64:-0.097076 65:0.099873 66:0.093847 67:-0.015113 68:0.091066 69:-0.013473 70:-0.043173 71:-0.093198 72:-0.065607 73:-0.01104 74:-0.063501 75:-0.002335 76:-0.094022 77:0.099922 78:-0.096198 79:0.046052 80:-0.066237 81:0.009224 82:-0.069156 83:0.049524 84:0.072398 85:-0.089272 86:0.097633 87:0.096545 88:-0.073764 89:-0.025154 90:-0.018562 91:-0.047402 92:0.044369 93:0.065694 94:-0.099927 95:0.096572 96:0.090627 97:0.064067 98:0.056632 99:-0.071989 100:0.09984 
1 1:0.096009 2:0.076454 3:0.082263 4:-0.041685 5:0.090716 6:0.039903 7:-0.021492 8:-0.084448 9:0.023781 10:0.02787 11:-0.089888 12:0.093885 13:-0.064184 14:-0.095737 15:-0.029665 16:-0.011771 17:0.099996 18:-0.011954 19:-0.094693 20:0.069915 21:-0.097659 22:0.097977 23:0.099438 24:-0.000623 25:-0.014096 26:0.099937 27:0.038648 28:-0.072808 29:-0.004948 30:-0.091453 31:-0.00272 32:-0.087303 33:-0.091908 34:0.052256 35:-0.029484 36:-0.095936 37:0.016942 38:-0.085279 39:-0.059188 40:0.057187 41:-0.080344 42:-0.052541 43:0.023134 44:-0.086775 45:0.080019 46:-0.09816 47:0.039309 48:0.057577 49:-0.058925 50:0.072824 51:-0.093633 52:-0.050914 53:-0.052176 54:-0.035576 55:0.092193 56:0.071841 57:0.07628 58:0.096799 59:-0.050791 60:-0.092722 61:0.011791 62:0.092029 63:0.057191 64:0.080901 65:-0.009917 66:-0.061193 67:-0.027003 68:-0.018044 69:-0.099766 70:-0.039532 71:-0.080896 72:-0.088085 73:0.094933 74:-0.060607 75:0.03912 76:-0.032388 77:-0.094505 78:-0.052734 79:0.078751 80:-0.031682 81:-0.092894 82:0.098847 83:-0.027901 84:-0.098942 85:0.028799 86:0.099379 87:0.07528 88:-0.086337 89:-0.0054 90:-0.025998 91:-0.098832 92:0.043542 93:0.043497 94:0.09845 95:0.094944 96:0.097089 97:-0.086347 98:-0.099882 99:0.099993 100:-0.076559 
1 1:0.096009 2:0.076454 3:0.082263 4:-0.041685 5:0.090716 6:0.039903 7:-0.021492 8:-0.084448 9:0.023781 10:0.02787 11:-0.089888 12:0.093885 13:-0.064184 14:-0.095737 15:-0.029665 16:-0.011771 17:0.099996 18:-0.011954 19:-0.094693 20:0.069915 21:-0.097659 22:0.097977 23:0.099438 24:-0.000623 25:-0.014096 26:0.099937 27:0.038648 28:-0.072808 29:-0.004948 30:-0.091453 31:-0.00272 32:-0.087303 33:-0.091908 34:0.052256 35:-0.029484 36:-0.095936 37:0.016942 38:-0.085279 39:-0.059188 40:0.057187 41:-0.080344 42:-0.052541 43:0.023134 44:-0.086775 45:0.080019 46:-0.09816 47:0.039309 48:0.057577 49:-0.058925 50:0.072824 51:-0.093633 52:-0.050914 53:-0.052176 54:-0.035576 55:0.092193 56:0.071841 57:0.07628 58:0.096799 59:-0.050791 60:-0.092722 61:0.011791 62:0.092029 63:0.057191 64:0.080901 65:-0.009917 66:-0.061193 67:-0.027003 68:-0.018044 69:-0.099766 70:-0.039532 71:-0.080896 72:-0.088085 73:0.094933 74:-0.060607 75:0.03912 76:-0.032388 77:-0.094505 78:-0.052734 79:0.078751 80:-0.031682 81:-0.092894 82:0.098847 83:-0.027901 84:-0.098942 85:0.028799 86:0.099379 87:0.07528 88:-0.086337 89:-0.0054 90:-0.025998 91:-0.098832 92:0.043542 93:0.043497 94:0.09845 95:0.094944 96:0.097089 97:-0.086347 98:-0.099882 99:0.099993 100:-0.076559 
1 1:0.098944 2:0.074134 3:0.083839 4:-0.050812 5:0.096928 6:0.032862 7:-0.038662 8:-0.084005 9:0.007238 10:0.024597 11:-0.077963 12:0.094972 13:-0.084642 14:-0.09693 15:0.006294 16:-0.020758 17:0.096185 18:-0.022584 19:-0.075584 20:0.070326 21:-0.097981 22:0.096357 23:0.095458 24:-0.017763 25:-0.006708 26:0.097387 27:0.052634 28:-0.072498 29:-0.006585 30:-0.080556 31:-0.025862 32:-0.086259 33:-0.090928 34:0.041183 35:-0.003039 36:-0.099101 37:-0.022496 38:-0.089644 39:-0.043463 40:0.057213 41:-0.085161 42:-0.067074 43:0.011875 44:-0.099255 45:0.05298 46:-0.096729 47:0.033773 48:0.067173 49:-0.041382 50:0.068256 51:-0.083214 52:-0.044471 53:-0.082396 54:-0.060489 55:0.091213 56:0.074853 57:0.044023 58:0.097699 59:-0.055414 60:-0.088193 61:0.031448 62:0.091325 63:0.085579 64:0.090218 65:-0.001576 66:-0.071313 67:-0.037699 68:0.003316 69:-0.099024 70:-0.049457 71:-0.093258 72:-0.081537 73:0.09998 74:-0.035241 75:0.061021 76:-0.029494 77:-0.099784 78:-0.070954 79:0.069299 80:-0.041307 81:-0.095102 82:0.094974 83:-0.039129 84:-0.094622 85:0.044779 86:0.099962 87:0.062353 88:-0.088434 89:-0.016224 90:-0.043345 91:-0.086615 92:0.042866 93:0.066053 94:0.099134 95:0.099752 96:0.097906 97:-0.08807 98:-0.099876 99:0.099673 100:-0.072844 
1 1:0.098944 2:0.074134 3:0.083839 4:-0.050812 5:0.096928 6:0.032862 7:-0.038662 8:-0.084005 9:0.007238 10:0.024597 11:-0.077963 12:0.094972 13:-0.084642 14:-0.09693 15:0.006294 16:-0.020758 17:0.096185 18:-0.022584 19:-0.075584 20:0.070326 21:-0.097981 22:0.096357 23:0.095458 24:-0.017763 25:-0.006708 26:0.097387 27:0.052634 28:-0.072498 29:-0.006585 30:-0.080556 31:-0.025862 32:-0.086259 33:-0.090928 34:0.041183 35:-0.003039 36:-0.099101 37:-0.022496 38:-0.089644 39:-0.043463 40:0.057213 41:-0.085161 42:-0.067074 43:0.011875 44:-0.099255 45:0.05298 46:-0.096729 47:0.033773 48:0.067173 49:-0.041382 50:0.068256 51:-0.083214 52:-0.044471 53:-0.082396 54:-0.060489 55:0.091213 56:0.074853 57:0.044023 58:0.097699 59:-0.055414 60:-0.088193 61:0.031448 62:0.091325 63:0.085579 64:0.090218 65:-0.001576 66:-0.071313 67:-0.037699 68:0.003316 69:-0.099024 70:-0.049457 71:-0.093258 72:-0.081537 73:0.09998 74:-0.035241 75:0.061021 76:-0.029494 77:-0.099784 78:-0.070954 79:0.069299 80:-0.041307 81:-0.095102 82:0.094974 83:-0.039129 84:-0.094622 85:0.044779 86:0.099962 87:0.062353 88:-0.088434 89:-0.016224 90:-0.043345 91:-0.086615 92:0.042866 93:0.066053 94:0.099134 95:0.099752 96:0.097906 97:-0.08807 98:-0.099876 99:0.099673 100:-0.072844 
1 1:0.043003 2:0.099905 3:0.065427 4:-0.097787 5:0.095202 6:-0.024082 7:0.077385 8:-0.058909 9:0.044029 10:0.004016 11:-0.098489 12:0.009632 13:-0.089987 14:0.096382 15:0.093502 16:-0.003799 17:0.091187 18:-0.086453 19:0.001467 20:-0.077159 21:-0.073375 22:0.069561 23:0.009554 24:-0.081701 25:-0.091249 26:-0.057457 27:-0.053945 28:0.068398 29:-0.004143 30:-0.008377 31:0.067378 32:-0.082499 33:-0.021653 34:0.046348 35:0.097132 36:-0.018619 37:-0.079898 38:0.074821 39:-0.021849 40:0.085505 41:0.043112 42:-0.098521 43:0.097559 44:-0.081907 45:0.028796 46:-0.019612 47:-0.050008 48:0.070546 49:0.09697 50:0.064764 51:-0.093972 52:-0.086739 53:0.04153 54:0.007142 55:0.096753 56:0.045049 57:-0.097952 58:-0.016822 59:0.014965 60:0.099817 61:0.098537 62:-0.094429 63:0.091885 64:0.068553 65:-0.045941 66:0.097748 67:0.044747 68:0.087719 69:-0.000588 70:0.016954 71:-0.035211 72:-0.050303 73:-0.061699 74:0.002247 75:0.080553 76:-0.030862 77:0.052925 78:-0.092954 79:-0.09591 80:0.029364 81:-0.003689 82:0.099267 83:0.075553 84:-0.07074 85:0.080041 86:0.039086 87:-0.083473 88:0.070398 89:0.010042 90:-0.007837 91:0.067895 92:-0.008831 93:-0.007306 94:0.045561 95:-0.094117 96:-0.058581 97:0.094847 98:-0.006434 99:0.020178 100:-0.088535 
1 1:0.089736 2:-0.04642 3:0.072816 4:-0.09801 5:-0.009317 6:-0.079881 7:-0.002911 8:-0.089057 9:-0.05547 10:-0.094859 11:-0.094706 12:0.091726 13:-0.007318 14:-0.064655 15:-0.064386 16:-0.090333 17:-0.051593 18:-0.092192 19:-0.006007 20:-0.052455 21:0.006202 22:-0.099999 23:0.099415 24:0.097684 25:0.005571 26:0.079907 27:0.085129 28:0.084695 29:0.077897 30:0.007154 31:0.09993 32:0.022523 33:0.091707 34:0.097476 35:-0.099006 36:0.081717 37:0.1 38:-0.028363 39:-0.073721 40:0.08459 41:0.096731 42:0.071253 43:0.099985 44:0.026234 45:-0.094464 46:-0.032391 47:0.027114 48:0.099819 49:0.034911 50:-0.016947 51:-0.09898 52:0.001134 53:-0.071466 54:-0.06134 55:-0.008705 56:-0.088315 57:0.028872 58:-0.069239 59:-0.011885 60:0.097012 61:0.032578 62:-0.078338 63:-0.012728 64:-0.098839 65:0.086356 66:-0.007929 67:0.029491 68:0.09861 69:-0.079419 70:0.020808 71:-0.054619 72:0.027048 73:-0.064998 74:-0.078293 75:-0.083994 76:-0.088805 77:-0.008651 78:-0.093627 79:0.045977 80:-0.008848 81:-0.050146 82:-0.099811 83:0.098027 84:-0.026735 85:-0.096792 86:0.089273 87:0.098054 88:-0.099402 89:0.01733 90:-0.087242 91:-0.099849 92:0.033248 93:0.029954 94:-0.087811 95:0.084005 96:0.099528 97:-0.011482 98:0.057337 99:-0.070793 100:0.086335 
1 1:0.060531 2:0.097605 3:0.088691 4:-0.094626 5:0.099674 6:-0.016373 7:0.005399 8:-0.066353 9:0.015413 10:0.077961 11:-0.094796 12:0.054041 13:-0.086837 14:0.047981 15:0.096282 16:-0.018986 17:0.099458 18:-0.080421 19:0.065265 20:-0.098279 21:0.071575 22:0.074584 23:-0.082322 24:-0.097177 25:-0.09773 26:-0.099728 27:0.015168 28:-0.013264 29:-0.006712 30:-0.007859 31:0.01844 32:-0.096805 33:-0.068528 34:0.031666 35:0.094871 36:-0.065771 37:-0.086242 38:0.018192 39:0.061211 40:0.078765 41:-0.018865 42:-0.099574 43:0.076245 44:-0.099986 45:-0.041369 46:-0.06718 47:-0.03369 48:0.089388 49:0.098693 50:-0.051013 51:-0.077817 52:-0.099958 53:-0.043508 54:-0.044512 55:0.099943 56:0.058601 57:-0.099934 58:-0.099626 59:-0.012257 60:0.082994 61:0.099999 62:-0.028938 63:0.081828 64:0.078789 65:-0.024735 66:0.077847 67:-0.032073 68:0.085159 69:-0.054337 70:-0.015229 71:-0.049269 72:-0.091019 73:-0.035496 74:0.063191 75:0.091163 76:-0.027141 77:-0.03308 78:-0.09514 79:-0.075755 80:-0.002701 81:-0.044361 82:0.093316 83:0.035282 84:-0.09673 85:0.094283 86:0.053879 87:-0.09998 88:0.001962 89:-0.060891 90:-0.038566 91:0.061083 92:0.005482 93:0.0323 94:0.071739 95:-0.077871 96:0.001822 97:0.051723 98:-0.035987 99:0.044815 100:-0.099783 
1 1:0.030174 2:0.099996 3:0.063262 4:-0.09942 5:0.099217 6:-0.031345 7:0.087491 8:-0.058243 9:0.028428 10:0.007402 11:-0.09988 12:0.006338 13:-0.072231 14:0.095096 15:0.1 16:-0.012876 17:0.099066 18:-0.091366 19:-0.036342 20:-0.077525 21:-0.074422 22:0.064424 23:0.028803 24:-0.070602 25:-0.094034 26:-0.040648 27:-0.066483 28:0.068068 29:-0.005781 30:0.013346 31:0.048373 32:-0.083668 33:-0.024008 34:0.034903 35:0.099959 36:-0.033267 37:-0.05042 38:0.068529 39:-0.039312 40:0.085521 41:0.050702 42:-0.093791 43:0.094413 44:-0.09774 45:0.061417 46:-0.025878 47:-0.055068 48:0.061317 49:0.090031 50:0.06954 51:-0.083751 52:-0.090152 53:0.000883 54:-0.021279 55:0.097345 56:0.048961 57:-0.081706 58:-0.012992 59:0.00955 60:0.098599 61:0.093123 62:-0.093833 63:0.067937 64:0.054215 65:-0.038366 66:0.099702 67:0.054556 68:0.095932 69:-0.007712 70:0.005941 71:-0.010052 72:-0.060629 73:-0.08218 74:-0.026528 75:0.092873 76:-0.027953 77:0.028634 78:-0.081907 79:-0.098938 80:0.019336 81:-0.01017 82:0.095894 83:0.067221 84:-0.082471 85:0.068588 86:0.025961 87:-0.072331 88:0.073398 89:0.0208 90:-0.026073 91:0.089866 92:-0.009577 93:-0.033787 94:0.049486 95:-0.099898 96:-0.061526 97:0.093671 98:0.0034 99:0.011008 100:-0.090995 
1 1:0.082812 2:-0.049513 3:0.070848 4:-0.099532 5:0.009237 6:-0.084197 7:0.015067 8:-0.089428 9:-0.068578 10:-0.093732 11:-0.085254 12:0.09036 13:-0.03761 14:-0.067994 15:-0.087416 16:-0.086056 17:-0.02531 18:-0.08748 19:-0.043201 20:-0.051963 21:0.007752 22:-0.099735 23:0.095394 24:0.099906 25:-0.001857 26:0.066856 27:0.075848 28:0.084934 29:0.078915 30:-0.014561 31:0.098067 32:0.024564 33:0.092645 34:0.099502 35:-0.099185 36:0.072057 37:0.092183 38:-0.019594 39:-0.084826 40:0.084573 41:0.098552 42:0.057376 43:0.099135 44:-0.013216 45:-0.076256 46:-0.038409 47:0.021344 48:0.099803 49:0.053128 50:-0.010561 51:-0.093159 52:-0.006196 53:-0.036784 54:-0.081124 55:-0.011153 56:-0.08615 57:-0.011862 58:-0.066393 59:-0.017283 60:0.099048 61:0.050861 62:-0.077229 63:0.028655 64:-0.094445 65:0.081846 66:-0.021317 67:0.018517 68:0.092809 69:-0.083547 70:0.031507 71:-0.031331 72:0.038774 73:-0.084535 74:-0.092849 75:-0.094948 76:-0.087365 77:-0.034659 78:-0.082964 79:0.058011 80:0.001486 81:-0.055658 82:-0.09945 83:0.099683 84:-0.043903 85:-0.099666 86:0.082172 87:0.092989 88:-0.098838 89:0.006519 90:-0.094754 91:-0.095068 92:0.033954 93:0.003268 94:-0.08559 95:0.057087 96:0.099818 97:-0.014974 98:0.049012 99:-0.063939 100:0.08338 
1 1:0.096415 2:0.066634 3:0.088158 4:-0.074603 5:0.095266 6:0.010778 7:-0.080641 8:-0.082641 9:-0.041737 10:0.014626 11:-0.022276 12:0.097605 13:-0.093034 14:-0.099345 15:0.091499 16:-0.046395 17:0.042147 18:-0.052415 19:0.029827 20:0.071547 21:-0.098807 22:0.088771 23:0.062785 24:-0.064085 25:0.015514 26:0.068982 27:0.08556 28:-0.07156 29:-0.011482 30:-0.027963 31:-0.082192 32:-0.082902 33:-0.087671 34:0.004829 35:0.070063 36:-0.094881 37:-0.09884 38:-0.098237 39:0.010146 40:0.057288 41:-0.095716 42:-0.095837 43:-0.022234 44:-0.047852 45:-0.052214 46:-0.090063 47:0.016529 48:0.08937 49:0.01828 50:0.052932 51:-0.029138 52:-0.023852 53:-0.07925 54:-0.099799 55:0.087941 56:0.082983 57:-0.070293 58:0.099513 59:-0.06824 60:-0.068816 61:0.079869 62:0.08904 63:0.07577 64:0.099491 65:0.023279 66:-0.093215 67:-0.066381 68:0.062644 69:-0.093807 70:-0.075135 71:-0.091788 72:-0.054846 73:0.063799 74:0.049057 75:0.098857 76:-0.020659 77:-0.074102 78:-0.099666 79:0.033558 80:-0.067145 81:-0.099289 82:0.068399 83:-0.068882 84:-0.063631 85:0.083094 86:0.090293 87:0.01357 88:-0.093724 89:-0.047044 90:-0.084378 91:0.006366 92:0.040823 93:0.09994 94:0.1 95:0.032486 96:0.099554 97:-0.092576 98:-0.09411 99:0.093609 100:-0.060384 
1 1:0.064401 2:-0.055512 3:0.066743 4:-0.099404 5:0.044764 6:-0.091365 7:0.048989 8:-0.090152 9:-0.088709 10:-0.091154 11:-0.054345 12:0.087333 13:-0.084697 14:-0.074259 15:-0.097563 16:-0.0754 17:0.031126 18:-0.075067 19:-0.093907 20:-0.050972 21:0.010847 22:-0.097777 23:0.076636 24:0.095492 25:-0.016639 26:0.033848 27:0.051929 28:0.085406 29:0.080886 30:-0.054936 31:0.078645 32:0.028614 33:0.094357 34:0.098862 35:-0.078656 36:0.048023 37:0.036951 38:-0.001651 39:-0.098189 40:0.084541 41:0.1 42:0.024456 43:0.093572 44:-0.080074 45:-0.012843 46:-0.049944 47:0.009597 48:0.095268 49:0.082324 50:0.002317 51:-0.067471 52:-0.020716 53:0.044592 54:-0.099861 55:-0.016028 56:-0.081316 57:-0.080901 58:-0.060407 59:-0.027908 60:0.099712 61:0.08058 62:-0.074939 63:0.090318 64:-0.076515 65:0.071147 66:-0.046685 67:-0.003998 68:0.068896 69:-0.09051 70:0.051616 71:0.019825 72:0.060259 73:-0.099936 74:-0.097978 75:-0.098209 76:-0.084243 77:-0.077616 78:-0.048966 79:0.078403 80:0.021994 81:-0.065955 82:-0.090572 83:0.098741 84:-0.07327 85:-0.096574 86:0.063386 87:0.074199 88:-0.097159 89:-0.015205 90:-0.099897 91:-0.049225 92:0.035361 93:-0.04885 94:-0.080642 95:-0.017123 96:0.099991 97:-0.021899 98:0.031024 99:-0.04864 100:0.076698 
1 1:0.023394 2:0.094762 3:0.084455 4:-0.099979 5:0.088854 6:-0.038141 7:0.056059 8:-0.064487 9:-0.034125 10:0.083918 11:-0.05458 12:0.045446 13:-0.011464 14:0.03584 15:0.068298 16:-0.044786 17:0.057127 18:-0.095156 19:-0.043383 20:-0.097944 21:0.068242 22:0.059244 23:-0.03687 24:-0.072812 25:-0.090629 26:-0.079351 27:-0.031472 28:-0.014604 29:-0.011609 30:0.054344 31:-0.04949 32:-0.098192 33:-0.073628 34:-0.005392 35:0.088467 36:-0.092204 37:0.015082 38:-0.008801 39:0.010726 40:0.078821 41:0.006815 42:-0.080309 43:0.05002 44:-0.038325 45:0.062974 46:-0.080146 47:-0.049868 48:0.067202 49:0.090104 50:-0.033526 51:-0.020304 52:-0.096918 53:-0.099054 54:-0.096847 55:0.09992 56:0.068826 57:-0.029464 58:-0.097952 59:-0.028268 60:0.096355 61:0.082494 62:-0.023831 63:-0.029201 64:0.035263 65:7.7e-05 66:0.046698 67:0.001286 68:0.099577 69:-0.070923 70:-0.046678 71:0.025921 72:-0.099853 73:-0.095265 74:-0.018775 75:0.094289 76:-0.018252 77:-0.090825 78:-0.052915 79:-0.095886 80:-0.0331 81:-0.060881 82:0.064722 83:0.000276 84:-0.095674 85:0.065525 86:0.015158 87:-0.086924 88:0.014861 89:-0.032202 90:-0.081452 91:0.098057 92:0.003235 93:-0.04668 94:0.080393 95:-0.088173 96:-0.009214 97:0.042404 98:-0.00729 99:0.018502 100:-0.099482 
1 1:0.085535 2:0.061214 3:0.090687 4:-0.08665 5:0.077722 6:-0.004322 7:-0.096323 8:-0.081704 9:-0.069317 10:0.007888 11:0.021983 12:0.098829 13:-0.054019 14:-0.099968 15:0.095141 16:-0.061681 17:-0.013691 18:-0.069445 19:0.088011 20:0.07235 21:-0.099238 22:0.081566 23:0.028195 24:-0.086256 25:0.02997 26:0.036559 27:0.097387 28:-0.070927 29:-0.014733 30:0.015147 31:-0.09906 32:-0.08048 33:-0.085242 34:-0.020108 35:0.096722 36:-0.081093 37:-0.0801 38:-0.099997 39:0.045212 40:0.057338 41:-0.09926 42:-0.099723 43:-0.043772 44:0.029267 45:-0.096023 46:-0.083739 47:0.004706 48:0.097606 49:0.055704 50:0.04158 51:0.01618 52:-0.009403 53:-0.007594 54:-0.087353 55:0.085493 56:0.087597 57:-0.099948 58:0.099977 59:-0.075796 60:-0.051839 61:0.097081 62:0.087378 63:0.002329 64:0.089353 65:0.039134 66:-0.099505 67:-0.081466 68:0.0894 69:-0.08793 70:-0.087813 71:-0.060076 72:-0.032589 73:0.009243 74:0.088878 75:0.093679 76:-0.014669 77:-0.029548 78:-0.092681 79:0.005992 80:-0.080936 81:-0.099994 82:0.040815 83:-0.084061 84:-0.031641 85:0.096998 86:0.075038 87:-0.022015 88:-0.096382 89:-0.065006 90:-0.098088 91:0.072046 92:0.03945 93:0.087355 94:0.099583 95:-0.043387 96:0.099978 97:-0.095008 98:-0.085684 99:0.085504 100:-0.051112 
1 1:0.053264 2:-0.05841 3:0.06461 4:-0.097756 5:0.060514 6:-0.094174 7:0.063833 8:-0.090505 9:-0.095168 10:-0.089708 11:-0.034421 12:0.085676 13:-0.096936 14:-0.077173 15:-0.083349 16:-0.06911 17:0.056689 18:-0.067511 19:-0.099936 20:-0.050475 21:0.01239 22:-0.096092 23:0.06262 24:0.088986 25:-0.023913 26:0.015123 27:0.037884 28:0.08564 29:0.081839 30:-0.071689 31:0.06215 32:0.03062 33:0.095131 34:0.096205 35:-0.059425 36:0.034202 37:-0.001867 38:0.007378 39:-0.099998 40:0.084524 41:0.099617 42:0.0065 43:0.088933 44:-0.097031 45:0.023814 46:-0.055413 47:0.003663 48:0.090819 49:0.092098 50:0.008755 51:-0.048946 52:-0.027829 53:0.077179 54:-0.097293 55:-0.018451 56:-0.078657 57:-0.097665 58:-0.057276 59:-0.033104 60:0.098332 61:0.090811 62:-0.073759 63:0.099968 64:-0.063572 65:0.065032 66:-0.058199 67:-0.015251 68:0.05188 69:-0.09331 70:0.06078 71:0.044279 72:0.069687 73:-0.094428 74:-0.088119 75:-0.090307 76:-0.082565 77:-0.091515 78:-0.027473 79:0.086355 80:0.03195 81:-0.070697 82:-0.0823 83:0.096158 84:-0.084479 85:-0.0907 86:0.052063 87:0.061074 88:-0.096047 89:-0.025861 90:-0.097352 91:-0.014379 92:0.036061 93:-0.070462 94:-0.077924 95:-0.05328 96:0.099874 97:-0.025322 98:0.021536 99:-0.040328 100:0.072993 
1 1:-0.024306 2:0.099122 3:0.054111 4:-0.095404 5:0.081502 6:-0.058208 7:0.097678 8:-0.055539 9:-0.037315 10:0.02082 11:-0.058848 12:-0.006874 13:0.042795 14:0.088093 15:0.011222 16:-0.047379 17:0.053352 18:-0.099991 19:-0.09402 20:-0.078963 21:-0.078428 22:0.041057 23:0.088106 24:-0.009434 25:-0.099875 26:0.034791 27:-0.097727 28:0.066736 29:-0.01231 30:0.084406 31:-0.041929 32:-0.087969 33:-0.033275 34:-0.014449 35:0.044969 36:-0.08114 37:0.087242 38:0.038349 39:-0.090823 40:0.085584 41:0.0768 42:-0.046931 43:0.070134 44:-0.019068 45:0.084325 46:-0.049621 47:-0.073191 48:0.01673 49:0.030174 50:0.085571 51:-0.007627 52:-0.098814 53:-0.099519 54:-0.097746 55:0.099123 56:0.063571 57:0.063719 58:0.002464 59:-0.012233 60:0.082783 61:0.038098 62:-0.09116 63:-0.079926 64:-0.015569 65:-0.005944 66:0.089398 67:0.085705 68:0.084071 69:-0.035459 70:-0.037485 71:0.080509 72:-0.091216 73:-0.08296 74:-0.099043 75:0.080345 76:-0.016086 77:-0.070246 78:-0.002624 79:-0.091362 80:-0.021746 81:-0.035395 82:0.057913 83:0.025718 84:-0.099098 85:0.006709 86:-0.028897 87:-0.009228 88:0.083978 89:0.060143 90:-0.08442 91:0.051702 92:-0.012558 93:-0.099021 94:0.064124 95:0.003358 96:-0.072432 97:0.087825 98:0.041465 99:-0.025821 100:-0.097926 
1 1:0.068179 2:0.05549 3:0.092925 4:-0.09503 5:0.049567 6:-0.019325 7:-0.099607 8:-0.080745 9:-0.089175 10:0.001114 11:0.061936 12:0.099621 13:0.005398 14:-0.099795 15:0.050506 16:-0.074925 17:-0.065164 18:-0.08325 19:0.096147 20:0.073142 21:-0.099573 22:0.072799 23:-0.010693 24:-0.098279 25:0.043765 26:-0.00127 27:0.099632 28:-0.070288 29:-0.017967 30:0.055431 31:-0.094554 32:-0.077916 33:-0.082613 34:-0.043787 35:0.096077 36:-0.059883 37:-0.013427 38:-0.098501 39:0.07424 40:0.057388 41:-0.099874 42:-0.090539 43:-0.063026 44:0.088801 45:-0.089803 46:-0.076029 47:-0.007183 48:0.099964 49:0.084028 50:0.029538 51:0.058161 52:0.005248 53:0.0691 54:-0.047115 55:0.082838 56:0.091524 57:-0.065558 58:0.099842 59:-0.08245 60:-0.032497 61:0.098703 62:0.085608 63:-0.072649 64:0.067465 65:0.053899 66:-0.098536 67:-0.092399 68:0.099937 69:-0.080267 70:-0.096188 71:-0.012586 72:-0.008329 73:-0.048534 74:0.099441 75:0.064769 76:-0.008624 77:0.023252 78:-0.065867 79:-0.022049 80:-0.091275 81:-0.099014 82:0.008752 83:-0.094479 84:0.00458 85:0.099514 86:0.054026 87:-0.054807 88:-0.098322 89:-0.079895 90:-0.098476 91:0.099967 92:0.038068 93:0.049636 94:0.098374 95:-0.094196 96:0.099861 97:-0.096969 98:-0.07395 99:0.074457 100:-0.041201 
1 1:0.068179 2:0.05549 3:0.092925 4:-0.09503 5:0.049567 6:-0.019325 7:-0.099607 8:-0.080745 9:-0.089175 10:0.001114 11:0.061936 12:0.099621 13:0.005398 14:-0.099795 15:0.050506 16:-0.074925 17:-0.065164 18:-0.08325 19:0.096147 20:0.073142 21:-0.099573 22:0.072799 23:-0.010693 24:-0.098279 25:0.043765 26:-0.00127 27:0.099632 28:-0.070288 29:-0.017967 30:0.055431 31:-0.094554 32:-0.077916 33:-0.082613 34:-0.043787 35:0.096077 36:-0.059883 37:-0.013427 38:-0.098501 39:0.07424 40:0.057388 41:-0.099874 42:-0.090539 43:-0.063026 44:0.088801 45:-0.089803 46:-0.076029 47:-0.007183 48:0.099964 49:0.084028 50:0.029538 51:0.058161 52:0.005248 53:0.0691 54:-0.047115 55:0.082838 56:0.091524 57:-0.065558 58:0.099842 59:-0.08245 60:-0.032497 61:0.098703 62:0.085608 63:-0.072649 64:0.067465 65:0.053899 66:-0.098536 67:-0.092399 68:0.099937 69:-0.080267 70:-0.096188 71:-0.012586 72:-0.008329 73:-0.048534 74:0.099441 75:0.064769 76:-0.008624 77:0.023252 78:-0.065867 79:-0.022049 80:-0.091275 81:-0.099014 82:0.008752 83:-0.094479 84:0.00458 85:0.099514 86:0.054026 87:-0.054807 88:-0.098322 89:-0.079895 90:-0.098476 91:0.099967 92:0.038068 93:0.049636 94:0.098374 95:-0.094196 96:0.099861 97:-0.096969 98:-0.07395 99:0.074457 100:-0.041201 
1 1:0.021636 2:-0.038578 3:0.029244 4:-0.090736 5:0.05692 6:-0.098226 7:0.09912 8:-0.094425 9:-0.090233 10:-0.09351 11:-0.05862 12:0.049813 13:-0.099999 14:-0.012533 15:-0.065197 16:-0.073449 17:0.035397 18:-0.049972 19:-0.04368 20:-0.09852 21:0.098191 22:-0.091217 23:-0.055016 24:0.052123 25:0.031379 26:-0.079958 27:-0.047149 28:0.014601 29:0.081299 30:-0.084783 31:0.083609 32:-0.001495 33:0.067791 34:0.097085 35:-0.028198 36:0.066516 37:-0.050574 38:-0.047785 39:-0.049245 40:0.077584 41:0.069015 42:-0.019563 43:0.099428 44:-0.090441 45:0.097074 46:-0.011221 47:-0.020153 48:0.063892 49:0.097763 50:0.098405 51:-0.057487 52:0.019319 53:0.041021 54:-0.099991 55:0.001162 56:-0.085196 57:-0.093533 58:0.067733 59:-0.011861 60:0.058795 61:0.099851 62:-0.098332 63:0.098274 64:-0.034718 65:0.075249 66:0.013416 67:-0.087072 68:0.027623 69:-0.064856 70:0.04268 71:0.076638 72:0.027507 73:-0.059214 74:-0.012553 75:-0.088343 76:-0.083038 77:-0.050408 78:0.001965 79:0.099932 80:0.010342 81:-0.041455 82:-0.086582 83:0.099515 84:-0.061429 85:-0.061382 86:0.023888 87:-0.012488 88:-0.046544 89:-0.090261 90:-0.099515 91:0.03101 92:0.049661 93:-0.099335 94:-0.092301 95:-0.095949 96:0.074445 97:0.040182 98:-0.018402 99:-0.006067 100:0.092461 
1 1:0.028183 2:-0.063984 3:0.06019 4:-0.091377 5:0.085292 6:-0.098167 7:0.086894 8:-0.091192 9:-0.099973 10:-0.086507 11:0.009475 12:0.082082 13:-0.092996 14:-0.082535 15:-0.025424 16:-0.054867 17:0.092274 18:-0.050136 19:-0.069026 20:-0.049475 21:0.015468 22:-0.091352 23:0.027991 24:0.068336 25:-0.038026 26:-0.023299 27:0.007353 28:0.086102 29:0.083679 30:-0.094408 31:0.02005 32:0.034591 33:0.09651 34:0.086425 35:-0.009839 36:0.004535 37:-0.072632 38:0.025182 39:-0.093566 40:0.084492 41:0.09665 42:-0.029454 43:0.076242 44:-0.085163 45:0.08299 46:-0.065641 47:-0.008224 48:0.077893 49:0.099998 50:0.021494 51:-0.005326 52:-0.041567 53:0.098881 54:-0.06931 55:-0.023263 56:-0.072882 57:-0.082135 58:-0.05076 59:-0.043186 60:0.092227 61:0.099959 62:-0.071329 63:0.068874 64:-0.031863 65:0.051488 66:-0.077838 67:-0.037032 68:0.011597 69:-0.097475 70:0.076762 71:0.08288 72:0.085189 73:-0.059406 74:-0.047631 75:-0.057948 76:-0.07898 77:-0.099284 78:0.018734 79:0.096983 80:0.050734 81:-0.079266 82:-0.059228 83:0.086948 84:-0.098068 85:-0.071159 86:0.026644 87:0.029447 88:-0.093288 89:-0.04613 90:-0.082461 91:0.056172 92:0.037455 93:-0.096993 94:-0.07203 95:-0.097384 96:0.099234 97:-0.032071 98:0.002028 99:-0.022736 100:0.06491 
1 1:0.057466 2:0.052523 3:0.093933 4:-0.097728 5:0.032669 6:-0.026681 7:-0.096402 8:-0.080257 9:-0.095477 10:-0.002277 11:0.077775 12:0.099854 13:0.035821 14:-0.099411 15:0.016454 16:-0.08064 17:-0.083928 18:-0.088736 19:0.078684 20:0.073534 21:-0.099704 22:0.067881 23:-0.029897 24:-0.099991 25:0.050318 26:-0.020472 27:0.097055 28:-0.069967 29:-0.019578 30:0.072101 31:-0.084408 32:-0.076582 33:-0.081226 34:-0.054686 35:0.085256 36:-0.047079 37:0.025946 38:-0.096543 39:0.085232 40:0.057413 41:-0.099074 42:-0.081358 43:-0.071478 44:0.099682 45:-0.067873 46:-0.071693 47:-0.0131 48:0.098881 49:0.093251 50:0.02332 51:0.075115 52:0.012551 53:0.092549 54:-0.020326 55:0.081435 56:0.093219 57:-0.029854 58:0.09955 59:-0.085414 60:-0.022211 61:0.093485 62:0.084682 63:-0.094297 64:0.052963 65:0.060742 66:-0.095331 67:-0.096125 68:0.098398 69:-0.075813 70:-0.098624 71:0.013255 72:0.004088 73:-0.07218 74:0.092232 75:0.043511 76:-0.005589 77:0.048116 78:-0.04668 79:-0.035551 80:-0.095005 81:-0.097895 82:-0.007868 83:-0.097707 84:0.022768 85:0.096354 86:0.041851 87:-0.068827 88:-0.099018 89:-0.08596 90:-0.093586 91:0.094114 92:0.037373 93:0.024534 94:0.097476 95:-0.099887 96:0.099598 97:-0.09777 98:-0.06698 99:0.067945 100:-0.036045 
1 1:-0.031068 2:0.089331 3:0.077868 4:-0.09242 5:0.034376 6:-0.063945 7:0.096785 8:-0.061939 9:-0.085153 10:0.090502 11:0.031003 12:0.033307 13:0.090631 14:0.018694 15:-0.06479 16:-0.073715 17:-0.051136 18:-0.099289 19:-0.09113 20:-0.097452 21:0.063569 22:0.034958 23:0.039706 24:-0.012586 25:-0.074278 26:-0.014215 27:-0.081345 28:-0.016385 29:-0.018093 30:0.099216 31:-0.099334 32:-0.099434 33:-0.079822 34:-0.052735 35:0.001023 36:-0.097804 37:0.098572 38:-0.043456 39:-0.058716 40:0.078896 41:0.040061 42:-0.0203 43:0.006611 44:0.093155 45:0.083239 46:-0.092732 47:-0.068894 48:0.024251 49:0.030334 50:-0.008383 51:0.065328 52:-0.085655 53:0.024221 54:-0.062796 55:0.099042 56:0.080542 57:0.09753 58:-0.093672 59:-0.048369 60:0.098767 61:0.016245 62:-0.016921 63:-0.092164 64:-0.036062 65:0.032882 66:-0.005591 67:0.044872 68:0.058132 69:-0.087896 70:-0.080122 71:0.096322 72:-0.09035 73:-0.062967 74:-0.097632 75:0.021202 76:-0.006178 77:-0.080356 78:0.036715 79:-0.096196 80:-0.068248 81:-0.079224 82:0.003835 83:-0.045674 84:-0.051418 85:0.002584 86:-0.039274 87:-0.03311 88:0.031634 89:0.010769 90:-0.099252 91:-0.010797 92:0.000237 93:-0.1 94:0.089673 95:0.046158 96:-0.023732 97:0.029262 98:0.031513 99:-0.018432 100:-0.094748 
1 1:0.014716 2:-0.066654 3:0.057907 4:-0.086715 5:0.093469 6:-0.099326 7:0.094362 8:-0.091526 9:-0.098184 10:-0.084756 11:0.03127 12:0.080149 13:-0.077199 14:-0.084971 15:0.010689 16:-0.047032 17:0.099402 18:-0.04052 19:-0.036649 20:-0.048972 21:0.017002 22:-0.088318 23:0.008711 24:0.054803 25:-0.044787 26:-0.041563 27:-0.008378 28:0.086331 29:0.084565 30:-0.099302 31:-0.003252 32:0.036555 33:0.097115 34:0.079456 35:0.016952 36:-0.010629 37:-0.093565 38:0.033812 39:-0.085543 40:0.084475 41:0.094088 42:-0.046266 43:0.068356 44:-0.058193 45:0.097532 46:-0.070358 47:-0.014135 48:0.069611 49:0.097798 50:0.027743 51:0.01749 52:-0.04812 53:0.084234 54:-0.046167 55:-0.025649 56:-0.069777 57:-0.052437 58:-0.047386 59:-0.048041 60:0.087571 61:0.098505 62:-0.070081 63:0.03349 64:-0.014147 65:0.044152 66:-0.085602 67:-0.04728 68:-0.009821 69:-0.098818 70:0.083385 71:0.094451 72:0.091025 73:-0.033013 74:-0.020405 75:-0.035574 76:-0.077077 77:-0.092604 78:0.040944 79:0.099448 80:0.059362 81:-0.083057 82:-0.045064 83:0.080452 84:-0.099992 85:-0.05807 86:0.013038 87:0.011957 88:-0.091646 89:-0.055503 90:-0.070626 91:0.08231 92:0.038149 93:-0.099967 94:-0.068865 95:-0.098714 96:0.098712 97:-0.035387 98:-0.007803 99:-0.013607 100:0.060557 
1 1:0.045661 2:0.04949 3:0.094866 4:-0.09939 5:0.014646 6:-0.033886 7:-0.09007 8:-0.079764 9:-0.0991 10:-0.005666 11:0.089756 12:0.099978 13:0.062777 14:-0.098829 15:-0.019756 16:-0.085686 17:-0.095863 18:-0.093188 19:0.049607 20:0.073925 21:-0.099812 22:0.062638 23:-0.047951 24:-0.09874 25:0.056595 26:-0.038911 27:0.092076 28:-0.069644 29:-0.021183 30:0.085367 31:-0.069647 32:-0.075215 33:-0.079791 34:-0.064727 35:0.068308 36:-0.033192 37:0.061281 38:-0.093797 39:0.093354 40:0.057438 41:-0.097541 42:-0.069489 43:-0.078995 44:0.094981 45:-0.036794 46:-0.06706 47:-0.018971 48:0.096304 49:0.098625 50:0.017005 51:0.088143 52:0.019786 53:0.099952 54:0.008113 55:0.079982 56:0.094731 57:0.010841 58:0.099108 59:-0.088123 60:-0.011672 61:0.084475 62:0.08373 63:-0.099689 64:0.036705 65:0.067161 66:-0.09038 67:-0.098622 68:0.092345 69:-0.070973 70:-0.099848 71:0.03821 72:0.016443 73:-0.089394 74:0.077269 75:0.019453 76:-0.002548 77:0.069563 78:-0.024961 79:-0.048345 80:-0.09772 81:-0.096363 82:-0.024271 83:-0.099546 84:0.040189 85:0.090346 86:0.02887 87:-0.080646 88:-0.099529 89:-0.091006 90:-0.085491 91:0.075497 92:0.036677 93:-0.002365 94:0.096383 95:-0.090591 96:0.099201 97:-0.098449 98:-0.059362 99:0.060849 100:-0.030776 
1 1:0.045661 2:0.04949 3:0.094866 4:-0.09939 5:0.014646 6:-0.033886 7:-0.09007 8:-0.079764 9:-0.0991 10:-0.005666 11:0.089756 12:0.099978 13:0.062777 14:-0.098829 15:-0.019756 16:-0.085686 17:-0.095863 18:-0.093188 19:0.049607 20:0.073925 21:-0.099812 22:0.062638 23:-0.047951 24:-0.09874 25:0.056595 26:-0.038911 27:0.092076 28:-0.069644 29:-0.021183 30:0.085367 31:-0.069647 32:-0.075215 33:-0.079791 34:-0.064727 35:0.068308 36:-0.033192 37:0.061281 38:-0.093797 39:0.093354 40:0.057438 41:-0.097541 42:-0.069489 43:-0.078995 44:0.094981 45:-0.036794 46:-0.06706 47:-0.018971 48:0.096304 49:0.098625 50:0.017005 51:0.088143 52:0.019786 53:0.099952 54:0.008113 55:0.079982 56:0.094731 57:0.010841 58:0.099108 59:-0.088123 60:-0.011672 61:0.084475 62:0.08373 63:-0.099689 64:0.036705 65:0.067161 66:-0.09038 67:-0.098622 68:0.092345 69:-0.070973 70:-0.099848 71:0.03821 72:0.016443 73:-0.089394 74:0.077269 75:0.019453 76:-0.002548 77:0.069563 78:-0.024961 79:-0.048345 80:-0.09772 81:-0.096363 82:-0.024271 83:-0.099546 84:0.040189 85:0.090346 86:0.02887 87:-0.080646 88:-0.099529 89:-0.091006 90:-0.085491 91:0.075497 92:0.036677 93:-0.002365 94:0.096383 95:-0.090591 96:0.099201 97:-0.098449 98:-0.059362 99:0.060849 100:-0.030776 
0.7088662117696449 1:0.000968 2:-0.06924 3:0.055577 4:-0.081133 5:0.098427 6:-0.099918 7:0.09877 8:-0.091854 9:-0.093642 10:-0.082908 11:0.051514 12:0.07813 13:-0.053932 14:-0.087239 15:0.045401 16:-0.038807 17:0.098442 18:-0.030432 19:0.001137 20:-0.048467 21:0.018531 22:-0.084862 23:-0.010904 24:0.039647 25:-0.0513 26:-0.058276 27:-0.023902 28:0.086557 29:0.085429 30:-0.099506 31:-0.026376 32:0.038502 33:0.097664 34:0.071239 35:0.042524 36:-0.025548 37:-0.099934 38:0.042166 39:-0.07464 40:0.084459 41:0.090831 42:-0.061549 43:0.059576 44:-0.022126 45:0.098927 46:-0.074783 47:-0.019995 48:0.060277 49:0.091562 50:0.033877 51:0.039392 52:-0.054413 53:0.054984 54:-0.019275 55:-0.028019 56:-0.066534 57:-0.013973 58:-0.04394 59:-0.052753 60:0.081914 61:0.093055 62:-0.068811 63:-0.007667 64:0.004037 65:0.036509 66:-0.091799 67:-0.056924 68:-0.030789 69:-0.099659 70:0.088983 71:0.099715 72:0.095455 73:-0.003678 74:0.008537 75:-0.01091 76:-0.075103 77:-0.079346 78:0.060934 79:0.099935 80:0.067355 81:-0.086498 82:-0.029656 83:0.072814 84:-0.098543 85:-0.043265 86:-0.000819 87:-0.005915 88:-0.089833 89:-0.064218 90:-0.056371 91:0.097285 92:0.038841 93:-0.095616 94:-0.065563 95:-0.085232 96:0.098056 97:-0.03866 98:-0.017559 99:-0.004361 100:0.056015 
1 1:0.000968 2:-0.06924 3:0.055577 4:-0.081133 5:0.098427 6:-0.099918 7:0.09877 8:-0.091854 9:-0.093642 10:-0.082908 11:0.051514 12:0.07813 13:-0.053932 14:-0.087239 15:0.045401 16:-0.038807 17:0.098442 18:-0.030432 19:0.001137 20:-0.048467 21:0.018531 22:-0.084862 23:-0.010904 24:0.039647 25:-0.0513 26:-0.058276 27:-0.023902 28:0.086557 29:0.085429 30:-0.099506 31:-0.026376 32:0.038502 33:0.097664 34:0.071239 35:0.042524 36:-0.025548 37:-0.099934 38:0.042166 39:-0.07464 40:0.084459 41:0.090831 42:-0.061549 43:0.059576 44:-0.022126 45:0.098927 46:-0.074783 47:-0.019995 48:0.060277 49:0.091562 50:0.033877 51:0.039392 52:-0.054413 53:0.054984 54:-0.019275 55:-0.028019 56:-0.066534 57:-0.013973 58:-0.04394 59:-0.052753 60:0.081914 61:0.093055 62:-0.068811 63:-0.007667 64:0.004037 65:0.036509 66:-0.091799 67:-0.056924 68:-0.030789 69:-0.099659 70:0.088983 71:0.099715 72:0.095455 73:-0.003678 74:0.008537 75:-0.01091 76:-0.075103 77:-0.079346 78:0.060934 79:0.099935 80:0.067355 81:-0.086498 82:-0.029656 83:0.072814 84:-0.098543 85:-0.043265 86:-0.000819 87:-0.005915 88:-0.089833 89:-0.064218 90:-0.056371 91:0.097285 92:0.038841 93:-0.095616 94:-0.065563 95:-0.085232 96:0.098056 97:-0.03866 98:-0.017559 99:-0.004361 100:0.056015 
1 1:0.032988 2:0.046396 3:0.095723 4:-0.099997 5:-0.003881 6:-0.040896 7:-0.080816 8:-0.079265 9:-0.099944 10:-0.009047 11:0.097288 12:0.099993 13:0.083659 14:-0.098049 15:-0.053376 16:-0.090022 17:-0.1 18:-0.096554 19:0.013208 20:0.074312 21:-0.099895 22:0.057096 23:-0.06416 24:-0.094564 25:0.062559 26:-0.055897 27:0.084818 28:-0.06932 29:-0.022782 30:0.094602 31:-0.051076 32:-0.073814 33:-0.07831 34:-0.073751 35:0.046451 36:-0.01854 37:0.087076 38:-0.090286 39:0.098332 40:0.057463 41:-0.095288 42:-0.055325 43:-0.085479 44:0.075432 45:-0.000755 46:-0.06215 47:-0.024775 48:0.092272 49:0.09993 50:0.010619 51:0.096566 52:0.026915 53:0.090027 54:0.035894 55:0.078482 56:0.096057 57:0.049724 58:0.098518 59:-0.09057 60:-0.000999 61:0.072039 62:0.082752 63:-0.087895 64:0.01923 65:0.073111 66:-0.083774 67:-0.099859 68:0.082055 69:-0.065773 70:-0.099845 71:0.060614 72:0.028544 73:-0.098641 74:0.055811 75:-0.005858 76:0.000495 77:0.086068 78:-0.001889 79:-0.060178 80:-0.09939 81:-0.094424 82:-0.040003 83:-0.099971 84:0.056254 85:0.081667 86:0.015331 87:-0.089887 88:-0.099855 89:-0.094973 90:-0.074468 91:0.046641 92:0.035978 93:-0.029091 94:0.095099 95:-0.067702 96:0.098669 97:-0.099006 98:-0.051169 99:0.053227 100:-0.025411 
1 1:-0.032778 2:-0.051164 3:0.018257 4:-0.066302 5:0.097545 6:-0.099353 7:0.065681 8:-0.095456 9:-0.097479 10:-0.097443 11:0.026307 12:0.037948 13:-0.031917 14:-0.02995 15:0.067906 16:-0.044434 17:0.099794 18:-0.009126 19:0.088865 20:-0.098098 21:0.096825 22:-0.076536 23:-0.09796 24:-0.014062 25:0.002198 26:-0.09916 27:-0.090049 28:0.016382 29:0.08494 30:-0.095172 31:0.005251 32:0.006902 33:0.074576 34:0.073606 35:0.071015 36:0.012001 37:-0.085355 38:-0.013636 39:0.021834 40:0.077507 41:0.040567 42:-0.079859 43:0.084474 44:-0.040743 45:0.033003 46:-0.036153 47:-0.042672 48:0.019976 49:0.051833 50:0.099687 51:0.029926 52:-0.009878 53:0.086298 54:-0.04267 55:-0.008669 56:-0.074626 57:0.042408 58:0.078274 59:-0.033082 60:0.01992 61:0.073005 62:-0.09937 63:-0.028427 64:0.036604 65:0.049475 66:-0.039608 67:-0.09981 68:-0.054681 69:-0.083655 70:0.077368 71:0.094312 72:0.070029 73:0.053534 74:0.086138 75:-0.006554 76:-0.075658 77:-0.099964 78:0.081527 79:0.082454 80:0.049463 81:-0.063451 82:-0.037205 83:0.092919 84:-0.098494 85:0.002778 86:-0.03094 87:-0.074557 88:-0.030641 89:-0.099996 90:-0.066763 91:0.097456 92:0.052241 93:-0.056469 94:-0.084006 95:-0.029277 96:0.063837 97:0.026921 98:-0.054688 99:0.030578 100:0.08171 
1 1:0.006012 2:0.040039 3:0.097206 4:-0.098036 5:-0.039902 6:-0.054178 7:-0.054827 8:-0.078252 9:-0.093279 10:-0.015776 11:0.097743 12:0.099695 13:0.099899 14:-0.095907 15:-0.096121 16:-0.096423 17:-0.084191 18:-0.099888 19:-0.05978 20:0.07508 21:-0.099989 22:0.045216 23:-0.088642 24:-0.078013 25:0.07342 26:-0.083056 27:0.064238 28:-0.068667 29:-0.025962 30:0.099445 31:-0.006723 32:-0.070915 33:-0.07521 34:-0.088203 35:-0.005467 36:0.011695 37:0.096099 38:-0.081089 39:0.098301 40:0.057513 41:-0.08869 42:-0.022041 43:-0.095023 44:0.005861 45:0.066756 46:-0.051578 47:-0.036099 48:0.080108 49:0.090284 50:-0.002258 51:0.098098 52:0.040702 53:0.027779 54:0.080694 55:0.075338 56:0.098142 57:0.097439 58:0.096895 59:-0.094649 60:0.020258 61:0.039025 62:0.080719 63:-0.023495 64:-0.017032 65:0.083443 66:-0.066105 67:-0.098504 68:0.050826 69:-0.054397 70:-0.096172 71:0.092054 72:0.051245 73:-0.090719 74:0.001019 75:-0.053743 76:0.006577 77:0.1 78:0.043305 79:-0.080042 80:-0.099536 81:-0.089361 82:-0.067749 83:-0.096574 84:0.082218 85:0.057391 86:-0.012365 87:-0.099544 88:-0.099947 89:-0.099495 90:-0.045235 91:-0.025276 92:0.034575 93:-0.074346 94:0.091965 95:0.003593 96:0.097205 97:-0.09975 98:-0.033384 99:0.036678 100:-0.01446 
1 1:-0.074606 2:-0.071333 3:-0.09698 4:0.079254 5:0.096936 6:0.097342 7:0.021643 8:-0.098951 9:-0.085722 10:0.068754 11:0.095019 12:-0.076718 13:0.038192 14:-0.036638 15:-0.099745 16:-0.066949 17:-0.062796 18:0.092803 19:-0.098057 20:0.055537 21:-0.060488 22:0.079466 23:-0.044531 24:-0.034173 25:-0.071047 26:0.066513 27:0.074347 28:-0.079415 29:-0.014705 30:-0.080458 31:-0.039807 32:0.095322 33:0.062192 34:0.005874 35:-0.079967 36:0.088998 37:0.018355 38:0.088044 39:-0.098894 40:-0.022154 41:-0.072008 42:0.079341 43:-0.054057 44:0.008069 45:0.099875 46:0.087595 47:0.092447 48:-0.077085 49:0.097922 50:-0.038222 51:-0.004702 52:0.019295 53:0.099375 54:-0.045992 55:-0.025375 56:0.099272 57:-0.081307 58:-0.097381 59:-0.082491 60:-0.000541 61:-0.085244 62:0.081191 63:-0.003514 64:-0.085909 65:0.087936 66:0.006356 67:-0.044216 68:-0.099918 69:0.085236 70:-0.085575 71:0.099156 72:0.050049 73:-0.070337 74:-0.043818 75:0.056843 76:-0.02083 77:0.011765 78:0.087408 79:-0.099154 80:-0.087292 81:0.0632 82:0.050133 83:0.0016 84:0.097686 85:-0.04364 86:-0.039629 87:-0.030848 88:-0.097827 89:-0.048432 90:-0.099993 91:0.068355 92:0.099681 93:0.054821 94:-0.03134 95:-0.010948 96:0.022054 97:0.046533 98:0.088938 99:-0.067148 100:0.097975 
1 1:-0.007777 2:0.036784 3:0.097831 4:-0.095487 5:-0.056155 6:-0.060373 7:-0.038936 8:-0.077738 9:-0.085956 10:-0.019115 11:0.090645 12:0.099382 13:0.093686 14:-0.094548 15:-0.099641 16:-0.098435 17:-0.065532 18:-0.099816 19:-0.085593 20:0.07546 21:-0.1 22:0.038937 23:-0.095973 24:-0.066128 25:0.078257 26:-0.092215 27:0.051424 28:-0.068338 29:-0.027541 30:0.094824 31:0.016634 32:-0.069419 33:-0.073594 34:-0.093403 35:-0.031797 36:0.026584 37:0.077921 38:-0.075478 39:0.093291 40:0.057537 41:-0.084395 42:-0.004021 43:-0.097959 44:-0.033287 45:0.089129 46:-0.045961 47:-0.041579 48:0.072159 49:0.079732 50:-0.008696 51:0.091126 52:0.047285 53:-0.013751 54:0.094076 55:0.073698 56:0.098895 57:0.098294 58:0.095865 59:-0.096268 60:0.0306 61:0.019786 62:0.079665 63:0.018009 64:-0.034617 65:0.087752 66:-0.055368 67:-0.09593 68:0.03132 69:-0.04828 70:-0.092548 71:0.09899 72:0.061494 73:-0.074257 74:-0.02771 75:-0.073236 76:0.009611 77:0.096437 78:0.062977 79:-0.087678 80:-0.098009 81:-0.086258 82:-0.078995 83:-0.0928 84:0.09124 85:0.042513 86:-0.02599 87:-0.099651 88:-0.099714 89:-0.099996 90:-0.028028 91:-0.058583 92:0.033871 93:-0.089559 94:0.090122 95:0.041302 96:0.096275 97:-0.099937 98:-0.023963 99:0.027893 100:-0.008907 
1 1:-0.007777 2:0.036784 3:0.097831 4:-0.095487 5:-0.056155 6:-0.060373 7:-0.038936 8:-0.077738 9:-0.085956 10:-0.019115 11:0.090645 12:0.099382 13:0.093686 14:-0.094548 15:-0.099641 16:-0.098435 17:-0.065532 18:-0.099816 19:-0.085593 20:0.07546 21:-0.1 22:0.038937 23:-0.095973 24:-0.066128 25:0.078257 26:-0.092215 27:0.051424 28:-0.068338 29:-0.027541 30:0.094824 31:0.016634 32:-0.069419 33:-0.073594 34:-0.093403 35:-0.031797 36:0.026584 37:0.077921 38:-0.075478 39:0.093291 40:0.057537 41:-0.084395 42:-0.004021 43:-0.097959 44:-0.033287 45:0.089129 46:-0.045961 47:-0.041579 48:0.072159 49:0.079732 50:-0.008696 51:0.091126 52:0.047285 53:-0.013751 54:0.094076 55:0.073698 56:0.098895 57:0.098294 58:0.095865 59:-0.096268 60:0.0306 61:0.019786 62:0.079665 63:0.018009 64:-0.034617 65:0.087752 66:-0.055368 67:-0.09593 68:0.03132 69:-0.04828 70:-0.092548 71:0.09899 72:0.061494 73:-0.074257 74:-0.02771 75:-0.073236 76:0.009611 77:0.096437 78:0.062977 79:-0.087678 80:-0.098009 81:-0.086258 82:-0.078995 83:-0.0928 84:0.09124 85:0.042513 86:-0.02599 87:-0.099651 88:-0.099714 89:-0.099996 90:-0.028028 91:-0.058583 92:0.033871 93:-0.089559 94:0.090122 95:0.041302 96:0.096275 97:-0.099937 98:-0.023963 99:0.027893 100:-0.008907 
1 1:-0.084467 2:0.080064 3:0.068244 4:-0.061611 5:-0.054647 6:-0.087809 7:0.079757 8:-0.05866 9:-0.095926 10:0.096382 11:0.099023 12:0.017342 13:0.043085 14:-0.003507 15:-0.057773 16:-0.095928 17:-0.092223 18:-0.079047 19:0.070796 20:-0.096764 21:0.057384 22:0.001093 23:0.098383 24:0.067098 25:-0.044905 26:0.07344 27:-0.098615 28:-0.018605 29:-0.026084 30:0.057077 31:-0.049195 32:-0.1 33:-0.086507 34:-0.092552 35:-0.097215 36:-0.056596 37:-0.055146 38:-0.078415 39:-0.09997 40:0.07899 41:0.074608 42:0.064852 43:-0.048462 44:-0.0047 45:-0.075966 46:-0.099809 47:-0.087111 48:-0.036164 49:-0.065128 50:0.023625 51:0.095922 52:-0.061458 53:0.071716 54:0.068209 55:0.0966 56:0.0916 57:-0.02623 58:-0.085184 59:-0.070166 60:0.076988 61:-0.074829 62:-0.008168 63:0.079496 64:-0.095818 65:0.068376 66:-0.066925 67:0.085777 68:-0.043737 69:-0.099014 70:-0.099623 71:0.052032 72:-0.048507 73:0.072921 74:-0.032788 75:-0.087152 76:0.009023 77:0.039247 78:0.099961 79:-0.055504 80:-0.095462 81:-0.094558 82:-0.07129 83:-0.087753 84:0.037032 85:-0.07413 86:-0.089045 87:0.052928 88:0.051222 89:0.060726 90:-0.049844 91:-0.092518 92:-0.003511 93:-0.021061 94:0.097241 95:0.065389 96:-0.04112 97:0.012051 98:0.072604 99:-0.060496 100:-0.082245 
1 1:-0.028604 2:-0.080477 3:-0.099114 4:0.048193 5:0.05475 6:0.086101 7:-0.048231 8:-0.099372 9:-0.09916 10:0.058302 11:0.083885 12:-0.084504 13:-0.07562 14:-0.052577 15:-0.004267 16:-0.08903 17:-0.096818 18:0.068689 19:-0.022002 20:0.057443 21:-0.055424 22:0.093036 23:0.031875 24:0.033408 25:-0.088541 26:0.099761 27:0.099474 28:-0.078305 29:-0.021156 30:-0.097249 31:0.050395 32:0.097523 33:0.054336 34:-0.042844 35:-0.090833 36:0.099105 37:0.097959 38:0.06559 39:-0.063414 40:-0.022035 41:-0.044389 42:0.018723 43:-0.01132 44:0.099481 45:0.004384 46:0.072424 47:0.098829 48:-0.098034 49:0.052491 50:-0.013384 51:0.07639 52:-0.009901 53:0.000489 54:0.061763 55:-0.034756 56:0.095592 57:0.064248 58:-0.099723 59:-0.068293 60:0.04101 61:-0.096722 62:0.07687 63:0.099775 64:-0.02995 65:0.098691 66:-0.046018 67:-0.07898 68:-0.068369 69:0.067074 70:-0.05508 71:0.039334 72:0.002703 73:-0.091793 74:0.065205 75:0.099868 76:-0.008798 77:-0.081419 78:0.012963 79:-0.076825 80:-0.060309 81:0.080993 82:-0.013999 83:0.047335 84:0.086782 85:-0.090875 86:0.014776 87:-0.085718 88:-0.092808 89:-0.080835 90:-0.074571 91:-0.066605 92:0.099397 93:-0.048457 94:-0.047697 95:-0.099518 96:0.007497 97:0.033638 98:0.064608 99:-0.03567 100:0.091094 
1 1:-0.097563 2:0.091523 3:0.033858 4:-0.042795 5:-0.050875 6:-0.094122 7:-0.008787 8:-0.049953 9:-0.098833 10:0.046269 11:0.091518 12:-0.032708 13:0.019932 14:0.066 15:-0.033418 16:-0.093997 17:-0.098784 18:-0.063942 19:0.095568 20:-0.081713 21:-0.085517 22:-0.013046 23:0.047208 24:0.095924 25:-0.085542 26:0.094526 27:-0.050089 28:0.064007 29:-0.025183 30:0.038473 31:-0.074048 32:-0.094684 33:-0.05079 34:-0.091197 35:-0.099352 36:-0.083063 37:-0.088924 38:-0.032335 39:-0.050771 40:0.08571 41:0.099997 42:0.082352 43:-0.013763 44:0.014896 45:-0.092872 46:-0.085943 47:-0.096276 48:-0.072833 49:-0.096906 50:0.099961 51:0.098283 52:-0.090791 53:0.095169 54:0.048271 55:0.099793 56:0.086418 57:-0.0747 58:0.03283 59:-0.053051 60:0.0119 61:-0.094012 62:-0.084468 63:0.09046 64:-0.099903 65:0.057213 66:0.002254 67:0.09346 68:-0.065806 69:-0.080342 70:-0.095557 71:0.013235 72:-0.084082 73:0.098848 74:0.057977 75:-0.089213 76:0.008182 77:-0.022236 78:0.096376 79:-0.002302 80:-0.086583 81:-0.077177 82:-0.065448 83:-0.063968 84:0.003467 85:-0.096624 86:-0.098624 87:0.097347 88:0.097401 89:0.099854 90:-0.060833 91:-0.066083 92:-0.018482 93:0.044516 94:0.086891 95:-0.001057 96:-0.089333 97:0.071058 98:0.093726 99:-0.084368 100:-0.097055 
1 1:-0.097563 2:0.091523 3:0.033858 4:-0.042795 5:-0.050875 6:-0.094122 7:-0.008787 8:-0.049953 9:-0.098833 10:0.046269 11:0.091518 12:-0.032708 13:0.019932 14:0.066 15:-0.033418 16:-0.093997 17:-0.098784 18:-0.063942 19:0.095568 20:-0.081713 21:-0.085517 22:-0.013046 23:0.047208 24:0.095924 25:-0.085542 26:0.094526 27:-0.050089 28:0.064007 29:-0.025183 30:0.038473 31:-0.074048 32:-0.094684 33:-0.05079 34:-0.091197 35:-0.099352 36:-0.083063 37:-0.088924 38:-0.032335 39:-0.050771 40:0.08571 41:0.099997 42:0.082352 43:-0.013763 44:0.014896 45:-0.092872 46:-0.085943 47:-0.096276 48:-0.072833 49:-0.096906 50:0.099961 51:0.098283 52:-0.090791 53:0.095169 54:0.048271 55:0.099793 56:0.086418 57:-0.0747 58:0.03283 59:-0.053051 60:0.0119 61:-0.094012 62:-0.084468 63:0.09046 64:-0.099903 65:0.057213 66:0.002254 67:0.09346 68:-0.065806 69:-0.080342 70:-0.095557 71:0.013235 72:-0.084082 73:0.098848 74:0.057977 75:-0.089213 76:0.008182 77:-0.022236 78:0.096376 79:-0.002302 80:-0.086583 81:-0.077177 82:-0.065448 83:-0.063968 84:0.003467 85:-0.096624 86:-0.098624 87:0.097347 88:0.097401 89:0.099854 90:-0.060833 91:-0.066083 92:-0.018482 93:0.044516 94:0.086891 95:-0.001057 96:-0.089333 97:0.071058 98:0.093726 99:-0.084368 100:-0.097055 
1 1:-0.097563 2:0.091523 3:0.033858 4:-0.042795 5:-0.050875 6:-0.094122 7:-0.008787 8:-0.049953 9:-0.098833 10:0.046269 11:0.091518 12:-0.032708 13:0.019932 14:0.066 15:-0.033418 16:-0.093997 17:-0.098784 18:-0.063942 19:0.095568 20:-0.081713 21:-0.085517 22:-0.013046 23:0.047208 24:0.095924 25:-0.085542 26:0.094526 27:-0.050089 28:0.064007 29:-0.025183 30:0.038473 31:-0.074048 32:-0.094684 33:-0.05079 34:-0.091197 35:-0.099352 36:-0.083063 37:-0.088924 38:-0.032335 39:-0.050771 40:0.08571 41:0.099997 42:0.082352 43:-0.013763 44:0.014896 45:-0.092872 46:-0.085943 47:-0.096276 48:-0.072833 49:-0.096906 50:0.099961 51:0.098283 52:-0.090791 53:0.095169 54:0.048271 55:0.099793 56:0.086418 57:-0.0747 58:0.03283 59:-0.053051 60:0.0119 61:-0.094012 62:-0.084468 63:0.09046 64:-0.099903 65:0.057213 66:0.002254 67:0.09346 68:-0.065806 69:-0.080342 70:-0.095557 71:0.013235 72:-0.084082 73:0.098848 74:0.057977 75:-0.089213 76:0.008182 77:-0.022236 78:0.096376 79:-0.002302 80:-0.086583 81:-0.077177 82:-0.065448 83:-0.063968 84:0.003467 85:-0.096624 86:-0.098624 87:0.097347 88:0.097401 89:0.099854 90:-0.060833 91:-0.066083 92:-0.018482 93:0.044516 94:0.086891 95:-0.001057 96:-0.089333 97:0.071058 98:0.093726 99:-0.084368 100:-0.097055 
1 1:-0.068016 2:-0.05995 3:0.009856 4:-0.040389 5:0.094428 6:-0.094254 7:0.01746 8:-0.096162 9:-0.074651 10:-0.099221 11:0.080498 12:0.028602 13:0.057464 14:-0.042417 15:0.096426 16:-0.0186 17:0.070068 18:0.023044 19:0.077542 20:-0.097747 21:0.095555 22:-0.061618 23:-0.0926 24:-0.061164 25:-0.019958 26:-0.075824 27:-0.099975 28:0.017715 29:0.087432 30:-0.056924 31:-0.06057 32:0.013171 33:0.079211 34:0.043593 35:0.099967 36:-0.032901 37:0.016786 38:0.013388 39:0.069712 40:0.077449 41:0.015904 42:-0.099502 43:0.061535 44:0.069924 45:-0.069713 46:-0.053373 47:-0.058049 48:-0.016709 49:-0.006553 50:0.096308 51:0.083669 52:-0.031357 53:-0.02155 54:0.040491 55:-0.015992 56:-0.065143 57:0.099475 58:0.084961 59:-0.04802 60:-0.012015 61:0.021159 62:-0.099824 63:-0.099961 64:0.079665 65:0.026367 66:-0.072676 67:-0.096169 68:-0.093991 69:-0.093381 70:0.09382 71:0.043901 72:0.091221 73:0.099429 74:0.094273 75:0.064236 76:-0.06938 77:-0.067583 78:0.099659 79:0.051926 80:0.073641 81:-0.07722 82:0.011769 83:0.074089 84:-0.092946 85:0.051781 86:-0.066791 87:-0.098157 88:-0.018088 89:-0.094999 90:-0.017416 91:0.023151 92:0.054146 93:0.021288 94:-0.076016 95:0.076584 96:0.054959 97:0.01661 98:-0.076677 99:0.055583 100:0.070938 
1 1:-0.068016 2:-0.05995 3:0.009856 4:-0.040389 5:0.094428 6:-0.094254 7:0.01746 8:-0.096162 9:-0.074651 10:-0.099221 11:0.080498 12:0.028602 13:0.057464 14:-0.042417 15:0.096426 16:-0.0186 17:0.070068 18:0.023044 19:0.077542 20:-0.097747 21:0.095555 22:-0.061618 23:-0.0926 24:-0.061164 25:-0.019958 26:-0.075824 27:-0.099975 28:0.017715 29:0.087432 30:-0.056924 31:-0.06057 32:0.013171 33:0.079211 34:0.043593 35:0.099967 36:-0.032901 37:0.016786 38:0.013388 39:0.069712 40:0.077449 41:0.015904 42:-0.099502 43:0.061535 44:0.069924 45:-0.069713 46:-0.053373 47:-0.058049 48:-0.016709 49:-0.006553 50:0.096308 51:0.083669 52:-0.031357 53:-0.02155 54:0.040491 55:-0.015992 56:-0.065143 57:0.099475 58:0.084961 59:-0.04802 60:-0.012015 61:0.021159 62:-0.099824 63:-0.099961 64:0.079665 65:0.026367 66:-0.072676 67:-0.096169 68:-0.093991 69:-0.093381 70:0.09382 71:0.043901 72:0.091221 73:0.099429 74:0.094273 75:0.064236 76:-0.06938 77:-0.067583 78:0.099659 79:0.051926 80:0.073641 81:-0.07722 82:0.011769 83:0.074089 84:-0.092946 85:0.051781 86:-0.066791 87:-0.098157 88:-0.018088 89:-0.094999 90:-0.017416 91:0.023151 92:0.054146 93:0.021288 94:-0.076016 95:0.076584 96:0.054959 97:0.01661 98:-0.076677 99:0.055583 100:0.070938 
1 1:-0.034653 2:0.03014 3:0.098846 4:-0.087391 5:-0.082369 6:-0.071694 7:-0.003921 8:-0.076693 9:-0.064351 10:-0.025724 11:0.06354 12:0.098432 13:0.055542 14:-0.091269 15:-0.068727 16:-0.099999 17:-0.014172 18:-0.096199 19:-0.097372 20:0.076213 21:-0.099949 22:0.02585 23:-0.099415 24:-0.03689 25:0.086612 26:-0.099995 27:0.022327 28:-0.067677 29:-0.030678 30:0.072579 31:0.05939 32:-0.066335 33:-0.070234 34:-0.099345 35:-0.075874 36:0.054197 37:0.009896 38:-0.062459 39:0.074124 40:0.057588 41:-0.073969 42:0.031817 43:-0.099965 44:-0.090668 45:0.096434 46:-0.03418 47:-0.05208 48:0.053128 49:0.049328 50:-0.021437 51:0.06351 52:0.059655 53:-0.082873 54:0.09746 55:0.070284 56:0.099819 57:0.05331 58:0.093375 59:-0.098643 60:0.05012 61:-0.020287 62:0.077482 63:0.085083 64:-0.065799 65:0.094507 66:-0.031064 67:-0.087151 68:-0.011042 69:-0.03534 70:-0.081945 71:0.093012 72:0.079004 73:-0.023536 74:-0.07596 75:-0.097128 76:0.015648 77:0.0695 78:0.091196 79:-0.097603 80:-0.091841 81:-0.078975 82:-0.094692 83:-0.081369 84:0.099855 85:0.009462 86:-0.051483 87:-0.090406 88:-0.098691 89:-0.097451 90:0.008645 91:-0.097924 92:0.032456 93:-0.099664 94:0.085902 95:0.093398 96:0.094024 97:-0.099939 98:-0.004519 99:0.009679 100:0.002263 
1 1:-0.099654 2:0.090046 3:0.031182 4:-0.033273 5:-0.065904 6:-0.096405 7:-0.026514 8:-0.049239 9:-0.094905 10:0.049249 11:0.098168 12:-0.035813 13:-0.011145 14:0.062583 15:0.002343 16:-0.096712 17:-0.090378 18:-0.055284 19:0.077414 20:-0.082044 21:-0.086312 22:-0.019874 23:0.02909 24:0.099349 25:-0.081461 26:0.086488 27:-0.035896 28:0.06366 29:-0.026766 30:0.017625 31:-0.056414 32:-0.095339 33:-0.052859 34:-0.095612 35:-0.092762 36:-0.073684 37:-0.099696 38:-0.040742 39:-0.034174 40:0.085726 41:0.099689 42:0.09126 43:-0.024981 44:-0.024593 45:-0.073232 46:-0.089053 47:-0.097713 48:-0.080689 49:-0.099895 50:0.099933 51:0.091524 52:-0.087476 53:0.074413 54:0.071011 55:0.099605 56:0.088562 57:-0.095065 58:0.036464 59:-0.057595 60:0.001229 61:-0.098935 62:-0.08351 63:0.099976 64:-0.097446 65:0.063859 66:-0.011267 67:0.088847 68:-0.080332 69:-0.084381 70:-0.098233 71:-0.012605 72:-0.076724 73:0.098911 74:0.078914 75:-0.097711 76:0.011211 77:0.004306 78:0.087593 79:0.011784 80:-0.091287 81:-0.081143 82:-0.077067 83:-0.072659 84:0.021682 85:-0.099609 86:-0.099963 87:0.099866 88:0.098288 89:0.099849 90:-0.045166 91:-0.034434 92:-0.019218 93:0.066901 94:0.089011 95:-0.038978 96:-0.090928 97:0.068535 98:0.096697 99:-0.088983 100:-0.095557 
0.518035948084593 1:-0.073003 2:-0.082847 3:0.040733 4:-0.032239 5:0.0592 6:-0.091586 7:0.060173 8:-0.093692 9:-0.020483 10:-0.069899 11:0.095257 12:0.064301 13:0.096473 14:-0.097063 15:0.046651 16:0.014763 17:-0.031759 18:0.033218 19:0.072469 20:-0.045408 21:0.027601 22:-0.056293 23:-0.096032 24:-0.058624 25:-0.083299 26:-0.097757 27:-0.092695 28:0.08788 29:0.090121 30:-0.016416 31:-0.099475 32:0.049798 33:0.099745 34:0.004058 35:0.088617 36:-0.092054 37:0.07503 38:0.082905 39:0.025698 40:0.084361 41:0.058367 42:-0.098307 43:-0.004828 44:0.082868 45:-0.071125 46:-0.094282 47:-0.052968 48:-0.009089 49:-0.006387 50:0.066876 51:0.097831 52:-0.084968 53:-0.093459 54:0.099878 55:-0.041834 56:-0.044575 57:0.072503 58:-0.02207 59:-0.077272 60:0.031262 61:-0.001448 62:-0.060756 63:-0.052726 64:0.090626 65:-0.012735 66:-0.091914 67:-0.095924 68:-0.099956 69:-0.094096 70:0.098168 71:0.009147 72:0.090344 73:0.098194 74:0.096627 75:0.09882 76:-0.061864 77:0.063454 78:0.088479 79:0.063497 80:0.09778 81:-0.099079 82:0.064213 83:0.00998 84:-0.029228 85:0.055269 86:-0.074588 87:-0.090588 88:-0.075581 89:-0.097594 90:0.049084 91:-0.040586 92:0.042946 93:0.03481 94:-0.043258 95:0.096835 96:0.091371 97:-0.057151 98:-0.069386 99:0.04913 100:0.025621 
1 1:-0.085419 2:-0.06544 3:0.004212 4:-0.020818 5:0.076029 6:-0.088144 7:-0.018416 8:-0.0966 9:-0.048597 10:-0.099837 11:0.098222 12:0.02221 13:0.094475 14:-0.05032 15:0.054324 16:-0.000485 17:0.020252 18:0.043359 19:0.011392 20:-0.097497 21:0.094592 22:-0.050156 23:-0.071085 24:-0.084299 25:-0.034246 26:-0.045613 27:-0.09436 28:0.018602 29:0.088976 30:-0.016929 31:-0.089985 32:0.017322 33:0.08207 34:0.019897 35:0.084546 36:-0.059636 37:0.082088 38:0.030981 39:0.090817 40:0.077411 41:-0.001227 42:-0.09653 43:0.04205 44:0.1 45:-0.099814 46:-0.063787 47:-0.067303 48:-0.040215 49:-0.045517 50:0.092045 51:0.099264 52:-0.044898 53:-0.087044 54:0.083531 55:-0.020828 56:-0.05817 57:0.060098 58:0.088788 59:-0.057289 60:-0.032823 61:-0.018912 62:-0.099971 63:-0.069046 64:0.095983 65:0.009952 66:-0.088407 67:-0.087569 68:-0.099674 69:-0.097519 70:0.099136 71:-0.006371 72:0.098497 73:0.08812 74:0.060423 75:0.093432 76:-0.064871 77:-0.020597 78:0.085288 79:0.026066 80:0.085968 81:-0.084803 82:0.043565 83:0.056121 84:-0.073466 85:0.077621 86:-0.084645 87:-0.098628 88:-0.009538 89:-0.086003 90:0.019434 91:-0.048567 92:0.0554 93:0.068716 94:-0.069925 95:0.099671 96:0.048661 97:0.009626 98:-0.087748 99:0.069978 100:0.06263 
1 1:0.07177 2:-0.057337 3:0.083451 4:0.0999 5:0.046551 6:-0.036737 7:-0.099806 8:-0.061333 9:-0.049566 10:-0.090942 11:0.092075 12:0.050909 13:-0.094859 14:0.001046 15:0.065503 16:0.071967 17:0.084998 18:0.099833 19:0.065488 20:0.085039 21:-0.090647 22:-0.099949 23:-0.048322 24:-0.082009 25:0.016166 26:-0.03031 27:0.066509 28:-0.058602 29:-0.067285 30:0.099069 31:0.043221 32:-0.017816 33:-0.014913 34:0.099999 35:-0.1 36:-0.098173 37:0.071865 38:0.099461 39:0.071812 40:0.058235 41:0.0986 42:-0.09415 43:0.099018 44:0.088349 45:-0.090332 46:0.096987 47:-0.086601 48:-0.048276 49:0.099805 50:-0.094863 51:0.084943 52:0.056104 53:0.063188 54:0.019323 55:0.013922 56:0.046048 57:0.065893 58:0.019641 59:-0.031161 60:-0.016449 61:0.074054 62:0.041461 63:-0.062445 64:0.073419 65:-0.026583 66:-0.006423 67:0.095172 68:0.055869 69:0.099698 70:0.093846 71:0.067473 72:-0.084183 73:0.095519 74:-0.083987 75:-0.099589 76:0.08125 77:0.010128 78:0.080332 79:0.095278 80:0.099898 81:0.07026 82:0.065441 83:0.083656 84:0.001459 85:0.094579 86:0.084777 87:-0.037501 88:-0.028229 89:0.099657 90:-0.098152 91:0.1 92:0.01352 93:-0.065361 94:-0.012616 95:-0.094101 96:0.026255 97:-0.058078 98:0.058808 99:-0.073386 100:0.099554 
1 1:0.061508 2:-0.054413 3:0.084976 4:0.09983 5:0.0621 6:-0.043658 7:-0.097072 8:-0.06198 9:-0.034378 10:-0.089479 11:0.098426 12:0.053726 13:-0.080544 14:-0.003416 15:0.088119 16:0.065351 17:0.066667 18:0.09863 19:0.089149 20:0.084734 21:-0.091293 22:-0.099487 23:-0.030301 24:-0.070981 25:0.023447 26:-0.011421 27:0.053974 28:-0.058967 29:-0.066064 30:0.09967 31:0.021095 32:-0.019879 33:-0.0173 34:0.099263 35:-0.096368 36:-0.094165 37:0.039375 38:0.099991 39:0.057887 40:0.05821 41:0.096803 42:-0.098695 43:0.096774 44:0.099599 45:-0.099726 46:0.095219 47:-0.089421 48:-0.058655 49:0.099008 50:-0.096704 51:0.094708 52:0.062018 53:0.089275 54:0.04621 55:0.016354 56:0.049936 57:0.030278 58:0.023424 59:-0.036297 60:-0.005822 61:0.086017 62:0.04306 63:-0.088786 64:0.084513 65:-0.018443 66:0.007111 67:0.098029 68:0.07225 69:0.098891 70:0.097092 71:0.084132 72:-0.076843 73:0.082525 74:-0.096028 75:-0.098663 76:0.079438 77:0.036047 78:0.064381 79:0.098602 80:0.098898 81:0.065491 82:0.077061 83:0.089581 84:-0.016848 85:0.087617 86:0.076615 87:-0.020392 88:-0.032343 89:0.098166 90:-0.099997 91:0.093254 92:0.014263 93:-0.083265 94:-0.008179 95:-0.0999 96:0.02979 97:-0.060909 98:0.066468 99:-0.079369 100:0.098871 
1 1:0.011023 2:-0.042079 3:0.090386 4:0.089139 5:0.098762 6:-0.068475 7:-0.057021 8:-0.064527 9:0.03143 10:-0.08262 11:0.075514 12:0.064375 13:0.030785 14:-0.021107 15:0.057004 16:0.034078 17:-0.040327 18:0.082669 19:0.047462 20:0.083485 21:-0.093652 22:-0.092931 23:0.046007 24:-0.009968 25:0.050887 26:0.06127 27:-0.005973 28:-0.060414 29:-0.061002 30:0.057994 31:-0.066315 32:-0.028034 33:-0.026735 34:0.081212 35:-0.022301 36:-0.05811 37:-0.092607 38:0.094008 39:-0.01174 40:0.05811 41:0.082674 42:-0.084388 43:0.075682 44:0.006831 45:-0.016715 46:0.084301 47:-0.097453 48:-0.089957 49:0.057767 50:-0.1 51:0.083118 52:0.082052 53:0.035264 54:0.099859 55:0.025968 56:0.064433 57:-0.097338 58:0.038145 59:-0.055614 60:0.036136 61:0.096331 62:0.04932 63:-0.036714 64:0.098637 65:0.014825 66:0.057531 67:0.096802 68:0.099549 69:0.090716 70:0.097968 71:0.089362 72:-0.037022 73:-0.022602 74:-0.063633 75:-0.037974 76:0.071474 77:0.09912 78:-0.023194 79:0.092217 80:0.084597 81:0.04387 82:0.099968 83:0.099986 84:-0.078631 85:0.037016 86:0.031176 87:0.048889 88:-0.048124 89:0.080945 90:-0.074246 91:-0.027648 92:0.017224 93:-0.087798 94:0.00964 95:0.003311 96:0.043481 97:-0.071446 98:0.090038 99:-0.096037 100:0.093087 
1 1:0.089076 2:-0.08004 3:0.06688 4:0.056366 5:-0.092766 6:0.029969 7:-0.000978 8:-0.055325 9:-0.089748 10:-0.099236 11:-0.074349 12:0.023446 13:0.079452 14:0.040053 15:-0.054662 16:0.099862 17:-0.043514 18:0.061057 19:-0.036735 20:0.087658 21:-0.083875 22:-0.083033 23:-0.076364 24:-0.058826 25:-0.048498 26:-0.088769 27:0.083968 28:-0.055266 29:-0.07743 30:-0.050152 31:0.055229 32:0.000994 33:0.006799 34:0.042453 35:0.074981 36:-0.038534 37:-0.094401 38:0.060817 39:0.0634 40:0.058458 41:0.082169 42:0.039957 43:0.062981 44:-0.059955 45:0.081101 46:0.094501 47:-0.048974 48:0.056725 49:-0.031756 50:-0.06198 51:-0.086589 52:-0.006435 53:-0.005055 54:-0.0691 55:-0.008167 56:0.007955 57:-0.095912 58:-0.015032 59:0.017337 60:-0.090364 61:-0.083145 62:0.026543 63:0.00518 64:-0.072875 65:-0.085274 66:-0.095897 67:0.023839 68:-0.097317 69:0.084505 70:0.021809 71:-0.099978 72:-0.085335 73:-0.073496 74:0.099871 75:0.072384 76:0.09399 77:-0.074279 78:0.010806 79:-0.000796 80:0.063262 81:0.097866 82:-0.070622 83:-0.008238 84:0.099513 85:0.034482 86:0.077031 87:-0.091104 88:0.010225 89:0.06235 90:0.028562 91:-0.098147 92:0.006809 93:0.098714 94:-0.050379 95:0.075706 96:-0.006579 97:-0.029799 98:-0.025401 99:0.001182 100:0.091762 
1 1:0.081977 2:-0.082103 3:0.06475 4:0.047573 5:-0.098068 6:0.037091 7:0.016975 8:-0.054639 9:-0.081129 10:-0.099597 11:-0.087305 12:0.020221 13:0.094268 14:0.044101 15:-0.021253 16:0.098969 17:-0.067162 18:0.052167 19:0.001045 20:0.087934 21:-0.083018 22:-0.078978 23:-0.06229 24:-0.044086 25:-0.054856 26:-0.078259 27:0.074413 28:-0.05489 29:-0.078457 30:-0.067657 31:0.034357 32:0.003094 33:0.00921 34:0.030797 35:0.089864 36:-0.024132 37:-0.099814 38:0.053406 39:0.048202 40:0.058482 41:0.07697 42:0.05589 43:0.053701 44:-0.024251 45:0.054521 46:0.092202 47:-0.043704 48:0.0664 49:-0.050264 50:-0.056794 51:-0.095687 52:-0.013729 53:0.036057 54:-0.045908 55:-0.010616 56:0.00353 57:-0.099222 58:-0.018849 59:0.022683 60:-0.094421 61:-0.092591 62:0.024838 63:-0.035828 64:-0.084084 65:-0.089336 66:-0.098847 67:0.012725 68:-0.099985 69:0.08048 70:0.010872 71:-0.096108 72:-0.078214 73:-0.090238 74:0.094216 75:0.087418 76:0.094985 77:-0.053956 78:-0.012479 79:-0.014854 80:0.054927 81:0.098994 82:-0.081373 83:-0.020038 84:0.096033 85:0.017891 86:0.067456 87:-0.082304 88:0.01451 89:0.05348 90:0.045732 91:-0.084556 92:0.006061 93:0.090809 94:-0.054181 95:0.045197 96:-0.010249 97:-0.026417 98:-0.034779 99:0.01045 100:0.089397 
1 1:0.081977 2:-0.082103 3:0.06475 4:0.047573 5:-0.098068 6:0.037091 7:0.016975 8:-0.054639 9:-0.081129 10:-0.099597 11:-0.087305 12:0.020221 13:0.094268 14:0.044101 15:-0.021253 16:0.098969 17:-0.067162 18:0.052167 19:0.001045 20:0.087934 21:-0.083018 22:-0.078978 23:-0.06229 24:-0.044086 25:-0.054856 26:-0.078259 27:0.074413 28:-0.05489 29:-0.078457 30:-0.067657 31:0.034357 32:0.003094 33:0.00921 34:0.030797 35:0.089864 36:-0.024132 37:-0.099814 38:0.053406 39:0.048202 40:0.058482 41:0.07697 42:0.05589 43:0.053701 44:-0.024251 45:0.054521 46:0.092202 47:-0.043704 48:0.0664 49:-0.050264 50:-0.056794 51:-0.095687 52:-0.013729 53:0.036057 54:-0.045908 55:-0.010616 56:0.00353 57:-0.099222 58:-0.018849 59:0.022683 60:-0.094421 61:-0.092591 62:0.024838 63:-0.035828 64:-0.084084 65:-0.089336 66:-0.098847 67:0.012725 68:-0.099985 69:0.08048 70:0.010872 71:-0.096108 72:-0.078214 73:-0.090238 74:0.094216 75:0.087418 76:0.094985 77:-0.053956 78:-0.012479 79:-0.014854 80:0.054927 81:0.098994 82:-0.081373 83:-0.020038 84:0.096033 85:0.017891 86:0.067456 87:-0.082304 88:0.01451 89:0.05348 90:0.045732 91:-0.084556 92:0.006061 93:0.090809 94:-0.054181 95:0.045197 96:-0.010249 97:-0.026417 98:-0.034779 99:0.01045 100:0.089397 
1 1:0.073319 2:-0.084065 3:0.062568 4:0.038274 5:-0.099994 6:0.044 7:0.034378 8:-0.053948 9:-0.070234 10:-0.099844 11:-0.095931 12:0.016973 13:0.099961 14:0.04806 15:0.014944 16:0.097255 17:-0.085347 18:0.04267 19:0.038671 20:0.088208 21:-0.082142 22:-0.074545 23:-0.045819 24:-0.02804 25:-0.060912 26:-0.064829 27:0.063015 28:-0.054512 29:-0.079463 30:-0.081966 31:0.011606 32:0.005193 33:0.011616 34:0.018658 35:0.098289 36:-0.009174 37:-0.089691 38:0.04556 39:0.031381 40:0.058507 41:0.071203 42:0.069977 43:0.043719 44:0.015244 45:0.020591 46:0.08952 47:-0.03828 48:0.075072 49:-0.066697 50:-0.051371 51:-0.099784 52:-0.02095 53:0.070917 54:-0.018989 55:-0.013059 56:-0.000901 57:-0.085943 58:-0.022638 59:0.027961 60:-0.097398 61:-0.098282 62:0.023124 63:-0.070659 64:-0.092505 65:-0.092775 66:-0.099986 67:0.001447 68:-0.098065 69:0.076046 70:-0.000198 71:-0.085821 72:-0.069886 73:-0.098938 74:0.080641 75:0.096825 76:0.095893 77:-0.0298 78:-0.035087 79:-0.028617 80:0.046004 81:0.099704 82:-0.089876 83:-0.031554 84:0.089315 85:0.000771 86:0.056582 87:-0.070873 88:0.018767 89:0.043975 90:0.061336 91:-0.059497 92:0.005312 93:0.076251 94:-0.057876 95:0.007907 96:-0.013905 97:-0.023003 98:-0.04382 99:0.019628 100:0.086754 
1 1:0.073319 2:-0.084065 3:0.062568 4:0.038274 5:-0.099994 6:0.044 7:0.034378 8:-0.053948 9:-0.070234 10:-0.099844 11:-0.095931 12:0.016973 13:0.099961 14:0.04806 15:0.014944 16:0.097255 17:-0.085347 18:0.04267 19:0.038671 20:0.088208 21:-0.082142 22:-0.074545 23:-0.045819 24:-0.02804 25:-0.060912 26:-0.064829 27:0.063015 28:-0.054512 29:-0.079463 30:-0.081966 31:0.011606 32:0.005193 33:0.011616 34:0.018658 35:0.098289 36:-0.009174 37:-0.089691 38:0.04556 39:0.031381 40:0.058507 41:0.071203 42:0.069977 43:0.043719 44:0.015244 45:0.020591 46:0.08952 47:-0.03828 48:0.075072 49:-0.066697 50:-0.051371 51:-0.099784 52:-0.02095 53:0.070917 54:-0.018989 55:-0.013059 56:-0.000901 57:-0.085943 58:-0.022638 59:0.027961 60:-0.097398 61:-0.098282 62:0.023124 63:-0.070659 64:-0.092505 65:-0.092775 66:-0.099986 67:0.001447 68:-0.098065 69:0.076046 70:-0.000198 71:-0.085821 72:-0.069886 73:-0.098938 74:0.080641 75:0.096825 76:0.095893 77:-0.0298 78:-0.035087 79:-0.028617 80:0.046004 81:0.099704 82:-0.089876 83:-0.031554 84:0.089315 85:0.000771 86:0.056582 87:-0.070873 88:0.018767 89:0.043975 90:0.061336 91:-0.059497 92:0.005312 93:0.076251 94:-0.057876 95:0.007907 96:-0.013905 97:-0.023003 98:-0.04382 99:0.019628 100:0.086754 
1 1:-0.099942 2:-0.080574 3:-0.063301 4:0.006449 5:0.017248 6:-0.099349 7:-0.065417 8:-0.098314 9:-0.09931 10:-0.056332 11:-0.068512 12:-0.081055 13:0.044814 14:-0.083129 15:0.04802 16:0.094469 17:0.042526 18:-0.00118 19:0.090426 20:0.0731 21:-0.002793 22:-0.051963 23:0.089772 24:0.025892 25:0.058154 26:0.081792 27:0.075398 28:-0.067224 29:-0.071969 30:0.021783 31:0.044256 32:0.08612 33:-0.029215 34:0.097033 35:0.077327 36:0.077595 37:-0.035452 38:-0.056808 39:-0.034754 40:-0.020962 41:0.048442 42:-0.008083 43:-0.076046 44:-0.02883 45:-0.06307 46:-0.099798 47:-0.040548 48:0.046458 49:-0.047053 50:0.08159 51:0.030324 52:-0.039153 53:-0.057521 54:-0.099931 55:-0.094601 56:-0.031725 57:0.018489 58:-0.024821 59:0.093659 60:-0.090559 61:-0.032867 62:0.023905 63:-0.083421 64:-0.002349 65:-0.095679 66:0.080086 67:0.096368 68:0.063637 69:-0.096601 70:-0.026499 71:-0.047979 72:0.096504 73:-0.01987 74:-0.098213 75:-0.097688 76:0.084552 77:0.09127 78:-0.091395 79:-0.087391 80:0.006477 81:-0.01412 82:0.015194 83:-0.099722 84:0.065506 85:-0.086998 86:-0.090564 87:-0.092919 88:0.035714 89:0.098865 90:-0.043783 91:-0.099722 92:0.092873 93:0.07552 94:-0.086161 95:-0.000539 96:-0.094929 97:-0.079882 98:-0.029745 99:0.016237 100:-0.076256 
