svm_type c_svc
kernel_type rbf
gamma 0.333333
nr_class 2
total_sv 688
rho -0.197876
label 1 -1
nr_sv 350 338
SV
0.8020713403163239 1:136 2:194 3:194 
0.7902541109003646 1:140 2:204 3:204 
0.8070629509340496 1:142 2:197 3:197 
0.7987631160551492 1:144 2:201 3:201 
0.6203468522929699 1:142 2:206 3:206 
0.8025284130863237 1:136 2:210 3:210 
0.3621262816206533 1:144 2:206 3:206 
0.5304919876275026 1:144 2:207 3:207 
0.8020543895536641 1:140 2:190 3:190 
0.6702131061578316 1:148 2:200 3:200 
0.2328272468640593 1:148 2:201 3:201 
1 1:118 2:208 3:208 
1 1:118 2:208 3:208 
0.2066707825200708 1:148 2:202 3:202 
0.920822564894061 1:148 2:197 3:197 
0.5036993360131519 1:148 2:203 3:203 
0.7849768755932203 1:148 2:206 3:206 
0.5298191052799565 1:136 2:187 3:187 
0.5936669615669252 1:150 2:202 3:202 
0.5683572341826915 1:150 2:197 3:197 
0.3455815548233125 1:148 2:193 3:193 
0.679181541123182 1:150 2:204 3:204 
0.9501423765060567 1:118 2:211 3:211 
0.5656648235526687 1:148 2:192 3:192 
0.530334111967923 1:136 2:186 3:186 
0.5686758642126397 1:150 2:194 3:194 
0.3404414961779042 1:150 2:193 3:193 
0.5265003277196357 1:150 2:209 3:209 
1 1:154 2:200 3:200 
0.8671531821970695 1:148 2:189 3:189 
1 1:154 2:202 3:202 
1 1:154 2:197 3:197 
1 1:154 2:196 3:196 
1 1:154 2:196 3:196 
0.52930460758667 1:150 2:210 3:210 
1 1:154 2:195 3:195 
0.9003795641664148 1:154 2:206 3:206 
1 1:154 2:194 3:194 
0.7167063303985557 1:154 2:207 3:207 
1 1:148 2:187 3:187 
0.6754855894836629 1:156 2:203 3:203 
0.9333583005608183 1:156 2:204 3:204 
1 1:156 2:195 3:195 
1 1:118 2:216 3:216 
0.7335012859118171 1:154 2:209 3:209 
1 1:154 2:191 3:191 
0.7408148617015187 1:156 2:194 3:194 
0.3098196328746581 1:156 2:206 3:206 
1 1:154 2:210 3:210 
1 1:158 2:199 3:199 
1 1:158 2:202 3:202 
1 1:158 2:198 3:198 
1 1:158 2:203 3:203 
1 1:158 2:197 3:197 
0.7837650311634061 1:156 2:208 3:208 
1 1:158 2:196 3:196 
1 1:158 2:196 3:196 
0.9452370188928033 1:154 2:189 3:189 
1 1:156 2:191 3:191 
0.7801129753086821 1:158 2:206 3:206 
1 1:158 2:194 3:194 
0.9521117909252681 1:158 2:206 3:206 
1 1:156 2:190 3:190 
0.03952474286722803 1:158 2:207 3:207 
1 1:158 2:208 3:208 
1 1:160 2:197 3:197 
1 1:158 2:190 3:190 
1 1:160 2:193 3:193 
1 1:156 2:187 3:187 
1 1:162 2:198 3:198 
0.9850804230701513 1:162 2:202 3:202 
1 1:160 2:192 3:192 
1 1:158 2:189 3:189 
0.5521653080304859 1:170 2:176 3:176 
0.4217906249641082 1:170 2:179 3:179 
0.4580905064205514 1:170 2:180 3:180 
0.429430894675558 1:170 2:183 3:183 
0.5681854524799141 1:170 2:184 3:184 
1 1:162 2:174 3:174 
0.7211617376088924 1:172 2:188 3:188 
1 1:162 2:171 3:171 
1 1:162 2:178 3:178 
1 1:160 2:173 3:173 
1 1:160 2:174 3:174 
1 1:160 2:170 3:170 
0.9039329591408068 1:162 2:181 3:181 
1 1:160 2:176 3:176 
1 1:160 2:169 3:169 
0.9291272751974887 1:162 2:164 3:164 
1 1:162 2:182 3:182 
0.8752795297872407 1:160 2:167 3:167 
1 1:160 2:165 3:165 
1 1:158 2:171 3:171 
1 1:158 2:175 3:175 
1 1:160 2:181 3:181 
1 1:160 2:182 3:182 
0.7811715650466806 1:160 2:182 3:182 
0.8523691792890952 1:158 2:168 3:168 
1 1:162 2:185 3:185 
0.9369405410140739 1:160 2:163 3:163 
1 1:158 2:180 3:180 
0.2678170204886736 1:160 2:162 3:162 
1 1:170 2:192 3:192 
1 1:158 2:165 3:165 
0.8222572629869997 1:162 2:159 3:159 
1 1:156 2:170 3:170 
1 1:156 2:170 3:170 
0.475178970242409 1:158 2:164 3:164 
0.7730635939851709 1:158 2:182 3:182 
0.1163183832933257 1:158 2:162 3:162 
1 1:158 2:184 3:184 
1 1:158 2:161 3:161 
1 1:162 2:189 3:189 
1 1:154 2:176 3:176 
0.1795616021058732 1:154 2:169 3:169 
0.9827145264597589 1:154 2:169 3:169 
1 1:160 2:158 3:158 
1 1:154 2:178 3:178 
0.131426006591801 1:158 2:186 3:186 
1 1:158 2:186 3:186 
1 1:162 2:190 3:190 
1 1:170 2:195 3:195 
1 1:154 2:166 3:166 
1 1:156 2:162 3:162 
0.3147019145051858 1:154 2:180 3:180 
1 1:160 2:189 3:189 
1 1:158 2:187 3:187 
1 1:158 2:187 3:187 
1 1:154 2:181 3:181 
0.6877178719310506 1:174 2:197 3:197 
1 1:158 2:158 3:158 
1 1:154 2:184 3:184 
0.8023943867038483 1:136 2:164 3:164 
0.8030793446706272 1:144 2:164 3:164 
0.8203889853033179 1:144 2:170 3:170 
1 1:146 2:171 3:171 
0.9374651200074364 1:148 2:168 3:168 
0.802138423565111 1:142 2:158 3:158 
1 1:148 2:172 3:172 
1 1:146 2:157 3:157 
0.5301268614900722 1:146 2:156 3:156 
0.5298089187377903 1:148 2:176 3:176 
0.3613393576846817 1:146 2:155 3:155 
0.5303152505547092 1:148 2:177 3:177 
1 1:154 2:161 3:161 
0.6345685780553849 1:148 2:155 3:155 
0.5277963161307584 1:146 2:152 3:152 
0.5310744723348151 1:146 2:151 3:151 
0.8606715033331902 1:156 2:156 3:156 
1 1:146 2:150 3:150 
1 1:146 2:150 3:150 
1 1:156 2:155 3:155 
0.8028657309160914 1:148 2:147 3:147 
1 1:146 2:146 3:146 
0.8874010587972303 1:154 2:185 3:185 
1 1:144 2:144 3:144 
0.6393410813236343 1:170 2:167 3:167 
0.2704083502362939 1:170 2:168 3:168 
0.3181576511696964 1:170 2:169 3:169 
0.5824419739642566 1:170 2:170 3:170 
1 1:146 2:143 3:143 
0.4976905966501197 1:170 2:172 3:172 
0.5099528496872846 1:170 2:173 3:173 
0.7069761100367772 1:174 2:189 3:189 
0.8772923298818115 1:172 2:198 3:198 
1 1:172 2:201 3:201 
1 1:162 2:194 3:194 
0.5518187650537176 1:174 2:203 3:203 
0.7692756000092343 1:172 2:203 3:203 
1 1:164 2:199 3:199 
0.6962309591349145 1:158 2:152 3:152 
1 1:158 2:153 3:153 
0.5878708854841463 1:158 2:144 3:144 
1 1:156 2:143 3:143 
0.3625225028310376 1:156 2:140 3:140 
0.1316752601433205 1:156 2:139 3:139 
0.9994208916825189 1:156 2:139 3:139 
0.6166567404060965 1:156 2:136 3:136 
0.5256776628933587 1:156 2:135 3:135 
0.962556737180051 1:156 2:135 3:135 
0.8019286329754121 1:160 2:131 3:131 
0.4823637367252278 1:170 2:175 3:175 
1 1:146 2:141 3:141 
1 1:148 2:138 3:138 
1 1:146 2:139 3:139 
1 1:146 2:139 3:139 
1 1:146 2:137 3:137 
0.7714530996711801 1:158 2:128 3:128 
0.5134211775535978 1:172 2:179 3:179 
0.6760017828384632 1:174 2:180 3:180 
1 1:146 2:132 3:132 
1 1:146 2:131 3:131 
1 1:146 2:130 3:130 
0.9418031586078652 1:146 2:125 3:125 
0.9045559330911122 1:146 2:124 3:124 
1 1:146 2:118 3:118 
0.7845574169929985 1:156 2:126 3:126 
0.8063720989221214 1:156 2:122 3:122 
0.5268149949413511 1:156 2:119 3:119 
0.5277642060091546 1:156 2:118 3:118 
0.802104307423432 1:146 2:109 3:109 
0.5371454222952758 1:156 2:113 3:113 
0.5272251122101953 1:156 2:112 3:112 
0.7700134306968032 1:156 2:109 3:109 
0.8022299144876299 1:146 2:104 3:104 
0.458487359298922 1:156 2:107 3:107 
0.565007561659864 1:156 2:106 3:106 
0.8004772595797524 1:146 2:81 3:81 
0.7645917461661267 1:146 2:78 3:78 
0.8021068977912632 1:146 2:93 3:93 
0.4939670188524417 1:146 2:76 3:76 
0.4928455464481304 1:146 2:75 3:75 
0.7670588585778803 1:146 2:73 3:73 
0.8020930616903146 1:146 2:98 3:98 
0.7022678247698743 1:146 2:64 3:64 
0.1062874306043002 1:146 2:63 3:63 
0.8020434928504193 1:170 2:64 3:64 
0.6493405909153686 1:146 2:62 3:62 
1 1:160 2:61 3:61 
1 1:160 2:60 3:60 
0.7044172965256869 1:146 2:60 3:60 
0.8453261291272853 1:156 2:59 3:59 
1 1:156 2:59 3:59 
0.7531562875521957 1:146 2:58 3:58 
0.8019841765220947 1:156 2:56 3:56 
1 1:160 2:117 3:117 
0.8018280307212532 1:146 2:53 3:53 
0.7986605521016384 1:160 2:118 3:118 
0.5388739816081858 1:160 2:52 3:52 
0.5239594971220639 1:160 2:51 3:51 
0.861861567480219 1:156 2:50 3:50 
0.7988846005558748 1:160 2:48 3:48 
0.5298583028019866 1:174 2:120 3:120 
0.7986069231276245 1:170 2:121 3:121 
0.5245468293446712 1:156 2:47 3:47 
0.5261609576877916 1:174 2:121 3:121 
0.5325049163395874 1:156 2:46 3:46 
1 1:156 2:44 3:44 
0.8541931417770943 1:160 2:126 3:126 
1 1:156 2:42 3:42 
0.8002069856917756 1:174 2:126 3:126 
0.8000444671716508 1:170 2:127 3:127 
0.5297845534546956 1:146 2:42 3:42 
0.5301108564199838 1:146 2:41 3:41 
0.8004621939263369 1:170 2:131 3:131 
0.750233989414296 1:160 2:37 3:37 
0.8005004944554099 1:170 2:134 3:134 
1 1:160 2:135 3:135 
0.7558890335961144 1:160 2:35 3:35 
0.8021042954458883 1:146 2:35 3:35 
1 1:156 2:34 3:34 
1 1:160 2:136 3:136 
0.7503611635155416 1:136 2:214 3:214 
0.331286039677218 1:172 2:205 3:205 
1 1:170 2:204 3:204 
1 1:170 2:206 3:206 
0.270522646906845 1:174 2:209 3:209 
0.5342856982381522 1:174 2:210 3:210 
1 1:172 2:209 3:209 
0.5692229847606408 1:168 2:207 3:207 
0.7434882746725422 1:168 2:208 3:208 
0.8111960087335807 1:164 2:205 3:205 
0.369771687875811 1:174 2:205 3:205 
0.5615003870899735 1:174 2:206 3:206 
0.534707294372233 1:174 2:213 3:213 
0.5320620753229083 1:174 2:214 3:214 
0.5288057559956879 1:174 2:217 3:217 
0.7444500024605653 1:176 2:219 3:219 
1 1:168 2:210 3:210 
1 1:172 2:217 3:217 
1 1:170 2:215 3:215 
1 1:168 2:213 3:213 
0.3041930590513707 1:174 2:220 3:220 
0.1979443841082232 1:162 2:203 3:203 
1 1:162 2:203 3:203 
0.1920892119699044 1:174 2:221 3:221 
0.9223571893364224 1:162 2:204 3:204 
1 1:170 2:218 3:218 
1 1:172 2:220 3:220 
0.9929821760304027 1:164 2:211 3:211 
0.5802973934415767 1:174 2:222 3:222 
0.6934982658310527 1:164 2:214 3:214 
1 1:168 2:219 3:219 
0.586327742684524 1:172 2:223 3:223 
0.9306783159018897 1:174 2:225 3:225 
0.8592442160600169 1:174 2:225 3:225 
1 1:170 2:222 3:222 
0.669730821147055 1:164 2:216 3:216 
0.8002043079112118 1:130 2:219 3:219 
0.7500711842933 1:136 2:216 3:216 
0.8000837757859494 1:130 2:222 3:222 
0.8025518637235323 1:144 2:212 3:212 
0.7370523568831606 1:118 2:230 3:230 
0.3198404083386611 1:122 2:229 3:229 
0.9970637290998257 1:122 2:229 3:229 
1 1:118 2:232 3:232 
0.323326370987647 1:172 2:181 3:181 
0.5310996766774574 1:172 2:182 3:182 
0.7885026701608462 1:174 2:184 3:184 
1 1:160 2:211 3:211 
1 1:158 2:211 3:211 
1 1:160 2:148 3:148 
0.7229371098297286 1:160 2:143 3:143 
0.6244331574149592 1:160 2:138 3:138 
0.4840854300266303 1:160 2:137 3:137 
0.6216921721869972 1:162 2:215 3:215 
0.8022081333295917 1:170 2:109 3:109 
0.8079084445034365 1:160 2:23 3:23 
0.8047416064650139 1:160 2:9 3:9 
1 1:156 2:6 3:6 
0.8383017117273901 1:156 2:0 3:0 
1 1:156 2:0 3:0 
1 1:156 2:0 3:0 
1 1:156 2:0 3:0 
0.9867891530284335 1:156 2:0 3:0 
0.7984288684994385 1:160 2:0 3:0 
0.8021168465612539 1:146 2:0 3:0 
1 1:160 2:74 3:74 
1 1:160 2:74 3:74 
0.8019613338067867 1:170 2:74 3:74 
0.8944272584594607 1:156 2:83 3:83 
0.8006362094313536 1:170 2:85 3:85 
0.7480730556643127 1:170 2:88 3:88 
0.4912766843395098 1:160 2:89 3:89 
0.6196104751052171 1:160 2:90 3:90 
0.7490690787940184 1:170 2:90 3:90 
1 1:160 2:93 3:93 
0.5269078207011177 1:170 2:93 3:93 
0.3564691985426992 1:160 2:94 3:94 
0.5315250929114583 1:170 2:94 3:94 
0.8009153178928334 1:156 2:95 3:95 
1 1:156 2:96 3:96 
1 1:160 2:97 3:97 
0.8030208311104245 1:156 2:100 3:100 
0.5537534015013887 1:170 2:100 3:100 
1 1:156 2:101 3:101 
1 1:160 2:101 3:101 
0.4809742712547899 1:170 2:101 3:101 
0.4158362110214432 1:160 2:102 3:102 
0.7998977338778732 1:156 2:103 3:103 
0.7978618872585468 1:174 2:102 3:102 
0.4815391273084804 1:170 2:103 3:103 
0.5515558247637212 1:170 2:104 3:104 
0.7465208062701778 1:174 2:105 3:105 
0.7499332481651614 1:174 2:107 3:107 
0.5302476324909129 1:170 2:144 3:144 
0.529397436223125 1:170 2:143 3:143 
0.8965356100748839 1:156 2:79 3:79 
1 1:154 2:212 3:212 
1 1:154 2:213 3:213 
-0.8366460706114891 1:118 2:198 3:198 
-0.6988271725920799 1:118 2:197 3:197 
-1 1:118 2:195 3:195 
-1 1:146 2:198 3:198 
-1 1:118 2:206 3:206 
-1 1:146 2:196 3:196 
-0.9630762013448479 1:118 2:193 3:193 
-1 1:118 2:208 3:208 
-0.003430088299920489 1:118 2:192 3:192 
-1 1:118 2:208 3:208 
-0.3300185301627738 1:118 2:209 3:209 
-0.9313152579446982 1:118 2:209 3:209 
-0.8357620403344437 1:118 2:213 3:213 
-1 1:146 2:188 3:188 
-1 1:154 2:200 3:200 
-0.9787170700140438 1:154 2:201 3:201 
-0.8233076330885819 1:154 2:199 3:199 
-0.2726371571879806 1:154 2:198 3:198 
-1 1:154 2:202 3:202 
-0.9698552711230611 1:154 2:197 3:197 
-1 1:154 2:197 3:197 
-1 1:154 2:203 3:203 
-1 1:154 2:196 3:196 
-0.8223395659334878 1:154 2:196 3:196 
-0.838145149670362 1:118 2:214 3:214 
-0.09638946940470082 1:154 2:195 3:195 
-1 1:154 2:195 3:195 
-1 1:154 2:195 3:195 
-1 1:154 2:195 3:195 
-1 1:154 2:205 3:205 
-0.7505651453342941 1:156 2:200 3:200 
-1 1:154 2:208 3:208 
-1 1:154 2:191 3:191 
-1 1:158 2:200 3:200 
-0.5166762318790762 1:158 2:201 3:201 
-1 1:158 2:198 3:198 
-1 1:158 2:202 3:202 
-1 1:158 2:197 3:197 
-1 1:158 2:203 3:203 
-1 1:118 2:217 3:217 
-1 1:156 2:192 3:192 
-0.7891224871459095 1:150 2:214 3:214 
-1 1:158 2:196 3:196 
-1 1:158 2:196 3:196 
-0.3892617996413332 1:154 2:211 3:211 
-0.9234989718301019 1:154 2:211 3:211 
-1 1:158 2:205 3:205 
-1 1:158 2:205 3:205 
-1 1:156 2:191 3:191 
-0.2082874211340844 1:158 2:194 3:194 
-1 1:158 2:194 3:194 
-0.9829518836744418 1:158 2:194 3:194 
-0.7909317637642435 1:150 2:215 3:215 
-1 1:154 2:212 3:212 
-1 1:154 2:212 3:212 
-1 1:156 2:190 3:190 
-1 1:156 2:190 3:190 
-0.3515972189439263 1:158 2:193 3:193 
-1 1:160 2:202 3:202 
-1 1:160 2:198 3:198 
-1 1:158 2:208 3:208 
-0.4825276351917172 1:160 2:203 3:203 
-0.9195066785363822 1:160 2:204 3:204 
-1 1:160 2:196 3:196 
-1 1:158 2:191 3:191 
-1 1:154 2:186 3:186 
-1 1:154 2:214 3:214 
-1 1:160 2:193 3:193 
-1 1:160 2:193 3:193 
-1 1:156 2:187 3:187 
-1 1:162 2:199 3:199 
-0.9925998606564985 1:160 2:208 3:208 
-1 1:162 2:198 3:198 
-1 1:158 2:211 3:211 
-1 1:158 2:189 3:189 
-0.9792475254346769 1:158 2:189 3:189 
-1 1:162 2:174 3:174 
-1 1:162 2:170 3:170 
-0.255863192442464 1:162 2:177 3:177 
-0.9586768183777907 1:162 2:177 3:177 
-1 1:162 2:168 3:168 
-1 1:162 2:178 3:178 
-1 1:160 2:172 3:172 
-1 1:160 2:174 3:174 
-1 1:160 2:174 3:174 
-0.06386920070067985 1:160 2:171 3:171 
-1 1:160 2:171 3:171 
-1 1:160 2:170 3:170 
-1 1:162 2:182 3:182 
-0.837742287860708 1:160 2:178 3:178 
-0.03997300553519434 1:160 2:179 3:179 
-1 1:162 2:183 3:183 
-0.7686782798020173 1:170 2:190 3:190 
-1 1:160 2:180 3:180 
-0.5552700679841988 1:158 2:173 3:173 
-1 1:160 2:165 3:165 
-0.972825377533942 1:158 2:174 3:174 
-1 1:160 2:181 3:181 
-1 1:158 2:170 3:170 
-1 1:158 2:176 3:176 
-1 1:160 2:164 3:164 
-1 1:170 2:191 3:191 
-1 1:160 2:182 3:182 
-0.4562752481437093 1:158 2:178 3:178 
-0.004064617764727867 1:158 2:179 3:179 
-0.1094392777036654 1:158 2:179 3:179 
-1 1:158 2:166 3:166 
-0.8906207699445955 1:158 2:180 3:180 
-0.463172654457619 1:162 2:186 3:186 
-0.8494034282224757 1:162 2:186 3:186 
-0.5678313944926343 1:160 2:184 3:184 
-0.8756078280062897 1:160 2:184 3:184 
-0.0005972610609280421 1:156 2:170 3:170 
-0.7532507207017036 1:156 2:170 3:170 
-1 1:156 2:170 3:170 
-0.9721995533294926 1:156 2:170 3:170 
-1 1:156 2:169 3:169 
-1 1:160 2:160 3:160 
-1 1:162 2:188 3:188 
-0.1697349042680668 1:160 2:186 3:186 
-1 1:160 2:186 3:186 
-1 1:156 2:166 3:166 
-0.7540594410658044 1:170 2:194 3:194 
-0.9126665395918383 1:170 2:194 3:194 
-1 1:162 2:190 3:190 
-1 1:160 2:157 3:157 
-1 1:158 2:159 3:159 
-1 1:160 2:189 3:189 
-0.004261157167264583 1:156 2:161 3:161 
-0.08745600014013391 1:156 2:161 3:161 
-1 1:156 2:161 3:161 
-1 1:156 2:161 3:161 
-0.6522249086068296 1:170 2:196 3:196 
-0.9584232544514035 1:170 2:196 3:196 
-0.2757397268305351 1:156 2:160 3:160 
-0.6557845400069097 1:162 2:192 3:192 
-1 1:160 2:155 3:155 
-1 1:146 2:167 3:167 
-1 1:146 2:171 3:171 
-1 1:146 2:172 3:172 
-1 1:146 2:157 3:157 
-0.8868731765390916 1:156 2:173 3:173 
-1 1:146 2:181 3:181 
-1 1:156 2:158 3:158 
-0.9400463114597215 1:156 2:175 3:175 
-0.5587820494573915 1:156 2:176 3:176 
-0.1446550361059624 1:146 2:182 3:182 
-0.003038701288901074 1:156 2:177 3:177 
-0.4185038400066283 1:156 2:177 3:177 
-1 1:146 2:150 3:150 
-1 1:146 2:150 3:150 
-0.05197075901308722 1:146 2:183 3:183 
-1 1:146 2:183 3:183 
-1 1:156 2:155 3:155 
-1 1:156 2:178 3:178 
-1 1:156 2:153 3:153 
-0.002800193090031017 1:118 2:152 3:152 
-0.7851109571130401 1:118 2:152 3:152 
-1 1:154 2:182 3:182 
-0.793691237094426 1:118 2:151 3:151 
-0.9879654424770273 1:158 2:180 3:180 
-1 1:156 2:151 3:151 
-1 1:154 2:183 3:183 
-1 1:160 2:153 3:153 
-1 1:146 2:146 3:146 
-1 1:156 2:183 3:183 
-0.5628580246827013 1:146 2:144 3:144 
-0.8991958200293395 1:146 2:144 3:144 
-1 1:156 2:147 3:147 
-0.7934784272550728 1:160 2:149 3:149 
-1 1:146 2:143 3:143 
-1 1:118 2:182 3:182 
-1 1:118 2:165 3:165 
-0.8333519538323939 1:118 2:185 3:185 
-0.7006935371352958 1:118 2:186 3:186 
-1 1:118 2:188 3:188 
-1 1:118 2:191 3:191 
-1 1:118 2:157 3:157 
-1 1:146 2:186 3:186 
-1 1:158 2:187 3:187 
-1 1:158 2:187 3:187 
-0.7841523034160141 1:158 2:188 3:188 
-1 1:170 2:199 3:199 
-0.152832818834062 1:162 2:193 3:193 
-1 1:162 2:193 3:193 
-0.3305748294505438 1:170 2:200 3:200 
-0.9127027409189048 1:170 2:201 3:201 
-0.5013611176083891 1:170 2:202 3:202 
-0.002957098302232522 1:160 2:148 3:148 
-0.7850580457770213 1:160 2:148 3:148 
-1 1:160 2:148 3:148 
-1 1:160 2:140 3:140 
-1 1:156 2:142 3:142 
-1 1:160 2:136 3:136 
-1 1:156 2:138 3:138 
-1 1:160 2:135 3:135 
-1 1:156 2:135 3:135 
-1 1:146 2:141 3:141 
-0.6427754740214751 1:146 2:140 3:140 
-0.9498485644680601 1:146 2:140 3:140 
-1 1:146 2:139 3:139 
-1 1:146 2:138 3:138 
-1 1:146 2:138 3:138 
-1 1:146 2:136 3:136 
-1 1:146 2:134 3:134 
-0.2041758180641562 1:118 2:135 3:135 
-1 1:118 2:129 3:129 
-1 1:118 2:125 3:125 
-1 1:146 2:131 3:131 
-1 1:146 2:131 3:131 
-0.7420441928253012 1:146 2:130 3:130 
-0.9452519815412036 1:146 2:130 3:130 
-0.9447734262371088 1:146 2:128 3:128 
-0.2653289925328265 1:146 2:127 3:127 
-1 1:146 2:126 3:126 
-1 1:146 2:123 3:123 
-0.965719473371367 1:146 2:121 3:121 
-0.185951503969377 1:146 2:120 3:120 
-1 1:146 2:119 3:119 
-1 1:146 2:118 3:118 
-1 1:146 2:116 3:116 
-1 1:160 2:124 3:124 
-0.174867835962969 1:160 2:123 3:123 
-1 1:160 2:122 3:122 
-1 1:160 2:117 3:117 
-0.2267538529870381 1:160 2:113 3:113 
-0.9723452302464263 1:160 2:113 3:113 
-1 1:160 2:110 3:110 
-1 1:156 2:89 3:89 
-0.4380045226228906 1:156 2:81 3:81 
-0.8847707512105262 1:156 2:81 3:81 
-1 1:160 2:92 3:92 
-0.8372132778515082 1:160 2:78 3:78 
-0.7013564577366987 1:160 2:77 3:77 
-1 1:160 2:75 3:75 
-1 1:156 2:96 3:96 
-1 1:160 2:74 3:74 
-1 1:156 2:73 3:73 
-1 1:160 2:97 3:97 
-1 1:160 2:98 3:98 
-1 1:160 2:72 3:72 
-0.2926383712894466 1:160 2:71 3:71 
-1 1:160 2:100 3:100 
-0.01028131115426015 1:160 2:70 3:70 
-0.6947825273219804 1:160 2:70 3:70 
-1 1:156 2:101 3:101 
-1 1:156 2:69 3:69 
-0.4330343165399749 1:160 2:69 3:69 
-0.6789846408026521 1:160 2:68 3:68 
-0.3537496467419575 1:160 2:67 3:67 
-0.1200999684251298 1:156 2:66 3:66 
-1 1:156 2:66 3:66 
-0.001514191750985217 1:160 2:104 3:104 
-0.8330031159167022 1:160 2:104 3:104 
-0.8925167276133582 1:160 2:66 3:66 
-0.7723179121284981 1:160 2:105 3:105 
-1 1:156 2:64 3:64 
-1 1:160 2:64 3:64 
-1 1:160 2:62 3:62 
-0.2989074551723365 1:156 2:61 3:61 
-1 1:160 2:61 3:61 
-0.99098144296223 1:156 2:60 3:60 
-1 1:156 2:60 3:60 
-1 1:160 2:60 3:60 
-0.7951434772692745 1:160 2:58 3:58 
-0.7925109080228464 1:160 2:57 3:57 
-0.7550540860931141 1:156 2:53 3:53 
-0.002525057932454236 1:156 2:52 3:52 
-0.8715071786436835 1:156 2:52 3:52 
-1 1:156 2:44 3:44 
-1 1:156 2:42 3:42 
-0.8319133071806838 1:156 2:35 3:35 
-0.717301683159169 1:156 2:34 3:34 
-1 1:156 2:34 3:34 
-0.1840865171074526 1:118 2:192 3:192 
-0.8564823007997285 1:160 2:190 3:190 
-0.95178229372246 1:160 2:191 3:191 
-1 1:170 2:203 3:203 
-1 1:162 2:195 3:195 
-0.06921258470031595 1:162 2:196 3:196 
-0.03702619434102443 1:162 2:197 3:197 
-1 1:162 2:197 3:197 
-1 1:170 2:207 3:207 
-0.3133870666746533 1:170 2:209 3:209 
-1 1:170 2:209 3:209 
-1 1:162 2:203 3:203 
-1 1:118 2:155 3:155 
-0.547229020217903 1:170 2:210 3:210 
-0.692154699909462 1:170 2:211 3:211 
-0.4804004663449223 1:170 2:212 3:212 
-0.01073229404000414 1:170 2:213 3:213 
-0.8437079596943844 1:170 2:213 3:213 
-0.534935797935486 1:170 2:214 3:214 
-0.009845810109313249 1:170 2:215 3:215 
-0.55411170779087 1:170 2:215 3:215 
-1 1:170 2:215 3:215 
-0.5402139046299514 1:170 2:216 3:216 
-0.008257192811246792 1:170 2:217 3:217 
-0.8265911794313507 1:170 2:217 3:217 
-0.5399267235361717 1:170 2:218 3:218 
-0.9802924280339359 1:170 2:218 3:218 
-0.8806534841094729 1:170 2:219 3:219 
-0.6657122951226041 1:170 2:220 3:220 
-1 1:170 2:221 3:221 
-1 1:174 2:225 3:225 
-1 1:122 2:230 3:230 
-0.1342613170982659 1:122 2:232 3:232 
-1 1:122 2:232 3:232 
-1 1:118 2:233 3:233 
-1 1:162 2:206 3:206 
-0.8693955669845671 1:162 2:208 3:208 
-0.5723884863391835 1:162 2:212 3:212 
-0.9029508361743498 1:162 2:212 3:212 
-0.947636702054225 1:158 2:212 3:212 
-0.9934402431759107 1:118 2:135 3:135 
-0.1462831185151232 1:156 2:29 3:29 
-0.9969548460465218 1:156 2:29 3:29 
-0.7195928581392026 1:156 2:31 3:31 
-0.7740666934441702 1:156 2:32 3:32 
-1 1:156 2:26 3:26 
-0.7436466196606683 1:156 2:24 3:24 
-0.7484723627337444 1:156 2:23 3:23 
-1 1:156 2:21 3:21 
-1 1:156 2:19 3:19 
-0.1284687771668998 1:156 2:15 3:15 
-1 1:156 2:15 3:15 
-1 1:156 2:13 3:13 
-0.7001278709201382 1:156 2:11 3:11 
-0.003430789261149758 1:156 2:10 3:10 
-0.8321019076527875 1:156 2:10 3:10 
-1 1:156 2:7 3:7 
-1 1:156 2:1 3:1 
-1 1:156 2:1 3:1 
-1 1:156 2:0 3:0 
-1 1:156 2:0 3:0 
-1 1:156 2:0 3:0 
-0.1706103931110532 1:118 2:156 3:156 
-0.7261833558852737 1:158 2:213 3:213 
