svm_type c_svc
kernel_type rbf
gamma 0.5
nr_class 2
total_sv 6290
rho -0.0564278
label 1 -1
nr_sv 3036 3254
SV
1 1:98 2:387 
1 1:100 2:384 
0.9289221666999556 1:102 2:379 
1 1:104 2:347 
1 1:106 2:376 
1 1:110 2:400 
1 1:114 2:367 
0.6288429843912129 1:118 2:351 
0.221766212202521 1:120 2:346 
1 1:122 2:271 
1 1:124 2:400 
1 1:126 2:363 
0.589777582738694 1:132 2:250 
0.84148408026594 1:134 2:234 
0.8801376947777884 1:136 2:250 
1 1:138 2:400 
0.7380007635217084 1:148 2:213 
1 1:150 2:274 
1 1:152 2:400 
1 1:154 2:298 
1 1:156 2:187 
1 1:158 2:288 
0.7477579272115598 1:160 2:241 
1 1:162 2:290 
1 1:166 2:400 
0.9426824839519962 1:168 2:328 
1 1:170 2:222 
1 1:172 2:292 
1 1:174 2:280 
0.4774172637559168 1:178 2:337 
1 1:182 2:400 
1 1:186 2:292 
0.4660982416999822 1:188 2:317 
1 1:190 2:328 
1 1:192 2:350 
1 1:196 2:400 
1 1:210 2:400 
1 1:100 2:383 
1 1:102 2:380 
1 1:104 2:350 
1 1:106 2:376 
1 1:110 2:400 
1 1:114 2:367 
0.6549168423026803 1:118 2:355 
0.9017276110077097 1:120 2:358 
1 1:124 2:400 
1 1:126 2:363 
1 1:128 2:353 
0.930704140206843 1:130 2:248 
0.4997936789851797 1:134 2:247 
0.9271226274666645 1:136 2:256 
1 1:138 2:400 
0.8585486021905185 1:140 2:277 
1 1:148 2:229 
1 1:152 2:400 
1 1:154 2:291 
0.7271210719510622 1:156 2:203 
0.9676700549847514 1:160 2:249 
0.4959930664349779 1:162 2:300 
0.830976007240841 1:164 2:339 
1 1:166 2:400 
0.5859903696071859 1:168 2:332 
1 1:170 2:239 
0.4624687083578695 1:172 2:299 
0.6267103496617701 1:174 2:283 
1 1:182 2:400 
1 1:184 2:325 
1 1:186 2:306 
1 1:196 2:400 
1 1:210 2:400 
1 1:100 2:385 
1 1:102 2:381 
1 1:104 2:353 
1 1:106 2:375 
1 1:110 2:400 
1 1:112 2:377 
1 1:114 2:375 
0.6769301858942475 1:118 2:360 
1 1:124 2:400 
1 1:130 2:276 
1 1:132 2:297 
1 1:134 2:300 
1 1:138 2:400 
0.9073052468104197 1:140 2:281 
0.6637047804472723 1:144 2:247 
1 1:148 2:237 
1 1:152 2:400 
1 1:154 2:290 
0.70528569606251 1:156 2:204 
0.5983799274118756 1:158 2:292 
0.5349308167120311 1:160 2:257 
0.7314932045052982 1:162 2:299 
0.8308468769623172 1:164 2:337 
1 1:166 2:400 
0.5878382035238122 1:168 2:333 
1 1:170 2:233 
1 1:174 2:280 
0.7354918699768274 1:176 2:335 
1 1:182 2:400 
1 1:184 2:325 
0.8915555007515448 1:188 2:318 
1 1:196 2:400 
1 1:210 2:400 
1 1:98 2:390 
1 1:100 2:388 
1 1:102 2:384 
1 1:106 2:378 
1 1:108 2:381 
1 1:110 2:400 
1 1:112 2:379 
1 1:114 2:374 
0.5729653174623567 1:118 2:365 
0.9810743225951595 1:120 2:366 
0.446593497296139 1:122 2:309 
1 1:124 2:400 
1 1:130 2:293 
1 1:132 2:335 
0.9690205450397085 1:134 2:327 
1 1:136 2:290 
1 1:138 2:400 
0.5616538482007136 1:140 2:310 
0.8123372380041414 1:142 2:279 
0.9619358520866061 1:148 2:243 
1 1:150 2:284 
1 1:152 2:400 
1 1:154 2:293 
0.5225473054564896 1:156 2:206 
0.5694184689993281 1:158 2:291 
1 1:160 2:261 
0.8585014527928524 1:162 2:287 
0.8467443271163473 1:164 2:332 
1 1:166 2:400 
0.4079615665347383 1:168 2:323 
0.8862438133261948 1:170 2:240 
1 1:174 2:294 
1 1:182 2:400 
0.5779442000721499 1:190 2:370 
0.6114831677739674 1:192 2:374 
0.7985689855877747 1:194 2:379 
1 1:196 2:400 
0.2019374556075237 1:198 2:384 
0.4984709232623882 1:200 2:386 
1 1:210 2:400 
1 1:98 2:394 
1 1:100 2:393 
1 1:102 2:389 
1 1:104 2:364 
0.972872206326412 1:108 2:380 
1 1:110 2:400 
1 1:112 2:378 
1 1:114 2:375 
0.3702910599597331 1:118 2:366 
0.253198882645465 1:122 2:299 
1 1:124 2:400 
0.2276852758652928 1:128 2:368 
1 1:134 2:338 
1 1:136 2:303 
1 1:138 2:400 
0.02132445759765854 1:140 2:305 
0.6859288461668565 1:142 2:298 
1 1:152 2:400 
1 1:154 2:282 
0.713672513921626 1:156 2:195 
1 1:158 2:286 
0.6328912450966688 1:160 2:265 
1 1:162 2:291 
0.714097405397442 1:164 2:330 
1 1:166 2:400 
0.8805174257058989 1:168 2:321 
1 1:172 2:266 
0.4158766372278415 1:174 2:277 
0.5152240244805675 1:178 2:348 
1 1:182 2:400 
0.6697471083254172 1:184 2:357 
0.8907451383336783 1:186 2:365 
0.5484363691830574 1:190 2:374 
0.7444204508851615 1:192 2:378 
0.5794357631451352 1:194 2:383 
1 1:196 2:400 
1 1:210 2:400 
1 1:98 2:393 
1 1:100 2:393 
1 1:102 2:389 
1 1:106 2:380 
1 1:108 2:382 
1 1:110 2:400 
1 1:112 2:379 
1 1:114 2:377 
0.9773769304972075 1:122 2:299 
1 1:124 2:400 
0.5299386388377393 1:130 2:298 
1 1:132 2:344 
1 1:136 2:306 
1 1:138 2:400 
1 1:140 2:317 
0.3011660301916439 1:142 2:294 
1 1:144 2:277 
1 1:150 2:271 
1 1:152 2:400 
1 1:154 2:280 
0.8042015174808854 1:156 2:194 
1 1:158 2:268 
0.5456948682599286 1:160 2:258 
0.9759341285977123 1:162 2:283 
0.845818423905868 1:164 2:328 
1 1:166 2:400 
0.8806142735263909 1:168 2:316 
0.9687482990214692 1:170 2:248 
1 1:172 2:265 
1 1:174 2:270 
1 1:176 2:326 
1 1:182 2:400 
0.4726060196113688 1:184 2:355 
0.7810273607484872 1:186 2:362 
0.5680393806736014 1:188 2:363 
0.9366110231531604 1:194 2:386 
1 1:196 2:400 
0.7699681962280667 1:198 2:387 
0.7611595025529788 1:200 2:390 
0.5963368487977591 1:202 2:393 
1 1:210 2:400 
1 1:98 2:394 
1 1:100 2:392 
1 1:102 2:388 
0.6974040374145554 1:104 2:362 
1 1:106 2:377 
1 1:108 2:380 
1 1:110 2:400 
1 1:112 2:380 
1 1:114 2:376 
0.6302244948463627 1:118 2:362 
0.8256209993332525 1:120 2:359 
0.9034524539583064 1:122 2:289 
1 1:124 2:400 
0.767544629082178 1:126 2:370 
0.7634738304034246 1:128 2:367 
0.7449478897820142 1:130 2:289 
0.8011957766380899 1:132 2:343 
1 1:136 2:298 
1 1:138 2:400 
0.5918358830380079 1:140 2:307 
0.7890345237871009 1:148 2:200 
1 1:150 2:261 
1 1:152 2:400 
1 1:154 2:278 
1 1:156 2:190 
0.8151488833780107 1:158 2:266 
0.7543132910014986 1:160 2:263 
0.5861919866226581 1:162 2:286 
0.9332677868531384 1:164 2:318 
1 1:166 2:400 
0.4084561325947709 1:168 2:314 
1 1:170 2:242 
1 1:172 2:268 
1 1:174 2:254 
1 1:182 2:400 
0.4243050248032674 1:190 2:371 
0.6256049778475394 1:192 2:376 
0.5822828201861099 1:194 2:382 
1 1:196 2:400 
0.5581448222400046 1:198 2:385 
0.6068331034684751 1:200 2:388 
0.3941250694308061 1:202 2:392 
0.8595932024582165 1:208 2:398 
1 1:210 2:400 
1 1:98 2:394 
1 1:102 2:389 
1 1:104 2:368 
1 1:110 2:400 
1 1:112 2:382 
1 1:114 2:376 
0.3948963914119193 1:118 2:356 
1 1:120 2:350 
1 1:124 2:400 
0.4133281533344006 1:126 2:372 
0.2508569611354833 1:128 2:369 
0.9700312941281281 1:130 2:284 
0.99661721767072 1:132 2:343 
1 1:136 2:296 
1 1:138 2:400 
1 1:140 2:305 
0.6280327700305603 1:142 2:290 
0.9295064750519836 1:144 2:272 
1 1:148 2:233 
0.3944390699931971 1:150 2:277 
1 1:152 2:400 
1 1:154 2:278 
1 1:156 2:214 
1 1:158 2:269 
1 1:160 2:279 
0.8195049841665422 1:162 2:294 
0.9322241776630382 1:164 2:324 
1 1:166 2:400 
0.6861916214675637 1:168 2:324 
0.9890658866271151 1:170 2:259 
1 1:172 2:277 
1 1:174 2:263 
0.7399690234811288 1:176 2:337 
0.5184058487834133 1:178 2:349 
0.8233991302139479 1:180 2:353 
1 1:182 2:400 
0.7841308426502139 1:184 2:359 
0.7086477530667162 1:186 2:360 
0.4105083818443743 1:188 2:364 
1 1:196 2:400 
0.2918333033763914 1:198 2:382 
1 1:210 2:400 
1 1:98 2:394 
1 1:102 2:393 
1 1:104 2:372 
1 1:108 2:380 
1 1:110 2:400 
1 1:112 2:383 
1 1:114 2:383 
1 1:116 2:374 
0.7349821004753624 1:118 2:352 
1 1:120 2:348 
1 1:122 2:306 
1 1:124 2:400 
0.6833727585743385 1:126 2:373 
0.6396647200705143 1:128 2:370 
1 1:130 2:286 
1 1:132 2:338 
1 1:134 2:324 
0.9142251075915232 1:136 2:271 
1 1:138 2:400 
0.5956048120498471 1:140 2:308 
0.1274847767247221 1:142 2:284 
0.9430170007870775 1:144 2:212 
1 1:148 2:230 
1 1:150 2:276 
1 1:152 2:400 
1 1:154 2:274 
0.795645278213444 1:156 2:208 
1 1:158 2:262 
0.9253201957054918 1:160 2:267 
0.9140014294418731 1:162 2:281 
0.9225318132133333 1:164 2:321 
1 1:166 2:400 
0.6863773076798803 1:168 2:313 
0.9529050516870807 1:170 2:251 
1 1:172 2:270 
1 1:174 2:268 
0.465538223322895 1:176 2:330 
0.6910839131551877 1:180 2:350 
1 1:182 2:400 
0.46244398930823 1:186 2:357 
0.6877850552257797 1:188 2:359 
0.4836966930396148 1:190 2:373 
0.01792587516295934 1:192 2:375 
1 1:196 2:400 
0.5368210514203858 1:202 2:390 
0.7265391266309966 1:204 2:394 
0.7417459289261523 1:206 2:396 
1 1:210 2:400 
1 1:98 2:392 
1 1:100 2:393 
1 1:102 2:381 
1 1:104 2:373 
1 1:108 2:379 
1 1:110 2:400 
1 1:112 2:380 
1 1:114 2:375 
0.7304411420952734 1:116 2:368 
0.6236836663548474 1:118 2:335 
1 1:122 2:276 
1 1:124 2:400 
1 1:126 2:361 
1 1:132 2:292 
0.6879755833033813 1:136 2:240 
1 1:138 2:400 
0.8428720941260759 1:142 2:233 
0.5880035750983339 1:144 2:207 
0.5870055831681497 1:146 2:41 
0.4678590341379874 1:148 2:193 
1 1:150 2:253 
1 1:152 2:400 
0.8982425780477292 1:154 2:178 
1 1:156 2:155 
1 1:158 2:238 
0.8654492982822259 1:160 2:237 
0.4719378286232039 1:162 2:264 
1 1:166 2:400 
0.644752652053555 1:170 2:176 
1 1:172 2:264 
1 1:174 2:255 
0.05610399450726034 1:176 2:332 
0.8529467115327358 1:178 2:345 
0.03360664446719312 1:180 2:343 
1 1:182 2:400 
0.1279837546263471 1:184 2:349 
0.005032407824948799 1:186 2:353 
0.644483074581776 1:188 2:357 
1 1:196 2:400 
1 1:210 2:400 
1 1:98 2:387 
1 1:100 2:390 
1 1:102 2:370 
1 1:104 2:366 
0.7210425862051137 1:106 2:374 
1 1:108 2:371 
1 1:110 2:400 
1 1:114 2:368 
1 1:116 2:352 
0.6131596243819444 1:118 2:320 
0.1094743230335537 1:122 2:280 
1 1:124 2:400 
1 1:126 2:361 
0.8351229885815011 1:130 2:242 
1 1:134 2:289 
0.5870142290676718 1:136 2:187 
1 1:138 2:400 
0.8469812141452117 1:140 2:248 
0.8628554923893165 1:142 2:239 
0.9454530678035737 1:144 2:164 
0.943083621220243 1:146 2:104 
0.2268344735982984 1:148 2:202 
0.0007511904696736599 1:150 2:250 
1 1:152 2:400 
0.4377588598456628 1:154 2:238 
1 1:156 2:96 
1 1:158 2:211 
1 1:160 2:197 
1 1:166 2:400 
1 1:168 2:270 
0.6648599797929839 1:172 2:240 
1 1:174 2:236 
1 1:176 2:323 
0.9217538939272378 1:178 2:327 
1 1:180 2:330 
1 1:182 2:400 
0.477005544073578 1:184 2:339 
1 1:196 2:400 
0.4155118272780724 1:198 2:383 
0.1280573562455085 1:202 2:389 
1 1:210 2:400 
1 1:216 2:394 
1 1:98 2:387 
1 1:100 2:382 
1 1:106 2:364 
1 1:110 2:400 
1 1:116 2:342 
1 1:118 2:290 
0.5989347710303117 1:120 2:316 
0.69425301668007 1:122 2:267 
1 1:124 2:400 
0.3451946163871136 1:130 2:240 
0.9370376152049256 1:132 2:287 
0.4821755111907205 1:134 2:280 
0.9435408270532026 1:136 2:164 
1 1:138 2:400 
0.9286981888529472 1:140 2:204 
0.8137026176802031 1:142 2:206 
1 1:144 2:144 
0.5099785574858284 1:146 2:22 
1 1:152 2:400 
1 1:154 2:191 
0.9334275371679187 1:156 2:100 
0.9363716968427674 1:158 2:182 
1 1:160 2:181 
0.4073106605475295 1:162 2:235 
1 1:164 2:268 
1 1:166 2:400 
1 1:168 2:263 
1 1:174 2:248 
0.9914479094710665 1:176 2:332 
1 1:178 2:330 
1 1:182 2:400 
1 1:196 2:400 
1 1:210 2:400 
1 1:100 2:374 
1 1:102 2:373 
0.6673183659630627 1:104 2:356 
0.4588217742221249 1:108 2:368 
1 1:110 2:400 
1 1:112 2:366 
1 1:114 2:362 
1 1:116 2:354 
1 1:118 2:288 
0.04998074853452447 1:120 2:326 
1 1:122 2:277 
1 1:124 2:400 
1 1:126 2:359 
1 1:128 2:349 
1 1:130 2:261 
0.6191471174322392 1:132 2:294 
0.8219154836520463 1:134 2:261 
0.8306119530923483 1:136 2:214 
1 1:138 2:400 
0.9433632461865346 1:140 2:190 
0.9440062318842521 1:142 2:158 
0.06354956046402391 1:144 2:231 
1 1:148 2:227 
1 1:150 2:244 
1 1:152 2:400 
1 1:154 2:229 
1 1:158 2:232 
1 1:160 2:192 
1 1:164 2:300 
1 1:166 2:400 
1 1:168 2:282 
0.7371349121165093 1:170 2:160 
1 1:172 2:257 
1 1:174 2:263 
0.5336026413548021 1:176 2:340 
0.9429841715075847 1:180 2:359 
1 1:182 2:400 
0.618972084256216 1:184 2:352 
0.4142530347128976 1:186 2:356 
1 1:196 2:400 
1 1:210 2:400 
1 1:98 2:376 
0.6784392625288905 1:100 2:367 
1 1:104 2:347 
1 1:106 2:361 
0.5308413948373701 1:108 2:360 
1 1:110 2:400 
0.6605394115184258 1:112 2:359 
1 1:116 2:354 
1 1:118 2:285 
1 1:124 2:400 
1 1:126 2:355 
1 1:132 2:283 
0.943562779300546 1:136 2:194 
1 1:138 2:400 
0.8343955254284398 1:140 2:243 
0.9439485230887681 1:142 2:197 
0.9447099692880284 1:144 2:201 
1 1:148 2:229 
1 1:150 2:247 
1 1:152 2:400 
1 1:154 2:237 
0.9254875311377101 1:156 2:103 
1 1:158 2:225 
1 1:160 2:211 
1 1:166 2:400 
1 1:172 2:257 
0.5973401678548547 1:174 2:284 
0.5220220412068064 1:176 2:341 
0.2772741054993442 1:178 2:341 
0.8314728251143824 1:180 2:355 
1 1:182 2:400 
0.6001825724799866 1:184 2:348 
0.5724788092070943 1:186 2:354 
0.7189863334065729 1:188 2:354 
0.5566382997523316 1:190 2:365 
1 1:196 2:400 
0.3749321627023595 1:200 2:384 
1 1:210 2:400 
1 1:98 2:372 
0.5814181994052742 1:102 2:354 
1 1:104 2:339 
1 1:106 2:351 
1 1:108 2:348 
1 1:110 2:400 
1 1:114 2:355 
1 1:116 2:351 
0.6747095226694877 1:118 2:269 
1 1:122 2:268 
1 1:124 2:400 
0.5075899605638187 1:126 2:338 
1 1:128 2:331 
0.9339559898297802 1:130 2:219 
0.7863367131513427 1:132 2:257 
0.6487798364161413 1:134 2:249 
0.5879618122752084 1:136 2:186 
1 1:138 2:400 
0.8738011141209194 1:140 2:232 
0.8007121829118053 1:142 2:236 
0.963289952918387 1:144 2:170 
0.6210335970488932 1:150 2:218 
1 1:152 2:400 
1 1:154 2:210 
1 1:156 2:68 
1 1:158 2:213 
1 1:160 2:182 
1 1:162 2:248 
1 1:164 2:287 
1 1:166 2:400 
1 1:168 2:283 
0.562391909031482 1:170 2:173 
1 1:172 2:250 
1 1:174 2:270 
0.7960708603572683 1:176 2:329 
1 1:178 2:332 
0.7475646375524284 1:180 2:344 
1 1:182 2:400 
0.6889085939409647 1:186 2:352 
0.4780164916197759 1:188 2:350 
0.5419632100408407 1:194 2:377 
1 1:196 2:400 
1 1:210 2:400 
0.7304088945168901 1:98 2:362 
0.5639136305274776 1:100 2:360 
0.9690241076353102 1:104 2:346 
1 1:106 2:348 
1 1:110 2:400 
0.03573560964824819 1:116 2:355 
1 1:118 2:254 
1 1:124 2:400 
0.8558933768842509 1:126 2:339 
0.2447139610507942 1:128 2:328 
0.4317744235773165 1:132 2:251 
0.8307465336366623 1:134 2:263 
0.9435734003371747 1:136 2:210 
1 1:138 2:400 
0.7476544918831273 1:140 2:255 
0.5074534290495936 1:142 2:242 
0.4764045003943234 1:144 2:206 
0.1803532847731243 1:148 2:201 
0.7061131416136895 1:150 2:220 
1 1:152 2:400 
1 1:158 2:206 
1 1:160 2:193 
1 1:162 2:254 
1 1:166 2:400 
1 1:168 2:287 
1 1:172 2:265 
0.9956389321052783 1:174 2:277 
1 1:176 2:320 
0.3000329989652367 1:180 2:349 
1 1:182 2:400 
0.465130982390034 1:184 2:354 
0.6029802424843091 1:186 2:348 
0.460613223612477 1:188 2:351 
0.2642243517211921 1:194 2:374 
1 1:196 2:400 
0.3262027043964915 1:198 2:380 
1 1:210 2:400 
0.8189344132235084 1:98 2:354 
1 1:100 2:354 
1 1:104 2:342 
0.8116109471920692 1:106 2:344 
1 1:108 2:354 
1 1:110 2:400 
0.885659979683917 1:114 2:347 
1 1:116 2:350 
1 1:118 2:246 
1 1:120 2:335 
0.9989614370816363 1:122 2:267 
1 1:124 2:400 
0.9994856323198026 1:126 2:339 
1 1:128 2:328 
0.6141028679815588 1:130 2:239 
0.8662335222685738 1:132 2:255 
0.6475292171718667 1:134 2:273 
0.9275536386794118 1:136 2:232 
1 1:138 2:400 
0.7468828888181063 1:140 2:257 
1 1:150 2:221 
1 1:152 2:400 
0.9518424858505758 1:154 2:209 
1 1:156 2:42 
1 1:158 2:196 
1 1:160 2:189 
1 1:162 2:258 
1 1:166 2:400 
0.704876404506997 1:168 2:288 
0.6562042329522275 1:170 2:168 
1 1:172 2:264 
1 1:174 2:269 
1 1:176 2:317 
0.7340030590553539 1:178 2:342 
0.8190920104456079 1:180 2:347 
1 1:182 2:400 
0.6083862188728912 1:184 2:350 
0.1426710742233835 1:186 2:347 
0.1815490170888339 1:188 2:346 
1 1:196 2:400 
0.335488902844247 1:198 2:378 
0.1556818502479185 1:200 2:385 
0.2734474228290938 1:202 2:387 
0.02333390236994183 1:206 2:395 
1 1:210 2:400 
0.7686267256886163 1:98 2:342 
1 1:100 2:350 
0.4294343618586601 1:102 2:342 
0.7241304799517385 1:108 2:352 
1 1:110 2:400 
0.7965368967417341 1:112 2:354 
1 1:114 2:344 
0.6601564009098381 1:116 2:335 
1 1:118 2:243 
0.5884193974524019 1:120 2:331 
1 1:122 2:252 
1 1:124 2:400 
1 1:128 2:326 
0.8595809443596022 1:130 2:222 
0.6480864689872725 1:132 2:253 
0.3289472628375489 1:134 2:274 
1 1:138 2:400 
0.8427495418610582 1:140 2:264 
0.496214054136126 1:142 2:243 
0.5143608119943188 1:144 2:240 
0.3226117446233313 1:150 2:210 
1 1:152 2:400 
1 1:154 2:200 
1 1:156 2:25 
1 1:158 2:187 
1 1:160 2:163 
0.2736524523762256 1:164 2:293 
1 1:166 2:400 
1 1:168 2:271 
0.8319194610650825 1:170 2:155 
1 1:172 2:261 
1 1:174 2:256 
1 1:176 2:314 
1 1:182 2:400 
0.1113940469696181 1:184 2:351 
0.2777271052694828 1:186 2:346 
0.5877763853581696 1:192 2:367 
1 1:196 2:400 
1 1:210 2:400 
0.7420604047342525 1:100 2:343 
0.7452449256630103 1:102 2:343 
1 1:104 2:332 
1 1:106 2:341 
1 1:108 2:347 
1 1:110 2:400 
0.8444092250999691 1:116 2:325 
0.8191750351263414 1:118 2:230 
0.3433810539256396 1:122 2:249 
1 1:124 2:400 
0.9496983508456484 1:126 2:330 
0.7998650891927153 1:130 2:227 
0.8518715297450085 1:134 2:258 
1 1:138 2:400 
0.8309075523189203 1:140 2:270 
0.6257497238398365 1:142 2:255 
1 1:144 2:231 
0.7228481434686244 1:150 2:209 
1 1:152 2:400 
1 1:154 2:197 
0.9652662434192766 1:156 2:18 
0.4817196050877393 1:158 2:164 
1 1:160 2:136 
0.5926104294438641 1:162 2:230 
0.8565414903319899 1:164 2:276 
1 1:166 2:400 
1 1:168 2:272 
0.8159754741076213 1:170 2:153 
1 1:172 2:250 
0.5092923766978498 1:174 2:239 
1 1:176 2:306 
1 1:178 2:331 
1 1:182 2:400 
0.5935877442841696 1:184 2:346 
1 1:196 2:400 
0.3454826006775064 1:198 2:379 
1 1:210 2:400 
0.9329868446756652 1:98 2:319 
0.7723937295746448 1:100 2:325 
0.4992513901674169 1:102 2:326 
0.4616541665799567 1:104 2:320 
1 1:106 2:336 
1 1:108 2:347 
1 1:110 2:400 
1 1:112 2:343 
0.8095460596684541 1:116 2:317 
1 1:118 2:208 
1 1:124 2:400 
1 1:126 2:325 
1 1:128 2:322 
0.5217484375231278 1:130 2:225 
0.8417976509945114 1:132 2:245 
0.1408654401843647 1:134 2:248 
0.6864435775880705 1:136 2:244 
1 1:138 2:400 
0.6907839258320689 1:144 2:237 
0.9890823025337125 1:148 2:197 
0.4650754020441066 1:150 2:193 
1 1:152 2:400 
1 1:154 2:185 
1 1:156 2:6 
0.1843957534586849 1:158 2:162 
0.9435356532052943 1:160 2:118 
0.5693397663597903 1:162 2:215 
1 1:164 2:276 
1 1:166 2:400 
1 1:168 2:268 
0.9265560492466455 1:170 2:134 
0.9676746262172635 1:172 2:246 
0.4456902443480318 1:174 2:238 
1 1:176 2:310 
1 1:178 2:330 
1 1:180 2:329 
1 1:182 2:400 
0.4588512767913159 1:188 2:341 
0.3725593069794098 1:194 2:372 
1 1:196 2:400 
1 1:210 2:400 
0.8286267695298258 1:98 2:325 
0.8465381176046261 1:100 2:286 
0.7971915999711344 1:102 2:318 
0.9699269870538872 1:104 2:285 
1 1:110 2:400 
0.895468410208075 1:114 2:330 
1 1:116 2:308 
0.2321287907244987 1:118 2:211 
1 1:122 2:230 
1 1:124 2:400 
1 1:126 2:319 
1 1:128 2:315 
0.8521925303504524 1:130 2:233 
0.8495367028450651 1:132 2:235 
0.4974666368604567 1:134 2:245 
1 1:138 2:400 
0.8222959595562583 1:140 2:274 
0.7338037289436909 1:142 2:264 
0.794329047171914 1:144 2:249 
0.8215130503388692 1:146 2:32 
1 1:148 2:172 
1 1:152 2:400 
0.3804458684072115 1:154 2:180 
0.8081310441113976 1:158 2:144 
1 1:164 2:256 
1 1:166 2:400 
1 1:168 2:265 
0.5778703253080428 1:170 2:137 
0.9120836846275795 1:172 2:243 
0.576107834373023 1:174 2:231 
1 1:176 2:309 
1 1:178 2:323 
1 1:180 2:325 
1 1:182 2:400 
0.4140242156201616 1:188 2:340 
1 1:196 2:400 
1 1:210 2:400 
0.9433943087214309 1:98 2:330 
0.8462147406167425 1:100 2:282 
0.7188002283253231 1:102 2:296 
1 1:104 2:288 
0.8870630801240823 1:106 2:318 
0.7082765587687354 1:108 2:337 
1 1:110 2:400 
1 1:114 2:326 
1 1:116 2:303 
1 1:118 2:208 
0.9553242116898141 1:122 2:229 
1 1:124 2:400 
1 1:126 2:321 
1 1:128 2:312 
0.5016380736291924 1:130 2:224 
0.8360525768808208 1:132 2:232 
0.6471520515181073 1:134 2:243 
0.8490469132755831 1:136 2:238 
1 1:138 2:400 
0.5157867917314658 1:142 2:257 
0.5649194942001246 1:144 2:241 
0.5074313196059955 1:146 2:21 
0.9870807060617529 1:148 2:187 
0.8023166058974069 1:150 2:197 
1 1:152 2:400 
0.1115149657156965 1:154 2:169 
0.6886443617675551 1:158 2:152 
1 1:160 2:74 
1 1:162 2:189 
0.1501895424939472 1:164 2:256 
1 1:166 2:400 
1 1:168 2:256 
0.58421522303716 1:170 2:138 
0.2875097933767763 1:174 2:232 
1 1:176 2:288 
1 1:180 2:323 
1 1:182 2:400 
1 1:192 2:360 
1 1:196 2:400 
0.4247678504297265 1:206 2:387 
1 1:210 2:400 
1 1:216 2:394 
0.9423591883154315 1:98 2:346 
0.714253239674165 1:100 2:284 
0.8139127261051221 1:102 2:294 
1 1:106 2:321 
1 1:108 2:342 
1 1:110 2:400 
0.3145504428433148 1:114 2:336 
0.9476778709980788 1:116 2:306 
1 1:118 2:216 
1 1:122 2:245 
1 1:124 2:400 
1 1:126 2:325 
1 1:128 2:320 
0.445170239689033 1:130 2:229 
0.7321409412087689 1:132 2:239 
0.6443251396178888 1:134 2:241 
0.6380447657133267 1:136 2:242 
1 1:138 2:400 
0.7193442138460343 1:140 2:272 
0.02109513633759637 1:142 2:260 
0.8669882410485115 1:144 2:265 
0.9247525548972313 1:146 2:27 
0.7269434581662717 1:150 2:202 
1 1:152 2:400 
0.9882201713232923 1:154 2:169 
0.1563061707825165 1:156 2:0 
0.8282077148478669 1:158 2:153 
1 1:160 2:61 
1 1:162 2:190 
1 1:164 2:257 
1 1:166 2:400 
0.8056472618576674 1:168 2:261 
0.7626498896634699 1:170 2:144 
1 1:176 2:290 
1 1:178 2:315 
1 1:180 2:328 
1 1:182 2:400 
0.02479074281975468 1:184 2:329 
1 1:188 2:328 
1 1:190 2:347 
1 1:196 2:400 
1 1:210 2:400 
0.8379966085281477 1:98 2:340 
0.9438854884935125 1:100 2:272 
0.9435983628157705 1:102 2:300 
1 1:104 2:290 
0.9382975461260971 1:106 2:330 
0.6522363889757887 1:108 2:340 
1 1:110 2:400 
0.3102293908076524 1:112 2:345 
0.4870283937087734 1:116 2:318 
0.9922223437943357 1:118 2:211 
1 1:120 2:312 
0.01343785294805267 1:122 2:246 
1 1:124 2:400 
1 1:126 2:319 
1 1:128 2:318 
0.6400158220791717 1:130 2:230 
0.6368000886555024 1:132 2:241 
0.1221765126033301 1:134 2:246 
0.01934453927133355 1:136 2:243 
1 1:138 2:400 
0.7972981728557877 1:142 2:268 
0.5793089532860386 1:144 2:269 
0.6019256301966779 1:150 2:194 
1 1:152 2:400 
0.9741221541011461 1:154 2:176 
1 1:156 2:0 
0.906981917706097 1:158 2:128 
0.5704428268705345 1:160 2:51 
1 1:162 2:182 
1 1:164 2:254 
1 1:166 2:400 
1 1:168 2:246 
0.7471314968683452 1:170 2:141 
0.7738596251421539 1:172 2:223 
1 1:178 2:314 
1 1:180 2:328 
1 1:182 2:400 
1 1:188 2:327 
0.5763914854715764 1:190 2:342 
1 1:196 2:400 
1 1:210 2:400 
0.07970919182337356 1:98 2:367 
0.9438955821081134 1:100 2:242 
0.9274736375056174 1:102 2:327 
0.8477218196489783 1:104 2:296 
1 1:106 2:327 
0.3736380188011528 1:108 2:338 
1 1:110 2:400 
0.4230063776451721 1:112 2:350 
1 1:114 2:328 
1 1:116 2:323 
1 1:120 2:332 
0.1943753082294157 1:122 2:248 
1 1:124 2:400 
1 1:126 2:327 
1 1:128 2:308 
0.5169389052980599 1:130 2:252 
0.1054660438707291 1:132 2:266 
0.8876817995078241 1:134 2:281 
0.8311248722793556 1:136 2:216 
1 1:138 2:400 
0.812364554312393 1:140 2:294 
0.7524600546416677 1:142 2:261 
0.5095660472995656 1:146 2:76 
0.7012542602322333 1:148 2:217 
1 1:150 2:235 
1 1:152 2:400 
1 1:154 2:189 
1 1:156 2:0 
1 1:158 2:197 
1 1:162 2:225 
0.1887864157375936 1:164 2:238 
1 1:166 2:400 
1 1:168 2:254 
0.3351547430992819 1:174 2:205 
1 1:176 2:280 
1 1:178 2:327 
1 1:180 2:331 
1 1:182 2:400 
0.6186703358663923 1:184 2:334 
1 1:196 2:400 
1 1:210 2:400 
0.9438960054927397 1:100 2:257 
0.7358390007818885 1:102 2:320 
0.3310810723732887 1:104 2:287 
0.8488339556817914 1:106 2:316 
1 1:108 2:345 
1 1:110 2:400 
0.4659869323593502 1:112 2:347 
0.9930156685375997 1:114 2:330 
0.8657325530875488 1:116 2:320 
1 1:118 2:232 
1 1:122 2:248 
1 1:124 2:400 
0.3007595263811741 1:126 2:328 
0.8101766932426023 1:128 2:297 
0.5376310714786996 1:130 2:253 
1 1:132 2:271 
0.7995499678269786 1:134 2:276 
0.3995442323550877 1:136 2:246 
1 1:138 2:400 
0.5099526501452657 1:140 2:285 
0.7287364823808341 1:142 2:259 
0.8425845780300795 1:144 2:245 
0.8685985018190687 1:148 2:215 
1 1:152 2:400 
1 1:154 2:166 
1 1:156 2:0 
1 1:158 2:171 
0.8473165713536673 1:160 2:33 
1 1:162 2:225 
0.9961330020172025 1:164 2:242 
1 1:166 2:400 
1 1:168 2:250 
0.24747564633549 1:170 2:142 
0.9888410059997543 1:172 2:217 
0.6212716797292116 1:174 2:220 
0.9879781725437682 1:176 2:274 
1 1:178 2:323 
1 1:180 2:330 
1 1:182 2:400 
0.05819286727260081 1:184 2:335 
0.6352622868482527 1:188 2:325 
1 1:196 2:400 
1 1:210 2:400 
0.7508808259190809 1:212 2:393 
0.9229245463684941 1:98 2:322 
0.9438179673118982 1:100 2:309 
1 1:102 2:330 
0.9540440484572771 1:104 2:292 
1 1:106 2:329 
1 1:108 2:348 
1 1:110 2:400 
0.6333268263238686 1:112 2:344 
0.2994509905684233 1:114 2:335 
1 1:116 2:326 
1 1:118 2:238 
1 1:122 2:259 
1 1:124 2:400 
1 1:126 2:336 
1 1:128 2:301 
1 1:130 2:257 
1 1:132 2:266 
1 1:134 2:288 
0.5733124631313009 1:136 2:247 
1 1:138 2:400 
0.4933074353341124 1:140 2:284 
0.7079416708174681 1:142 2:248 
0.4961229264596135 1:144 2:236 
0.7298609215705582 1:146 2:62 
1 1:150 2:234 
1 1:152 2:400 
1 1:154 2:161 
1 1:156 2:0 
1 1:158 2:175 
1 1:160 2:60 
1 1:162 2:215 
0.4861377128180958 1:164 2:230 
1 1:166 2:400 
1 1:168 2:237 
0.9326444562304095 1:170 2:131 
1 1:172 2:209 
0.1815677456034768 1:174 2:226 
1 1:178 2:319 
1 1:180 2:327 
1 1:182 2:400 
1 1:196 2:400 
1 1:198 2:362 
1 1:210 2:400 
0.9821853006653224 1:100 2:366 
0.5153433731962463 1:102 2:360 
0.3251835434984759 1:104 2:340 
1 1:106 2:360 
1 1:110 2:400 
0.3750749962035899 1:114 2:348 
1 1:116 2:347 
1 1:118 2:274 
1 1:120 2:340 
1 1:122 2:257 
1 1:124 2:400 
0.9052350193904426 1:128 2:321 
1 1:130 2:280 
1 1:132 2:302 
1 1:134 2:310 
1 1:136 2:300 
1 1:138 2:400 
1 1:140 2:324 
0.827337347007248 1:142 2:292 
0.9439980038071382 1:146 2:6 
1 1:148 2:223 
1 1:150 2:241 
1 1:152 2:400 
1 1:154 2:196 
1 1:156 2:0 
1 1:158 2:190 
1 1:160 2:110 
0.6500563185266058 1:162 2:240 
1 1:164 2:262 
1 1:166 2:400 
1 1:168 2:264 
0.4987876338194566 1:170 2:172 
1 1:172 2:260 
0.3068011788784694 1:174 2:234 
1 1:176 2:276 
1 1:182 2:400 
0.4615672431641253 1:184 2:338 
1 1:196 2:400 
1 1:210 2:400 
1 1:98 2:391 
1 1:100 2:388 
1 1:102 2:372 
1 1:104 2:369 
1 1:106 2:378 
0.7917419535979094 1:108 2:366 
1 1:110 2:400 
1 1:112 2:365 
1 1:114 2:365 
1 1:116 2:352 
1 1:118 2:305 
1 1:120 2:347 
1 1:122 2:277 
1 1:124 2:400 
1 1:126 2:358 
1 1:132 2:318 
1 1:134 2:333 
1 1:136 2:334 
1 1:138 2:400 
0.5518077277682826 1:140 2:345 
1 1:142 2:321 
1 1:144 2:310 
1 1:148 2:272 
1 1:150 2:287 
1 1:152 2:400 
1 1:154 2:270 
0.4141737439006137 1:156 2:140 
1 1:158 2:221 
1 1:160 2:176 
1 1:162 2:264 
1 1:164 2:276 
1 1:166 2:400 
1 1:168 2:276 
1 1:170 2:192 
1 1:172 2:254 
0.9559140030805772 1:174 2:234 
0.9818633681222759 1:176 2:284 
0.7848647481430463 1:178 2:335 
1 1:180 2:345 
1 1:182 2:400 
0.4054576000253906 1:184 2:344 
0.4621143188317031 1:186 2:345 
0.28373440271843 1:188 2:347 
0.4043103443850867 1:190 2:364 
1 1:196 2:400 
1 1:210 2:400 
0.7668736229354483 1:98 2:399 
1 1:102 2:389 
1 1:104 2:377 
0.9347317995427065 1:106 2:392 
1 1:108 2:383 
1 1:110 2:400 
1 1:112 2:381 
1 1:114 2:382 
1 1:116 2:355 
1 1:118 2:311 
1 1:124 2:400 
1 1:126 2:362 
0.5868297486918903 1:128 2:340 
0.3095688282545809 1:132 2:333 
1 1:138 2:400 
1 1:140 2:355 
1 1:142 2:336 
0.9393400208027528 1:144 2:321 
1 1:146 2:131 
1 1:148 2:250 
0.6080420753907426 1:150 2:279 
1 1:152 2:400 
1 1:154 2:262 
1 1:158 2:187 
1 1:160 2:135 
1 1:162 2:263 
1 1:164 2:270 
1 1:166 2:400 
1 1:168 2:271 
1 1:172 2:252 
0.7430625929669424 1:174 2:225 
1 1:176 2:285 
1 1:178 2:328 
1 1:182 2:400 
0.1857938676407022 1:184 2:342 
0.5570867784836611 1:186 2:343 
1 1:196 2:400 
0.2400721715117585 1:200 2:383 
1 1:210 2:400 
1 1:98 2:396 
1 1:102 2:387 
1 1:104 2:375 
1 1:106 2:384 
1 1:108 2:379 
1 1:110 2:400 
1 1:112 2:378 
1 1:114 2:379 
0.6068858531431838 1:116 2:360 
1 1:118 2:291 
1 1:120 2:363 
0.9881906511754718 1:122 2:280 
1 1:124 2:400 
1 1:126 2:358 
1 1:128 2:347 
1 1:132 2:320 
0.6139552252865594 1:134 2:330 
0.3541413300341064 1:136 2:325 
1 1:138 2:400 
1 1:140 2:346 
0.7413166484110281 1:144 2:316 
1 1:146 2:124 
0.08678589256235456 1:148 2:248 
1 1:150 2:268 
1 1:152 2:400 
1 1:154 2:235 
0.7686600074410511 1:156 2:136 
1 1:158 2:180 
1 1:160 2:126 
1 1:162 2:245 
1 1:164 2:267 
1 1:166 2:400 
1 1:168 2:275 
0.7126553345922562 1:170 2:170 
1 1:172 2:248 
0.5720983651568303 1:174 2:228 
0.7999491015417314 1:176 2:268 
1 1:178 2:327 
1 1:182 2:400 
0.3719633383845489 1:184 2:343 
0.6250190485950233 1:192 2:371 
1 1:196 2:400 
0.2930091639887281 1:202 2:386 
1 1:210 2:400 
1 1:98 2:395 
1 1:102 2:387 
1 1:104 2:374 
0.8961234330593466 1:106 2:383 
1 1:110 2:400 
1 1:112 2:377 
1 1:114 2:372 
0.1994826022513659 1:116 2:367 
1 1:118 2:286 
0.8572161831407178 1:120 2:357 
1 1:122 2:279 
1 1:124 2:400 
0.1455820502909038 1:128 2:342 
0.7324607914806923 1:132 2:321 
1 1:138 2:400 
1 1:140 2:348 
0.366601363252774 1:142 2:328 
0.8962915022378893 1:144 2:300 
1 1:146 2:118 
1 1:148 2:238 
1 1:150 2:254 
1 1:152 2:400 
1 1:154 2:223 
1 1:164 2:265 
1 1:166 2:400 
1 1:168 2:268 
0.247676657441501 1:170 2:161 
0.4130520030082364 1:172 2:242 
0.2618375580553168 1:174 2:227 
0.5518050900372986 1:176 2:279 
1 1:178 2:328 
0.7822029832637124 1:180 2:334 
1 1:182 2:400 
0.609313308406767 1:192 2:369 
1 1:196 2:400 
0.3607365276012041 1:198 2:381 
0.3300332341552509 1:200 2:382 
0.379923817745989 1:202 2:388 
0.2433836722800063 1:204 2:391 
1 1:210 2:400 
1 1:102 2:387 
1 1:104 2:374 
1 1:106 2:387 
1 1:108 2:380 
1 1:110 2:400 
1 1:112 2:374 
1 1:114 2:373 
1 1:118 2:292 
1 1:120 2:355 
1 1:122 2:271 
1 1:124 2:400 
1 1:126 2:358 
1 1:128 2:344 
0.8407774638688632 1:134 2:330 
0.2939002005045153 1:136 2:321 
1 1:138 2:400 
1 1:140 2:346 
0.001115052787702735 1:142 2:330 
0.6820234010127758 1:144 2:311 
0.9340230142295481 1:146 2:81 
0.9239342677679314 1:148 2:257 
1 1:150 2:259 
1 1:152 2:400 
1 1:154 2:229 
1 1:156 2:79 
1 1:158 2:194 
0.8886133035818764 1:160 2:143 
0.1297245200213007 1:162 2:236 
1 1:164 2:262 
1 1:166 2:400 
0.40214575732826 1:168 2:260 
0.2297910913648779 1:170 2:143 
0.7261941872477927 1:172 2:232 
0.5784146695769192 1:174 2:214 
0.5014157574428725 1:176 2:264 
0.7892866721495189 1:178 2:315 
1 1:180 2:331 
1 1:182 2:400 
0.6096216261034533 1:184 2:341 
0.08668137485493768 1:186 2:336 
0.186648594042392 1:190 2:355 
0.4284672177280333 1:194 2:375 
1 1:196 2:400 
0.3251655244547175 1:204 2:390 
1 1:210 2:400 
1 1:102 2:383 
1 1:104 2:371 
1 1:106 2:383 
1 1:108 2:378 
1 1:110 2:400 
1 1:112 2:378 
0.8532986337682872 1:114 2:370 
0.2831104359252509 1:116 2:363 
1 1:118 2:293 
1 1:120 2:361 
1 1:124 2:400 
1 1:126 2:357 
1 1:128 2:344 
1 1:130 2:314 
1 1:132 2:333 
1 1:138 2:400 
1 1:144 2:290 
0.1061162050867649 1:146 2:125 
1 1:148 2:258 
0.9832972102270837 1:150 2:269 
1 1:152 2:400 
0.8725325719320755 1:156 2:109 
1 1:158 2:203 
1 1:160 2:148 
1 1:162 2:256 
1 1:164 2:271 
1 1:166 2:400 
1 1:168 2:265 
0.4704199259772243 1:170 2:175 
0.288268036985294 1:172 2:238 
0.7741823662539189 1:176 2:265 
1 1:178 2:320 
0.6657078733762157 1:180 2:340 
1 1:182 2:400 
0.1787959887822214 1:184 2:345 
0.06299012480384494 1:186 2:342 
0.4385915296803392 1:188 2:348 
0.1949378228599207 1:194 2:376 
1 1:196 2:400 
1 1:210 2:400 
0.600214250917548 1:100 2:398 
1 1:102 2:381 
0.8003613999458316 1:104 2:370 
0.1182012132091081 1:108 2:377 
1 1:110 2:400 
0.09369387350055067 1:116 2:361 
1 1:118 2:296 
0.3640299971896276 1:120 2:362 
0.5840675108009611 1:122 2:287 
1 1:124 2:400 
1 1:126 2:359 
0.9645841169687721 1:130 2:311 
0.9160586129131534 1:132 2:330 
0.9362442536672761 1:134 2:332 
1 1:136 2:322 
1 1:138 2:400 
0.6571923733621962 1:140 2:351 
0.1634812301415847 1:142 2:333 
1 1:144 2:298 
1 1:146 2:130 
0.9809779410077599 1:148 2:257 
0.9716559283973181 1:150 2:272 
1 1:152 2:400 
1 1:154 2:229 
0.5714215240810937 1:156 2:119 
1 1:158 2:198 
0.9420665936258553 1:160 2:131 
1 1:162 2:247 
1 1:164 2:260 
1 1:166 2:400 
1 1:168 2:259 
0.9810676116902437 1:176 2:250 
1 1:178 2:313 
0.6461258446267861 1:180 2:336 
1 1:182 2:400 
0.480298141666295 1:188 2:345 
0.1590481831266151 1:192 2:366 
0.3971243754997694 1:194 2:368 
1 1:196 2:400 
0.236258293753922 1:200 2:379 
1 1:210 2:400 
1 1:100 2:396 
1 1:102 2:383 
1 1:104 2:370 
1 1:106 2:379 
0.09672732564643552 1:108 2:379 
1 1:110 2:400 
1 1:112 2:376 
1 1:114 2:368 
0.5395603729627355 1:116 2:362 
1 1:118 2:300 
1 1:120 2:360 
1 1:122 2:286 
1 1:124 2:400 
1 1:126 2:358 
1 1:128 2:345 
0.3579481614722167 1:130 2:308 
1 1:132 2:331 
0.1463459135522781 1:134 2:335 
1 1:138 2:400 
0.7186566575678754 1:140 2:343 
0.8415919086261562 1:142 2:332 
0.8664915014404998 1:144 2:310 
1 1:146 2:139 
1 1:148 2:260 
1 1:152 2:400 
1 1:154 2:240 
0.3006701913887561 1:156 2:139 
1 1:158 2:199 
0.4742742658898938 1:160 2:137 
1 1:162 2:229 
1 1:164 2:250 
1 1:166 2:400 
1 1:168 2:257 
0.6063751825720529 1:172 2:229 
1 1:178 2:300 
1 1:180 2:322 
1 1:182 2:400 
0.3568741879269058 1:190 2:351 
1 1:196 2:400 
1 1:210 2:400 
0.7900968075933532 1:212 2:398 
1 1:102 2:381 
0.7940459397082221 1:104 2:376 
0.5586843877603681 1:106 2:381 
1 1:108 2:377 
1 1:110 2:400 
1 1:112 2:379 
1 1:114 2:369 
1 1:122 2:306 
1 1:124 2:400 
1 1:126 2:354 
1 1:128 2:349 
1 1:130 2:318 
0.6299274753554036 1:132 2:332 
0.8696556241475872 1:136 2:326 
1 1:138 2:400 
0.1845593818746191 1:142 2:335 
1 1:144 2:319 
0.5769330207053625 1:146 2:152 
1 1:148 2:274 
1 1:150 2:290 
1 1:152 2:400 
0.8485387880267299 1:154 2:255 
0.5973008580912325 1:156 2:113 
1 1:158 2:250 
0.5860135873958195 1:160 2:102 
0.5508807666521658 1:162 2:259 
1 1:164 2:272 
1 1:166 2:400 
0.6684128143170105 1:168 2:259 
0.7463578434337601 1:170 2:163 
0.9314532090323959 1:174 2:172 
1 1:178 2:307 
0.4491832947760497 1:180 2:315 
1 1:182 2:400 
1 1:184 2:326 
0.3897964925558438 1:194 2:373 
1 1:196 2:400 
1 1:210 2:400 
1 1:102 2:380 
1 1:104 2:379 
1 1:106 2:381 
1 1:108 2:380 
1 1:110 2:400 
1 1:112 2:377 
1 1:114 2:373 
1 1:116 2:363 
0.759562529412054 1:118 2:331 
1 1:122 2:309 
1 1:124 2:400 
1 1:128 2:349 
1 1:130 2:319 
1 1:138 2:400 
0.08098507063153097 1:140 2:349 
1 1:142 2:341 
0.4938989942373935 1:144 2:326 
0.4642833127595525 1:146 2:155 
1 1:148 2:270 
0.4020456711155503 1:150 2:283 
1 1:152 2:400 
0.6976375301012793 1:154 2:257 
0.9370561467950433 1:156 2:122 
1 1:160 2:101 
1 1:162 2:254 
1 1:164 2:275 
1 1:166 2:400 
1 1:168 2:254 
0.8346401895733867 1:170 2:166 
1 1:172 2:246 
0.9325323148478935 1:174 2:175 
1 1:178 2:306 
1 1:180 2:319 
1 1:182 2:400 
0.4836466543286377 1:186 2:337 
1 1:196 2:400 
0.04394326800159165 1:208 2:397 
1 1:210 2:400 
0.15550267174598 1:98 2:397 
1 1:102 2:379 
1 1:104 2:377 
1 1:108 2:377 
1 1:110 2:400 
1 1:112 2:378 
1 1:114 2:371 
0.5768278390564707 1:118 2:328 
1 1:122 2:310 
1 1:124 2:400 
1 1:126 2:355 
1 1:128 2:349 
1 1:130 2:318 
1 1:132 2:332 
0.948645156097664 1:136 2:326 
1 1:138 2:400 
1 1:140 2:347 
0.7114965375870479 1:142 2:336 
0.5938001688185219 1:146 2:156 
1 1:148 2:269 
1 1:152 2:400 
1 1:154 2:266 
1 1:164 2:264 
1 1:166 2:400 
1 1:168 2:249 
0.5208937686164458 1:170 2:179 
0.8871369206090873 1:172 2:237 
0.6011819968707007 1:174 2:179 
0.3415278592672583 1:176 2:235 
1 1:178 2:304 
0.2952898746241237 1:180 2:316 
1 1:182 2:400 
1 1:184 2:329 
0.5088684750501917 1:186 2:335 
0.473385282537123 1:190 2:353 
1 1:196 2:400 
1 1:210 2:400 
1 1:98 2:394 
1 1:100 2:393 
1 1:102 2:377 
1 1:104 2:377 
1 1:106 2:380 
1 1:108 2:378 
1 1:110 2:400 
1 1:112 2:376 
0.1041652031897551 1:114 2:369 
0.3593511165386107 1:116 2:366 
1 1:122 2:318 
1 1:124 2:400 
1 1:128 2:348 
1 1:130 2:316 
1 1:132 2:331 
1 1:138 2:400 
1 1:140 2:346 
0.4714768000149508 1:142 2:340 
0.994794939037992 1:144 2:324 
1 1:146 2:150 
1 1:148 2:269 
1 1:150 2:291 
1 1:152 2:400 
0.819770412989839 1:154 2:264 
1 1:158 2:232 
0.4721811109843877 1:160 2:94 
1 1:162 2:252 
1 1:164 2:275 
1 1:166 2:400 
1 1:168 2:245 
0.5245041208189063 1:170 2:180 
0.8320871556356745 1:172 2:234 
0.6660138745712343 1:174 2:182 
0.7971596533003829 1:176 2:243 
1 1:178 2:311 
1 1:180 2:315 
1 1:182 2:400 
0.1282778190968792 1:190 2:357 
0.203443802971076 1:192 2:362 
1 1:196 2:400 
0.2639397432011459 1:200 2:381 
1 1:210 2:400 
0.05745369158986097 1:214 2:397 
1 1:98 2:395 
0.809287519826784 1:100 2:395 
1 1:102 2:381 
0.9993239125339012 1:104 2:376 
1 1:106 2:378 
1 1:108 2:377 
1 1:110 2:400 
1 1:112 2:375 
1 1:114 2:371 
0.3678962178840025 1:118 2:329 
0.6401808589489093 1:120 2:320 
1 1:122 2:311 
1 1:124 2:400 
0.6206777430842663 1:126 2:352 
1 1:128 2:348 
1 1:130 2:315 
0.8265709076742724 1:132 2:332 
1 1:136 2:328 
1 1:138 2:400 
0.9911685601341679 1:140 2:349 
1 1:142 2:339 
0.05493794450568296 1:144 2:328 
1 1:146 2:141 
1 1:150 2:279 
1 1:152 2:400 
0.9732303530519503 1:154 2:259 
0.4196737131855137 1:156 2:107 
1 1:158 2:227 
1 1:160 2:74 
0.2758193985125144 1:162 2:242 
1 1:164 2:269 
1 1:166 2:400 
1 1:168 2:246 
0.01625339268054172 1:170 2:167 
0.07321992681131739 1:172 2:226 
0.9431835519183605 1:174 2:165 
1 1:178 2:305 
0.4150976726328907 1:180 2:318 
1 1:182 2:400 
1 1:184 2:326 
0.1758030006145471 1:188 2:337 
0.6811814507322435 1:190 2:360 
1 1:196 2:400 
0.306732234049217 1:200 2:380 
1 1:210 2:400 
0.1469648632304459 1:98 2:398 
0.3672172721581329 1:100 2:397 
1 1:102 2:387 
0.9635417665249679 1:104 2:383 
0.952601954952338 1:106 2:389 
1 1:108 2:385 
1 1:110 2:400 
1 1:112 2:382 
1 1:114 2:376 
1 1:120 2:338 
1 1:124 2:400 
1 1:126 2:357 
1 1:128 2:352 
1 1:130 2:319 
1 1:132 2:334 
1 1:134 2:336 
0.3255086435421878 1:136 2:333 
1 1:138 2:400 
1 1:140 2:351 
1 1:142 2:343 
1 1:144 2:313 
0.5936653315926408 1:146 2:151 
1 1:148 2:267 
1 1:150 2:293 
1 1:152 2:400 
1 1:158 2:249 
1 1:160 2:97 
1 1:162 2:244 
1 1:164 2:269 
1 1:166 2:400 
1 1:168 2:256 
0.6257678342610039 1:170 2:184 
0.5591519154206621 1:172 2:230 
0.8712879304603792 1:174 2:189 
0.486265037444528 1:176 2:269 
0.3416425767093341 1:178 2:316 
0.2688847497956129 1:180 2:332 
1 1:182 2:400 
0.5044025217840833 1:186 2:339 
0.5610248829606761 1:188 2:343 
0.1892988155088629 1:192 2:364 
0.2890672976086709 1:194 2:371 
1 1:196 2:400 
0.3086680166268718 1:198 2:375 
0.3268319221171044 1:202 2:385 
0.4394048332190834 1:204 2:392 
0.4378040996930875 1:206 2:394 
0.4375689490334532 1:208 2:396 
1 1:210 2:400 
0.5399634669695867 1:212 2:396 
1 1:98 2:394 
1 1:100 2:393 
1 1:102 2:385 
0.9945334160664313 1:104 2:380 
0.9755770541483081 1:106 2:383 
1 1:108 2:380 
1 1:110 2:400 
1 1:112 2:377 
1 1:114 2:372 
0.5590832201175905 1:118 2:322 
0.04810099936366261 1:122 2:307 
1 1:124 2:400 
1 1:126 2:351 
1 1:128 2:347 
1 1:130 2:319 
1 1:132 2:334 
1 1:134 2:335 
0.1513270232960022 1:136 2:329 
1 1:138 2:400 
1 1:140 2:351 
1 1:142 2:342 
0.801451460296855 1:144 2:315 
1 1:146 2:150 
1 1:148 2:262 
0.9049066825777977 1:150 2:285 
1 1:152 2:400 
1 1:154 2:274 
1 1:156 2:170 
0.9481991438148926 1:158 2:249 
0.7738371493310133 1:160 2:90 
1 1:162 2:236 
1 1:164 2:268 
1 1:166 2:400 
1 1:168 2:262 
0.9991902517501563 1:172 2:220 
0.391558943325072 1:174 2:180 
0.9685537889486724 1:176 2:260 
1 1:178 2:319 
1 1:182 2:400 
0.02557980382766728 1:188 2:342 
0.4918877688196028 1:190 2:358 
0.5545504021033041 1:192 2:361 
1 1:196 2:400 
1 1:210 2:400 
0.6357406247413966 1:216 2:398 
1 1:100 2:386 
1 1:102 2:372 
0.2387093165104262 1:106 2:373 
0.5749890383342136 1:108 2:369 
1 1:110 2:400 
0.5406529674355325 1:112 2:363 
0.6085778326392695 1:114 2:358 
1 1:116 2:353 
1 1:118 2:277 
0.7757465045626242 1:120 2:327 
1 1:122 2:297 
1 1:124 2:400 
0.07385183234586634 1:126 2:343 
0.7075154964710997 1:128 2:334 
0.2321666105150268 1:130 2:300 
0.8266476898824644 1:132 2:315 
1 1:134 2:316 
1 1:136 2:316 
1 1:138 2:400 
0.6696571297891744 1:140 2:342 
1 1:142 2:322 
1 1:144 2:283 
0.9434941848676553 1:146 2:93 
0.6394904569319572 1:148 2:203 
0.8735229139810935 1:150 2:243 
1 1:152 2:400 
0.571793564863705 1:156 2:112 
1 1:158 2:202 
0.1279435059550164 1:162 2:202 
1 1:166 2:400 
1 1:168 2:229 
0.9432370745429589 1:170 2:121 
0.3209024423979281 1:172 2:181 
0.4772849096576963 1:174 2:158 
0.1024412842737804 1:176 2:256 
1 1:178 2:317 
1 1:180 2:328 
1 1:182 2:400 
0.6591289707533465 1:184 2:336 
0.0834871780146926 1:186 2:338 
0.4364451531220043 1:190 2:352 
0.2564086639600487 1:192 2:360 
0.2400152934609498 1:194 2:365 
1 1:196 2:400 
0.2586091191954825 1:204 2:389 
1 1:210 2:400 
1 1:98 2:382 
1 1:100 2:376 
0.6296168762263349 1:102 2:364 
1 1:104 2:351 
1 1:106 2:369 
1 1:108 2:363 
1 1:110 2:400 
1 1:112 2:363 
1 1:116 2:351 
1 1:118 2:289 
0.4365844370565657 1:120 2:322 
0.8754591677394424 1:122 2:282 
1 1:124 2:400 
0.4514115851304684 1:126 2:341 
1 1:128 2:332 
1 1:130 2:296 
1 1:132 2:314 
1 1:134 2:313 
1 1:136 2:311 
1 1:138 2:400 
1 1:140 2:330 
1 1:142 2:319 
1 1:144 2:303 
0.9432858278898548 1:146 2:98 
0.8123485163938517 1:148 2:220 
0.09452353128632096 1:150 2:228 
1 1:152 2:400 
1 1:154 2:181 
1 1:156 2:59 
1 1:162 2:181 
0.7019039968002735 1:164 2:239 
1 1:166 2:400 
1 1:168 2:225 
0.9430456440361226 1:170 2:127 
0.8332643366325643 1:174 2:151 
0.1177134122917036 1:176 2:247 
1 1:178 2:308 
1 1:180 2:326 
1 1:182 2:400 
1 1:184 2:327 
0.5298747365106742 1:186 2:341 
0.263950189110503 1:194 2:367 
1 1:196 2:400 
0.1950707259711536 1:206 2:393 
1 1:210 2:400 
0.6049471784339056 1:100 2:365 
0.9963449840959051 1:104 2:340 
1 1:106 2:352 
1 1:110 2:400 
1 1:114 2:353 
1 1:116 2:345 
1 1:118 2:295 
1 1:120 2:285 
1 1:122 2:275 
1 1:124 2:400 
1 1:128 2:325 
0.3117282143275225 1:130 2:290 
1 1:132 2:303 
1 1:134 2:301 
1 1:136 2:295 
1 1:138 2:400 
1 1:140 2:318 
1 1:142 2:305 
1 1:144 2:300 
0.9434882691347632 1:146 2:0 
0.8313418085014607 1:148 2:155 
1 1:150 2:223 
1 1:152 2:400 
1 1:154 2:212 
1 1:156 2:34 
1 1:158 2:196 
0.9437688481527375 1:160 2:9 
0.3524303734947544 1:164 2:236 
1 1:166 2:400 
0.4780868168556046 1:170 2:103 
0.8274363298787989 1:172 2:169 
0.5868501967890741 1:174 2:136 
0.8262651473835776 1:176 2:240 
1 1:178 2:296 
1 1:182 2:400 
0.3246691684981341 1:184 2:321 
0.6167007341590548 1:186 2:333 
0.1921537650039158 1:190 2:346 
0.3834114914782927 1:194 2:370 
1 1:196 2:400 
0.3451856143436889 1:202 2:383 
1 1:210 2:400 
0.8158489497241772 1:100 2:352 
1 1:102 2:350 
1 1:104 2:324 
1 1:106 2:342 
1 1:108 2:351 
1 1:110 2:400 
1 1:116 2:342 
1 1:118 2:288 
1 1:120 2:283 
1 1:122 2:264 
1 1:124 2:400 
1 1:126 2:327 
1 1:128 2:325 
0.4762412142021498 1:132 2:289 
0.9969527336607693 1:134 2:295 
0.4468290827742725 1:136 2:285 
1 1:138 2:400 
0.6274606021487547 1:140 2:300 
1 1:142 2:303 
1 1:144 2:289 
0.8689690957156367 1:146 2:19 
1 1:148 2:138 
0.7720778223470092 1:150 2:204 
1 1:152 2:400 
1 1:154 2:194 
1 1:156 2:19 
0.9430939120554012 1:160 2:0 
0.9868202914922626 1:162 2:164 
0.9846656870191766 1:164 2:218 
1 1:166 2:400 
1 1:168 2:219 
0.5725515160729944 1:170 2:93 
0.8155979897880083 1:172 2:158 
0.9344395110057817 1:174 2:102 
0.8769530547713921 1:176 2:219 
1 1:178 2:292 
1 1:180 2:313 
1 1:182 2:400 
1 1:184 2:317 
1 1:188 2:325 
1 1:194 2:362 
1 1:196 2:400 
1 1:198 2:365 
1 1:210 2:400 
1 1:216 2:394 
0.8098785343246806 1:98 2:356 
1 1:102 2:339 
1 1:104 2:334 
1 1:108 2:353 
1 1:110 2:400 
1 1:116 2:345 
1 1:118 2:290 
1 1:120 2:278 
1 1:122 2:269 
1 1:124 2:400 
1 1:128 2:323 
0.3276018324086332 1:130 2:292 
1 1:132 2:294 
1 1:134 2:286 
1 1:136 2:291 
1 1:138 2:400 
0.4959707713855233 1:140 2:299 
0.5687129067013725 1:142 2:297 
1 1:144 2:282 
0.7302245669191109 1:146 2:60 
0.9452765369661276 1:148 2:147 
0.8951209939781634 1:150 2:212 
1 1:152 2:400 
1 1:154 2:184 
1 1:156 2:44 
1 1:158 2:206 
0.5876058102807131 1:160 2:23 
1 1:162 2:194 
0.726305427813441 1:164 2:216 
1 1:166 2:400 
0.5170689197725213 1:168 2:207 
0.6473449820607233 1:170 2:100 
0.8157336044439648 1:172 2:151 
1 1:180 2:305 
1 1:182 2:400 
1 1:184 2:317 
1 1:188 2:322 
0.1680413026479207 1:192 2:355 
1 1:196 2:400 
1 1:198 2:366 
0.3044563891855145 1:200 2:373 
1 1:206 2:384 
1 1:210 2:400 
0.6156706328986442 1:98 2:366 
0.7304138729384561 1:100 2:358 
1 1:102 2:368 
0.44526468156098 1:104 2:319 
1 1:106 2:361 
1 1:110 2:400 
1 1:116 2:348 
1 1:118 2:282 
1 1:120 2:340 
1 1:122 2:251 
1 1:124 2:400 
1 1:128 2:348 
1 1:130 2:281 
1 1:132 2:316 
1 1:134 2:312 
0.1590821236084912 1:136 2:289 
1 1:138 2:400 
1 1:140 2:332 
1 1:144 2:304 
0.822087747173612 1:146 2:30 
1 1:148 2:264 
1 1:150 2:254 
1 1:152 2:400 
0.7599852993435816 1:154 2:240 
1 1:156 2:101 
0.6649755814081788 1:158 2:216 
1 1:160 2:93 
1 1:162 2:202 
1 1:164 2:253 
1 1:166 2:400 
1 1:168 2:268 
0.9433214914806519 1:170 2:109 
0.695605875450501 1:172 2:227 
0.9975850203885195 1:176 2:247 
1 1:178 2:307 
1 1:180 2:306 
1 1:182 2:400 
1 1:184 2:320 
1 1:196 2:400 
0.3778993224460838 1:204 2:388 
1 1:210 2:400 
1 1:212 2:393 
0.6962152196508462 1:98 2:364 
0.7245537946896161 1:100 2:362 
0.6430437456026207 1:102 2:365 
0.8712640978621473 1:104 2:315 
1 1:106 2:353 
1 1:110 2:400 
0.3660911838372369 1:112 2:346 
0.2670262383135601 1:114 2:352 
1 1:116 2:345 
0.9981063379044633 1:118 2:272 
1 1:120 2:334 
1 1:122 2:266 
1 1:124 2:400 
0.6243084180995109 1:126 2:337 
1 1:128 2:344 
1 1:130 2:276 
1 1:132 2:311 
1 1:134 2:312 
0.7425038838839275 1:136 2:288 
1 1:138 2:400 
1 1:140 2:323 
0.7328228010714122 1:142 2:276 
1 1:144 2:293 
0.6838360099350783 1:148 2:251 
1 1:150 2:237 
1 1:152 2:400 
0.9340830201376158 1:154 2:235 
0.9431443626152944 1:156 2:95 
0.4853136171892423 1:160 2:89 
0.6987806913108303 1:162 2:203 
0.1914233228079918 1:164 2:255 
1 1:166 2:400 
1 1:168 2:251 
0.8214155071655935 1:170 2:88 
0.6056758771081953 1:172 2:205 
0.943594457035172 1:174 2:126 
0.8850674436057463 1:176 2:262 
1 1:178 2:295 
1 1:180 2:309 
1 1:182 2:400 
1 1:184 2:322 
0.5485911724289673 1:186 2:330 
1 1:196 2:400 
0.1460392276156849 1:198 2:371 
1 1:206 2:387 
0.3397894203815096 1:208 2:391 
1 1:210 2:400 
1 1:104 2:328 
0.8522052790911316 1:106 2:340 
1 1:108 2:351 
1 1:110 2:400 
1 1:112 2:341 
0.8094622719654245 1:114 2:350 
1 1:116 2:344 
1 1:118 2:280 
0.2319721024453208 1:120 2:321 
0.5818606551935244 1:122 2:263 
1 1:124 2:400 
0.3611009277135865 1:128 2:335 
1 1:130 2:276 
1 1:132 2:298 
1 1:134 2:305 
0.8464089051558638 1:136 2:284 
1 1:138 2:400 
1 1:140 2:319 
0.363901488669953 1:142 2:287 
0.5878649449004575 1:146 2:42 
1 1:148 2:245 
0.9644851716336652 1:150 2:226 
1 1:152 2:400 
1 1:154 2:213 
1 1:156 2:83 
1 1:158 2:189 
0.5980930014209964 1:160 2:52 
0.1766729054744011 1:162 2:204 
1 1:164 2:252 
1 1:166 2:400 
1 1:168 2:241 
0.9438359102527808 1:170 2:74 
0.9706335203564055 1:172 2:198 
0.6853862786637969 1:174 2:121 
0.9427776632164387 1:178 2:283 
1 1:180 2:303 
1 1:182 2:400 
1 1:184 2:319 
0.6753202870234521 1:186 2:324 
0.7527082370900731 1:188 2:334 
1 1:190 2:342 
1 1:196 2:400 
1 1:210 2:400 
1 1:212 2:393 
0.8188690634881211 1:98 2:359 
1 1:104 2:332 
0.5894728717443378 1:106 2:346 
1 1:108 2:353 
1 1:110 2:400 
0.4994231242152944 1:112 2:349 
1 1:116 2:342 
1 1:118 2:276 
0.9498692499126481 1:120 2:322 
1 1:122 2:254 
1 1:124 2:400 
0.1546362956118372 1:128 2:336 
1 1:130 2:277 
1 1:132 2:298 
1 1:134 2:297 
1 1:138 2:400 
1 1:140 2:318 
0.4182639801821331 1:142 2:286 
0.6667087758085396 1:144 2:275 
0.5073061903358017 1:146 2:75 
0.8867586669808719 1:148 2:189 
1 1:150 2:216 
1 1:152 2:400 
1 1:154 2:206 
1 1:156 2:59 
0.9155910494154358 1:158 2:184 
1 1:162 2:204 
0.5437061950177488 1:164 2:237 
1 1:166 2:400 
0.3634177109306074 1:168 2:224 
0.9438134549636376 1:170 2:64 
0.7022823952498307 1:172 2:203 
0.4089994491297245 1:174 2:120 
1 1:180 2:305 
1 1:182 2:400 
1 1:184 2:317 
0.5937378407753 1:188 2:336 
0.9035953212888117 1:190 2:348 
1 1:192 2:355 
1 1:196 2:400 
0.2631158083251586 1:198 2:373 
1 1:210 2:400 
0.09950266396102875 1:214 2:393 
1 1:216 2:394 
0.5986917147440779 1:98 2:368 
1 1:100 2:374 
0.02778888800914956 1:102 2:355 
1 1:104 2:337 
0.9489453588830467 1:106 2:347 
0.630416224211489 1:108 2:359 
1 1:110 2:400 
0.7284624040586567 1:114 2:342 
1 1:116 2:344 
1 1:118 2:280 
0.6774965156971826 1:120 2:318 
1 1:122 2:261 
1 1:124 2:400 
0.6394806699333306 1:126 2:332 
1 1:130 2:279 
1 1:132 2:305 
0.8767716700657496 1:134 2:303 
0.4051157700313401 1:136 2:277 
1 1:138 2:400 
1 1:140 2:320 
0.7186168817913865 1:142 2:295 
1 1:144 2:290 
0.8691343966052009 1:146 2:73 
0.6008519755525311 1:148 2:192 
1 1:150 2:232 
1 1:152 2:400 
1 1:154 2:218 
0.8093729864102437 1:156 2:77 
0.07466208796202924 1:158 2:186 
0.9368211276330018 1:160 2:48 
1 1:162 2:198 
0.5377722432237747 1:164 2:229 
1 1:166 2:400 
0.8919577497418916 1:168 2:222 
0.6482806316863681 1:170 2:104 
0.9867518951760447 1:172 2:201 
0.5873041127489675 1:174 2:137 
0.2997052240727624 1:176 2:236 
0.8575119561538833 1:178 2:290 
1 1:180 2:307 
1 1:182 2:400 
1 1:184 2:318 
0.394892349521853 1:188 2:339 
0.3276114872473618 1:190 2:350 
1 1:192 2:355 
1 1:196 2:400 
0.2156937296621964 1:202 2:380 
0.6277360384860653 1:206 2:389 
1 1:210 2:400 
1 1:214 2:393 
0.9485784821716755 1:98 2:369 
0.7498879715269782 1:102 2:352 
1 1:104 2:331 
0.3742733100078521 1:106 2:337 
1 1:108 2:352 
1 1:110 2:400 
0.1942677346708341 1:118 2:262 
0.9041914130591856 1:120 2:314 
1 1:122 2:253 
1 1:124 2:400 
0.8433997148042837 1:126 2:334 
1 1:128 2:337 
1 1:130 2:276 
1 1:132 2:295 
1 1:134 2:300 
0.9333140456289929 1:136 2:268 
1 1:138 2:400 
1 1:140 2:314 
0.4996164556925555 1:142 2:285 
0.8442883789209231 1:146 2:58 
1 1:148 2:168 
0.04861788716545001 1:150 2:219 
1 1:152 2:400 
1 1:154 2:195 
0.9287300250775475 1:156 2:56 
1 1:158 2:165 
0.9435977753814768 1:160 2:28 
1 1:162 2:185 
1 1:164 2:211 
1 1:166 2:400 
1 1:168 2:213 
0.479181328161062 1:170 2:101 
0.06456993734773817 1:172 2:180 
0.942940042428441 1:174 2:114 
0.5307786515594292 1:176 2:242 
0.6677913593857039 1:178 2:288 
1 1:180 2:302 
1 1:182 2:400 
1 1:184 2:319 
0.1586856360787515 1:186 2:327 
1 1:188 2:327 
1 1:192 2:354 
0.4996733448189442 1:194 2:364 
1 1:196 2:400 
1 1:210 2:400 
0.9651744077732904 1:212 2:393 
0.3312986919070068 1:216 2:397 
1 1:98 2:370 
0.9118700775071963 1:100 2:371 
1 1:102 2:357 
0.7443968456176576 1:104 2:341 
1 1:106 2:344 
0.4709526629899259 1:108 2:357 
1 1:110 2:400 
1 1:112 2:355 
0.8516504211832068 1:114 2:340 
0.1188020562115795 1:118 2:270 
1 1:120 2:318 
1 1:122 2:253 
1 1:124 2:400 
1 1:126 2:329 
0.4431738898740882 1:128 2:339 
1 1:130 2:273 
0.5814267202719721 1:132 2:290 
0.4455676506081112 1:136 2:275 
1 1:138 2:400 
1 1:140 2:311 
0.6208481888161673 1:142 2:288 
0.9476519039443768 1:144 2:278 
0.8450356467365667 1:146 2:64 
0.588046139352207 1:148 2:177 
1 1:150 2:225 
1 1:152 2:400 
1 1:154 2:196 
1 1:156 2:50 
1 1:158 2:158 
0.5874267278547507 1:160 2:24 
1 1:162 2:178 
1 1:164 2:221 
1 1:166 2:400 
0.5957768472016768 1:170 2:94 
0.6261724380807122 1:172 2:179 
0.8219201640983873 1:174 2:107 
0.5487520535052137 1:176 2:229 
1 1:180 2:302 
1 1:182 2:400 
1 1:184 2:310 
0.05651508549577064 1:186 2:321 
0.880809995562839 1:188 2:327 
0.08044165257656737 1:190 2:343 
1 1:196 2:400 
0.1783988379675066 1:198 2:367 
0.3639028746179427 1:206 2:392 
0.6982448502998861 1:208 2:392 
1 1:210 2:400 
1 1:216 2:393 
1 1:98 2:374 
0.7620133299250866 1:100 2:369 
1 1:104 2:334 
0.8800734878221036 1:106 2:340 
1 1:108 2:352 
1 1:110 2:400 
0.6812287941583201 1:112 2:356 
0.6855226105894053 1:114 2:337 
0.4367230716164626 1:116 2:337 
1 1:118 2:268 
0.9978965344399151 1:122 2:246 
1 1:124 2:400 
1 1:126 2:327 
1 1:130 2:279 
1 1:132 2:294 
0.04676190943539921 1:134 2:302 
0.5453020470971859 1:136 2:274 
1 1:138 2:400 
1 1:140 2:313 
0.2003968792112052 1:142 2:293 
0.325054855779998 1:144 2:276 
0.9433419909863389 1:146 2:53 
0.586653957095739 1:148 2:176 
1 1:150 2:228 
1 1:152 2:400 
1 1:154 2:202 
1 1:158 2:161 
1 1:162 2:171 
0.8137726722544806 1:164 2:214 
1 1:166 2:400 
1 1:168 2:210 
0.8802774684769832 1:174 2:118 
0.5933525486233809 1:176 2:234 
0.017477560014135 1:178 2:287 
1 1:180 2:299 
1 1:182 2:400 
1 1:184 2:313 
0.08136334543705426 1:186 2:325 
1 1:190 2:346 
1 1:196 2:400 
1 1:198 2:369 
0.8406467009237742 1:206 2:389 
1 1:208 2:391 
1 1:210 2:400 
1 1:98 2:371 
1 1:100 2:374 
0.3896454111084897 1:102 2:359 
1 1:104 2:332 
1 1:106 2:355 
0.9438482138725695 1:108 2:356 
1 1:110 2:400 
0.352737085618552 1:112 2:358 
0.5502669637138851 1:114 2:334 
0.2694840106434205 1:116 2:339 
0.9651912442010088 1:118 2:269 
0.02892802327117351 1:120 2:317 
1 1:122 2:254 
1 1:124 2:400 
1 1:126 2:323 
0.7872504657168863 1:128 2:341 
1 1:130 2:284 
1 1:132 2:302 
0.09377538855780509 1:134 2:296 
1 1:138 2:400 
1 1:140 2:313 
0.1771951550589469 1:142 2:289 
0.8573505426749376 1:144 2:262 
0.8582739818771606 1:146 2:24 
0.9207772887333071 1:148 2:206 
0.1874678370329063 1:150 2:242 
1 1:152 2:400 
0.9576876371554687 1:154 2:192 
0.5978640127760679 1:156 2:46 
0.1472996813134913 1:158 2:168 
0.7145914660074568 1:160 2:35 
0.9609986835558576 1:162 2:159 
0.9342856478802768 1:164 2:205 
1 1:166 2:400 
0.6344752161465128 1:168 2:208 
0.9342741583833682 1:170 2:85 
0.5560994878533728 1:172 2:182 
0.8217896912357771 1:174 2:105 
0.5466993335579743 1:176 2:230 
0.945198204151675 1:178 2:286 
1 1:180 2:292 
1 1:182 2:400 
1 1:184 2:311 
0.3174587113399048 1:186 2:326 
0.4233926129477996 1:188 2:338 
1 1:194 2:361 
1 1:196 2:400 
1 1:198 2:367 
0.4385570726290479 1:200 2:370 
0.3675228898054292 1:208 2:395 
1 1:210 2:400 
1 1:216 2:393 
1 1:98 2:377 
0.6942242302936718 1:102 2:356 
1 1:104 2:331 
1 1:106 2:359 
0.8656485074357324 1:108 2:353 
1 1:110 2:400 
0.6576734990808789 1:112 2:352 
1 1:114 2:332 
1 1:116 2:339 
1 1:118 2:262 
0.6195079631808252 1:122 2:256 
1 1:124 2:400 
1 1:126 2:325 
1 1:128 2:339 
0.9696469304970302 1:130 2:284 
1 1:132 2:297 
1 1:134 2:303 
0.6672808209304176 1:136 2:278 
1 1:138 2:400 
1 1:140 2:321 
0.7847769787272174 1:142 2:283 
0.8469785907131168 1:144 2:253 
0.9344252562893928 1:146 2:35 
0.7309149927191785 1:148 2:211 
1 1:150 2:252 
1 1:152 2:400 
0.5692944402737402 1:156 2:47 
0.9934419427301672 1:158 2:168 
0.8467454917900705 1:160 2:37 
1 1:162 2:174 
1 1:164 2:199 
1 1:166 2:400 
0.7393120939377132 1:168 2:205 
0.8256302941079913 1:170 2:90 
0.8844347928941856 1:172 2:188 
0.9334786994748169 1:174 2:110 
0.6697559272842336 1:176 2:237 
0.2619389677229924 1:178 2:289 
1 1:180 2:307 
1 1:182 2:400 
0.6414024722426643 1:186 2:323 
0.5488452564905071 1:188 2:330 
0.4440572248027284 1:190 2:345 
1 1:194 2:362 
1 1:196 2:400 
0.5037078490966465 1:200 2:372 
1 1:202 2:374 
0.1291000140837278 1:204 2:387 
0.2370490856786017 1:206 2:391 
0.1617308900459567 1:208 2:394 
1 1:210 2:400 
0.3907602105824381 1:214 2:396 
1 1:98 2:384 
1 1:100 2:383 
1 1:102 2:370 
0.3619376385222682 1:104 2:357 
1 1:106 2:367 
1 1:108 2:365 
1 1:110 2:400 
0.0381390676890641 1:112 2:362 
0.7709471609141141 1:114 2:356 
1 1:116 2:355 
0.386129421158202 1:118 2:312 
1 1:120 2:302 
1 1:122 2:287 
1 1:124 2:400 
1 1:126 2:337 
1 1:128 2:352 
0.7302888151519514 1:130 2:301 
1 1:132 2:311 
0.375083758236181 1:134 2:331 
1 1:136 2:303 
1 1:138 2:400 
1 1:140 2:331 
1 1:142 2:325 
1 1:144 2:290 
1 1:146 2:157 
0.9992303946774328 1:148 2:248 
0.952370843104012 1:150 2:282 
1 1:152 2:400 
0.9432764778005366 1:154 2:244 
0.5959443651639127 1:156 2:118 
0.9963995925832203 1:158 2:186 
1 1:160 2:117 
1 1:162 2:220 
0.9258438390647103 1:164 2:234 
1 1:166 2:400 
1 1:168 2:234 
0.2409112600879674 1:170 2:162 
0.660085463991862 1:172 2:225 
0.5866277681405694 1:174 2:159 
0.9874075180303499 1:176 2:256 
1 1:178 2:309 
1 1:182 2:400 
1 1:184 2:322 
0.2926473141206524 1:186 2:322 
0.9545472808676997 1:188 2:330 
0.4466519686131875 1:190 2:356 
0.8038980092465837 1:192 2:356 
1 1:194 2:360 
1 1:196 2:400 
0.5933462304636676 1:198 2:370 
0.2903585376758394 1:206 2:390 
0.7039391573821145 1:208 2:393 
1 1:210 2:400 
0.6208941773651317 1:214 2:398 
1 1:98 2:394 
1 1:100 2:391 
1 1:102 2:377 
1 1:104 2:370 
1 1:106 2:376 
1 1:108 2:380 
1 1:110 2:400 
1 1:112 2:378 
1 1:114 2:375 
0.7452827207241921 1:116 2:370 
0.6729929645341093 1:120 2:329 
1 1:124 2:400 
1 1:126 2:347 
0.2204749136176701 1:128 2:361 
1 1:130 2:307 
1 1:132 2:336 
1 1:134 2:342 
0.9833342700724221 1:136 2:321 
1 1:138 2:400 
1 1:140 2:344 
1 1:142 2:348 
1 1:144 2:329 
1 1:146 2:171 
1 1:148 2:267 
1 1:150 2:284 
1 1:152 2:400 
0.4879894363485625 1:156 2:135 
0.9435952084223935 1:158 2:245 
0.7911932557824188 1:160 2:138 
1 1:162 2:242 
1 1:164 2:253 
1 1:166 2:400 
1 1:168 2:262 
1 1:170 2:195 
1 1:172 2:272 
0.8641000118885035 1:174 2:197 
0.9554344463504885 1:176 2:252 
1 1:178 2:295 
1 1:180 2:323 
1 1:182 2:400 
1 1:184 2:323 
0.7950355639182245 1:186 2:328 
1 1:190 2:352 
0.3704028984504047 1:192 2:365 
0.2809101362576213 1:194 2:369 
1 1:196 2:400 
0.3447114159741199 1:198 2:376 
0.3388241446000981 1:200 2:376 
0.8802399184498424 1:202 2:377 
1 1:208 2:391 
1 1:210 2:400 
0.2994028776458704 1:212 2:395 
0.3147499851285173 1:214 2:395 
1 1:98 2:389 
1 1:100 2:388 
1 1:102 2:383 
0.9993101961673253 1:104 2:362 
0.0544157531354794 1:106 2:382 
1 1:108 2:381 
1 1:110 2:400 
1 1:114 2:370 
1 1:116 2:364 
0.7718916930401811 1:118 2:337 
0.2171304621628012 1:120 2:330 
0.7134248715513976 1:122 2:316 
1 1:124 2:400 
1 1:126 2:356 
0.8161398226596454 1:128 2:362 
1 1:130 2:305 
1 1:132 2:337 
1 1:134 2:343 
0.1259263371709176 1:136 2:332 
1 1:138 2:400 
1 1:140 2:344 
1 1:142 2:325 
1 1:144 2:329 
0.8586548167924565 1:146 2:78 
1 1:148 2:256 
1 1:150 2:259 
1 1:152 2:400 
1 1:154 2:251 
1 1:156 2:170 
1 1:158 2:268 
1 1:160 2:158 
1 1:162 2:230 
1 1:164 2:282 
1 1:166 2:400 
1 1:168 2:286 
0.5060548904804917 1:170 2:183 
1 1:172 2:286 
0.8423178093577339 1:174 2:184 
1 1:176 2:308 
1 1:178 2:278 
0.3109067228428024 1:180 2:317 
1 1:182 2:400 
1 1:184 2:323 
0.8695251644116638 1:186 2:320 
0.1120325110229679 1:188 2:333 
0.3097387888710388 1:190 2:354 
0.6117818595510334 1:192 2:359 
1 1:196 2:400 
1 1:206 2:385 
1 1:208 2:386 
1 1:210 2:400 
1 1:212 2:391 
1 1:214 2:392 
1 1:98 2:388 
1 1:100 2:385 
1 1:102 2:378 
0.6209114975814288 1:104 2:359 
1 1:106 2:374 
1 1:110 2:400 
1 1:114 2:370 
0.2581993698858743 1:116 2:365 
1 1:118 2:345 
0.6172930388609356 1:120 2:323 
1 1:124 2:400 
0.7303852934082951 1:126 2:353 
1 1:128 2:357 
0.4906408666967813 1:130 2:299 
1 1:134 2:342 
1 1:138 2:400 
1 1:140 2:351 
1 1:142 2:330 
1 1:144 2:284 
1 1:148 2:253 
1 1:150 2:257 
1 1:152 2:400 
0.9991311001190804 1:154 2:238 
1 1:156 2:191 
1 1:158 2:240 
0.472020179636849 1:160 2:162 
1 1:162 2:268 
1 1:164 2:297 
1 1:166 2:400 
1 1:168 2:298 
1 1:170 2:204 
0.6763667072052796 1:172 2:298 
0.5861538025894724 1:174 2:213 
0.9667532782242403 1:176 2:325 
1 1:178 2:313 
1 1:180 2:292 
1 1:182 2:400 
0.7933239885539565 1:184 2:315 
1 1:186 2:307 
0.6647572958806895 1:188 2:332 
0.8759348752004837 1:190 2:345 
0.4170705537766564 1:192 2:363 
1 1:194 2:365 
1 1:196 2:400 
0.3396686143932453 1:198 2:377 
0.3305777207948472 1:200 2:378 
0.2467881955767839 1:202 2:384 
1 1:206 2:383 
0.4654887053587878 1:208 2:389 
1 1:210 2:400 
1 1:212 2:391 
1 1:98 2:389 
1 1:100 2:385 
1 1:102 2:379 
1 1:106 2:374 
1 1:110 2:400 
1 1:114 2:370 
0.5723671394988129 1:116 2:364 
0.8367136576916981 1:118 2:339 
0.7835780445486354 1:120 2:325 
1 1:122 2:311 
1 1:124 2:400 
1 1:126 2:350 
1 1:128 2:355 
0.9709883246170887 1:130 2:303 
1 1:132 2:336 
1 1:134 2:345 
1 1:136 2:339 
1 1:138 2:400 
1 1:140 2:355 
1 1:142 2:308 
0.5776964688499473 1:144 2:281 
1 1:146 2:146 
1 1:148 2:242 
0.6858583138992351 1:150 2:251 
1 1:152 2:400 
0.9525363606554436 1:154 2:233 
1 1:156 2:135 
0.8824118650974072 1:158 2:242 
1 1:160 2:173 
1 1:162 2:275 
0.8470876546571043 1:164 2:304 
1 1:166 2:400 
0.8301371672283548 1:168 2:302 
1 1:170 2:232 
0.7679492965302899 1:174 2:222 
0.5970308238542954 1:178 2:339 
0.6426606407813917 1:180 2:338 
1 1:182 2:400 
1 1:184 2:297 
0.4656982474765814 1:186 2:316 
1 1:190 2:338 
1 1:192 2:355 
0.9767982339593031 1:194 2:366 
1 1:196 2:400 
0.3189681307463419 1:200 2:375 
0.4078366800925763 1:202 2:381 
0.4971827625174455 1:204 2:386 
1 1:206 2:387 
1 1:208 2:387 
1 1:210 2:400 
1 1:212 2:392 
1 1:214 2:392 
0.3508644038407695 1:98 2:386 
1 1:100 2:384 
1 1:102 2:381 
1 1:104 2:358 
1 1:110 2:400 
1 1:112 2:371 
1 1:114 2:366 
0.8155936235243683 1:116 2:362 
1 1:120 2:346 
1 1:122 2:306 
1 1:124 2:400 
1 1:126 2:348 
1 1:128 2:354 
1 1:130 2:308 
1 1:132 2:338 
1 1:134 2:346 
1 1:136 2:341 
1 1:138 2:400 
1 1:140 2:353 
1 1:142 2:312 
0.6092337448841203 1:144 2:268 
1 1:146 2:132 
1 1:148 2:226 
1 1:150 2:249 
1 1:152 2:400 
1 1:154 2:219 
1 1:156 2:162 
1 1:158 2:254 
1 1:160 2:182 
1 1:162 2:271 
1 1:166 2:400 
0.8309829135607537 1:168 2:304 
1 1:170 2:228 
0.4819174574049352 1:172 2:301 
0.9183762861263133 1:174 2:225 
1 1:176 2:320 
0.859298209034712 1:178 2:342 
0.6255393283350486 1:180 2:342 
1 1:182 2:400 
0.9518707967509531 1:184 2:305 
0.5134503727799716 1:186 2:317 
1 1:188 2:304 
0.9969676362795515 1:190 2:343 
0.6762581837544708 1:192 2:357 
0.4305225621771008 1:194 2:366 
1 1:196 2:400 
0.3893588468260996 1:198 2:374 
0.2071224156743245 1:200 2:377 
0.1801759792530929 1:202 2:382 
1 1:208 2:389 
1 1:210 2:400 
1 1:212 2:391 
1 1:214 2:393 
1 1:216 2:393 
1 1:98 2:387 
1 1:100 2:383 
1 1:102 2:381 
1 1:106 2:379 
1 1:110 2:400 
0.2249562336784898 1:112 2:372 
1 1:118 2:316 
1 1:120 2:343 
1 1:122 2:303 
1 1:124 2:400 
1 1:126 2:347 
1 1:128 2:358 
0.149507786257753 1:130 2:312 
1 1:132 2:335 
1 1:134 2:349 
1 1:136 2:338 
1 1:138 2:400 
1 1:140 2:352 
0.7648761429956122 1:142 2:334 
0.7561660091325247 1:144 2:255 
1 1:146 2:137 
1 1:148 2:234 
0.6439733604555945 1:150 2:260 
1 1:152 2:400 
1 1:154 2:217 
1 1:156 2:156 
0.3552852702241951 1:158 2:237 
1 1:160 2:174 
1 1:162 2:270 
0.7050536005636757 1:164 2:302 
1 1:166 2:400 
1 1:168 2:295 
1 1:170 2:230 
0.6454767118998671 1:172 2:302 
0.7791420845837611 1:174 2:217 
0.5436882910828897 1:176 2:319 
1 1:182 2:400 
0.7746662893004719 1:184 2:332 
1 1:186 2:287 
1 1:188 2:297 
1 1:190 2:325 
1 1:192 2:349 
1 1:194 2:362 
1 1:196 2:400 
0.4274159399930262 1:198 2:372 
0.2132615329354286 1:200 2:374 
0.6778737994395141 1:202 2:379 
0.9960968582996035 1:208 2:389 
1 1:210 2:400 
1 1:212 2:388 
1 1:214 2:393 
0.8498853405092427 1:98 2:383 
1 1:100 2:382 
1 1:102 2:377 
0.3888429777834056 1:104 2:358 
0.06698182822125955 1:106 2:372 
0.7994185020388571 1:108 2:372 
1 1:110 2:400 
1 1:116 2:355 
0.7834174628145703 1:120 2:334 
0.6954968952896972 1:122 2:293 
1 1:124 2:400 
0.4144507419914693 1:126 2:342 
1 1:128 2:356 
1 1:130 2:313 
0.1262712993026304 1:132 2:325 
1 1:134 2:345 
1 1:136 2:336 
1 1:138 2:400 
1 1:140 2:351 
1 1:142 2:327 
0.854067149097186 1:144 2:257 
1 1:146 2:139 
1 1:148 2:238 
1 1:150 2:243 
1 1:152 2:400 
0.5890482502773593 1:154 2:216 
0.6691926652706317 1:156 2:106 
1 1:158 2:219 
0.8720282260210392 1:160 2:167 
1 1:162 2:260 
1 1:164 2:298 
1 1:166 2:400 
1 1:170 2:215 
0.5276679518407252 1:172 2:293 
0.674571485796029 1:174 2:206 
0.4929422647928376 1:176 2:317 
1 1:178 2:329 
0.8860682700290932 1:180 2:333 
1 1:182 2:400 
0.9986968798668475 1:184 2:329 
1 1:186 2:287 
1 1:188 2:296 
1 1:190 2:311 
1 1:192 2:341 
0.02909486547339716 1:194 2:363 
1 1:196 2:400 
0.465168634968168 1:198 2:368 
1 1:200 2:370 
1 1:206 2:387 
1 1:208 2:385 
1 1:210 2:400 
1 1:212 2:389 
1 1:214 2:393 
1 1:216 2:395 
1 1:98 2:385 
1 1:100 2:384 
1 1:102 2:376 
0.9355824915531725 1:104 2:356 
1 1:106 2:371 
0.3554435595722036 1:108 2:375 
1 1:110 2:400 
0.5388202973913747 1:112 2:371 
0.4480502970169068 1:116 2:358 
1 1:122 2:300 
1 1:124 2:400 
0.5609638614927869 1:128 2:360 
1 1:130 2:321 
0.9823445699782981 1:132 2:325 
1 1:134 2:347 
0.9278546342999526 1:136 2:333 
1 1:138 2:400 
1 1:142 2:335 
1 1:144 2:282 
1 1:146 2:143 
1 1:148 2:268 
1 1:150 2:251 
1 1:152 2:400 
1 1:154 2:220 
0.9263175221086521 1:156 2:126 
1 1:158 2:223 
1 1:160 2:169 
0.7949904441821276 1:162 2:263 
1 1:164 2:295 
1 1:166 2:400 
0.848475789474769 1:168 2:290 
1 1:170 2:224 
1 1:172 2:290 
0.7667983551610904 1:174 2:203 
1 1:176 2:316 
0.09367346940112573 1:178 2:338 
0.03239771367608491 1:180 2:339 
1 1:182 2:400 
1 1:184 2:331 
1 1:186 2:298 
1 1:188 2:290 
1 1:190 2:313 
1 1:192 2:337 
1 1:194 2:356 
1 1:196 2:400 
1 1:198 2:366 
0.3112454311454422 1:200 2:371 
0.8782809528348755 1:204 2:382 
0.776675006735462 1:206 2:388 
1 1:208 2:388 
1 1:210 2:400 
1 1:212 2:389 
1 1:216 2:394 
0.599447455491224 1:98 2:385 
1 1:100 2:386 
1 1:102 2:378 
1 1:104 2:354 
1 1:106 2:372 
0.07495639680144163 1:108 2:374 
1 1:110 2:400 
0.4852962024821236 1:112 2:370 
0.4485055205472286 1:114 2:361 
0.7421099138367603 1:116 2:356 
0.6387145068106206 1:118 2:324 
1 1:120 2:338 
0.6736542661742535 1:122 2:292 
1 1:124 2:400 
0.5457124101852536 1:126 2:346 
1 1:128 2:355 
0.9774241122269705 1:130 2:312 
1 1:134 2:343 
0.6133587144351615 1:136 2:330 
1 1:138 2:400 
1 1:142 2:337 
0.9275854323004704 1:144 2:320 
0.9433241436788744 1:146 2:109 
1 1:148 2:265 
1 1:150 2:245 
1 1:152 2:400 
0.8301290808871462 1:154 2:207 
1 1:156 2:139 
0.9993147250515473 1:158 2:216 
1 1:160 2:165 
1 1:162 2:247 
0.6660344623741156 1:164 2:292 
1 1:166 2:400 
1 1:168 2:288 
1 1:170 2:206 
0.7273598710806273 1:172 2:287 
0.4469443797595873 1:174 2:209 
1 1:176 2:310 
1 1:178 2:329 
1 1:180 2:326 
1 1:182 2:400 
1 1:184 2:325 
1 1:186 2:280 
1 1:188 2:287 
1 1:190 2:308 
1 1:192 2:331 
1 1:194 2:358 
1 1:196 2:400 
1 1:198 2:365 
0.9111141180327987 1:200 2:370 
1 1:202 2:374 
0.0583207513651862 1:204 2:383 
1 1:206 2:385 
1 1:208 2:386 
1 1:210 2:400 
1 1:212 2:389 
1 1:214 2:392 
1 1:98 2:389 
1 1:100 2:387 
1 1:102 2:382 
0.9094755091465407 1:104 2:354 
1 1:106 2:374 
0.9151570013979049 1:108 2:375 
1 1:110 2:400 
0.2789786052134685 1:112 2:373 
0.590666449201751 1:114 2:362 
0.5236961969495529 1:116 2:357 
0.5326275168901619 1:118 2:326 
0.9953295278313018 1:120 2:333 
0.9874372746691056 1:122 2:307 
1 1:124 2:400 
0.6566270732450636 1:126 2:344 
0.3014680160067909 1:128 2:359 
1 1:130 2:317 
0.8316653708377928 1:132 2:327 
1 1:134 2:343 
1 1:136 2:335 
1 1:138 2:400 
1 1:140 2:352 
1 1:142 2:340 
0.3569650726985114 1:144 2:327 
1 1:146 2:125 
1 1:148 2:269 
1 1:150 2:261 
1 1:152 2:400 
1 1:154 2:217 
1 1:156 2:143 
1 1:158 2:208 
1 1:160 2:170 
1 1:162 2:262 
0.09265968572320918 1:164 2:294 
1 1:166 2:400 
1 1:168 2:284 
1 1:170 2:218 
1 1:172 2:288 
0.5834658889150781 1:174 2:210 
1 1:176 2:309 
0.9939178300761876 1:178 2:327 
0.9696638755591346 1:180 2:332 
1 1:182 2:400 
1 1:184 2:328 
1 1:186 2:289 
1 1:188 2:288 
1 1:190 2:306 
1 1:192 2:326 
1 1:194 2:356 
1 1:196 2:400 
0.9434727343649476 1:198 2:368 
1 1:200 2:369 
0.01802636326505453 1:202 2:378 
0.6547898700279506 1:204 2:384 
1 1:206 2:386 
1 1:208 2:386 
1 1:210 2:400 
1 1:212 2:390 
0.9931370942045841 1:214 2:393 
0.9638191968488823 1:216 2:395 
-1 1:102 2:381 
-0.4144402540172867 1:106 2:377 
-0.4758483162693608 1:108 2:381 
-1 1:110 2:400 
-1 1:112 2:380 
-1 1:114 2:375 
-1 1:116 2:354 
-1 1:118 2:291 
-0.2337326858774774 1:122 2:325 
-1 1:124 2:400 
-0.6710151063300489 1:126 2:358 
-0.1457461338135385 1:128 2:354 
-1 1:132 2:332 
-0.8489441330349183 1:136 2:350 
-1 1:138 2:400 
-0.6324647008141895 1:146 2:302 
-1 1:152 2:400 
-0.4565669558607186 1:158 2:278 
-0.5876724017654126 1:160 2:190 
-1 1:164 2:269 
-1 1:166 2:400 
-1 1:176 2:317 
-1 1:182 2:400 
-1 1:184 2:320 
-1 1:186 2:307 
-1 1:100 2:385 
-1 1:102 2:381 
-0.1124880727302158 1:104 2:369 
-1 1:108 2:381 
-1 1:110 2:400 
-1 1:112 2:378 
-0.5054683352558571 1:114 2:374 
-1 1:116 2:342 
-1 1:118 2:305 
-0.9417211557882772 1:120 2:340 
-1 1:124 2:400 
-1 1:126 2:359 
-1 1:130 2:318 
-1 1:134 2:343 
-1 1:138 2:400 
-0.6123108285168731 1:148 2:273 
-0.8563887419444555 1:150 2:301 
-1 1:152 2:400 
-0.9852877792346728 1:158 2:276 
-1 1:160 2:193 
-1 1:166 2:400 
-0.9363345004815402 1:168 2:247 
-0.0859655036265789 1:170 2:237 
-0.6146614730679142 1:172 2:280 
-1 1:176 2:315 
-1 1:180 2:331 
-1 1:182 2:400 
-1 1:184 2:317 
-0.2070453176105984 1:188 2:300 
-1 1:104 2:372 
-0.3053089143987929 1:106 2:376 
-1 1:108 2:376 
-1 1:110 2:400 
-0.9963229523486403 1:112 2:380 
-1 1:114 2:376 
-0.1441676510905499 1:116 2:349 
-1 1:118 2:301 
-1 1:120 2:338 
-1 1:124 2:400 
-1 1:126 2:358 
-0.8507578070856858 1:130 2:326 
-1 1:132 2:332 
-1 1:134 2:343 
-0.2219632809163627 1:136 2:345 
-1 1:138 2:400 
-1 1:140 2:351 
-1 1:152 2:400 
-0.9035879978724705 1:158 2:279 
-0.2122838678581648 1:160 2:184 
-0.1369809984834368 1:162 2:272 
-1 1:166 2:400 
-1 1:168 2:249 
-0.09517006697673307 1:170 2:235 
-0.9765979464734859 1:176 2:313 
-0.4638517702593836 1:178 2:331 
-1 1:182 2:400 
-1 1:184 2:319 
-1 1:188 2:291 
-1 1:104 2:371 
-0.3697019372947826 1:106 2:379 
-1 1:108 2:379 
-1 1:110 2:400 
-0.01883964422399402 1:112 2:376 
-1 1:114 2:376 
-1 1:116 2:344 
-1 1:118 2:296 
-1 1:120 2:340 
-1 1:124 2:400 
-1 1:128 2:349 
-1 1:130 2:319 
-1 1:132 2:335 
-0.3671471570450657 1:136 2:347 
-1 1:138 2:400 
-1 1:140 2:352 
-0.5461763295039264 1:146 2:291 
-0.8283880917267825 1:148 2:272 
-1 1:152 2:400 
-0.7866947423543749 1:154 2:292 
-1 1:156 2:166 
-1 1:158 2:270 
-1 1:160 2:182 
-1 1:162 2:269 
-1 1:166 2:400 
-1 1:168 2:251 
-0.9972643719337145 1:170 2:235 
-0.8522052790911316 1:172 2:285 
-1 1:178 2:333 
-1 1:182 2:400 
-1 1:184 2:318 
-0.2956693363493658 1:194 2:345 
-0.4731840871884843 1:102 2:384 
-1 1:104 2:372 
-1 1:106 2:377 
-1 1:108 2:378 
-1 1:110 2:400 
-1 1:112 2:378 
-1 1:114 2:375 
-1 1:116 2:345 
-1 1:118 2:293 
-0.06888582885621714 1:122 2:330 
-1 1:124 2:400 
-1 1:126 2:361 
-1 1:130 2:317 
-1 1:132 2:335 
-0.8223679098781165 1:134 2:345 
-1 1:138 2:400 
-1 1:140 2:352 
-0.1455744867705739 1:142 2:350 
-0.01106374743988425 1:144 2:340 
-0.7997569895170146 1:146 2:295 
-0.9562248302897046 1:148 2:285 
-1 1:152 2:400 
-0.5236281280072503 1:154 2:287 
-0.4047622771682649 1:158 2:261 
-0.388224629948719 1:162 2:271 
-1 1:166 2:400 
-1 1:168 2:246 
-0.9688601339441543 1:172 2:285 
-1 1:182 2:400 
-1 1:184 2:317 
-1 1:188 2:298 
-0.6877396882412656 1:190 2:332 
-0.2354581735794619 1:192 2:346 
-1 1:102 2:381 
-1 1:104 2:369 
-1 1:106 2:376 
-1 1:108 2:380 
-1 1:110 2:400 
-1 1:112 2:378 
-1 1:114 2:375 
-1 1:116 2:342 
-0.1009481568455962 1:118 2:298 
-0.3994385666696352 1:120 2:342 
-0.1958475282841042 1:122 2:333 
-1 1:124 2:400 
-0.8616758214716965 1:126 2:360 
-1 1:128 2:355 
-1 1:130 2:320 
-1 1:134 2:345 
-1 1:138 2:400 
-1 1:140 2:355 
-0.4847943693818404 1:142 2:347 
-0.7594214854197388 1:146 2:293 
-0.6065200971820777 1:150 2:298 
-1 1:152 2:400 
-0.1214658796619069 1:156 2:177 
-0.9917372414650604 1:160 2:184 
-0.9193051392621988 1:162 2:271 
-1 1:166 2:400 
-1 1:170 2:243 
-1 1:172 2:291 
-0.4042592490205477 1:174 2:262 
-1 1:180 2:333 
-1 1:182 2:400 
-1 1:184 2:318 
-0.6621254163107009 1:186 2:293 
-0.7702280524680111 1:188 2:301 
-0.9497850277062119 1:190 2:334 
-0.05646243450493704 1:196 2:400 
-0.08681507889983692 1:210 2:400 
-0.2574845430669483 1:216 2:393 
-0.2170504755586223 1:100 2:386 
-1 1:102 2:380 
-1 1:106 2:376 
-1 1:108 2:378 
-1 1:110 2:400 
-1 1:112 2:377 
-1 1:114 2:375 
-1 1:116 2:344 
-1 1:118 2:291 
-1 1:120 2:337 
-1 1:122 2:330 
-1 1:124 2:400 
-1 1:128 2:347 
-1 1:138 2:400 
-0.8531565026115945 1:140 2:347 
-0.8557890081795861 1:142 2:343 
-0.7474806436062417 1:146 2:289 
-0.01563302747762375 1:148 2:286 
-1 1:150 2:293 
-1 1:152 2:400 
-1 1:154 2:278 
-0.9215685668896124 1:156 2:161 
-1 1:158 2:251 
-1 1:160 2:172 
-1 1:162 2:267 
-1 1:164 2:269 
-1 1:166 2:400 
-1 1:168 2:232 
-1 1:172 2:277 
-0.1083192122657538 1:174 2:250 
-0.6901913774353676 1:176 2:309 
-1 1:178 2:326 
-1 1:180 2:323 
-1 1:182 2:400 
-1 1:184 2:312 
-1 1:186 2:287 
-0.2818312336874962 1:188 2:292 
-0.236288140986806 1:190 2:331 
-0.1978037388639415 1:194 2:343 
-1 1:196 2:400 
-1 1:210 2:400 
-0.3404899470808571 1:212 2:389 
-1 1:100 2:385 
-1 1:102 2:381 
-1 1:104 2:369 
-0.9306816549670269 1:106 2:376 
-1 1:108 2:381 
-1 1:110 2:400 
-1 1:112 2:377 
-1 1:114 2:376 
-0.8537030938666833 1:116 2:346 
-1 1:118 2:299 
-0.9935874664467439 1:120 2:342 
-1 1:124 2:400 
-1 1:126 2:362 
-1 1:128 2:348 
-1 1:130 2:319 
-0.7970745836975691 1:132 2:337 
-0.9797021453174907 1:134 2:345 
-0.2068424089274425 1:136 2:343 
-1 1:138 2:400 
-1 1:140 2:352 
-0.4221070587747264 1:144 2:339 
-0.2678225303807225 1:146 2:290 
-1 1:148 2:287 
-0.8066710182288673 1:150 2:292 
-1 1:152 2:400 
-0.5713265505359925 1:156 2:170 
-0.2398434670176428 1:158 2:262 
-1 1:160 2:180 
-1 1:162 2:274 
-1 1:166 2:400 
-0.2911100930523672 1:168 2:244 
-1 1:170 2:239 
-0.6817204859565515 1:172 2:276 
-0.7713667287552309 1:174 2:250 
-1 1:178 2:328 
-0.4747154755451133 1:180 2:328 
-1 1:182 2:400 
-1 1:184 2:318 
-0.352235804803221 1:186 2:291 
-1 1:188 2:296 
-1 1:196 2:400 
-1 1:210 2:400 
-1 1:216 2:394 
-0.2424247010797559 1:100 2:388 
-0.9008588385465048 1:102 2:382 
-1 1:106 2:374 
-1 1:108 2:378 
-1 1:110 2:400 
-1 1:112 2:375 
-0.9878667905629539 1:114 2:374 
-0.9180667601120298 1:116 2:343 
-1 1:118 2:294 
-1 1:120 2:338 
-0.2413436151404747 1:122 2:327 
-1 1:124 2:400 
-1 1:126 2:357 
-0.8897816741794961 1:128 2:346 
-0.1507199266032547 1:130 2:315 
-1 1:132 2:334 
-1 1:134 2:342 
-0.6335104916064277 1:136 2:340 
-1 1:138 2:400 
-1 1:140 2:347 
-0.9329508128317182 1:142 2:343 
-0.2269370739801755 1:144 2:335 
-0.7295154435064348 1:146 2:283 
-0.6635178005801995 1:148 2:276 
-1 1:152 2:400 
-0.6366248561058657 1:154 2:281 
-1 1:156 2:155 
-0.932481560290031 1:158 2:253 
-1 1:160 2:170 
-1 1:162 2:264 
-1 1:164 2:265 
-1 1:166 2:400 
-1 1:168 2:240 
-1 1:170 2:225 
-0.523979947647954 1:176 2:307 
-1 1:178 2:327 
-1 1:180 2:323 
-1 1:182 2:400 
-1 1:184 2:313 
-0.4784119023999915 1:186 2:281 
-1 1:188 2:288 
-1 1:196 2:400 
-0.1180070773965719 1:198 2:356 
-1 1:210 2:400 
-1 1:216 2:393 
-0.8919993988415451 1:100 2:387 
-1 1:102 2:384 
-1 1:104 2:374 
-1 1:106 2:377 
-1 1:108 2:381 
-1 1:110 2:400 
-1 1:112 2:377 
-1 1:114 2:377 
-1 1:118 2:296 
-0.9943121628460553 1:120 2:340 
-1 1:124 2:400 
-1 1:126 2:359 
-0.9849402720440491 1:128 2:345 
-0.8990987796545675 1:136 2:338 
-1 1:138 2:400 
-1 1:140 2:344 
-1 1:142 2:338 
-1 1:152 2:400 
-0.3030479689653031 1:154 2:286 
-0.6406312135271244 1:156 2:175 
-1 1:158 2:254 
-0.8628344854496549 1:160 2:178 
-1 1:162 2:268 
-1 1:166 2:400 
-0.4541504791017615 1:168 2:238 
-0.5778026192695879 1:170 2:217 
-0.3068744695782917 1:174 2:254 
-1 1:176 2:310 
-1 1:178 2:328 
-0.1138384040870505 1:180 2:330 
-1 1:182 2:400 
-1 1:184 2:311 
-0.1600393766606707 1:188 2:293 
-0.08809834584629535 1:194 2:346 
-1 1:196 2:400 
-0.3500647406422078 1:206 2:377 
-1 1:210 2:400 
-1 1:212 2:389 
-1 1:216 2:394 
-0.9989825186392693 1:102 2:388 
-1 1:104 2:376 
-1 1:106 2:383 
-1 1:110 2:400 
-1 1:112 2:382 
-1 1:114 2:381 
-1 1:116 2:350 
-0.9793670738467462 1:118 2:303 
-1 1:120 2:345 
-0.8078355121680602 1:122 2:324 
-1 1:124 2:400 
-1 1:126 2:356 
-1 1:128 2:344 
-1 1:130 2:312 
-0.6323012103566761 1:132 2:339 
-1 1:134 2:334 
-1 1:136 2:336 
-1 1:138 2:400 
-1 1:140 2:345 
-1 1:142 2:338 
-0.4163991464561063 1:146 2:279 
-1 1:148 2:267 
-1 1:150 2:284 
-1 1:152 2:400 
-1 1:154 2:278 
-1 1:156 2:158 
-1 1:158 2:249 
-1 1:160 2:181 
-1 1:162 2:263 
-1 1:164 2:270 
-1 1:166 2:400 
-1 1:168 2:226 
-1 1:170 2:207 
-1 1:174 2:254 
-1 1:176 2:309 
-0.008344856792103584 1:178 2:324 
-1 1:182 2:400 
-0.3737336479948759 1:190 2:319 
-0.03029936552475267 1:192 2:341 
-1 1:196 2:400 
-0.3962089097351761 1:204 2:373 
-0.4371268581080606 1:208 2:386 
-1 1:210 2:400 
-1 1:212 2:391 
-1 1:214 2:393 
-1 1:216 2:393 
-1 1:102 2:387 
-1 1:104 2:379 
-1 1:106 2:384 
-1 1:110 2:400 
-0.9560065613585031 1:114 2:378 
-1 1:118 2:309 
-1 1:120 2:344 
-0.6869774213839535 1:122 2:326 
-1 1:124 2:400 
-1 1:126 2:361 
-1 1:128 2:349 
-1 1:130 2:316 
-1 1:132 2:337 
-1 1:134 2:337 
-0.6575378704898491 1:136 2:342 
-1 1:138 2:400 
-0.9994943763089008 1:140 2:347 
-1 1:142 2:341 
-1 1:144 2:330 
-0.7847178259898557 1:146 2:278 
-0.5098278036559404 1:148 2:260 
-1 1:150 2:289 
-1 1:152 2:400 
-0.2597282821243139 1:154 2:275 
-1 1:156 2:153 
-0.9181955586611262 1:160 2:186 
-0.6856259533634226 1:162 2:276 
-1 1:166 2:400 
-1 1:168 2:228 
-0.7256729835316498 1:170 2:194 
-0.8141283089451203 1:178 2:329 
-1 1:182 2:400 
-0.3313141986086775 1:184 2:286 
-0.6855041922463703 1:186 2:263 
-0.8124158455369297 1:188 2:294 
-1 1:192 2:351 
-1 1:194 2:356 
-1 1:196 2:400 
-0.01149127582894861 1:202 2:365 
-0.2362756151143531 1:204 2:376 
-0.3188565953442329 1:206 2:382 
-1 1:208 2:389 
-1 1:210 2:400 
-1 1:212 2:392 
-1 1:214 2:393 
-1 1:216 2:395 
-1 1:98 2:394 
-1 1:100 2:393 
-0.4333597054089465 1:102 2:394 
-1 1:104 2:377 
-0.647159692029981 1:106 2:386 
-1 1:108 2:386 
-1 1:110 2:400 
-1 1:112 2:382 
-1 1:114 2:379 
-1 1:116 2:356 
-1 1:118 2:316 
-1 1:120 2:355 
-0.9379252758288461 1:122 2:337 
-1 1:124 2:400 
-1 1:126 2:358 
-0.1490775275442611 1:128 2:356 
-0.9369413026125198 1:132 2:346 
-1 1:134 2:355 
-1 1:136 2:334 
-1 1:138 2:400 
-0.3884512496774202 1:140 2:358 
-0.3441245922882934 1:142 2:346 
-0.7196025786174629 1:144 2:345 
-1 1:146 2:268 
-0.1434307518823895 1:148 2:281 
-0.5127414890850144 1:150 2:296 
-1 1:152 2:400 
-0.3593160935411007 1:154 2:283 
-0.9921793306707758 1:156 2:151 
-1 1:158 2:268 
-0.8859779935258949 1:160 2:224 
-1 1:162 2:290 
-1 1:166 2:400 
-1 1:168 2:287 
-0.0007756620732666149 1:170 2:190 
-0.2994460948532171 1:172 2:277 
-1 1:176 2:315 
-1 1:180 2:301 
-1 1:182 2:400 
-0.4156071646727961 1:184 2:287 
-0.3234911593289507 1:188 2:323 
-1 1:190 2:342 
-1 1:192 2:355 
-0.2505521563588614 1:194 2:360 
-1 1:196 2:400 
-1 1:198 2:366 
-0.7564256390013011 1:200 2:368 
-1 1:202 2:374 
-0.9921583952024878 1:204 2:379 
-1 1:206 2:389 
-1 1:208 2:390 
-1 1:210 2:400 
-1 1:212 2:393 
-1 1:214 2:393 
-0.9890838145142996 1:216 2:393 
-1 1:98 2:395 
-1 1:100 2:396 
-0.4613282838361331 1:102 2:395 
-1 1:104 2:377 
-0.9629108047872987 1:106 2:386 
-1 1:110 2:400 
-1 1:112 2:382 
-1 1:114 2:373 
-0.1287273810973931 1:118 2:297 
-0.3460393719349279 1:120 2:351 
-0.7958458150425992 1:122 2:328 
-1 1:124 2:400 
-1 1:126 2:355 
-0.7896165163261583 1:128 2:353 
-0.7793207814445171 1:130 2:314 
-0.9925941048647107 1:132 2:341 
-0.9373134541658649 1:134 2:352 
-1 1:136 2:327 
-1 1:138 2:400 
-1 1:140 2:352 
-0.1970680814712933 1:142 2:342 
-0.8528982293878379 1:144 2:334 
-1 1:146 2:255 
-1 1:148 2:274 
-1 1:150 2:291 
-1 1:152 2:400 
-1 1:154 2:266 
-1 1:156 2:147 
-0.8616406710709767 1:158 2:260 
-1 1:160 2:230 
-0.9931045244064483 1:162 2:276 
-1 1:166 2:400 
-0.8223634571683435 1:172 2:278 
-0.05821332780210347 1:174 2:271 
-1 1:178 2:295 
-1 1:180 2:305 
-1 1:182 2:400 
-0.3787785935970635 1:184 2:289 
-1 1:186 2:292 
-1 1:188 2:328 
-1 1:190 2:346 
-1 1:192 2:353 
-1 1:194 2:365 
-1 1:196 2:400 
-1 1:198 2:366 
-1 1:200 2:370 
-1 1:202 2:372 
-1 1:206 2:388 
-1 1:208 2:392 
-1 1:210 2:400 
-1 1:212 2:393 
-1 1:214 2:392 
-1 1:216 2:394 
-0.680335914856394 1:102 2:389 
-1 1:104 2:375 
-1 1:106 2:381 
-1 1:108 2:381 
-1 1:110 2:400 
-1 1:112 2:383 
-1 1:114 2:371 
-1 1:118 2:291 
-1 1:120 2:334 
-0.9952318976628155 1:122 2:333 
-1 1:124 2:400 
-1 1:126 2:350 
-0.5319665627107425 1:128 2:350 
-0.8238005968972867 1:130 2:314 
-1 1:132 2:331 
-1 1:134 2:348 
-1 1:136 2:327 
-1 1:138 2:400 
-1 1:140 2:348 
-1 1:142 2:341 
-0.4423164488494942 1:144 2:337 
-0.09827559332842448 1:146 2:258 
-1 1:148 2:267 
-0.7277590290918537 1:150 2:295 
-1 1:152 2:400 
-1 1:154 2:261 
-1 1:156 2:142 
-1 1:158 2:240 
-1 1:160 2:174 
-1 1:162 2:244 
-1 1:164 2:287 
-1 1:166 2:400 
-1 1:168 2:297 
-0.5187206666468661 1:170 2:267 
-0.02076344037969613 1:172 2:290 
-1 1:174 2:293 
-0.07367044531866826 1:176 2:322 
-1 1:178 2:307 
-0.7512753219246194 1:180 2:320 
-1 1:182 2:400 
-0.01279984761610179 1:186 2:300 
-1 1:188 2:329 
-1 1:190 2:352 
-1 1:192 2:356 
-1 1:194 2:366 
-1 1:196 2:400 
-1 1:198 2:368 
-1 1:200 2:370 
-0.8926453153863131 1:202 2:370 
-1 1:206 2:387 
-1 1:208 2:391 
-1 1:210 2:400 
-1 1:212 2:392 
-1 1:214 2:393 
-1 1:216 2:394 
-0.3051289754955291 1:102 2:386 
-1 1:104 2:365 
-1 1:106 2:375 
-1 1:108 2:380 
-1 1:110 2:400 
-1 1:112 2:376 
-1 1:114 2:366 
-1 1:116 2:340 
-1 1:118 2:286 
-1 1:120 2:332 
-1 1:122 2:322 
-1 1:124 2:400 
-1 1:126 2:348 
-1 1:128 2:348 
-1 1:130 2:306 
-1 1:132 2:331 
-1 1:136 2:323 
-1 1:138 2:400 
-1 1:140 2:344 
-1 1:142 2:335 
-0.9740855423668446 1:144 2:332 
-1 1:146 2:258 
-0.8403487994049151 1:148 2:241 
-1 1:150 2:280 
-1 1:152 2:400 
-1 1:154 2:251 
-1 1:156 2:135 
-0.7474660478347798 1:158 2:213 
-1 1:162 2:243 
-1 1:164 2:296 
-1 1:166 2:400 
-1 1:168 2:294 
-1 1:170 2:262 
-0.9620295118969685 1:172 2:289 
-1 1:174 2:296 
-0.9974039609774068 1:176 2:322 
-1 1:178 2:317 
-1 1:180 2:315 
-1 1:182 2:400 
-1 1:188 2:327 
-1 1:190 2:347 
-1 1:192 2:360 
-1 1:194 2:362 
-1 1:196 2:400 
-1 1:198 2:369 
-0.9874988577425424 1:200 2:368 
-0.3738129253027039 1:202 2:368 
-1 1:206 2:387 
-1 1:208 2:388 
-1 1:210 2:400 
-1 1:212 2:392 
-1 1:214 2:392 
-1 1:216 2:394 
-1 1:98 2:377 
-1 1:102 2:371 
-1 1:104 2:354 
-1 1:106 2:368 
-1 1:108 2:371 
-1 1:110 2:400 
-1 1:112 2:371 
-1 1:114 2:362 
-1 1:116 2:327 
-1 1:118 2:268 
-1 1:120 2:322 
-0.228309192969095 1:122 2:312 
-1 1:124 2:400 
-1 1:126 2:339 
-1 1:128 2:340 
-1 1:130 2:287 
-1 1:132 2:319 
-1 1:134 2:330 
-0.5906959585028848 1:136 2:318 
-1 1:138 2:400 
-1 1:140 2:339 
-0.105863751987826 1:142 2:323 
-1 1:144 2:320 
-1 1:146 2:231 
-1 1:148 2:230 
-1 1:150 2:258 
-1 1:152 2:400 
-1 1:154 2:229 
-1 1:156 2:96 
-1 1:158 2:174 
-1 1:160 2:140 
-1 1:162 2:237 
-0.5654092988630922 1:164 2:288 
-1 1:166 2:400 
-1 1:170 2:230 
-0.1326096155321369 1:176 2:306 
-0.3634031534751866 1:178 2:299 
-1 1:182 2:400 
-0.03941461113702799 1:184 2:276 
-0.4711641407421987 1:186 2:284 
-1 1:188 2:324 
-0.8187538180226783 1:190 2:340 
-1 1:192 2:354 
-1 1:194 2:361 
-1 1:196 2:400 
-0.01471380701492154 1:200 2:365 
-0.459766901296253 1:204 2:375 
-0.6173515457642242 1:206 2:383 
-1 1:210 2:400 
-1 1:212 2:390 
-1 1:214 2:392 
-1 1:98 2:369 
-1 1:100 2:350 
-1 1:102 2:350 
-1 1:106 2:347 
-1 1:108 2:363 
-1 1:110 2:400 
-1 1:112 2:364 
-1 1:114 2:355 
-1 1:116 2:324 
-1 1:118 2:254 
-1 1:120 2:318 
-1 1:124 2:400 
-1 1:126 2:336 
-1 1:128 2:338 
-1 1:130 2:285 
-1 1:132 2:311 
-1 1:134 2:325 
-0.7990789250127727 1:136 2:319 
-1 1:138 2:400 
-0.4662435979024666 1:140 2:331 
-1 1:142 2:324 
-1 1:144 2:313 
-1 1:146 2:196 
-1 1:148 2:238 
-0.9466742493465921 1:150 2:238 
-1 1:152 2:400 
-1 1:154 2:212 
-0.3324390531972533 1:156 2:81 
-1 1:158 2:202 
-0.8147466103672829 1:160 2:155 
-0.03550237887167003 1:162 2:232 
-0.4013948094260288 1:164 2:285 
-1 1:166 2:400 
-1 1:168 2:270 
-0.5227732548626093 1:174 2:273 
-1 1:176 2:310 
-1 1:178 2:296 
-1 1:180 2:302 
-1 1:182 2:400 
-0.6279707560333858 1:186 2:286 
-1 1:188 2:327 
-1 1:190 2:344 
-1 1:192 2:355 
-1 1:194 2:362 
-1 1:196 2:400 
-1 1:198 2:364 
-0.4742126368962239 1:202 2:367 
-1 1:206 2:386 
-1 1:210 2:400 
-1 1:212 2:390 
-0.06409299032918969 1:214 2:391 
-1 1:98 2:371 
-1 1:100 2:354 
-0.889482905091309 1:102 2:335 
-0.8360302840789255 1:104 2:325 
-1 1:106 2:334 
-0.1296433435185043 1:108 2:348 
-1 1:110 2:400 
-1 1:112 2:355 
-1 1:114 2:345 
-0.9655789306723725 1:116 2:314 
-1 1:118 2:241 
-0.699884326970359 1:122 2:303 
-1 1:124 2:400 
-1 1:126 2:338 
-1 1:128 2:332 
-1 1:130 2:285 
-1 1:132 2:316 
-1 1:134 2:322 
-1 1:138 2:400 
-0.1432927218709048 1:142 2:320 
-0.8806008478444024 1:144 2:306 
-0.5494732474471523 1:148 2:240 
-1 1:150 2:244 
-1 1:152 2:400 
-1 1:154 2:219 
-0.9947598143628836 1:156 2:81 
-1 1:158 2:198 
-1 1:160 2:157 
-1 1:162 2:220 
-1 1:164 2:281 
-1 1:166 2:400 
-1 1:168 2:271 
-0.2955785103960797 1:172 2:266 
-0.06693981948705288 1:180 2:304 
-1 1:182 2:400 
-0.005369234555653704 1:184 2:272 
-1 1:188 2:323 
-0.5879562836141746 1:190 2:339 
-1 1:194 2:356 
-1 1:196 2:400 
-1 1:198 2:366 
-0.4670885752823374 1:200 2:363 
-0.4595895921363305 1:204 2:374 
-1 1:206 2:384 
-0.4076264611053583 1:208 2:387 
-1 1:210 2:400 
-0.02244411684384475 1:216 2:391 
-1 1:98 2:371 
-1 1:100 2:366 
-1 1:102 2:329 
-1 1:104 2:289 
-0.8786696980024155 1:106 2:324 
-1 1:110 2:400 
-1 1:112 2:343 
-1 1:114 2:329 
-1 1:118 2:233 
-1 1:124 2:400 
-1 1:126 2:336 
-0.8376830118554193 1:128 2:330 
-1 1:130 2:279 
-1 1:132 2:313 
-1 1:134 2:318 
-1 1:138 2:400 
-1 1:142 2:326 
-0.06368423997477179 1:144 2:295 
-1 1:146 2:171 
-1 1:150 2:237 
-1 1:152 2:400 
-1 1:154 2:214 
-1 1:156 2:101 
-0.008735917591011371 1:158 2:189 
-1 1:160 2:160 
-0.08288897614600027 1:162 2:233 
-1 1:164 2:275 
-1 1:166 2:400 
-0.4243076360184608 1:168 2:274 
-1 1:170 2:232 
-1 1:174 2:280 
-0.00858459701224621 1:180 2:306 
-1 1:182 2:400 
-1 1:186 2:287 
-1 1:188 2:320 
-1 1:190 2:338 
-0.01804502201193529 1:192 2:352 
-1 1:194 2:359 
-1 1:196 2:400 
-0.2970441536230614 1:200 2:358 
-0.4149720557965032 1:202 2:363 
-0.7402071150719636 1:204 2:377 
-0.8515160394431865 1:206 2:383 
-1 1:208 2:386 
-1 1:210 2:400 
-1 1:212 2:389 
-1 1:98 2:378 
-1 1:100 2:375 
-0.9272117702230754 1:102 2:337 
-0.9304895246501537 1:104 2:261 
-0.800000444832354 1:106 2:301 
-0.9305196841240291 1:108 2:335 
-1 1:110 2:400 
-1 1:112 2:341 
-1 1:114 2:331 
-0.8042255149691975 1:118 2:213 
-0.8382195111156845 1:120 2:296 
-1 1:122 2:286 
-1 1:124 2:400 
-0.01152117356069243 1:126 2:325 
-1 1:128 2:325 
-0.1601873261246595 1:130 2:261 
-0.5516280526949572 1:132 2:305 
-0.01917689524585555 1:136 2:307 
-1 1:138 2:400 
-1 1:146 2:134 
-1 1:148 2:227 
-1 1:150 2:221 
-1 1:152 2:400 
-0.8460437902839559 1:154 2:212 
-0.1037494544523305 1:156 2:61 
-1 1:158 2:170 
-1 1:160 2:135 
-1 1:164 2:268 
-1 1:166 2:400 
-0.9424593879825502 1:168 2:263 
-0.2524092270782917 1:172 2:260 
-0.1983857862987694 1:178 2:298 
-1 1:182 2:400 
-0.7521463560919226 1:184 2:275 
-0.2691092748352881 1:186 2:270 
-0.9395882301746302 1:188 2:304 
-1 1:196 2:400 
-0.006524374568157957 1:202 2:356 
-0.2757199382731916 1:204 2:370 
-1 1:206 2:384 
-1 1:210 2:400 
-1 1:212 2:389 
-1 1:98 2:382 
-1 1:100 2:375 
-1 1:102 2:357 
-1 1:104 2:272 
-0.8291153393190238 1:106 2:294 
-1 1:110 2:400 
-0.01476516027968889 1:112 2:327 
-0.2321287907244987 1:118 2:209 
-0.08570141517105399 1:120 2:293 
-1 1:122 2:279 
-1 1:124 2:400 
-0.06727361453727998 1:126 2:320 
-0.0109651206796174 1:128 2:315 
-0.1947272666999951 1:130 2:274 
-0.2599943391393617 1:134 2:306 
-0.1340823032252715 1:136 2:311 
-1 1:138 2:400 
-1 1:146 2:116 
-1 1:150 2:235 
-1 1:152 2:400 
-0.394758966668078 1:154 2:211 
-1 1:156 2:69 
-1 1:158 2:166 
-0.9998985094155238 1:160 2:148 
-1 1:162 2:225 
-0.594532554732829 1:164 2:277 
-1 1:166 2:400 
-1 1:168 2:276 
-0.9558440045464903 1:172 2:265 
-0.9769075300641952 1:176 2:309 
-0.3401470792938909 1:178 2:300 
-0.6136529115053191 1:180 2:299 
-1 1:182 2:400 
-0.3989110839052973 1:184 2:283 
-0.9174959765847601 1:188 2:306 
-0.01516929296583152 1:194 2:353 
-1 1:196 2:400 
-0.3361798058550901 1:200 2:359 
-0.09563288212705823 1:202 2:360 
-0.3612604259829422 1:204 2:371 
-0.5125587785875622 1:206 2:381 
-0.8855922478788528 1:208 2:385 
-1 1:210 2:400 
-1 1:98 2:385 
-0.4262315014516219 1:100 2:379 
-1 1:104 2:306 
-1 1:106 2:292 
-1 1:108 2:320 
-1 1:110 2:400 
-1 1:112 2:336 
-1 1:114 2:326 
-0.8867615875177872 1:116 2:289 
-0.9786274820144278 1:118 2:209 
-0.4661595908349483 1:120 2:298 
-1 1:122 2:286 
-1 1:124 2:400 
-0.7611718263347131 1:126 2:318 
-1 1:128 2:319 
-1 1:130 2:279 
-0.2888791386648716 1:132 2:302 
-1 1:134 2:312 
-0.02111907687144252 1:136 2:312 
-1 1:138 2:400 
-0.3000801921738849 1:140 2:328 
-0.7767486056610252 1:142 2:316 
-0.6797996991033102 1:144 2:296 
-0.7777007160088215 1:146 2:128 
-1 1:148 2:233 
-1 1:150 2:244 
-1 1:152 2:400 
-0.22445740096747 1:154 2:227 
-1 1:156 2:89 
-0.01395282115499759 1:158 2:178 
-0.6584129616140973 1:160 2:149 
-1 1:162 2:231 
-1 1:166 2:400 
-0.8546471196580594 1:168 2:280 
-0.9944683037087416 1:170 2:237 
-0.1502735725243245 1:174 2:274 
-0.6923318759091068 1:178 2:308 
-0.09627760787775086 1:180 2:297 
-1 1:182 2:400 
-0.8691941584109292 1:184 2:294 
-0.2590237143998503 1:186 2:272 
-0.2285184193161574 1:188 2:299 
-0.1932480684229224 1:190 2:329 
-1 1:196 2:400 
-0.1270710323921309 1:200 2:355 
-1 1:206 2:386 
-1 1:208 2:387 
-1 1:210 2:400 
-0.02716275834909939 1:98 2:389 
-1 1:100 2:383 
-0.03301101855002513 1:102 2:369 
-1 1:104 2:324 
-0.9213090077507531 1:106 2:280 
-0.2003968792112052 1:108 2:317 
-1 1:110 2:400 
-0.794763119314264 1:112 2:325 
-0.01552131283070394 1:114 2:316 
-0.8485511871472132 1:116 2:291 
-0.7061826351391165 1:118 2:214 
-1 1:120 2:303 
-1 1:122 2:278 
-1 1:124 2:400 
-0.08480331079998599 1:126 2:323 
-1 1:130 2:275 
-0.01841794190898961 1:132 2:297 
-0.3352725474638015 1:136 2:314 
-1 1:138 2:400 
-0.001873318412390995 1:140 2:327 
-1 1:146 2:118 
-0.8034908225355106 1:148 2:231 
-1 1:150 2:246 
-1 1:152 2:400 
-0.04915994429497177 1:154 2:224 
-1 1:156 2:73 
-0.5294506760935926 1:158 2:173 
-1 1:160 2:153 
-0.9780713222065497 1:162 2:233 
-0.6115394476666355 1:164 2:289 
-1 1:166 2:400 
-0.005836288597448509 1:170 2:231 
-0.0253032425198628 1:172 2:275 
-0.03969449773693829 1:174 2:268 
-0.1191921324286169 1:178 2:305 
-0.3630607303711667 1:180 2:303 
-1 1:182 2:400 
-0.6345902209294051 1:184 2:292 
-0.3415915170167537 1:186 2:273 
-0.9985327848874886 1:188 2:304 
-0.6554913080834515 1:190 2:330 
-0.8192746923001688 1:192 2:348 
-1 1:196 2:400 
-0.6942155985243742 1:198 2:361 
-0.04539577439296281 1:200 2:356 
-0.167854596830347 1:202 2:362 
-0.2270191111622433 1:204 2:372 
-0.2676280391902782 1:206 2:380 
-1 1:208 2:387 
-1 1:210 2:400 
-0.156617670616213 1:212 2:387 
-0.01308053338131767 1:214 2:389 
-0.6976040798796718 1:98 2:391 
-1 1:100 2:377 
-1 1:102 2:380 
-1 1:104 2:332 
-0.9302534273609168 1:106 2:261 
-0.3832881333550896 1:108 2:334 
-1 1:110 2:400 
-1 1:112 2:327 
-0.02456703070758133 1:114 2:318 
-0.5779832796159502 1:116 2:296 
-0.4791663785062614 1:118 2:197 
-1 1:122 2:276 
-1 1:124 2:400 
-1 1:130 2:280 
-0.007559906253819831 1:132 2:300 
-0.3389985409635436 1:136 2:306 
-1 1:138 2:400 
-0.9986809080503243 1:140 2:324 
-1 1:142 2:322 
-0.1775028922201004 1:144 2:298 
-1 1:146 2:123 
-1 1:152 2:400 
-1 1:154 2:240 
-1 1:156 2:60 
-1 1:158 2:196 
-0.657399259937588 1:160 2:148 
-1 1:162 2:218 
-1 1:166 2:400 
-0.4671636455202851 1:168 2:284 
-1 1:170 2:231 
-0.5276152675216362 1:172 2:269 
-0.1675883370000608 1:176 2:308 
-0.2268009714653773 1:178 2:301 
-1 1:182 2:400 
-0.5321941150078927 1:184 2:301 
-0.7092889182538783 1:186 2:299 
-0.6914510514078632 1:188 2:279 
-0.5453267139649264 1:192 2:345 
-1 1:194 2:361 
-1 1:196 2:400 
-0.117495317032759 1:198 2:359 
-0.273441307224429 1:200 2:362 
-0.3425545316814672 1:204 2:368 
-0.3125527418865284 1:208 2:386 
-1 1:210 2:400 
-1 1:98 2:387 
-0.4074372187747526 1:100 2:376 
-1 1:102 2:377 
-0.6573396721629061 1:106 2:266 
-1 1:110 2:400 
-0.9298669040080323 1:112 2:323 
-1 1:114 2:321 
-0.7565556627435041 1:118 2:198 
-0.2163571345681128 1:120 2:301 
-1 1:122 2:277 
-1 1:124 2:400 
-1 1:126 2:327 
-1 1:128 2:326 
-1 1:130 2:276 
-0.2789211337434657 1:132 2:296 
-1 1:134 2:313 
-0.1318521417755011 1:136 2:302 
-1 1:138 2:400 
-0.6335414204686936 1:140 2:322 
-0.3267595701814459 1:142 2:319 
-1 1:146 2:131 
-1 1:148 2:225 
-0.9983770500226533 1:152 2:400 
-1 1:154 2:237 
-0.9115240079790339 1:156 2:64 
-1 1:160 2:136 
-0.997322444685539 1:162 2:222 
-1 1:164 2:275 
-1 1:166 2:400 
-1 1:168 2:285 
-1 1:170 2:233 
-0.1283321269044397 1:172 2:274 
-1 1:174 2:271 
-0.02853017647344256 1:176 2:304 
-0.09327745217855955 1:178 2:303 
-0.2363513696733548 1:180 2:298 
-1 1:182 2:400 
-0.009129413086447236 1:186 2:288 
-0.407480315628718 1:188 2:280 
-0.3873131050265879 1:190 2:328 
-0.9083259048173237 1:192 2:348 
-0.01730733215581735 1:194 2:355 
-1 1:196 2:400 
-1 1:198 2:362 
-0.3553946143118893 1:200 2:361 
-0.1649153546773746 1:202 2:364 
-0.01602589502806785 1:204 2:366 
-0.4087080810452433 1:208 2:384 
-1 1:210 2:400 
-0.3972541147193583 1:214 2:387 
-0.08741582166142342 1:216 2:389 
-1 1:100 2:374 
-1 1:102 2:380 
-0.009578185576576439 1:104 2:343 
-0.6577533231778855 1:106 2:267 
-1 1:110 2:400 
-0.535091127376691 1:112 2:313 
-0.1099281496166827 1:114 2:317 
-0.1159708613475356 1:116 2:298 
-0.0008742675995681501 1:118 2:188 
-1 1:122 2:272 
-0.997726468918726 1:124 2:400 
-1 1:128 2:325 
-0.9248640216026505 1:130 2:279 
-0.3739089331752298 1:132 2:300 
-0.1561469922676726 1:134 2:305 
-1 1:136 2:295 
-1 1:138 2:400 
-0.01063407431958264 1:140 2:319 
-0.5572889206721585 1:142 2:319 
-1 1:144 2:293 
-0.4776582832769876 1:146 2:130 
-0.1936755757693362 1:150 2:230 
-1 1:152 2:400 
-1 1:154 2:231 
-0.9898388518778348 1:158 2:194 
-1 1:160 2:117 
-0.005908091285862654 1:162 2:213 
-0.2633891090351712 1:164 2:274 
-1 1:166 2:400 
-0.5655505776671576 1:168 2:278 
-0.7199226971907634 1:170 2:229 
-0.03411229995068926 1:172 2:263 
-0.4265126885881835 1:176 2:303 
-0.5176374561096981 1:178 2:304 
-0.9277230255277831 1:180 2:292 
-1 1:182 2:400 
-0.1335608122446113 1:184 2:288 
-0.4817002887693059 1:186 2:283 
-0.8394449444805481 1:188 2:276 
-0.12361522297286 1:190 2:321 
-0.3874540660107013 1:192 2:341 
-1 1:196 2:400 
-0.1647074656512316 1:198 2:360 
-0.2242224618965956 1:200 2:360 
-0.2973642051633254 1:206 2:378 
-1 1:210 2:400 
-0.04104677468563662 1:212 2:385 
-0.3059797863318439 1:214 2:389 
-0.5167461350652065 1:216 2:391 
-1 1:100 2:383 
-1 1:102 2:373 
-0.9412895137221066 1:104 2:337 
-0.8777910304602671 1:108 2:322 
-1 1:110 2:400 
-0.5326951091504096 1:112 2:312 
-0.8470013848454667 1:114 2:311 
-0.05670768277452135 1:116 2:290 
-0.935901619507515 1:118 2:191 
-0.08603927955247241 1:120 2:304 
-1 1:122 2:266 
-1 1:124 2:400 
-0.2606853551516285 1:130 2:267 
-1 1:132 2:298 
-1 1:136 2:291 
-1 1:138 2:400 
-0.942924758012488 1:140 2:322 
-0.02581002269076588 1:142 2:312 
-0.01740278107789241 1:144 2:285 
-0.1330391438192654 1:146 2:127 
-1 1:148 2:227 
-1 1:150 2:215 
-1 1:152 2:400 
-1 1:154 2:235 
-1 1:156 2:44 
-0.0569598597778751 1:160 2:113 
-0.6744853459104851 1:162 2:212 
-1 1:166 2:400 
-0.9363961730393282 1:172 2:266 
-1 1:174 2:262 
-1 1:178 2:300 
-0.04546374500643821 1:180 2:296 
-1 1:182 2:400 
-0.2567603696246213 1:184 2:290 
-0.186480442830086 1:190 2:323 
-0.08210410066598213 1:192 2:343 
-1 1:196 2:400 
-0.0950807171563489 1:198 2:357 
-0.2330154164190003 1:200 2:356 
-0.08781711420663686 1:202 2:360 
-0.05086464588255549 1:206 2:376 
-1 1:210 2:400 
-0.09602868150883201 1:212 2:385 
-0.1379869833924688 1:216 2:389 
-1 1:100 2:386 
-0.4231802772490973 1:102 2:374 
-1 1:104 2:331 
-0.7860579811840471 1:106 2:277 
-0.9876580682989247 1:108 2:317 
-1 1:110 2:400 
-0.04564910029657131 1:112 2:299 
-0.9591586301479825 1:114 2:306 
-0.06142370417770595 1:116 2:286 
-0.03580515060556212 1:120 2:305 
-1 1:122 2:254 
-1 1:124 2:400 
-0.8619757703934883 1:126 2:319 
-0.8801320981309659 1:128 2:308 
-1 1:132 2:293 
-0.3374702711783098 1:134 2:307 
-0.3582588088808172 1:136 2:292 
-1 1:138 2:400 
-0.04761087313135834 1:140 2:319 
-0.1222545751642536 1:142 2:314 
-0.09401958981376983 1:144 2:285 
-0.8058792244495009 1:146 2:121 
-1 1:148 2:229 
-0.8405929955524102 1:150 2:214 
-1 1:152 2:400 
-1 1:154 2:223 
-0.5161878969648979 1:156 2:34 
-0.04899786815336208 1:158 2:180 
-0.5825213963532644 1:160 2:105 
-1 1:164 2:261 
-1 1:166 2:400 
-0.1048651016273097 1:168 2:265 
-0.3198847203690288 1:170 2:212 
-0.4042674275475161 1:172 2:267 
-1 1:176 2:289 
-0.273052176794103 1:180 2:294 
-1 1:182 2:400 
-0.2055985724340925 1:184 2:288 
-0.06876356145005458 1:186 2:264 
-0.420020734585301 1:192 2:342 
-0.2488621414413162 1:194 2:352 
-1 1:196 2:400 
-0.1412853662734619 1:198 2:352 
-0.06942399986292762 1:206 2:376 
-1 1:210 2:400 
-0.2716630028849657 1:212 2:385 
-0.03956750866868754 1:216 2:385 
-1 1:98 2:387 
-1 1:100 2:384 
-1 1:106 2:284 
-0.1823058066509816 1:108 2:327 
-1 1:110 2:400 
-0.6451361916497497 1:112 2:306 
-0.728451165661381 1:114 2:316 
-0.8413107427966695 1:116 2:299 
-1 1:118 2:217 
-0.2360206312124257 1:120 2:305 
-1 1:122 2:272 
-1 1:124 2:400 
-0.03641648148500279 1:126 2:325 
-0.2913645986659534 1:128 2:317 
-0.1296115074175528 1:132 2:303 
-0.6324615901187686 1:134 2:311 
-1 1:136 2:300 
-1 1:138 2:400 
-0.0007617416948692661 1:140 2:325 
-1 1:142 2:321 
-1 1:144 2:289 
-1 1:146 2:146 
-1 1:148 2:242 
-0.9096886433731197 1:150 2:232 
-1 1:152 2:400 
-1 1:154 2:229 
-0.0574078017591451 1:156 2:66 
-0.2857220243712091 1:158 2:193 
-1 1:160 2:124 
-1 1:162 2:216 
-0.6088871189713519 1:164 2:283 
-1 1:166 2:400 
-0.6935080182790534 1:168 2:275 
-0.6971943216230603 1:172 2:272 
-0.4265591685450027 1:174 2:264 
-0.2947357061169295 1:176 2:304 
-1 1:180 2:308 
-1 1:182 2:400 
-0.1093270183141522 1:186 2:277 
-0.6329621237156833 1:190 2:325 
-0.2232731543490043 1:192 2:344 
-0.1067539845058181 1:194 2:355 
-1 1:196 2:400 
-0.06209175772963191 1:198 2:354 
-0.1342479728724666 1:202 2:362 
-1 1:210 2:400 
-0.2221283341432515 1:212 2:387 
-0.06513159496947624 1:214 2:385 
-0.4661046337789987 1:216 2:387 
-0.9705718740677525 1:98 2:389 
-1 1:100 2:382 
-1 1:102 2:372 
-1 1:104 2:335 
-0.3831570652403427 1:106 2:276 
-1 1:108 2:327 
-1 1:110 2:400 
-0.4036460214381334 1:116 2:297 
-1 1:118 2:208 
-0.08934624572894831 1:120 2:297 
-1 1:122 2:258 
-1 1:124 2:400 
-1 1:126 2:320 
-0.4206127228684212 1:128 2:318 
-1 1:130 2:276 
-0.2481377269789208 1:132 2:306 
-0.3194089292843735 1:134 2:309 
-0.7792700820260057 1:136 2:297 
-1 1:138 2:400 
-0.60505908122477 1:140 2:319 
-0.8034766999957222 1:142 2:318 
-1 1:144 2:290 
-0.1944507379122325 1:146 2:144 
-1 1:148 2:245 
-1 1:150 2:230 
-1 1:152 2:400 
-0.9559002561372503 1:154 2:227 
-0.5605480488579752 1:156 2:53 
-0.9495875421122535 1:158 2:194 
-0.4275086940142534 1:162 2:192 
-0.4009266949590543 1:164 2:279 
-1 1:166 2:400 
-1 1:170 2:221 
-0.6414837355708221 1:172 2:265 
-0.4200128981752466 1:176 2:298 
-1 1:180 2:311 
-1 1:182 2:400 
-0.2431578576763497 1:184 2:291 
-0.3886607947251891 1:186 2:276 
-0.430370438022085 1:188 2:263 
-0.2479071311043801 1:190 2:321 
-0.45698506875294 1:192 2:343 
-0.03868313087627381 1:194 2:351 
-1 1:196 2:400 
-0.3924468040858804 1:198 2:359 
-0.07929302262286467 1:200 2:360 
-1 1:210 2:400 
-1 1:98 2:384 
-1 1:100 2:383 
-0.5309870605689352 1:102 2:372 
-0.1735028356805393 1:104 2:333 
-0.8830998647449837 1:106 2:274 
-0.8077155525583853 1:108 2:324 
-1 1:110 2:400 
-0.8562297006396887 1:112 2:315 
-0.6909054087907009 1:114 2:314 
-0.9080401303152486 1:116 2:294 
-0.8731129417000718 1:118 2:195 
-1 1:120 2:301 
-1 1:122 2:268 
-1 1:124 2:400 
-1 1:126 2:321 
-0.2739641054666455 1:128 2:315 
-1 1:130 2:277 
-0.7620737497286126 1:132 2:303 
-0.0600293323537992 1:134 2:305 
-1 1:136 2:296 
-1 1:138 2:400 
-1 1:142 2:320 
-1 1:146 2:141 
-0.4549247505546999 1:148 2:237 
-1 1:150 2:224 
-1 1:152 2:400 
-1 1:154 2:219 
-0.8524277976925826 1:156 2:52 
-1 1:158 2:187 
-0.9220832711786261 1:160 2:122 
-1 1:162 2:195 
-0.3725451264135428 1:164 2:280 
-1 1:166 2:400 
-0.3904684589961652 1:170 2:218 
-0.9748521123949001 1:172 2:272 
-0.4196186215657415 1:174 2:256 
-0.337071239900839 1:176 2:302 
-1 1:178 2:307 
-0.3870587830361736 1:180 2:306 
-1 1:182 2:400 
-0.1524740395304597 1:184 2:290 
-0.07456742410781562 1:186 2:277 
-0.1568629295777843 1:188 2:269 
-0.02689565818795719 1:190 2:321 
-0.3488463646407921 1:194 2:351 
-1 1:196 2:400 
-0.3470402106895209 1:204 2:366 
-0.1236892946204372 1:206 2:376 
-0.1624043140418949 1:208 2:379 
-1 1:210 2:400 
-0.08032350873470573 1:212 2:387 
-1 1:100 2:383 
-1 1:102 2:368 
-0.9493260182851327 1:106 2:299 
-0.9260947280476151 1:108 2:294 
-1 1:110 2:400 
-0.8414744499930036 1:112 2:308 
-0.9018738714453367 1:114 2:304 
-0.4957948734289593 1:116 2:286 
-0.8427073618148315 1:120 2:293 
-1 1:122 2:253 
-1 1:124 2:400 
-0.5203057395148301 1:130 2:261 
-1 1:132 2:295 
-1 1:134 2:299 
-1 1:136 2:291 
-1 1:138 2:400 
-0.5364428208109697 1:140 2:315 
-0.519955421822587 1:142 2:312 
-1 1:144 2:277 
-1 1:146 2:126 
-1 1:148 2:228 
-1 1:150 2:225 
-1 1:152 2:400 
-0.9844409177190595 1:154 2:203 
-1 1:156 2:24 
-1 1:158 2:159 
-0.09540292585320757 1:160 2:104 
-0.06526922789677038 1:162 2:177 
-1 1:164 2:265 
-1 1:166 2:400 
-1 1:168 2:263 
-1 1:172 2:257 
-1 1:174 2:225 
-0.5543295972875247 1:176 2:290 
-1 1:178 2:305 
-0.9972637902889412 1:180 2:292 
-1 1:182 2:400 
-0.4491517918748435 1:186 2:265 
-0.03771818474335994 1:188 2:256 
-0.9130796256157881 1:190 2:309 
-0.2947429063744884 1:194 2:346 
-1 1:196 2:400 
-0.03952411486715905 1:204 2:362 
-1 1:210 2:400 
-0.03073873761343251 1:214 2:384 
