svm_type c_svc
kernel_type rbf
gamma 0.0026455
nr_class 2
total_sv 44
rho 0.24
label 1 -1
nr_sv 19 25
SV
1 1:768 2:0 3:0 4:0 5:0 6:0 7:0 8:0 9:0 10:0 11:936 12:7 13:3 14:3 15:0 16:1 17:1 18:1 19:0 20:0 21:764 22:11 23:3 24:3 25:4 26:2 27:4 28:2 29:1 30:0 31:767 32:2 33:0 34:0 35:0 36:0 37:0 38:0 39:0 40:0 41:767 42:2 43:0 44:0 45:0 46:0 47:0 48:0 49:0 50:0 51:767 52:0 53:0 54:0 55:0 56:0 57:0 58:0 59:0 60:0 61:952 62:4 63:1 64:0 65:0 66:0 67:0 68:0 69:0 70:0 71:787 72:7 73:4 74:1 75:1 76:0 77:0 78:0 79:0 80:0 81:771 82:1 83:0 84:0 85:0 86:0 87:0 88:0 89:0 90:0 91:771 92:1 93:0 94:0 95:0 96:0 97:0 98:0 99:0 100:0 101:946 102:8 103:2 104:1 105:0 106:0 107:0 108:0 109:0 110:0 111:803 112:1 113:0 114:0 115:0 116:0 117:0 118:0 119:0 120:0 121:767 122:3 123:0 124:0 125:0 126:0 127:0 128:0 129:0 130:0 131:945 132:7 133:1 134:1 135:0 136:0 137:0 138:0 139:0 140:0 141:945 142:7 143:1 144:1 145:0 146:0 147:0 148:0 149:0 150:0 151:782 152:10 153:5 154:3 155:0 156:0 157:0 158:0 159:0 160:0 161:770 162:2 163:1 164:0 165:0 166:0 167:0 168:0 169:0 170:0 171:768 172:0 173:0 174:0 175:0 176:0 177:0 178:0 179:0 180:0 181:916 182:11 183:3 184:4 185:2 186:5 187:3 188:0 189:0 190:0 191:916 192:11 193:3 194:4 195:2 196:5 197:3 198:0 199:0 200:0 201:916 202:11 203:3 204:4 205:2 206:5 207:3 208:0 209:0 210:0 211:916 212:11 213:3 214:4 215:2 216:5 217:3 218:0 219:0 220:0 221:916 222:11 223:3 224:4 225:2 226:5 227:3 228:0 229:0 230:0 231:916 232:11 233:3 234:4 235:2 236:5 237:3 238:0 239:0 240:0 241:916 242:11 243:3 244:4 245:2 246:5 247:3 248:0 249:0 250:0 251:77 252:6 253:3 254:3 255:3 256:2 257:1 258:0 259:0 260:0 261:1 262:0 263:1 264:0 265:0 266:1 267:1 268:1 269:0 270:1 271:6 272:0 273:10 274:9 275:8 276:12 277:27 278:39 279:0 280:36 281:84 282:99 283:43 284:111 285:65 286:0 287:68 288:209 289:72 290:101 291:140 292:115 293:0 294:236 295:171 296:118 297:0 298:118 299:57 300:36 301:34 302:32 303:18 304:0 305:6 306:5 307:10 308:8 309:41 310:28 311:0 312:27 313:55 314:28 315:33 316:80 317:115 318:0 319:335 320:220 321:328 322:215 323:254 324:176 325:0 326:284 327:238 328:257 329:68 330:10 331:0 332:0 333:0 334:0 335:0 336:0 337:0 338:0 339:0 340:0 341:0 342:0 343:0 344:0 345:0 346:0 347:0 348:0 349:0 350:0 351:0 352:0 353:0 354:0 355:0 356:0 357:0 358:1 359:9 360:23 361:28 362:30 363:27 364:0 365:27 366:30 367:26 368:19 369:25 370:24 371:0 372:4 373:1 374:0 375:0 376:0 377:0 378:0 
1 1:768 2:0 3:0 4:0 5:0 6:0 7:0 8:0 9:0 10:0 11:924 12:11 13:4 14:1 15:3 16:2 17:1 18:3 19:0 20:0 21:761 22:12 23:2 24:2 25:3 26:4 27:2 28:4 29:2 30:0 31:766 32:2 33:0 34:0 35:0 36:0 37:0 38:0 39:0 40:0 41:766 42:2 43:0 44:0 45:0 46:0 47:0 48:0 49:0 50:0 51:767 52:0 53:0 54:0 55:0 56:0 57:0 58:0 59:0 60:0 61:936 62:13 63:4 64:0 65:1 66:0 67:0 68:0 69:0 70:0 71:778 72:10 73:2 74:1 75:2 76:1 77:2 78:1 79:1 80:0 81:770 82:2 83:0 84:0 85:0 86:0 87:0 88:0 89:0 90:0 91:770 92:2 93:0 94:0 95:0 96:0 97:0 98:0 99:0 100:0 101:943 102:13 103:2 104:1 105:0 106:0 107:0 108:0 109:0 110:0 111:802 112:3 113:0 114:0 115:0 116:0 117:0 118:0 119:0 120:0 121:767 122:2 123:1 124:0 125:0 126:0 127:0 128:0 129:0 130:0 131:943 132:6 133:2 134:1 135:1 136:1 137:0 138:0 139:0 140:0 141:943 142:6 143:2 144:1 145:1 146:1 147:0 148:0 149:0 150:0 151:764 152:26 153:5 154:3 155:0 156:0 157:0 158:0 159:0 160:0 161:767 162:5 163:1 164:0 165:0 166:0 167:0 168:0 169:0 170:0 171:767 172:1 173:0 174:0 175:0 176:0 177:0 178:0 179:0 180:0 181:918 182:13 183:4 184:4 185:3 186:3 187:2 188:0 189:0 190:0 191:918 192:13 193:4 194:4 195:3 196:3 197:2 198:0 199:0 200:0 201:918 202:13 203:4 204:4 205:3 206:3 207:2 208:0 209:0 210:0 211:918 212:13 213:4 214:4 215:3 216:3 217:2 218:0 219:0 220:0 221:918 222:13 223:4 224:4 225:3 226:3 227:2 228:0 229:0 230:0 231:918 232:13 233:4 234:4 235:3 236:3 237:2 238:0 239:0 240:0 241:918 242:13 243:4 244:4 245:3 246:3 247:2 248:0 249:0 250:0 251:90 252:7 253:2 254:3 255:1 256:2 257:0 258:0 259:1 260:0 261:0 262:0 263:2 264:1 265:0 266:1 267:1 268:1 269:0 270:0 271:1 272:0 273:2 274:3 275:9 276:9 277:20 278:27 279:0 280:31 281:81 282:111 283:43 284:109 285:63 286:0 287:65 288:222 289:80 290:126 291:153 292:137 293:0 294:234 295:221 296:103 297:0 298:84 299:44 300:34 301:32 302:21 303:12 304:0 305:4 306:2 307:12 308:11 309:43 310:22 311:0 312:28 313:43 314:35 315:26 316:79 317:119 318:0 319:333 320:211 321:357 322:199 323:248 324:159 325:0 326:274 327:252 328:249 329:61 330:7 331:0 332:0 333:0 334:0 335:0 336:0 337:0 338:0 339:0 340:0 341:0 342:0 343:0 344:0 345:0 346:0 347:0 348:0 349:0 350:0 351:0 352:0 353:0 354:0 355:0 356:0 357:0 358:0 359:8 360:19 361:30 362:33 363:25 364:0 365:26 366:31 367:23 368:27 369:24 370:37 371:0 372:4 373:2 374:0 375:0 376:0 377:0 378:0 
1 1:768 2:0 3:0 4:0 5:0 6:0 7:0 8:0 9:0 10:0 11:885 12:26 13:4 14:3 15:3 16:21 17:3 18:1 19:1 20:0 21:732 22:19 23:3 24:2 25:3 26:10 27:5 28:11 29:10 30:0 31:760 32:3 33:0 34:0 35:0 36:2 37:1 38:2 39:2 40:0 41:760 42:3 43:0 44:0 45:0 46:2 47:1 48:2 49:2 50:0 51:766 52:0 53:0 54:0 55:0 56:0 57:0 58:0 59:0 60:0 61:912 62:17 63:5 64:5 65:1 66:5 67:0 68:0 69:0 70:0 71:761 72:13 73:5 74:4 75:2 76:4 77:2 78:1 79:1 80:0 81:766 82:2 83:1 84:0 85:0 86:0 87:0 88:0 89:0 90:0 91:766 92:2 93:1 94:0 95:0 96:0 97:0 98:0 99:0 100:0 101:927 102:12 103:5 104:3 105:1 106:0 107:0 108:0 109:0 110:0 111:799 112:2 113:1 114:0 115:0 116:0 117:0 118:0 119:0 120:0 121:767 122:4 123:1 124:0 125:0 126:0 127:0 128:0 129:0 130:0 131:948 132:6 133:2 134:1 135:0 136:0 137:0 138:0 139:0 140:0 141:948 142:6 143:2 144:1 145:0 146:0 147:0 148:0 149:0 150:0 151:793 152:8 153:2 154:1 155:0 156:0 157:0 158:0 159:0 160:0 161:773 162:1 163:0 164:0 165:0 166:0 167:0 168:0 169:0 170:0 171:768 172:0 173:0 174:0 175:0 176:0 177:0 178:0 179:0 180:0 181:900 182:9 183:7 184:3 185:5 186:2 187:4 188:13 189:3 190:0 191:900 192:9 193:7 194:3 195:5 196:2 197:4 198:13 199:3 200:0 201:900 202:9 203:7 204:3 205:5 206:2 207:4 208:13 209:3 210:0 211:900 212:9 213:7 214:3 215:5 216:2 217:4 218:13 219:3 220:0 221:900 222:9 223:7 224:3 225:5 226:2 227:4 228:13 229:3 230:0 231:900 232:9 233:7 234:3 235:5 236:2 237:4 238:13 239:3 240:0 241:900 242:9 243:7 244:3 245:5 246:2 247:4 248:13 249:3 250:0 251:90 252:9 253:3 254:3 255:2 256:1 257:1 258:0 259:0 260:2 261:1 262:0 263:0 264:0 265:0 266:0 267:0 268:1 269:1 270:1 271:1 272:0 273:1 274:1 275:6 276:6 277:18 278:23 279:0 280:26 281:76 282:89 283:38 284:99 285:67 286:0 287:60 288:211 289:93 290:122 291:170 292:121 293:0 294:179 295:183 296:92 297:0 298:81 299:41 300:32 301:29 302:21 303:10 304:0 305:4 306:2 307:8 308:8 309:40 310:19 311:0 312:33 313:42 314:27 315:27 316:77 317:106 318:0 319:286 320:199 321:321 322:177 323:230 324:143 325:0 326:246 327:217 328:234 329:56 330:3 331:0 332:0 333:0 334:0 335:0 336:0 337:0 338:0 339:0 340:0 341:0 342:0 343:0 344:0 345:0 346:0 347:0 348:0 349:0 350:0 351:0 352:0 353:0 354:0 355:0 356:0 357:0 358:0 359:8 360:19 361:24 362:31 363:21 364:0 365:20 366:26 367:23 368:26 369:19 370:35 371:0 372:6 373:1 374:1 375:0 376:0 377:0 378:0 
1 1:768 2:0 3:0 4:0 5:0 6:0 7:0 8:0 9:0 10:0 11:923 12:17 13:1 14:3 15:4 16:2 17:0 18:0 19:0 20:0 21:761 22:16 23:4 24:2 25:4 26:3 27:2 28:2 29:2 30:0 31:766 32:3 33:0 34:0 35:0 36:0 37:0 38:0 39:0 40:0 41:766 42:3 43:0 44:0 45:0 46:0 47:0 48:0 49:0 50:0 51:767 52:0 53:0 54:0 55:0 56:0 57:0 58:0 59:0 60:0 61:925 62:16 63:2 64:3 65:2 66:3 67:0 68:0 69:0 70:0 71:766 72:16 73:2 74:3 75:2 76:3 77:2 78:1 79:1 80:0 81:767 82:3 83:0 84:0 85:0 86:0 87:0 88:0 89:0 90:0 91:767 92:3 93:0 94:0 95:0 96:0 97:0 98:0 99:0 100:0 101:764 102:3 103:0 104:0 105:0 106:0 107:0 108:0 109:0 110:0 111:958 112:1 113:0 114:0 115:0 116:0 117:0 118:0 119:0 120:0 121:793 122:4 123:1 124:0 125:1 126:0 127:0 128:1 129:0 130:0 131:760 132:7 133:1 134:1 135:1 136:0 137:0 138:0 139:0 140:0 141:760 142:7 143:1 144:1 145:1 146:0 147:0 148:0 149:0 150:0 151:940 152:10 153:4 154:0 155:0 156:0 157:0 158:0 159:0 160:0 161:802 162:2 163:0 164:0 165:0 166:0 167:0 168:0 169:0 170:0 171:774 172:0 173:0 174:0 175:0 176:0 177:0 178:0 179:0 180:0 181:915 182:15 183:3 184:3 185:3 186:3 187:9 188:0 189:0 190:0 191:915 192:15 193:3 194:3 195:3 196:3 197:9 198:0 199:0 200:0 201:915 202:15 203:3 204:3 205:3 206:3 207:9 208:0 209:0 210:0 211:915 212:15 213:3 214:3 215:3 216:3 217:9 218:0 219:0 220:0 221:915 222:15 223:3 224:3 225:3 226:3 227:9 228:0 229:0 230:0 231:915 232:15 233:3 234:3 235:3 236:3 237:9 238:0 239:0 240:0 241:915 242:15 243:3 244:3 245:3 246:3 247:9 248:0 249:0 250:0 251:90 252:9 253:3 254:2 255:1 256:2 257:1 258:0 259:0 260:0 261:2 262:1 263:4 264:1 265:0 266:1 267:0 268:2 269:1 270:2 271:5 272:0 273:3 274:4 275:2 276:2 277:15 278:24 279:0 280:25 281:71 282:94 283:44 284:104 285:71 286:0 287:72 288:268 289:118 290:150 291:166 292:128 293:0 294:181 295:181 296:88 297:0 298:78 299:41 300:33 301:32 302:21 303:11 304:0 305:4 306:2 307:8 308:9 309:41 310:21 311:0 312:28 313:47 314:35 315:28 316:82 317:127 318:0 319:311 320:209 321:361 322:182 323:245 324:157 325:0 326:264 327:224 328:249 329:77 330:6 331:0 332:0 333:0 334:0 335:0 336:0 337:0 338:0 339:0 340:0 341:0 342:0 343:0 344:0 345:0 346:0 347:0 348:0 349:0 350:0 351:0 352:0 353:0 354:0 355:0 356:0 357:0 358:1 359:6 360:16 361:31 362:26 363:22 364:0 365:24 366:34 367:25 368:21 369:22 370:36 371:0 372:7 373:2 374:1 375:0 376:0 377:0 378:0 
1 1:768 2:0 3:0 4:0 5:0 6:0 7:0 8:0 9:0 10:0 11:900 12:25 13:2 14:2 15:5 16:10 17:5 18:0 19:0 20:0 21:710 22:35 23:3 24:1 25:3 26:9 27:14 28:5 29:12 30:0 31:756 32:7 33:0 34:0 35:0 36:1 37:2 38:1 39:2 40:0 41:756 42:7 43:0 44:0 45:0 46:1 47:2 48:1 49:2 50:0 51:765 52:1 53:0 54:0 55:0 56:0 57:0 58:0 59:0 60:0 61:924 62:16 63:3 64:2 65:3 66:3 67:1 68:0 69:0 70:0 71:738 72:20 73:5 74:2 75:4 76:8 77:8 78:2 79:9 80:0 81:762 82:4 83:1 84:0 85:0 86:1 87:1 88:0 89:1 90:0 91:762 92:4 93:1 94:0 95:0 96:1 97:1 98:0 99:1 100:0 101:944 102:8 103:2 104:2 105:0 106:0 107:0 108:0 109:0 110:0 111:803 112:1 113:0 114:0 115:0 116:0 117:0 118:0 119:0 120:0 121:760 122:4 123:1 124:2 125:1 126:2 127:0 128:0 129:0 130:0 131:835 132:9 133:3 134:2 135:4 136:42 137:23 138:22 139:13 140:0 141:835 142:9 143:3 144:2 145:4 146:42 147:23 148:22 149:13 150:0 151:764 152:10 153:4 154:2 155:0 156:8 157:4 158:4 159:2 160:0 161:767 162:2 163:0 164:0 165:0 166:1 167:0 168:0 169:0 170:0 171:883 172:44 173:1 174:1 175:2 176:8 177:12 178:1 179:0 180:0 181:466 182:46 183:7 184:3 185:23 186:47 187:79 188:74 189:26 190:0 191:466 192:46 193:7 194:3 195:23 196:47 197:79 198:74 199:26 200:0 201:466 202:46 203:7 204:3 205:23 206:47 207:79 208:74 209:26 210:0 211:466 212:46 213:7 214:3 215:23 216:47 217:79 218:74 219:26 220:0 221:466 222:46 223:7 224:3 225:23 226:47 227:79 228:74 229:26 230:0 231:466 232:46 233:7 234:3 235:23 236:47 237:79 238:74 239:26 240:0 241:466 242:46 243:7 244:3 245:23 246:47 247:79 248:74 249:26 250:0 251:105 252:8 253:4 254:3 255:2 256:2 257:1 258:0 259:2 260:8 261:11 262:17 263:4 264:5 265:0 266:9 267:6 268:5 269:4 270:6 271:6 272:0 273:10 274:10 275:9 276:11 277:27 278:33 279:0 280:32 281:80 282:104 283:44 284:111 285:126 286:0 287:122 288:268 289:106 290:119 291:138 292:134 293:0 294:192 295:187 296:72 297:0 298:65 299:41 300:38 301:36 302:22 303:12 304:0 305:5 306:4 307:6 308:11 309:42 310:25 311:0 312:28 313:65 314:38 315:31 316:69 317:98 318:0 319:289 320:213 321:388 322:192 323:265 324:168 325:0 326:282 327:239 328:271 329:94 330:3 331:0 332:0 333:0 334:0 335:0 336:0 337:0 338:0 339:0 340:0 341:0 342:0 343:0 344:0 345:0 346:0 347:0 348:0 349:0 350:0 351:0 352:0 353:0 354:0 355:0 356:0 357:0 358:2 359:9 360:18 361:24 362:34 363:23 364:0 365:27 366:31 367:24 368:28 369:22 370:42 371:0 372:7 373:2 374:0 375:0 376:0 377:0 378:0 
1 1:768 2:0 3:0 4:0 5:0 6:0 7:0 8:0 9:0 10:0 11:920 12:9 13:1 14:2 15:2 16:6 17:5 18:0 19:0 20:0 21:738 22:13 23:5 24:2 25:6 26:7 27:8 28:2 29:8 30:0 31:702 32:7 33:1 34:0 35:1 36:3 37:2 38:29 39:19 40:0 41:702 42:7 43:1 44:0 45:1 46:3 47:2 48:29 49:19 50:0 51:943 52:1 53:0 54:0 55:0 56:0 57:0 58:7 59:4 60:0 61:759 62:17 63:5 64:2 65:3 66:3 67:1 68:1 69:0 70:0 71:853 72:20 73:8 74:6 75:6 76:9 77:15 78:17 79:8 80:0 81:415 82:22 83:16 84:19 85:8 86:8 87:18 88:195 89:73 90:0 91:415 92:22 93:16 94:19 95:8 96:8 97:18 98:195 99:73 100:0 101:831 102:21 103:9 104:7 105:7 106:4 107:4 108:48 109:18 110:0 111:779 112:4 113:2 114:1 115:1 116:0 117:0 118:9 119:3 120:0 121:932 122:7 123:3 124:1 125:11 126:0 127:0 128:2 129:0 130:0 131:406 132:104 133:40 134:38 135:106 136:27 137:55 138:87 139:77 140:0 141:406 142:104 143:40 144:38 145:106 146:27 147:55 148:87 149:77 150:0 151:657 152:34 153:11 154:10 155:26 156:5 157:11 158:17 159:15 160:0 161:745 162:6 163:2 164:2 165:5 166:1 167:2 168:3 169:3 170:0 171:826 172:70 173:49 174:1 175:7 176:1 177:0 178:0 179:0 180:0 181:581 182:207 183:28 184:11 185:19 186:44 187:17 188:7 189:40 190:0 191:581 192:207 193:28 194:11 195:19 196:44 197:17 198:7 199:40 200:0 201:581 202:207 203:28 204:11 205:19 206:44 207:17 208:7 209:40 210:0 211:581 212:207 213:28 214:11 215:19 216:44 217:17 218:7 219:40 220:0 221:581 222:207 223:28 224:11 225:19 226:44 227:17 228:7 229:40 230:0 231:581 232:207 233:28 234:11 235:19 236:44 237:17 238:7 239:40 240:0 241:581 242:207 243:28 244:11 245:19 246:44 247:17 248:7 249:40 250:0 251:182 252:17 253:7 254:5 255:4 256:2 257:3 258:0 259:2 260:1 261:2 262:3 263:2 264:1 265:0 266:4 267:3 268:8 269:8 270:18 271:22 272:0 273:21 274:37 275:40 276:43 277:41 278:51 279:0 280:50 281:89 282:113 283:55 284:188 285:152 286:0 287:161 288:400 289:132 290:159 291:137 292:134 293:0 294:175 295:196 296:85 297:0 298:68 299:46 300:38 301:36 302:29 303:16 304:0 305:5 306:5 307:8 308:10 309:47 310:31 311:0 312:31 313:70 314:39 315:41 316:77 317:129 318:0 319:229 320:171 321:297 322:233 323:232 324:169 325:0 326:320 327:286 328:276 329:88 330:7 331:0 332:0 333:0 334:0 335:1 336:0 337:0 338:0 339:0 340:0 341:0 342:0 343:0 344:0 345:0 346:0 347:0 348:0 349:0 350:0 351:0 352:0 353:0 354:0 355:0 356:0 357:0 358:1 359:8 360:24 361:26 362:30 363:23 364:0 365:26 366:39 367:28 368:30 369:23 370:45 371:0 372:5 373:2 374:0 375:0 376:0 377:0 378:0 
1 1:768 2:0 3:0 4:0 5:0 6:0 7:0 8:0 9:0 10:0 11:924 12:10 13:2 14:2 15:2 16:4 17:2 18:1 19:3 20:0 21:751 22:11 23:4 24:3 25:3 26:4 27:7 28:4 29:4 30:0 31:775 32:29 33:7 34:5 35:7 36:11 37:31 38:48 39:27 40:0 41:775 42:29 43:7 44:5 45:7 46:11 47:31 48:48 49:27 50:0 51:769 52:5 53:1 54:1 55:1 56:2 57:6 58:9 59:5 60:0 61:741 62:15 63:3 64:2 65:2 66:0 67:1 68:1 69:1 70:0 71:863 72:21 73:7 74:6 75:5 76:11 77:21 78:7 79:1 80:0 81:569 82:48 83:6 84:7 85:28 86:16 87:46 88:34 89:22 90:0 91:569 92:48 93:6 94:7 95:28 96:16 97:46 98:34 99:22 100:0 101:720 102:13 103:3 104:2 105:5 106:3 107:9 108:6 109:4 110:0 111:947 112:4 113:0 114:0 115:1 116:0 117:2 118:1 119:1 120:0 121:803 122:0 123:0 124:0 125:0 126:0 127:0 128:0 129:0 130:0 131:811 132:22 133:7 134:8 135:16 136:35 137:14 138:5 139:24 140:0 141:811 142:22 143:7 144:8 145:16 146:35 147:14 148:5 149:24 150:0 151:769 152:8 153:3 154:3 155:3 156:7 157:2 158:1 159:4 160:0 161:768 162:1 163:0 164:0 165:0 166:1 167:0 168:0 169:0 170:0 171:951 172:1 173:1 174:0 175:0 176:3 177:1 178:0 179:0 180:0 181:651 182:33 183:11 184:9 185:12 186:20 187:20 188:3 189:10 190:0 191:651 192:33 193:11 194:9 195:12 196:20 197:20 198:3 199:10 200:0 201:651 202:33 203:11 204:9 205:12 206:20 207:20 208:3 209:10 210:0 211:651 212:33 213:11 214:9 215:12 216:20 217:20 218:3 219:10 220:0 221:651 222:33 223:11 224:9 225:12 226:20 227:20 228:3 229:10 230:0 231:651 232:33 233:11 234:9 235:12 236:20 237:20 238:3 239:10 240:0 241:651 242:33 243:11 244:9 245:12 246:20 247:20 248:3 249:10 250:0 251:242 252:19 253:6 254:4 255:3 256:3 257:3 258:0 259:3 260:3 261:3 262:1 263:3 264:2 265:0 266:2 267:2 268:2 269:2 270:4 271:9 272:0 273:23 274:31 275:35 276:33 277:85 278:79 279:0 280:61 281:96 282:119 283:61 284:177 285:169 286:0 287:163 288:376 289:164 290:250 291:158 292:161 293:0 294:193 295:207 296:104 297:0 298:106 299:58 300:43 301:38 302:35 303:22 304:0 305:8 306:6 307:16 308:13 309:60 310:30 311:0 312:37 313:66 314:44 315:47 316:89 317:148 318:0 319:287 320:173 321:347 322:234 323:269 324:181 325:0 326:357 327:316 328:359 329:80 330:3 331:0 332:0 333:0 334:0 335:0 336:0 337:0 338:0 339:0 340:0 341:0 342:0 343:0 344:0 345:0 346:0 347:0 348:0 349:0 350:0 351:0 352:0 353:0 354:0 355:0 356:0 357:0 358:2 359:9 360:27 361:31 362:49 363:30 364:0 365:25 366:43 367:32 368:27 369:41 370:37 371:0 372:6 373:1 374:1 375:0 376:1 377:0 378:0 
1 1:768 2:0 3:0 4:0 5:0 6:0 7:0 8:0 9:0 10:0 11:934 12:8 13:4 14:2 15:2 16:0 17:0 18:0 19:0 20:0 21:754 22:11 23:4 24:2 25:4 26:5 27:3 28:4 29:4 30:0 31:811 32:32 33:9 34:5 35:15 36:14 37:20 38:19 39:14 40:0 41:811 42:32 43:9 44:5 45:15 46:14 47:20 48:19 49:14 50:0 51:776 52:6 53:1 54:1 55:3 56:2 57:4 58:3 59:2 60:0 61:749 62:8 63:3 64:1 65:0 66:2 67:1 68:0 69:0 70:0 71:890 72:19 73:8 74:6 75:4 76:5 77:8 78:2 79:1 80:0 81:680 82:24 83:7 84:6 85:17 86:11 87:13 88:12 89:7 90:0 91:680 92:24 93:7 94:6 95:17 96:11 97:13 98:12 99:7 100:0 101:738 102:11 103:3 104:3 105:3 106:2 107:2 108:2 109:1 110:0 111:952 112:3 113:0 114:0 115:0 116:0 117:0 118:0 119:0 120:0 121:804 122:0 123:0 124:0 125:0 126:0 127:0 128:0 129:0 130:0 131:888 132:19 133:8 134:9 135:7 136:9 137:6 138:1 139:1 140:0 141:888 142:19 143:8 144:9 145:7 146:9 147:6 148:1 149:1 150:0 151:779 152:10 153:4 154:3 155:1 156:1 157:1 158:0 159:0 160:0 161:770 162:2 163:0 164:0 165:0 166:0 167:0 168:0 169:0 170:0 171:767 172:1 173:0 174:0 175:0 176:0 177:0 178:0 179:0 180:0 181:851 182:25 183:13 184:11 185:5 186:9 187:8 188:2 189:6 190:0 191:851 192:25 193:13 194:11 195:5 196:9 197:8 198:2 199:6 200:0 201:851 202:25 203:13 204:11 205:5 206:9 207:8 208:2 209:6 210:0 211:851 212:25 213:13 214:11 215:5 216:9 217:8 218:2 219:6 220:0 221:851 222:25 223:13 224:11 225:5 226:9 227:8 228:2 229:6 230:0 231:851 232:25 233:13 234:11 235:5 236:9 237:8 238:2 239:6 240:0 241:851 242:25 243:13 244:11 245:5 246:9 247:8 248:2 249:6 250:0 251:205 252:18 253:7 254:4 255:3 256:2 257:2 258:0 259:1 260:2 261:3 262:3 263:2 264:1 265:0 266:2 267:3 268:2 269:2 270:4 271:4 272:0 273:19 274:24 275:27 276:36 277:85 278:104 279:0 280:71 281:106 282:111 283:57 284:160 285:154 286:0 287:149 288:359 289:143 290:216 291:179 292:150 293:0 294:180 295:196 296:97 297:0 298:107 299:62 300:41 301:37 302:38 303:25 304:0 305:10 306:7 307:15 308:12 309:58 310:33 311:0 312:31 313:61 314:48 315:38 316:99 317:144 318:0 319:281 320:154 321:323 322:228 323:261 324:135 325:0 326:400 327:300 328:323 329:93 330:4 331:0 332:0 333:0 334:0 335:0 336:0 337:0 338:0 339:0 340:0 341:0 342:0 343:0 344:0 345:0 346:0 347:0 348:0 349:0 350:0 351:0 352:0 353:0 354:0 355:1 356:0 357:0 358:2 359:7 360:21 361:30 362:40 363:30 364:0 365:25 366:48 367:30 368:27 369:34 370:36 371:0 372:7 373:1 374:0 375:0 376:0 377:0 378:0 
1 1:768 2:0 3:0 4:0 5:0 6:0 7:0 8:0 9:0 10:0 11:936 12:11 13:3 14:1 15:1 16:1 17:0 18:0 19:0 20:0 21:756 22:15 23:4 24:4 25:2 26:4 27:3 28:4 29:3 30:0 31:831 32:40 33:8 34:7 35:12 36:9 37:13 38:5 39:11 40:0 41:831 42:40 43:8 44:7 45:12 46:9 47:13 48:5 49:11 50:0 51:780 52:8 53:1 54:1 55:2 56:1 57:2 58:1 59:2 60:0 61:757 62:10 63:1 64:1 65:0 66:0 67:0 68:0 69:0 70:0 71:904 72:21 73:5 74:4 75:5 76:6 77:2 78:2 79:2 80:0 81:737 82:23 83:7 84:6 85:3 86:5 87:2 88:1 89:1 90:0 91:737 92:23 93:7 94:6 95:3 96:5 97:2 98:1 99:1 100:0 101:750 102:11 103:4 104:2 105:0 106:1 107:0 108:0 109:0 110:0 111:763 112:2 113:1 114:0 115:0 116:0 117:0 118:0 119:0 120:0 121:958 122:0 123:0 124:0 125:0 126:0 127:0 128:0 129:0 130:0 131:760 132:11 133:5 134:4 135:3 136:5 137:3 138:0 139:1 140:0 141:760 142:11 143:5 144:4 145:3 146:5 147:3 148:0 149:1 150:0 151:761 152:5 153:1 154:1 155:0 156:1 157:0 158:0 159:0 160:0 161:766 162:1 163:0 164:0 165:0 166:0 167:0 168:0 169:0 170:0 171:959 172:0 173:0 174:0 175:0 176:0 177:0 178:0 179:0 180:0 181:735 182:22 183:9 184:5 185:5 186:4 187:2 188:0 189:0 190:0 191:735 192:22 193:9 194:5 195:5 196:4 197:2 198:0 199:0 200:0 201:735 202:22 203:9 204:5 205:5 206:4 207:2 208:0 209:0 210:0 211:735 212:22 213:9 214:5 215:5 216:4 217:2 218:0 219:0 220:0 221:735 222:22 223:9 224:5 225:5 226:4 227:2 228:0 229:0 230:0 231:735 232:22 233:9 234:5 235:5 236:4 237:2 238:0 239:0 240:0 241:735 242:22 243:9 244:5 245:5 246:4 247:2 248:0 249:0 250:0 251:214 252:16 253:7 254:5 255:2 256:3 257:3 258:0 259:2 260:1 261:1 262:2 263:1 264:2 265:0 266:3 267:2 268:2 269:3 270:3 271:4 272:0 273:9 274:20 275:27 276:22 277:76 278:104 279:0 280:83 281:116 282:104 283:53 284:150 285:108 286:0 287:137 288:328 289:156 290:199 291:215 292:162 293:0 294:177 295:183 296:92 297:0 298:108 299:61 300:48 301:39 302:39 303:26 304:0 305:12 306:8 307:14 308:9 309:56 310:35 311:0 312:26 313:71 314:47 315:45 316:93 317:142 318:0 319:302 320:167 321:280 322:246 323:258 324:132 325:0 326:400 327:296 328:330 329:71 330:4 331:1 332:0 333:0 334:0 335:0 336:0 337:0 338:0 339:0 340:0 341:0 342:0 343:0 344:0 345:0 346:1 347:0 348:0 349:0 350:0 351:0 352:0 353:0 354:0 355:0 356:0 357:0 358:1 359:8 360:22 361:30 362:41 363:33 364:0 365:30 366:39 367:25 368:28 369:35 370:48 371:0 372:6 373:2 374:0 375:0 376:0 377:0 378:0 
1 1:768 2:0 3:0 4:0 5:0 6:0 7:0 8:0 9:0 10:0 11:926 12:10 13:4 14:4 15:2 16:3 17:2 18:0 19:0 20:0 21:745 22:14 23:3 24:3 25:5 26:7 27:5 28:4 29:7 30:0 31:860 32:29 33:9 34:6 35:12 36:11 37:5 38:3 39:8 40:0 41:860 42:29 43:9 44:6 45:12 46:11 47:5 48:3 49:8 50:0 51:786 52:5 53:1 54:1 55:2 56:2 57:1 58:0 59:1 60:0 61:749 62:11 63:5 64:3 65:1 66:0 67:0 68:0 69:0 70:0 71:894 72:23 73:7 74:4 75:4 76:4 77:5 78:3 79:6 80:0 81:731 82:29 83:8 84:4 85:5 86:6 87:3 88:1 89:2 90:0 91:731 92:29 93:8 94:4 95:5 96:6 97:3 98:1 99:2 100:0 101:748 102:12 103:5 104:2 105:1 106:1 107:0 108:0 109:0 110:0 111:763 112:2 113:1 114:0 115:0 116:0 117:0 118:0 119:0 120:0 121:958 122:0 123:0 124:0 125:0 126:0 127:0 128:0 129:0 130:0 131:764 132:11 133:5 134:3 135:3 136:5 137:1 138:0 139:0 140:0 141:764 142:11 143:5 144:3 145:3 146:5 147:1 148:0 149:0 150:0 151:759 152:5 153:2 154:1 155:0 156:1 157:0 158:0 159:0 160:0 161:766 162:1 163:0 164:0 165:0 166:0 167:0 168:0 169:0 170:0 171:958 172:0 173:0 174:0 175:0 176:0 177:0 178:0 179:0 180:0 181:725 182:24 183:12 184:6 185:4 186:8 187:3 188:0 189:0 190:0 191:725 192:24 193:12 194:6 195:4 196:8 197:3 198:0 199:0 200:0 201:725 202:24 203:12 204:6 205:4 206:8 207:3 208:0 209:0 210:0 211:725 212:24 213:12 214:6 215:4 216:8 217:3 218:0 219:0 220:0 221:725 222:24 223:12 224:6 225:4 226:8 227:3 228:0 229:0 230:0 231:725 232:24 233:12 234:6 235:4 236:8 237:3 238:0 239:0 240:0 241:725 242:24 243:12 244:6 245:4 246:8 247:3 248:0 249:0 250:0 251:203 252:18 253:6 254:4 255:4 256:3 257:3 258:0 259:2 260:2 261:2 262:2 263:1 264:2 265:0 266:2 267:3 268:3 269:2 270:1 271:3 272:0 273:5 274:9 275:17 276:22 277:51 278:108 279:0 280:110 281:129 282:122 283:58 284:136 285:102 286:0 287:136 288:316 289:151 290:179 291:220 292:176 293:0 294:182 295:194 296:97 297:0 298:108 299:64 300:51 301:48 302:36 303:25 304:0 305:16 306:9 307:19 308:9 309:55 310:35 311:0 312:31 313:63 314:46 315:39 316:85 317:144 318:0 319:320 320:153 321:313 322:229 323:262 324:143 325:0 326:400 327:291 328:334 329:70 330:4 331:0 332:0 333:0 334:0 335:0 336:0 337:0 338:0 339:0 340:1 341:0 342:0 343:0 344:0 345:0 346:0 347:0 348:0 349:0 350:0 351:0 352:0 353:0 354:0 355:0 356:0 357:0 358:0 359:10 360:21 361:29 362:44 363:31 364:0 365:29 366:37 367:24 368:30 369:38 370:31 371:0 372:8 373:2 374:0 375:0 376:0 377:0 378:0 
1 1:768 2:0 3:0 4:0 5:0 6:0 7:0 8:0 9:0 10:0 11:924 12:12 13:3 14:3 15:2 16:3 17:2 18:0 19:0 20:0 21:757 22:16 23:4 24:4 25:2 26:5 27:4 28:1 29:0 30:0 31:849 32:30 33:12 34:8 35:11 36:10 37:7 38:4 39:11 40:0 41:849 42:30 43:12 44:8 45:11 46:10 47:7 48:4 49:11 50:0 51:784 52:6 53:2 54:1 55:2 56:2 57:1 58:0 59:2 60:0 61:753 62:10 63:2 64:2 65:0 66:1 67:0 68:0 69:0 70:0 71:904 72:18 73:7 74:3 75:4 76:4 77:4 78:1 79:2 80:0 81:736 82:22 83:7 84:4 85:6 86:8 87:6 88:1 89:1 90:0 91:736 92:22 93:7 94:4 95:6 96:8 97:6 98:1 99:1 100:0 101:760 102:5 103:2 104:0 105:1 106:1 107:1 108:0 109:0 110:0 111:765 112:2 113:0 114:0 115:0 116:0 117:0 118:0 119:0 120:0 121:959 122:0 123:0 124:0 125:0 126:0 127:0 128:0 129:0 130:0 131:761 132:12 133:4 134:4 135:5 136:4 137:2 138:0 139:0 140:0 141:761 142:12 143:4 144:4 145:5 146:4 147:2 148:0 149:0 150:0 151:759 152:7 153:3 154:1 155:1 156:0 157:0 158:0 159:0 160:0 161:766 162:1 163:0 164:0 165:0 166:0 167:0 168:0 169:0 170:0 171:957 172:0 173:0 174:0 175:0 176:0 177:0 178:0 179:0 180:0 181:725 182:24 183:9 184:8 185:5 186:8 187:4 188:2 189:2 190:0 191:725 192:24 193:9 194:8 195:5 196:8 197:4 198:2 199:2 200:0 201:725 202:24 203:9 204:8 205:5 206:8 207:4 208:2 209:2 210:0 211:725 212:24 213:9 214:8 215:5 216:8 217:4 218:2 219:2 220:0 221:725 222:24 223:9 224:8 225:5 226:8 227:4 228:2 229:2 230:0 231:725 232:24 233:9 234:8 235:5 236:8 237:4 238:2 239:2 240:0 241:725 242:24 243:9 244:8 245:5 246:8 247:4 248:2 249:2 250:0 251:205 252:18 253:6 254:4 255:4 256:2 257:3 258:0 259:2 260:2 261:2 262:2 263:3 264:2 265:0 266:1 267:2 268:2 269:1 270:4 271:3 272:0 273:6 274:10 275:15 276:20 277:40 278:110 279:0 280:121 281:142 282:117 283:59 284:149 285:101 286:0 287:142 288:314 289:141 290:196 291:228 292:181 293:0 294:196 295:206 296:97 297:0 298:102 299:73 300:51 301:51 302:42 303:27 304:0 305:15 306:9 307:19 308:12 309:54 310:37 311:0 312:30 313:65 314:43 315:41 316:90 317:137 318:0 319:349 320:147 321:274 322:248 323:259 324:155 325:0 326:400 327:302 328:344 329:75 330:16 331:1 332:0 333:0 334:0 335:0 336:0 337:0 338:0 339:0 340:0 341:0 342:0 343:0 344:0 345:0 346:0 347:0 348:1 349:0 350:0 351:0 352:0 353:0 354:0 355:0 356:0 357:0 358:2 359:12 360:17 361:40 362:43 363:25 364:0 365:28 366:44 367:28 368:32 369:32 370:37 371:0 372:5 373:3 374:0 375:0 376:0 377:0 378:0 
1 1:768 2:0 3:0 4:0 5:0 6:0 7:0 8:0 9:0 10:0 11:927 12:11 13:4 14:3 15:2 16:2 17:0 18:0 19:0 20:0 21:744 22:16 23:7 24:3 25:4 26:5 27:4 28:2 29:2 30:0 31:842 32:31 33:12 34:7 35:11 36:11 37:8 38:6 39:6 40:0 41:842 42:31 43:12 44:7 45:11 46:11 47:8 48:6 49:6 50:0 51:782 52:6 53:2 54:1 55:2 56:2 57:1 58:1 59:1 60:0 61:753 62:7 63:3 64:2 65:1 66:1 67:0 68:0 69:0 70:0 71:906 72:18 73:5 74:4 75:2 76:3 77:5 78:2 79:0 80:0 81:746 82:21 83:7 84:6 85:4 86:2 87:3 88:0 89:0 90:0 91:746 92:21 93:7 94:6 95:4 96:2 97:3 98:0 99:0 100:0 101:755 102:10 103:2 104:1 105:0 106:0 107:0 108:0 109:0 110:0 111:764 112:2 113:0 114:0 115:0 116:0 117:0 118:0 119:0 120:0 121:959 122:0 123:0 124:0 125:0 126:0 127:0 128:0 129:0 130:0 131:770 132:9 133:3 134:3 135:4 136:3 137:0 138:0 139:0 140:0 141:770 142:9 143:3 144:3 145:4 146:3 147:0 148:0 149:0 150:0 151:763 152:5 153:2 154:0 155:0 156:0 157:0 158:0 159:0 160:0 161:767 162:1 163:0 164:0 165:0 166:0 167:0 168:0 169:0 170:0 171:767 172:0 173:0 174:0 175:0 176:0 177:0 178:0 179:0 180:0 181:897 182:23 183:7 184:4 185:5 186:5 187:2 188:2 189:0 190:0 191:897 192:23 193:7 194:4 195:5 196:5 197:2 198:2 199:0 200:0 201:897 202:23 203:7 204:4 205:5 206:5 207:2 208:2 209:0 210:0 211:897 212:23 213:7 214:4 215:5 216:5 217:2 218:2 219:0 220:0 221:897 222:23 223:7 224:4 225:5 226:5 227:2 228:2 229:0 230:0 231:897 232:23 233:7 234:4 235:5 236:5 237:2 238:2 239:0 240:0 241:897 242:23 243:7 244:4 245:5 246:5 247:2 248:2 249:0 250:0 251:215 252:20 253:8 254:4 255:2 256:3 257:2 258:0 259:2 260:2 261:2 262:3 263:2 264:3 265:0 266:2 267:1 268:3 269:2 270:3 271:2 272:0 273:7 274:9 275:16 276:23 277:44 278:111 279:0 280:125 281:149 282:128 283:70 284:152 285:106 286:0 287:147 288:306 289:150 290:184 291:260 292:194 293:0 294:200 295:202 296:103 297:0 298:101 299:74 300:50 301:50 302:46 303:27 304:0 305:16 306:10 307:18 308:14 309:55 310:37 311:0 312:35 313:74 314:41 315:41 316:91 317:152 318:0 319:361 320:167 321:291 322:256 323:297 324:153 325:0 326:388 327:321 328:379 329:78 330:6 331:0 332:0 333:0 334:0 335:0 336:0 337:0 338:0 339:0 340:0 341:0 342:0 343:0 344:0 345:0 346:0 347:0 348:0 349:0 350:0 351:0 352:0 353:0 354:0 355:0 356:0 357:0 358:2 359:12 360:24 361:34 362:41 363:30 364:0 365:32 366:46 367:31 368:28 369:31 370:43 371:0 372:6 373:2 374:0 375:0 376:0 377:0 378:0 
1 1:768 2:0 3:0 4:0 5:0 6:0 7:0 8:0 9:0 10:0 11:933 12:8 13:4 14:1 15:2 16:4 17:0 18:0 19:0 20:0 21:752 22:15 23:5 24:2 25:3 26:7 27:5 28:1 29:0 30:0 31:877 32:27 33:10 34:9 35:3 36:7 37:5 38:2 39:3 40:0 41:877 42:27 43:10 44:9 45:3 46:7 47:5 48:2 49:3 50:0 51:789 52:5 53:2 54:1 55:0 56:1 57:1 58:0 59:0 60:0 61:760 62:6 63:2 64:1 65:0 66:0 67:0 68:0 69:0 70:0 71:916 72:12 73:4 74:4 75:4 76:3 77:2 78:1 79:1 80:0 81:746 82:23 83:7 84:5 85:3 86:3 87:2 88:1 89:0 90:0 91:746 92:23 93:7 94:5 95:3 96:3 97:2 98:1 99:0 100:0 101:753 102:10 103:3 104:2 105:0 106:0 107:0 108:0 109:0 110:0 111:764 112:2 113:0 114:0 115:0 116:0 117:0 118:0 119:0 120:0 121:959 122:0 123:0 124:0 125:0 126:0 127:0 128:0 129:0 130:0 131:776 132:9 133:4 134:2 135:2 136:1 137:1 138:0 139:0 140:0 141:776 142:9 143:4 144:2 145:2 146:1 147:1 148:0 149:0 150:0 151:764 152:4 153:2 154:1 155:0 156:0 157:0 158:0 159:0 160:0 161:767 162:0 163:0 164:0 165:0 166:0 167:0 168:0 169:0 170:0 171:955 172:0 173:1 174:0 175:0 176:1 177:0 178:0 179:0 180:0 181:743 182:18 183:7 184:5 185:4 186:5 187:4 188:2 189:0 190:0 191:743 192:18 193:7 194:5 195:4 196:5 197:4 198:2 199:0 200:0 201:743 202:18 203:7 204:5 205:4 206:5 207:4 208:2 209:0 210:0 211:743 212:18 213:7 214:5 215:4 216:5 217:4 218:2 219:0 220:0 221:743 222:18 223:7 224:5 225:4 226:5 227:4 228:2 229:0 230:0 231:743 232:18 233:7 234:5 235:4 236:5 237:4 238:2 239:0 240:0 241:743 242:18 243:7 244:5 245:4 246:5 247:4 248:2 249:0 250:0 251:251 252:20 253:7 254:3 255:3 256:3 257:2 258:0 259:3 260:3 261:2 262:1 263:1 264:2 265:0 266:1 267:2 268:1 269:3 270:2 271:4 272:0 273:8 274:12 275:29 276:25 277:59 278:117 279:0 280:119 281:138 282:112 283:72 284:151 285:96 286:0 287:149 288:334 289:124 290:188 291:239 292:167 293:0 294:217 295:220 296:92 297:0 298:98 299:70 300:50 301:49 302:45 303:23 304:0 305:17 306:10 307:19 308:15 309:52 310:29 311:0 312:39 313:85 314:45 315:36 316:91 317:132 318:0 319:328 320:160 321:314 322:242 323:251 324:160 325:0 326:400 327:306 328:320 329:90 330:5 331:0 332:0 333:0 334:0 335:0 336:0 337:0 338:0 339:0 340:0 341:0 342:0 343:0 344:0 345:0 346:0 347:0 348:0 349:0 350:0 351:0 352:0 353:0 354:0 355:0 356:0 357:0 358:1 359:8 360:23 361:43 362:52 363:33 364:0 365:32 366:45 367:28 368:30 369:34 370:32 371:0 372:6 373:2 374:0 375:0 376:0 377:0 378:0 
1 1:768 2:0 3:0 4:0 5:0 6:0 7:0 8:0 9:0 10:0 11:941 12:10 13:1 14:0 15:1 16:0 17:0 18:0 19:0 20:0 21:739 22:16 23:5 24:3 25:4 26:7 27:6 28:3 29:7 30:0 31:737 32:56 33:13 34:6 35:18 36:18 37:26 38:23 39:43 40:0 41:737 42:56 43:13 44:6 45:18 46:18 47:26 48:23 49:43 50:0 51:761 52:11 53:2 54:1 55:3 56:3 57:5 58:4 59:8 60:0 61:750 62:10 63:3 64:2 65:0 66:0 67:1 68:0 69:1 70:0 71:891 72:19 73:7 74:2 75:4 76:7 77:15 78:1 79:2 80:0 81:642 82:32 83:8 84:6 85:11 86:23 87:24 88:7 89:29 90:0 91:642 92:32 93:8 94:6 95:11 96:23 97:24 98:7 99:29 100:0 101:735 102:9 103:3 104:2 105:2 106:4 107:4 108:1 109:5 110:0 111:950 112:3 113:0 114:0 115:0 116:1 117:1 118:0 119:1 120:0 121:804 122:0 123:0 124:0 125:0 126:0 127:0 128:0 129:0 130:0 131:872 132:16 133:5 134:7 135:7 136:17 137:5 138:3 139:14 140:0 141:872 142:16 143:5 144:7 145:7 146:17 147:5 148:3 149:14 150:0 151:776 152:8 153:4 154:2 155:1 156:3 157:1 158:0 159:2 160:0 161:769 162:1 163:0 164:0 165:0 166:0 167:0 168:0 169:0 170:0 171:767 172:0 173:0 174:0 175:0 176:0 177:0 178:0 179:0 180:0 181:810 182:29 183:13 184:12 185:15 186:15 187:18 188:4 189:7 190:0 191:810 192:29 193:13 194:12 195:15 196:15 197:18 198:4 199:7 200:0 201:810 202:29 203:13 204:12 205:15 206:15 207:18 208:4 209:7 210:0 211:810 212:29 213:13 214:12 215:15 216:15 217:18 218:4 219:7 220:0 221:810 222:29 223:13 224:12 225:15 226:15 227:18 228:4 229:7 230:0 231:810 232:29 233:13 234:12 235:15 236:15 237:18 238:4 239:7 240:0 241:810 242:29 243:13 244:12 245:15 246:15 247:18 248:4 249:7 250:0 251:228 252:18 253:7 254:3 255:4 256:3 257:2 258:0 259:1 260:1 261:2 262:2 263:3 264:2 265:0 266:2 267:1 268:3 269:2 270:3 271:4 272:0 273:11 274:25 275:26 276:27 277:48 278:100 279:0 280:89 281:118 282:111 283:65 284:140 285:100 286:0 287:154 288:323 289:134 290:181 291:227 292:161 293:0 294:217 295:216 296:93 297:0 298:95 299:68 300:56 301:49 302:45 303:23 304:0 305:16 306:11 307:16 308:14 309:47 310:29 311:0 312:39 313:65 314:56 315:33 316:95 317:134 318:0 319:344 320:178 321:291 322:239 323:288 324:165 325:0 326:360 327:318 328:308 329:109 330:5 331:0 332:0 333:0 334:0 335:0 336:0 337:0 338:0 339:0 340:0 341:0 342:0 343:0 344:0 345:0 346:0 347:0 348:0 349:0 350:0 351:0 352:1 353:0 354:0 355:0 356:0 357:0 358:1 359:8 360:26 361:30 362:42 363:26 364:0 365:23 366:47 367:25 368:23 369:38 370:34 371:0 372:7 373:2 374:0 375:0 376:1 377:0 378:0 
1 1:768 2:0 3:0 4:0 5:0 6:0 7:0 8:0 9:0 10:0 11:934 12:13 13:3 14:2 15:2 16:0 17:0 18:0 19:0 20:0 21:745 22:18 23:4 24:3 25:5 26:3 27:9 28:4 29:2 30:0 31:728 32:6 33:1 34:1 35:1 36:2 37:8 38:19 39:2 40:0 41:728 42:6 43:1 44:1 45:1 46:2 47:8 48:19 49:2 50:0 51:760 52:1 53:0 54:0 55:0 56:0 57:1 58:3 59:0 60:0 61:931 62:16 63:3 64:1 65:0 66:0 67:0 68:0 69:0 70:0 71:677 72:17 73:9 74:4 75:3 76:22 77:20 78:33 79:7 80:0 81:530 82:16 83:4 84:2 85:4 86:13 87:116 88:251 89:19 90:0 91:530 92:16 93:4 94:2 95:4 96:13 97:116 98:251 99:19 100:0 101:702 102:10 103:4 104:2 105:1 106:2 107:23 108:50 109:3 110:0 111:754 112:2 113:0 114:0 115:0 116:0 117:4 118:10 119:0 120:0 121:913 122:7 123:0 124:0 125:1 126:30 127:1 128:2 129:0 130:0 131:337 132:73 133:36 134:11 135:20 136:60 137:146 138:49 139:42 140:0 141:337 142:73 143:36 144:11 145:20 146:60 147:146 148:49 149:42 150:0 151:673 152:20 153:8 154:2 155:4 156:12 157:29 158:9 159:8 160:0 161:936 162:5 163:2 164:0 165:1 166:3 167:7 168:2 169:2 170:0 171:714 172:62 173:13 174:0 175:6 176:3 177:1 178:0 179:0 180:0 181:477 182:133 183:81 184:19 185:15 186:75 187:41 188:10 189:26 190:0 191:477 192:133 193:81 194:19 195:15 196:75 197:41 198:10 199:26 200:0 201:477 202:133 203:81 204:19 205:15 206:75 207:41 208:10 209:26 210:0 211:477 212:133 213:81 214:19 215:15 216:75 217:41 218:10 219:26 220:0 221:477 222:133 223:81 224:19 225:15 226:75 227:41 228:10 229:26 230:0 231:477 232:133 233:81 234:19 235:15 236:75 237:41 238:10 239:26 240:0 241:477 242:133 243:81 244:19 245:15 246:75 247:41 248:10 249:26 250:0 251:102 252:6 253:4 254:2 255:3 256:1 257:1 258:0 259:2 260:1 261:1 262:1 263:1 264:3 265:0 266:7 267:19 268:26 269:23 270:14 271:7 272:0 273:12 274:13 275:9 276:17 277:31 278:33 279:0 280:52 281:77 282:108 283:52 284:121 285:94 286:0 287:71 288:260 289:126 290:166 291:188 292:161 293:0 294:243 295:227 296:82 297:0 298:95 299:66 300:48 301:42 302:44 303:20 304:0 305:9 306:9 307:11 308:14 309:48 310:25 311:0 312:29 313:78 314:45 315:35 316:76 317:134 318:0 319:313 320:237 321:375 322:216 323:246 324:185 325:0 326:315 327:289 328:323 329:71 330:3 331:1 332:0 333:0 334:0 335:0 336:0 337:0 338:0 339:0 340:0 341:0 342:0 343:0 344:0 345:0 346:0 347:0 348:0 349:0 350:0 351:0 352:0 353:0 354:0 355:0 356:0 357:0 358:1 359:9 360:24 361:30 362:38 363:25 364:0 365:26 366:37 367:25 368:26 369:35 370:36 371:0 372:7 373:1 374:0 375:0 376:0 377:0 378:0 
1 1:768 2:0 3:0 4:0 5:0 6:0 7:0 8:0 9:0 10:0 11:926 12:14 13:2 14:3 15:2 16:2 17:1 18:0 19:0 20:0 21:764 22:15 23:3 24:3 25:2 26:3 27:3 28:2 29:0 30:0 31:767 32:3 33:0 34:0 35:0 36:0 37:0 38:0 39:0 40:0 41:767 42:3 43:0 44:0 45:0 46:0 47:0 48:0 49:0 50:0 51:767 52:0 53:0 54:0 55:0 56:0 57:0 58:0 59:0 60:0 61:930 62:12 63:4 64:3 65:1 66:1 67:0 68:0 69:0 70:0 71:769 72:13 73:6 74:3 75:2 76:1 77:0 78:0 79:0 80:0 81:768 82:2 83:1 84:0 85:0 86:0 87:0 88:0 89:0 90:0 91:768 92:2 93:1 94:0 95:0 96:0 97:0 98:0 99:0 100:0 101:924 102:14 103:6 104:2 105:2 106:0 107:0 108:0 109:0 110:0 111:799 112:2 113:1 114:0 115:0 116:0 117:0 118:0 119:0 120:0 121:836 122:8 123:4 124:2 125:6 126:101 127:0 128:0 129:0 130:0 131:676 132:12 133:3 134:2 135:7 136:72 137:3 138:4 139:15 140:0 141:676 142:12 143:3 144:2 145:7 146:72 147:3 148:4 149:15 150:0 151:900 152:20 153:3 154:5 155:2 156:18 157:0 158:1 159:3 160:0 161:794 162:4 163:0 164:1 165:0 166:3 167:0 168:0 169:0 170:0 171:828 172:50 173:19 174:3 175:4 176:47 177:0 178:0 179:0 180:0 181:622 182:31 183:22 184:17 185:28 186:130 187:74 188:15 189:10 190:0 191:622 192:31 193:22 194:17 195:28 196:130 197:74 198:15 199:10 200:0 201:622 202:31 203:22 204:17 205:28 206:130 207:74 208:15 209:10 210:0 211:622 212:31 213:22 214:17 215:28 216:130 217:74 218:15 219:10 220:0 221:622 222:31 223:22 224:17 225:28 226:130 227:74 228:15 229:10 230:0 231:622 232:31 233:22 234:17 235:28 236:130 237:74 238:15 239:10 240:0 241:622 242:31 243:22 244:17 245:28 246:130 247:74 248:15 249:10 250:0 251:96 252:6 253:3 254:2 255:0 256:1 257:1 258:0 259:7 260:45 261:27 262:19 263:40 264:11 265:0 266:6 267:3 268:4 269:5 270:5 271:4 272:0 273:4 274:2 275:2 276:2 277:14 278:13 279:0 280:28 281:51 282:83 283:42 284:92 285:66 286:0 287:58 288:118 289:88 290:114 291:164 292:147 293:0 294:205 295:163 296:89 297:0 298:99 299:71 300:44 301:42 302:39 303:18 304:0 305:11 306:4 307:12 308:13 309:39 310:22 311:0 312:30 313:62 314:43 315:32 316:81 317:127 318:0 319:278 320:224 321:360 322:197 323:236 324:148 325:0 326:268 327:233 328:265 329:65 330:9 331:0 332:0 333:0 334:0 335:0 336:0 337:0 338:0 339:0 340:0 341:0 342:0 343:0 344:0 345:0 346:0 347:0 348:0 349:0 350:0 351:0 352:0 353:0 354:0 355:0 356:0 357:0 358:1 359:8 360:16 361:24 362:34 363:23 364:0 365:23 366:34 367:25 368:22 369:32 370:31 371:0 372:5 373:3 374:0 375:0 376:0 377:0 378:0 
1 1:768 2:0 3:0 4:0 5:0 6:0 7:0 8:0 9:0 10:0 11:925 12:12 13:4 14:2 15:4 16:3 17:0 18:0 19:0 20:0 21:757 22:14 23:2 24:2 25:4 26:5 27:3 28:2 29:3 30:0 31:765 32:2 33:0 34:0 35:0 36:1 37:0 38:0 39:0 40:0 41:765 42:2 43:0 44:0 45:0 46:1 47:0 48:0 49:0 50:0 51:767 52:0 53:0 54:0 55:0 56:0 57:0 58:0 59:0 60:0 61:941 62:9 63:3 64:3 65:0 66:0 67:0 68:0 69:0 70:0 71:780 72:11 73:4 74:2 75:1 76:0 77:0 78:0 79:0 80:0 81:770 82:2 83:0 84:0 85:0 86:0 87:0 88:0 89:0 90:0 91:770 92:2 93:0 94:0 95:0 96:0 97:0 98:0 99:0 100:0 101:940 102:10 103:3 104:4 105:0 106:0 107:0 108:0 109:0 110:0 111:802 112:2 113:0 114:0 115:0 116:0 117:0 118:0 119:0 120:0 121:770 122:3 123:1 124:0 125:0 126:0 127:0 128:0 129:0 130:0 131:934 132:10 133:3 134:2 135:1 136:1 137:0 138:1 139:0 140:0 141:934 142:10 143:3 144:2 145:1 146:1 147:0 148:1 149:0 150:0 151:790 152:6 153:2 154:2 155:0 156:0 157:0 158:0 159:0 160:0 161:772 162:1 163:0 164:0 165:0 166:0 167:0 168:0 169:0 170:0 171:766 172:2 173:0 174:0 175:0 176:0 177:0 178:0 179:0 180:0 181:898 182:18 183:8 184:4 185:1 186:1 187:7 188:10 189:2 190:0 191:898 192:18 193:8 194:4 195:1 196:1 197:7 198:10 199:2 200:0 201:898 202:18 203:8 204:4 205:1 206:1 207:7 208:10 209:2 210:0 211:898 212:18 213:8 214:4 215:1 216:1 217:7 218:10 219:2 220:0 221:898 222:18 223:8 224:4 225:1 226:1 227:7 228:10 229:2 230:0 231:898 232:18 233:8 234:4 235:1 236:1 237:7 238:10 239:2 240:0 241:898 242:18 243:8 244:4 245:1 246:1 247:7 248:10 249:2 250:0 251:91 252:7 253:4 254:2 255:2 256:3 257:1 258:0 259:0 260:1 261:1 262:0 263:1 264:1 265:0 266:0 267:1 268:1 269:1 270:0 271:1 272:0 273:2 274:2 275:2 276:5 277:18 278:20 279:0 280:34 281:65 282:92 283:45 284:103 285:83 286:0 287:63 288:155 289:79 290:86 291:136 292:193 293:0 294:236 295:180 296:102 297:0 298:112 299:76 300:55 301:48 302:50 303:23 304:0 305:9 306:5 307:10 308:12 309:36 310:27 311:0 312:34 313:47 314:48 315:31 316:96 317:150 318:0 319:314 320:222 321:400 322:224 323:262 324:169 325:0 326:312 327:229 328:281 329:71 330:7 331:1 332:0 333:0 334:0 335:0 336:0 337:0 338:0 339:0 340:0 341:0 342:0 343:0 344:0 345:0 346:0 347:0 348:0 349:0 350:0 351:0 352:0 353:0 354:1 355:0 356:0 357:0 358:1 359:11 360:22 361:33 362:38 363:24 364:0 365:27 366:31 367:24 368:20 369:34 370:38 371:0 372:4 373:2 374:1 375:1 376:0 377:0 378:0 
1 1:768 2:0 3:0 4:0 5:0 6:0 7:0 8:0 9:0 10:0 11:893 12:30 13:2 14:2 15:4 16:12 17:1 18:0 19:2 20:0 21:752 22:14 23:3 24:3 25:3 26:6 27:3 28:5 29:4 30:0 31:764 32:2 33:0 34:0 35:0 36:1 37:0 38:1 39:0 40:0 41:764 42:2 43:0 44:0 45:0 46:1 47:0 48:1 49:0 50:0 51:767 52:0 53:0 54:0 55:0 56:0 57:0 58:0 59:0 60:0 61:922 62:10 63:6 64:4 65:2 66:3 67:0 68:2 69:0 70:0 71:775 72:12 73:5 74:2 75:1 76:1 77:0 78:0 79:0 80:0 81:769 82:2 83:1 84:0 85:0 86:0 87:0 88:0 89:0 90:0 91:769 92:2 93:1 94:0 95:0 96:0 97:0 98:0 99:0 100:0 101:938 102:11 103:5 104:3 105:0 106:0 107:0 108:0 109:0 110:0 111:801 112:2 113:1 114:0 115:0 116:0 117:0 118:0 119:0 120:0 121:769 122:3 123:1 124:0 125:0 126:0 127:0 128:0 129:0 130:0 131:934 132:9 133:2 134:3 135:1 136:2 137:1 138:2 139:0 140:0 141:934 142:9 143:2 144:3 145:1 146:2 147:1 148:2 149:0 150:0 151:777 152:10 153:5 154:3 155:1 156:0 157:0 158:0 159:0 160:0 161:769 162:2 163:1 164:0 165:0 166:0 167:0 168:0 169:0 170:0 171:766 172:2 173:0 174:0 175:0 176:0 177:0 178:0 179:0 180:0 181:902 182:16 183:8 184:3 185:5 186:4 187:3 188:1 189:1 190:0 191:902 192:16 193:8 194:3 195:5 196:4 197:3 198:1 199:1 200:0 201:902 202:16 203:8 204:3 205:5 206:4 207:3 208:1 209:1 210:0 211:902 212:16 213:8 214:3 215:5 216:4 217:3 218:1 219:1 220:0 221:902 222:16 223:8 224:3 225:5 226:4 227:3 228:1 229:1 230:0 231:902 232:16 233:8 234:3 235:5 236:4 237:3 238:1 239:1 240:0 241:902 242:16 243:8 244:3 245:5 246:4 247:3 248:1 249:1 250:0 251:87 252:7 253:3 254:1 255:3 256:0 257:1 258:0 259:1 260:1 261:2 262:1 263:1 264:1 265:0 266:0 267:1 268:1 269:0 270:2 271:0 272:0 273:1 274:1 275:4 276:7 277:19 278:19 279:0 280:37 281:64 282:81 283:41 284:91 285:81 286:0 287:63 288:148 289:73 290:70 291:106 292:138 293:0 294:269 295:182 296:126 297:0 298:121 299:77 300:53 301:47 302:49 303:22 304:0 305:12 306:5 307:10 308:12 309:39 310:24 311:0 312:28 313:51 314:40 315:30 316:89 317:128 318:0 319:294 320:219 321:354 322:214 323:237 324:166 325:0 326:279 327:261 328:250 329:58 330:10 331:1 332:0 333:0 334:0 335:0 336:0 337:0 338:0 339:0 340:0 341:0 342:0 343:0 344:0 345:0 346:0 347:0 348:0 349:0 350:0 351:0 352:0 353:0 354:0 355:0 356:0 357:0 358:2 359:9 360:15 361:27 362:39 363:21 364:0 365:26 366:30 367:24 368:22 369:28 370:42 371:0 372:3 373:2 374:0 375:0 376:0 377:1 378:0 
1 1:768 2:0 3:0 4:0 5:0 6:0 7:0 8:0 9:0 10:0 11:927 12:11 13:3 14:2 15:2 16:0 17:1 18:2 19:0 20:0 21:780 22:10 23:3 24:2 25:1 26:0 27:1 28:1 29:0 30:0 31:770 32:2 33:0 34:0 35:0 36:0 37:0 38:0 39:0 40:0 41:770 42:2 43:0 44:0 45:0 46:0 47:0 48:0 49:0 50:0 51:768 52:0 53:0 54:0 55:0 56:0 57:0 58:0 59:0 60:0 61:939 62:10 63:3 64:1 65:0 66:0 67:0 68:0 69:0 70:0 71:782 72:12 73:3 74:1 75:1 76:0 77:0 78:0 79:0 80:0 81:770 82:2 83:0 84:0 85:0 86:0 87:0 88:0 89:0 90:0 91:770 92:2 93:0 94:0 95:0 96:0 97:0 98:0 99:0 100:0 101:952 102:3 103:1 104:1 105:0 106:0 107:0 108:0 109:0 110:0 111:804 112:0 113:0 114:0 115:0 116:0 117:0 118:0 119:0 120:0 121:769 122:1 123:1 124:1 125:0 126:0 127:0 128:0 129:0 130:0 131:929 132:11 133:2 134:3 135:1 136:2 137:2 138:1 139:0 140:0 141:929 142:11 143:2 144:3 145:1 146:2 147:2 148:1 149:0 150:0 151:776 152:20 153:2 154:2 155:0 156:0 157:0 158:0 159:0 160:0 161:769 162:4 163:0 164:0 165:0 166:0 167:0 168:0 169:0 170:0 171:765 172:3 173:0 174:0 175:0 176:0 177:0 178:0 179:0 180:0 181:910 182:17 183:4 184:3 185:2 186:4 187:3 188:1 189:2 190:0 191:910 192:17 193:4 194:3 195:2 196:4 197:3 198:1 199:2 200:0 201:910 202:17 203:4 204:3 205:2 206:4 207:3 208:1 209:2 210:0 211:910 212:17 213:4 214:3 215:2 216:4 217:3 218:1 219:2 220:0 221:910 222:17 223:4 224:3 225:2 226:4 227:3 228:1 229:2 230:0 231:910 232:17 233:4 234:3 235:2 236:4 237:3 238:1 239:2 240:0 241:910 242:17 243:4 244:3 245:2 246:4 247:3 248:1 249:2 250:0 251:80 252:7 253:1 254:1 255:1 256:1 257:1 258:0 259:1 260:0 261:1 262:0 263:0 264:1 265:0 266:1 267:0 268:0 269:1 270:0 271:1 272:0 273:8 274:13 275:12 276:10 277:25 278:24 279:0 280:33 281:75 282:63 283:41 284:97 285:70 286:0 287:48 288:156 289:69 290:84 291:98 292:135 293:0 294:193 295:211 296:101 297:0 298:157 299:88 300:62 301:54 302:43 303:30 304:0 305:17 306:9 307:11 308:12 309:43 310:22 311:0 312:30 313:52 314:38 315:25 316:85 317:123 318:0 319:296 320:219 321:369 322:199 323:270 324:150 325:0 326:278 327:246 328:257 329:60 330:1 331:0 332:0 333:0 334:0 335:0 336:0 337:0 338:0 339:0 340:0 341:0 342:0 343:0 344:0 345:0 346:0 347:0 348:0 349:0 350:0 351:0 352:0 353:0 354:0 355:0 356:0 357:0 358:1 359:6 360:19 361:33 362:31 363:26 364:0 365:21 366:26 367:21 368:28 369:33 370:31 371:0 372:4 373:1 374:0 375:0 376:0 377:0 378:0 
-0.7607421872688117 1:768 2:0 3:0 4:0 5:0 6:0 7:0 8:0 9:0 10:0 11:939 12:7 13:2 14:1 15:0 16:3 17:1 18:1 19:1 20:0 21:784 22:7 23:1 24:1 25:2 26:2 27:1 28:0 29:0 30:0 31:771 32:1 33:0 34:0 35:0 36:0 37:0 38:0 39:0 40:0 41:771 42:1 43:0 44:0 45:0 46:0 47:0 48:0 49:0 50:0 51:766 52:1 53:0 54:0 55:0 56:0 57:0 58:0 59:0 60:0 61:948 62:8 63:2 64:0 65:0 66:0 67:0 68:0 69:0 70:0 71:800 72:3 73:1 74:0 75:0 76:0 77:0 78:0 79:0 80:0 81:774 82:0 83:0 84:0 85:0 86:0 87:0 88:0 89:0 90:0 91:774 92:0 93:0 94:0 95:0 96:0 97:0 98:0 99:0 100:0 101:761 102:6 103:1 104:0 105:0 106:0 107:0 108:0 109:0 110:0 111:766 112:1 113:0 114:0 115:0 116:0 117:0 118:0 119:0 120:0 121:958 122:1 123:0 124:0 125:0 126:0 127:0 128:0 129:0 130:0 131:798 132:4 133:1 134:0 135:0 136:0 137:0 138:0 139:0 140:0 141:798 142:4 143:1 144:0 145:0 146:0 147:0 148:0 149:0 150:0 151:763 152:7 153:3 154:0 155:0 156:0 157:0 158:0 159:0 160:0 161:767 162:1 163:0 164:0 165:0 166:0 167:0 168:0 169:0 170:0 171:767 172:0 173:0 174:0 175:0 176:0 177:0 178:0 179:0 180:0 181:928 182:7 183:3 184:2 185:2 186:4 187:2 188:0 189:0 190:0 191:928 192:7 193:3 194:2 195:2 196:4 197:2 198:0 199:0 200:0 201:928 202:7 203:3 204:2 205:2 206:4 207:2 208:0 209:0 210:0 211:928 212:7 213:3 214:2 215:2 216:4 217:2 218:0 219:0 220:0 221:928 222:7 223:3 224:2 225:2 226:4 227:2 228:0 229:0 230:0 231:928 232:7 233:3 234:2 235:2 236:4 237:2 238:0 239:0 240:0 241:928 242:7 243:3 244:2 245:2 246:4 247:2 248:0 249:0 250:0 251:71 252:6 253:2 254:1 255:1 256:0 257:1 258:0 259:1 260:1 261:0 262:0 263:0 264:0 265:0 266:1 267:1 268:0 269:0 270:0 271:0 272:0 273:3 274:6 275:7 276:9 277:21 278:21 279:0 280:35 281:54 282:70 283:45 284:81 285:55 286:0 287:52 288:100 289:49 290:72 291:129 292:71 293:0 294:130 295:131 296:120 297:0 298:157 299:136 300:106 301:103 302:115 303:52 304:0 305:43 306:22 307:24 308:14 309:52 310:29 311:0 312:27 313:62 314:37 315:33 316:80 317:138 318:0 319:355 320:220 321:327 322:188 323:283 324:148 325:0 326:279 327:230 328:298 329:57 330:9 331:0 332:0 333:0 334:0 335:0 336:0 337:0 338:0 339:0 340:0 341:0 342:0 343:0 344:0 345:0 346:0 347:0 348:0 349:0 350:0 351:0 352:0 353:0 354:0 355:0 356:0 357:0 358:0 359:7 360:29 361:38 362:35 363:22 364:0 365:20 366:27 367:22 368:18 369:19 370:45 371:0 372:6 373:1 374:0 375:0 376:0 377:0 378:0 
-0.7597656269643314 1:768 2:0 3:0 4:0 5:0 6:0 7:0 8:0 9:0 10:0 11:933 12:9 13:1 14:2 15:1 16:2 17:0 18:3 19:2 20:0 21:778 22:10 23:4 24:2 25:1 26:1 27:1 28:0 29:0 30:0 31:770 32:2 33:0 34:0 35:0 36:0 37:0 38:0 39:0 40:0 41:770 42:2 43:0 44:0 45:0 46:0 47:0 48:0 49:0 50:0 51:768 52:0 53:0 54:0 55:0 56:0 57:0 58:0 59:0 60:0 61:949 62:6 63:3 64:1 65:0 66:0 67:0 68:0 69:0 70:0 71:787 72:10 73:3 74:1 75:0 76:0 77:1 78:0 79:0 80:0 81:771 82:2 83:0 84:0 85:0 86:0 87:0 88:0 89:0 90:0 91:771 92:2 93:0 94:0 95:0 96:0 97:0 98:0 99:0 100:0 101:756 102:6 103:2 104:1 105:0 106:0 107:0 108:0 109:0 110:0 111:957 112:1 113:0 114:0 115:0 116:0 117:0 118:0 119:0 120:0 121:805 122:0 123:0 124:0 125:0 126:0 127:0 128:0 129:0 130:0 131:772 132:2 133:0 134:0 135:0 136:0 137:0 138:0 139:0 140:0 141:772 142:2 143:0 144:0 145:0 146:0 147:0 148:0 149:0 150:0 151:840 152:101 153:7 154:2 155:2 156:0 157:0 158:0 159:0 160:0 161:778 162:23 163:1 164:0 165:0 166:0 167:0 168:0 169:0 170:0 171:770 172:4 173:0 174:0 175:0 176:0 177:0 178:0 179:0 180:0 181:904 182:13 183:2 184:2 185:3 186:4 187:4 188:8 189:7 190:0 191:904 192:13 193:2 194:2 195:3 196:4 197:4 198:8 199:7 200:0 201:904 202:13 203:2 204:2 205:3 206:4 207:4 208:8 209:7 210:0 211:904 212:13 213:2 214:2 215:3 216:4 217:4 218:8 219:7 220:0 221:904 222:13 223:2 224:2 225:3 226:4 227:4 228:8 229:7 230:0 231:904 232:13 233:2 234:2 235:3 236:4 237:4 238:8 239:7 240:0 241:904 242:13 243:2 244:2 245:3 246:4 247:4 248:8 249:7 250:0 251:66 252:6 253:3 254:3 255:2 256:1 257:1 258:0 259:0 260:0 261:0 262:1 263:1 264:1 265:0 266:0 267:1 268:1 269:1 270:4 271:7 272:0 273:8 274:5 275:6 276:5 277:10 278:20 279:0 280:27 281:37 282:57 283:38 284:81 285:56 286:0 287:51 288:102 289:48 290:70 291:118 292:74 293:0 294:130 295:131 296:113 297:0 298:152 299:119 300:73 301:82 302:86 303:47 304:0 305:31 306:20 307:16 308:10 309:45 310:27 311:0 312:29 313:56 314:37 315:30 316:73 317:139 318:0 319:318 320:199 321:283 322:173 323:236 324:130 325:0 326:268 327:237 328:265 329:48 330:6 331:0 332:0 333:0 334:0 335:0 336:0 337:0 338:0 339:0 340:0 341:0 342:0 343:0 344:0 345:0 346:0 347:0 348:0 349:0 350:0 351:0 352:0 353:0 354:0 355:0 356:0 357:0 358:0 359:8 360:28 361:33 362:29 363:21 364:0 365:24 366:29 367:18 368:19 369:22 370:38 371:0 372:6 373:1 374:0 375:0 376:0 377:0 378:0 
-0.759765626964403 1:768 2:0 3:0 4:0 5:0 6:0 7:0 8:0 9:0 10:0 11:941 12:9 13:2 14:1 15:1 16:0 17:0 18:0 19:0 20:0 21:778 22:12 23:3 24:3 25:1 26:1 27:0 28:1 29:0 30:0 31:770 32:2 33:0 34:0 35:0 36:0 37:0 38:0 39:0 40:0 41:770 42:2 43:0 44:0 45:0 46:0 47:0 48:0 49:0 50:0 51:767 52:1 53:0 54:0 55:0 56:0 57:0 58:0 59:0 60:0 61:764 62:3 63:0 64:0 65:0 66:0 67:0 68:0 69:0 70:0 71:944 72:9 73:0 74:0 75:1 76:1 77:0 78:0 79:0 80:0 81:803 82:1 83:0 84:0 85:0 86:0 87:0 88:0 89:0 90:0 91:803 92:1 93:0 94:0 95:0 96:0 97:0 98:0 99:0 100:0 101:772 102:2 103:0 104:0 105:0 106:0 107:0 108:0 109:0 110:0 111:768 112:0 113:0 114:0 115:0 116:0 117:0 118:0 119:0 120:0 121:766 122:1 123:0 124:0 125:0 126:0 127:0 128:0 129:0 130:0 131:950 132:6 133:1 134:0 135:0 136:1 137:0 138:0 139:0 140:0 141:950 142:6 143:1 144:0 145:0 146:1 147:0 148:0 149:0 150:0 151:796 152:6 153:2 154:0 155:0 156:0 157:0 158:0 159:0 160:0 161:773 162:1 163:0 164:0 165:0 166:0 167:0 168:0 169:0 170:0 171:769 172:0 173:0 174:0 175:0 176:0 177:0 178:0 179:0 180:0 181:924 182:11 183:4 184:1 185:3 186:4 187:4 188:1 189:0 190:0 191:924 192:11 193:4 194:1 195:3 196:4 197:4 198:1 199:0 200:0 201:924 202:11 203:4 204:1 205:3 206:4 207:4 208:1 209:0 210:0 211:924 212:11 213:4 214:1 215:3 216:4 217:4 218:1 219:0 220:0 221:924 222:11 223:4 224:1 225:3 226:4 227:4 228:1 229:0 230:0 231:924 232:11 233:4 234:1 235:3 236:4 237:4 238:1 239:0 240:0 241:924 242:11 243:4 244:1 245:3 246:4 247:4 248:1 249:0 250:0 251:102 252:12 253:4 254:2 255:1 256:2 257:0 258:0 259:0 260:1 261:1 262:0 263:1 264:0 265:0 266:1 267:1 268:1 269:0 270:0 271:0 272:0 273:2 274:0 275:2 276:4 277:10 278:20 279:0 280:29 281:46 282:63 283:46 284:98 285:62 286:0 287:53 288:116 289:62 290:85 291:123 292:89 293:0 294:125 295:150 296:121 297:0 298:190 299:114 300:78 301:81 302:81 303:42 304:0 305:29 306:18 307:16 308:14 309:45 310:25 311:0 312:22 313:62 314:40 315:34 316:77 317:140 318:0 319:327 320:212 321:312 322:209 323:280 324:148 325:0 326:293 327:244 328:284 329:58 330:8 331:0 332:0 333:0 334:0 335:0 336:0 337:0 338:0 339:0 340:0 341:0 342:0 343:0 344:0 345:0 346:0 347:0 348:0 349:0 350:0 351:0 352:0 353:0 354:0 355:0 356:0 357:0 358:0 359:8 360:22 361:31 362:37 363:21 364:0 365:25 366:32 367:19 368:22 369:26 370:43 371:0 372:6 373:2 374:1 375:0 376:0 377:0 378:0 
-0.7597656254810589 1:768 2:0 3:0 4:0 5:0 6:0 7:0 8:0 9:0 10:0 11:929 12:10 13:3 14:3 15:2 16:0 17:1 18:1 19:2 20:0 21:770 22:11 23:4 24:3 25:1 26:1 27:2 28:3 29:1 30:0 31:768 32:2 33:0 34:0 35:0 36:0 37:0 38:0 39:0 40:0 41:768 42:2 43:0 44:0 45:0 46:0 47:0 48:0 49:0 50:0 51:766 52:1 53:0 54:0 55:0 56:0 57:0 58:0 59:0 60:0 61:939 62:11 63:3 64:3 65:0 66:0 67:0 68:0 69:0 70:0 71:791 72:7 73:2 74:1 75:0 76:0 77:0 78:0 79:0 80:0 81:772 82:1 83:0 84:0 85:0 86:0 87:0 88:0 89:0 90:0 91:772 92:1 93:0 94:0 95:0 96:0 97:0 98:0 99:0 100:0 101:760 102:6 103:2 104:0 105:0 106:0 107:0 108:0 109:0 110:0 111:766 112:1 113:0 114:0 115:0 116:0 117:0 118:0 119:0 120:0 121:956 122:3 123:0 124:0 125:0 126:0 127:0 128:0 129:0 130:0 131:795 132:6 133:1 134:1 135:0 136:0 137:0 138:0 139:0 140:0 141:795 142:6 143:1 144:1 145:0 146:0 147:0 148:0 149:0 150:0 151:924 152:20 153:4 154:5 155:2 156:1 157:0 158:0 159:0 160:0 161:799 162:4 163:0 164:1 165:0 166:0 167:0 168:0 169:0 170:0 171:774 172:0 173:0 174:0 175:0 176:0 177:0 178:0 179:0 180:0 181:929 182:10 183:4 184:1 185:1 186:5 187:1 188:0 189:0 190:0 191:929 192:10 193:4 194:1 195:1 196:5 197:1 198:0 199:0 200:0 201:929 202:10 203:4 204:1 205:1 206:5 207:1 208:0 209:0 210:0 211:929 212:10 213:4 214:1 215:1 216:5 217:1 218:0 219:0 220:0 221:929 222:10 223:4 224:1 225:1 226:5 227:1 228:0 229:0 230:0 231:929 232:10 233:4 234:1 235:1 236:5 237:1 238:0 239:0 240:0 241:929 242:10 243:4 244:1 245:1 246:5 247:1 248:0 249:0 250:0 251:103 252:9 253:3 254:2 255:2 256:1 257:1 258:0 259:1 260:1 261:0 262:0 263:1 264:1 265:0 266:1 267:1 268:1 269:1 270:0 271:0 272:0 273:1 274:1 275:3 276:3 277:21 278:18 279:0 280:31 281:56 282:61 283:41 284:96 285:63 286:0 287:59 288:110 289:57 290:84 291:127 292:89 293:0 294:129 295:148 296:124 297:0 298:181 299:114 300:78 301:84 302:92 303:44 304:0 305:32 306:15 307:17 308:15 309:40 310:26 311:0 312:25 313:58 314:36 315:34 316:80 317:145 318:0 319:325 320:212 321:297 322:212 323:274 324:143 325:0 326:288 327:264 328:280 329:82 330:3 331:0 332:0 333:0 334:0 335:0 336:0 337:0 338:0 339:0 340:0 341:0 342:0 343:0 344:0 345:0 346:0 347:0 348:0 349:0 350:0 351:0 352:0 353:0 354:0 355:0 356:0 357:0 358:1 359:11 360:22 361:33 362:28 363:19 364:0 365:26 366:34 367:20 368:26 369:25 370:45 371:0 372:7 373:0 374:0 375:0 376:0 377:0 378:0 
-0.7597656251560827 1:768 2:0 3:0 4:0 5:0 6:0 7:0 8:0 9:0 10:0 11:933 12:8 13:5 14:3 15:0 16:1 17:0 18:0 19:0 20:0 21:756 22:14 23:4 24:2 25:1 26:3 27:2 28:5 29:8 30:0 31:765 32:2 33:0 34:0 35:0 36:0 37:0 38:1 39:1 40:0 41:765 42:2 43:0 44:0 45:0 46:0 47:0 48:1 49:1 50:0 51:765 52:1 53:1 54:0 55:0 56:0 57:0 58:0 59:0 60:0 61:940 62:11 63:6 64:1 65:0 66:0 67:0 68:0 69:0 70:0 71:792 72:9 73:2 74:1 75:0 76:0 77:0 78:0 79:0 80:0 81:772 82:1 83:0 84:0 85:0 86:0 87:0 88:0 89:0 90:0 91:772 92:1 93:0 94:0 95:0 96:0 97:0 98:0 99:0 100:0 101:760 102:5 103:1 104:1 105:0 106:0 107:0 108:0 109:0 110:0 111:958 112:1 113:0 114:0 115:0 116:0 117:0 118:0 119:0 120:0 121:801 122:1 123:0 124:1 125:0 126:0 127:0 128:0 129:0 130:0 131:769 132:3 133:0 134:1 135:0 136:0 137:0 138:0 139:0 140:0 141:769 142:3 143:0 144:1 145:0 146:0 147:0 148:0 149:0 150:0 151:932 152:12 153:3 154:5 155:0 156:0 157:0 158:0 159:0 160:0 161:800 162:2 163:0 164:1 165:0 166:0 167:0 168:0 169:0 170:0 171:774 172:0 173:0 174:0 175:0 176:0 177:0 178:0 179:0 180:0 181:919 182:10 183:5 184:1 185:2 186:5 187:5 188:4 189:2 190:0 191:919 192:10 193:5 194:1 195:2 196:5 197:5 198:4 199:2 200:0 201:919 202:10 203:5 204:1 205:2 206:5 207:5 208:4 209:2 210:0 211:919 212:10 213:5 214:1 215:2 216:5 217:5 218:4 219:2 220:0 221:919 222:10 223:5 224:1 225:2 226:5 227:5 228:4 229:2 230:0 231:919 232:10 233:5 234:1 235:2 236:5 237:5 238:4 239:2 240:0 241:919 242:10 243:5 244:1 245:2 246:5 247:5 248:4 249:2 250:0 251:106 252:11 253:4 254:2 255:2 256:1 257:2 258:0 259:1 260:0 261:1 262:1 263:0 264:1 265:0 266:0 267:1 268:2 269:3 270:13 271:5 272:0 273:4 274:3 275:4 276:5 277:18 278:19 279:0 280:32 281:49 282:66 283:44 284:94 285:67 286:0 287:50 288:116 289:55 290:72 291:128 292:94 293:0 294:134 295:139 296:111 297:0 298:169 299:121 300:83 301:88 302:92 303:46 304:0 305:31 306:14 307:16 308:15 309:38 310:29 311:0 312:25 313:42 314:31 315:35 316:87 317:138 318:0 319:333 320:205 321:317 322:204 323:275 324:153 325:0 326:308 327:265 328:262 329:77 330:6 331:0 332:0 333:0 334:0 335:0 336:0 337:0 338:0 339:0 340:0 341:0 342:0 343:0 344:0 345:0 346:0 347:0 348:0 349:0 350:0 351:0 352:0 353:0 354:0 355:0 356:0 357:0 358:2 359:11 360:21 361:28 362:32 363:20 364:0 365:23 366:32 367:23 368:22 369:27 370:41 371:0 372:3 373:3 374:0 375:0 376:0 377:0 378:0 
-0.7597656251560121 1:768 2:0 3:0 4:0 5:0 6:0 7:0 8:0 9:0 10:0 11:920 12:8 13:4 14:3 15:6 16:2 17:0 18:0 19:0 20:0 21:759 22:12 23:4 24:3 25:4 26:2 27:1 28:3 29:5 30:0 31:766 32:2 33:0 34:0 35:0 36:0 37:0 38:0 39:1 40:0 41:766 42:2 43:0 44:0 45:0 46:0 47:0 48:0 49:1 50:0 51:956 52:1 53:0 54:1 55:0 56:0 57:0 58:0 59:0 60:0 61:791 62:8 63:1 64:1 65:0 66:0 67:0 68:0 69:0 70:0 71:753 72:11 73:3 74:1 75:0 76:1 77:0 78:0 79:0 80:0 81:765 82:2 83:0 84:0 85:0 86:0 87:0 88:0 89:0 90:0 91:765 92:2 93:0 94:0 95:0 96:0 97:0 98:0 99:0 100:0 101:950 102:5 103:2 104:1 105:0 106:0 107:0 108:0 109:0 110:0 111:804 112:1 113:0 114:0 115:0 116:0 117:0 118:0 119:0 120:0 121:769 122:2 123:1 124:0 125:0 126:0 127:0 128:0 129:0 130:0 131:931 132:13 133:3 134:2 135:0 136:0 137:0 138:1 139:0 140:0 141:931 142:13 143:3 144:2 145:0 146:0 147:0 148:1 149:0 150:0 151:779 152:9 153:4 154:3 155:0 156:0 157:0 158:0 159:0 160:0 161:770 162:1 163:0 164:0 165:0 166:0 167:0 168:0 169:0 170:0 171:823 172:4 173:4 174:3 175:19 176:82 177:3 178:0 179:0 180:0 181:629 182:13 183:4 184:3 185:22 186:67 187:15 188:7 189:10 190:0 191:629 192:13 193:4 194:3 195:22 196:67 197:15 198:7 199:10 200:0 201:629 202:13 203:4 204:3 205:22 206:67 207:15 208:7 209:10 210:0 211:629 212:13 213:4 214:3 215:22 216:67 217:15 218:7 219:10 220:0 221:629 222:13 223:4 224:3 225:22 226:67 227:15 228:7 229:10 230:0 231:629 232:13 233:4 234:3 235:22 236:67 237:15 238:7 239:10 240:0 241:629 242:13 243:4 244:3 245:22 246:67 247:15 248:7 249:10 250:0 251:109 252:15 253:5 254:2 255:2 256:1 257:0 258:0 259:1 260:0 261:2 262:1 263:1 264:2 265:0 266:10 267:13 268:5 269:6 270:12 271:7 272:0 273:3 274:4 275:5 276:5 277:19 278:21 279:0 280:35 281:60 282:85 283:44 284:109 285:79 286:0 287:59 288:131 289:61 290:93 291:133 292:100 293:0 294:137 295:147 296:121 297:0 298:172 299:131 300:91 301:93 302:94 303:49 304:0 305:32 306:17 307:17 308:17 309:47 310:36 311:0 312:25 313:54 314:43 315:38 316:87 317:168 318:0 319:382 320:245 321:360 322:238 323:304 324:182 325:0 326:356 327:281 328:294 329:79 330:5 331:0 332:0 333:0 334:0 335:0 336:0 337:0 338:0 339:0 340:0 341:0 342:0 343:0 344:0 345:0 346:0 347:0 348:0 349:0 350:0 351:0 352:0 353:0 354:0 355:0 356:0 357:0 358:2 359:10 360:25 361:31 362:36 363:23 364:0 365:30 366:35 367:27 368:22 369:27 370:49 371:0 372:4 373:2 374:1 375:1 376:0 377:0 378:0 
-0.7597656251560121 1:768 2:0 3:0 4:0 5:0 6:0 7:0 8:0 9:0 10:0 11:927 12:12 13:3 14:1 15:1 16:2 17:1 18:3 19:1 20:0 21:778 22:8 23:3 24:1 25:1 26:2 27:2 28:2 29:1 30:0 31:770 32:1 33:0 34:0 35:0 36:0 37:0 38:0 39:0 40:0 41:770 42:1 43:0 44:0 45:0 46:0 47:0 48:0 49:0 50:0 51:767 52:1 53:0 54:0 55:0 56:0 57:0 58:0 59:0 60:0 61:949 62:7 63:3 64:0 65:0 66:0 67:0 68:0 69:0 70:0 71:771 72:8 73:3 74:1 75:0 76:1 77:1 78:14 79:0 80:0 81:746 82:2 83:1 84:0 85:0 86:0 87:1 88:15 89:5 90:0 91:746 92:2 93:1 94:0 95:0 96:0 97:1 98:15 99:5 100:0 101:755 102:6 103:2 104:0 105:0 106:0 107:0 108:3 109:1 110:0 111:956 112:1 113:0 114:0 115:0 116:0 117:0 118:0 119:0 120:0 121:814 122:13 123:8 124:11 125:68 126:18 127:1 128:5 129:0 130:0 131:522 132:7 133:15 134:24 135:39 136:38 137:20 138:67 139:53 140:0 141:522 142:7 143:15 144:24 145:39 146:38 147:20 148:67 149:53 150:0 151:873 152:11 153:8 154:9 155:10 156:9 157:5 158:16 159:13 160:0 161:789 162:2 163:1 164:1 165:2 166:1 167:1 168:3 169:2 170:0 171:935 172:5 173:2 174:0 175:1 176:0 177:0 178:0 179:0 180:0 181:540 182:79 183:27 184:20 185:15 186:42 187:15 188:5 189:27 190:0 191:540 192:79 193:27 194:20 195:15 196:42 197:15 198:5 199:27 200:0 201:540 202:79 203:27 204:20 205:15 206:42 207:15 208:5 209:27 210:0 211:540 212:79 213:27 214:20 215:15 216:42 217:15 218:5 219:27 220:0 221:540 222:79 223:27 224:20 225:15 226:42 227:15 228:5 229:27 230:0 231:540 232:79 233:27 234:20 235:15 236:42 237:15 238:5 239:27 240:0 241:540 242:79 243:27 244:20 245:15 246:42 247:15 248:5 249:27 250:0 251:146 252:12 253:4 254:3 255:3 256:1 257:2 258:0 259:1 260:1 261:1 262:1 263:2 264:1 265:0 266:1 267:1 268:3 269:2 270:7 271:9 272:0 273:18 274:18 275:20 276:19 277:38 278:29 279:0 280:44 281:73 282:81 283:55 284:110 285:88 286:0 287:69 288:120 289:68 290:82 291:157 292:109 293:0 294:164 295:135 296:113 297:0 298:162 299:124 300:73 301:68 302:78 303:43 304:0 305:34 306:17 307:21 308:12 309:60 310:31 311:0 312:31 313:73 314:35 315:35 316:88 317:140 318:0 319:400 320:250 321:307 322:217 323:281 324:168 325:0 326:288 327:338 328:313 329:69 330:2 331:1 332:0 333:0 334:0 335:0 336:0 337:0 338:0 339:0 340:0 341:0 342:0 343:0 344:0 345:0 346:0 347:0 348:0 349:0 350:0 351:0 352:0 353:0 354:0 355:0 356:0 357:0 358:1 359:11 360:19 361:37 362:32 363:25 364:0 365:29 366:33 367:32 368:25 369:21 370:39 371:0 372:4 373:1 374:0 375:0 376:1 377:1 378:0 
-0.7607421873078353 1:768 2:0 3:0 4:0 5:0 6:0 7:0 8:0 9:0 10:0 11:940 12:8 13:1 14:2 15:0 16:1 17:0 18:0 19:0 20:0 21:774 22:9 23:4 24:2 25:0 26:2 27:1 28:1 29:1 30:0 31:769 32:1 33:0 34:0 35:0 36:0 37:0 38:0 39:0 40:0 41:769 42:1 43:0 44:0 45:0 46:0 47:0 48:0 49:0 50:0 51:767 52:0 53:0 54:0 55:0 56:0 57:0 58:0 59:0 60:0 61:944 62:8 63:3 64:0 65:0 66:0 67:0 68:0 69:0 70:0 71:680 72:30 73:7 74:4 75:6 76:8 77:36 78:12 79:8 80:0 81:741 82:58 83:6 84:5 85:14 86:11 87:36 88:37 89:40 90:0 91:741 92:58 93:6 94:5 95:14 96:11 97:36 98:37 99:40 100:0 101:754 102:17 103:3 104:1 105:2 106:2 107:7 108:7 109:8 110:0 111:765 112:3 113:0 114:0 115:0 116:0 117:1 118:1 119:1 120:0 121:904 122:6 123:2 124:2 125:17 126:0 127:0 128:0 129:0 130:0 131:611 132:66 133:10 134:8 135:17 136:29 137:3 138:2 139:26 140:0 141:611 142:66 143:10 144:8 145:17 146:29 147:3 148:2 149:26 150:0 151:724 152:20 153:5 154:2 155:3 156:5 157:0 158:0 159:5 160:0 161:949 162:5 163:1 164:0 165:0 166:1 167:0 168:0 169:1 170:0 171:801 172:2 173:0 174:0 175:0 176:0 177:0 178:0 179:0 180:0 181:854 182:24 183:7 184:7 185:4 186:25 187:8 188:4 189:21 190:0 191:854 192:24 193:7 194:7 195:4 196:25 197:8 198:4 199:21 200:0 201:854 202:24 203:7 204:7 205:4 206:25 207:8 208:4 209:21 210:0 211:854 212:24 213:7 214:7 215:4 216:25 217:8 218:4 219:21 220:0 221:854 222:24 223:7 224:7 225:4 226:25 227:8 228:4 229:21 230:0 231:854 232:24 233:7 234:7 235:4 236:25 237:8 238:4 239:21 240:0 241:854 242:24 243:7 244:7 245:4 246:25 247:8 248:4 249:21 250:0 251:156 252:15 253:9 254:6 255:5 256:2 257:3 258:0 259:2 260:1 261:2 262:1 263:1 264:1 265:0 266:2 267:2 268:2 269:3 270:2 271:2 272:0 273:4 274:7 275:17 276:17 277:51 278:63 279:0 280:67 281:111 282:107 283:70 284:126 285:101 286:0 287:72 288:143 289:87 290:83 291:218 292:132 293:0 294:182 295:126 296:132 297:0 298:181 299:133 300:86 301:77 302:80 303:47 304:0 305:32 306:24 307:22 308:17 309:68 310:31 311:0 312:33 313:79 314:37 315:44 316:99 317:136 318:0 319:386 320:248 321:278 322:200 323:220 324:182 325:0 326:349 327:315 328:329 329:101 330:15 331:1 332:0 333:0 334:0 335:0 336:0 337:0 338:0 339:0 340:0 341:0 342:0 343:0 344:0 345:0 346:0 347:0 348:0 349:0 350:0 351:0 352:0 353:0 354:0 355:0 356:0 357:0 358:3 359:13 360:22 361:37 362:34 363:28 364:0 365:34 366:34 367:23 368:25 369:39 370:41 371:0 372:4 373:1 374:0 375:0 376:0 377:0 378:0 
-0.7597656254810589 1:768 2:0 3:0 4:0 5:0 6:0 7:0 8:0 9:0 10:0 11:947 12:6 13:2 14:1 15:0 16:0 17:0 18:0 19:0 20:0 21:745 22:9 23:3 24:2 25:3 26:8 27:14 28:4 29:8 30:0 31:717 32:7 33:1 34:1 35:2 36:4 37:11 38:6 39:17 40:0 41:717 42:7 43:1 44:1 45:2 46:4 47:11 48:6 49:17 50:0 51:946 52:3 53:0 54:0 55:0 56:1 57:2 58:1 59:4 60:0 61:793 62:7 63:2 64:1 65:0 66:0 67:0 68:0 69:0 70:0 71:838 72:31 73:7 74:6 75:9 76:18 77:38 78:5 79:1 80:0 81:689 82:26 83:5 84:6 85:11 86:21 87:11 88:3 89:16 90:0 91:689 92:26 93:5 94:6 95:11 96:21 97:11 98:3 99:16 100:0 101:750 102:7 103:1 104:1 105:2 106:4 107:2 108:0 109:3 110:0 111:764 112:1 113:0 114:0 115:0 116:0 117:0 118:0 119:0 120:0 121:948 122:1 123:0 124:0 125:3 126:1 127:1 128:0 129:0 130:0 131:659 132:27 133:8 134:5 135:9 136:31 137:14 138:3 139:24 140:0 141:659 142:27 143:8 144:5 145:9 146:31 147:14 148:3 149:24 150:0 151:736 152:11 153:3 154:2 155:1 156:6 157:2 158:0 159:4 160:0 161:952 162:2 163:0 164:0 165:0 166:1 167:0 168:0 169:1 170:0 171:796 172:2 173:0 174:0 175:0 176:2 177:2 178:0 179:0 180:0 181:813 182:29 183:7 184:11 185:16 186:34 187:10 188:6 189:15 190:0 191:813 192:29 193:7 194:11 195:16 196:34 197:10 198:6 199:15 200:0 201:813 202:29 203:7 204:11 205:16 206:34 207:10 208:6 209:15 210:0 211:813 212:29 213:7 214:11 215:16 216:34 217:10 218:6 219:15 220:0 221:813 222:29 223:7 224:11 225:16 226:34 227:10 228:6 229:15 230:0 231:813 232:29 233:7 234:11 235:16 236:34 237:10 238:6 239:15 240:0 241:813 242:29 243:7 244:11 245:16 246:34 247:10 248:6 249:15 250:0 251:198 252:18 253:9 254:4 255:5 256:3 257:2 258:0 259:2 260:2 261:1 262:2 263:4 264:3 265:0 266:2 267:2 268:2 269:2 270:3 271:1 272:0 273:4 274:2 275:4 276:6 277:34 278:60 279:0 280:92 281:180 282:115 283:81 284:146 285:110 286:0 287:78 288:152 289:86 290:88 291:227 292:145 293:0 294:159 295:134 296:116 297:0 298:188 299:138 300:87 301:96 302:98 303:47 304:0 305:38 306:23 307:26 308:20 309:56 310:37 311:0 312:32 313:79 314:41 315:43 316:91 317:139 318:0 319:377 320:266 321:265 322:186 323:225 324:204 325:0 326:364 327:373 328:370 329:67 330:12 331:0 332:0 333:0 334:0 335:0 336:0 337:1 338:0 339:0 340:0 341:0 342:0 343:0 344:0 345:0 346:0 347:0 348:0 349:0 350:0 351:0 352:0 353:0 354:0 355:0 356:0 357:0 358:1 359:18 360:27 361:41 362:43 363:34 364:0 365:27 366:32 367:26 368:31 369:36 370:47 371:0 372:5 373:1 374:0 375:0 376:0 377:0 378:0 
-0.7597656251560121 1:768 2:0 3:0 4:0 5:0 6:0 7:0 8:0 9:0 10:0 11:936 12:10 13:3 14:1 15:1 16:1 17:0 18:0 19:0 20:0 21:724 22:16 23:5 24:4 25:3 26:13 27:17 28:5 29:2 30:0 31:871 32:14 33:7 34:5 35:6 36:20 37:12 38:6 39:10 40:0 41:871 42:14 43:7 44:5 45:6 46:20 47:12 48:6 49:10 50:0 51:786 52:3 53:2 54:1 55:1 56:4 57:2 58:1 59:2 60:0 61:754 62:12 63:2 64:2 65:0 66:0 67:0 68:0 69:0 70:0 71:852 72:30 73:8 74:3 75:5 76:13 77:21 78:5 79:1 80:0 81:709 82:17 83:6 84:4 85:9 86:17 87:15 88:3 89:6 90:0 91:709 92:17 93:6 94:4 95:9 96:17 97:15 98:3 99:6 100:0 101:749 102:8 103:2 104:1 105:1 106:3 107:3 108:0 109:1 110:0 111:764 112:1 113:0 114:0 115:0 116:0 117:0 118:0 119:0 120:0 121:958 122:1 123:0 124:0 125:0 126:0 127:0 128:0 129:0 130:0 131:699 132:26 133:5 134:5 135:8 136:17 137:8 138:2 139:18 140:0 141:699 142:26 143:5 144:5 145:8 146:17 147:8 148:2 149:18 150:0 151:737 152:13 153:5 154:2 155:2 156:3 157:2 158:0 159:3 160:0 161:952 162:3 163:1 164:0 165:0 166:0 167:0 168:0 169:0 170:0 171:799 172:1 173:0 174:0 175:0 176:0 177:1 178:0 179:0 180:0 181:842 182:30 183:11 184:11 185:13 186:14 187:8 188:2 189:13 190:0 191:842 192:30 193:11 194:11 195:13 196:14 197:8 198:2 199:13 200:0 201:842 202:30 203:11 204:11 205:13 206:14 207:8 208:2 209:13 210:0 211:842 212:30 213:11 214:11 215:13 216:14 217:8 218:2 219:13 220:0 221:842 222:30 223:11 224:11 225:13 226:14 227:8 228:2 229:13 230:0 231:842 232:30 233:11 234:11 235:13 236:14 237:8 238:2 239:13 240:0 241:842 242:30 243:11 244:11 245:13 246:14 247:8 248:2 249:13 250:0 251:198 252:19 253:6 254:4 255:3 256:3 257:3 258:0 259:2 260:2 261:2 262:3 263:2 264:3 265:0 266:2 267:2 268:2 269:3 270:3 271:1 272:0 273:5 274:3 275:4 276:6 277:28 278:45 279:0 280:77 281:233 282:153 283:98 284:145 285:98 286:0 287:64 288:157 289:86 290:122 291:206 292:135 293:0 294:147 295:137 296:103 297:0 298:187 299:139 300:84 301:88 302:89 303:45 304:0 305:39 306:24 307:22 308:18 309:53 310:35 311:0 312:30 313:96 314:43 315:40 316:92 317:137 318:0 319:340 320:225 321:249 322:167 323:235 324:175 325:0 326:351 327:358 328:335 329:86 330:15 331:0 332:0 333:0 334:0 335:0 336:0 337:0 338:0 339:0 340:0 341:0 342:0 343:0 344:0 345:0 346:0 347:0 348:0 349:0 350:0 351:0 352:0 353:0 354:0 355:1 356:0 357:0 358:0 359:12 360:28 361:34 362:43 363:34 364:0 365:24 366:36 367:27 368:30 369:30 370:45 371:0 372:5 373:1 374:0 375:1 376:0 377:0 378:0 
-0.7607421822198024 1:768 2:0 3:0 4:0 5:0 6:0 7:0 8:0 9:0 10:0 11:937 12:6 13:2 14:2 15:2 16:0 17:0 18:0 19:0 20:0 21:744 22:18 23:6 24:5 25:3 26:3 27:1 28:4 29:0 30:0 31:920 32:14 33:5 34:3 35:3 36:3 37:2 38:2 39:3 40:0 41:920 42:14 43:5 44:3 45:3 46:3 47:2 48:2 49:3 50:0 51:798 52:2 53:1 54:0 55:0 56:0 57:0 58:0 59:0 60:0 61:756 62:7 63:3 64:1 65:0 66:0 67:0 68:0 69:0 70:0 71:893 72:25 73:8 74:5 75:4 76:7 77:2 78:1 79:0 80:0 81:753 82:18 83:5 84:4 85:4 86:3 87:3 88:2 89:1 90:0 91:753 92:18 93:5 94:4 95:4 96:3 97:3 98:2 99:1 100:0 101:760 102:7 103:1 104:1 105:0 106:0 107:0 108:0 109:0 110:0 111:766 112:1 113:0 114:0 115:0 116:0 117:0 118:0 119:0 120:0 121:959 122:0 123:0 124:0 125:0 126:0 127:0 128:0 129:0 130:0 131:748 132:18 133:5 134:5 135:5 136:6 137:2 138:0 139:2 140:0 141:748 142:18 143:5 144:5 145:5 146:6 147:2 148:0 149:2 150:0 151:747 152:11 153:3 154:2 155:1 156:1 157:0 158:0 159:0 160:0 161:953 162:3 163:0 164:0 165:0 166:0 167:0 168:0 169:0 170:0 171:801 172:1 173:0 174:0 175:0 176:0 177:0 178:0 179:0 180:0 181:898 182:22 183:7 184:6 185:6 186:5 187:4 188:1 189:0 190:0 191:898 192:22 193:7 194:6 195:6 196:5 197:4 198:1 199:0 200:0 201:898 202:22 203:7 204:6 205:6 206:5 207:4 208:1 209:0 210:0 211:898 212:22 213:7 214:6 215:6 216:5 217:4 218:1 219:0 220:0 221:898 222:22 223:7 224:6 225:6 226:5 227:4 228:1 229:0 230:0 231:898 232:22 233:7 234:6 235:6 236:5 237:4 238:1 239:0 240:0 241:898 242:22 243:7 244:6 245:6 246:5 247:4 248:1 249:0 250:0 251:211 252:20 253:10 254:5 255:2 256:1 257:2 258:0 259:2 260:2 261:1 262:3 263:2 264:2 265:0 266:2 267:2 268:2 269:2 270:2 271:2 272:0 273:4 274:5 275:5 276:5 277:30 278:41 279:0 280:78 281:245 282:165 283:119 284:146 285:103 286:0 287:67 288:160 289:114 290:147 291:223 292:131 293:0 294:153 295:145 296:116 297:0 298:197 299:149 300:92 301:94 302:86 303:54 304:0 305:37 306:19 307:26 308:21 309:58 310:38 311:0 312:31 313:87 314:44 315:45 316:99 317:148 318:0 319:365 320:247 321:264 322:189 323:278 324:204 325:0 326:399 327:378 328:382 329:75 330:4 331:0 332:0 333:0 334:0 335:0 336:0 337:0 338:0 339:0 340:0 341:0 342:0 343:0 344:0 345:0 346:0 347:0 348:0 349:0 350:0 351:0 352:0 353:0 354:0 355:0 356:0 357:0 358:0 359:10 360:29 361:42 362:45 363:34 364:0 365:33 366:37 367:32 368:28 369:32 370:45 371:0 372:8 373:1 374:0 375:1 376:0 377:0 378:0 
-0.7597656204320495 1:768 2:0 3:0 4:0 5:0 6:0 7:0 8:0 9:0 10:0 11:933 12:10 13:4 14:2 15:1 16:0 17:1 18:0 19:0 20:0 21:750 22:17 23:5 24:4 25:5 26:6 27:3 28:0 29:1 30:0 31:921 32:12 33:3 34:4 35:4 36:5 37:2 38:2 39:2 40:0 41:921 42:12 43:3 44:4 45:4 46:5 47:2 48:2 49:2 50:0 51:798 52:2 53:0 54:0 55:0 56:1 57:0 58:0 59:0 60:0 61:760 62:9 63:2 64:1 65:0 66:0 67:0 68:0 69:0 70:0 71:884 72:26 73:10 74:5 75:5 76:6 77:1 78:4 79:1 80:0 81:743 82:22 83:7 84:4 85:5 86:4 87:1 88:1 89:2 90:0 91:743 92:22 93:7 94:4 95:5 96:4 97:1 98:1 99:2 100:0 101:755 102:10 103:2 104:1 105:1 106:0 107:0 108:0 109:0 110:0 111:765 112:2 113:0 114:0 115:0 116:0 117:0 118:0 119:0 120:0 121:958 122:1 123:0 124:0 125:0 126:0 127:0 128:0 129:0 130:0 131:745 132:21 133:6 134:5 135:5 136:7 137:2 138:1 139:0 140:0 141:745 142:21 143:6 144:5 145:5 146:7 147:2 148:1 149:0 150:0 151:749 152:10 153:4 154:2 155:1 156:1 157:0 158:0 159:0 160:0 161:955 162:2 163:1 164:0 165:0 166:0 167:0 168:0 169:0 170:0 171:800 172:1 173:0 174:0 175:0 176:0 177:0 178:0 179:0 180:0 181:895 182:25 183:9 184:6 185:5 186:4 187:6 188:1 189:1 190:0 191:895 192:25 193:9 194:6 195:5 196:4 197:6 198:1 199:1 200:0 201:895 202:25 203:9 204:6 205:5 206:4 207:6 208:1 209:1 210:0 211:895 212:25 213:9 214:6 215:5 216:4 217:6 218:1 219:1 220:0 221:895 222:25 223:9 224:6 225:5 226:4 227:6 228:1 229:1 230:0 231:895 232:25 233:9 234:6 235:5 236:4 237:6 238:1 239:1 240:0 241:895 242:25 243:9 244:6 245:5 246:4 247:6 248:1 249:1 250:0 251:207 252:21 253:6 254:4 255:3 256:3 257:3 258:0 259:3 260:3 261:2 262:1 263:1 264:2 265:0 266:2 267:1 268:1 269:1 270:3 271:2 272:0 273:3 274:3 275:2 276:5 277:30 278:40 279:0 280:73 281:198 282:160 283:107 284:138 285:98 286:0 287:67 288:157 289:103 290:145 291:210 292:118 293:0 294:149 295:168 296:121 297:0 298:173 299:141 300:80 301:87 302:88 303:48 304:0 305:38 306:24 307:18 308:19 309:50 310:36 311:0 312:32 313:91 314:46 315:43 316:96 317:143 318:0 319:350 320:235 321:265 322:186 323:249 324:203 325:0 326:400 327:383 328:376 329:84 330:4 331:1 332:0 333:0 334:0 335:0 336:0 337:0 338:0 339:0 340:0 341:0 342:0 343:0 344:0 345:0 346:0 347:0 348:0 349:0 350:0 351:0 352:0 353:0 354:0 355:0 356:0 357:0 358:2 359:11 360:32 361:39 362:42 363:32 364:0 365:28 366:36 367:27 368:34 369:22 370:44 371:0 372:7 373:3 374:1 375:1 376:0 377:0 378:0 
-0.7597656251560122 1:768 2:0 3:0 4:0 5:0 6:0 7:0 8:0 9:0 10:0 11:941 12:7 13:3 14:2 15:1 16:0 17:0 18:0 19:0 20:0 21:766 22:12 23:3 24:3 25:1 26:2 27:3 28:2 29:0 30:0 31:924 32:9 33:5 34:3 35:3 36:4 37:3 38:1 39:4 40:0 41:924 42:9 43:5 44:3 45:3 46:4 47:3 48:1 49:4 50:0 51:798 52:2 53:1 54:0 55:0 56:0 57:0 58:0 59:0 60:0 61:766 62:3 63:2 64:0 65:0 66:0 67:0 68:0 69:0 70:0 71:902 72:18 73:4 74:5 75:3 76:2 77:3 78:3 79:4 80:0 81:756 82:18 83:4 84:5 85:3 86:4 87:1 88:1 89:1 90:0 91:756 92:18 93:4 94:5 95:3 96:4 97:1 98:1 99:1 100:0 101:753 102:10 103:2 104:2 105:0 106:0 107:0 108:0 109:0 110:0 111:956 112:2 113:0 114:0 115:0 116:0 117:0 118:0 119:0 120:0 121:805 122:0 123:0 124:0 125:0 126:0 127:0 128:0 129:0 130:0 131:915 132:17 133:8 134:6 135:4 136:4 137:2 138:1 139:0 140:0 141:915 142:17 143:8 144:6 145:4 146:4 147:2 148:1 149:0 150:0 151:780 152:10 153:6 154:3 155:0 156:1 157:0 158:0 159:0 160:0 161:770 162:2 163:1 164:0 165:0 166:0 167:0 168:0 169:0 170:0 171:954 172:1 173:0 174:0 175:0 176:1 177:0 178:0 179:0 180:0 181:745 182:16 183:9 184:5 185:6 186:7 187:3 188:1 189:1 190:0 191:745 192:16 193:9 194:5 195:6 196:7 197:3 198:1 199:1 200:0 201:745 202:16 203:9 204:5 205:6 206:7 207:3 208:1 209:1 210:0 211:745 212:16 213:9 214:5 215:6 216:7 217:3 218:1 219:1 220:0 221:745 222:16 223:9 224:5 225:6 226:7 227:3 228:1 229:1 230:0 231:745 232:16 233:9 234:5 235:6 236:7 237:3 238:1 239:1 240:0 241:745 242:16 243:9 244:5 245:6 246:7 247:3 248:1 249:1 250:0 251:175 252:18 253:6 254:5 255:3 256:2 257:1 258:0 259:2 260:1 261:1 262:1 263:2 264:2 265:0 266:2 267:2 268:1 269:2 270:1 271:1 272:0 273:2 274:4 275:4 276:4 277:22 278:45 279:0 280:65 281:174 282:147 283:95 284:112 285:88 286:0 287:71 288:163 289:84 290:120 291:143 292:87 293:0 294:122 295:159 296:114 297:0 298:143 299:111 300:74 301:68 302:62 303:48 304:0 305:28 306:20 307:20 308:19 309:56 310:30 311:0 312:26 313:52 314:43 315:37 316:99 317:127 318:0 319:311 320:206 321:245 322:182 323:184 324:163 325:0 326:349 327:274 328:329 329:57 330:16 331:0 332:0 333:0 334:0 335:0 336:0 337:0 338:0 339:0 340:0 341:0 342:0 343:0 344:0 345:0 346:0 347:0 348:0 349:0 350:0 351:0 352:0 353:0 354:0 355:0 356:0 357:0 358:2 359:8 360:21 361:43 362:26 363:27 364:0 365:27 366:33 367:28 368:27 369:27 370:34 371:0 372:8 373:1 374:0 375:1 376:0 377:0 378:0 
-0.7607421872688117 1:768 2:0 3:0 4:0 5:0 6:0 7:0 8:0 9:0 10:0 11:947 12:6 13:3 14:1 15:0 16:0 17:0 18:0 19:0 20:0 21:773 22:11 23:3 24:2 25:3 26:4 27:2 28:0 29:0 30:0 31:908 32:12 33:4 34:2 35:5 36:7 37:4 38:4 39:9 40:0 41:908 42:12 43:4 44:2 45:5 46:7 47:4 48:4 49:9 50:0 51:796 52:2 53:0 54:0 55:1 56:1 57:0 58:0 59:1 60:0 61:767 62:4 63:1 64:0 65:0 66:0 67:0 68:0 69:0 70:0 71:905 72:21 73:5 74:4 75:2 76:6 77:3 78:0 79:0 80:0 81:739 82:19 83:6 84:5 85:7 86:6 87:3 88:1 89:4 90:0 91:739 92:19 93:6 94:5 95:7 96:6 97:3 98:1 99:4 100:0 101:751 102:11 103:3 104:1 105:1 106:1 107:0 108:0 109:0 110:0 111:764 112:2 113:0 114:0 115:0 116:0 117:0 118:0 119:0 120:0 121:958 122:1 123:0 124:0 125:0 126:0 127:0 128:0 129:0 130:0 131:755 132:18 133:6 134:4 135:2 136:3 137:3 138:0 139:1 140:0 141:755 142:18 143:6 144:4 145:2 146:3 147:3 148:0 149:1 150:0 151:752 152:9 153:5 154:1 155:0 156:0 157:0 158:0 159:0 160:0 161:956 162:2 163:1 164:0 165:0 166:0 167:0 168:0 169:0 170:0 171:802 172:1 173:0 174:0 175:0 176:0 177:0 178:0 179:0 180:0 181:902 182:27 183:7 184:5 185:4 186:4 187:2 188:1 189:2 190:0 191:902 192:27 193:7 194:5 195:4 196:4 197:2 198:1 199:2 200:0 201:902 202:27 203:7 204:5 205:4 206:4 207:2 208:1 209:2 210:0 211:902 212:27 213:7 214:5 215:4 216:4 217:2 218:1 219:2 220:0 221:902 222:27 223:7 224:5 225:4 226:4 227:2 228:1 229:2 230:0 231:902 232:27 233:7 234:5 235:4 236:4 237:2 238:1 239:2 240:0 241:902 242:27 243:7 244:5 245:4 246:4 247:2 248:1 249:2 250:0 251:179 252:17 253:5 254:2 255:4 256:2 257:2 258:0 259:2 260:2 261:2 262:1 263:2 264:1 265:0 266:2 267:2 268:1 269:1 270:2 271:3 272:0 273:3 274:3 275:5 276:6 277:24 278:46 279:0 280:78 281:165 282:148 283:99 284:124 285:84 286:0 287:73 288:178 289:89 290:132 291:155 292:93 293:0 294:139 295:192 296:126 297:0 298:152 299:115 300:80 301:71 302:65 303:53 304:0 305:32 306:19 307:23 308:17 309:55 310:30 311:0 312:33 313:64 314:44 315:41 316:103 317:129 318:0 319:339 320:220 321:283 322:188 323:211 324:171 325:0 326:364 327:312 328:309 329:75 330:0 331:0 332:0 333:0 334:0 335:0 336:0 337:0 338:0 339:0 340:0 341:0 342:0 343:0 344:0 345:0 346:0 347:0 348:0 349:0 350:0 351:0 352:0 353:0 354:0 355:0 356:0 357:0 358:0 359:14 360:29 361:43 362:33 363:28 364:0 365:29 366:31 367:28 368:31 369:24 370:40 371:0 372:8 373:1 374:0 375:0 376:0 377:0 378:0 
-0.7597656251559887 1:768 2:0 3:0 4:0 5:0 6:0 7:0 8:0 9:0 10:0 11:939 12:10 13:3 14:2 15:0 16:0 17:0 18:0 19:0 20:0 21:772 22:12 23:3 24:3 25:1 26:2 27:1 28:0 29:0 30:0 31:927 32:13 33:4 34:3 35:2 36:2 37:2 38:1 39:2 40:0 41:927 42:13 43:4 44:3 45:2 46:2 47:2 48:1 49:2 50:0 51:799 52:2 53:0 54:0 55:0 56:0 57:0 58:0 59:0 60:0 61:768 62:5 63:0 64:0 65:0 66:0 67:0 68:0 69:0 70:0 71:910 72:21 73:4 74:3 75:2 76:3 77:1 78:3 79:1 80:0 81:753 82:19 83:7 84:5 85:3 86:2 87:2 88:1 89:0 90:0 91:753 92:19 93:7 94:5 95:3 96:2 97:2 98:1 99:0 100:0 101:760 102:6 103:2 104:1 105:0 106:0 107:0 108:0 109:0 110:0 111:766 112:1 113:0 114:0 115:0 116:0 117:0 118:0 119:0 120:0 121:959 122:0 123:0 124:0 125:0 126:0 127:0 128:0 129:0 130:0 131:760 132:14 133:5 134:7 135:1 136:2 137:2 138:1 139:1 140:0 141:760 142:14 143:5 144:7 145:1 146:2 147:2 148:1 149:1 150:0 151:752 152:10 153:3 154:2 155:0 156:1 157:0 158:0 159:0 160:0 161:764 162:2 163:0 164:0 165:0 166:0 167:0 168:0 169:0 170:0 171:955 172:1 173:0 174:0 175:0 176:0 177:0 178:0 179:0 180:0 181:746 182:18 183:6 184:5 185:5 186:5 187:3 188:2 189:1 190:0 191:746 192:18 193:6 194:5 195:5 196:5 197:3 198:2 199:1 200:0 201:746 202:18 203:6 204:5 205:5 206:5 207:3 208:2 209:1 210:0 211:746 212:18 213:6 214:5 215:5 216:5 217:3 218:2 219:1 220:0 221:746 222:18 223:6 224:5 225:5 226:5 227:3 228:2 229:1 230:0 231:746 232:18 233:6 234:5 235:5 236:5 237:3 238:2 239:1 240:0 241:746 242:18 243:6 244:5 245:5 246:5 247:3 248:2 249:1 250:0 251:165 252:17 253:7 254:5 255:2 256:2 257:1 258:0 259:2 260:2 261:2 262:1 263:1 264:2 265:0 266:1 267:3 268:2 269:2 270:1 271:3 272:0 273:3 274:4 275:3 276:4 277:23 278:41 279:0 280:74 281:157 282:142 283:93 284:118 285:85 286:0 287:70 288:162 289:84 290:127 291:162 292:90 293:0 294:134 295:182 296:120 297:0 298:154 299:112 300:74 301:66 302:67 303:49 304:0 305:26 306:19 307:17 308:19 309:52 310:30 311:0 312:33 313:55 314:43 315:31 316:88 317:130 318:0 319:297 320:214 321:287 322:172 323:198 324:155 325:0 326:336 327:303 328:299 329:94 330:1 331:0 332:0 333:0 334:0 335:0 336:0 337:0 338:0 339:0 340:0 341:0 342:0 343:0 344:0 345:0 346:0 347:0 348:0 349:0 350:0 351:0 352:0 353:0 354:0 355:0 356:0 357:0 358:0 359:12 360:24 361:39 362:31 363:29 364:0 365:22 366:29 367:31 368:26 369:26 370:36 371:0 372:7 373:2 374:1 375:1 376:0 377:0 378:0 
-0.7597656251560121 1:768 2:0 3:0 4:0 5:0 6:0 7:0 8:0 9:0 10:0 11:947 12:6 13:2 14:2 15:0 16:0 17:0 18:0 19:0 20:0 21:771 22:13 23:4 24:3 25:2 26:2 27:1 28:0 29:0 30:0 31:918 32:15 33:4 34:3 35:2 36:4 37:2 38:1 39:4 40:0 41:918 42:15 43:4 44:3 45:2 46:4 47:2 48:1 49:4 50:0 51:797 52:3 53:0 54:0 55:0 56:0 57:0 58:0 59:0 60:0 61:766 62:6 63:1 64:0 65:0 66:0 67:0 68:0 69:0 70:0 71:916 72:20 73:5 74:2 75:1 76:3 77:1 78:2 79:1 80:0 81:765 82:17 83:6 84:4 85:2 86:1 87:0 88:0 89:1 90:0 91:765 92:17 93:6 94:4 95:2 96:1 97:0 98:0 99:1 100:0 101:763 102:6 103:2 104:1 105:0 106:0 107:0 108:0 109:0 110:0 111:767 112:1 113:0 114:0 115:0 116:0 117:0 118:0 119:0 120:0 121:767 122:0 123:0 124:0 125:0 126:0 127:0 128:0 129:0 130:0 131:905 132:18 133:6 134:5 135:3 136:4 137:3 138:0 139:1 140:0 141:905 142:18 143:6 144:5 145:3 146:4 147:3 148:0 149:1 150:0 151:782 152:11 153:3 154:1 155:0 156:1 157:1 158:0 159:0 160:0 161:770 162:2 163:0 164:0 165:0 166:0 167:0 168:0 169:0 170:0 171:954 172:2 173:0 174:0 175:0 176:0 177:0 178:0 179:0 180:0 181:747 182:22 183:4 184:3 185:4 186:6 187:5 188:0 189:0 190:0 191:747 192:22 193:4 194:3 195:4 196:6 197:5 198:0 199:0 200:0 201:747 202:22 203:4 204:3 205:4 206:6 207:5 208:0 209:0 210:0 211:747 212:22 213:4 214:3 215:4 216:6 217:5 218:0 219:0 220:0 221:747 222:22 223:4 224:3 225:4 226:6 227:5 228:0 229:0 230:0 231:747 232:22 233:4 234:3 235:4 236:6 237:5 238:0 239:0 240:0 241:747 242:22 243:4 244:3 245:4 246:6 247:5 248:0 249:0 250:0 251:166 252:17 253:7 254:3 255:3 256:1 257:1 258:0 259:2 260:1 261:2 262:1 263:1 264:1 265:0 266:2 267:2 268:1 269:2 270:2 271:2 272:0 273:2 274:3 275:4 276:4 277:21 278:42 279:0 280:75 281:145 282:142 283:89 284:118 285:82 286:0 287:68 288:154 289:77 290:115 291:152 292:101 293:0 294:131 295:178 296:108 297:0 298:144 299:108 300:72 301:67 302:63 303:44 304:0 305:28 306:19 307:21 308:16 309:48 310:30 311:0 312:29 313:60 314:41 315:28 316:83 317:124 318:0 319:297 320:196 321:267 322:189 323:208 324:155 325:0 326:311 327:305 328:289 329:71 330:1 331:0 332:0 333:0 334:0 335:0 336:0 337:0 338:0 339:0 340:0 341:0 342:0 343:0 344:0 345:0 346:0 347:0 348:0 349:0 350:0 351:0 352:0 353:0 354:0 355:0 356:0 357:0 358:0 359:9 360:26 361:35 362:39 363:26 364:0 365:22 366:32 367:27 368:39 369:18 370:34 371:0 372:6 373:1 374:0 375:0 376:0 377:0 378:0 
-0.7607421872753097 1:768 2:0 3:0 4:0 5:0 6:0 7:0 8:0 9:0 10:0 11:948 12:6 13:1 14:1 15:0 16:0 17:0 18:0 19:0 20:0 21:780 22:9 23:4 24:2 25:1 26:1 27:0 28:0 29:0 30:0 31:743 32:10 33:3 34:2 35:1 36:2 37:1 38:1 39:1 40:0 41:743 42:10 43:3 44:2 45:1 46:2 47:1 48:1 49:1 50:0 51:953 52:2 53:0 54:0 55:0 56:0 57:0 58:0 59:0 60:0 61:796 62:6 63:1 64:0 65:0 66:0 67:0 68:0 69:0 70:0 71:742 72:15 73:4 74:2 75:1 76:1 77:1 78:0 79:0 80:0 81:905 82:24 83:5 84:5 85:3 86:2 87:3 88:0 89:0 90:0 91:905 92:24 93:5 94:5 95:3 96:2 97:3 98:0 99:0 100:0 101:793 102:6 103:1 104:1 105:0 106:0 107:0 108:0 109:0 110:0 111:773 112:1 113:0 114:0 115:0 116:0 117:0 118:0 119:0 120:0 121:768 122:0 123:0 124:0 125:0 126:0 127:0 128:0 129:0 130:0 131:913 132:13 133:6 134:6 135:4 136:2 137:2 138:1 139:0 140:0 141:913 142:13 143:6 144:6 145:4 146:2 147:2 148:1 149:0 150:0 151:786 152:8 153:3 154:2 155:1 156:0 157:0 158:0 159:0 160:0 161:771 162:1 163:0 164:0 165:0 166:0 167:0 168:0 169:0 170:0 171:764 172:1 173:0 174:0 175:0 176:1 177:0 178:0 179:0 180:0 181:889 182:25 183:7 184:5 185:7 186:6 187:3 188:1 189:0 190:0 191:889 192:25 193:7 194:5 195:7 196:6 197:3 198:1 199:0 200:0 201:889 202:25 203:7 204:5 205:7 206:6 207:3 208:1 209:0 210:0 211:889 212:25 213:7 214:5 215:7 216:6 217:3 218:1 219:0 220:0 221:889 222:25 223:7 224:5 225:7 226:6 227:3 228:1 229:0 230:0 231:889 232:25 233:7 234:5 235:7 236:6 237:3 238:1 239:0 240:0 241:889 242:25 243:7 244:5 245:7 246:6 247:3 248:1 249:0 250:0 251:181 252:16 253:5 254:4 255:3 256:2 257:2 258:0 259:1 260:2 261:2 262:2 263:1 264:1 265:0 266:2 267:1 268:2 269:1 270:2 271:2 272:0 273:3 274:2 275:3 276:4 277:22 278:46 279:0 280:75 281:167 282:149 283:89 284:114 285:87 286:0 287:76 288:166 289:94 290:132 291:169 292:97 293:0 294:145 295:185 296:119 297:0 298:161 299:115 300:79 301:77 302:71 303:49 304:0 305:31 306:22 307:24 308:19 309:54 310:34 311:0 312:32 313:58 314:41 315:34 316:86 317:137 318:0 319:330 320:197 321:255 322:220 323:211 324:165 325:0 326:346 327:328 328:302 329:79 330:1 331:0 332:0 333:0 334:0 335:0 336:0 337:0 338:0 339:0 340:0 341:0 342:0 343:0 344:0 345:0 346:0 347:0 348:0 349:0 350:0 351:0 352:0 353:0 354:0 355:0 356:0 357:0 358:0 359:8 360:27 361:33 362:46 363:32 364:0 365:27 366:38 367:27 368:38 369:21 370:38 371:0 372:7 373:1 374:1 375:1 376:1 377:0 378:0 
-0.759765625487557 1:768 2:0 3:0 4:0 5:0 6:0 7:0 8:0 9:0 10:0 11:950 12:5 13:2 14:0 15:0 16:0 17:0 18:0 19:0 20:0 21:781 22:9 23:2 24:2 25:1 26:3 27:0 28:0 29:0 30:0 31:738 32:10 33:2 34:2 35:3 36:4 37:1 38:1 39:2 40:0 41:738 42:10 43:2 44:2 45:3 46:4 47:1 48:1 49:2 50:0 51:952 52:2 53:0 54:0 55:0 56:1 57:0 58:0 59:0 60:0 61:796 62:7 63:1 64:0 65:0 66:0 67:0 68:0 69:0 70:0 71:748 72:12 73:3 74:2 75:1 76:1 77:0 78:0 79:0 80:0 81:904 82:21 83:9 84:6 85:2 86:3 87:0 88:0 89:0 90:0 91:904 92:21 93:9 94:6 95:2 96:3 97:0 98:0 99:0 100:0 101:791 102:7 103:2 104:1 105:0 106:0 107:0 108:0 109:0 110:0 111:772 112:1 113:0 114:0 115:0 116:0 117:0 118:0 119:0 120:0 121:768 122:1 123:0 124:0 125:0 126:0 127:0 128:0 129:0 130:0 131:904 132:17 133:10 134:5 135:2 136:4 137:2 138:0 139:0 140:0 141:904 142:17 143:10 144:5 145:2 146:4 147:2 148:0 149:0 150:0 151:784 152:8 153:4 154:1 155:0 156:1 157:0 158:0 159:0 160:0 161:771 162:1 163:0 164:0 165:0 166:0 167:0 168:0 169:0 170:0 171:955 172:1 173:0 174:0 175:0 176:0 177:0 178:0 179:0 180:0 181:750 182:20 183:4 184:4 185:5 186:4 187:2 188:3 189:1 190:0 191:750 192:20 193:4 194:4 195:5 196:4 197:2 198:3 199:1 200:0 201:750 202:20 203:4 204:4 205:5 206:4 207:2 208:3 209:1 210:0 211:750 212:20 213:4 214:4 215:5 216:4 217:2 218:3 219:1 220:0 221:750 222:20 223:4 224:4 225:5 226:4 227:2 228:3 229:1 230:0 231:750 232:20 233:4 234:4 235:5 236:4 237:2 238:3 239:1 240:0 241:750 242:20 243:4 244:4 245:5 246:4 247:2 248:3 249:1 250:0 251:197 252:19 253:8 254:5 255:3 256:2 257:2 258:0 259:2 260:2 261:3 262:3 263:2 264:2 265:0 266:2 267:3 268:2 269:2 270:2 271:3 272:0 273:3 274:4 275:3 276:4 277:23 278:45 279:0 280:82 281:179 282:163 283:96 284:116 285:90 286:0 287:78 288:174 289:99 290:145 291:174 292:105 293:0 294:145 295:201 296:126 297:0 298:169 299:121 300:88 301:76 302:74 303:52 304:0 305:33 306:22 307:24 308:19 309:58 310:34 311:0 312:33 313:60 314:44 315:36 316:100 317:140 318:0 319:339 320:212 321:275 322:215 323:226 324:178 325:0 326:386 327:368 328:350 329:74 330:10 331:0 332:0 333:0 334:0 335:0 336:0 337:0 338:0 339:0 340:0 341:0 342:0 343:0 344:0 345:0 346:0 347:0 348:0 349:0 350:0 351:0 352:0 353:0 354:0 355:0 356:0 357:0 358:0 359:17 360:28 361:37 362:35 363:33 364:0 365:28 366:40 367:26 368:38 369:32 370:40 371:0 372:8 373:2 374:0 375:1 376:0 377:0 378:0 
-0.7597656251559888 1:768 2:0 3:0 4:0 5:0 6:0 7:0 8:0 9:0 10:0 11:952 12:3 13:1 14:1 15:0 16:0 17:0 18:0 19:0 20:0 21:778 22:13 23:2 24:2 25:1 26:1 27:0 28:0 29:0 30:0 31:926 32:14 33:3 34:3 35:3 36:3 37:1 38:0 39:2 40:0 41:926 42:14 43:3 44:3 45:3 46:3 47:1 48:0 49:2 50:0 51:799 52:2 53:0 54:0 55:0 56:0 57:0 58:0 59:0 60:0 61:764 62:6 63:2 64:0 65:0 66:0 67:0 68:0 69:0 70:0 71:908 72:18 73:5 74:5 75:5 76:5 77:1 78:0 79:0 80:0 81:741 82:19 83:7 84:4 85:4 86:5 87:4 88:1 89:1 90:0 91:741 92:19 93:7 94:4 95:4 96:5 97:4 98:1 99:1 100:0 101:756 102:8 103:3 104:1 105:0 106:1 107:0 108:0 109:0 110:0 111:765 112:1 113:0 114:0 115:0 116:0 117:0 118:0 119:0 120:0 121:956 122:1 123:0 124:0 125:0 126:0 127:0 128:0 129:0 130:0 131:754 132:17 133:5 134:4 135:4 136:3 137:1 138:2 139:1 140:0 141:754 142:17 143:5 144:4 145:4 146:3 147:1 148:2 149:1 150:0 151:754 152:9 153:3 154:1 155:1 156:1 157:0 158:0 159:0 160:0 161:765 162:1 163:0 164:0 165:0 166:0 167:0 168:0 169:0 170:0 171:954 172:1 173:0 174:0 175:0 176:0 177:0 178:0 179:0 180:0 181:739 182:20 183:7 184:4 185:4 186:9 187:3 188:2 189:2 190:0 191:739 192:20 193:7 194:4 195:4 196:9 197:3 198:2 199:2 200:0 201:739 202:20 203:7 204:4 205:4 206:9 207:3 208:2 209:2 210:0 211:739 212:20 213:7 214:4 215:4 216:9 217:3 218:2 219:2 220:0 221:739 222:20 223:7 224:4 225:4 226:9 227:3 228:2 229:2 230:0 231:739 232:20 233:7 234:4 235:4 236:9 237:3 238:2 239:2 240:0 241:739 242:20 243:7 244:4 245:4 246:9 247:3 248:2 249:2 250:0 251:197 252:17 253:6 254:3 255:3 256:3 257:1 258:0 259:2 260:3 261:2 262:2 263:1 264:2 265:0 266:2 267:2 268:2 269:3 270:1 271:1 272:0 273:3 274:2 275:3 276:5 277:21 278:41 279:0 280:81 281:204 282:142 283:75 284:131 285:86 286:0 287:75 288:167 289:93 290:136 291:166 292:111 293:0 294:141 295:191 296:114 297:0 298:174 299:120 300:76 301:72 302:70 303:52 304:0 305:34 306:19 307:23 308:16 309:50 310:31 311:0 312:37 313:66 314:46 315:37 316:86 317:125 318:0 319:323 320:220 321:280 322:171 323:199 324:197 325:0 326:346 327:321 328:337 329:77 330:4 331:0 332:0 333:0 334:0 335:0 336:0 337:0 338:0 339:0 340:0 341:0 342:0 343:0 344:0 345:0 346:0 347:0 348:0 349:0 350:0 351:0 352:0 353:0 354:0 355:0 356:0 357:0 358:0 359:12 360:27 361:37 362:39 363:28 364:0 365:26 366:34 367:35 368:35 369:27 370:32 371:0 372:8 373:2 374:0 375:0 376:0 377:0 378:0 
-0.7597656269643314 1:768 2:0 3:0 4:0 5:0 6:0 7:0 8:0 9:0 10:0 11:934 12:8 13:2 14:3 15:0 16:1 17:0 18:0 19:0 20:0 21:759 22:11 23:5 24:2 25:3 26:4 27:6 28:3 29:2 30:0 31:742 32:2 33:1 34:0 35:1 36:1 37:13 38:8 39:0 40:0 41:742 42:2 43:1 44:0 45:1 46:1 47:13 48:8 49:0 50:0 51:762 52:0 53:0 54:0 55:0 56:0 57:2 58:1 59:0 60:0 61:943 62:8 63:2 64:1 65:0 66:0 67:0 68:0 69:0 70:0 71:682 72:21 73:11 74:6 75:4 76:9 77:52 78:6 79:0 80:0 81:627 82:42 83:43 84:16 85:8 86:18 87:70 88:75 89:50 90:0 91:627 92:42 93:43 94:16 95:8 96:18 97:70 98:75 99:50 100:0 101:735 102:10 103:9 104:3 105:1 106:3 107:14 108:15 109:10 110:0 111:761 112:2 113:1 114:0 115:0 116:0 117:2 118:3 119:2 120:0 121:952 122:1 123:0 124:0 125:0 126:0 127:2 128:0 129:0 130:0 131:608 132:36 133:11 134:6 135:7 136:23 137:41 138:10 139:41 140:0 141:608 142:36 143:11 144:6 145:7 146:23 147:41 148:10 149:41 150:0 151:719 152:14 153:5 154:3 155:2 156:5 157:8 158:2 159:8 160:0 161:947 162:3 163:1 164:0 165:0 166:1 167:2 168:0 169:2 170:0 171:798 172:2 173:0 174:0 175:0 176:0 177:0 178:0 179:0 180:0 181:810 182:37 183:10 184:15 185:7 186:21 187:6 188:6 189:29 190:0 191:810 192:37 193:10 194:15 195:7 196:21 197:6 198:6 199:29 200:0 201:810 202:37 203:10 204:15 205:7 206:21 207:6 208:6 209:29 210:0 211:810 212:37 213:10 214:15 215:7 216:21 217:6 218:6 219:29 220:0 221:810 222:37 223:10 224:15 225:7 226:21 227:6 228:6 229:29 230:0 231:810 232:37 233:10 234:15 235:7 236:21 237:6 238:6 239:29 240:0 241:810 242:37 243:10 244:15 245:7 246:21 247:6 248:6 249:29 250:0 251:133 252:13 253:4 254:5 255:3 256:1 257:0 258:0 259:0 260:1 261:1 262:1 263:1 264:2 265:0 266:2 267:1 268:1 269:2 270:2 271:3 272:0 273:7 274:16 275:25 276:22 277:28 278:38 279:0 280:58 281:109 282:112 283:73 284:132 285:87 286:0 287:77 288:148 289:80 290:83 291:186 292:125 293:0 294:161 295:185 296:119 297:0 298:158 299:121 300:83 301:78 302:67 303:46 304:0 305:32 306:20 307:22 308:22 309:47 310:32 311:0 312:38 313:71 314:43 315:41 316:75 317:125 318:0 319:329 320:219 321:306 322:184 323:225 324:205 325:0 326:316 327:328 328:300 329:82 330:5 331:0 332:0 333:0 334:0 335:0 336:0 337:0 338:0 339:0 340:0 341:0 342:0 343:0 344:0 345:0 346:0 347:0 348:0 349:0 350:0 351:0 352:0 353:0 354:0 355:0 356:0 357:0 358:2 359:13 360:28 361:31 362:40 363:24 364:0 365:26 366:30 367:32 368:31 369:23 370:32 371:0 372:6 373:1 374:0 375:0 376:0 377:0 378:0 
-0.7597656251560827 1:768 2:0 3:0 4:0 5:0 6:0 7:0 8:0 9:0 10:0 11:935 12:6 13:3 14:4 15:1 16:1 17:0 18:0 19:0 20:0 21:771 22:10 23:6 24:2 25:1 26:2 27:2 28:1 29:0 30:0 31:768 32:2 33:1 34:0 35:0 36:0 37:0 38:0 39:0 40:0 41:768 42:2 43:1 44:0 45:0 46:0 47:0 48:0 49:0 50:0 51:957 52:0 53:0 54:0 55:0 56:0 57:0 58:0 59:0 60:0 61:784 62:9 63:3 64:2 65:0 66:0 67:0 68:0 69:0 70:0 71:742 72:12 73:4 74:2 75:1 76:1 77:1 78:0 79:1 80:0 81:953 82:3 83:1 84:0 85:0 86:0 87:0 88:0 89:0 90:0 91:953 92:3 93:1 94:0 95:0 96:0 97:0 98:0 99:0 100:0 101:783 102:10 103:4 104:2 105:0 106:0 107:0 108:0 109:0 110:0 111:771 112:2 113:0 114:0 115:0 116:0 117:0 118:0 119:0 120:0 121:806 122:6 123:3 124:3 125:24 126:108 127:0 128:0 129:0 130:0 131:625 132:8 133:3 134:1 135:45 136:78 137:8 138:8 139:16 140:0 141:625 142:8 143:3 144:1 145:45 146:78 147:8 148:8 149:16 150:0 151:855 152:43 153:7 154:4 155:13 156:21 157:3 158:2 159:4 160:0 161:778 162:15 163:1 164:0 165:2 166:4 167:0 168:0 169:0 170:0 171:657 172:13 173:4 174:4 175:250 176:1 177:0 178:0 179:0 180:0 181:557 182:39 183:36 184:20 185:103 186:44 187:15 188:0 189:15 190:0 191:557 192:39 193:36 194:20 195:103 196:44 197:15 198:0 199:15 200:0 201:557 202:39 203:36 204:20 205:103 206:44 207:15 208:0 209:15 210:0 211:557 212:39 213:36 214:20 215:103 216:44 217:15 218:0 219:15 220:0 221:557 222:39 223:36 224:20 225:103 226:44 227:15 228:0 229:15 230:0 231:557 232:39 233:36 234:20 235:103 236:44 237:15 238:0 239:15 240:0 241:557 242:39 243:36 244:20 245:103 246:44 247:15 248:0 249:15 250:0 251:82 252:5 253:3 254:1 255:1 256:2 257:0 258:0 259:2 260:1 261:1 262:2 263:1 264:1 265:0 266:1 267:7 268:12 269:49 270:58 271:24 272:0 273:22 274:18 275:12 276:11 277:20 278:29 279:0 280:31 281:52 282:71 283:47 284:106 285:68 286:0 287:68 288:115 289:63 290:65 291:111 292:78 293:0 294:123 295:213 296:135 297:0 298:150 299:149 300:87 301:93 302:82 303:48 304:0 305:42 306:22 307:24 308:21 309:48 310:35 311:0 312:30 313:78 314:32 315:40 316:83 317:131 318:0 319:347 320:232 321:376 322:251 323:236 324:176 325:0 326:324 327:319 328:289 329:75 330:5 331:0 332:0 333:0 334:0 335:1 336:0 337:0 338:0 339:0 340:0 341:0 342:0 343:0 344:0 345:0 346:0 347:0 348:0 349:0 350:0 351:0 352:0 353:1 354:0 355:0 356:0 357:0 358:2 359:10 360:27 361:35 362:36 363:27 364:0 365:27 366:26 367:30 368:34 369:25 370:34 371:0 372:7 373:1 374:0 375:0 376:0 377:0 378:0 
-0.7597656251560121 1:768 2:0 3:0 4:0 5:0 6:0 7:0 8:0 9:0 10:0 11:942 12:6 13:3 14:1 15:0 16:0 17:0 18:0 19:0 20:0 21:766 22:14 23:4 24:2 25:2 26:1 27:2 28:1 29:2 30:0 31:767 32:2 33:0 34:0 35:0 36:0 37:0 38:0 39:0 40:0 41:767 42:2 43:0 44:0 45:0 46:0 47:0 48:0 49:0 50:0 51:766 52:1 53:0 54:0 55:0 56:0 57:0 58:0 59:0 60:0 61:939 62:12 63:5 64:2 65:0 66:0 67:0 68:0 69:0 70:0 71:771 72:13 73:6 74:3 75:1 76:2 77:0 78:0 79:0 80:0 81:768 82:2 83:1 84:0 85:0 86:0 87:0 88:0 89:0 90:0 91:768 92:2 93:1 94:0 95:0 96:0 97:0 98:0 99:0 100:0 101:758 102:7 103:2 104:0 105:0 106:0 107:0 108:0 109:0 110:0 111:957 112:1 113:0 114:0 115:0 116:0 117:0 118:0 119:0 120:0 121:802 122:2 123:0 124:0 125:0 126:0 127:0 128:0 129:0 130:0 131:757 132:10 133:3 134:1 135:0 136:0 137:0 138:0 139:0 140:0 141:757 142:10 143:3 144:1 145:0 146:0 147:0 148:0 149:0 150:0 151:900 152:30 153:5 154:2 155:4 156:6 157:2 158:3 159:0 160:0 161:794 162:6 163:1 164:0 165:0 166:1 167:0 168:0 169:0 170:0 171:747 172:6 173:1 174:1 175:0 176:2 177:2 178:10 179:0 180:0 181:898 182:40 183:6 184:1 185:1 186:1 187:2 188:3 189:0 190:0 191:898 192:40 193:6 194:1 195:1 196:1 197:2 198:3 199:0 200:0 201:898 202:40 203:6 204:1 205:1 206:1 207:2 208:3 209:0 210:0 211:898 212:40 213:6 214:1 215:1 216:1 217:2 218:3 219:0 220:0 221:898 222:40 223:6 224:1 225:1 226:1 227:2 228:3 229:0 230:0 231:898 232:40 233:6 234:1 235:1 236:1 237:2 238:3 239:0 240:0 241:898 242:40 243:6 244:1 245:1 246:1 247:2 248:3 249:0 250:0 251:68 252:6 253:3 254:2 255:1 256:1 257:1 258:0 259:2 260:1 261:1 262:0 263:0 264:1 265:0 266:1 267:0 268:2 269:1 270:2 271:6 272:0 273:14 274:16 275:16 276:16 277:21 278:33 279:0 280:41 281:60 282:72 283:50 284:104 285:75 286:0 287:52 288:124 289:73 290:74 291:121 292:84 293:0 294:134 295:233 296:142 297:0 298:142 299:150 300:115 301:116 302:112 303:55 304:0 305:40 306:30 307:26 308:21 309:51 310:39 311:0 312:30 313:71 314:41 315:36 316:87 317:155 318:0 319:313 320:239 321:392 322:249 323:281 324:182 325:0 326:325 327:318 328:303 329:78 330:12 331:0 332:0 333:0 334:0 335:0 336:0 337:0 338:0 339:0 340:0 341:0 342:0 343:0 344:0 345:0 346:0 347:0 348:0 349:0 350:0 351:0 352:0 353:0 354:0 355:0 356:0 357:0 358:1 359:9 360:28 361:35 362:40 363:25 364:0 365:23 366:35 367:27 368:34 369:27 370:35 371:0 372:6 373:2 374:0 375:0 376:0 377:0 378:0 
-0.7607421873078353 1:768 2:0 3:0 4:0 5:0 6:0 7:0 8:0 9:0 10:0 11:945 12:8 13:1 14:1 15:0 16:0 17:0 18:0 19:0 20:0 21:778 22:12 23:2 24:2 25:1 26:1 27:1 28:1 29:0 30:0 31:770 32:2 33:0 34:0 35:0 36:0 37:0 38:0 39:0 40:0 41:770 42:2 43:0 44:0 45:0 46:0 47:0 48:0 49:0 50:0 51:767 52:0 53:0 54:0 55:0 56:0 57:0 58:0 59:0 60:0 61:944 62:10 63:2 64:0 65:0 66:0 67:0 68:0 69:0 70:0 71:782 72:12 73:2 74:0 75:1 76:1 77:1 78:0 79:1 80:0 81:770 82:2 83:0 84:0 85:0 86:0 87:0 88:0 89:0 90:0 91:770 92:2 93:0 94:0 95:0 96:0 97:0 98:0 99:0 100:0 101:750 102:10 103:4 104:3 105:0 106:0 107:0 108:0 109:0 110:0 111:955 112:2 113:1 114:0 115:0 116:0 117:0 118:0 119:0 120:0 121:803 122:1 123:0 124:0 125:0 126:0 127:0 128:0 129:0 130:0 131:760 132:7 133:2 134:1 135:0 136:0 137:0 138:0 139:0 140:0 141:760 142:7 143:2 144:1 145:0 146:0 147:0 148:0 149:0 150:0 151:916 152:18 153:6 154:5 155:2 156:1 157:2 158:0 159:0 160:0 161:796 162:5 163:1 164:1 165:0 166:0 167:0 168:0 169:0 170:0 171:757 172:3 173:1 174:0 175:1 176:2 177:4 178:0 179:0 180:0 181:918 182:12 183:6 184:4 185:2 186:3 187:2 188:0 189:0 190:0 191:918 192:12 193:6 194:4 195:2 196:3 197:2 198:0 199:0 200:0 201:918 202:12 203:6 204:4 205:2 206:3 207:2 208:0 209:0 210:0 211:918 212:12 213:6 214:4 215:2 216:3 217:2 218:0 219:0 220:0 221:918 222:12 223:6 224:4 225:2 226:3 227:2 228:0 229:0 230:0 231:918 232:12 233:6 234:4 235:2 236:3 237:2 238:0 239:0 240:0 241:918 242:12 243:6 244:4 245:2 246:3 247:2 248:0 249:0 250:0 251:73 252:7 253:4 254:1 255:2 256:1 257:1 258:0 259:0 260:1 261:1 262:1 263:1 264:2 265:0 266:1 267:1 268:1 269:0 270:1 271:1 272:0 273:3 274:9 275:11 276:11 277:21 278:27 279:0 280:39 281:54 282:75 283:53 284:106 285:75 286:0 287:52 288:113 289:67 290:80 291:125 292:78 293:0 294:130 295:147 296:126 297:0 298:149 299:147 300:124 301:110 302:120 303:63 304:0 305:41 306:31 307:28 308:23 309:52 310:34 311:0 312:32 313:61 314:41 315:35 316:91 317:140 318:0 319:348 320:214 321:362 322:240 323:313 324:164 325:0 326:310 327:309 328:301 329:55 330:4 331:0 332:0 333:0 334:0 335:0 336:0 337:0 338:0 339:0 340:0 341:0 342:0 343:0 344:0 345:0 346:0 347:0 348:0 349:0 350:0 351:0 352:0 353:0 354:0 355:0 356:0 357:0 358:1 359:9 360:30 361:36 362:36 363:25 364:0 365:27 366:29 367:29 368:27 369:24 370:32 371:0 372:6 373:2 374:0 375:0 376:1 377:0 378:0 
