svm_type c_svc
kernel_type linear
nr_class 2
total_sv 136
rho 0.988532
label 1 -1
nr_sv 66 70
SV
1 1:156 2:46
1 1:156 2:59
1 1:156 2:64
1 1:156 2:76
-0.46181 1:146 2:71
1 1:156 2:78
1 1:156 2:80
-1 1:146 2:76
-1 1:146 2:77
1 1:156 2:82
1 1:156 2:84
-1 1:146 2:82
1 1:156 2:87
1 1:156 2:88
-1 1:146 2:84
-0.383646 1:156 2:89
1 1:156 2:89
-1 1:146 2:86
1 1:156 2:91
-1 1:156 2:92
1 1:156 2:94
-1 1:146 2:91
-1 1:146 2:93
-1 1:156 2:99
1 1:156 2:99
-1 1:156 2:100
1 1:156 2:101
1 1:156 2:103
-1 1:156 2:104
-1 1:156 2:106
-1 1:156 2:108
1 1:156 2:108
1 1:156 2:110
1 1:156 2:110
-1 1:156 2:111
1 1:156 2:112
1 1:160 2:114
1 1:160 2:119
-1 1:156 2:118
-0.95083 1:160 2:123
-1 1:156 2:125
-1 1:156 2:126
-0.33482 1:160 2:127
1 1:160 2:131
-1 1:156 2:133
-1 1:146 2:131
-0.00235946 1:160 2:135
-1 1:146 2:132
-1 1:158 2:139
-0.888549 1:160 2:141
-1 1:160 2:141
-1 1:160 2:143
-1 1:146 2:140
1 1:160 2:144
1 1:160 2:146
-1 1:146 2:143
1 1:160 2:147
-1 1:156 2:147
-1 1:160 2:151
1 1:160 2:151
-1 1:154 2:150
-1 1:156 2:152
-1 1:156 2:154
1 1:156 2:154
1 1:160 2:155
-1 1:156 2:156
1 1:160 2:157
1 1:160 2:157
1 1:156 2:157
-1 1:160 2:158
-1 1:160 2:158
-1 1:160 2:160
-1 1:158 2:160
-1 1:156 2:161
1 1:160 2:162
-1 1:158 2:162
1 1:160 2:164
1 1:160 2:164
-1 1:154 2:163
1 1:174 2:166
-1 1:146 2:162
1 1:160 2:165
-1 1:160 2:166
1 1:118 2:154
1 1:160 2:167
1 1:160 2:167
1 1:160 2:167
1 1:160 2:167
1 1:160 2:168
1 1:156 2:169
1 1:156 2:169
-1 1:158 2:170
-1 1:158 2:171
-1 1:158 2:171
-1 1:160 2:172
-1 1:158 2:172
1 1:158 2:172
-1 1:160 2:173
1 1:160 2:173
1 1:158 2:173
1 1:160 2:176
-1 1:160 2:177
1 1:158 2:177
1 1:118 2:166
-1 1:160 2:179
1 1:160 2:179
-1 1:158 2:179
1 1:158 2:179
1 1:118 2:168
1 1:160 2:180
-1 1:146 2:178
-1 1:158 2:182
1 1:158 2:182
-1 1:160 2:183
1 1:160 2:183
1 1:160 2:183
-1 1:154 2:183
1 1:158 2:184
1 1:174 2:186
-1 1:158 2:185
1 1:118 2:174
1 1:156 2:185
-1 1:156 2:187
-1 1:146 2:186
1 1:158 2:189
-1 1:146 2:187
-1 1:146 2:189
1 1:118 2:183
-1 1:146 2:191
-1 1:146 2:71
-1 1:160 2:186
1 1:118 2:190
-0.701833 1:160 2:190
-1 1:146 2:71
-0.276152 1:160 2:187
1 1:118 2:196
