svm_type c_svc
kernel_type rbf
gamma 0.5
nr_class 2
total_sv 143
rho 0.24551
label 1 -1
nr_sv 63 80
SV
1 1:156 2:46 
1 1:156 2:59 
1 1:156 2:64 
1 1:156 2:76 
1 1:156 2:78 
1 1:156 2:80 
1 1:156 2:82 
1 1:156 2:84 
1 1:156 2:87 
1 1:156 2:88 
1 1:156 2:89 
1 1:156 2:91 
1 1:156 2:94 
1 1:156 2:99 
1 1:156 2:101 
1 1:156 2:103 
1 1:156 2:108 
0.7355993933776186 1:156 2:110 
0.981369793410086 1:156 2:110 
1 1:156 2:112 
1 1:160 2:114 
1 1:160 2:119 
1 1:160 2:131 
1 1:160 2:144 
0.588559689963063 1:160 2:146 
0.8779429883266853 1:160 2:147 
1 1:160 2:151 
1 1:156 2:154 
0.9963148044296897 1:160 2:155 
1 1:160 2:157 
1 1:160 2:157 
1 1:156 2:157 
1 1:160 2:162 
0.6380069046251698 1:160 2:164 
1 1:174 2:166 
1 1:160 2:165 
1 1:118 2:154 
0.3836587933837428 1:160 2:167 
0.9974051290318914 1:160 2:167 
0.5427146877743891 1:160 2:168 
0.4590590818292908 1:156 2:169 
0.8416096829409031 1:156 2:169 
1 1:158 2:172 
1 1:160 2:173 
1 1:158 2:173 
1 1:160 2:176 
1 1:158 2:177 
1 1:118 2:166 
1 1:160 2:179 
1 1:158 2:179 
1 1:118 2:168 
1 1:160 2:180 
1 1:158 2:182 
1 1:160 2:183 
1 1:160 2:183 
1 1:158 2:184 
1 1:174 2:186 
1 1:118 2:174 
1 1:156 2:185 
1 1:158 2:189 
1 1:118 2:183 
1 1:118 2:190 
1 1:118 2:196 
-1 1:156 2:78 
-0.4698855944169396 1:146 2:76 
-0.46988632484581 1:146 2:77 
-1 1:156 2:83 
-0.6766748432791718 1:146 2:82 
-1 1:156 2:87 
-0.5712995772152645 1:146 2:84 
-1 1:156 2:89 
-0.6764262067140375 1:146 2:86 
-1 1:156 2:92 
-0.6641344819483916 1:146 2:91 
-0.6645619719348953 1:146 2:93 
-0.664432426371093 1:160 2:99 
-1 1:156 2:99 
-0.6647798259370757 1:160 2:101 
-1 1:156 2:100 
-1 1:156 2:104 
-0.6309068247849063 1:156 2:106 
-1 1:156 2:108 
-1 1:156 2:111 
-0.7544516503580281 1:156 2:118 
-0.7546387252505167 1:160 2:123 
-0.4699070468445883 1:156 2:125 
-0.469683688383488 1:156 2:126 
-0.7547238201073997 1:160 2:127 
-0.7545891556669283 1:156 2:133 
-0.4698667311801916 1:146 2:131 
-0.7544832595874128 1:160 2:135 
-0.4698667311801676 1:146 2:132 
-0.7432113403232128 1:158 2:139 
-0.6162776853534013 1:160 2:141 
-1 1:160 2:143 
-0.7461883679543259 1:146 2:140 
-0.6641653121349576 1:170 2:147 
-0.7460180444332601 1:146 2:143 
-0.6644810193527091 1:170 2:149 
-0.7538631494691742 1:156 2:147 
-1 1:160 2:151 
-0.7398140057113664 1:154 2:150 
-0.4757094914082358 1:170 2:153 
-0.4580697950566251 1:170 2:154 
-0.7400800507881039 1:156 2:152 
-1 1:156 2:154 
-0.7493142300957637 1:170 2:157 
-1 1:156 2:156 
-1 1:160 2:158 
-0.8923425970943294 1:160 2:158 
-0.5731636642142409 1:160 2:160 
-0.5087485143686333 1:158 2:160 
-0.5493784990715409 1:170 2:163 
-0.6363212881472654 1:156 2:161 
-0.7711896958497884 1:158 2:162 
-0.3259529763858877 1:170 2:164 
-0.7427473194158212 1:154 2:163 
-0.7043193631226525 1:170 2:166 
-0.7540014662322138 1:146 2:162 
-1 1:160 2:166 
-0.5608631233298756 1:158 2:170 
-0.5102052582606069 1:158 2:171 
-0.7850168971011349 1:160 2:172 
-1 1:158 2:172 
-1 1:160 2:173 
-1 1:160 2:177 
-1 1:160 2:179 
-1 1:158 2:179 
-0.7545611606712693 1:146 2:178 
-1 1:158 2:182 
-1 1:160 2:183 
-0.7725796653591507 1:154 2:183 
-1 1:158 2:185 
-0.8909769072094461 1:156 2:187 
-0.5382031198366106 1:146 2:186 
-0.3451230978047882 1:146 2:187 
-0.6108897611760558 1:146 2:189 
-0.6714199634645183 1:146 2:191 
-0.3954449132656315 1:160 2:186 
-0.8308936649551313 1:160 2:190 
-0.7541153270097671 1:146 2:71 
-0.5071755212475891 1:160 2:187 
-0.7542158064111384 1:174 2:173 
