svm_type c_svc
kernel_type linear
nr_class 2
total_sv 35
rho -0.462579
label 1 2
nr_sv 18 17
SV
0.01938151885936276 1:0.616 2:0.6619 3:0.5675 4:0.3305 5:0.249 6:0.4963 7:0.3873 8:0.4721 9:0.4961 10:0.3902 11:0.2085 12:0.4242 13:0.4272 14:0.4618 15:0.2651 16:0.5372 17:0.2162 18:0.435 19:0.3005 20:0.2691 21:0.4318 22:0.3524 23:0.4145 24:0.3998 25:0.5842 26:0.2318 27:0.3742 28:0.2101 29:0.4623 30:0.1861 31:0.165 32:0.7992 33:0.458 34:0.7293 35:0.5907 36:0.4889 37:0.1719 38:0.5912 39:0.4043 40:0.4043 41:0.4043 42:0.4043 43:0.204 44:0.7749 45:0.5761 46:0.4133 47:0.2033 48:0.3829 49:0.8738 50:0.2392 51:0.2392 52:0.2392 53:0.2392 54:0.2077 55:0.4751 56:0.5518 57:0.3743 58:0.3659 59:0.6378 60:0.2849 61:0.2946 62:0.2162 63:0.3414 64:0.3982 65:0.5181 66:0.5956 67:0.4102 68:0.4301 69:0.3458 70:1 71:0.245 72:0.1523 73:0.4323 74:0.3429 75:0.3147 76:0.2482 77:0.3035 78:0.3859 79:0.4784 80:0.2486 81:0.405 82:0.3064 83:0.3364 84:0.4183 85:0.2762 86:0.1756 87:0.5764 88:0.149 89:0.3617 90:0.2894 91:0.2145 92:0.5611 93:0.4214 94:0.6629 95:0.1617 96:0.4009 97:0.3127 98:0.4745 99:0.492 100:0.2199 101:0.5831 102:0.3884 103:0.3083 104:0.4577 105:0.2787 106:0.5609 107:0.2272 108:0.551 109:0.3755 110:0.4585 111:0.7406 112:0.4136 113:0.2989 114:0.1988 115:0.3238 116:0.0761 117:0.4409 118:0.2038 119:0.1401 120:0.3986 121:0.4765 122:0.4154 123:0.3277 124:0.0955 125:0.7557 126:0.7826 127:0.198 128:0.1766 129:0.294 130:0.1933 131:0.4541 132:0.1611 133:0.343 134:0.5688 135:0.2487 136:0.2688 137:0.6145 138:0.1202 139:0.2534 140:0.8496 141:0.0819 142:0.0916 143:0.0852 144:0.3247 145:0.4243 146:0.4521 147:0.0581 148:0.5055 149:0.3476 150:0.4464 151:0.3333 152:0.273 153:0.601 154:0.2458 155:0.339 156:0.2999 157:0.2997 158:0.3007 159:0.4053 160:0.3383 161:0.6455 162:0.7391 163:0.2296 164:0.1514 165:0.238 166:0.4811 167:0.1959 168:0.2726 169:0.3523 170:0.1639 171:0.3029 172:0.3413 173:0.35 174:0.3345 175:0.555 176:0.3325 177:0.0343 178:0.2833 179:0.2788 180:0.415 181:0.6885 182:0.4317 183:0.5141 184:0.1832 185:0.8129 186:0.641 187:0.1494 188:0.3336 189:0.2631 190:0.22 191:0.5437 192:0.1929 193:0.2969 194:0.2742 195:0.2804 196:0.2953 197:0.3029 198:0.2601 199:0.2049 200:0.2564 201:0.78 202:0.4383 203:0.2604 204:0.6485 205:0.4839 206:0.3855 207:0.173 208:0.4886 209:0.3643 210:0.2911 211:0.3048 212:0.1135 213:0.2547 214:0.5037 215:0.2925 216:0.283 217:0.1433 218:0.4274 219:0.4654 220:0.3315 221:0.4586 222:0.4314 223:0.415 224:0.3432 225:0.9122 226:0.2944 227:0.2942 228:0.1889 229:0.8588 230:0.2085 231:0.4093 232:0.3044 233:0.3696 234:0.166 235:0.4197 236:0.1872 237:0.2193 238:0.4865 239:0.5112 240:0.3 241:0.1581 242:0.6028 243:0.2139 244:0.2351 245:0.6151 246:0.0619 247:0.4943 248:0.4732 249:0.3969 250:0.3329 251:0.0791 252:0.174 253:0.52 254:0.2538 255:0.5315 256:0.284 257:0.2361 258:0.1372 259:0.4359 260:0.1389 261:0.1389 262:0.1389 263:0.1389 264:0.0812 265:0.1899 266:0.2724 267:0.6564 268:0.1504 269:0.5055 270:0.3669 271:0.15 272:0.2537 273:0.4692 274:0.4948 275:0.2059 276:0.3686 277:0.2034 278:0.5848 279:0.5362 280:0.3162 281:0.4114 282:0.4946 283:0.2023 284:0.4459 285:0.1534 286:0.5006 287:0.4422 288:0.1193 289:0.3186 290:0.2324 291:0.1696 292:0.3419 293:0.379 294:0.4749 295:0.3227 296:0.117 297:0.3419 298:0.2703 299:0.2436 300:0.4624 301:1 302:0.1932 303:0.2864 304:0.3 305:0.2771 306:0.042 307:0.5048 308:0.3137 309:0.3455 310:0.1604 311:0.4556 312:0.6729 313:0.2764 314:0.813 315:0.3551 316:0.1916 317:0.0239 318:0.2681 319:0.2874 320:0.6063 321:0.6555 322:0.5233 323:0.4422 324:0.3358 325:0.1878 326:0.1774 327:0.2069 328:0.6771 329:0.4791 330:0.5719 331:0.2941 332:0.7325 333:0.463 334:0.1182 335:0.2858 336:0.7017 337:0.5564 338:0.1928 339:0.3379 340:0.5146 341:0.7088 342:0.1194 343:0.1643 344:0.2685 345:0.3515 346:0.549 347:0.5454 348:0.3971 349:0.5313 350:0.5186 351:0.2743 352:0.4408 353:0.4331 354:0.176 355:0.4324 356:0.4117 357:0.1068 358:0.4497 359:0.2241 360:0.0653 361:0.4687 362:0.4992 363:0.3296 364:0.1276 365:0.1104 366:0.2586 367:0.4046 368:0.1985 369:0.3337 370:0.441 371:0.677 372:0.1871 373:0.4892 374:0.3728 375:0.2898 376:0.5325 377:0.8277 378:0.4213 379:0.208 380:0.1731 381:0.1729 382:0.4819 383:0.4493 384:0.258 385:0.2352 386:0.2714 387:0.2148 388:0.4534 389:0.4695 390:0.4729 391:0.1719 392:0.2027 393:0.3043 394:0.9921 395:0.64 396:0.2618 397:0.4531 398:0.2622 399:0.1795 400:0.45 401:0.751 402:0.3656 403:0.6502 404:0.3726 405:0.1812 406:0.2568 407:0.2316 408:0.2703 409:0.2926 410:0.4811 411:0.2677 412:0.3223 413:0.1605 414:0.6934 415:0.792 416:0.4231 417:0.233 418:0.6481 419:0.394 420:0.3394 421:0.3088 422:0.4868 423:0.4289 424:0.3479 425:0.2887 426:0.2648 427:0.2802 428:0.4552 429:0.4392 430:0.1939 431:0.3071 432:0.2433 433:0.472 434:0.6818 435:0.5045 436:0.4182 437:0.2255 438:0.4033 439:0.4958 440:0.1697 441:0.7238 442:0.4492 443:0.2703 444:0.2479 445:0.2491 446:0.4774 447:0.3716 448:0.2979 449:0.2936 450:0.2083 451:0.5136 452:0.5122 453:0.4075 454:0.4083 455:0.2699 456:0.277 457:0.4229 458:0.7002 459:0.3213 460:0.1487 461:0.3319 462:0.4604 463:0.2233 464:0.0998 465:0.6952 466:0.2123 467:0.3327 468:0.4112 469:0.2902 470:0.3183 471:0.4598 472:0.3158 473:0.1928 474:0.7893 475:0.3735 476:0.2194 477:0.3436 478:0.4316 479:0.2161 480:0.2036 481:0.5168 482:0.1412 483:0.2919 484:0.4306 485:0.6357 486:0.2854 487:0.3866 488:0.2093 489:0.4018 490:0.181 491:0.3176 492:0.3238 493:0.6212 494:0.4516 495:0.1339 496:0.4448 497:0.656 498:0.2435 499:0.4775 500:0.1003 501:0.2583 502:0.1616 503:0.2678 504:0.3486 505:0.5295 506:0.2288 507:0.2787 508:0.3064 509:0.2645 510:0.3344 511:0.3852 512:0.3229 513:0.1175 514:0.3346 515:0.2006 516:0.0776 517:0.5478 518:0.1381 519:0.7412 520:0.3661 521:0.5768 522:0.5552 523:0.4176 524:0.3639 525:0.3758 526:0.6956 527:0.4056 528:0.57 529:0.3527 530:0.2387 531:0.5612 532:0.3652 533:0.3137 534:0.2732 535:0.169 536:0.2195 537:0.7702 538:0.1472 539:0.2556 540:0.6753 541:0.2626 542:0.4305 543:0.2778 544:0.1287 545:0.4523 546:0.2414 547:0.2089 548:0.4016 549:0.3735 550:0.1488 551:0.2816 552:0.4455 553:0.5134 554:0.7472 555:0.763 556:0.2463 557:0.5384 558:0.4183 559:0.0331 560:0.4341 561:0.1182 562:0.177 563:0.2946 564:0.6505 565:0.1179 566:0.2709 567:0.4153 568:0.3873 569:0.2551 570:0.1976 571:0.1619 572:0.2904 573:0.7398 574:0.3172 575:0.1882 576:0.2483 577:0.2303 578:0.2488 579:0.3182 580:0.5127 581:0.2551 582:0.4833 583:0.2759 584:0.1563 585:0.5147 586:0.2063 587:0.4068 588:0.2797 589:0.3993 590:0.2423 591:0.5866 592:0.3546 593:0.4648 594:0.3533 595:0.2171 596:0.2231 597:0.3725 598:0.4047 599:0.4845 600:0.0687 601:0.4625 602:0.5097 603:0.323 604:0.5131 605:0.5725 606:0.1911 607:0.2276 608:0.2877 609:0.3355 610:0.2793 611:0.3004 612:0.5639 613:0.2463 614:0.2098 615:0.4209 616:0.3182 617:0.3489 618:0.2722 619:0.1033 620:0.2397 621:0.4109 622:0.3425 623:0.3962 624:0.3267 625:0.2273 626:0.2235 627:0.3585 628:0.26 629:0.2947 630:0.2334 631:0.3569 632:0.4286 633:0.2286 634:0.6081 635:0.2131 636:0.4188 637:0.4288 638:0.3168 639:0.2502 640:0.2276 641:0.1866 642:0.5794 643:0.1905 644:0.335 645:0.176 646:0.2425 647:0.3611 648:0.3224 649:0.1699 650:0.2701 651:0.3397 652:0.1412 653:0.2803 654:0.4662 655:0.2775 656:0.435 657:0.0457 658:0.4878 659:0.4596 660:0.4095 661:0.3789 662:0.3154 663:0.623 664:0.1207 665:0.4532 666:0.2741 667:0.2578 668:0.4513 669:0.1852 670:0.4321 671:0.3785 672:0.2483 673:0.1461 674:0.5192 675:0.1738 676:0.5034 677:0.7205 678:0.486 679:0.4696 680:0.7644 681:0.7122 682:0.4949 683:0.2545 684:0.1641 685:0.4487 686:0.756 687:0.4734 688:0.3881 689:0.2011 690:0.6049 691:0.3174 692:0.4663 693:0.2327 694:0.1405 695:0.0739 696:0.6543 697:0.3312 698:0.077 699:0.3012 700:0.4873 701:0.355 702:0.2 703:0.5903 704:0.1249 705:0.1644 706:0.5021 707:0.6361 708:0.1596 709:0.5468 710:0.2117 711:0.3864 712:0.4452 713:0.3138 714:0.3887 715:0.0697 716:0.1202 717:0.5825 718:0.4109 719:0.5681 720:0.324 721:0.6231 722:0.4949 723:0.2643 724:0.2168 725:0.4731 726:0.3706 727:0.2504 728:0.2897 729:0.2754 730:0.3519 731:0.3506 732:0.5698 733:0.1626 734:0.2119 735:0.5107 736:0.2511 737:0.5517 738:0.3186 739:0.5397 740:0.5051 741:0.3746 742:0.2807 743:0.7018 744:0.4529 745:0.2005 746:0.4674 747:0.3174 748:0.4318 749:0.3898 750:0.4864 751:0.1215 752:0.399 753:0.3687 754:0.3072 755:0.3396 756:0.1474 757:0.465 758:0.3773 759:0.2262 760:0.7634 761:0.2313 762:0.3768 763:0.341 764:0.4336 765:0.5359 766:0.2739 767:0.1442 768:0.3833 769:0.5543 770:0.1154 771:0.1382 772:0.2834 773:0.3239 774:0.4565 775:0.2291 776:0.2261 777:0.3183 778:0.4097 779:0.4215 780:0.1477 781:0.3253 782:0.2562 783:0.2187 784:0.4233 785:0.194 786:0.2527 787:0.271 788:0.1324 789:0.3055 790:0.2498 791:0.5293 792:1 793:0.4489 794:0.3198 795:0.285 796:0.5928 797:0.3819 798:0.2905 799:0.1616 800:0.4864 801:0.2561 802:0.3233 803:0.341 804:0.2453 805:0.7031 806:0.2429 807:0.395 808:0.4725 809:0.3865 810:0.6034 811:0.454 812:0.3539 813:0.4371 814:0.3106 815:0.321 816:0.3632 817:0.4701 818:0.4368 819:0.1268 820:0.3758 821:0.3147 822:0.9418 823:0.5985 824:0.3707 825:0.4027 826:0.3374 827:0.2696 828:0.2396 829:0.1349 830:0.199 831:0.596 832:0.2955 833:0.3435 834:0.2081 835:0.3183 836:0.3944 837:0.2815 838:0.3442 839:0.2325 840:0.0959 841:0.3105 842:0.4899 843:0.1294 844:0.6384 845:0.6989 846:0.4832 847:0.5074 848:0.4481 849:0.7775 850:0.7024 851:0.4692 852:0.2817 853:0.1557 854:0.2016 855:0.2509 856:0.3262 857:0.2583 858:0.2674 859:0.3413 860:0.4148 861:0.2823 862:0.3254 863:0.5186 864:0.385 865:0.1779 866:0.4324 867:0.3723 868:0.1632 869:0.3972 870:0.763 871:0.4481 872:0.4008 873:0.6236 874:0.2671 875:0.2938 876:0.3018 877:0.4458 878:0.0339 879:0.5059 880:0.4438 881:0.343 882:0.2461 883:0.1994 884:0.6449 885:0.1255 886:0.5474 887:0.2116 888:0.328 889:0.2829 890:0.2979 891:0.5151 892:0.6576 893:0.2006 894:0.3994 895:0.506 896:0.382 897:0.4403 898:0.4237 899:0.2143 900:0.3518 901:0.1596 902:0.211 903:0.3096 904:0.6778 905:0.4484 906:0.2927 907:0.6231 908:0.6784 909:0.234 910:0.31 911:0.253 912:0.1346 913:0.2087 914:0.2616 915:0.3055 916:0.3601 917:0.6191 918:0.3562 919:0.2013 920:0.6517 921:0.3958 922:0.0873 923:0.5657 924:0.7412 925:0.6898 926:0.3286 927:0.2577 928:0.5082 929:0.5662 930:0.4211 931:0.1919 932:0.5832 933:0.2082 934:0.2736 935:0.2833 936:0.1544 937:0.2957 938:0.247 939:0.3667 940:0.6385 941:0.167 942:0.4317 943:0.1135 944:0.3954 945:0.409 946:0.3948 947:0.1591 948:0.5976 949:0.2649 950:0.163 951:0.5164 952:0.2061 953:0.3369 954:0.5549 955:0.3771 956:0.4491 957:0.2547 958:0.1242 959:0.2289 960:0.4586 961:0.2193 962:0.3898 963:0.1505 964:0.1735 965:0.1963 966:0.5754 967:0.3942 968:0.2312 969:0.2761 970:0.4951 971:0.223 972:0.41 973:0.0952 974:0.4885 975:0.3545 976:0.2079 977:0.3962 978:0.3088 979:0.3411 980:0.4973 981:0.2962 982:0.349 983:0.1647 984:0.682 985:0.1174 986:0.1689 987:0.3016 988:0.2546 989:0.1268 990:0.4327 991:0.4414 992:0.5062 993:0.5579 994:0.0994 995:0.4238 996:0.42 997:0.595 998:0.4767 999:0.3864 1000:0.4406 1001:0.8083 1002:0.2855 1003:0.5671 1004:0.1334 1005:0.2619 1006:0.5008 1007:0.1268 1008:0.389 1009:0.31 1010:0.4076 1011:0.6011 1012:0.3404 1013:0.4247 1014:0.0872 1015:0.6593 1016:0.2132 1017:0.4518 1018:0.3791 1019:0.2026 1020:0.4437 1021:0.34 1022:0.5342 1023:0.606 1024:0.7765 1025:0.1178 1026:0.4927 1027:0.5086 1028:0.484 1029:0.3043 1030:0.2986 1031:0.5627 1032:0.3114 1033:0.161 1034:0.331 1035:0.4882 1036:0.201 1037:0.2273 1038:0.3206 1039:0.1012 1040:0.5632 1041:0.3632 1042:0.0791 1043:0.5068 1044:0.6317 1045:0.4836 1046:0.192 1047:0.4453 1048:0.1276 1049:0.3239 1050:0.1688 1051:0.4354 1052:0.3627 1053:0.4768 1054:0.2506 1055:0.371 1056:0.2207 1057:0.1686 1058:0.2913 1059:0.1005 1060:0.1268 1061:0.6145 1062:0.6051 1063:0.187 1064:0.2976 1065:0.4003 1066:0.2428 1067:0.1491 1068:0.4475 1069:0.5642 1070:0.3726 1071:0.2366 1072:0.3265 1073:0.194 1074:0.2047 1075:0.1869 1076:0.303 1077:0.3952 1078:0.368 1079:0.468 1080:0.7931 1081:0.3347 1082:0.1704 1083:0.3738 1084:0.4206 1085:0.65 1086:0.5206 1087:0.0642 1088:0.3078 1089:0.3306 1090:0.6014 1091:0.3895 1092:0.218 1093:0.4713 1094:0.3019 1095:0.6191 1096:0.261 1097:0.3646 1098:0.0965 1099:0.4149 1100:0.2293 1101:0.561 1102:0.1608 1103:0.3085 1104:0.0891 1105:0.1409 1106:0.2979 1107:0.4912 1108:0.3246 1109:0.362 1110:0.1607 1111:0.1722 1112:0.1524 1113:0.4709 1114:0.203 1115:0.2638 1116:0.1786 1117:0.4739 1118:0.2326 1119:0.3968 1120:0.2642 1121:0.5663 1122:0.6218 1123:0.3394 1124:0.1701 1125:0.3328 1126:0.65 1127:0.5843 1128:0.1458 1129:0.2803 1130:0.2593 1131:0.4776 1132:0.2577 1133:0.5898 1134:0.1034 1135:0.4507 1136:0.4347 1137:0.2172 1138:0.252 1139:0.1289 1140:0.4211 1141:0.3247 1142:0.4678 1143:0.2685 1144:0.431 1145:0.2185 1146:0.2849 1147:0.2229 1148:0.3156 1149:0.3632 1150:0.2116 1151:0.5206 1152:0.1631 1153:0.199 1154:0.4244 1155:0.2013 1156:0.2716 1157:0.3495 1158:0.3928 1159:0.3249 1160:0.2068 1161:0.1199 1162:0.4109 1163:0.4405 1164:0.5815 1165:0.136 1166:0.113 1167:0.5421 1168:0.2419 1169:0.2371 1170:0.2171 1171:0.3554 1172:0.6138 1173:0.4901 1174:0.1781 1175:0.4062 1176:0.5559 1177:0.2579 1178:0.2751 1179:0.3016 1180:0.1955 1181:0.11 1182:0.2011 1183:0.5083 1184:0.2171 1185:0.2573 1186:0.3325 1187:0.0833 1188:0.5007 1189:0.3502 1190:0.2735 1191:0.676 1192:0.5652 1193:0.4891 1194:0.2017 1195:0.1933 1196:0.5474 1197:0.4313 1198:0.2511 1199:0.347 1200:0.1533 1201:0.3164 1202:0.5469 1203:0.2236 1204:0.3123 1205:0.4773 1206:0.2742 1207:0.8435 1208:0.051 1209:0.1591 1210:0.2137 1211:0.3763 1212:0.7371 1213:0.353 1214:0.7239 1215:0.0658 1216:0.1572 1217:0.1147 1218:0.1451 1219:0.332 1220:0.4394 1221:0.0498 1222:0.2589 1223:0.3486 1224:0.4472 1225:0.4143 1226:0.0992 1227:0.0733 1228:0.4164 1229:0.3042 1230:0.4919 1231:0.3353 1232:0.529 1233:0.292 1234:0.3219 1235:0.3478 1236:0.1184 1237:0.3244 1238:0.3074 1239:0.5377 1240:0.1957 1241:0.0975 1242:0.4714 1243:0.3021 1244:0.3286 1245:0.2705 1246:0.2456 1247:0.3678 1248:0.367 1249:0.4352 1250:0.4462 1251:0.2965 1252:0.5975 1253:0.4224 1254:0.2791 1255:0.5228 1256:0.1607 1257:0.5789 1258:0.2336 1259:0.3118 1260:0.1932 1261:0.1693 1262:0.2324 1263:0.0753 1264:0.3156 1265:0.2214 1266:0.2835 1267:0.2251 1268:0.1026 1269:0.1602 1270:0.615 1271:0.1609 1272:0.2731 1273:0.4443 1274:0.2563 1275:0.3801 1276:0.2478 1277:0.4024 1278:0.1154 1279:0.4078 1280:0.4105 1281:0.5599 1282:0.4097 1283:0.3075 1284:0.3285 1285:0.541 1286:0.3418 1287:0.3917 1288:0.2782 1289:0.369 1290:0.3543 1291:0.5668 1292:0.2708 1293:0.3512 1294:0.1492 1295:0.3432 1296:0.1046 1297:0.1994 1298:0.1786 1299:0.2498 1300:0.3887 1301:0.6423 1302:0.2919 1303:0.5017 1304:0.3962 1305:0.1409 1306:0.2392 1307:0.2938 1308:0.2737 1309:0.1627 1310:0.5342 1311:0.9157 1312:0.1043 1313:0.1195 1314:0.1855 1315:0.4832 1316:0.5752 1317:0.2044 1318:0.084 1319:0.3637 1320:0.2752 1321:0.3668 1322:0.8346 1323:0.2208 1324:0.1903 1325:0.1972 1326:0.2278 1327:0.2564 1328:0.4175 1329:0.521 1330:0.2005 1331:0.4471 1332:0.405 1333:0.2476 1334:0.1805 1335:0.3927 1336:0.3243 1337:0.2738 1338:0.2054 1339:0.2176 1340:0.1755 1341:0.2021 1342:0.372 1343:0.2629 1344:0.2812 1345:0.3245 1346:0.1379 1347:0.2825 1348:0.1852 1349:0.4618 1350:0.1285 1351:0.2203 1352:0.2039 1353:0.3361 1354:0.4281 1355:0.1617 1356:0.4356 1357:0.7099 1358:0.1171 1359:0.3212 1360:0.3085 1361:0.5216 1362:0.4758 1363:0.6003 1364:0.4534 1365:0.1681 1366:0.2257 1367:0.1373 1368:0.4563 1369:0.6265 1370:0.4738 1371:0.449 1372:0.197 1373:0.2297 1374:0.3661 1375:0.2256 1376:0.2417 1377:0.4389 1378:0.2754 1379:0.1776 1380:0.7036 1381:0.4692 1382:0.1291 1383:0.5261 1384:0.3815 1385:0.1981 1386:0.2665 1387:0.7019 1388:0.3017 1389:0.1069 1390:0.3021 1391:0.4311 1392:0.5461 1393:0.4126 1394:0.2378 1395:0.0925 1396:0.4188 1397:0.2796 1398:0.117 1399:0.3768 1400:0.1041 1401:0.3956 1402:0.6609 1403:0.5463 1404:0.3759 1405:0.3896 1406:0.1436 1407:0.3859 1408:0.315 1409:0.2987 1410:0.1936 1411:0.3845 1412:0.3731 1413:0.3575 1414:0.168 1415:0.3934 1416:0.2098 1417:0.1323 1418:0.5748 1419:0.2241 1420:0.4605 1421:0.3521 1422:0.314 1423:0.7401 1424:0.3954 1425:0.1462 1426:0.1955 1427:0.1654 1428:0.4025 1429:0.2005 1430:0.2802 1431:0.1677 1432:0.2887 1433:0.1688 1434:0.2584 1435:0.6494 1436:0.1658 1437:0.1057 1438:0.4476 1439:0.245 1440:0.3481 1441:0.3361 1442:0.1743 1443:0.1063 1444:0.1493 1445:0.0689 1446:0.665 1447:0.1108 1448:0.191 1449:0.451 1450:0.5117 1451:0.2827 1452:0.2682 1453:0.1533 1454:0.2702 1455:0.1504 1456:0.4564 1457:0.1485 1458:0.4083 1459:0.2533 1460:0.1726 1461:0.3285 1462:0.2638 1463:0.1567 1464:0.3461 1465:0.7902 1466:0.2414 1467:0.5172 1468:0.2273 1469:0.0863 1470:0.288 1471:0.5611 1472:0.1941 1473:0.2581 1474:0.6122 1475:0.3171 1476:0.36 1477:0.3501 1478:0.1841 1479:0.2719 1480:0.6696 1481:0.4359 1482:0.2178 1483:0.2092 1484:0.2579 1485:0.0716 1486:0.4049 1487:0.4497 1488:0.0996 1489:0.092 1490:0.5004 1491:0.3074 1492:0.268 1493:0.613 1494:0.4727 1495:0.4179 1496:0.2364 1497:0.3048 1498:0.2326 1499:0.244 1500:0.3382 1501:0.6427 1502:0.2282 1503:0.2045 1504:0.2503 1505:0.0364 1506:0.2895 1507:0.3706 1508:0.2347 1509:0.3812 1510:0.2592 1511:0.1506 1512:0.3112 1513:0.284 1514:0.2845 1515:0.3387 1516:0.3958 1517:0.5451 1518:0.2287 1519:0.5539 1520:0.1474 1521:0.3925 1522:0.3936 1523:0.0945 1524:0.1043 1525:0.5431 1526:0.5323 1527:0.2849 1528:0.2747 1529:0.5923 1530:0.4216 1531:0.2714 1532:0.1771 1533:0.4307 1534:0.292 1535:0.1409 1536:0.1621 1537:0.3259 1538:0.1663 1539:0.3543 1540:0.4617 1541:0.5336 1542:0.3151 1543:0.1424 1544:0.5809 1545:0.4248 1546:0.255 1547:0.4485 1548:0.2486 1549:0.1061 1550:0.0788 1551:0.0945 1552:0.3528 1553:0.7126 1554:0.4323 1555:0.3731 1556:0.5814 1557:0.0661 1558:0.0405 1559:0.1013 1560:0.4673 1561:0.4663 1562:0.2339 1563:0.1765 1564:0.3203 1565:0.5418 1566:0.2622 1567:0.3042 1568:0.2618 1569:0.5334 1570:0.237 1571:0.4855 1572:0.3675 1573:0.3044 1574:0.305 1575:0.2108 1576:0.211 1577:0.42 1578:0.4258 1579:0.0592 1580:0.8675 1581:0.6189 1582:0.1445 1583:0.2454 1584:0.4357 1585:0.7769 1586:0.2774 1587:0.2774 1588:0.407 1589:0.3118 1590:0.2732 1591:0.7413 1592:0.3272 1593:0.4826 1594:0.1497 1595:0.2432 1596:0.449 1597:0.2232 1598:0.1927 1599:0.228 1600:0.4277 1601:0.3165 1602:0.5968 1603:0.2776 1604:0.1273 1605:0.4065 1606:0.1488 1607:0.0789 1608:0.4259 1609:0.1789 1610:0.1855 1611:0.1086 1612:0.2392 1613:0.1606 1614:0.3128 1615:0.3709 1616:0.1736 1617:0.1529 1618:0.4761 1619:0.4788 1620:0.2862 1621:0.2076 1622:0.3906 1623:0.5208 1624:0.4447 1625:0.3606 1626:0.4249 1627:0.3504 1628:0.2937 1629:0.526 1630:0.3467 1631:0.1411 1632:0.427 1633:0.2526 1634:0.3451 1635:0.4013 1636:0.0997 1637:0.0404 1638:0.2842 1639:0.2634 1640:0.3063 1641:0.2346 1642:0.453 1643:0.3445 1644:0.2966 1645:0.1507 1646:0.5104 1647:0.1957 1648:0.0981 1649:0.7333 1650:0.2227 1651:0.3344 1652:0.3947 1653:0.5539 1654:0.2379 1655:0.4989 1656:0.2841 1657:0.3599 1658:0.374 1659:0.059 1660:0.2682 1661:0.0968 1662:0.5462 1663:0.1643 1664:0.2481 1665:0.3778 1666:0.537 1667:0.264 1668:0.7709 1669:0.1592 1670:0.1409 1671:0.0114 1672:0.6652 1673:0.393 1674:0.6505 1675:0.155 1676:0.517 1677:0.2876 1678:0.1692 1679:0.1183 1680:0.0647 1681:0.2304 1682:0.4929 1683:0.4811 1684:0.3006 1685:0.2548 1686:0.1797 1687:0.4323 1688:0.3721 1689:0.4587 1690:0.2856 1691:0.5114 1692:0.3924 1693:0.2417 1694:0.3513 1695:0.3092 1696:0.2121 1697:0.2784 1698:0.3067 1699:0.1318 1700:0.3357 1701:0.5318 1702:0.2583 1703:0.4655 1704:0.4069 1705:0.1684 1706:0.3456 1707:0.4852 1708:0.2127 1709:0.6248 1710:0.3103 1711:0.5584 1712:0.2668 1713:0.3362 1714:0.1748 1715:0.6262 1716:0.5427 1717:0.2869 1718:0.2311 1719:0.3121 1720:0.2492 1721:0.2767 1722:0.3536 1723:0.2039 1724:0.0627 1725:0.6529 1726:0.1522 1727:0.339 1728:0.5379 1729:0.4579 1730:0.0578 1731:0.4819 1732:0.0919 1733:0.2724 1734:0.3267 1735:0.1387 1736:1 1737:0.691 1738:0.1987 1739:0.5537 1740:0.3667 1741:0.4189 1742:0.1937 1743:0.3639 1744:0.3643 1745:0.1583 1746:0.3073 1747:0.1498 1748:0.3923 1749:0.3359 1750:0.4033 1751:0.2609 1752:0.5759 1753:0.3814 1754:0.4005 1755:0.1211 1756:0.3236 1757:0.3862 1758:0.3905 1759:0.5144 1760:0.2129 1761:0.148 1762:0.3853 1763:0.1217 1764:0.3661 1765:0.3974 1766:0.4425 1767:0.3693 1768:0.3327 1769:0.4275 1770:0.1314 1771:0.1536 1772:0.1409 1773:0.2745 1774:0.2241 1775:0.3904 1776:0.1618 1777:0.694 1778:0.257 1779:0.1616 1780:0.2067 1781:0.3398 1782:0.094 1783:0.2234 1784:0.6159 1785:0.6649 1786:0.1244 1787:0.1634 1788:0.2307 1789:0.3093 1790:0.247 1791:0.5484 1792:0.3386 1793:0.2271 1794:0.2689 1795:0.3013 1796:0.5235 1797:0.4279 1798:0.1819 1799:0.2182 1800:0.1721 1801:0.4479 1802:0.191 1803:0.3262 1804:0.2972 1805:0.2786 1806:0.1946 1807:0.3997 1808:0.0982 1809:0.3328 1810:0.0064 1811:0.1747 1812:0.3218 1813:0.5668 1814:0.2808 1815:0.0766 1816:0.6005 1817:0.2403 1818:0.5462 1819:0.5289 1820:0.3252 1821:0.4053 1822:0.0923 1823:0.4353 1824:0.3496 1825:0.5378 1826:0.0875 1827:0.616 1828:0.2558 1829:0.1494 1830:0.2697 1831:0.9293 1832:0.2407 1833:0.1237 1834:0.3261 1835:0.1274 1836:0.5372 1837:0.451 1838:0.3996 1839:0.1526 1840:0.5619 1841:0.4538 1842:0.2243 1843:0.4647 1844:0.1926 1845:0.1918 1846:0.3183 1847:0.5511 1848:0.2803 1849:0.5631 1850:0.4269 1851:0.3181 1852:0.5696 1853:0.3944 1854:0.206 1855:0.6097 1856:0.2827 1857:0.6693 1858:0.1611 1859:0.3229 1860:0.1583 1861:0.1504 1862:0.3212 1863:0.5392 1864:0.1276 1865:0.1964 1866:0.5433 1867:0.1219 1868:0.4581 1869:0.4115 1870:0.3444 1871:0.208 1872:0.4906 1873:0.4231 1874:0.5744 1875:0.4777 1876:0.3878 1877:0.3293 1878:0.4324 1879:0.4955 1880:0.5045 1881:0.1942 1882:0.1438 1883:0.2941 1884:0.336 1885:0.1974 1886:0.1164 1887:0.1319 1888:0.3141 1889:0.1084 1890:0.2514 1891:0.5519 1892:0.5402 1893:0.2194 1894:0.2697 1895:0.0264 1896:0.1317 1897:0.2311 1898:0.2471 1899:0.265 1900:0.0892 1901:0.1542 1902:0.5249 1903:0.3448 1904:0.1611 1905:0.105 1906:0.5342 1907:0.4942 1908:0.1769 1909:0.1446 1910:0.3693 1911:0.1325 1912:0.1416 1913:0.2547 1914:0.4986 1915:0.1624 1916:0.1307 1917:0.4946 1918:0.3335 1919:0.3905 1920:0.0611 1921:0.3787 1922:0.2978 1923:0.2545 1924:0.2681 1925:0.2411 1926:0.3688 1927:0.2155 1928:0.4586 1929:0.366 1930:0.089 1931:0.2423 1932:0.2839 1933:0.4934 1934:0.5819 1935:0.0709 1936:0.3106 1937:0.2329 1938:0.1086 1939:0.326 1940:0.274 1941:0.4749 1942:0.0852 1943:0.1432 1944:0.2355 1945:0.328 1946:0.2811 1947:0.2297 1948:0.6814 1949:0.2119 1950:0.2731 1951:0.2134 1952:0.1756 1953:0.5284 1954:0.2092 1955:0.6805 1956:0.1966 1957:0.3629 1958:0.5259 1959:0.2122 1960:0.3513 1961:0.1347 1962:0.6609 1963:0.0295 1964:0.7528 1965:0.2942 1966:0.3266 1967:0.9006 1968:0.4862 1969:0.1265 1970:0.2166 1971:0.5041 1972:0.3012 1973:0.3278 1974:0.3224 1975:0.3385 1976:0.0732 1977:0.1807 1978:0.0698 1979:0.5572 1980:0.2937 1981:0.5203 1982:0.6057 1983:0.2159 1984:0.331 1985:0.2861 1986:0.1639 1987:0.3258 1988:0.2946 1989:0.19 1990:0.5303 1991:0.1747 1992:0.2101 1993:0.1064 1994:0.451 1995:0.1766 1996:0.121 1997:0.375 1998:0.477 1999:0.2239 2000:0.131 
0.10233426946889 1:0.4199 2:0.7706 3:0.6921 4:0.3534 5:0.2474 6:0.1898 7:0.154 8:0.2897 9:0.2736 10:0.4054 11:0.2149 12:0.3074 13:0.1475 14:0.2277 15:0.2208 16:0.3269 17:0.1382 18:0.3412 19:0.1527 20:0.1231 21:0.3058 22:0.2176 23:0.3119 24:0.3958 25:0.2569 26:0.1942 27:0.2918 28:0.1632 29:0.1565 30:0.1344 31:0.17 32:0.7536 33:0.5582 34:0.78 35:0.3026 36:0.3308 37:0.2147 38:0.7598 39:0.3528 40:0.3528 41:0.3528 42:0.3528 43:0.1427 44:0.6917 45:0.2691 46:0.3438 47:0.1841 48:0.1241 49:0.5455 50:0.2533 51:0.2533 52:0.2533 53:0.2533 54:0.0899 55:0.352 56:0.242 57:0.3161 58:0.1234 59:0.232 60:0.176 61:0.1727 62:0.1365 63:0.2641 64:0.1408 65:0.3248 66:0.135 67:0.1266 68:0.1472 69:0.1252 70:0.7716 71:0.0686 72:0.1616 73:0.3381 74:0.2011 75:0.2625 76:0.271 77:0.2167 78:0.2137 79:0.3534 80:0.0612 81:0.3223 82:0.213 83:0.5172 84:0.1441 85:0.0947 86:0.2322 87:0.7151 88:0.0879 89:0.1489 90:0.2138 91:0.155 92:0.567 93:0.1386 94:0.4077 95:0.1479 96:0.3078 97:0.1737 98:0.3309 99:0.156 100:0.0848 101:0.4219 102:0.2908 103:0.1778 104:0.2562 105:0.1014 106:0.3656 107:0.1955 108:0.4709 109:0.1124 110:0.5171 111:0.4223 112:0.1839 113:0.1083 114:0.1104 115:0.0711 116:0.1757 117:0.1255 118:0.1146 119:0.8751 120:0.3196 121:0.2807 122:0.0946 123:0.1821 124:0.1187 125:0.2679 126:0.8322 127:0.1819 128:0.1364 129:0.2248 130:0.1218 131:0.3134 132:0.1509 133:0.2521 134:0.2188 135:0.2173 136:0.1359 137:0.4173 138:0.1329 139:0.2311 140:0.3212 141:0.0614 142:0.1095 143:0.1031 144:0.0685 145:0.1096 146:0.3348 147:0.0481 148:0.5937 149:0.2812 150:0.3382 151:0.2927 152:0.471 153:0.7473 154:0.1057 155:0.0855 156:0.578 157:0.1749 158:0.1769 159:0.1229 160:0.2532 161:0.4024 162:0.4772 163:0.2081 164:0.0819 165:0.0655 166:0.2714 167:0.7387 168:0.1052 169:0.2027 170:0.1293 171:0.1099 172:0.1757 173:0.2554 174:0.123 175:0.572 176:0.1071 177:0.0267 178:0.31 179:0.181 180:0.1539 181:0.3447 182:0.2673 183:0.2225 184:0.0533 185:0.8404 186:0.0787 187:0.0925 188:0.3578 189:0.1618 190:0.0595 191:0.6305 192:0.1938 193:0.2261 194:0.1332 195:0.1146 196:0.1558 197:0.2272 198:0.2192 199:0.0896 200:0.186 201:0.246 202:0.105 203:0.1598 204:0.8054 205:0.2951 206:0.2412 207:0.1024 208:0.1326 209:0.2154 210:0.1635 211:0.301 212:0.1485 213:0.0972 214:0.2982 215:0.1512 216:0.2375 217:0.1026 218:0.2013 219:0.2659 220:0.2731 221:0.1203 222:0.3097 223:0.203 224:0.1775 225:0.3609 226:0.1983 227:0.355 228:0.0365 229:0.4166 230:0.1094 231:0.2822 232:0.2129 233:0.1793 234:0.1224 235:0.3817 236:0.0958 237:0.1033 238:0.1851 239:0.3088 240:0.1885 241:0.0912 242:0.5622 243:0.1551 244:0.1705 245:0.2152 246:0.2954 247:0.4273 248:0.2755 249:0.1694 250:0.2383 251:0.0295 252:0.0963 253:0.3148 254:0.1352 255:0.4077 256:0.2579 257:0.1228 258:0.0779 259:0.2646 260:0.0194 261:0.0194 262:0.0194 263:0.0194 264:0.0905 265:0.1787 266:0.3729 267:0.2291 268:0.2466 269:0.246 270:0.2662 271:0.051 272:0.2292 273:0.1481 274:0.1992 275:0.2271 276:0.2634 277:0.1377 278:0.2417 279:0.4813 280:0.2244 281:0.2955 282:0.1915 283:0.1561 284:0.1338 285:0.1379 286:0.34 287:0.3602 288:0.1232 289:0.1012 290:0.0668 291:0.1371 292:0.1274 293:0.2795 294:0.5698 295:0.1369 296:0.1434 297:0.1789 298:0.1945 299:0.1487 300:0.6415 301:0.3797 302:0.132 303:0.1582 304:0.1286 305:0.143 306:0.1277 307:0.3065 308:0.0913 309:0.4413 310:0.1493 311:0.5575 312:0.65 313:0.1021 314:0.3112 315:0.1501 316:0.1407 317:0.0805 318:0.1781 319:0.217 320:0.6753 321:0.1835 322:0.4275 323:0.211 324:0.2127 325:0.1008 326:0.0379 327:0.1198 328:0.2916 329:0.349 330:1 331:0.1358 332:0.9891 333:0.5276 334:0.0521 335:0.1951 336:0.4556 337:0.3821 338:0.2676 339:0.3994 340:0.4463 341:0.5408 342:0.0882 343:0.103 344:0.146 345:0.1644 346:0.2995 347:0.4607 348:0.4792 349:0.7707 350:0.1242 351:0.2327 352:0.4583 353:0.4069 354:0.5569 355:0.4226 356:0.2391 357:0.7384 358:0.5021 359:0.1372 360:0.0605 361:0.2329 362:0.2887 363:0.0622 364:0.1611 365:0.1098 366:0.2916 367:0.3659 368:0.133 369:0.0937 370:0.1929 371:0.3593 372:0.15 373:0.6607 374:0.3965 375:0.2256 376:0.2975 377:0.3495 378:0.3927 379:0.2154 380:0.1501 381:0.1536 382:0.3242 383:0.2725 384:0.2156 385:0.1845 386:0.0699 387:0.097 388:0.4308 389:0.3042 390:0.2584 391:0.0886 392:0.1711 393:0.1426 394:0.5285 395:0.3706 396:0.1691 397:0.3488 398:0.8624 399:0.1184 400:0.2984 401:0.3722 402:0.2864 403:0.602 404:0.4595 405:0.1634 406:0.2014 407:0.1399 408:0.2107 409:0.251 410:0.6429 411:0.2109 412:0.1686 413:0.1514 414:0.2135 415:0.4579 416:0.2955 417:0.0743 418:0.3334 419:0.2179 420:0.1046 421:0.2817 422:0.1585 423:0.6278 424:0.0728 425:0.2192 426:0.1404 427:0.2017 428:0.2088 429:0.5699 430:0.1166 431:0.1232 432:0.2683 433:0.3924 434:0.6051 435:0.3501 436:0.1988 437:0.1245 438:0.2572 439:0.3053 440:0.0685 441:0.3266 442:0.603 443:0.1644 444:0.1695 445:0.0512 446:0.3974 447:0.158 448:0.1301 449:0.1171 450:0.1489 451:0.0592 452:0.2471 453:0.396 454:0.2747 455:0.1528 456:0.2169 457:0.3114 458:0.2293 459:0.1998 460:0.1305 461:0.1069 462:0.0768 463:0.1974 464:0.1291 465:0.4522 466:0.1512 467:0.1235 468:0.1697 469:0.2001 470:0.1447 471:0.4053 472:0.1378 473:0.0805 474:0.4028 475:0.2467 476:0.1898 477:0.1123 478:0.3533 479:0.0957 480:0.0949 481:0.2387 482:0.0668 483:0.5777 484:0.4825 485:0.0299 486:0.129 487:0.2291 488:0.2467 489:0.1926 490:0.0716 491:0.2023 492:0.2457 493:0.3055 494:0.2923 495:0.0528 496:0.3624 497:0.1796 498:0.2283 499:0.2036 500:0.0511 501:0.1335 502:0.115 503:0.1456 504:0.4858 505:0.2119 506:0.284 507:0.1233 508:0.1971 509:0.0984 510:0.1771 511:0.2156 512:0.1352 513:0.0544 514:0.1635 515:0.1565 516:0.0411 517:0.1428 518:0.0719 519:0.2699 520:0.2617 521:0.5809 522:0.4905 523:0.2482 524:0.1249 525:0.2363 526:0.5602 527:0.1753 528:0.5306 529:0.3753 530:0.1855 531:0.6045 532:0.0929 533:0.11 534:0.0814 535:0.069 536:0.4237 537:0.7291 538:0.0751 539:0.1134 540:0.362 541:0.1382 542:0.2077 543:0.136 544:0.051 545:0.1005 546:0.3592 547:0.2047 548:0.2144 549:0.3322 550:0.0878 551:0.2066 552:0.3388 553:0.4977 554:0.5607 555:0.1518 556:0.1032 557:0.3288 558:0.2315 559:0.0457 560:0.4492 561:0.1386 562:0.0869 563:0.3225 564:0.7291 565:0.1196 566:0.0977 567:0.0988 568:0.1307 569:0.1261 570:0.099 571:0.1058 572:0.2107 573:0.6048 574:0.1876 575:0.1294 576:0.0634 577:0.1619 578:0.1291 579:0.2643 580:0.2506 581:0.2387 582:0.3168 583:0.1733 584:0.1324 585:0.5091 586:0.1147 587:0.4736 588:0.1812 589:0.1208 590:0.2117 591:0.3202 592:0.1838 593:0.2352 594:0.333 595:0.1198 596:0.1268 597:0.3756 598:0.3143 599:0.5661 600:0.1555 601:0.2478 602:0.3712 603:0.1486 604:0.5337 605:0.4157 606:0.1973 607:0.1547 608:0.1879 609:0.2922 610:0.3603 611:0.2418 612:0.4517 613:0.0953 614:0.1144 615:0.1758 616:0.1629 617:0.4431 618:0.1224 619:0.0829 620:0.2037 621:0.2479 622:0.227 623:0.3783 624:0.168 625:0.1485 626:0.1136 627:0.2017 628:0.2063 629:0.069 630:0.2919 631:0.1894 632:0.2814 633:0.1719 634:0.3357 635:0.1495 636:0.2758 637:0.3293 638:0.3392 639:0.0485 640:0.1069 641:0.1444 642:0.3143 643:0.1016 644:0.1375 645:0.1519 646:0.1733 647:0.2522 648:0.1994 649:0.1766 650:0.2197 651:0.2369 652:0.0817 653:0.2229 654:0.4255 655:0.2347 656:0.2039 657:0.3905 658:0.1962 659:0.4648 660:0.1596 661:0.3453 662:0.0968 663:0.3088 664:0.0536 665:0.6908 666:0.1379 667:0.2051 668:0.3406 669:0.1121 670:0.0947 671:0.257 672:0.0911 673:0.1537 674:0.2035 675:0.1372 676:0.6456 677:0.3347 678:0.1911 679:0.1475 680:0.6001 681:0.8681 682:0.4209 683:0.2315 684:0.3139 685:0.4839 686:0.3083 687:0.4843 688:0.4368 689:0.1157 690:0.2338 691:0.316 692:0.6032 693:0.2194 694:0.0677 695:0.0443 696:0.5371 697:0.2544 698:0.0487 699:0.2103 700:0.2525 701:0.1675 702:0.1648 703:0.7759 704:0.0352 705:0.2156 706:0.2752 707:0.4531 708:0.2297 709:0.7752 710:0.0967 711:0.0727 712:0.602 713:0.9166 714:0.2215 715:0.0622 716:0.0578 717:0.4204 718:0.3232 719:0.654 720:0.2499 721:0.3606 722:0.3613 723:0.1978 724:0.0742 725:0.7277 726:0.2084 727:0.0634 728:0.2348 729:0.1219 730:0.1222 731:0.3747 732:0.3173 733:0.0804 734:0.1233 735:0.5335 736:0.0812 737:0.3138 738:0.1476 739:0.1431 740:0.1699 741:0.6938 742:0.3869 743:0.901 744:0.5581 745:0.0526 746:0.097 747:0.0886 748:0.2026 749:0.0871 750:0.5465 751:0.0716 752:0.6447 753:0.3232 754:0.1079 755:0.2799 756:0.0762 757:0.2397 758:0.1696 759:0.1169 760:0.5241 761:0.1615 762:0.2429 763:0.3956 764:0.3375 765:0.2178 766:0.1323 767:0.0383 768:0.3433 769:0.069 770:0.3883 771:0.3471 772:0.1969 773:0.2472 774:0.431 775:0.1426 776:0.26 777:0.1981 778:0.288 779:0.3273 780:0.1129 781:0.187 782:0.268 783:0.1127 784:0.2657 785:0.0577 786:0.2421 787:0.2184 788:0.0411 789:0.3532 790:0.4035 791:0.4755 792:0.5949 793:0.1751 794:0.2835 795:0.4271 796:0.4035 797:0.1754 798:0.1558 799:0.1018 800:0.4345 801:0.1251 802:0.14 803:0.1875 804:0.1943 805:0.345 806:0.0978 807:0.1048 808:0.1614 809:0.1966 810:0.2022 811:0.4696 812:0.111 813:0.2133 814:0.2484 815:0.2536 816:0.4015 817:0.2397 818:0.1861 819:0.2354 820:0.2664 821:0.0869 822:0.2823 823:0.2002 824:0.103 825:0.1366 826:0.2138 827:0.3991 828:0.2365 829:0.2395 830:0.0797 831:0.412 832:0.1348 833:0.1189 834:0.1087 835:0.1126 836:0.223 837:0.0788 838:0.4614 839:0.172 840:0.0365 841:0.1169 842:0.1505 843:0.0752 844:0.5971 845:0.231 846:0.1851 847:0.3621 848:0.5347 849:0.4191 850:0.4053 851:0.4012 852:0.3777 853:0.1434 854:0.2353 855:0.3725 856:0.1225 857:0.1942 858:0.1077 859:0.1708 860:0.2261 861:0.0965 862:0.3369 863:0.4948 864:0.2642 865:0.0853 866:0.3012 867:0.1904 868:0.0934 869:0.2141 870:0.244 871:0.3593 872:0.0764 873:0.407 874:0.141 875:0.1812 876:0.1746 877:0.2667 878:0.0938 879:0.3136 880:0.3681 881:0.2429 882:0.0501 883:0.3553 884:0.6766 885:0.1298 886:0.2622 887:0.1143 888:0.1304 889:0.1766 890:0.1462 891:0.3403 892:0.1413 893:0.0759 894:0.1776 895:0.0837 896:0.5368 897:0.3658 898:0.4134 899:0.154 900:0.4164 901:0.1737 902:0.1575 903:0.0739 904:0.4454 905:0.6155 906:0.2641 907:0.0597 908:0.479 909:0.1804 910:0.2734 911:0.1704 912:0.0563 913:0.1277 914:0.3102 915:0.4182 916:0.2195 917:0.5751 918:0.2599 919:0.264 920:0.5433 921:0.3463 922:0.085 923:0.6102 924:0.3478 925:0.3005 926:0.2498 927:0.1698 928:0.2213 929:0.3761 930:0.3388 931:0.1384 932:0.3897 933:0.4275 934:0.0612 935:0.2448 936:0.0783 937:0.1703 938:0.1365 939:0.1226 940:0.3336 941:0.029 942:0.4406 943:0.1257 944:0.1503 945:0.2178 946:0.7675 947:0.098 948:0.462 949:0.1769 950:0.1422 951:0.3196 952:0.1571 953:0.1046 954:0.2563 955:0.3769 956:0.1948 957:0.1062 958:0.0632 959:0.0896 960:0.1855 961:0.2801 962:0.1881 963:0.0984 964:0.1105 965:0.0859 966:0.5532 967:0.0548 968:0.1833 969:0.09 970:0.5858 971:0.1218 972:0.2739 973:0.0688 974:0.4329 975:0.0672 976:0.1668 977:0.0966 978:0.0682 979:0.2072 980:0.4178 981:0.1198 982:0.1123 983:0.1091 984:0.2932 985:0.174 986:0.0928 987:0.3379 988:0.1681 989:0.0314 990:0.2494 991:0.3797 992:0.1544 993:0.1231 994:0.092 995:0.449 996:0.1127 997:0.6182 998:0.386 999:0.2442 1000:0.2817 1001:0.39 1002:0.1306 1003:0.276 1004:0.0717 1005:0.1551 1006:0.5946 1007:0.1425 1008:0.5316 1009:0.0828 1010:0.592 1011:0.3872 1012:0.046 1013:0.1725 1014:0.0738 1015:0.5759 1016:0.1516 1017:0.9074 1018:0.4744 1019:0.1531 1020:0.6133 1021:0.2888 1022:0.7465 1023:0.3895 1024:0.3609 1025:0.0632 1026:0.1528 1027:0.6222 1028:0.3053 1029:0.0442 1030:0.2258 1031:0.0837 1032:0.0666 1033:0.1056 1034:0.2115 1035:0.1563 1036:0.111 1037:0.2844 1038:0.1832 1039:0.098 1040:0.2999 1041:0.14 1042:0.0281 1043:0.3364 1044:0.3699 1045:0.2555 1046:0.0804 1047:0.2203 1048:0.0209 1049:0.2963 1050:0.0686 1051:0.3208 1052:0.7134 1053:0.4198 1054:0.2018 1055:0.1846 1056:0.0485 1057:0.3784 1058:0.3473 1059:0.0722 1060:0.0756 1061:0.5794 1062:0.3084 1063:0.0296 1064:0.1152 1065:0.6676 1066:0.2438 1067:0.0814 1068:0.49 1069:0.1464 1070:0.2487 1071:0.0638 1072:0.1775 1073:0.1803 1074:0.0524 1075:0.0899 1076:0.2518 1077:0.2617 1078:0.1423 1079:0.2322 1080:0.187 1081:0.3646 1082:0.0141 1083:0.475 1084:0.2584 1085:0.4183 1086:0.4474 1087:0.1016 1088:0.1248 1089:0.4679 1090:0.2294 1091:0.6768 1092:0.0813 1093:0.2251 1094:0.401 1095:0.4515 1096:0.0919 1097:0.2544 1098:0.0925 1099:0.2824 1100:0.0741 1101:0.3292 1102:0.0698 1103:0.3034 1104:0.1255 1105:0.0855 1106:0.2086 1107:0.2603 1108:0.3271 1109:0.2118 1110:0.0804 1111:0.0627 1112:0.0138 1113:0.4031 1114:0.0665 1115:0.1584 1116:0.2252 1117:0.6747 1118:0.2653 1119:0.4334 1120:0.1286 1121:0.2359 1122:0.6046 1123:0.2389 1124:0.0151 1125:0.1708 1126:0.3511 1127:0.8833 1128:0.1237 1129:0.2654 1130:0.1542 1131:0.2162 1132:0.0941 1133:0.2377 1134:0.0602 1135:0.5148 1136:0.3065 1137:0.0943 1138:0.144 1139:0.0855 1140:0.4706 1141:0.1495 1142:0.2402 1143:0.1759 1144:0.1875 1145:0.0971 1146:0.2848 1147:0.1098 1148:0.1955 1149:0.1853 1150:0.0553 1151:0.4256 1152:0.1666 1153:0.1551 1154:0.3844 1155:0.1336 1156:0.1494 1157:0.7408 1158:0.9646 1159:0.0751 1160:0.1202 1161:0.0676 1162:0.1866 1163:0.1203 1164:0.7677 1165:0.1227 1166:0.0571 1167:0.6235 1168:0.0392 1169:0.1456 1170:0.0802 1171:0.4728 1172:0.2931 1173:0.1423 1174:0.1796 1175:0.2981 1176:0.2968 1177:0.0837 1178:0.3075 1179:0.0925 1180:0.1244 1181:0.0385 1182:0.1423 1183:0.5794 1184:0.1389 1185:0.1583 1186:0.1768 1187:0.0607 1188:0.348 1189:0.1635 1190:0.0683 1191:0.2704 1192:0.1616 1193:0.4718 1194:0.0608 1195:0.1093 1196:0.2697 1197:0.3278 1198:0.3085 1199:0.0753 1200:0.193 1201:0.1529 1202:0.3742 1203:0.1922 1204:0.2305 1205:0.2115 1206:0.086 1207:0.538 1208:0.0168 1209:0.0761 1210:0.1022 1211:0.2172 1212:0.5981 1213:0.0924 1214:0.2586 1215:0.1496 1216:0.0741 1217:0.216 1218:0.087 1219:0.1401 1220:0.4482 1221:0.04 1222:0.1785 1223:0.1097 1224:0.1524 1225:0.2522 1226:0.4394 1227:0.0512 1228:0.2106 1229:0.2446 1230:0.1503 1231:0.1763 1232:0.4262 1233:0.113 1234:0.2314 1235:0.1468 1236:0.0605 1237:0.1913 1238:0.4455 1239:0.4869 1240:0.1464 1241:0.1517 1242:0.3279 1243:0.1681 1244:0.178 1245:0.1199 1246:0.0916 1247:0.0583 1248:0.1799 1249:0.5206 1250:0.3847 1251:0.2418 1252:0.3926 1253:0.1688 1254:0.0694 1255:0.3955 1256:0.0219 1257:0.285 1258:0.1429 1259:0.2521 1260:0.2132 1261:0.1306 1262:0.1076 1263:0.0401 1264:0.1232 1265:0.053 1266:0.1193 1267:0.085 1268:0.0671 1269:0.0677 1270:0.3996 1271:0.0541 1272:0.2628 1273:0.3944 1274:0.1739 1275:0.1716 1276:0.1839 1277:0.2149 1278:0.0358 1279:0.269 1280:0.363 1281:0.1049 1282:0.1593 1283:0.0566 1284:0.1392 1285:0.4045 1286:0.302 1287:0.3997 1288:0.1602 1289:0.1559 1290:0.1436 1291:0.477 1292:0.2157 1293:0.2209 1294:0.1704 1295:0.1517 1296:0.059 1297:0.1979 1298:0.0431 1299:0.164 1300:0.652 1301:0.3177 1302:0.6455 1303:0.6595 1304:0.167 1305:0.0852 1306:0.1095 1307:0.4852 1308:0.0805 1309:0.1781 1310:0.2637 1311:0.4072 1312:0.107 1313:0.0603 1314:0.0573 1315:0.5691 1316:0.2257 1317:0.0822 1318:0.0567 1319:0.3413 1320:0.2183 1321:0.0674 1322:0.488 1323:0.1388 1324:0.0643 1325:0.1087 1326:0.0633 1327:0.2102 1328:0.5007 1329:0.4708 1330:0.2244 1331:0.2372 1332:0.1576 1333:0.1647 1334:0.0643 1335:0.6674 1336:0.3929 1337:0.0818 1338:0.2086 1339:0.1266 1340:0.0724 1341:0.0642 1342:0.1583 1343:0.1488 1344:0.5355 1345:0.3666 1346:0.0969 1347:0.1676 1348:0.0767 1349:0.4867 1350:0.0964 1351:0.1396 1352:0.1465 1353:0.2075 1354:0.2868 1355:0.2081 1356:0.2033 1357:0.7027 1358:0.1401 1359:0.183 1360:0.2071 1361:0.3219 1362:0.7463 1363:0.3453 1364:0.2891 1365:0.0317 1366:0.1197 1367:0.0628 1368:0.2456 1369:0.4156 1370:0.2683 1371:0.3071 1372:0.1005 1373:0.2313 1374:0.1197 1375:0.1339 1376:0.2091 1377:0.2038 1378:0.0785 1379:0.1478 1380:0.5922 1381:0.4159 1382:0.0848 1383:0.1244 1384:0.2086 1385:0.1683 1386:0.2031 1387:0.1642 1388:0.1974 1389:0.0576 1390:0.275 1391:0.4819 1392:0.6654 1393:0.4385 1394:0.1767 1395:0.2283 1396:0.0984 1397:0.1367 1398:0.0548 1399:0.203 1400:0.0684 1401:0.233 1402:0.3557 1403:0.1364 1404:0.2437 1405:0.1944 1406:0.0561 1407:0.1962 1408:0.2767 1409:0.1714 1410:0.1749 1411:0.0073 1412:0.3807 1413:0.1461 1414:0.0474 1415:0.1348 1416:0.1176 1417:0.0961 1418:0.2584 1419:0.1447 1420:0.3734 1421:0.0835 1422:0.3426 1423:0.438 1424:0.058 1425:0.2657 1426:0.167 1427:0.0607 1428:0.1365 1429:0.1209 1430:0.0719 1431:0.0925 1432:0.0659 1433:0.1073 1434:0.1084 1435:0.1684 1436:0.1215 1437:0.0707 1438:0.1328 1439:0.2471 1440:0.2045 1441:0.443 1442:0.0944 1443:0.0688 1444:0.079 1445:0.2283 1446:0.7187 1447:0.0605 1448:0.1162 1449:0.6361 1450:0.3025 1451:0.0776 1452:0.143 1453:0.1041 1454:0.1203 1455:0.4305 1456:0.1719 1457:0.3861 1458:0.2245 1459:0.1861 1460:0.1908 1461:0.2314 1462:0.1276 1463:0.1583 1464:0.3257 1465:0.288 1466:0.1936 1467:0.2056 1468:0.1671 1469:0.0222 1470:0.194 1471:0.2949 1472:0.1294 1473:0.1777 1474:0.0855 1475:0.1673 1476:0.1375 1477:0.1777 1478:0.1247 1479:0.2401 1480:0.817 1481:0.2449 1482:0.2381 1483:0.0557 1484:0.0779 1485:0.0353 1486:0.0375 1487:0.2998 1488:0.072 1489:0.0323 1490:0.4497 1491:0.055 1492:0.1785 1493:0.4285 1494:0.0452 1495:0.3855 1496:0.1592 1497:0.4091 1498:0.0945 1499:0.2964 1500:0.1983 1501:0.2762 1502:0.0824 1503:0.1515 1504:0.1319 1505:0.0564 1506:0.1127 1507:0.1829 1508:0.1268 1509:0.3458 1510:0.0708 1511:0.075 1512:0.1799 1513:0.0908 1514:0.3828 1515:0.2333 1516:0.1369 1517:0.3834 1518:0.0469 1519:0.2609 1520:0.1247 1521:0.1199 1522:0.0571 1523:0.0754 1524:0.0849 1525:0.6626 1526:0.2266 1527:0.3006 1528:0.0384 1529:0.3233 1530:0.3135 1531:0.3783 1532:0.0699 1533:0.4417 1534:0.2004 1535:0.2334 1536:0.0922 1537:0.1235 1538:0.0182 1539:0.0948 1540:0.2397 1541:0.2643 1542:0.2671 1543:0.1368 1544:0.4461 1545:0.1442 1546:0.1176 1547:0.2475 1548:0.3717 1549:0.0465 1550:0.033 1551:0.0512 1552:0.3537 1553:0.4946 1554:0.2369 1555:0.2379 1556:0.1994 1557:0.1527 1558:0.0236 1559:0.1564 1560:0.2414 1561:0.9828 1562:0.1492 1563:0.1237 1564:0.1234 1565:0.5217 1566:0.1929 1567:0.0372 1568:0.1411 1569:0.2343 1570:0.1157 1571:0.2618 1572:0.0902 1573:0.1822 1574:0.3137 1575:0.1126 1576:0.118 1577:0.3409 1578:0.1062 1579:0.085 1580:0.4432 1581:0.075 1582:0.0669 1583:0.0818 1584:0.529 1585:0.2095 1586:0.1243 1587:0.1804 1588:0.2381 1589:0.1828 1590:0.0915 1591:0.2586 1592:0.3724 1593:0.1718 1594:0.0426 1595:0.2111 1596:0.1468 1597:0.1773 1598:0.206 1599:0.0442 1600:0.3761 1601:0.0252 1602:0.6383 1603:0.0579 1604:0.1269 1605:0.3583 1606:0.7985 1607:0.0668 1608:0.4314 1609:0.1339 1610:0.168 1611:0.0954 1612:0.3505 1613:0.1793 1614:0.0626 1615:0.3485 1616:0.0717 1617:0.1603 1618:0.1134 1619:0.4065 1620:0.1039 1621:0.1547 1622:0.4133 1623:0.2132 1624:0.6022 1625:0.2709 1626:0.4127 1627:0.052 1628:0.2405 1629:0.6238 1630:0.1338 1631:0.0983 1632:0.2866 1633:0.2257 1634:0.1838 1635:0.0898 1636:0.0505 1637:0.0447 1638:0.2236 1639:0.1111 1640:0.3147 1641:0.0597 1642:0.6077 1643:0.2234 1644:0.3234 1645:0.1763 1646:0.2534 1647:0.0492 1648:0.0623 1649:0.1039 1650:0.0191 1651:0.119 1652:0.1208 1653:0.2914 1654:0.1348 1655:0.3758 1656:0.0648 1657:0.1331 1658:0.16 1659:0.035 1660:0.1466 1661:0.0722 1662:0.3123 1663:0.2482 1664:0.3493 1665:0.1048 1666:0.2265 1667:0.1874 1668:0.7239 1669:0.0632 1670:0.5503 1671:0.0173 1672:0.6215 1673:0.4864 1674:0.6842 1675:0.0816 1676:0.0388 1677:0.2064 1678:0.1138 1679:0.1258 1680:0.0795 1681:0.0777 1682:0.5631 1683:0.2664 1684:0.1769 1685:0.2134 1686:0.1058 1687:0.6553 1688:0.4346 1689:0.3778 1690:0.0913 1691:0.4483 1692:0.3026 1693:0.1161 1694:0.1906 1695:0.0233 1696:0.1086 1697:0.1072 1698:0.1115 1699:0.3194 1700:0.0839 1701:0.1222 1702:0.187 1703:0.2644 1704:0.3723 1705:0.0673 1706:0.1391 1707:0.1241 1708:0.3297 1709:0.2807 1710:0.1281 1711:0.3294 1712:0.0602 1713:0.1636 1714:0.0424 1715:0.6379 1716:0.2768 1717:0.1304 1718:0.2018 1719:0.2894 1720:0.0664 1721:0.0735 1722:0.1273 1723:0.0684 1724:0.0139 1725:0.7209 1726:0.0389 1727:0.1125 1728:0.405 1729:0.5727 1730:0.0431 1731:0.2281 1732:0.0374 1733:0.3437 1734:0.0749 1735:0.1329 1736:0.0705 1737:0.2894 1738:0.1507 1739:0.4779 1740:0.2832 1741:0.2793 1742:0.052 1743:0.3747 1744:0.2312 1745:0.1084 1746:0.1932 1747:0.2437 1748:0.0625 1749:0.1381 1750:0.4237 1751:0.0351 1752:0.3194 1753:0.2257 1754:0.4493 1755:0.1154 1756:0.2065 1757:0.2269 1758:0.2285 1759:0.1482 1760:0.095 1761:0.1092 1762:0.3096 1763:0.1263 1764:0.0624 1765:0.2125 1766:0.4461 1767:0.1559 1768:0.2157 1769:0.1864 1770:0.0143 1771:0.0514 1772:0.0733 1773:0.0914 1774:0.4219 1775:0.3406 1776:0.0875 1777:0.5825 1778:0.2042 1779:0.3217 1780:0.0872 1781:0.2737 1782:0.0826 1783:0.034 1784:0.3126 1785:0.1459 1786:0.184 1787:0.0741 1788:0.3663 1789:0.1482 1790:0.2824 1791:0.2795 1792:0.2035 1793:0.1207 1794:0.3126 1795:0.2222 1796:0.2656 1797:0.3517 1798:0.0822 1799:0.0298 1800:0.0404 1801:0.1118 1802:0.1302 1803:0.0681 1804:0.0217 1805:0.1549 1806:0.0517 1807:0.3451 1808:0.0455 1809:0.1338 1810:0.0072 1811:0.0792 1812:0.138 1813:0.2452 1814:0.469 1815:0.0909 1816:0.3475 1817:0.2798 1818:0.1768 1819:0.4594 1820:0.2878 1821:0.1419 1822:0.0301 1823:0.2849 1824:0.3028 1825:0.5902 1826:0.1218 1827:0.7599 1828:0.6113 1829:0.1486 1830:0.3121 1831:0.1179 1832:0.249 1833:0.0237 1834:0.0252 1835:0.1294 1836:0.3899 1837:0.3419 1838:0.2208 1839:0.0785 1840:0.1113 1841:0.2054 1842:0.1065 1843:0.0893 1844:0.1864 1845:0.4708 1846:0.1145 1847:0.4276 1848:0.0682 1849:0.2205 1850:0.1344 1851:0.1979 1852:0.5456 1853:0.6398 1854:0.1227 1855:0.4828 1856:0.0895 1857:0.2795 1858:0.1714 1859:0.1678 1860:0.2194 1861:0.0127 1862:0.1585 1863:0.3735 1864:0.1553 1865:0.1949 1866:0.6139 1867:0.0613 1868:0.4531 1869:0.1695 1870:0.4101 1871:0.1096 1872:0.1967 1873:1 1874:0.2733 1875:0.0491 1876:0.7799 1877:0.3027 1878:0.2581 1879:0.1156 1880:0.2165 1881:0.1168 1882:0.0766 1883:0.3459 1884:0.0906 1885:0.0677 1886:0.103 1887:0.0798 1888:0.1754 1889:0.205 1890:0.1446 1891:0.2547 1892:0.0891 1893:0.1868 1894:0.1278 1895:0.0084 1896:0.1214 1897:0.057 1898:0.0473 1899:0.1557 1900:0.0568 1901:0.1071 1902:0.6517 1903:0.3396 1904:0.13 1905:0.076 1906:0.2482 1907:0.5732 1908:0.0919 1909:0.093 1910:0.2195 1911:0.2005 1912:0.0815 1913:0.4127 1914:0.3071 1915:0.1173 1916:0.1772 1917:0.3774 1918:0.174 1919:0.6928 1920:0.1032 1921:0.2951 1922:0.0788 1923:0.0816 1924:0.2887 1925:0.1615 1926:0.5509 1927:0.0258 1928:0.3805 1929:0.2246 1930:0.0171 1931:0.3089 1932:0.2483 1933:0.6861 1934:0.195 1935:0.0244 1936:0.1209 1937:0.171 1938:0.2109 1939:0.155 1940:0.3536 1941:0.1194 1942:0.0129 1943:0.0723 1944:0.1814 1945:0.2551 1946:0.1703 1947:0.0583 1948:0.6271 1949:0.3373 1950:0.2109 1951:0.0951 1952:0.089 1953:0.4492 1954:0.4564 1955:1 1956:0.0325 1957:0.1823 1958:0.1964 1959:0.076 1960:0.153 1961:0.0795 1962:0.2396 1963:0.0379 1964:0.2167 1965:0.3001 1966:0.1811 1967:0.3994 1968:0.346 1969:0.0301 1970:0.1414 1971:0.303 1972:0.2542 1973:0.144 1974:0.0918 1975:0.3353 1976:0.1198 1977:0.1163 1978:0.0393 1979:0.4553 1980:0.3658 1981:0.6203 1982:0.5846 1983:0.1331 1984:0.3595 1985:0.0484 1986:0.1485 1987:0.1722 1988:0.2193 1989:0.1349 1990:0.7409 1991:0.2102 1992:0.0948 1993:0.0065 1994:0.5483 1995:0.16 1996:0.0964 1997:0.119 1998:0.1085 1999:0.2531 2000:0.126 
0.1068032635191926 1:0.1687 2:0.1931 3:0.182 4:0.2732 5:0.2236 6:0.1491 7:0.1298 8:0.4167 9:0.1184 10:0.1066 11:0.2854 12:0.5119 13:0.2332 14:0.441 15:0.2972 16:0.254 17:0.1687 18:0.3389 19:0.1283 20:0.1312 21:0.1039 22:0.3278 23:0.0902 24:0.1225 25:0.4221 26:0.1482 27:0.4621 28:0.2361 29:0.1322 30:0.2341 31:0.1498 32:0.2276 33:0.0685 34:0.1755 35:0.3523 36:0.0951 37:0.1997 38:0.1028 39:0.1974 40:0.1974 41:0.1974 42:0.1974 43:0.1619 44:0.2794 45:0.3378 46:0.0953 47:0.1934 48:0.1416 49:0.2853 50:0.1119 51:0.1119 52:0.1119 53:0.1119 54:0.0868 55:0.1133 56:0.3364 57:0.2713 58:0.1116 59:0.1063 60:0.1614 61:0.4001 62:0.1431 63:0.0758 64:0.0851 65:0.1423 66:0.5592 67:0.1676 68:0.1337 69:0.1625 70:0.1986 71:0.0759 72:0.1229 73:0.2749 74:0.3934 75:0.0558 76:0.2548 77:0.2616 78:0.2416 79:0.3377 80:0.1263 81:0.2577 82:0.2976 83:0.1651 84:0.1462 85:0.1054 86:0.1591 87:0.1842 88:0.0777 89:0.2031 90:0.2423 91:0.1319 92:0.1617 93:0.1397 94:0.0934 95:0.232 96:0.2549 97:0.2886 98:0.1687 99:0.1478 100:0.0552 101:0.104 102:0.052 103:0.2406 104:0.3749 105:0.0786 106:0.1296 107:0.2072 108:0.2886 109:0.1003 110:0.2292 111:0.2905 112:0.1913 113:0.1969 114:0.1318 115:0.1252 116:0.1451 117:0.2291 118:0.23 119:0.2391 120:0.1478 121:0.1595 122:0.2198 123:0.1652 124:0.1777 125:0.1019 126:0.2049 127:0.1473 128:0.1782 129:0.3997 130:0.1514 131:0.2759 132:0.0989 133:0.076 134:0.1329 135:0.2697 136:0.14 137:0.2723 138:0.1035 139:0.1917 140:0.1294 141:0.0687 142:0.2122 143:0.1278 144:0.1306 145:0.1391 146:0.4471 147:0.1328 148:0.0798 149:0.0337 150:0.1118 151:0.4411 152:0.1868 153:0.1208 154:0.2261 155:0.1315 156:0.1056 157:0.0697 158:0.2167 159:0.147 160:0.1744 161:0.209 162:0.2191 163:0.26 164:0.14 165:0.1204 166:0.2313 167:0.2969 168:0.1282 169:0.1996 170:0.223 171:0.145 172:0.1591 173:0.3009 174:0.2283 175:0.1905 176:0.0835 177:0.0372 178:0.0774 179:0.3384 180:0.1745 181:0.1832 182:0.0751 183:0.1309 184:0.0503 185:0.1453 186:0.1405 187:0.1171 188:0.0531 189:0.2054 190:0.0611 191:0.1958 192:0.0864 193:0.4054 194:0.2419 195:0.1374 196:0.1281 197:0.3295 198:0.054 199:0.117 200:0.216 201:0.1562 202:0.1423 203:0.2102 204:0.1835 205:0.1093 206:0.1286 207:0.0946 208:0.0913 209:0.3101 210:0.0448 211:0.3408 212:0.1137 213:0.1579 214:0.0862 215:0.2375 216:0.4132 217:0.2319 218:0.2079 219:0.1237 220:0.5065 221:0.176 222:0.1803 223:0.3847 224:0.1754 225:0.1419 226:0.0818 227:0.4019 228:0.0508 229:0.1276 230:0.1994 231:0.144 232:0.0998 233:0.4345 234:0.3181 235:0.0693 236:0.1788 237:0.1637 238:0.2759 239:0.1178 240:0.3067 241:0.1069 242:0.2332 243:0.1347 244:0.1738 245:0.5423 246:0.1578 247:0.1443 248:0.455 249:0.3482 250:0.0696 251:0.0367 252:0.1295 253:0.1416 254:0.2863 255:0.1543 256:0.2996 257:0.153 258:0.188 259:0.2392 260:0.0135 261:0.0135 262:0.0135 263:0.0135 264:0.0774 265:0.1694 266:0.101 267:0.5644 268:0.0718 269:0.0844 270:0.1343 271:0.1236 272:0.3599 273:0.0635 274:0.0652 275:0.1524 276:0.1272 277:0.2378 278:0.1161 279:0.106 280:0.4115 281:0.095 282:0.1072 283:0.1832 284:0.0561 285:0.0673 286:0.5602 287:0.0992 288:0.1466 289:0.0892 290:0.0749 291:0.1693 292:0.0583 293:0.1121 294:0.1661 295:0.0413 296:0.1132 297:0.3287 298:0.2154 299:0.1546 300:0.1341 301:0.1393 302:0.163 303:0.287 304:0.1009 305:0.0754 306:0.0097 307:0.0916 308:0.1053 309:0.185 310:0.2261 311:0.1417 312:0.1855 313:0.1129 314:0.0918 315:0.2355 316:0.191 317:0.0663 318:0.0804 319:0.275 320:0.1939 321:0.1053 322:0.1883 323:0.0801 324:0.2158 325:0.0535 326:0.0543 327:0.215 328:0.1987 329:0.0675 330:0.1703 331:0.1048 332:0.2917 333:0.1622 334:0.0744 335:0.2059 336:0.1223 337:0.2089 338:0.3712 339:0.0655 340:0.0916 341:0.1978 342:0.1466 343:0.0194 344:0.0815 345:0.2068 346:0.0819 347:0.1217 348:0.1393 349:0.2443 350:0.3296 351:0.1932 352:0.1628 353:0.1388 354:0.1223 355:0.2137 356:0.144 357:0.2852 358:0.0657 359:0.1221 360:0.0759 361:0.1067 362:0.097 363:0.131 364:0.2186 365:0.1481 366:0.4841 367:0.2279 368:0.1991 369:0.1216 370:0.2139 371:0.1109 372:0.2251 373:0.168 374:0.122 375:0.2392 376:0.1998 377:0.2136 378:0.0509 379:0.279 380:0.2358 381:0.1928 382:0.1594 383:0.0712 384:0.1937 385:0.1353 386:0.0991 387:0.1088 388:0.1858 389:0.4153 390:0.1017 391:0.0255 392:0.3239 393:0.1973 394:0.2535 395:0.12 396:0.4503 397:0.0741 398:0.1209 399:0.0937 400:0.0899 401:0.1232 402:0.1374 403:0.0612 404:0.1155 405:0.3761 406:0.2139 407:0.1896 408:0.1324 409:0.4633 410:0.2371 411:0.4991 412:0.3767 413:0.1462 414:0.335 415:0.1057 416:0.2231 417:0.1275 418:0.1448 419:0.2931 420:0.149 421:0.156 422:0.2842 423:0.2486 424:0.1025 425:0.3068 426:0.2422 427:0.2622 428:0.1085 429:0.1514 430:0.1726 431:0.1596 432:0.3519 433:0.0967 434:0.1934 435:0.176 436:0.1135 437:0.1837 438:0.1721 439:0.0759 440:0.0727 441:0.1722 442:0.3255 443:0.2651 444:0.1336 445:0.0773 446:0.1803 447:0.0461 448:0.1464 449:0.2426 450:0.2474 451:0.1229 452:0.1663 453:0.422 454:0.2092 455:0.2044 456:0.0663 457:0.226 458:0.0863 459:0.1298 460:0.4755 461:0.1039 462:0.1481 463:0.1118 464:0.1848 465:0.1308 466:0.2813 467:0.0906 468:0.1813 469:0.3282 470:0.236 471:0.0838 472:0.2107 473:0.1454 474:0.0723 475:0.0645 476:0.3295 477:0.0961 478:0.0692 479:0.1544 480:0.1258 481:0.1419 482:0.0943 483:0.3119 484:0.14 485:0.1485 486:0.2246 487:0.364 488:0.0839 489:0.079 490:0.1159 491:0.2554 492:0.1625 493:0.1791 494:0.058 495:0.0457 496:0.1151 497:0.2214 498:0.3682 499:0.0987 500:0.0882 501:0.2493 502:0.2399 503:0.0844 504:0.1165 505:0.2206 506:0.1205 507:0.0862 508:0.1005 509:0.0616 510:0.2548 511:0.0786 512:0.3728 513:0.0539 514:0.1215 515:0.1652 516:0.2251 517:0.1293 518:0.0818 519:0.0868 520:0.0545 521:0.2161 522:0.1396 523:0.5439 524:0.2244 525:0.2228 526:0.2495 527:0.0938 528:0.1282 529:0.072 530:0.2866 531:0.1651 532:0.1309 533:0.1397 534:0.1066 535:0.0868 536:0.1071 537:0.2105 538:0.2078 539:0.103 540:0.0517 541:0.2246 542:0.2494 543:0.2439 544:0.0547 545:0.1021 546:0.2819 547:0.2394 548:0.1939 549:0.0619 550:0.1083 551:0.2781 552:0.1124 553:0.2122 554:0.2339 555:0.1593 556:0.1273 557:0.2702 558:0.2576 559:0.0821 560:0.1194 561:0.2364 562:0.1601 563:0.2244 564:0.206 565:0.1669 566:0.1279 567:0.1486 568:0.1549 569:0.266 570:0.0464 571:0.1296 572:0.1916 573:0.2402 574:0.1851 575:0.1672 576:0.0571 577:0.1786 578:0.0769 579:0.0759 580:0.56 581:0.0565 582:0.2142 583:0.5365 584:0.1864 585:0.1547 586:0.1807 587:0.2019 588:0.2476 589:0.0648 590:0.294 591:0.0765 592:0.1957 593:0.1136 594:0.158 595:0.1981 596:0.2316 597:0.2005 598:0.1642 599:0.0753 600:0.1439 601:0.061 602:0.1442 603:0.1522 604:0.2331 605:0.0934 606:0.4023 607:0.2057 608:0.2228 609:0.3027 610:0.2152 611:0.3773 612:0.1463 613:0.1286 614:0.0609 615:0.1247 616:0.0848 617:0.4234 618:0.1715 619:0.1389 620:0.277 621:0.0673 622:0.1643 623:0.1405 624:0.3008 625:0.0594 626:0.1951 627:0.1497 628:0.2019 629:0.0562 630:0.3992 631:0.1198 632:0.1871 633:0.2736 634:0.1747 635:0.2163 636:0.0838 637:0.1543 638:0.202 639:0.0482 640:0.0327 641:0.1691 642:0.1509 643:0.1159 644:0.1948 645:0.102 646:0.2764 647:0.1433 648:0.0463 649:0.0549 650:0.2725 651:0.1177 652:0.1355 653:0.0462 654:0.137 655:0.1585 656:0.1181 657:0.2227 658:0.1907 659:0.1356 660:0.0854 661:0.0759 662:0.1246 663:0.1795 664:0.0522 665:0.2704 666:0.0922 667:0.3272 668:0.1359 669:0.0559 670:0.1561 671:0.1981 672:0.0332 673:0.0531 674:0.0986 675:0.2881 676:0.1387 677:0.2371 678:0.0747 679:0.0578 680:0.1297 681:0.2906 682:0.1541 683:0.4488 684:0.0238 685:0.1607 686:0.1787 687:0.2029 688:0.195 689:0.0849 690:0.2834 691:0.1421 692:0.1448 693:0.1919 694:0.1334 695:0.0985 696:0.326 697:0.2684 698:0.0537 699:0.0658 700:0.2094 701:0.1028 702:0.0614 703:0.1788 704:0.0909 705:0.339 706:0.147 707:0.1927 708:0.3997 709:0.2397 710:0.2078 711:0.0971 712:0.2032 713:0.1624 714:0.1167 715:0.0934 716:0.09 717:0.1904 718:0.2214 719:0.1873 720:0.1595 721:0.1663 722:0.1395 723:0.1741 724:0.0903 725:0.2876 726:0.173 727:0.2552 728:0.1915 729:0.1192 730:0.1608 731:0.0544 732:0.2523 733:0.1374 734:0.0403 735:0.1624 736:0.2637 737:0.1202 738:0.2977 739:0.1314 740:0.0397 741:0.1493 742:0.1585 743:0.1674 744:0.174 745:0.093 746:0.1664 747:0.1176 748:0.0959 749:0.103 750:0.1456 751:0.1375 752:0.1567 753:0.1432 754:0.0822 755:0.2477 756:0.1319 757:0.4368 758:0.1133 759:0.1413 760:0.1343 761:0.1833 762:0.1103 763:0.0764 764:0.0592 765:0.4176 766:0.1113 767:0.0712 768:0.2547 769:0.0882 770:0.0417 771:0.0821 772:0.1487 773:0.2192 774:0.1182 775:0.2714 776:0.4984 777:0.1483 778:0.2246 779:0.1045 780:0.0699 781:0.2789 782:0.2301 783:0.2011 784:0.1329 785:0.0397 786:0.3266 787:0.064 788:0.1182 789:0.1501 790:0.1159 791:0.1193 792:0.1924 793:0.0933 794:0.0307 795:0.0764 796:0.1795 797:0.0936 798:0.2113 799:0.1872 800:0.0744 801:0.1328 802:0.0277 803:0.1717 804:0.2557 805:0.1354 806:0.0632 807:0.0707 808:0.1092 809:0.1534 810:0.1438 811:0.25 812:0.3302 813:0.2363 814:0.2562 815:0.1166 816:0.1029 817:0.1898 818:0.0821 819:0.3407 820:0.1865 821:0.1179 822:0.0964 823:0.1537 824:0.2921 825:0.2246 826:0.2422 827:0.0766 828:0.097 829:0.1523 830:0.0322 831:0.1203 832:0.1996 833:0.1417 834:0.0302 835:0.1191 836:0.391 837:0.2339 838:0.1896 839:0.3411 840:0.0511 841:0.1212 842:0.0808 843:0.0612 844:0.2169 845:0.0517 846:0.098 847:0.1339 848:0.1551 849:0.0894 850:0.0761 851:0.0493 852:0.1071 853:0.048 854:0.5833 855:0.061 856:0.1178 857:0.1932 858:0.1257 859:0.0636 860:0.2415 861:0.0961 862:0.2887 863:0.1827 864:0.2805 865:0.3083 866:0.2357 867:0.0864 868:0.2362 869:0.2599 870:0.0972 871:0.2019 872:0.0706 873:0.1601 874:0.3296 875:0.365 876:0.451 877:0.4312 878:0.0056 879:0.2089 880:0.0976 881:0.1623 882:0.0814 883:0.0642 884:0.2716 885:0.0532 886:0.1391 887:0.1638 888:0.191 889:0.1806 890:0.1405 891:0.1361 892:0.2533 893:0.0756 894:0.2949 895:0.1143 896:0.1632 897:0.1708 898:0.174 899:0.3596 900:0.1796 901:0.0336 902:0.1535 903:0.0569 904:0.0899 905:0.1677 906:0.0368 907:0.1052 908:0.0516 909:0.3836 910:0.1043 911:0.2942 912:0.2269 913:0.1657 914:0.0518 915:0.1367 916:0.055 917:0.1849 918:0.0721 919:0.1652 920:0.1203 921:0.4053 922:0.1992 923:0.0966 924:0.1142 925:0.0708 926:0.2874 927:0.3234 928:0.0761 929:0.1368 930:0.056 931:0.2682 932:0.1925 933:0.1304 934:0.0999 935:0.2715 936:0.0704 937:0.1666 938:0.2662 939:0.0665 940:0.1053 941:0.0821 942:0.14 943:0.1594 944:0.2517 945:0.3236 946:0.1184 947:0.1218 948:0.1 949:0.1184 950:0.0324 951:0.1833 952:0.2217 953:0.0314 954:0.1082 955:0.1826 956:0.0964 957:0.1264 958:0.1334 959:0.1261 960:0.057 961:0.3122 962:0.2067 963:0.0784 964:0.0211 965:0.141 966:0.2282 967:0.1807 968:0.2504 969:0.0916 970:0.0787 971:0.2186 972:0.1376 973:0.0424 974:0.1039 975:0.0792 976:0.1403 977:0.1276 978:0.0536 979:0.1301 980:0.3369 981:0.1739 982:0.0738 983:0.1718 984:0.0977 985:0.2649 986:0.2017 987:0.13 988:0.0393 989:0.0386 990:0.0852 991:0.1147 992:0.034 993:0.1176 994:0.0564 995:0.3202 996:0.105 997:0.1481 998:0.0732 999:0.2709 1000:0.2857 1001:0.1366 1002:0.0265 1003:0.2488 1004:0.0701 1005:0.3 1006:0.1317 1007:0.2595 1008:0.1471 1009:0.1235 1010:0.1646 1011:0.0856 1012:0.1171 1013:0.0935 1014:0.086 1015:0.0963 1016:0.2293 1017:0.1516 1018:0.1531 1019:0.201 1020:0.1762 1021:0.2319 1022:0.1802 1023:0.1838 1024:0.2183 1025:0.0525 1026:0.0632 1027:0.2602 1028:0.0981 1029:0.0638 1030:0.2565 1031:0.1234 1032:0.0625 1033:0.111 1034:0.2281 1035:0.1033 1036:0.1122 1037:0.4731 1038:0.0379 1039:0.1061 1040:0.0509 1041:0.1032 1042:0.0411 1043:0.1351 1044:0.0932 1045:0.1112 1046:0.1368 1047:0.0358 1048:0.0192 1049:0.1345 1050:0.0968 1051:0.1486 1052:0.0756 1053:0.1698 1054:0.1587 1055:0.1962 1056:0.1745 1057:0.438 1058:0.3603 1059:0.0799 1060:0.0668 1061:0.2527 1062:0.1159 1063:0.05 1064:0.0446 1065:0.0882 1066:0.2252 1067:0.1079 1068:0.1506 1069:0.0662 1070:0.2562 1071:0.1149 1072:0.0871 1073:0.0897 1074:0.0775 1075:0.115 1076:0.0332 1077:0.3599 1078:0.1397 1079:0.1902 1080:0.0966 1081:0.2263 1082:0.0319 1083:0.0963 1084:0.2374 1085:0.1001 1086:0.12 1087:0.019 1088:0.1482 1089:0.09 1090:0.0617 1091:0.1615 1092:0.2188 1093:0.0753 1094:0.3983 1095:0.0927 1096:0.0571 1097:0.2055 1098:0.1592 1099:0.0683 1100:0.0755 1101:0.0825 1102:0.0195 1103:0.0989 1104:0.1335 1105:0.1393 1106:0.3064 1107:0.0727 1108:0.1612 1109:0.1134 1110:0.0824 1111:0.2423 1112:0.0336 1113:0.0648 1114:0.0472 1115:0.0882 1116:0.233 1117:0.1435 1118:0.2534 1119:0.3717 1120:0.0291 1121:0.1159 1122:0.1619 1123:0.1244 1124:0.0286 1125:0.3966 1126:0.1514 1127:0.2401 1128:0.1234 1129:0.034 1130:0.1452 1131:0.0991 1132:0.1983 1133:0.1943 1134:0.1206 1135:0.1888 1136:0.0635 1137:0.0957 1138:0.046 1139:0.0749 1140:0.0769 1141:0.0855 1142:0.1625 1143:0.0711 1144:0.1091 1145:0.0819 1146:0.1259 1147:0.0687 1148:0.0884 1149:0.0793 1150:0.0727 1151:0.1772 1152:0.2728 1153:0.0083 1154:0.0299 1155:0.1862 1156:0.1574 1157:0.2156 1158:0.1695 1159:0.1212 1160:0.0664 1161:0.0444 1162:0.0514 1163:0.11 1164:0.2037 1165:0.144 1166:0.0552 1167:0.2806 1168:0.0525 1169:0.215 1170:0.0802 1171:0.1755 1172:0.1196 1173:0.0795 1174:0.1445 1175:0.1571 1176:0.0737 1177:0.1011 1178:0.0807 1179:0.2535 1180:0.4933 1181:0.0204 1182:0.1929 1183:0.1877 1184:0.1443 1185:0.338 1186:0.0758 1187:0.0794 1188:0.1256 1189:0.2779 1190:0.0473 1191:0.1278 1192:0.1166 1193:0.1919 1194:0.0465 1195:0.1319 1196:0.0871 1197:0.0884 1198:0.2124 1199:0.045 1200:0.11 1201:0.1747 1202:0.2049 1203:0.4178 1204:0.1768 1205:0.1387 1206:0.1558 1207:0.1983 1208:0.0326 1209:0.0874 1210:0.14 1211:0.0461 1212:0.1713 1213:0.0489 1214:0.2176 1215:0.1394 1216:0.1986 1217:0.0334 1218:0.1645 1219:0.0605 1220:0.1425 1221:0.0443 1222:0.1895 1223:0.0369 1224:0.1562 1225:0.2426 1226:0.0708 1227:0.0739 1228:0.0952 1229:0.1949 1230:0.0249 1231:0.4051 1232:0.0709 1233:0.2595 1234:0.1851 1235:0.0916 1236:0.0843 1237:0.0351 1238:0.1246 1239:0.1321 1240:0.1472 1241:0.0307 1242:0.0662 1243:0.2184 1244:0.2096 1245:0.2909 1246:0.1353 1247:0.13 1248:0.0362 1249:0.1225 1250:0.1088 1251:0.35 1252:0.1217 1253:0.1265 1254:0.1107 1255:0.1105 1256:0.0784 1257:0.0727 1258:0.1889 1259:0.1311 1260:0.0566 1261:0.1783 1262:0.2738 1263:0.0492 1264:0.1029 1265:0.1455 1266:0.1679 1267:0.2232 1268:0.0431 1269:0.1581 1270:0.1212 1271:0.0705 1272:0.098 1273:0.1345 1274:0.1437 1275:0.1818 1276:0.112 1277:0.1524 1278:0.1371 1279:0.0939 1280:0.071 1281:0.1138 1282:0.1744 1283:0.0234 1284:0.2714 1285:0.1294 1286:0.3285 1287:0.1379 1288:0.0651 1289:0.1969 1290:0.1244 1291:0.1363 1292:0.2619 1293:0.0429 1294:0.0212 1295:0.2692 1296:0.0418 1297:0.313 1298:0.0338 1299:0.1345 1300:0.1199 1301:0.1175 1302:0.0794 1303:0.118 1304:0.1988 1305:0.1987 1306:0.0506 1307:0.0615 1308:0.0415 1309:0.0739 1310:0.0936 1311:0.103 1312:0.0098 1313:0.1082 1314:0.0602 1315:0.2736 1316:0.2012 1317:0.2055 1318:0.0539 1319:0.0624 1320:0.3769 1321:0.0814 1322:0.0992 1323:0.1007 1324:0.0335 1325:0.0374 1326:0.1606 1327:0.0498 1328:0.302 1329:0.2053 1330:0.0733 1331:0.1151 1332:0.2533 1333:0.0707 1334:0.076 1335:0.1634 1336:0.1454 1337:0.1152 1338:0.1624 1339:0.2036 1340:0.0233 1341:0.1133 1342:0.1361 1343:0.1348 1344:0.1068 1345:0.3014 1346:0.1482 1347:0.259 1348:0.0875 1349:0.2441 1350:0.0746 1351:0.4034 1352:0.1323 1353:0.0843 1354:0.1881 1355:0.0436 1356:0.1733 1357:0.0935 1358:0.1591 1359:0.1063 1360:0.0678 1361:0.2298 1362:0.278 1363:0.2374 1364:0.1751 1365:0.0328 1366:0.0898 1367:0.1575 1368:0.1749 1369:0.1638 1370:0.0532 1371:0.1288 1372:0.0464 1373:0.3916 1374:0.0755 1375:0.0562 1376:0.0681 1377:0.0752 1378:0.1001 1379:0.0731 1380:0.0949 1381:0.2713 1382:0.1602 1383:0.0664 1384:0.2605 1385:0.3649 1386:0.2152 1387:0.1175 1388:0.3585 1389:0.0858 1390:0.039 1391:0.1241 1392:0.1418 1393:0.1378 1394:0.208 1395:0.0248 1396:0.0825 1397:0.2267 1398:0.0567 1399:0.1154 1400:0.0804 1401:0.2287 1402:0.062 1403:0.0665 1404:0.0419 1405:0.1255 1406:0.0245 1407:0.0556 1408:0.1286 1409:0.1613 1410:0.2145 1411:0.1291 1412:0.1523 1413:0.0536 1414:0.0565 1415:0.1663 1416:0.2307 1417:0.0309 1418:0.2368 1419:0.2304 1420:0.1592 1421:0.1379 1422:0.196 1423:0.1463 1424:0.0586 1425:0.3392 1426:0.1816 1427:0.0794 1428:0.0768 1429:0.0715 1430:0.0738 1431:0.1229 1432:0.0753 1433:0.0533 1434:0.0796 1435:0.07 1436:0.2383 1437:0.1358 1438:0.0499 1439:0.3433 1440:0.1073 1441:0.2488 1442:0.1758 1443:0.1182 1444:0.0897 1445:0.1556 1446:0.0901 1447:0.0482 1448:0.0696 1449:0.2179 1450:0.1103 1451:0.1338 1452:0.0182 1453:0.0898 1454:0.1497 1455:0.2983 1456:0.0964 1457:0.0542 1458:0.1186 1459:0.1962 1460:0.2484 1461:0.2695 1462:0.1454 1463:0.3592 1464:0.0918 1465:0.1056 1466:0.2813 1467:0.153 1468:0.1528 1469:0.0309 1470:0.2913 1471:0.0771 1472:0.0676 1473:0.0486 1474:0.0675 1475:0.3475 1476:0.1129 1477:0.0482 1478:0.2787 1479:0.1687 1480:0.2073 1481:0.5358 1482:0.0807 1483:0.0115 1484:0.1109 1485:0.0296 1486:0.0757 1487:0.0723 1488:0.0398 1489:0.0616 1490:0.2155 1491:0.0359 1492:0.3827 1493:0.0981 1494:0.1022 1495:0.2812 1496:0.3641 1497:0.1559 1498:0.1136 1499:0.0856 1500:0.0399 1501:0.244 1502:0.1149 1503:0.2422 1504:0.1842 1505:0.097 1506:0.1123 1507:0.0948 1508:0.0673 1509:0.1419 1510:0.0249 1511:0.0216 1512:0.2522 1513:0.121 1514:0.4112 1515:0.0651 1516:0.3007 1517:0.1091 1518:0.1595 1519:0.1045 1520:0.1752 1521:0.0626 1522:0.3356 1523:0.1181 1524:0.1254 1525:0.2769 1526:0.032 1527:0.2207 1528:0.0514 1529:0.0772 1530:0.1905 1531:0.4784 1532:0.2189 1533:0.3176 1534:0.1714 1535:0.4926 1536:0.1695 1537:0.0392 1538:0.0571 1539:0.2933 1540:0.1517 1541:0.0455 1542:0.1296 1543:0.1254 1544:0.0962 1545:0.0715 1546:0.0824 1547:0.414 1548:0.407 1549:0.0316 1550:0.0294 1551:0.1091 1552:0.1125 1553:0.1459 1554:0.0992 1555:0.1951 1556:0.1262 1557:0.1234 1558:0.0093 1559:0.0476 1560:0.3026 1561:0.254 1562:0.07 1563:0.115 1564:0.0914 1565:0.1705 1566:0.274 1567:0.0543 1568:0.0608 1569:0.0515 1570:0.2298 1571:0.3001 1572:0.4362 1573:0.119 1574:0.2557 1575:0.071 1576:0.1293 1577:0.1767 1578:0.06 1579:0.018 1580:0.0637 1581:0.0696 1582:0.1429 1583:0.0283 1584:0.0962 1585:0.064 1586:0.2516 1587:0.3218 1588:0.0893 1589:0.0832 1590:0.1215 1591:0.109 1592:0.0316 1593:0.0573 1594:0.0899 1595:0.2355 1596:0.3513 1597:0.1952 1598:0.23 1599:0.0684 1600:0.0678 1601:0.0508 1602:0.1529 1603:0.1986 1604:0.1973 1605:0.0937 1606:0.0171 1607:0.0444 1608:0.0904 1609:0.1896 1610:0.0308 1611:0.0291 1612:0.1246 1613:0.128 1614:0.1083 1615:0.1865 1616:0.0929 1617:0.0799 1618:0.0912 1619:0.1784 1620:0.0508 1621:0.2597 1622:0.1242 1623:0.1561 1624:0.1574 1625:0.1719 1626:0.0913 1627:0.0641 1628:0.0474 1629:0.1648 1630:0.0704 1631:0.0195 1632:0.1326 1633:0.1551 1634:0.0279 1635:0.1555 1636:0.0121 1637:0.0675 1638:0.4358 1639:0.0959 1640:0.1724 1641:0.1076 1642:0.2415 1643:0.0278 1644:0.0242 1645:0.1183 1646:0.0756 1647:0.0471 1648:0.0425 1649:0.0911 1650:0.0402 1651:0.0534 1652:0.1092 1653:0.0286 1654:0.2713 1655:0.223 1656:0.1002 1657:0.0882 1658:0.1273 1659:0.0672 1660:0.1018 1661:0.0523 1662:0.1529 1663:0.0741 1664:0.3352 1665:0.1325 1666:0.0505 1667:0.2489 1668:0.4603 1669:0.1436 1670:0.2064 1671:0.0164 1672:0.1015 1673:0.1374 1674:0.1262 1675:0.0281 1676:0.0534 1677:0.313 1678:0.1404 1679:0.0117 1680:0.0084 1681:0.0414 1682:0.1908 1683:0.3504 1684:0.2089 1685:0.2257 1686:0.0822 1687:0.0574 1688:0.0431 1689:0.1555 1690:0.0924 1691:0.1414 1692:0.225 1693:0.1193 1694:0.122 1695:0.0149 1696:0.163 1697:0.0663 1698:0.0519 1699:0.3898 1700:0.1011 1701:0.0834 1702:0.488 1703:0.2459 1704:0.2383 1705:0.143 1706:0.0478 1707:0.0626 1708:0.0657 1709:0.1027 1710:0.19 1711:0.0665 1712:0.08 1713:0.212 1714:0.077 1715:0.1846 1716:0.2164 1717:0.1802 1718:0.0302 1719:0.1605 1720:0.1352 1721:0.091 1722:0.0947 1723:0.0531 1724:0.0277 1725:0.1469 1726:0.0445 1727:0.0793 1728:0.178 1729:0.1542 1730:0.0266 1731:0.0344 1732:0.1385 1733:0.2395 1734:0.1145 1735:0.1301 1736:0.0876 1737:0.0779 1738:0.0429 1739:0.1316 1740:0.225 1741:0.4103 1742:0.1212 1743:0.0745 1744:0.2009 1745:0.1101 1746:0.038 1747:0.0409 1748:0.032 1749:0.0779 1750:0.4152 1751:0.0358 1752:0.1433 1753:0.1249 1754:0.0978 1755:0.0892 1756:0.2649 1757:0.1456 1758:0.0635 1759:0.1859 1760:0.1585 1761:0.1608 1762:0.0985 1763:0.0963 1764:0.0869 1765:0.0745 1766:0.0589 1767:0.1886 1768:0.0649 1769:0.1658 1770:0.0262 1771:0.0746 1772:0.149 1773:0.0673 1774:0.1772 1775:0.0491 1776:0.0692 1777:0.1702 1778:0.0868 1779:0.2847 1780:0.1106 1781:0.104 1782:0.0429 1783:0.0247 1784:0.1665 1785:0.0924 1786:0.2985 1787:0.1264 1788:0.3498 1789:0.188 1790:0.1222 1791:0.1741 1792:0.0787 1793:0.2983 1794:0.0519 1795:0.3767 1796:0.0807 1797:0.0537 1798:0.0605 1799:0.0422 1800:0.0496 1801:0.2153 1802:0.1091 1803:0.046 1804:0.1 1805:0.0879 1806:0.0689 1807:0.1325 1808:0.0607 1809:0.4814 1810:0.0025 1811:0.0123 1812:0.2184 1813:0.1595 1814:0.1807 1815:0.1391 1816:0.1801 1817:0.0557 1818:0.1903 1819:0.0841 1820:0.1255 1821:0.0827 1822:0.0707 1823:0.1085 1824:0.2001 1825:0.0664 1826:0.1375 1827:0.193 1828:0.0459 1829:0.2252 1830:0.3796 1831:0.0324 1832:0.2033 1833:0.1658 1834:0.0839 1835:0.2162 1836:0.1343 1837:0.2032 1838:0.1811 1839:0.0584 1840:0.085 1841:0.1409 1842:0.1403 1843:0.1418 1844:0.1639 1845:0.2468 1846:0.027 1847:0.1346 1848:0.1649 1849:0.2253 1850:0.1042 1851:0.1564 1852:0.1802 1853:0.0669 1854:0.1613 1855:0.0924 1856:0.0496 1857:0.0215 1858:0.1243 1859:0.093 1860:0.2077 1861:0.0424 1862:0.0928 1863:0.0941 1864:0.0573 1865:0.2229 1866:0.085 1867:0.085 1868:0.2376 1869:0.0583 1870:0.1151 1871:0.24 1872:0.1071 1873:0.1234 1874:0.0567 1875:0.0911 1876:0.1966 1877:0.0804 1878:0.1664 1879:0.0927 1880:0.0615 1881:0.1244 1882:0.1219 1883:0.191 1884:0.1662 1885:0.0917 1886:0.1226 1887:0.0444 1888:0.067 1889:0.0619 1890:0.0644 1891:0.0981 1892:0.2651 1893:0.2908 1894:0.0878 1895:0.0136 1896:0.2472 1897:0.1684 1898:0.0525 1899:0.2807 1900:0.0066 1901:0.015 1902:0.2783 1903:0.0255 1904:0.0269 1905:0.1754 1906:0.0591 1907:0.199 1908:0.0727 1909:0.036 1910:0.0933 1911:0.0388 1912:0.1262 1913:0.1022 1914:0.1785 1915:0.1333 1916:0.0364 1917:0.0815 1918:0.3044 1919:0.2226 1920:0.0202 1921:0.1954 1922:0.145 1923:0.1445 1924:0.4076 1925:0.6197 1926:0.206 1927:0.1256 1928:0.1185 1929:0.2664 1930:0.0618 1931:0.0962 1932:0.1441 1933:0.1729 1934:0.136 1935:0.0798 1936:0.1168 1937:0.1648 1938:0.1895 1939:0.1658 1940:0.0819 1941:0.0667 1942:0.0597 1943:0.3029 1944:0.1225 1945:0.1596 1946:0.0377 1947:0.2178 1948:0.2024 1949:0.149 1950:0.0713 1951:0.0845 1952:0.0218 1953:0.1631 1954:0.1272 1955:0.3118 1956:0.073 1957:0.134 1958:0.056 1959:0.0135 1960:0.1245 1961:0.1335 1962:0.165 1963:0.0102 1964:0.1154 1965:0.076 1966:0.1446 1967:0.1066 1968:0.1834 1969:0.0368 1970:0.0949 1971:0.1137 1972:0.0513 1973:0.1463 1974:0.0592 1975:0.228 1976:0.035 1977:0.1489 1978:0.0524 1979:0.1529 1980:0.1568 1981:0.0214 1982:0.1759 1983:0.0324 1984:0.4687 1985:0.1123 1986:0.0636 1987:0.053 1988:0.0772 1989:0.2174 1990:0.148 1991:0.1688 1992:0.1082 1993:0.1631 1994:0.0844 1995:0.0712 1996:0.1308 1997:0.0143 1998:0.0926 1999:0.0496 2000:0.1718 
0.01396251722124769 1:0.2708 2:0.3109 3:0.3335 4:0.3927 5:0.2291 6:0.252 7:0.1436 8:0.573 9:0.3092 10:0.2503 11:0.7211 12:0.526 13:0.2819 14:0.46 15:0.2327 16:0.4323 17:0.2109 18:0.674 19:0.2166 20:0.1243 21:0.1504 22:0.249 23:0.12 24:0.153 25:0.5716 26:0.1453 27:0.5642 28:0.3688 29:0.2088 30:0.6317 31:0.1237 32:0.1952 33:0.128 34:0.4607 35:0.3497 36:0.1319 37:0.2035 38:0.2956 39:0.3271 40:0.3271 41:0.3271 42:0.3271 43:0.14 44:0.4183 45:0.2934 46:0.1381 47:0.1748 48:0.2673 49:0.3159 50:0.304 51:0.304 52:0.304 53:0.304 54:0.0904 55:0.1567 56:0.5624 57:0.3012 58:0.1494 59:0.1943 60:0.2099 61:0.2989 62:0.1785 63:0.144 64:0.107 65:0.4365 66:0.3309 67:0.3176 68:0.1338 69:0.133 70:0.3166 71:0.1276 72:0.3223 73:0.6148 74:0.4054 75:0.1295 76:0.4255 77:0.3071 78:0.5175 79:0.5839 80:0.1256 81:0.5364 82:0.3576 83:0.3196 84:0.2144 85:0.0844 86:0.1987 87:0.2814 88:0.0497 89:0.2224 90:0.3313 91:0.1611 92:0.2153 93:0.1699 94:0.1955 95:0.2078 96:0.2387 97:0.3886 98:0.3471 99:0.2547 100:0.0478 101:0.1272 102:0.0812 103:0.3061 104:0.4579 105:0.0971 106:0.201 107:0.262 108:0.3901 109:0.1273 110:0.2409 111:0.3406 112:0.4053 113:0.2357 114:0.2328 115:0.1566 116:0.3906 117:0.1961 118:0.2201 119:0.13 120:0.1248 121:0.3229 122:0.2545 123:0.2635 124:0.4898 125:0.2166 126:0.3209 127:0.2033 128:0.3209 129:0.3132 130:0.1588 131:0.4495 132:0.1242 133:0.1904 134:0.1383 135:0.361 136:0.1462 137:0.427 138:0.1658 139:0.1972 140:0.1286 141:0.1597 142:0.5499 143:0.6328 144:0.2111 145:0.1622 146:0.3535 147:0.1207 148:0.1502 149:0.1284 150:0.1841 151:0.4929 152:0.6625 153:0.0728 154:0.2775 155:0.1454 156:0.4112 157:0.1339 158:0.2853 159:0.1872 160:0.5418 161:0.1843 162:0.362 163:0.411 164:0.1741 165:0.1811 166:0.3367 167:0.1967 168:0.1573 169:0.2946 170:0.142 171:0.2241 172:0.2692 173:0.5764 174:0.1944 175:0.2842 176:0.2209 177:0.0473 178:0.3154 179:0.3299 180:0.2556 181:0.07 182:0.1008 183:0.1911 184:0.144 185:0.1824 186:0.1504 187:0.1322 188:0.1353 189:0.3111 190:0.0848 191:0.4844 192:0.2858 193:0.4209 194:0.4687 195:0.1383 196:0.1752 197:0.3406 198:0.1114 199:0.1198 200:0.2324 201:0.1752 202:0.1067 203:0.2042 204:0.4304 205:0.3736 206:0.2917 207:0.1461 208:0.1107 209:0.2629 210:0.2217 211:0.3958 212:0.1232 213:0.1929 214:0.1624 215:0.2647 216:0.438 217:0.318 218:0.3124 219:0.4614 220:0.3463 221:0.1561 222:0.5861 223:0.3843 224:0.156 225:0.2997 226:0.5323 227:0.555 228:0.1545 229:0.1611 230:0.1784 231:0.1272 232:0.2252 233:0.3338 234:0.3165 235:0.0944 236:0.2149 237:0.2049 238:0.2132 239:0.1328 240:0.2257 241:0.099 242:0.2822 243:0.1741 244:0.3293 245:0.6902 246:0.8793 247:0.252 248:0.3699 249:0.6665 250:0.1453 251:0.0654 252:0.1448 253:0.2886 254:0.2385 255:0.2338 256:0.3786 257:0.1203 258:0.1295 259:0.3885 260:0.0142 261:0.0142 262:0.0142 263:0.0142 264:0.1371 265:0.2306 266:0.2752 267:0.6638 268:0.2754 269:0.14 270:0.25 271:0.1551 272:0.5293 273:0.1928 274:0.3878 275:0.2417 276:0.1549 277:0.2307 278:0.3142 279:0.1186 280:0.3209 281:0.0964 282:0.3117 283:0.1893 284:0.1721 285:0.097 286:0.225 287:0.1789 288:0.6769 289:0.1568 290:0.3215 291:0.2376 292:0.1875 293:0.4239 294:0.2923 295:0.0888 296:0.1981 297:0.335 298:0.2771 299:0.3949 300:0.2462 301:0.1828 302:0.202 303:0.3053 304:0.129 305:0.1211 306:0.0142 307:0.2201 308:0.1272 309:0.282 310:0.224 311:0.3186 312:0.2471 313:0.1628 314:0.147 315:0.1691 316:0.2387 317:0.0741 318:0.1487 319:0.3111 320:0.2736 321:0.1556 322:0.2979 323:0.189 324:0.2921 325:0.0746 326:0.0368 327:0.1285 328:0.374 329:0.1127 330:0.1499 331:0.163 332:0.3983 333:0.2804 334:0.0812 335:0.3367 336:0.1562 337:0.1698 338:0.3067 339:0.061 340:0.2757 341:0.2278 342:0.558 343:0.0499 344:0.1419 345:0.2406 346:0.2262 347:0.1792 348:0.3459 349:0.3967 350:0.1023 351:0.374 352:0.2704 353:0.1584 354:0.505 355:0.3755 356:0.3047 357:0.1756 358:0.136 359:0.1931 360:0.0697 361:0.1858 362:0.3572 363:0.1763 364:0.2952 365:0.1715 366:0.4727 367:0.3881 368:0.2633 369:0.1163 370:0.4145 371:0.1758 372:0.2376 373:0.3555 374:0.2062 375:0.3296 376:0.2982 377:0.4222 378:0.2742 379:0.3218 380:0.1355 381:0.2391 382:0.4417 383:0.1774 384:0.1708 385:0.24 386:0.0464 387:0.1349 388:0.3088 389:0.4416 390:0.1148 391:0.0852 392:0.2109 393:0.2182 394:0.1194 395:0.1444 396:0.3656 397:0.1765 398:0.5118 399:0.1501 400:0.1522 401:0.2993 402:0.2828 403:0.1128 404:0.3791 405:0.2136 406:0.2813 407:0.2213 408:0.2645 409:0.3824 410:0.3528 411:0.2007 412:0.2279 413:0.1701 414:0.2564 415:0.2114 416:0.4104 417:0.1351 418:0.168 419:0.2959 420:0.098 421:0.2964 422:0.3638 423:0.3473 424:0.1106 425:0.3264 426:0.2696 427:0.4359 428:0.1643 429:0.2223 430:0.1556 431:0.2394 432:0.3671 433:0.1201 434:0.2782 435:0.3453 436:0.1784 437:0.3427 438:0.3505 439:0.1277 440:0.1228 441:0.2902 442:0.3581 443:0.3625 444:0.2313 445:0.0638 446:0.3119 447:0.1457 448:0.1512 449:0.3982 450:0.2358 451:0.1718 452:0.3854 453:0.5054 454:0.3004 455:0.2682 456:0.0473 457:0.3018 458:0.1788 459:0.2987 460:0.401 461:0.1242 462:0.2361 463:0.2548 464:0.1473 465:0.1671 466:0.2147 467:0.0769 468:0.1949 469:0.371 470:0.3704 471:0.2148 472:0.2793 473:0.1445 474:0.1084 475:0.2871 476:0.2885 477:0.0971 478:0.1663 479:0.2159 480:0.2065 481:0.4285 482:0.1369 483:0.3843 484:0.3378 485:0.1112 486:0.3027 487:0.4085 488:0.2315 489:0.1373 490:0.2126 491:0.411 492:0.3341 493:0.2768 494:0.4185 495:0.0507 496:0.212 497:0.3412 498:0.5735 499:0.139 500:0.0965 501:0.2233 502:0.2285 503:0.1265 504:0.0547 505:0.3514 506:0.5677 507:0.1176 508:0.2293 509:0.1355 510:0.4162 511:0.0945 512:0.2588 513:0.074 514:0.37 515:0.2014 516:0.6865 517:0.0791 518:0.1054 519:0.2438 520:0.1093 521:0.2252 522:0.1781 523:0.3457 524:0.3071 525:0.2619 526:0.2974 527:0.2287 528:0.2105 529:0.1601 530:0.2032 531:0.3032 532:0.078 533:0.1399 534:0.1241 535:0.1157 536:0.4099 537:0.4341 538:0.1839 539:0.1183 540:0.1232 541:0.2937 542:0.3428 543:0.2347 544:0.0923 545:0.1109 546:0.1646 547:0.212 548:0.3411 549:0.1051 550:0.1201 551:0.3212 552:0.3696 553:0.1918 554:0.2898 555:0.1242 556:0.1887 557:0.485 558:0.3733 559:0.4225 560:0.0847 561:0.3085 562:0.2359 563:0.3725 564:0.518 565:0.2781 566:0.1832 567:0.1261 568:0.1808 569:0.2821 570:0.1121 571:0.1444 572:0.3415 573:0.3175 574:0.3005 575:0.2168 576:0.0867 577:0.2881 578:0.1772 579:0.2647 580:0.3609 581:0.0717 582:0.2906 583:0.2965 584:0.2026 585:0.2212 586:0.5756 587:0.2301 588:0.1627 589:0.0943 590:0.4115 591:0.3581 592:0.2918 593:0.3038 594:0.189 595:0.2129 596:0.3188 597:0.4976 598:0.35 599:0.1258 600:0.2323 601:0.1673 602:0.1466 603:0.162 604:0.2799 605:0.1932 606:0.3698 607:0.2829 608:0.3114 609:0.4812 610:0.45 611:0.3751 612:0.2481 613:0.2149 614:0.1092 615:0.1912 616:0.1647 617:0.606 618:0.2131 619:0.1121 620:0.2467 621:0.2345 622:0.5332 623:0.2851 624:0.3348 625:0.053 626:0.2438 627:0.3028 628:0.2892 629:0.0604 630:0.1955 631:0.2689 632:0.3816 633:0.776 634:0.5332 635:0.1707 636:0.2639 637:0.3578 638:0.2874 639:0.0433 640:0.0762 641:0.2411 642:0.5317 643:0.1479 644:0.2971 645:0.1843 646:0.334 647:0.2474 648:0.0771 649:0.1 650:0.336 651:0.2872 652:0.0834 653:0.1 654:0.4547 655:0.2895 656:0.1576 657:0.1067 658:0.1865 659:0.1706 660:0.2237 661:0.109 662:0.0669 663:0.3834 664:0.0942 665:0.3612 666:0.1539 667:0.3712 668:0.1005 669:0.0857 670:0.1243 671:0.3616 672:0.1323 673:1 674:0.2348 675:0.2257 676:0.3381 677:0.3706 678:0.059 679:0.1125 680:0.2164 681:0.469 682:0.1573 683:0.4368 684:0.1982 685:0.2804 686:0.5402 687:0.3928 688:0.2479 689:0.2042 690:0.329 691:0.3048 692:0.2821 693:0.3592 694:0.0853 695:0.2322 696:0.4306 697:0.3161 698:0.1014 699:0.1588 700:0.3811 701:0.2641 702:0.8561 703:0.2453 704:0.1086 705:0.9311 706:0.3171 707:0.2792 708:0.6059 709:0.4554 710:0.2414 711:0.1203 712:0.2576 713:0.265 714:0.412 715:0.119 716:0.1594 717:0.3208 718:0.2802 719:0.3748 720:0.2882 721:0.3705 722:0.3091 723:0.3092 724:0.1149 725:0.4174 726:0.2234 727:0.1599 728:0.3736 729:0.2777 730:0.2011 731:0.0873 732:0.279 733:0.2008 734:0.1605 735:0.3063 736:0.4207 737:0.2104 738:0.5435 739:0.1795 740:0.1483 741:0.2111 742:0.2265 743:0.4148 744:0.3069 745:0.1296 746:0.1924 747:0.0709 748:0.1757 749:0.1086 750:0.2013 751:0.0756 752:0.3373 753:0.2153 754:0.1297 755:0.3062 756:0.1403 757:0.7806 758:0.2185 759:0.1027 760:0.2485 761:0.1719 762:0.213 763:0.1446 764:0.1432 765:0.5363 766:0.3414 767:0.0937 768:0.3309 769:0.1512 770:0.1018 771:0.133 772:0.2873 773:0.2584 774:0.4609 775:0.25 776:0.451 777:0.2672 778:0.3243 779:0.1537 780:0.0972 781:0.3391 782:0.2742 783:0.1938 784:0.0976 785:0.0591 786:0.4048 787:0.0536 788:0.0515 789:0.1045 790:0.1241 791:0.1211 792:0.261 793:0.2541 794:0.0681 795:0.2354 796:0.3577 797:0.2497 798:0.3362 799:0.2847 800:0.2099 801:0.3224 802:0.0771 803:0.2915 804:0.2705 805:0.1478 806:0.11 807:0.3671 808:0.2522 809:0.2158 810:0.3136 811:0.3623 812:0.3058 813:0.3791 814:0.3545 815:0.4137 816:0.2244 817:0.2935 818:0.1376 819:0.3417 820:0.5161 821:0.109 822:0.267 823:0.272 824:0.3399 825:0.2479 826:0.3775 827:0.1444 828:0.4229 829:0.4421 830:0.0539 831:0.1312 832:0.2352 833:0.1805 834:0.0597 835:0.1993 836:0.3294 837:0.2299 838:0.2305 839:0.101 840:0.0577 841:0.1031 842:0.1329 843:0.1655 844:0.2638 845:0.0504 846:0.1817 847:0.1155 848:0.2793 849:0.1497 850:0.1775 851:0.3466 852:0.0873 853:0.0712 854:0.2733 855:0.1589 856:0.1046 857:0.3687 858:0.13 859:0.1122 860:0.4505 861:0.0636 862:0.4569 863:0.2854 864:0.3728 865:0.2596 866:0.2374 867:0.1835 868:0.2762 869:0.4588 870:0.1413 871:0.3299 872:0.1791 873:0.2786 874:0.4214 875:0.4006 876:0.5328 877:0.3301 878:0.0087 879:0.2857 880:0.3698 881:0.2811 882:0.1027 883:0.0509 884:0.3491 885:0.1558 886:0.296 887:0.1981 888:0.3121 889:0.1354 890:0.1586 891:0.1806 892:0.1849 893:0.1331 894:0.3395 895:0.1549 896:0.2911 897:0.1805 898:0.2629 899:0.291 900:0.3487 901:0.0902 902:0.3062 903:0.1057 904:0.3371 905:0.3072 906:0.0856 907:0.17 908:0.0569 909:0.2844 910:0.149 911:0.3364 912:0.1199 913:0.2552 914:0.1332 915:0.2288 916:0.0802 917:0.2121 918:0.06 919:0.3194 920:0.2178 921:0.4154 922:0.1944 923:0.3464 924:0.3393 925:0.0647 926:0.2853 927:0.2862 928:0.083 929:0.2933 930:0.1852 931:0.1235 932:0.4448 933:0.6002 934:0.1109 935:0.5145 936:0.1443 937:0.2239 938:0.4846 939:0.1105 940:0.1659 941:0.0258 942:0.1672 943:0.1725 944:0.2175 945:0.3272 946:0.5493 947:0.3445 948:0.1617 949:0.3404 950:0.1145 951:0.4305 952:0.3537 953:0.0768 954:0.3358 955:0.1951 956:0.1619 957:0.1952 958:0.1719 959:0.1978 960:0.1185 961:0.326 962:0.3634 963:0.186 964:0.0785 965:0.2139 966:0.2602 967:0.3276 968:0.2861 969:0.1219 970:0.9696 971:0.2791 972:0.3582 973:0.1511 974:0.2177 975:0.1181 976:0.4792 977:0.0782 978:0.0716 979:0.1853 980:0.5537 981:0.2324 982:0.1316 983:0.2829 984:0.4958 985:0.1441 986:0.1928 987:0.1659 988:0.189 989:0.0562 990:0.1357 991:0.1296 992:0.0339 993:0.109 994:0.1008 995:0.3996 996:0.1703 997:0.2193 998:0.1392 999:0.2168 1000:0.3587 1001:0.1255 1002:0.0096 1003:0.3217 1004:0.0771 1005:0.3114 1006:0.2818 1007:0.2323 1008:0.3252 1009:0.2055 1010:0.4204 1011:0.1165 1012:0.1213 1013:0.1168 1014:0.1152 1015:0.17 1016:0.2981 1017:0.5139 1018:0.1685 1019:0.2008 1020:0.29 1021:0.2988 1022:0.4008 1023:0.295 1024:0.3786 1025:0.1605 1026:0.1251 1027:0.3874 1028:0.0597 1029:0.0441 1030:0.3871 1031:0.1455 1032:0.0466 1033:0.2623 1034:0.3733 1035:0.1265 1036:0.2865 1037:0.3945 1038:0.1609 1039:0.1309 1040:0.2893 1041:0.2968 1042:0.0503 1043:0.1651 1044:0.1987 1045:0.0942 1046:0.126 1047:0.0933 1048:0.0225 1049:0.274 1050:0.0578 1051:0.4395 1052:0.4212 1053:0.2592 1054:0.2703 1055:0.2801 1056:0.221 1057:0.6185 1058:1 1059:0.1179 1060:0.0816 1061:0.2137 1062:0.1738 1063:0.0473 1064:0.1011 1065:0.1524 1066:0.1448 1067:0.1099 1068:0.3797 1069:0.1525 1070:0.4043 1071:0.0826 1072:0.1443 1073:0.1162 1074:0.0678 1075:0.2939 1076:0.0403 1077:0.354 1078:0.2027 1079:0.321 1080:0.4295 1081:0.4913 1082:0.0383 1083:0.151 1084:0.43 1085:0.2258 1086:0.2235 1087:1 1088:0.2385 1089:0.241 1090:0.0836 1091:0.5348 1092:0.1305 1093:0.2397 1094:0.347 1095:0.1689 1096:0.1427 1097:0.3344 1098:1 1099:0.1331 1100:0.1071 1101:0.2519 1102:0.1288 1103:0.1913 1104:0.1393 1105:0.1781 1106:0.2772 1107:0.0591 1108:0.4498 1109:0.2427 1110:0.1243 1111:0.1064 1112:0.062 1113:0.293 1114:0.1363 1115:0.1878 1116:0.3275 1117:0.4194 1118:0.3606 1119:0.2631 1120:0.0385 1121:0.3119 1122:0.1527 1123:0.1679 1124:0.0472 1125:0.3964 1126:0.3118 1127:0.7528 1128:0.1471 1129:0.0782 1130:0.2659 1131:0.2395 1132:0.2138 1133:0.2795 1134:0.1415 1135:0.2444 1136:0.027 1137:0.1134 1138:0.0924 1139:0.107 1140:0.1544 1141:0.1832 1142:0.3734 1143:0.0805 1144:0.1884 1145:0.1114 1146:0.3859 1147:0.131 1148:0.2469 1149:0.102 1150:0.1114 1151:0.3858 1152:0.2449 1153:0.0251 1154:0.0617 1155:0.1507 1156:0.1 1157:0.2882 1158:0.3807 1159:0.2026 1160:0.163 1161:0.1142 1162:0.221 1163:0.1096 1164:0.4096 1165:0.159 1166:0.0854 1167:0.3365 1168:0.0595 1169:0.2675 1170:0.0748 1171:0.2357 1172:0.2001 1173:0.199 1174:0.1689 1175:0.3269 1176:0.0787 1177:0.0377 1178:0.1733 1179:0.0918 1180:0.3587 1181:0.0363 1182:0.1609 1183:0.2361 1184:0.2331 1185:0.2073 1186:0.1756 1187:0.1209 1188:0.1526 1189:0.2379 1190:0.0788 1191:0.4106 1192:0.2772 1193:0.3477 1194:0.1072 1195:0.2031 1196:0.2086 1197:0.2767 1198:0.4631 1199:0.0399 1200:0.1366 1201:0.2072 1202:0.1828 1203:0.3645 1204:0.2363 1205:0.2595 1206:0.2468 1207:0.2106 1208:0.0516 1209:0.1729 1210:0.1996 1211:0.1654 1212:0.6032 1213:0.0838 1214:0.3876 1215:0.3505 1216:0.1426 1217:0.1309 1218:0.1347 1219:0.203 1220:0.1359 1221:0.0329 1222:0.2517 1223:0.0706 1224:0.1795 1225:0.2682 1226:0.1782 1227:0.053 1228:0.1544 1229:0.326 1230:0.1969 1231:0.1695 1232:0.0933 1233:0.2325 1234:0.3136 1235:0.136 1236:0.0945 1237:0.1135 1238:0.3055 1239:0.1638 1240:0.1215 1241:0.0812 1242:0.1395 1243:0.2737 1244:0.2588 1245:0.411 1246:0.178 1247:0.1615 1248:0.0649 1249:0.1784 1250:0.4472 1251:0.3882 1252:0.118 1253:0.2261 1254:0.1709 1255:0.2963 1256:0.067 1257:0.0966 1258:0.1785 1259:0.2594 1260:0.1003 1261:0.2029 1262:0.2787 1263:0.0528 1264:0.0749 1265:0.1456 1266:0.1794 1267:0.2615 1268:0.044 1269:0.1282 1270:0.1881 1271:0.1191 1272:0.0918 1273:0.2161 1274:0.2358 1275:0.219 1276:0.2137 1277:0.2443 1278:0.0895 1279:0.2728 1280:0.0356 1281:0.0745 1282:0.1967 1283:0.0393 1284:0.1459 1285:0.2299 1286:0.3916 1287:0.384 1288:0.2086 1289:0.2217 1290:0.2044 1291:0.2475 1292:0.3656 1293:0.0543 1294:0.2007 1295:0.3419 1296:0.1408 1297:0.4414 1298:0.0249 1299:0.1841 1300:0.1601 1301:0.1451 1302:0.2715 1303:0.0652 1304:0.2893 1305:0.3987 1306:0.0711 1307:0.2035 1308:0.0893 1309:0.1162 1310:0.2435 1311:0.1399 1312:0.1164 1313:0.1396 1314:0.053 1315:0.0758 1316:0.2795 1317:0.1953 1318:0.0551 1319:0.1895 1320:0.2691 1321:0.141 1322:0.3798 1323:0.4858 1324:0.042 1325:0.0114 1326:0.2528 1327:0.176 1328:0.7965 1329:0.2659 1330:0.1527 1331:0.2943 1332:0.2266 1333:0.2219 1334:0.0881 1335:0.4051 1336:0.2246 1337:0.1782 1338:0.3148 1339:0.2066 1340:0.0468 1341:0.1683 1342:0.1668 1343:0.2491 1344:0.1497 1345:0.4628 1346:0.0909 1347:0.2551 1348:0.068 1349:0.3398 1350:0.0646 1351:0.1457 1352:0.1423 1353:0.2083 1354:0.4754 1355:0.1866 1356:0.1595 1357:0.2129 1358:0.1751 1359:0.176 1360:0.0817 1361:0.1147 1362:0.3308 1363:0.6234 1364:0.3484 1365:0.0495 1366:0.1816 1367:0.2297 1368:0.293 1369:0.1303 1370:0.3302 1371:0.2491 1372:0.0937 1373:0.2897 1374:0.0623 1375:0.1704 1376:0.2229 1377:0.1906 1378:0.0714 1379:0.1067 1380:0.1231 1381:0.6457 1382:0.5144 1383:0.0537 1384:0.4598 1385:0.7064 1386:0.3359 1387:0.2292 1388:0.5382 1389:0.1363 1390:0.0864 1391:0.1706 1392:0.3218 1393:0.0945 1394:0.3688 1395:0.0677 1396:0.1052 1397:0.355 1398:0.0244 1399:0.3105 1400:0.1263 1401:0.2761 1402:0.0278 1403:0.1901 1404:0.1155 1405:0.2835 1406:0.0396 1407:0.1398 1408:0.2693 1409:0.3057 1410:0.334 1411:0.0874 1412:0.261 1413:0.0934 1414:0.0817 1415:0.3771 1416:0.2914 1417:0.0457 1418:0.24 1419:0.2882 1420:0.2285 1421:0.0989 1422:0.3052 1423:0.2437 1424:0.2291 1425:0.388 1426:0.2236 1427:0.2112 1428:0.0658 1429:0.1786 1430:0.0462 1431:0.1748 1432:0.084 1433:0.0675 1434:0.1148 1435:0.0931 1436:0.4278 1437:0.2054 1438:0.099 1439:0.2807 1440:0.0628 1441:0.3757 1442:0.1618 1443:0.2627 1444:0.114 1445:0.7704 1446:0.8232 1447:0.0757 1448:0.2128 1449:0.4738 1450:0.1017 1451:0.2183 1452:0.1802 1453:0.0895 1454:0.1072 1455:0.7084 1456:0.0906 1457:0.1191 1458:0.2335 1459:0.2753 1460:0.3733 1461:0.3679 1462:0.1101 1463:0.2274 1464:0.0976 1465:0.1599 1466:0.3771 1467:0.364 1468:0.2434 1469:0.19 1470:0.0242 1471:0.1113 1472:0.0582 1473:0.0585 1474:0.2124 1475:0.2789 1476:0.1087 1477:0.1451 1478:0.2252 1479:0.1727 1480:0.3989 1481:0.5192 1482:0.1617 1483:0.1269 1484:0.0329 1485:0.0256 1486:0.1032 1487:0.0988 1488:0.0988 1489:0.0694 1490:0.4142 1491:0.057 1492:0.4375 1493:0.1884 1494:0.0555 1495:0.9638 1496:0.3107 1497:0.2259 1498:0.1581 1499:0.1891 1500:0.07 1501:0.3515 1502:0.1302 1503:0.288 1504:0.1603 1505:0.1407 1506:0.1522 1507:0.2536 1508:0.0957 1509:0.2573 1510:0.057 1511:0.0379 1512:0.2262 1513:0.1584 1514:0.3203 1515:0.0682 1516:0.2878 1517:0.2353 1518:0.2359 1519:0.4235 1520:0.1028 1521:0.0862 1522:0.1892 1523:0.2637 1524:0.1747 1525:0.107 1526:0.094 1527:0.2788 1528:0.0438 1529:0.1271 1530:0.269 1531:0.4496 1532:0.1463 1533:0.4604 1534:0.2294 1535:0.2734 1536:0.3504 1537:0.0705 1538:0.0367 1539:0.2409 1540:0.258 1541:0.0644 1542:0.3021 1543:0.1514 1544:0.1726 1545:0.0562 1546:0.1862 1547:0.3264 1548:0.4454 1549:0.0292 1550:0.031 1551:0.4817 1552:1 1553:0.1499 1554:0.1844 1555:0.4408 1556:0.3259 1557:0.0935 1558:0.0318 1559:0.0873 1560:0.2333 1561:0.6876 1562:0.1432 1563:0.2321 1564:0.1858 1565:0.3355 1566:0.2272 1567:0.086 1568:0.0958 1569:0.0206 1570:0.4374 1571:0.2259 1572:0.4616 1573:0.2125 1574:0.3157 1575:0.1203 1576:0.3647 1577:0.2952 1578:0.4254 1579:0.0124 1580:0.2332 1581:0.0503 1582:0.1003 1583:0.054 1584:0.3323 1585:0.1291 1586:0.3609 1587:0.5389 1588:0.1043 1589:0.1563 1590:0.0724 1591:0.1275 1592:0.1181 1593:0.1563 1594:0.1515 1595:0.3308 1596:0.3012 1597:0.391 1598:0.2558 1599:0.1051 1600:0.1605 1601:0.0245 1602:0.2939 1603:0.2424 1604:0.2328 1605:0.1358 1606:0.438 1607:0.0305 1608:0.2362 1609:0.2103 1610:0.0846 1611:0.0196 1612:0.1902 1613:0.2002 1614:0.1036 1615:0.4005 1616:0.122 1617:0.1731 1618:0.1923 1619:0.2677 1620:0.1188 1621:0.3525 1622:0.1967 1623:0.1619 1624:0.3385 1625:0.3162 1626:0.1403 1627:0.0391 1628:0.1303 1629:0.4486 1630:0.0913 1631:0.0812 1632:0.068 1633:0.1888 1634:0.0741 1635:0.1314 1636:0.0935 1637:0.0427 1638:0.4126 1639:0.1064 1640:0.2585 1641:0.1551 1642:0.2756 1643:0.0806 1644:0.1301 1645:0.0468 1646:0.0844 1647:0.0559 1648:0.0695 1649:0.2021 1650:0.0275 1651:0.1021 1652:0.2686 1653:0.0993 1654:0.1874 1655:0.581 1656:0.1661 1657:0.1964 1658:0.114 1659:0.0541 1660:0.1887 1661:0.1246 1662:0.1284 1663:0.0631 1664:0.3185 1665:0.0952 1666:0.1218 1667:0.366 1668:0.5318 1669:0.1039 1670:0.2368 1671:0.0314 1672:0.1935 1673:0.2014 1674:0.3292 1675:0.0615 1676:0.0682 1677:0.4071 1678:0.2302 1679:0.0544 1680:0.0247 1681:0.1595 1682:0.2271 1683:0.4881 1684:0.2695 1685:0.4067 1686:0.2024 1687:0.2237 1688:0.3282 1689:0.3073 1690:0.1251 1691:0.2384 1692:0.599 1693:0.1832 1694:0.3669 1695:0.021 1696:0.2389 1697:0.0824 1698:0.0909 1699:0.2804 1700:0.1813 1701:0.1709 1702:0.2116 1703:0.2597 1704:0.3109 1705:0.1284 1706:0.1233 1707:0.4022 1708:0.3091 1709:0.3068 1710:0.1392 1711:0.0628 1712:0.1043 1713:0.3375 1714:0.0795 1715:0.245 1716:0.3313 1717:0.208 1718:0.0898 1719:0.2141 1720:0.144 1721:0.0597 1722:0.1034 1723:0.1135 1724:0.0575 1725:0.4277 1726:0.1866 1727:0.1391 1728:0.4544 1729:0.1974 1730:0.0674 1731:0.1521 1732:0.1062 1733:0.1526 1734:0.1518 1735:0.3173 1736:0.2489 1737:0.0994 1738:0.2089 1739:0.2606 1740:0.2716 1741:0.4397 1742:0.1167 1743:0.1454 1744:0.3393 1745:0.0264 1746:0.181 1747:0.0162 1748:0.2479 1749:0.1161 1750:0.3971 1751:0.0184 1752:0.3353 1753:0.3089 1754:0.5596 1755:0.1365 1756:0.272 1757:0.3285 1758:0.1341 1759:0.267 1760:0.1431 1761:0.5122 1762:0.4317 1763:0.1226 1764:0.0332 1765:0.2958 1766:0.0485 1767:0.4326 1768:0.2637 1769:0.2216 1770:0.0239 1771:0.0405 1772:0.1216 1773:0.0384 1774:0.113 1775:0.1334 1776:0.3191 1777:0.273 1778:0.1573 1779:0.3494 1780:0.096 1781:0.0616 1782:0.0346 1783:0.1742 1784:0.169 1785:0.0909 1786:0.5048 1787:0.3731 1788:0.4372 1789:0.2804 1790:0.212 1791:0.4719 1792:0.1166 1793:0.3218 1794:0.1064 1795:0.4819 1796:0.1765 1797:0.0439 1798:0.0491 1799:0.0564 1800:0.0409 1801:0.1836 1802:0.1844 1803:0.0771 1804:0.0531 1805:0.1219 1806:0.1218 1807:0.1729 1808:0.1118 1809:0.2068 1810:0.5626 1811:0.0555 1812:0.2157 1813:0.2287 1814:0.2227 1815:0.2439 1816:0.2241 1817:0.4218 1818:0.2468 1819:0.1531 1820:0.1258 1821:0.1465 1822:0.1023 1823:0.3288 1824:0.3271 1825:0.1868 1826:0.1284 1827:0.3318 1828:0.3213 1829:0.2267 1830:0.4274 1831:0.2216 1832:0.2736 1833:0.168 1834:0.3492 1835:0.2559 1836:0.0824 1837:0.3005 1838:0.31 1839:0.0698 1840:0.1306 1841:0.317 1842:0.2575 1843:0.1047 1844:0.2549 1845:1 1846:0.0657 1847:0.4825 1848:0.0777 1849:0.231 1850:0.2101 1851:0.2312 1852:0.2054 1853:0.0841 1854:0.1329 1855:0.1997 1856:0.1877 1857:0.1777 1858:0.2677 1859:0.1877 1860:0.2991 1861:0.0603 1862:1 1863:0.1001 1864:1 1865:0.3636 1866:0.337 1867:0.1932 1868:0.4391 1869:0.1489 1870:0.1098 1871:0.2822 1872:0.3205 1873:0.0894 1874:0.1019 1875:0.0941 1876:0.3624 1877:0.1752 1878:0.4269 1879:0.1459 1880:0.105 1881:0.1054 1882:0.0881 1883:0.1533 1884:0.1471 1885:0.1532 1886:0.1476 1887:0.0855 1888:0.1096 1889:0.1077 1890:0.0545 1891:0.3765 1892:0.0445 1893:0.3591 1894:0.1716 1895:0.0423 1896:0.2689 1897:0.0417 1898:0.0389 1899:0.1793 1900:0.055 1901:0.0399 1902:0.3108 1903:0.1894 1904:0.1074 1905:0.179 1906:0.0886 1907:0.231 1908:0.1256 1909:0.0509 1910:0.1614 1911:0.0948 1912:0.1444 1913:0.162 1914:0.2016 1915:0.109 1916:0.068 1917:0.3518 1918:0.5161 1919:0.2676 1920:0.017 1921:1 1922:0.2487 1923:0.0807 1924:0.5996 1925:0.2637 1926:0.2089 1927:0.0656 1928:0.3357 1929:0.2924 1930:0.0796 1931:0.1751 1932:0.2284 1933:0.1446 1934:0.3347 1935:0.04 1936:0.0597 1937:0.1717 1938:0.4879 1939:0.33 1940:0.1378 1941:0.0978 1942:0.0494 1943:0.2264 1944:0.3448 1945:0.2001 1946:0.0837 1947:0.1413 1948:0.4457 1949:0.2697 1950:0.2812 1951:0.154 1952:0.0851 1953:0.1794 1954:0.2675 1955:0.4721 1956:0.0599 1957:0.1107 1958:0.1921 1959:0.0261 1960:0.1224 1961:0.1671 1962:0.2644 1963:0.0246 1964:0.4328 1965:0.0909 1966:0.2509 1967:0.191 1968:0.341 1969:0.0274 1970:0.1346 1971:0.1704 1972:0.0496 1973:0.4285 1974:0.1015 1975:0.168 1976:0.0625 1977:0.2684 1978:0.1051 1979:0.0908 1980:0.2444 1981:0.1619 1982:0.4071 1983:0.0105 1984:0.4329 1985:0.2538 1986:0.0502 1987:0.1504 1988:0.0555 1989:0.0679 1990:0.1947 1991:0.16 1992:0.1063 1993:0.1914 1994:0.1552 1995:0.2104 1996:0.1409 1997:0.0596 1998:0.0759 1999:0.2249 2000:0.4117 
