svm_type c_svc
kernel_type linear
nr_class 2
total_sv 145
rho 1
label 1 -1
nr_sv 70 75
SV
1 1:156 2:79
1 1:160 2:78
1 1:174 2:75
1 1:170 2:83
1 1:156 2:90
1 1:174 2:85
1 1:156 2:94
1 1:156 2:96
1 1:174 2:90
1 1:156 2:98
1 1:156 2:99
1 1:160 2:98
1 1:156 2:100
-0.556653 1:174 2:94
-0.320459 1:170 2:96
-1 1:174 2:95
-0.451484 1:146 2:104
-1 1:170 2:98
1 1:170 2:98
-1 1:174 2:97
-1 1:170 2:99
-1 1:170 2:99
-1 1:170 2:99
1 1:174 2:98
1 1:156 2:104
1 1:156 2:105
-1 1:174 2:101
-1 1:170 2:103
-0.998668 1:146 2:109
-1 1:170 2:104
-1 1:170 2:104
1 1:170 2:104
1 1:174 2:104
-0.689544 1:170 2:107
-1 1:170 2:107
-1 1:146 2:113
-1 1:174 2:106
1 1:174 2:106
-0.486569 1:170 2:108
1 1:156 2:112
-0.636237 1:170 2:109
1 1:174 2:108
1 1:156 2:115
-1 1:174 2:110
-1 1:170 2:114
1 1:160 2:117
-1 1:170 2:115
-1 1:174 2:114
-0.559683 1:146 2:122
-1 1:170 2:117
-1 1:170 2:117
-1 1:170 2:117
1 1:174 2:116
-1 1:170 2:118
-1 1:170 2:118
1 1:170 2:118
-0.758782 1:146 2:124
-1 1:170 2:119
-1 1:170 2:119
-1 1:174 2:118
1 1:170 2:120
-1 1:174 2:121
-1 1:170 2:123
-1 1:170 2:123
-1 1:146 2:128
1 1:156 2:127
-1 1:170 2:124
1 1:170 2:124
1 1:160 2:127
1 1:156 2:129
1 1:160 2:129
1 1:170 2:127
-1 1:146 2:133
1 1:174 2:127
-1 1:174 2:128
-1 1:146 2:134
-1 1:174 2:129
-1 1:170 2:133
1 1:170 2:133
1 1:174 2:132
1 1:156 2:137
-1 1:170 2:136
1 1:160 2:139
1 1:174 2:137
1 1:174 2:137
1 1:160 2:141
1 1:174 2:139
1 1:174 2:139
-1 1:176 2:139
1 1:174 2:140
1 1:170 2:142
1 1:174 2:141
-1 1:170 2:143
1 1:170 2:143
-1 1:174 2:142
1 1:160 2:146
-1 1:170 2:144
-1 1:170 2:144
1 1:160 2:147
-1 1:156 2:148
-1 1:170 2:146
1 1:174 2:146
-1 1:146 2:152
-1 1:170 2:148
-1 1:170 2:148
1 1:160 2:151
-1 1:170 2:149
-1 1:174 2:148
-1 1:160 2:152
1 1:160 2:152
-1 1:160 2:153
1 1:160 2:153
-0.240825 1:146 2:155
-1 1:146 2:155
-1 1:170 2:151
-1 1:156 2:154
-1 1:156 2:155
1 1:160 2:155
1 1:174 2:152
1 1:156 2:156
1 1:160 2:156
-1 1:156 2:157
1 1:160 2:157
1 1:156 2:158
-1 1:160 2:158
1 1:160 2:158
1 1:170 2:156
1 1:170 2:157
-1 1:160 2:161
1 1:160 2:161
-1 1:156 2:162
-1 1:160 2:162
1 1:174 2:159
-1 1:156 2:164
1 1:174 2:161
1 1:174 2:161
-0.301097 1:170 2:112
1 1:174 2:162
-1 1:176 2:162
1 1:170 2:163
-1 1:170 2:114
1 1:174 2:163
1 1:174 2:163
-1 1:170 2:96
-1 1:160 2:165
