svm_type c_svc
kernel_type rbf
gamma 0.5
nr_class 2
total_sv 144
rho 0.114048
label 1 -1
nr_sv 66 78
SV
1 1:156 2:79 
1 1:160 2:78 
1 1:174 2:75 
1 1:170 2:83 
1 1:156 2:90 
1 1:174 2:85 
0.9971229440855276 1:156 2:94 
0.8617723790452116 1:156 2:96 
1 1:174 2:90 
0.8618147224130579 1:156 2:98 
1 1:160 2:98 
0.9965897758481831 1:156 2:100 
1 1:170 2:98 
1 1:174 2:98 
0.693229434153839 1:156 2:104 
0.6932892557286074 1:156 2:105 
1 1:170 2:104 
1 1:174 2:104 
1 1:174 2:106 
1 1:156 2:112 
1 1:174 2:108 
1 1:156 2:115 
1 1:160 2:117 
1 1:174 2:116 
1 1:170 2:118 
1 1:170 2:120 
0.9805953141288303 1:156 2:127 
1 1:170 2:124 
0.9809490411954214 1:160 2:127 
0.9812528182970867 1:156 2:129 
0.9807148613415867 1:160 2:129 
1 1:170 2:127 
1 1:174 2:127 
1 1:170 2:133 
1 1:174 2:132 
1 1:156 2:137 
0.9809978761127695 1:160 2:139 
0.01371277561693415 1:174 2:137 
0.9977270520595022 1:174 2:137 
0.9812516274493046 1:160 2:141 
0.8780576763914987 1:174 2:139 
0.1810962320486386 1:174 2:140 
1 1:170 2:142 
1 1:174 2:141 
1 1:170 2:143 
0.6944913426744849 1:160 2:146 
0.6925975578461393 1:160 2:147 
1 1:174 2:146 
1 1:160 2:151 
1 1:160 2:152 
1 1:160 2:153 
0.9811687830486892 1:160 2:155 
1 1:174 2:152 
1 1:156 2:156 
0.9812944560724767 1:160 2:157 
1 1:156 2:158 
1 1:160 2:158 
0.6937943225506024 1:170 2:156 
0.6928520389494993 1:170 2:157 
1 1:160 2:161 
0.997273043935764 1:174 2:159 
0.8656116492076077 1:174 2:161 
0.09408296885549114 1:174 2:162 
1 1:170 2:163 
0.02118708404426372 1:174 2:163 
1 1:174 2:163 
-0.01020306696813321 1:170 2:86 
-0.3582452035471746 1:170 2:87 
-0.8785200843030905 1:170 2:91 
-1 1:174 2:91 
-0.6377132405370772 1:174 2:94 
-0.3744588460941133 1:174 2:95 
-1 1:170 2:98 
-1 1:174 2:97 
-0.8762892820828575 1:170 2:99 
-0.9082569927632556 1:174 2:101 
-0.55935261736344 1:170 2:103 
-0.8854454283582587 1:146 2:109 
-0.5622688133897502 1:170 2:104 
-0.9756257201197354 1:170 2:104 
-0.7758151330578624 1:170 2:107 
-0.8855338525422018 1:146 2:113 
-1 1:174 2:106 
-0.7715286350654375 1:170 2:109 
-1 1:174 2:110 
-0.001937558868089401 1:170 2:114 
-0.4533864462696502 1:170 2:115 
-1 1:174 2:114 
-0.7806403143134018 1:146 2:122 
-0.008769165864962295 1:170 2:117 
-0.9715078848475679 1:170 2:117 
-0.3623734712037067 1:170 2:118 
-0.001295022228547958 1:146 2:124 
-0.7789967421323057 1:146 2:124 
-0.7457298312810111 1:170 2:119 
-1 1:170 2:119 
-1 1:174 2:118 
-0.874915564036652 1:174 2:121 
-0.8964673188949679 1:170 2:123 
-0.8855607395854478 1:146 2:128 
-1 1:170 2:124 
-0.5509718603948154 1:146 2:133 
-1 1:174 2:128 
-0.551787542530661 1:146 2:134 
-0.4261383185793196 1:174 2:129 
-1 1:170 2:133 
-0.8859725532126775 1:170 2:136 
-1 1:176 2:139 
-1 1:170 2:143 
-1 1:174 2:142 
-0.9282015648609501 1:170 2:144 
-0.5506713546236516 1:132 2:149 
-0.8862724992627473 1:156 2:148 
-0.6878809078423204 1:170 2:146 
-0.8762771713380462 1:146 2:152 
-0.005577943070618291 1:170 2:148 
-0.4965491436883294 1:170 2:148 
-0.4633200117454909 1:170 2:149 
-1 1:174 2:148 
-1 1:160 2:152 
-1 1:160 2:153 
-0.8660370609214145 1:146 2:155 
-0.8176725987606912 1:170 2:151 
-0.403703785438575 1:156 2:154 
-1 1:156 2:155 
-1 1:156 2:157 
-1 1:160 2:158 
-1 1:160 2:161 
-0.7805931519387718 1:156 2:162 
-0.8756260045022847 1:160 2:162 
-0.7801572563734522 1:156 2:164 
-0.646293762233911 1:170 2:88 
-0.8762629764581651 1:146 2:104 
-0.8060610842245428 1:170 2:112 
-0.5519888564914808 1:132 2:148 
-1 1:176 2:162 
-0.4892117844013794 1:170 2:114 
-0.8761612106065586 1:146 2:158 
-0.9600981161894903 1:170 2:85 
-1 1:174 2:89 
-0.8757610658067944 1:170 2:96 
-0.8860803698963542 1:146 2:94 
-0.875849568748615 1:160 2:165 
-0.8765105332402106 1:146 2:101 
