svm_type c_svc
kernel_type rbf
gamma 0.5
nr_class 2
total_sv 4364
rho 0.13607
label 1 -1
nr_sv 2032 2332
SV
1 1:98 2:393 
0.8843242131056338 1:104 2:353 
1 1:106 2:370 
1 1:108 2:372 
1 1:110 2:400 
1 1:112 2:368 
0.342133412409255 1:114 2:361 
0.7958047426972146 1:116 2:358 
1 1:120 2:353 
0.3036150510007299 1:122 2:287 
1 1:124 2:400 
0.9494525404531221 1:126 2:361 
0.8880867132152487 1:128 2:362 
1 1:130 2:297 
1 1:132 2:327 
1 1:134 2:340 
0.7721035833707828 1:136 2:316 
1 1:138 2:400 
0.1892964416880431 1:144 2:313 
0.8724908218808545 1:148 2:346 
0.5094486374319466 1:150 2:350 
1 1:152 2:400 
1 1:154 2:318 
1 1:156 2:221 
1 1:158 2:308 
1 1:160 2:267 
1 1:162 2:284 
1 1:164 2:298 
1 1:166 2:400 
0.731850221028629 1:168 2:284 
0.7087501607951623 1:170 2:178 
0.002074250978756603 1:172 2:271 
1 1:174 2:141 
0.8948963632545234 1:176 2:263 
0.5966047858882012 1:178 2:293 
1 1:180 2:300 
1 1:182 2:400 
1 1:184 2:294 
1 1:186 2:297 
1 1:190 2:299 
1 1:192 2:300 
1 1:194 2:290 
1 1:196 2:400 
0.9857881220795596 1:198 2:279 
0.621518405293457 1:200 2:308 
0.9411548185736236 1:202 2:317 
0.6833941144090715 1:98 2:392 
1 1:100 2:391 
1 1:102 2:386 
1 1:104 2:348 
1 1:106 2:369 
1 1:108 2:376 
1 1:110 2:400 
1 1:112 2:368 
1 1:114 2:361 
1 1:116 2:354 
1 1:118 2:341 
1 1:120 2:344 
0.936877284402467 1:122 2:287 
1 1:124 2:400 
1 1:126 2:357 
0.860473260445194 1:130 2:293 
0.1021135127145174 1:132 2:318 
1 1:136 2:310 
1 1:138 2:400 
1 1:140 2:340 
1 1:144 2:314 
0.8039754639034513 1:146 2:297 
1 1:152 2:400 
1 1:154 2:308 
1 1:156 2:206 
1 1:158 2:294 
1 1:162 2:270 
1 1:164 2:293 
1 1:166 2:400 
1 1:168 2:278 
1 1:172 2:259 
1 1:174 2:132 
0.9097113157078724 1:178 2:286 
1 1:180 2:294 
1 1:182 2:400 
1 1:184 2:286 
1 1:188 2:254 
1 1:190 2:297 
1 1:192 2:292 
1 1:194 2:279 
1 1:196 2:400 
0.6949962904768238 1:200 2:302 
0.005204852678196374 1:202 2:311 
0.9003460153210364 1:204 2:332 
0.1456007357457275 1:98 2:390 
1 1:100 2:387 
1 1:102 2:387 
1 1:106 2:366 
1 1:108 2:376 
1 1:110 2:400 
1 1:114 2:361 
1 1:118 2:348 
1 1:120 2:352 
1 1:122 2:295 
1 1:124 2:400 
0.8867136200051395 1:126 2:355 
0.9372610158428178 1:128 2:356 
1 1:130 2:293 
1 1:132 2:326 
0.1725334298355964 1:134 2:350 
0.7053824726870386 1:136 2:315 
1 1:138 2:400 
0.0971210174526628 1:140 2:335 
1 1:144 2:310 
0.9407886477976697 1:150 2:346 
1 1:152 2:400 
0.6483614024395946 1:154 2:323 
1 1:156 2:202 
1 1:158 2:289 
1 1:160 2:262 
0.8664317063875343 1:162 2:299 
1 1:164 2:294 
1 1:166 2:400 
0.3224283538707688 1:168 2:276 
1 1:170 2:178 
1 1:172 2:252 
0.0363474013908649 1:174 2:137 
1 1:176 2:258 
1 1:178 2:289 
0.7725661508771119 1:180 2:286 
1 1:182 2:400 
1 1:186 2:284 
0.8494783408373061 1:192 2:266 
0.8699178900182576 1:194 2:292 
1 1:196 2:400 
1 1:198 2:307 
1 1:98 2:395 
0.5959976755094514 1:104 2:361 
1 1:106 2:373 
1 1:108 2:377 
1 1:110 2:400 
1 1:112 2:373 
0.760500686973438 1:114 2:365 
1 1:116 2:368 
1 1:118 2:355 
0.3378207570125749 1:120 2:355 
1 1:122 2:305 
1 1:124 2:400 
1 1:126 2:358 
1 1:130 2:296 
1 1:132 2:332 
1 1:136 2:321 
1 1:138 2:400 
0.2692986108556589 1:140 2:339 
0.5346486669942253 1:142 2:333 
0.6330752764429521 1:144 2:319 
0.2956960810127008 1:146 2:301 
0.9395349064033753 1:148 2:342 
1 1:152 2:400 
1 1:154 2:318 
1 1:156 2:211 
1 1:158 2:293 
1 1:160 2:278 
0.5051099551763801 1:162 2:317 
0.9918921950113975 1:164 2:316 
1 1:166 2:400 
0.8954654683934538 1:170 2:178 
1 1:172 2:237 
1 1:174 2:127 
1 1:176 2:256 
1 1:178 2:283 
1 1:180 2:290 
1 1:182 2:400 
0.7802525905256822 1:184 2:281 
1 1:186 2:280 
0.2462665862222726 1:190 2:261 
0.9841826559785629 1:192 2:294 
1 1:194 2:318 
1 1:196 2:400 
1 1:198 2:322 
1 1:200 2:321 
1 1:202 2:334 
1 1:98 2:394 
0.656848349991517 1:100 2:393 
1 1:104 2:363 
1 1:106 2:370 
1 1:108 2:373 
1 1:110 2:400 
0.3657324349267171 1:112 2:371 
1 1:114 2:364 
1 1:116 2:364 
0.5197937366568803 1:120 2:342 
1 1:122 2:311 
1 1:124 2:400 
1 1:126 2:355 
0.7967437596286662 1:128 2:357 
0.7755883831352961 1:130 2:300 
1 1:132 2:328 
1 1:136 2:316 
1 1:138 2:400 
0.9768133758243916 1:144 2:313 
0.6487033139033421 1:146 2:304 
1 1:148 2:332 
1 1:152 2:400 
1 1:154 2:311 
1 1:156 2:213 
1 1:158 2:287 
0.5357795217837693 1:160 2:266 
1 1:162 2:325 
0.6391379200475303 1:164 2:309 
1 1:166 2:400 
1 1:170 2:184 
1 1:172 2:242 
1 1:174 2:116 
1 1:176 2:234 
1 1:180 2:280 
1 1:182 2:400 
0.6561216764125928 1:186 2:269 
1 1:188 2:247 
1 1:190 2:271 
1 1:192 2:306 
1 1:194 2:321 
1 1:196 2:400 
1 1:198 2:330 
1 1:200 2:321 
1 1:202 2:332 
0.1588420264046423 1:206 2:355 
1 1:98 2:393 
0.9085055083355581 1:100 2:393 
0.2622948671017554 1:102 2:390 
1 1:104 2:359 
1 1:106 2:370 
1 1:108 2:372 
1 1:110 2:400 
1 1:114 2:364 
0.90346101524333 1:116 2:359 
1 1:118 2:345 
1 1:122 2:290 
1 1:124 2:400 
1 1:128 2:356 
0.02250914759030142 1:130 2:292 
1 1:132 2:327 
0.06734753838056555 1:134 2:346 
1 1:138 2:400 
0.6729062353646033 1:142 2:338 
0.3000508180182898 1:144 2:305 
0.7952941062592886 1:146 2:300 
1 1:150 2:331 
1 1:152 2:400 
1 1:154 2:313 
1 1:156 2:205 
1 1:158 2:274 
0.7281140772404892 1:160 2:259 
0.4502435346928841 1:162 2:306 
1 1:164 2:305 
1 1:166 2:400 
1 1:168 2:289 
0.6951490607894174 1:170 2:199 
1 1:172 2:235 
1 1:174 2:106 
1 1:176 2:206 
1 1:178 2:241 
0.6256518492275203 1:180 2:274 
1 1:182 2:400 
1 1:184 2:273 
1 1:186 2:255 
0.8160038913234486 1:190 2:288 
1 1:194 2:325 
1 1:196 2:400 
1 1:198 2:324 
0.5914315932679066 1:200 2:315 
1 1:202 2:332 
1 1:206 2:355 
1 1:98 2:397 
0.6091439358277099 1:102 2:393 
1 1:104 2:365 
1 1:106 2:373 
1 1:108 2:379 
1 1:110 2:400 
1 1:112 2:374 
1 1:116 2:357 
0.6666858131167899 1:118 2:351 
1 1:120 2:351 
1 1:122 2:292 
1 1:124 2:400 
0.6678613467993366 1:128 2:352 
1 1:132 2:333 
0.5729733187825181 1:136 2:314 
1 1:138 2:400 
1 1:142 2:340 
1 1:144 2:309 
0.3278063484133265 1:146 2:303 
1 1:148 2:325 
0.8261602881914626 1:150 2:335 
1 1:152 2:400 
0.9190384465229599 1:154 2:315 
1 1:156 2:217 
1 1:158 2:284 
0.3466759371776149 1:162 2:307 
1 1:164 2:317 
1 1:166 2:400 
1 1:170 2:234 
1 1:172 2:271 
1 1:174 2:98 
0.9644258796632891 1:176 2:202 
1 1:178 2:236 
0.5390526789585681 1:180 2:264 
1 1:182 2:400 
1 1:186 2:260 
1 1:188 2:253 
1 1:190 2:296 
0.7771452770826339 1:192 2:310 
1 1:194 2:324 
1 1:196 2:400 
1 1:198 2:331 
0.7433578548401957 1:200 2:313 
1 1:202 2:328 
1 1:98 2:396 
0.2849721986580895 1:102 2:392 
1 1:104 2:361 
1 1:106 2:375 
1 1:108 2:378 
1 1:110 2:400 
1 1:112 2:374 
1 1:114 2:361 
0.7124248115333072 1:116 2:362 
0.9620587433602337 1:118 2:351 
1 1:120 2:355 
1 1:122 2:291 
1 1:124 2:400 
1 1:126 2:354 
1 1:128 2:354 
0.007163076584649306 1:130 2:294 
1 1:132 2:330 
1 1:136 2:313 
1 1:138 2:400 
1 1:140 2:327 
1 1:144 2:305 
0.1028620322323585 1:146 2:305 
1 1:148 2:327 
1 1:152 2:400 
1 1:154 2:307 
1 1:156 2:210 
0.2202397071125123 1:158 2:282 
0.528563815720193 1:162 2:312 
1 1:166 2:400 
0.7129347735085787 1:168 2:301 
0.8182775809997593 1:170 2:228 
1 1:174 2:104 
1 1:176 2:218 
1 1:178 2:251 
1 1:180 2:249 
1 1:182 2:400 
1 1:184 2:250 
1 1:186 2:244 
0.9147205631481056 1:188 2:245 
1 1:190 2:294 
1 1:196 2:400 
1 1:198 2:328 
0.3778194661878898 1:200 2:312 
1 1:98 2:396 
1 1:104 2:364 
1 1:106 2:375 
1 1:108 2:375 
1 1:110 2:400 
0.8194867352245004 1:112 2:372 
1 1:114 2:364 
1 1:116 2:357 
1 1:118 2:353 
1 1:120 2:357 
1 1:122 2:301 
1 1:124 2:400 
1 1:126 2:360 
0.6099922680454898 1:128 2:359 
1 1:130 2:302 
1 1:132 2:335 
1 1:134 2:347 
1 1:136 2:318 
1 1:138 2:400 
1 1:140 2:337 
0.2458005889241762 1:142 2:342 
0.5856409958696156 1:144 2:311 
0.8627844273687669 1:146 2:313 
1 1:152 2:400 
0.7500487998821618 1:156 2:232 
1 1:158 2:279 
0.2488402567982639 1:160 2:263 
0.3078499302280003 1:164 2:320 
1 1:166 2:400 
0.7147549968212384 1:168 2:306 
0.565773706862897 1:170 2:242 
0.9197717947696918 1:172 2:288 
1 1:174 2:146 
1 1:176 2:226 
1 1:178 2:246 
1 1:180 2:238 
1 1:182 2:400 
1 1:184 2:253 
1 1:186 2:244 
0.6023842825304665 1:188 2:240 
0.4036158708120641 1:190 2:285 
0.9429531508709666 1:192 2:307 
1 1:196 2:400 
0.2389626846604609 1:206 2:347 
1 1:98 2:397 
1 1:100 2:398 
0.9328102230395744 1:102 2:397 
1 1:104 2:365 
1 1:106 2:376 
1 1:108 2:379 
1 1:110 2:400 
1 1:112 2:370 
0.5654079229638421 1:116 2:360 
1 1:118 2:355 
0.4480268955847843 1:120 2:354 
1 1:122 2:299 
1 1:124 2:400 
1 1:126 2:360 
1 1:128 2:359 
0.9901873879211677 1:130 2:300 
1 1:134 2:342 
0.7305976688154027 1:136 2:320 
1 1:138 2:400 
1 1:140 2:336 
1 1:142 2:341 
1 1:144 2:312 
0.9303224436013942 1:146 2:306 
0.8531808271626908 1:148 2:329 
0.9796677044581593 1:150 2:348 
1 1:152 2:400 
1 1:154 2:313 
0.6739716917360574 1:156 2:224 
0.7962124786731617 1:162 2:313 
1 1:166 2:400 
0.9484812441809477 1:170 2:241 
0.01127571492664201 1:172 2:286 
1 1:174 2:159 
0.03625460165098578 1:176 2:228 
0.973592596787999 1:178 2:248 
1 1:180 2:222 
1 1:182 2:400 
1 1:184 2:247 
1 1:186 2:241 
1 1:188 2:232 
0.711052422673215 1:190 2:287 
1 1:194 2:332 
1 1:196 2:400 
1 1:198 2:331 
0.5649982967453892 1:200 2:303 
1 1:202 2:326 
0.3942625081216789 1:204 2:343 
1 1:98 2:392 
0.9291065448509691 1:100 2:395 
0.7698562325687401 1:102 2:395 
1 1:104 2:364 
1 1:106 2:376 
1 1:108 2:377 
1 1:110 2:400 
1 1:112 2:374 
0.5450044964878085 1:114 2:367 
0.3774562680546173 1:120 2:346 
1 1:122 2:293 
1 1:124 2:400 
1 1:126 2:353 
1 1:128 2:347 
0.9280283593805205 1:130 2:291 
1 1:132 2:329 
1 1:134 2:337 
1 1:138 2:400 
0.9607009220758811 1:142 2:336 
0.7319531385051689 1:144 2:298 
0.2889466852110161 1:146 2:302 
1 1:148 2:328 
1 1:152 2:400 
1 1:154 2:319 
1 1:158 2:277 
1 1:160 2:236 
0.906391206114205 1:162 2:310 
0.6018203197062816 1:164 2:308 
1 1:166 2:400 
0.7468726514924241 1:170 2:244 
0.8100706558032345 1:172 2:291 
1 1:176 2:226 
0.7332361236646577 1:178 2:257 
0.6326557541996044 1:180 2:267 
1 1:182 2:400 
1 1:186 2:257 
1 1:188 2:236 
1 1:190 2:292 
1 1:192 2:315 
1 1:196 2:400 
1 1:198 2:329 
0.9613241616665229 1:200 2:305 
0.08162454641947842 1:204 2:335 
0.05230636830867891 1:98 2:377 
0.286249145135432 1:100 2:372 
1 1:102 2:379 
1 1:104 2:354 
0.7256077903461736 1:106 2:363 
1 1:108 2:369 
1 1:110 2:400 
1 1:112 2:360 
1 1:114 2:351 
1 1:116 2:348 
1 1:118 2:338 
1 1:120 2:333 
1 1:122 2:282 
1 1:124 2:400 
1 1:126 2:345 
1 1:128 2:343 
0.5952392871880081 1:130 2:285 
1 1:132 2:319 
1 1:134 2:331 
0.8248204407544006 1:136 2:306 
1 1:138 2:400 
0.6175990731356321 1:140 2:323 
1 1:142 2:326 
1 1:144 2:288 
0.8676684781828733 1:146 2:294 
0.6932028045719443 1:148 2:319 
1 1:150 2:336 
1 1:152 2:400 
1 1:154 2:303 
1 1:156 2:217 
1 1:158 2:256 
1 1:160 2:204 
1 1:164 2:301 
1 1:166 2:400 
0.695480828250816 1:168 2:302 
1 1:170 2:209 
0.9890541779597819 1:172 2:269 
1 1:174 2:90 
1 1:176 2:225 
1 1:180 2:267 
1 1:182 2:400 
0.6689911708704275 1:184 2:280 
1 1:186 2:268 
0.425138209553483 1:188 2:244 
0.3656128458162355 1:190 2:301 
1 1:196 2:400 
1 1:198 2:333 
0.8025655021507345 1:200 2:316 
1 1:202 2:332 
1 1:98 2:382 
1 1:100 2:375 
1 1:102 2:362 
1 1:108 2:369 
1 1:110 2:400 
1 1:112 2:350 
1 1:114 2:339 
1 1:116 2:355 
1 1:118 2:298 
1 1:120 2:322 
0.7886714803698732 1:122 2:281 
1 1:124 2:400 
1 1:126 2:348 
1 1:128 2:346 
0.6057507171833874 1:130 2:283 
1 1:132 2:309 
1 1:134 2:308 
0.6932906685362188 1:136 2:303 
1 1:138 2:400 
1 1:146 2:262 
0.7244535368402119 1:148 2:318 
1 1:150 2:323 
1 1:152 2:400 
1 1:156 2:198 
1 1:158 2:265 
1 1:160 2:151 
1 1:162 2:285 
1 1:164 2:286 
1 1:166 2:400 
0.9816135513580202 1:168 2:287 
0.8547216348145301 1:170 2:200 
1 1:172 2:212 
1 1:174 2:108 
1 1:178 2:235 
1 1:180 2:261 
1 1:182 2:400 
1 1:184 2:256 
1 1:186 2:248 
0.353297426360783 1:188 2:276 
1 1:190 2:297 
0.2588663005657292 1:192 2:325 
0.6764417850846798 1:194 2:331 
1 1:196 2:400 
1 1:200 2:341 
0.8964341412587796 1:202 2:310 
1 1:204 2:351 
1 1:206 2:358 
1 1:98 2:374 
1 1:100 2:367 
1 1:102 2:364 
0.5808608657268032 1:106 2:345 
1 1:110 2:400 
0.8630476728331437 1:114 2:325 
1 1:116 2:348 
1 1:118 2:259 
1 1:120 2:308 
0.9991921313204534 1:122 2:281 
1 1:124 2:400 
1 1:126 2:342 
0.7115483124612593 1:128 2:339 
1 1:134 2:294 
1 1:138 2:400 
1 1:140 2:325 
0.2722325499813846 1:142 2:313 
1 1:144 2:305 
0.6338855421934383 1:146 2:265 
0.05866031752555832 1:148 2:315 
1 1:150 2:320 
1 1:152 2:400 
1 1:154 2:307 
1 1:156 2:172 
1 1:158 2:258 
1 1:160 2:157 
1 1:162 2:261 
1 1:164 2:256 
1 1:166 2:400 
1 1:168 2:249 
1 1:170 2:190 
0.6015994045515179 1:172 2:205 
0.7982261168716767 1:176 2:212 
1 1:180 2:264 
1 1:182 2:400 
1 1:184 2:259 
1 1:186 2:249 
1 1:192 2:318 
1 1:194 2:321 
1 1:196 2:400 
0.737369238697974 1:198 2:337 
0.8911253998659419 1:202 2:314 
1 1:204 2:347 
0.9487141209684754 1:100 2:372 
1 1:102 2:368 
1 1:110 2:400 
0.8816351429972752 1:112 2:321 
1 1:114 2:302 
1 1:116 2:325 
1 1:120 2:296 
1 1:124 2:400 
1 1:126 2:335 
0.6876928607982207 1:128 2:332 
0.1040501576453773 1:130 2:275 
1 1:134 2:286 
1 1:138 2:400 
1 1:140 2:325 
0.05858807791145045 1:144 2:303 
0.5459818078758931 1:146 2:251 
1 1:148 2:310 
1 1:150 2:316 
1 1:152 2:400 
1 1:154 2:304 
1 1:156 2:158 
1 1:160 2:98 
1 1:162 2:242 
1 1:164 2:260 
1 1:166 2:400 
0.520267801246314 1:168 2:270 
0.2541791337548042 1:170 2:181 
0.9999563919826476 1:172 2:204 
1 1:174 2:167 
1 1:180 2:262 
1 1:182 2:400 
0.6693047985280426 1:184 2:258 
1 1:188 2:261 
0.4422330159178817 1:190 2:276 
1 1:194 2:318 
1 1:196 2:400 
0.7628310904156853 1:202 2:312 
0.07365150911352719 1:204 2:345 
0.5816818918349645 1:206 2:349 
1 1:98 2:385 
1 1:100 2:380 
1 1:102 2:371 
1 1:108 2:337 
1 1:110 2:400 
0.8192204684685337 1:112 2:313 
1 1:114 2:286 
1 1:116 2:300 
1 1:120 2:280 
0.9898874142158053 1:122 2:263 
1 1:124 2:400 
1 1:126 2:325 
1 1:128 2:329 
1 1:130 2:267 
1 1:134 2:288 
1 1:138 2:400 
0.6669811206659099 1:140 2:333 
0.3001263851367602 1:144 2:296 
0.9567000829205581 1:146 2:251 
0.7495497363341771 1:148 2:308 
1 1:150 2:318 
1 1:152 2:400 
1 1:154 2:282 
1 1:156 2:156 
1 1:158 2:205 
1 1:160 2:117 
1 1:162 2:246 
1 1:164 2:264 
1 1:166 2:400 
0.8618430786480713 1:168 2:266 
0.6255415778231737 1:170 2:167 
1 1:172 2:197 
1 1:174 2:170 
1 1:176 2:235 
1 1:178 2:261 
1 1:180 2:263 
1 1:182 2:400 
0.4758536753627459 1:184 2:262 
1 1:186 2:257 
1 1:188 2:268 
1 1:190 2:278 
1 1:192 2:301 
1 1:196 2:400 
1 1:204 2:347 
1 1:100 2:385 
1 1:102 2:377 
0.6841395472135055 1:106 2:350 
0.1599723815597493 1:108 2:347 
1 1:110 2:400 
0.141062149382483 1:114 2:280 
0.9462280031838758 1:116 2:263 
1 1:118 2:233 
1 1:120 2:273 
0.7675592359076608 1:122 2:258 
1 1:124 2:400 
0.618007432459685 1:126 2:323 
1 1:130 2:279 
0.622666716320294 1:134 2:291 
0.5224924696323461 1:136 2:305 
1 1:138 2:400 
0.9567791407410369 1:140 2:332 
0.3424010214051052 1:144 2:299 
1 1:146 2:253 
0.2606297211683125 1:148 2:313 
1 1:150 2:315 
1 1:152 2:400 
0.332140007777124 1:154 2:271 
1 1:156 2:137 
1 1:158 2:222 
1 1:160 2:152 
1 1:162 2:254 
1 1:166 2:400 
0.4581892295497005 1:168 2:275 
0.5636054500993398 1:170 2:176 
1 1:172 2:198 
0.3112717508393399 1:174 2:176 
1 1:176 2:235 
0.9485277732120544 1:180 2:267 
1 1:182 2:400 
1 1:184 2:256 
1 1:188 2:277 
1 1:190 2:290 
1 1:192 2:314 
1 1:196 2:400 
1 1:198 2:340 
0.7983996520849312 1:200 2:336 
0.4997838969818104 1:202 2:325 
1 1:204 2:347 
1 1:206 2:357 
1 1:98 2:392 
1 1:100 2:387 
1 1:102 2:376 
1 1:110 2:400 
1 1:112 2:319 
0.1786694956826193 1:114 2:271 
0.06424234009887908 1:116 2:256 
1 1:118 2:198 
0.8088016860905567 1:122 2:250 
1 1:124 2:400 
1 1:126 2:323 
0.402339331931532 1:128 2:331 
0.2142669199854466 1:130 2:274 
0.4925922479881757 1:134 2:290 
0.3603046399218435 1:136 2:291 
1 1:138 2:400 
0.5398144671582996 1:142 2:312 
1 1:144 2:296 
0.3105608733965458 1:146 2:245 
1 1:148 2:307 
1 1:150 2:309 
1 1:152 2:400 
1 1:154 2:242 
1 1:160 2:153 
1 1:162 2:260 
1 1:166 2:400 
0.9888908407907501 1:168 2:267 
1 1:170 2:142 
1 1:172 2:186 
1 1:176 2:232 
0.3677441969926308 1:178 2:266 
1 1:180 2:262 
1 1:182 2:400 
1 1:184 2:268 
1 1:186 2:251 
1 1:188 2:269 
1 1:190 2:286 
1 1:192 2:316 
0.9957387733531047 1:194 2:330 
1 1:196 2:400 
0.8338712632257866 1:200 2:339 
1 1:204 2:351 
1 1:206 2:357 
1 1:98 2:391 
1 1:100 2:386 
1 1:102 2:379 
0.3218971469623614 1:106 2:349 
1 1:110 2:400 
1 1:114 2:276 
0.7074802677451105 1:118 2:205 
0.7962793729741657 1:120 2:258 
0.01868812712807396 1:122 2:243 
1 1:124 2:400 
1 1:126 2:312 
1 1:128 2:324 
1 1:130 2:272 
0.5738366808403854 1:132 2:316 
0.7116453024153658 1:136 2:292 
1 1:138 2:400 
0.2375529316486646 1:140 2:332 
0.7214564213401012 1:142 2:316 
1 1:144 2:300 
0.9605407610575781 1:146 2:245 
1 1:148 2:304 
0.9071688973399608 1:150 2:298 
1 1:152 2:400 
0.1426137896634471 1:154 2:256 
1 1:156 2:115 
0.6728585881169452 1:158 2:241 
1 1:162 2:248 
1 1:164 2:282 
1 1:166 2:400 
0.8099164293458544 1:168 2:271 
0.7072859553691053 1:170 2:157 
1 1:172 2:196 
0.390102023638103 1:174 2:171 
1 1:178 2:254 
1 1:182 2:400 
1 1:184 2:261 
1 1:186 2:254 
0.8642210038008799 1:188 2:264 
1 1:190 2:287 
0.5410544483900772 1:194 2:334 
1 1:196 2:400 
1 1:198 2:342 
1 1:200 2:338 
1 1:204 2:349 
0.6722586185349685 1:206 2:353 
1 1:98 2:392 
1 1:100 2:388 
1 1:102 2:379 
0.1437197999371704 1:104 2:333 
0.5877619687047557 1:106 2:354 
1 1:108 2:355 
1 1:110 2:400 
0.8783574256524458 1:112 2:323 
0.994838439775805 1:114 2:280 
0.7905048823327964 1:116 2:265 
1 1:118 2:228 
0.9651564534038151 1:120 2:271 
1 1:122 2:247 
1 1:124 2:400 
1 1:126 2:321 
1 1:128 2:331 
1 1:130 2:281 
0.6459751525877433 1:136 2:300 
1 1:138 2:400 
0.6455571471843066 1:140 2:331 
0.7323703854133883 1:142 2:321 
1 1:144 2:299 
1 1:146 2:259 
1 1:148 2:309 
1 1:150 2:303 
1 1:152 2:400 
0.9930664796153285 1:154 2:256 
1 1:156 2:129 
1 1:158 2:251 
1 1:160 2:165 
1 1:162 2:266 
1 1:166 2:400 
1 1:168 2:284 
0.9049913522539365 1:170 2:166 
0.6356362968890124 1:172 2:204 
0.9770239676629278 1:174 2:176 
0.8083669185575425 1:176 2:239 
0.95652333501357 1:180 2:274 
1 1:182 2:400 
0.3048474307645204 1:184 2:274 
0.2195848260470066 1:186 2:266 
1 1:188 2:273 
1 1:190 2:294 
0.4243010788876134 1:192 2:321 
1 1:194 2:341 
1 1:196 2:400 
1 1:198 2:342 
1 1:200 2:342 
1 1:204 2:351 
1 1:206 2:355 
1 1:98 2:391 
1 1:100 2:387 
1 1:102 2:379 
0.101054108492577 1:106 2:344 
1 1:110 2:400 
0.5036305974933383 1:112 2:314 
0.9528142857110424 1:114 2:267 
0.8845944512147156 1:116 2:257 
1 1:118 2:217 
0.6650450541284231 1:120 2:264 
1 1:122 2:233 
1 1:124 2:400 
1 1:126 2:319 
1 1:128 2:324 
1 1:130 2:275 
0.6466817534590654 1:134 2:300 
1 1:138 2:400 
0.5939397017207741 1:140 2:329 
1 1:142 2:313 
1 1:144 2:295 
1 1:148 2:304 
1 1:150 2:299 
1 1:152 2:400 
1 1:154 2:248 
0.8808672567635678 1:156 2:98 
1 1:158 2:243 
1 1:160 2:158 
1 1:162 2:256 
0.3400837905538699 1:164 2:289 
1 1:166 2:400 
1 1:168 2:264 
1 1:170 2:163 
1 1:172 2:196 
0.5820670142906341 1:174 2:162 
0.5216610342264199 1:176 2:227 
1 1:182 2:400 
0.2506484323530234 1:186 2:256 
1 1:188 2:263 
0.5592697135087302 1:190 2:286 
1 1:192 2:310 
1 1:194 2:334 
1 1:196 2:400 
1 1:204 2:349 
1 1:98 2:391 
1 1:100 2:389 
1 1:102 2:380 
1 1:110 2:400 
1 1:112 2:303 
0.9541856132729953 1:114 2:272 
0.8232380493584639 1:116 2:255 
0.706616996221603 1:118 2:206 
0.5953375976742113 1:120 2:263 
1 1:124 2:400 
1 1:126 2:316 
1 1:128 2:322 
1 1:130 2:271 
0.3472185322411465 1:134 2:301 
1 1:138 2:400 
1 1:140 2:327 
1 1:142 2:313 
1 1:144 2:299 
1 1:146 2:249 
1 1:148 2:302 
0.8558266822827478 1:150 2:294 
1 1:152 2:400 
1 1:154 2:245 
1 1:156 2:90 
1 1:158 2:248 
1 1:160 2:161 
1 1:162 2:260 
0.9402409053552737 1:164 2:289 
1 1:166 2:400 
1 1:168 2:255 
0.7068490192869983 1:170 2:156 
1 1:172 2:202 
1 1:176 2:224 
0.4409553408883362 1:178 2:255 
1 1:180 2:277 
1 1:182 2:400 
1 1:184 2:267 
1 1:186 2:254 
0.4455474865690133 1:188 2:267 
1 1:190 2:293 
0.9994356176481494 1:194 2:334 
1 1:196 2:400 
0.8834619120319291 1:200 2:333 
1 1:204 2:346 
0.1767618955224315 1:98 2:391 
1 1:100 2:390 
1 1:102 2:381 
0.992367704292933 1:104 2:333 
0.8600795693314672 1:108 2:348 
1 1:110 2:400 
0.7074504065702975 1:112 2:308 
0.6862506983241107 1:114 2:269 
0.04319276836159382 1:116 2:254 
1 1:118 2:224 
1 1:120 2:269 
1 1:122 2:243 
1 1:124 2:400 
1 1:126 2:323 
1 1:128 2:324 
0.3810141661216562 1:130 2:278 
0.8800542310582599 1:134 2:303 
1 1:136 2:291 
1 1:138 2:400 
0.863155229917305 1:140 2:329 
1 1:142 2:310 
0.4712245105931416 1:144 2:306 
1 1:146 2:258 
1 1:148 2:302 
0.9881475948109724 1:150 2:294 
1 1:152 2:400 
0.5847390146599778 1:154 2:262 
0.7060184064114232 1:156 2:104 
1 1:158 2:252 
1 1:160 2:166 
1 1:162 2:261 
0.006499614686872587 1:164 2:292 
1 1:166 2:400 
1 1:168 2:264 
0.6562048445278528 1:170 2:169 
0.02059726159135795 1:172 2:207 
0.8285509546997469 1:174 2:174 
1 1:176 2:228 
1 1:180 2:277 
1 1:182 2:400 
0.558126161499136 1:184 2:265 
0.3347493027242069 1:186 2:261 
1 1:188 2:271 
1 1:190 2:290 
0.2864051003327112 1:192 2:313 
1 1:196 2:400 
1 1:198 2:341 
0.5483210204003846 1:202 2:323 
1 1:206 2:359 
1 1:98 2:390 
1 1:100 2:385 
1 1:102 2:377 
0.4550460430381065 1:106 2:347 
0.4069204610594425 1:108 2:346 
1 1:110 2:400 
0.7062519469539392 1:112 2:309 
0.9813025867385893 1:114 2:258 
0.9198124909899631 1:116 2:253 
1 1:118 2:212 
0.1397664112047924 1:122 2:237 
1 1:124 2:400 
1 1:126 2:314 
1 1:128 2:329 
1 1:130 2:275 
0.3643162587681812 1:132 2:304 
1 1:134 2:298 
0.990866970549124 1:136 2:286 
1 1:138 2:400 
1 1:140 2:325 
1 1:142 2:308 
1 1:144 2:296 
0.6586738529026149 1:146 2:256 
1 1:148 2:301 
1 1:150 2:292 
1 1:152 2:400 
1 1:154 2:252 
1 1:156 2:79 
1 1:158 2:245 
1 1:160 2:155 
1 1:162 2:259 
1 1:166 2:400 
0.0535834354344317 1:168 2:267 
1 1:170 2:133 
0.9971787519187669 1:172 2:207 
0.6889480231397929 1:174 2:161 
1 1:176 2:225 
0.5036512365925027 1:178 2:259 
0.9941536389784872 1:180 2:271 
1 1:182 2:400 
0.7571450334144451 1:184 2:265 
0.8515039088125397 1:186 2:253 
1 1:188 2:265 
1 1:190 2:281 
1 1:192 2:313 
1 1:196 2:400 
0.8891547732167684 1:198 2:335 
1 1:200 2:333 
0.3619573108541184 1:202 2:321 
0.7095288225444645 1:204 2:341 
1 1:98 2:390 
1 1:100 2:389 
0.1222733460350749 1:102 2:384 
0.2516516935557347 1:106 2:348 
1 1:110 2:400 
0.4613033466830355 1:114 2:265 
0.9998304043737625 1:116 2:249 
1 1:118 2:220 
1 1:122 2:260 
1 1:124 2:400 
0.8780252569889659 1:126 2:322 
1 1:128 2:315 
0.9684727054328837 1:130 2:282 
0.7786455234690599 1:132 2:306 
1 1:134 2:323 
1 1:138 2:400 
0.2379231072353459 1:140 2:324 
0.8390168011210659 1:142 2:322 
1 1:144 2:303 
1 1:148 2:315 
1 1:150 2:308 
1 1:152 2:400 
1 1:154 2:263 
0.7078283705709795 1:156 2:105 
1 1:158 2:252 
1 1:160 2:139 
1 1:162 2:287 
1 1:166 2:400 
1 1:168 2:284 
1 1:170 2:127 
1 1:172 2:225 
1 1:174 2:185 
1 1:176 2:221 
0.7528412462514027 1:178 2:267 
0.8937900577087504 1:180 2:264 
1 1:182 2:400 
0.9763315661100311 1:184 2:273 
0.2944125457215956 1:186 2:265 
0.9130067187086334 1:188 2:267 
1 1:192 2:320 
1 1:196 2:400 
0.110635730115833 1:198 2:339 
0.4309692480602035 1:200 2:335 
0.4385791650575784 1:202 2:324 
0.2459878907189456 1:204 2:342 
1 1:98 2:390 
1 1:100 2:390 
1 1:102 2:380 
0.847033303267253 1:106 2:343 
1 1:110 2:400 
1 1:112 2:330 
0.7809959621858772 1:114 2:261 
0.5838031009360135 1:116 2:243 
0.5035313367867719 1:118 2:235 
0.8937366858960156 1:120 2:252 
0.483530798073682 1:122 2:251 
1 1:124 2:400 
1 1:126 2:323 
1 1:128 2:317 
0.971999212151758 1:132 2:304 
0.8994600813595348 1:134 2:322 
0.744885416990017 1:136 2:296 
1 1:138 2:400 
0.04010681368216975 1:142 2:323 
0.6805752498936204 1:144 2:302 
0.2418035702770974 1:146 2:234 
0.3884382206814224 1:148 2:314 
1 1:150 2:306 
1 1:152 2:400 
1 1:154 2:276 
1 1:156 2:100 
0.1655471493948755 1:158 2:239 
0.706570763821849 1:160 2:146 
1 1:162 2:282 
0.3050249815814207 1:164 2:299 
1 1:166 2:400 
0.6509927021012589 1:168 2:279 
1 1:170 2:124 
1 1:172 2:214 
1 1:174 2:190 
1 1:176 2:217 
1 1:182 2:400 
0.4357868201333397 1:184 2:275 
0.5675042305795034 1:186 2:264 
1 1:188 2:275 
1 1:190 2:301 
1 1:192 2:321 
0.6667528640390206 1:194 2:336 
1 1:196 2:400 
1 1:198 2:337 
1 1:202 2:330 
1 1:204 2:344 
0.3316565378376214 1:206 2:351 
1 1:98 2:392 
1 1:100 2:387 
1 1:102 2:381 
0.5757194376750274 1:104 2:327 
0.8093587293209441 1:106 2:352 
0.6166466609593276 1:108 2:345 
1 1:110 2:400 
0.8997713439647563 1:112 2:325 
0.5263593863749528 1:114 2:260 
0.992788760243671 1:116 2:247 
0.8195795696167364 1:118 2:236 
0.9820302585356985 1:120 2:245 
0.5980339847225646 1:122 2:253 
1 1:124 2:400 
1 1:126 2:319 
1 1:128 2:314 
0.9505767341880583 1:130 2:295 
1 1:132 2:302 
0.5218554862050494 1:134 2:317 
0.8526673969703487 1:136 2:294 
1 1:138 2:400 
1 1:140 2:317 
0.9927820554209142 1:144 2:305 
0.9738550528870938 1:146 2:234 
1 1:148 2:315 
1 1:150 2:302 
1 1:152 2:400 
1 1:154 2:271 
0.881238234071585 1:156 2:96 
0.9650390875364221 1:158 2:238 
0.7073464992183802 1:160 2:147 
1 1:162 2:280 
1 1:166 2:400 
1 1:168 2:276 
1 1:170 2:120 
1 1:174 2:181 
0.4664441961295784 1:176 2:211 
0.954562806833808 1:178 2:274 
1 1:180 2:269 
1 1:182 2:400 
1 1:184 2:272 
1 1:186 2:256 
1 1:188 2:269 
0.9585498025644202 1:190 2:301 
0.9849434566450341 1:192 2:321 
1 1:194 2:332 
1 1:196 2:400 
1 1:200 2:325 
1 1:204 2:347 
0.6275200695487937 1:206 2:348 
1 1:100 2:388 
1 1:102 2:381 
0.7791539400128127 1:104 2:324 
0.2930983269823875 1:106 2:346 
1 1:110 2:400 
1 1:112 2:316 
0.6901881905091407 1:116 2:244 
0.9819969066393692 1:118 2:243 
0.890826548923259 1:120 2:256 
0.805279023555193 1:122 2:256 
1 1:124 2:400 
1 1:126 2:321 
1 1:128 2:319 
1 1:130 2:289 
1 1:132 2:299 
1 1:134 2:318 
1 1:138 2:400 
0.9573587525829224 1:142 2:319 
1 1:144 2:300 
1 1:146 2:239 
1 1:148 2:317 
1 1:150 2:306 
1 1:152 2:400 
0.9213970643671907 1:154 2:271 
1 1:156 2:94 
0.4868773356199372 1:158 2:240 
1 1:160 2:141 
1 1:162 2:277 
0.1570158461748301 1:164 2:300 
1 1:166 2:400 
1 1:168 2:274 
1 1:170 2:118 
0.04276670677071717 1:172 2:210 
0.8087454256013262 1:174 2:186 
1 1:176 2:211 
0.4709568415024296 1:178 2:272 
1 1:182 2:400 
0.8411374021360023 1:184 2:276 
1 1:186 2:260 
1 1:188 2:277 
0.8700889924284211 1:190 2:298 
0.9969932894341477 1:192 2:325 
1 1:194 2:338 
1 1:196 2:400 
0.977545373881574 1:198 2:339 
1 1:200 2:327 
1 1:202 2:329 
1 1:204 2:343 
0.9694257047884236 1:206 2:355 
1 1:100 2:379 
0.4983480152061891 1:102 2:358 
0.7801704423474309 1:104 2:328 
0.9364662512231701 1:108 2:341 
1 1:110 2:400 
1 1:112 2:287 
0.6937738031541508 1:114 2:264 
1 1:116 2:275 
0.9357954936537491 1:118 2:252 
0.9307498913810001 1:120 2:267 
0.729895300921435 1:122 2:245 
1 1:124 2:400 
1 1:126 2:320 
1 1:128 2:313 
1 1:130 2:280 
1 1:132 2:296 
0.8243404111400846 1:134 2:312 
0.931366433781762 1:136 2:289 
1 1:138 2:400 
1 1:140 2:317 
1 1:142 2:316 
1 1:144 2:296 
0.7644360931925961 1:146 2:226 
1 1:148 2:313 
1 1:150 2:312 
1 1:152 2:400 
1 1:154 2:272 
1 1:156 2:112 
1 1:158 2:182 
1 1:160 2:127 
1 1:162 2:262 
1 1:164 2:286 
1 1:166 2:400 
0.9139109587044413 1:168 2:268 
1 1:170 2:98 
1 1:172 2:193 
0.9725563113354487 1:174 2:175 
1 1:176 2:200 
0.9627345839243904 1:178 2:260 
0.1644980051477347 1:180 2:256 
1 1:182 2:400 
1 1:184 2:260 
1 1:186 2:247 
1 1:188 2:262 
1 1:190 2:291 
1 1:192 2:310 
1 1:196 2:400 
0.2119472410581346 1:200 2:320 
1 1:202 2:326 
0.5948948735084739 1:204 2:338 
1 1:98 2:377 
1 1:100 2:365 
0.9565764492035006 1:102 2:359 
1 1:104 2:315 
0.9278251575716016 1:106 2:338 
1 1:108 2:313 
1 1:110 2:400 
1 1:112 2:296 
0.4713372132385726 1:114 2:270 
1 1:116 2:288 
0.9784526924024712 1:118 2:266 
1 1:120 2:287 
0.9959072732686916 1:122 2:237 
1 1:124 2:400 
1 1:126 2:320 
1 1:128 2:309 
1 1:130 2:277 
0.9400351620949453 1:132 2:290 
1 1:134 2:311 
0.1376612926052693 1:136 2:290 
1 1:138 2:400 
1 1:140 2:320 
1 1:142 2:316 
1 1:144 2:290 
0.7659990619872904 1:146 2:225 
1 1:148 2:320 
1 1:150 2:316 
1 1:152 2:400 
1 1:154 2:276 
0.9999773000345158 1:156 2:127 
1 1:158 2:189 
1 1:160 2:78 
1 1:162 2:255 
1 1:164 2:280 
1 1:166 2:400 
1 1:168 2:258 
1 1:170 2:104 
1 1:172 2:198 
0.8711301611073204 1:176 2:204 
0.8655793356989029 1:178 2:262 
1 1:180 2:262 
1 1:182 2:400 
0.2699138757921357 1:184 2:264 
1 1:186 2:244 
1 1:188 2:262 
1 1:190 2:287 
0.6721149704434817 1:192 2:312 
1 1:194 2:325 
1 1:196 2:400 
1 1:198 2:337 
1 1:200 2:325 
0.55680552447211 1:202 2:322 
0.6693017472722502 1:204 2:344 
0.647203397692004 1:206 2:346 
0.7377053571774808 1:98 2:384 
1 1:100 2:381 
1 1:102 2:376 
0.5767856468657463 1:104 2:325 
0.9216811508114336 1:106 2:340 
0.785440419314439 1:108 2:343 
1 1:110 2:400 
0.9991748989154552 1:112 2:332 
1 1:114 2:335 
1 1:116 2:334 
1 1:118 2:310 
1 1:120 2:318 
0.6256911319819123 1:122 2:254 
1 1:124 2:400 
1 1:126 2:338 
1 1:128 2:326 
0.7690946003019338 1:130 2:286 
0.4093144503097665 1:132 2:301 
0.4327821290930469 1:134 2:313 
0.1315895047778399 1:136 2:295 
1 1:138 2:400 
0.9256596503746729 1:140 2:321 
1 1:142 2:323 
1 1:144 2:308 
0.9504043481508707 1:146 2:256 
1 1:148 2:315 
1 1:150 2:319 
1 1:152 2:400 
1 1:154 2:304 
1 1:156 2:198 
1 1:158 2:200 
1 1:160 2:129 
1 1:162 2:270 
0.8849696011342556 1:164 2:291 
1 1:166 2:400 
1 1:168 2:262 
1 1:170 2:83 
1 1:172 2:187 
0.3952022940880829 1:174 2:173 
0.7515023989399757 1:176 2:212 
0.6741043140729743 1:178 2:264 
1 1:180 2:272 
1 1:182 2:400 
1 1:186 2:247 
1 1:188 2:259 
0.9976668526338807 1:190 2:298 
0.3949937621970155 1:192 2:317 
0.356198429070839 1:194 2:328 
1 1:196 2:400 
0.997321250551368 1:200 2:333 
1 1:202 2:332 
1 1:204 2:350 
0.3467814988489351 1:206 2:350 
0.1139250678176538 1:98 2:383 
1 1:100 2:377 
1 1:102 2:383 
0.8753704284167252 1:104 2:351 
1 1:106 2:368 
1 1:108 2:373 
1 1:110 2:400 
1 1:112 2:372 
1 1:114 2:358 
1 1:116 2:359 
1 1:118 2:334 
1 1:120 2:342 
1 1:122 2:284 
1 1:124 2:400 
1 1:126 2:358 
0.8037122690465508 1:128 2:340 
1 1:130 2:315 
1 1:132 2:323 
1 1:134 2:333 
1 1:136 2:314 
1 1:138 2:400 
0.9838140644947733 1:140 2:335 
0.9622945886708706 1:142 2:338 
1 1:144 2:327 
1 1:146 2:282 
1 1:150 2:333 
1 1:152 2:400 
0.5282731202413945 1:154 2:317 
0.9611839032812841 1:156 2:224 
1 1:158 2:292 
0.9892041732195164 1:160 2:239 
0.6015582402552022 1:162 2:308 
1 1:166 2:400 
1 1:170 2:143 
1 1:172 2:210 
1 1:174 2:193 
0.4243003091035383 1:176 2:251 
1 1:178 2:300 
1 1:180 2:298 
1 1:182 2:400 
1 1:184 2:297 
0.5256137359304384 1:186 2:285 
1 1:188 2:284 
1 1:190 2:311 
1 1:192 2:336 
0.9983835998974041 1:194 2:336 
1 1:196 2:400 
1 1:198 2:348 
1 1:200 2:345 
1 1:202 2:339 
1 1:204 2:355 
1 1:206 2:362 
1 1:100 2:389 
0.7710924942418199 1:102 2:391 
1 1:104 2:368 
1 1:106 2:371 
1 1:108 2:378 
1 1:110 2:400 
1 1:112 2:372 
1 1:114 2:370 
1 1:116 2:371 
1 1:118 2:349 
1 1:120 2:363 
1 1:122 2:300 
1 1:124 2:400 
0.9909942700535196 1:126 2:364 
1 1:128 2:349 
1 1:130 2:322 
0.532291040028849 1:132 2:330 
1 1:134 2:341 
1 1:136 2:324 
1 1:138 2:400 
0.1388390012913657 1:140 2:348 
1 1:142 2:342 
0.15893303248983 1:144 2:332 
0.4151633009157445 1:146 2:292 
0.9452165985450984 1:148 2:344 
0.1120224687407783 1:150 2:339 
1 1:152 2:400 
1 1:154 2:335 
1 1:156 2:261 
0.0008355165357019495 1:158 2:310 
0.6059941402109638 1:160 2:248 
0.8118540380122358 1:164 2:333 
1 1:166 2:400 
0.8804679621392654 1:170 2:170 
0.8676168236557099 1:172 2:223 
0.5067176580617256 1:174 2:172 
1 1:176 2:247 
0.8725655935356236 1:178 2:282 
0.1598960211192675 1:180 2:285 
1 1:182 2:400 
0.5320447992857139 1:186 2:262 
1 1:188 2:264 
1 1:190 2:288 
0.9374831895643662 1:192 2:317 
0.8987052727303817 1:194 2:328 
1 1:196 2:400 
1 1:198 2:344 
0.5277777151879262 1:200 2:338 
1 1:202 2:336 
1 1:204 2:357 
1 1:206 2:362 
1 1:98 2:387 
1 1:100 2:387 
1 1:102 2:383 
1 1:106 2:369 
1 1:108 2:376 
1 1:110 2:400 
1 1:112 2:380 
1 1:114 2:381 
1 1:116 2:375 
1 1:118 2:372 
1 1:120 2:360 
1 1:122 2:322 
1 1:124 2:400 
0.9882796613437879 1:126 2:366 
1 1:128 2:362 
1 1:130 2:319 
1 1:132 2:329 
0.9586432074625142 1:134 2:351 
1 1:136 2:328 
1 1:138 2:400 
1 1:140 2:349 
0.5568346703098269 1:144 2:337 
0.3262775470957721 1:146 2:299 
0.8158424336236542 1:150 2:351 
1 1:152 2:400 
1 1:154 2:331 
1 1:156 2:244 
1 1:158 2:310 
1 1:160 2:252 
0.925442623592388 1:162 2:319 
0.9308694849764292 1:164 2:330 
1 1:166 2:400 
0.1308372303723159 1:168 2:317 
1 1:170 2:180 
1 1:172 2:223 
0.909522295752755 1:174 2:164 
0.9140159916222702 1:176 2:265 
0.8632265565784076 1:178 2:283 
0.9755350445334666 1:180 2:284 
1 1:182 2:400 
0.6678480834673499 1:184 2:287 
0.9522501476787724 1:186 2:269 
1 1:188 2:270 
0.9495727974332135 1:192 2:293 
1 1:194 2:312 
1 1:196 2:400 
1 1:198 2:328 
1 1:200 2:323 
1 1:202 2:330 
1 1:204 2:351 
1 1:206 2:359 
0.5510114522083768 1:98 2:389 
1 1:100 2:388 
1 1:102 2:385 
1 1:106 2:357 
1 1:108 2:368 
1 1:110 2:400 
0.864306592506548 1:112 2:369 
1 1:114 2:363 
1 1:116 2:367 
0.272843473550556 1:118 2:358 
0.9619201572751488 1:120 2:346 
1 1:122 2:322 
1 1:124 2:400 
1 1:126 2:360 
1 1:128 2:359 
0.5246702410541633 1:130 2:305 
0.9257361616400636 1:132 2:331 
1 1:134 2:337 
1 1:136 2:325 
1 1:138 2:400 
0.8040683363684005 1:142 2:343 
0.3198322902867871 1:144 2:333 
0.8938631608453144 1:146 2:292 
0.7055653590043058 1:148 2:337 
0.8928549731895126 1:150 2:347 
1 1:152 2:400 
0.7534617071386545 1:154 2:327 
0.7192281533233519 1:156 2:230 
1 1:158 2:304 
0.3187705835332025 1:160 2:249 
0.4352077965079014 1:162 2:305 
0.2812992150838633 1:164 2:321 
1 1:166 2:400 
0.6938428086174673 1:168 2:305 
0.8768415343644884 1:170 2:175 
1 1:172 2:203 
0.9955588289565251 1:174 2:137 
1 1:176 2:262 
1 1:178 2:291 
1 1:180 2:276 
1 1:182 2:400 
1 1:184 2:287 
0.9820545417543085 1:186 2:287 
1 1:188 2:275 
0.552245139374776 1:190 2:278 
0.5982503149585092 1:192 2:268 
1 1:194 2:284 
1 1:196 2:400 
1 1:198 2:312 
0.8331063845219414 1:200 2:310 
0.1915588220594676 1:202 2:320 
1 1:204 2:350 
1 1:98 2:385 
1 1:100 2:386 
1 1:102 2:387 
1 1:104 2:361 
1 1:106 2:367 
1 1:108 2:374 
1 1:110 2:400 
1 1:112 2:372 
1 1:114 2:367 
1 1:116 2:362 
0.9850956485119412 1:118 2:358 
1 1:120 2:345 
1 1:122 2:317 
1 1:124 2:400 
1 1:126 2:355 
0.7570784733291557 1:128 2:364 
1 1:130 2:311 
0.9894642819984636 1:132 2:331 
1 1:134 2:340 
1 1:136 2:324 
1 1:138 2:400 
0.8798848939317305 1:140 2:347 
1 1:142 2:344 
0.8901187594665586 1:144 2:331 
0.8038880675285095 1:148 2:340 
1 1:152 2:400 
1 1:154 2:327 
1 1:156 2:234 
1 1:158 2:302 
0.9040563495174923 1:160 2:264 
0.6754974778598647 1:162 2:316 
0.517175735024999 1:164 2:332 
1 1:166 2:400 
0.8677852889463454 1:170 2:182 
1 1:172 2:226 
0.8879012513741182 1:174 2:139 
1 1:176 2:266 
0.8073384844153755 1:178 2:287 
0.5012218546884325 1:180 2:278 
1 1:182 2:400 
1 1:184 2:292 
1 1:186 2:301 
0.9822172393546965 1:188 2:289 
0.4265933765940849 1:190 2:288 
1 1:192 2:283 
1 1:194 2:281 
1 1:196 2:400 
0.06921623713796195 1:198 2:301 
0.4828529192872189 1:200 2:307 
0.7852385789664158 1:202 2:319 
1 1:204 2:346 
0.5778816327224956 1:206 2:352 
1 1:100 2:388 
1 1:102 2:384 
1 1:104 2:362 
1 1:106 2:361 
1 1:108 2:374 
1 1:110 2:400 
1 1:112 2:365 
1 1:114 2:358 
1 1:116 2:367 
1 1:120 2:344 
1 1:122 2:308 
1 1:124 2:400 
1 1:126 2:351 
1 1:128 2:355 
1 1:130 2:303 
0.6983435697051326 1:132 2:311 
1 1:134 2:355 
0.3416663571334105 1:136 2:301 
1 1:138 2:400 
0.9578089384933554 1:140 2:345 
1 1:142 2:331 
1 1:144 2:322 
1 1:148 2:335 
0.992360555451574 1:150 2:341 
1 1:152 2:400 
1 1:154 2:323 
1 1:156 2:220 
1 1:158 2:287 
0.7781379851153432 1:160 2:260 
0.1988758353887426 1:162 2:304 
0.9047185213866829 1:164 2:322 
1 1:166 2:400 
1 1:168 2:325 
0.935814815591236 1:170 2:186 
1 1:172 2:266 
1 1:174 2:85 
0.08731786474441149 1:180 2:265 
1 1:182 2:400 
1 1:184 2:266 
0.6912948809260393 1:186 2:277 
1 1:188 2:252 
0.491301757071241 1:190 2:289 
1 1:194 2:267 
1 1:196 2:400 
1 1:198 2:297 
0.9185672646817929 1:200 2:297 
1 1:202 2:296 
0.7074706215208165 1:204 2:339 
0.7872116703164934 1:206 2:344 
1 1:98 2:387 
1 1:100 2:387 
1 1:102 2:385 
0.9197209819188364 1:104 2:361 
0.4222969707452614 1:106 2:355 
1 1:108 2:374 
1 1:110 2:400 
1 1:112 2:365 
1 1:118 2:349 
1 1:120 2:342 
0.7343971302511128 1:122 2:302 
1 1:124 2:400 
1 1:128 2:355 
1 1:130 2:304 
1 1:136 2:304 
1 1:138 2:400 
1 1:140 2:341 
1 1:142 2:333 
0.9697500667189179 1:144 2:319 
0.3449075056381712 1:146 2:298 
1 1:148 2:335 
1 1:150 2:339 
1 1:152 2:400 
1 1:154 2:321 
1 1:156 2:227 
1 1:158 2:282 
0.301009776828414 1:160 2:257 
1 1:162 2:303 
1 1:166 2:400 
0.9196971298484599 1:168 2:323 
0.6455128129829278 1:170 2:227 
1 1:172 2:257 
1 1:174 2:75 
1 1:176 2:234 
1 1:178 2:286 
0.9913156619185181 1:180 2:256 
1 1:182 2:400 
0.8752574819859691 1:184 2:269 
0.8837694811810043 1:186 2:277 
1 1:188 2:248 
0.8725985407600761 1:190 2:279 
0.1218824001084451 1:192 2:269 
1 1:194 2:261 
1 1:196 2:400 
0.9990643394291091 1:198 2:301 
1 1:200 2:285 
1 1:202 2:293 
0.8320172587691347 1:206 2:340 
1 1:98 2:390 
1 1:100 2:389 
0.9110091901142329 1:102 2:388 
0.001007619579730654 1:104 2:357 
1 1:106 2:363 
1 1:108 2:371 
1 1:110 2:400 
1 1:112 2:366 
1 1:114 2:365 
1 1:116 2:365 
1 1:118 2:349 
0.7792217510877606 1:120 2:343 
1 1:122 2:303 
1 1:124 2:400 
1 1:126 2:351 
1 1:128 2:354 
0.8979567148770549 1:130 2:305 
0.9365704695197858 1:132 2:314 
0.4780665852862213 1:134 2:349 
0.3016453149592093 1:136 2:302 
1 1:138 2:400 
0.9407858969812941 1:140 2:339 
1 1:142 2:331 
1 1:144 2:324 
1 1:150 2:341 
1 1:152 2:400 
1 1:154 2:319 
0.9097948146203795 1:156 2:230 
0.99070608145975 1:158 2:282 
1 1:160 2:257 
0.9297020572161737 1:164 2:328 
1 1:166 2:400 
0.8409122535643723 1:170 2:245 
1 1:172 2:286 
0.1972049987745823 1:174 2:140 
1 1:176 2:223 
1 1:178 2:273 
1 1:180 2:250 
1 1:182 2:400 
0.9673930357615601 1:184 2:258 
1 1:186 2:267 
1 1:188 2:242 
1 1:190 2:284 
1 1:194 2:249 
1 1:196 2:400 
1 1:198 2:289 
0.9992062418149377 1:204 2:334 
1 1:98 2:388 
1 1:100 2:390 
1 1:102 2:387 
1 1:104 2:360 
1 1:106 2:365 
1 1:108 2:372 
1 1:110 2:400 
1 1:112 2:363 
0.9969618254418873 1:114 2:367 
1 1:116 2:362 
1 1:118 2:346 
1 1:120 2:340 
1 1:122 2:301 
1 1:124 2:400 
0.9684225136837188 1:126 2:355 
1 1:128 2:356 
1 1:130 2:304 
0.1532648656278879 1:132 2:315 
0.6805447668867162 1:134 2:348 
1 1:136 2:304 
1 1:138 2:400 
1 1:140 2:338 
1 1:142 2:329 
1 1:144 2:324 
0.633746516320697 1:146 2:295 
0.07847338710399689 1:148 2:333 
1 1:152 2:400 
1 1:154 2:320 
1 1:156 2:223 
0.8909218983243818 1:160 2:246 
1 1:166 2:400 
0.7905218189582405 1:168 2:320 
1 1:170 2:248 
1 1:176 2:239 
0.7041089149643387 1:178 2:271 
1 1:180 2:244 
1 1:182 2:400 
1 1:184 2:238 
1 1:186 2:258 
1 1:188 2:243 
1 1:190 2:275 
0.7065069498863813 1:192 2:255 
1 1:194 2:245 
1 1:196 2:400 
0.9417351143474629 1:200 2:275 
1 1:202 2:281 
0.955223179372281 1:204 2:336 
0.4255731241365228 1:206 2:338 
1 1:98 2:389 
1 1:100 2:388 
1 1:102 2:385 
1 1:104 2:358 
1 1:106 2:370 
1 1:108 2:371 
1 1:110 2:400 
1 1:112 2:366 
1 1:114 2:368 
0.9333161752524163 1:116 2:362 
0.2514565054954914 1:118 2:343 
1 1:120 2:347 
0.9989400513145477 1:122 2:302 
1 1:124 2:400 
1 1:126 2:354 
0.7545145054205457 1:130 2:307 
0.4257757536433402 1:132 2:317 
1 1:134 2:346 
0.1336087083085247 1:136 2:297 
1 1:138 2:400 
1 1:140 2:344 
1 1:144 2:338 
1 1:146 2:280 
0.8217642793408811 1:148 2:334 
0.7460575666467153 1:150 2:337 
1 1:152 2:400 
0.9592281035151029 1:154 2:323 
0.06792522711897664 1:156 2:233 
1 1:158 2:281 
0.02534646826956941 1:160 2:251 
1 1:162 2:295 
0.5270842771964995 1:164 2:326 
1 1:166 2:400 
0.7348703052961647 1:170 2:260 
0.2266247726015472 1:174 2:163 
1 1:178 2:278 
1 1:180 2:251 
1 1:182 2:400 
1 1:184 2:235 
1 1:186 2:247 
0.8643505159049764 1:188 2:239 
0.9919162145109732 1:190 2:268 
1 1:192 2:270 
1 1:196 2:400 
0.8742651119521431 1:198 2:281 
0.99921379174334 1:200 2:270 
1 1:202 2:273 
0.5840313084976781 1:204 2:328 
0.8943183642309227 1:98 2:388 
1 1:100 2:388 
1 1:102 2:385 
1 1:104 2:354 
1 1:106 2:365 
1 1:108 2:371 
1 1:110 2:400 
1 1:112 2:364 
1 1:118 2:340 
1 1:120 2:338 
0.8606220896910836 1:122 2:305 
1 1:124 2:400 
1 1:126 2:354 
1 1:128 2:347 
1 1:130 2:299 
0.8451677616541595 1:132 2:311 
0.8014613326819615 1:134 2:344 
0.8490910731696527 1:136 2:298 
1 1:138 2:400 
1 1:140 2:343 
1 1:142 2:335 
1 1:144 2:336 
0.8778967789123461 1:146 2:266 
1 1:150 2:339 
1 1:152 2:400 
1 1:154 2:320 
1 1:156 2:215 
1 1:158 2:271 
0.9299538458513374 1:160 2:246 
0.987746787431719 1:162 2:297 
0.7542408143616495 1:164 2:319 
1 1:166 2:400 
0.9960251058272929 1:168 2:317 
1 1:170 2:256 
0.5197362472708169 1:172 2:290 
1 1:174 2:152 
0.8618974817602836 1:176 2:249 
0.4124459303845031 1:178 2:292 
1 1:180 2:248 
1 1:182 2:400 
1 1:184 2:236 
1 1:186 2:234 
0.1611680547075477 1:188 2:216 
0.9786995036510904 1:190 2:261 
0.708295085580454 1:192 2:256 
0.8653441643777581 1:194 2:247 
1 1:196 2:400 
1 1:198 2:270 
0.8545768381163346 1:200 2:277 
0.5851244902894632 1:202 2:276 
0.996157379350241 1:204 2:330 
0.7795956775061957 1:206 2:342 
0.9522808874125388 1:98 2:389 
1 1:100 2:391 
0.8493394119501033 1:102 2:389 
0.8795332021948079 1:104 2:356 
1 1:106 2:372 
1 1:108 2:373 
1 1:110 2:400 
1 1:112 2:369 
0.1842377163497984 1:116 2:359 
1 1:118 2:343 
1 1:120 2:341 
1 1:122 2:304 
1 1:124 2:400 
0.712118544783424 1:126 2:352 
1 1:128 2:353 
0.9755618979758143 1:130 2:307 
0.1687584995701461 1:132 2:312 
0.2323790374213088 1:134 2:343 
1 1:136 2:299 
1 1:138 2:400 
1 1:140 2:346 
0.9991520389001111 1:142 2:333 
1 1:144 2:334 
1 1:146 2:272 
0.4558263477130448 1:148 2:338 
0.2528786058986746 1:150 2:340 
1 1:152 2:400 
1 1:154 2:328 
1 1:156 2:217 
1 1:158 2:272 
0.8716873335409682 1:160 2:250 
0.6598415203292034 1:164 2:325 
1 1:166 2:400 
0.5309481468391067 1:168 2:321 
0.6233412477047059 1:170 2:261 
1 1:172 2:301 
0.7166717739758027 1:174 2:166 
1 1:176 2:252 
1 1:178 2:293 
1 1:182 2:400 
1 1:184 2:257 
1 1:186 2:213 
0.9833062966811572 1:188 2:216 
0.7650545947256306 1:190 2:266 
1 1:192 2:251 
1 1:194 2:241 
1 1:196 2:400 
1 1:198 2:284 
0.8621860800918399 1:200 2:281 
0.6475054709045195 1:202 2:277 
0.899156754094136 1:204 2:327 
0.7257818384557814 1:206 2:337 
-1 1:98 2:392 
-0.1577751586619001 1:106 2:373 
-1 1:118 2:352 
-1 1:126 2:356 
-0.5594784575540372 1:128 2:349 
-0.04231100978745353 1:130 2:302 
-0.6827241611725744 1:132 2:342 
-0.9304410193222994 1:144 2:227 
-0.7603196722255052 1:146 2:124 
-0.6229460690378932 1:148 2:273 
-0.9991514979307584 1:154 2:280 
-0.2635036520982297 1:156 2:204 
-1 1:162 2:261 
-1 1:164 2:283 
-1 1:168 2:267 
-0.2261409351638914 1:170 2:117 
-1 1:172 2:257 
-1 1:174 2:128 
-0.33399841530309 1:178 2:231 
-1 1:180 2:276 
-0.858516306549289 1:184 2:302 
-0.5545392014951719 1:188 2:319 
-0.6457500171715373 1:190 2:326 
-0.2705134693988829 1:194 2:360 
-0.02499182119678584 1:206 2:385 
-1 1:98 2:391 
-0.8158115162288121 1:102 2:376 
-1 1:118 2:348 
-0.1128560814939355 1:128 2:348 
-1 1:130 2:301 
-0.7308888858575376 1:134 2:334 
-1 1:136 2:325 
-0.003895073762822554 1:142 2:296 
-0.8499993818357128 1:144 2:214 
-0.7610084507500455 1:146 2:122 
-0.2968985719080152 1:148 2:270 
-0.588166789982729 1:150 2:286 
-0.8940966682340906 1:154 2:275 
-1 1:156 2:210 
-0.6435436125597666 1:160 2:178 
-1 1:164 2:287 
-1 1:170 2:124 
-1 1:172 2:253 
-0.4038163427894258 1:174 2:129 
-1 1:176 2:262 
-0.1511154414488501 1:178 2:237 
-1 1:180 2:272 
-0.5238333677954111 1:184 2:309 
-0.5516356081062224 1:188 2:316 
-0.5380247128701783 1:192 2:355 
-0.6799900035470307 1:194 2:364 
-0.6497857441377557 1:200 2:371 
-0.05049677848307448 1:202 2:373 
-0.4173646626291465 1:206 2:382 
-1 1:98 2:390 
-1 1:106 2:367 
-1 1:114 2:368 
-1 1:116 2:363 
-1 1:118 2:349 
-1 1:122 2:269 
-0.8559695402703031 1:128 2:344 
-1 1:130 2:297 
-1 1:134 2:339 
-1 1:136 2:322 
-0.2395441825221181 1:140 2:316 
-0.3878573125575207 1:142 2:293 
-0.7978788979844891 1:144 2:220 
-0.7046577982267365 1:148 2:263 
-0.2401352627219508 1:156 2:203 
-1 1:158 2:256 
-0.561098653610036 1:160 2:171 
-0.4746150075314828 1:164 2:281 
-1 1:172 2:234 
-0.8532483880654037 1:174 2:121 
-0.1688526592381253 1:176 2:231 
-0.528604799252912 1:178 2:226 
-1 1:180 2:292 
-0.6445714003853669 1:184 2:304 
-0.6126856259745024 1:186 2:316 
-0.6512383666333481 1:188 2:314 
-0.3025838380008095 1:190 2:332 
-0.2732991083972096 1:194 2:361 
-0.482698541168152 1:198 2:363 
-0.2840043745405358 1:204 2:379 
-1 1:98 2:391 
-0.005863845407183674 1:102 2:377 
-0.6442020970359428 1:106 2:369 
-0.5839841985757575 1:108 2:373 
-0.2580036023012336 1:116 2:368 
-0.5590079777569532 1:118 2:354 
-0.9962307080746906 1:122 2:279 
-1 1:126 2:354 
-1 1:130 2:304 
-1 1:132 2:329 
-1 1:136 2:318 
-0.006253490241488691 1:138 2:400 
-0.6426322643469147 1:140 2:309 
-0.5772357101474451 1:144 2:207 
-0.8542809270296013 1:146 2:104 
-0.6342255225667552 1:148 2:271 
-0.4641453813984034 1:150 2:284 
-0.006444281614318731 1:152 2:400 
-1 1:154 2:271 
-0.005940811603999757 1:156 2:211 
-1 1:162 2:271 
-0.006473376861649824 1:166 2:400 
-0.8566170138185578 1:170 2:91 
-0.3214112328660021 1:172 2:218 
-0.9987116651074186 1:174 2:110 
-1 1:176 2:213 
-1 1:178 2:280 
-0.7166310847917627 1:180 2:310 
-0.4427442730510288 1:184 2:310 
-0.7605673285020806 1:186 2:310 
-0.6994668742339849 1:190 2:338 
-0.2813776113283548 1:192 2:350 
-0.7715132170535697 1:194 2:366 
-0.2956587248912301 1:198 2:365 
-0.58098371813915 1:200 2:366 
-0.5754840772646517 1:204 2:381 
-0.583333857653096 1:206 2:386 
-1 1:98 2:393 
-1 1:100 2:386 
-1 1:102 2:384 
-0.006491319664215511 1:110 2:400 
-1 1:112 2:373 
-0.6948112979107113 1:116 2:369 
-1 1:118 2:354 
-0.4797260585015773 1:120 2:333 
-1 1:122 2:272 
-0.00952478738665196 1:124 2:400 
-1 1:126 2:354 
-0.4323188047402013 1:130 2:310 
-1 1:132 2:322 
-0.8063389076757034 1:134 2:332 
-1 1:136 2:304 
-1 1:138 2:400 
-0.1717726771272426 1:140 2:310 
-0.5110474789425457 1:142 2:288 
-0.4467577673691208 1:144 2:206 
-0.8636874568025885 1:146 2:94 
-0.1158697176648531 1:148 2:262 
-0.7890580891454002 1:150 2:277 
-1 1:152 2:400 
-0.008216165701861969 1:154 2:268 
-1 1:156 2:197 
-0.7509819909256057 1:158 2:257 
-0.2772678673965286 1:160 2:172 
-1 1:164 2:261 
-1 1:166 2:400 
-0.6472231501610218 1:168 2:224 
-1 1:172 2:203 
-0.3653233479836471 1:174 2:79 
-0.7256030423564985 1:176 2:215 
-1 1:178 2:285 
-0.7607388071462616 1:180 2:295 
-0.007372772221166862 1:182 2:400 
-0.7703606398472397 1:184 2:306 
-0.7170627178945688 1:186 2:318 
-0.3027483136588217 1:188 2:320 
-0.08412257916563082 1:194 2:356 
-0.006950202090643925 1:196 2:400 
-0.544165476790205 1:202 2:372 
-0.1866810314242693 1:204 2:380 
-0.7177645149966105 1:206 2:390 
-0.900238507384454 1:100 2:388 
-1 1:102 2:386 
-1 1:110 2:400 
-0.0007430890954540359 1:112 2:377 
-0.4996756437663431 1:114 2:374 
-0.3039577971514636 1:116 2:375 
-1 1:118 2:356 
-1 1:120 2:338 
-1 1:122 2:282 
-1 1:124 2:400 
-1 1:126 2:354 
-1 1:128 2:354 
-1 1:130 2:308 
-1 1:132 2:327 
-1 1:136 2:317 
-1 1:138 2:400 
-0.9163521392003859 1:140 2:313 
-0.8634585676868116 1:146 2:113 
-0.7263811487265159 1:148 2:275 
-0.1150866012742689 1:150 2:282 
-1 1:152 2:400 
-1 1:156 2:206 
-0.504788926212043 1:158 2:261 
-0.1463288847946801 1:160 2:184 
-0.1721004403171813 1:162 2:267 
-1 1:166 2:400 
-0.7643728567376096 1:168 2:232 
-0.1008909040910236 1:170 2:99 
-1 1:172 2:221 
-1 1:174 2:91 
-0.6032860051951646 1:180 2:313 
-1 1:182 2:400 
-0.4955699634151582 1:186 2:328 
-0.7143540080530815 1:188 2:330 
-0.5669271082241492 1:194 2:359 
-1 1:196 2:400 
-0.6186431311295881 1:206 2:393 
-1 1:102 2:387 
-1 1:106 2:376 
-1 1:110 2:400 
-1 1:116 2:375 
-0.9964649084795735 1:118 2:354 
-0.000788621630840397 1:120 2:327 
-0.2976862626252397 1:122 2:278 
-1 1:124 2:400 
-1 1:126 2:345 
-0.9787477826563303 1:128 2:350 
-1 1:130 2:315 
-0.1806882874840615 1:132 2:326 
-1 1:134 2:331 
-0.3486528045338746 1:136 2:309 
-1 1:138 2:400 
-0.02676617711751581 1:140 2:311 
-0.4822893821951128 1:142 2:280 
-0.9292960744701511 1:144 2:224 
-0.8549289279948142 1:146 2:101 
-0.5723322117377523 1:148 2:261 
-0.7349996605044855 1:150 2:281 
-1 1:152 2:400 
-0.5621189758450703 1:154 2:266 
-0.012477062180069 1:156 2:191 
-1 1:158 2:252 
-1 1:166 2:400 
-0.3493368490613402 1:170 2:87 
-0.1124629161974966 1:172 2:168 
-0.7966637341432525 1:174 2:81 
-1 1:176 2:260 
-0.8460612316857491 1:178 2:302 
-0.529036138940204 1:180 2:306 
-1 1:182 2:400 
-0.8107668320338935 1:184 2:321 
-0.6176270363978765 1:186 2:322 
-0.3034076033171107 1:188 2:325 
-0.6367877005442737 1:190 2:336 
-0.5497986815444666 1:192 2:349 
-0.6513401877413669 1:194 2:357 
-1 1:196 2:400 
-0.663866433816482 1:198 2:368 
-0.09442807256325635 1:200 2:370 
-0.4886155464664236 1:202 2:378 
-0.705974103505839 1:204 2:387 
-1 1:102 2:386 
-1 1:106 2:376 
-0.1086069763517646 1:108 2:378 
-1 1:110 2:400 
-1 1:112 2:380 
-0.4697306366184135 1:114 2:376 
-0.9331004997340314 1:116 2:373 
-1 1:118 2:341 
-1 1:120 2:341 
-1 1:122 2:291 
-1 1:124 2:400 
-0.4305728105030334 1:126 2:347 
-1 1:128 2:355 
-0.01430122515245289 1:130 2:312 
-1 1:132 2:326 
-1 1:136 2:314 
-1 1:138 2:400 
-0.4636938614926847 1:142 2:289 
-0.9637178433522453 1:144 2:235 
-0.8636538919213065 1:146 2:109 
-0.7489269440482894 1:148 2:278 
-1 1:152 2:400 
-0.7979667169895905 1:154 2:273 
-0.6247508151430272 1:156 2:202 
-0.133064618805932 1:158 2:262 
-0.6628553525159497 1:160 2:200 
-0.3775276175127884 1:162 2:255 
-1 1:166 2:400 
-0.4770590632182811 1:168 2:239 
-0.5806668721097861 1:172 2:182 
-0.8856700671860347 1:174 2:101 
-0.7969192266084186 1:176 2:276 
-0.6857511644379599 1:178 2:306 
-0.8568742217323332 1:180 2:316 
-1 1:182 2:400 
-0.4927700231607022 1:186 2:329 
-0.1163420134983725 1:188 2:326 
-0.4021131011458914 1:190 2:340 
-0.2738175842185134 1:192 2:351 
-0.5627256702212738 1:194 2:362 
-1 1:196 2:400 
-0.08618586118203922 1:198 2:367 
-0.7676495849860647 1:200 2:374 
-0.8085730225364894 1:202 2:383 
-1 1:102 2:388 
-0.4491070041647134 1:104 2:374 
-1 1:108 2:378 
-1 1:110 2:400 
-0.6967709098832018 1:114 2:378 
-0.5837337382669404 1:116 2:376 
-1 1:118 2:346 
-1 1:120 2:342 
-1 1:122 2:285 
-1 1:124 2:400 
-1 1:128 2:355 
-1 1:130 2:311 
-1 1:132 2:328 
-1 1:134 2:341 
-1 1:138 2:400 
-1 1:140 2:320 
-0.2906182314615865 1:142 2:300 
-0.9077856829750478 1:144 2:272 
-0.5384209825850276 1:146 2:134 
-0.1504551958250411 1:148 2:269 
-0.7278275811810937 1:150 2:288 
-1 1:152 2:400 
-0.9427223942906028 1:154 2:284 
-0.5628353298522283 1:156 2:214 
-0.4868390000300312 1:158 2:258 
-0.5446759604542012 1:160 2:196 
-0.8245329821775511 1:162 2:259 
-0.4821180135689755 1:164 2:267 
-1 1:166 2:400 
-0.01448789409084885 1:168 2:253 
-1 1:172 2:204 
-0.3165856805138241 1:174 2:89 
-0.3118831249668259 1:176 2:254 
-0.9928430855110775 1:178 2:298 
-0.4008498975216264 1:180 2:312 
-1 1:182 2:400 
-0.810957182078703 1:184 2:325 
-0.6329886682978231 1:188 2:327 
-0.6035353795755906 1:190 2:341 
-0.6769201460891819 1:192 2:347 
-0.526514033788588 1:194 2:355 
-1 1:196 2:400 
-0.4105621317080086 1:198 2:366 
-0.3337897615121246 1:200 2:368 
-0.4721904432593547 1:202 2:379 
-0.3767355510904465 1:204 2:385 
-0.3912745248933742 1:206 2:392 
-1 1:98 2:393 
-1 1:100 2:386 
-1 1:102 2:386 
-1 1:106 2:376 
-0.9090864106497857 1:108 2:373 
-1 1:110 2:400 
-0.451118483854913 1:112 2:375 
-0.5811868402079607 1:114 2:372 
-1 1:116 2:368 
-0.5690768290125331 1:118 2:337 
-0.9998081556156555 1:120 2:333 
-1 1:122 2:292 
-1 1:124 2:400 
-1 1:126 2:354 
-1 1:128 2:360 
-0.5261193054996984 1:130 2:311 
-1 1:132 2:330 
-0.519131651143802 1:134 2:337 
-0.6316353167914548 1:136 2:327 
-1 1:138 2:400 
-1 1:140 2:337 
-1 1:142 2:332 
-1 1:144 2:305 
-0.394528711711517 1:150 2:283 
-1 1:152 2:400 
-1 1:154 2:264 
-0.3821815702360197 1:156 2:154 
-1 1:158 2:252 
-0.8542841831139455 1:160 2:208 
-0.01661052477303067 1:162 2:249 
-0.150412981647011 1:164 2:259 
-1 1:166 2:400 
-0.1088583733098232 1:168 2:243 
-0.9906392254370066 1:170 2:104 
-0.786606890680968 1:172 2:214 
-1 1:174 2:97 
-0.4620428088114766 1:176 2:245 
-1 1:178 2:283 
-1 1:180 2:301 
-1 1:182 2:400 
-0.8123869055852484 1:184 2:315 
-0.624490620184078 1:186 2:324 
-0.3621848641807093 1:188 2:324 
-0.5611651997872974 1:192 2:344 
-0.5290079172771183 1:194 2:346 
-1 1:196 2:400 
-0.5778759319407816 1:202 2:370 
-0.4508710742475991 1:204 2:384 
-0.6287269551700917 1:206 2:388 
-0.04261095108763722 1:98 2:395 
-1 1:102 2:385 
-0.1043718918386765 1:104 2:373 
-1 1:110 2:400 
-0.3127901105051853 1:114 2:370 
-1 1:116 2:367 
-1 1:120 2:358 
-0.7570106586525165 1:122 2:324 
-1 1:124 2:400 
-1 1:126 2:358 
-1 1:128 2:361 
-1 1:130 2:322 
-1 1:132 2:332 
-0.4090499653105447 1:134 2:326 
-1 1:138 2:400 
-1 1:140 2:341 
-1 1:142 2:342 
-0.5519247037588879 1:144 2:325 
-1 1:146 2:259 
-1 1:148 2:316 
-0.01127404620240636 1:150 2:310 
-1 1:152 2:400 
-0.00203481019656322 1:154 2:301 
-1 1:156 2:216 
-1 1:158 2:263 
-0.07053607147610745 1:160 2:201 
-1 1:162 2:253 
-1 1:166 2:400 
-0.6254668840342495 1:168 2:255 
-1 1:170 2:133 
-0.5513061327163751 1:172 2:216 
-0.9982499345898308 1:174 2:114 
-1 1:176 2:246 
-1 1:178 2:278 
-1 1:180 2:277 
-1 1:182 2:400 
-1 1:184 2:288 
-0.5920482726151653 1:188 2:322 
-0.5511042967428219 1:190 2:333 
-0.4436768439575448 1:192 2:343 
-0.7022147175201104 1:194 2:353 
-1 1:196 2:400 
-0.8633448576479684 1:198 2:357 
-0.6008109211431027 1:200 2:362 
-0.5477751492881012 1:202 2:367 
-0.6534724480439635 1:204 2:376 
-0.4988909483297638 1:206 2:381 
-0.001768227400871925 1:98 2:397 
-0.2967401413869625 1:100 2:390 
-1 1:102 2:386 
-0.6097163011655243 1:104 2:376 
-1 1:110 2:400 
-0.06552768275048533 1:112 2:379 
-0.5748598554801309 1:114 2:371 
-0.8509124102513516 1:116 2:366 
-0.7585775738238223 1:118 2:328 
-1 1:120 2:359 
-1 1:122 2:340 
-1 1:124 2:400 
-0.4811657621840952 1:126 2:359 
-1 1:128 2:355 
-0.7976512080528008 1:130 2:324 
-1 1:132 2:330 
-0.8904210386388626 1:134 2:328 
-0.5018653672766051 1:136 2:337 
-1 1:138 2:400 
-1 1:140 2:340 
-1 1:142 2:340 
-0.8254589406536802 1:144 2:326 
-1 1:146 2:247 
-1 1:148 2:331 
-1 1:150 2:339 
-1 1:152 2:400 
-1 1:154 2:328 
-1 1:156 2:239 
-1 1:160 2:235 
-0.8448922602474932 1:162 2:289 
-0.6978366773430944 1:164 2:271 
-1 1:166 2:400 
-1 1:168 2:263 
-0.00333022469521696 1:170 2:123 
-1 1:172 2:212 
-1 1:174 2:142 
-0.9593073908254314 1:176 2:222 
-1 1:178 2:261 
-1 1:180 2:275 
-1 1:182 2:400 
-1 1:184 2:272 
-0.9107232268097973 1:186 2:292 
-0.860596527088043 1:188 2:305 
-0.09599503017703534 1:190 2:325 
-0.9271731130023204 1:192 2:336 
-0.001616352314500802 1:194 2:347 
-1 1:196 2:400 
-0.3784660629894972 1:198 2:351 
-0.2716178415254715 1:200 2:352 
-0.4934647644586857 1:202 2:364 
-0.657101311847081 1:204 2:371 
-0.4744579305093384 1:206 2:378 
-1 1:100 2:392 
-0.3521096285917708 1:102 2:382 
-0.4354206236755105 1:104 2:372 
-0.6252328072506873 1:106 2:378 
-1 1:110 2:400 
-1 1:112 2:373 
-0.8153755633633863 1:116 2:367 
-1 1:120 2:362 
-0.7543966967776894 1:122 2:327 
-1 1:124 2:400 
-1 1:126 2:362 
-1 1:128 2:354 
-1 1:130 2:319 
-0.9141663366838746 1:132 2:335 
-1 1:134 2:319 
-0.542070971360457 1:136 2:331 
-1 1:138 2:400 
-1 1:140 2:346 
-1 1:142 2:339 
-1 1:144 2:335 
-0.8166886491474075 1:146 2:205 
-1 1:148 2:335 
-1 1:150 2:342 
-1 1:152 2:400 
-0.8646488302475227 1:154 2:337 
-0.0005711062176136789 1:156 2:276 
-0.528818913453167 1:158 2:306 
-0.8640202912898586 1:160 2:226 
-0.5395154595897008 1:162 2:290 
-1 1:164 2:303 
-1 1:166 2:400 
-1 1:168 2:284 
-0.90842521715951 1:170 2:144 
-0.3652481329585567 1:172 2:233 
-0.3015940969435367 1:174 2:86 
-0.5946112603561426 1:176 2:218 
-1 1:180 2:269 
-1 1:182 2:400 
-1 1:184 2:273 
-0.3088818245066282 1:186 2:251 
-1 1:188 2:283 
-0.6748619101949657 1:190 2:321 
-0.720093234056533 1:192 2:333 
-1 1:194 2:341 
-1 1:196 2:400 
-1 1:198 2:344 
-0.6082106667230404 1:200 2:353 
-0.2896590044473881 1:202 2:363 
-0.00465814792947045 1:204 2:363 
-0.4863754373445904 1:206 2:377 
-1 1:98 2:393 
-1 1:100 2:388 
-0.5922340942930123 1:104 2:366 
-0.0188127705366302 1:106 2:371 
-0.006334938728684727 1:108 2:376 
-1 1:110 2:400 
-1 1:112 2:370 
-0.4263455118672365 1:114 2:363 
-1 1:116 2:359 
-0.9059199166432451 1:118 2:325 
-1 1:120 2:353 
-0.510350112364231 1:122 2:321 
-1 1:124 2:400 
-1 1:126 2:359 
-1 1:128 2:348 
-0.1137166683297566 1:130 2:313 
-1 1:132 2:326 
-1 1:134 2:308 
-0.9985076673871062 1:136 2:323 
-1 1:138 2:400 
-1 1:140 2:342 
-1 1:142 2:331 
-1 1:144 2:318 
-0.7450878170703068 1:146 2:212 
-1 1:148 2:327 
-1 1:150 2:340 
-1 1:152 2:400 
-1 1:154 2:330 
-0.6465424706200701 1:156 2:268 
-0.4630320868641108 1:158 2:296 
-1 1:160 2:245 
-0.7759951993120985 1:162 2:262 
-0.5532080164408276 1:164 2:296 
-1 1:166 2:400 
-1 1:168 2:277 
-1 1:172 2:196 
-0.02958240097216375 1:174 2:61 
-0.9008355619909367 1:176 2:185 
-0.0005296226505937252 1:178 2:243 
-1 1:180 2:262 
-1 1:182 2:400 
-1 1:184 2:257 
-1 1:186 2:244 
-1 1:188 2:276 
-0.06428973990058279 1:190 2:314 
-0.3598274386878408 1:194 2:339 
-1 1:196 2:400 
-0.4119547528395228 1:198 2:345 
-0.4598554401351942 1:202 2:353 
-0.6013249169161312 1:204 2:364 
-1 1:98 2:386 
-1 1:100 2:381 
-1 1:102 2:368 
-1 1:104 2:360 
-0.03781875731593866 1:106 2:366 
-1 1:110 2:400 
-0.6575537375822066 1:112 2:356 
-0.00198834343759817 1:114 2:355 
-0.006084094550408523 1:116 2:349 
-0.5906484393013589 1:120 2:348 
-1 1:122 2:311 
-1 1:124 2:400 
-0.5829930820630337 1:126 2:350 
-1 1:128 2:342 
-1 1:130 2:296 
-1 1:132 2:324 
-1 1:134 2:298 
-1 1:138 2:400 
-1 1:140 2:332 
-1 1:142 2:334 
-1 1:144 2:309 
-0.6707699196977036 1:146 2:194 
-1 1:148 2:315 
-1 1:150 2:332 
-1 1:152 2:400 
-1 1:154 2:319 
-0.9842491259898741 1:156 2:246 
-0.8333792463096966 1:158 2:286 
-0.8542466544021476 1:160 2:217 
-1 1:162 2:246 
-1 1:166 2:400 
-0.7589249809629709 1:168 2:245 
-0.7250259725959622 1:170 2:119 
-1 1:172 2:199 
-0.6445138989238828 1:174 2:78 
-1 1:182 2:400 
-0.582663484470618 1:186 2:238 
-1 1:188 2:263 
-1 1:192 2:318 
-1 1:194 2:333 
-1 1:196 2:400 
-1 1:198 2:340 
-0.004646988807667368 1:202 2:349 
-0.2685766311662665 1:204 2:360 
-0.3317520156158209 1:206 2:370 
-1 1:98 2:391 
-0.0303896457657096 1:100 2:384 
-0.9209426790342106 1:102 2:367 
-1 1:104 2:362 
-0.0450459301205587 1:108 2:367 
-1 1:110 2:400 
-0.1068503266127467 1:116 2:342 
-0.9256115756876684 1:118 2:298 
-0.02917033965507409 1:120 2:335 
-1 1:124 2:400 
-0.8677382395465526 1:126 2:335 
-1 1:128 2:337 
-1 1:130 2:289 
-0.5906304744991531 1:132 2:321 
-1 1:134 2:294 
-1 1:138 2:400 
-1 1:140 2:328 
-1 1:142 2:328 
-1 1:144 2:305 
-0.03275470822798439 1:146 2:188 
-1 1:148 2:320 
-1 1:150 2:321 
-1 1:152 2:400 
-1 1:154 2:308 
-1 1:156 2:229 
-0.005108777688096172 1:158 2:274 
-0.0006584133135807135 1:164 2:273 
-1 1:166 2:400 
-0.06211688878492247 1:170 2:112 
-1 1:172 2:225 
-1 1:174 2:106 
-0.5620085155429804 1:176 2:179 
-0.09412475500655093 1:178 2:241 
-1 1:182 2:400 
-1 1:184 2:260 
-1 1:186 2:247 
-0.2885607876248607 1:188 2:273 
-1 1:190 2:299 
-1 1:192 2:316 
-1 1:194 2:333 
-1 1:196 2:400 
-1 1:198 2:337 
-0.6660780541317355 1:200 2:347 
-0.7185525531299602 1:202 2:351 
-0.4445701403613637 1:204 2:359 
-0.07258229097983961 1:206 2:371 
-1 1:98 2:385 
-1 1:100 2:381 
-1 1:102 2:362 
-1 1:104 2:362 
-1 1:106 2:362 
-1 1:110 2:400 
-0.6758669446631167 1:112 2:358 
-0.02530550779728499 1:114 2:346 
-0.04179972187372951 1:116 2:346 
-0.8542339099532594 1:118 2:292 
-1 1:122 2:300 
-1 1:124 2:400 
-0.3496661145820665 1:128 2:326 
-1 1:130 2:280 
-1 1:132 2:310 
-1 1:134 2:288 
-1 1:136 2:309 
-1 1:138 2:400 
-1 1:140 2:326 
-1 1:142 2:325 
-1 1:144 2:308 
-0.4284023528629318 1:146 2:174 
-1 1:148 2:314 
-1 1:150 2:319 
-1 1:152 2:400 
-0.03635844442485941 1:154 2:300 
-1 1:156 2:222 
-1 1:158 2:272 
-0.002519519789786914 1:162 2:244 
-0.0464490994597385 1:164 2:276 
-1 1:166 2:400 
-0.7761488534578542 1:168 2:222 
-1 1:170 2:119 
-0.3607321366931414 1:174 2:95 
-0.6350699616232053 1:176 2:174 
-1 1:178 2:235 
-0.04991039708015949 1:180 2:260 
-1 1:182 2:400 
-1 1:184 2:250 
-1 1:188 2:268 
-0.01636122014042293 1:190 2:291 
-1 1:192 2:321 
-1 1:194 2:331 
-1 1:196 2:400 
-0.2489865261012794 1:200 2:346 
-0.04294866506466045 1:202 2:349 
-0.4503028785264337 1:204 2:362 
-0.06365644839516355 1:206 2:367 
-1 1:98 2:388 
-1 1:100 2:376 
-1 1:102 2:364 
-1 1:104 2:354 
-1 1:106 2:360 
-0.9558057714913875 1:108 2:363 
-1 1:110 2:400 
-0.07802144606726069 1:116 2:346 
-0.7302689986057086 1:120 2:322 
-1 1:122 2:303 
-1 1:124 2:400 
-1 1:126 2:316 
-0.9364374393736412 1:128 2:300 
-0.7703777635368376 1:130 2:250 
-1 1:132 2:297 
-0.5872697533418813 1:134 2:281 
-1 1:136 2:304 
-1 1:138 2:400 
-1 1:140 2:316 
-1 1:142 2:322 
-1 1:144 2:297 
-1 1:148 2:309 
-1 1:150 2:319 
-1 1:152 2:400 
-0.345958042789201 1:154 2:295 
-1 1:156 2:214 
-1 1:158 2:267 
-1 1:162 2:242 
-0.662127544345443 1:164 2:277 
-1 1:166 2:400 
-0.5352157795107005 1:170 2:104 
-0.4930192965544977 1:172 2:219 
-1 1:174 2:84 
-0.7386650544367487 1:176 2:181 
-1 1:180 2:263 
-1 1:182 2:400 
-0.636163568723915 1:184 2:251 
-1 1:186 2:258 
-1 1:188 2:262 
-1 1:192 2:313 
-1 1:194 2:326 
-1 1:196 2:400 
-0.6316519746314346 1:198 2:341 
-1 1:200 2:342 
-0.8518274533901649 1:204 2:357 
-0.1317481438581667 1:206 2:365 
-0.01526242836282894 1:98 2:395 
-0.4802415361323821 1:104 2:368 
-1 1:108 2:370 
-1 1:110 2:400 
-0.4881680033097986 1:114 2:346 
-0.0637851173867206 1:116 2:344 
-0.2634916024275065 1:120 2:328 
-0.7086119446545621 1:122 2:314 
-1 1:124 2:400 
-0.1074849528336903 1:126 2:328 
-0.1597993150868873 1:128 2:313 
-0.7668514485085304 1:132 2:270 
-0.002409856865436988 1:134 2:268 
-1 1:136 2:291 
-1 1:138 2:400 
-0.5516368639180276 1:140 2:311 
-1 1:142 2:314 
-1 1:144 2:300 
-0.7726551094815848 1:146 2:186 
-0.9335869500636099 1:148 2:305 
-0.09429955041634047 1:150 2:323 
-1 1:152 2:400 
-1 1:156 2:216 
-0.7621679142815138 1:158 2:274 
-0.6637034617280567 1:160 2:182 
-0.7067873935935 1:162 2:249 
-1 1:164 2:281 
-1 1:166 2:400 
-1 1:170 2:98 
-1 1:172 2:224 
-0.0314955108067547 1:174 2:87 
-0.651079679800475 1:176 2:173 
-0.4272237383033515 1:178 2:232 
-1 1:180 2:268 
-1 1:182 2:400 
-0.9864391052658997 1:184 2:253 
-1 1:186 2:255 
-1 1:188 2:268 
-1 1:190 2:278 
-1 1:192 2:309 
-0.1251487474774765 1:194 2:320 
-1 1:196 2:400 
-1 1:198 2:337 
-1 1:200 2:338 
-0.06267045036098012 1:202 2:345 
-0.4786675312295859 1:204 2:352 
-0.02484253991477299 1:206 2:367 
-0.9882889474799095 1:102 2:371 
-1 1:104 2:360 
-0.2897069959590577 1:106 2:366 
-0.6821225492178838 1:108 2:365 
-1 1:110 2:400 
-0.6880631022855309 1:114 2:342 
-1 1:120 2:318 
-1 1:124 2:400 
-1 1:126 2:326 
-0.9987798616432779 1:128 2:313 
-0.6383874553771529 1:130 2:254 
-0.6027280026939154 1:134 2:243 
-0.004006986688722541 1:136 2:264 
-1 1:138 2:400 
-0.3983483062577509 1:140 2:292 
-0.005073741140318319 1:142 2:305 
-0.3053954366884299 1:144 2:285 
-1 1:148 2:302 
-0.1583170866038691 1:150 2:315 
-1 1:152 2:400 
-0.8634856954130632 1:154 2:289 
-0.309099367705675 1:158 2:270 
-0.8762464868089356 1:162 2:241 
-0.0646311553409597 1:164 2:255 
-1 1:166 2:400 
-0.9250568194623476 1:168 2:229 
-0.05012573048681036 1:170 2:80 
-1 1:172 2:198 
-0.7749841105780276 1:174 2:37 
-1 1:176 2:166 
-0.6133517985834551 1:178 2:227 
-0.9928812117159772 1:180 2:251 
-1 1:182 2:400 
-0.09248818496848521 1:184 2:246 
-0.0007397452158474926 1:186 2:246 
-1 1:190 2:270 
-1 1:192 2:293 
-0.2613759470072132 1:194 2:315 
-1 1:196 2:400 
-0.03208980056302661 1:198 2:321 
-0.5327587897112539 1:206 2:367 
-0.1333478032582429 1:100 2:385 
-1 1:102 2:376 
-0.7625822891462962 1:104 2:359 
-0.09847437824063345 1:108 2:372 
-1 1:110 2:400 
-0.2434462239613635 1:112 2:362 
-0.2007247444031714 1:114 2:347 
-0.1710352674409914 1:116 2:340 
-0.0218318238210601 1:120 2:321 
-1 1:124 2:400 
-1 1:126 2:323 
-1 1:128 2:323 
-0.7093366813277997 1:132 2:252 
-0.002694716848434406 1:134 2:236 
-0.0006565792456586922 1:136 2:266 
-1 1:138 2:400 
-0.5933345711453782 1:144 2:294 
-0.8542780057227625 1:146 2:158 
-1 1:152 2:400 
-0.1418982660021726 1:154 2:294 
-1 1:156 2:198 
-0.7132305978248492 1:160 2:185 
-0.4630603719127105 1:162 2:244 
-1 1:166 2:400 
-0.006532352791579446 1:170 2:86 
-1 1:172 2:201 
-1 1:176 2:139 
-1 1:180 2:248 
-1 1:182 2:400 
-0.7383631481344874 1:184 2:253 
-0.1850897437442764 1:188 2:258 
-1 1:190 2:272 
-0.6409506484764402 1:192 2:287 
-0.723087132634611 1:194 2:314 
-1 1:196 2:400 
-0.2287154916182495 1:200 2:328 
-1 1:202 2:331 
-1 1:204 2:347 
-0.930808276307075 1:206 2:359 
-1 1:100 2:388 
-0.7653680413259297 1:102 2:377 
-0.2901747508497972 1:106 2:373 
-0.6260387109747984 1:108 2:376 
-1 1:110 2:400 
-0.1084305093565747 1:114 2:355 
-0.100421159200206 1:116 2:344 
-0.4298146028912415 1:120 2:331 
-1 1:124 2:400 
-0.3786081560621468 1:126 2:334 
-1 1:128 2:329 
-0.7364569831343475 1:130 2:272 
-0.7525766726604058 1:132 2:262 
-0.5996460701985684 1:134 2:253 
-0.6994240290763514 1:136 2:266 
-1 1:138 2:400 
-0.05463583682086363 1:140 2:294 
-1 1:142 2:317 
-1 1:144 2:296 
-0.09555872192002371 1:146 2:175 
-1 1:148 2:303 
-0.81244729274741 1:150 2:325 
-1 1:152 2:400 
-1 1:154 2:304 
-1 1:156 2:221 
-0.4838283569645008 1:160 2:201 
-1 1:162 2:262 
-0.6254395711478387 1:164 2:273 
-1 1:166 2:400 
-0.4413062378494316 1:170 2:115 
-0.2586610502133707 1:172 2:217 
-0.8543601381165068 1:174 2:67 
-0.5950516076909856 1:176 2:183 
-0.7759031346020402 1:178 2:243 
-1 1:180 2:261 
-1 1:182 2:400 
-1 1:184 2:266 
-1 1:186 2:257 
-1 1:188 2:273 
-1 1:190 2:286 
-0.3104437411582025 1:192 2:304 
-0.7107077519699757 1:194 2:321 
-1 1:196 2:400 
-0.232030453647409 1:198 2:326 
-1 1:200 2:333 
-0.3930869163675416 1:202 2:345 
-1 1:204 2:351 
-0.2833180341287301 1:206 2:365 
-0.09748962306147708 1:100 2:384 
-0.5310164275524224 1:106 2:371 
-1 1:110 2:400 
-0.735384492239326 1:112 2:360 
-0.8155034108156338 1:120 2:322 
-0.4809242339404759 1:122 2:293 
-1 1:124 2:400 
-1 1:128 2:323 
-0.139172040648898 1:130 2:256 
-0.8625805792755574 1:132 2:223 
-1 1:138 2:400 
-0.6630352321097144 1:140 2:290 
-0.9047840585434576 1:142 2:305 
-0.8546000601665469 1:146 2:152 
-0.3539657452067617 1:148 2:292 
-1 1:150 2:315 
-1 1:152 2:400 
-0.8818317286063831 1:156 2:180 
-0.5674138779867443 1:160 2:174 
-0.6236453085846566 1:162 2:251 
-1 1:164 2:263 
-1 1:166 2:400 
-0.8586099775850931 1:170 2:77 
-0.5369481854260361 1:174 2:26 
-1 1:176 2:162 
-0.007131169237570972 1:178 2:219 
-0.6275297284597154 1:180 2:252 
-1 1:182 2:400 
-0.4971528013735467 1:184 2:242 
-0.2572014131352947 1:186 2:241 
-0.4897699190279137 1:188 2:256 
-1 1:190 2:274 
-1 1:192 2:290 
-0.8077968213668204 1:194 2:312 
-1 1:196 2:400 
-1 1:198 2:313 
-1 1:202 2:333 
-1 1:204 2:344 
-0.3014744978322395 1:206 2:360 
-0.2086180399639688 1:98 2:395 
-0.7263953123917598 1:100 2:383 
-0.425836419311622 1:108 2:375 
-1 1:110 2:400 
-0.09088107816656286 1:112 2:359 
-0.4190741551440439 1:116 2:341 
-0.4434861027266501 1:120 2:324 
-1 1:122 2:305 
-1 1:124 2:400 
-0.7503671815102486 1:126 2:335 
-0.05522596878900428 1:128 2:311 
-0.6755100347711861 1:130 2:245 
-0.7513294500213579 1:132 2:211 
-1 1:138 2:400 
-1 1:142 2:311 
-0.8448742602146301 1:146 2:155 
-0.302496611294364 1:148 2:298 
-1 1:150 2:315 
-1 1:152 2:400 
-1 1:156 2:199 
-1 1:158 2:273 
-0.6804120291780833 1:160 2:169 
-1 1:162 2:255 
-0.286495927117081 1:164 2:255 
-1 1:166 2:400 
-0.7538050740300648 1:168 2:243 
-0.3603586609150474 1:170 2:80 
-0.3248711875594665 1:172 2:190 
-0.3733823162559864 1:174 2:47 
-0.8846634213824877 1:176 2:177 
-1 1:180 2:250 
-1 1:182 2:400 
-0.7296073975442382 1:184 2:244 
-1 1:186 2:241 
-0.209867238876262 1:188 2:259 
-0.5825698142329339 1:192 2:300 
-1 1:194 2:312 
-1 1:196 2:400 
-0.07338927392829175 1:198 2:321 
-0.7188781828068185 1:202 2:337 
-1 1:204 2:347 
-0.2150066693776354 1:206 2:364 
-1 1:100 2:387 
-1 1:106 2:369 
-1 1:108 2:369 
-1 1:110 2:400 
-1 1:112 2:375 
-0.5823488352529924 1:114 2:344 
-0.1600873004156355 1:120 2:323 
-1 1:122 2:307 
-1 1:124 2:400 
-1 1:128 2:326 
-0.02477689871010041 1:130 2:237 
-0.8635843389440065 1:132 2:185 
-0.8642599981666788 1:134 2:275 
-0.7628213162826404 1:136 2:264 
-1 1:138 2:400 
-0.6878621600109623 1:140 2:299 
-1 1:142 2:308 
-0.418516366230175 1:146 2:173 
-0.8510188822000913 1:150 2:310 
-0.8572493313827694 1:152 2:400 
-1 1:154 2:304 
-0.4296048501382134 1:156 2:200 
-0.7786484715903144 1:158 2:293 
-1 1:160 2:158 
-0.4503693731068006 1:162 2:257 
-0.5781382461307799 1:164 2:253 
-0.8572379748965592 1:166 2:400 
-0.8635876603789321 1:170 2:71 
-0.8057748424119787 1:172 2:231 
-0.8637457570326379 1:174 2:0 
-0.856921399212703 1:182 2:400 
-1 1:184 2:266 
-0.4981745634339175 1:186 2:246 
-0.5423720599110858 1:188 2:254 
-0.4976834191883743 1:192 2:285 
-1 1:194 2:324 
-0.85683680198941 1:196 2:400 
-1 1:202 2:326 
-0.4400163726816039 1:204 2:354 
-0.5472428270599365 1:206 2:369 
-1 1:100 2:390 
-0.532781258876271 1:102 2:380 
-0.2469534603522006 1:108 2:372 
-0.857214728356575 1:110 2:400 
-0.1351911917591216 1:112 2:378 
-0.6874807065167849 1:118 2:298 
-0.6043287109977679 1:120 2:320 
-1 1:122 2:303 
-0.8569804919045271 1:124 2:400 
-0.4980941410076274 1:126 2:328 
-1 1:128 2:324 
-0.7726982400740082 1:130 2:258 
-0.5375922444720558 1:132 2:190 
-0.7129246772829556 1:136 2:244 
-0.8574112807947405 1:138 2:400 
-0.1313009244389955 1:140 2:291 
-0.3765594398850369 1:144 2:287 
-0.1096085287832841 1:146 2:172 
-1 1:150 2:306 
-1 1:152 2:400 
-0.9440059040747397 1:154 2:306 
-0.817819411254795 1:156 2:205 
-1 1:158 2:282 
-1 1:160 2:161 
-0.7305277869656635 1:164 2:250 
-1 1:166 2:400 
-0.6308782409201192 1:170 2:88 
-0.09499787560930426 1:172 2:200 
-0.8639012323073989 1:174 2:7 
-1 1:176 2:218 
-1 1:178 2:211 
-0.5209008907081243 1:180 2:260 
-1 1:182 2:400 
-1 1:184 2:256 
-1 1:186 2:248 
-0.9897234494233196 1:190 2:283 
-0.004025875306583739 1:192 2:287 
-1 1:194 2:321 
-1 1:196 2:400 
-0.8437307121468431 1:198 2:328 
-0.4388744053148693 1:200 2:326 
-0.1778123270824693 1:202 2:336 
-1 1:204 2:351 
-0.03190612994566595 1:206 2:365 
-0.103952530749419 1:98 2:397 
-0.7543646243393131 1:100 2:389 
-0.03839839183177026 1:102 2:380 
-0.09553248235513832 1:106 2:371 
-1 1:108 2:378 
-1 1:110 2:400 
-0.5723044301119792 1:114 2:353 
-0.7651444048760969 1:116 2:351 
-0.02697149830417681 1:122 2:312 
-1 1:124 2:400 
-0.3719657344605021 1:126 2:320 
-1 1:128 2:325 
-0.5922147656886629 1:130 2:264 
-0.1299334997054007 1:132 2:201 
-0.7324341254980693 1:134 2:258 
-0.7089473703645247 1:136 2:237 
-1 1:138 2:400 
-0.8061457403417716 1:140 2:287 
-0.9850785436553791 1:144 2:287 
-0.76068047751058 1:146 2:182 
-0.4140965792062244 1:148 2:298 
-1 1:152 2:400 
-1 1:154 2:311 
-0.06857825900833105 1:156 2:212 
-0.4828648254910665 1:158 2:290 
-0.05830628764051787 1:160 2:177 
-1 1:162 2:264 
-0.01719782984057913 1:164 2:253 
-1 1:166 2:400 
-0.7911323509485204 1:168 2:234 
-0.752827465930481 1:170 2:109 
-0.7792017215957605 1:172 2:189 
-0.6541615907101632 1:174 2:39 
-1 1:176 2:233 
-0.2059456963204321 1:178 2:224 
-1 1:180 2:262 
-1 1:182 2:400 
-1 1:184 2:258 
-0.086355515938999 1:186 2:259 
-1 1:188 2:269 
-1 1:190 2:288 
-0.2264993147481488 1:192 2:287 
-1 1:194 2:321 
-1 1:196 2:400 
-1 1:198 2:333 
-1 1:202 2:333 
-0.1959111717801089 1:204 2:349 
-0.001341534146322992 1:206 2:364 
-1 1:100 2:388 
-0.003795013054047836 1:102 2:380 
-1 1:104 2:359 
-0.1284520223912259 1:108 2:376 
-1 1:110 2:400 
-0.432944432969432 1:112 2:377 
-0.4868357610566491 1:114 2:351 
-1 1:116 2:348 
-0.6371769377085189 1:118 2:304 
-0.1551705647357175 1:120 2:327 
-1 1:122 2:301 
-0.997380588863463 1:124 2:400 
-1 1:128 2:309 
-0.4436350462830091 1:130 2:263 
-0.007860379941017667 1:132 2:236 
-0.7035430561591109 1:134 2:226 
-0.002209601583501142 1:136 2:214 
-1 1:138 2:400 
-0.8551134404584054 1:140 2:272 
-0.3865057823124115 1:142 2:292 
-0.7891722776863511 1:144 2:269 
-0.8557195758573397 1:146 2:168 
-0.5321616983501697 1:148 2:293 
-1 1:152 2:400 
-0.01359466085779093 1:154 2:298 
-0.9194355924956673 1:156 2:205 
-0.5508418967971224 1:158 2:285 
-0.7718212787175194 1:160 2:167 
-1 1:162 2:255 
-0.1965079329278199 1:164 2:254 
-1 1:166 2:400 
-0.8340894501499221 1:168 2:226 
-0.9411124475622177 1:170 2:85 
-1 1:172 2:170 
-0.6285210618419648 1:174 2:48 
-0.19049053474905 1:176 2:220 
-0.7148885630058811 1:178 2:217 
-1 1:180 2:264 
-1 1:182 2:400 
-0.03921796346699523 1:184 2:241 
-1 1:186 2:247 
-1 1:188 2:261 
-0.8369320250471656 1:190 2:282 
-0.1308996511351722 1:192 2:281 
-0.6346408288253905 1:194 2:319 
-1 1:196 2:400 
-0.05246846418514694 1:198 2:327 
-1 1:200 2:322 
-1 1:202 2:332 
-1 1:204 2:351 
-0.01070426695228952 1:98 2:394 
-1 1:100 2:388 
-0.384405495373596 1:102 2:381 
-1 1:104 2:362 
-1 1:106 2:369 
-1 1:108 2:376 
-1 1:110 2:400 
-0.920767472954292 1:112 2:381 
-0.1032840301853305 1:116 2:353 
-0.6623636554174268 1:120 2:336 
-0.6794412431366473 1:122 2:307 
-1 1:124 2:400 
-0.6256118478760798 1:126 2:330 
-0.01853813302242455 1:128 2:320 
-1 1:130 2:276 
-0.385191604102449 1:132 2:245 
-0.3747328790517294 1:134 2:228 
-0.86123133752192 1:136 2:214 
-1 1:138 2:400 
-0.5591836181131515 1:140 2:282 
-0.8311579442809005 1:144 2:281 
-0.02520297627207724 1:146 2:180 
-0.333700681017996 1:148 2:295 
-1 1:150 2:309 
-1 1:152 2:400 
-1 1:154 2:304 
-0.6320584793580084 1:156 2:219 
-1 1:158 2:293 
-0.6613614621501762 1:160 2:176 
-1 1:162 2:260 
-1 1:166 2:400 
-0.9939841448896973 1:168 2:247 
-0.05343733134711395 1:170 2:107 
-1 1:172 2:192 
-0.7750908062197415 1:174 2:41 
-1 1:176 2:238 
-1 1:180 2:267 
-1 1:182 2:400 
-0.4602065972168233 1:184 2:255 
-1 1:186 2:254 
-1 1:188 2:270 
-1 1:190 2:287 
-1 1:192 2:283 
-1 1:194 2:318 
-1 1:196 2:400 
-1 1:198 2:332 
-0.1138025959456119 1:200 2:328 
-0.6529191539373945 1:202 2:334 
-1 1:204 2:347 
-0.165425943527728 1:206 2:366 
-1 1:100 2:390 
-1 1:102 2:381 
-1 1:108 2:371 
-1 1:110 2:400 
-1 1:114 2:351 
-0.8421643265475477 1:118 2:312 
-0.06379535603341027 1:120 2:331 
-1 1:124 2:400 
-1 1:126 2:321 
-0.5936723890873653 1:128 2:316 
-0.918728939859662 1:130 2:272 
-0.6958725041081955 1:132 2:236 
-0.5256047607250245 1:134 2:229 
-0.8639424402281234 1:136 2:218 
-1 1:138 2:400 
-0.7940701370041043 1:144 2:276 
-0.7429030654102183 1:146 2:176 
-1 1:150 2:302 
-1 1:152 2:400 
-1 1:156 2:218 
-0.11685968714908 1:162 2:267 
-0.3869558755751508 1:164 2:257 
-1 1:166 2:400 
-0.8541153379645207 1:170 2:96 
-0.7659264787989787 1:172 2:179 
-0.8061627229565657 1:174 2:45 
-1 1:176 2:234 
-0.6551832510789513 1:178 2:222 
-1 1:180 2:261 
-1 1:182 2:400 
-1 1:186 2:255 
-1 1:188 2:265 
-0.8789647638111298 1:190 2:291 
-1 1:194 2:324 
-1 1:196 2:400 
-1 1:198 2:328 
-1 1:202 2:331 
-1 1:204 2:350 
-0.3273920996426729 1:206 2:362 
-0.9282285789570485 1:100 2:389 
-1 1:102 2:383 
-1 1:106 2:369 
-1 1:110 2:400 
-0.4925599949972082 1:112 2:379 
-0.08603525881153327 1:114 2:352 
-0.04199777139026079 1:122 2:293 
-1 1:124 2:400 
-0.4037745983872411 1:126 2:314 
-0.5321675009057313 1:130 2:256 
-0.8554592198199569 1:132 2:208 
-0.7551384156426574 1:134 2:241 
-0.8542939640866953 1:136 2:223 
-1 1:138 2:400 
-0.7632898347150123 1:140 2:275 
-0.003059163061478465 1:144 2:279 
-0.7623013059420504 1:148 2:291 
-1 1:150 2:303 
-1 1:152 2:400 
-0.5569882586375382 1:154 2:300 
-0.2096986474849722 1:156 2:215 
-1 1:158 2:290 
-0.8636133905287894 1:160 2:162 
-0.4605268396461449 1:162 2:257 
-0.2524977877353182 1:164 2:256 
-1 1:166 2:400 
-0.7497745640320422 1:170 2:81 
-0.5386508426394803 1:174 2:25 
-1 1:176 2:225 
-1 1:180 2:254 
-1 1:182 2:400 
-0.9930151033307686 1:188 2:254 
-1 1:190 2:290 
-1 1:196 2:400 
-1 1:202 2:329 
-0.202488734704139 1:206 2:360 
-1 1:100 2:390 
-0.007386316556792737 1:102 2:380 
-1 1:108 2:376 
-1 1:110 2:400 
-1 1:112 2:364 
-0.4601406903798784 1:116 2:345 
-1 1:122 2:295 
-1 1:124 2:400 
-0.5697987973388252 1:126 2:309 
-0.4728652207862503 1:128 2:320 
-0.7186748290018536 1:130 2:247 
-0.002445806049764289 1:132 2:201 
-0.3567663216895618 1:134 2:235 
-0.7429140713972517 1:136 2:226 
-1 1:138 2:400 
-0.67591398516808 1:140 2:279 
-0.8109469992067713 1:142 2:296 
-0.7649649575047328 1:144 2:279 
-1 1:150 2:295 
-1 1:152 2:400 
-0.5374076236596133 1:154 2:296 
-0.602118417381505 1:156 2:208 
-1 1:158 2:286 
-1 1:160 2:152 
-1 1:162 2:259 
-1 1:166 2:400 
-0.6818731252308834 1:172 2:168 
-0.8635699019405948 1:174 2:30 
-1 1:176 2:226 
-1 1:180 2:245 
-1 1:182 2:400 
-0.4143910032981214 1:186 2:237 
-1 1:190 2:288 
-0.2732448417799955 1:194 2:316 
-1 1:196 2:400 
-0.5030661685782263 1:202 2:328 
-1 1:204 2:346 
-1 1:100 2:390 
-1 1:106 2:366 
-1 1:108 2:373 
-1 1:110 2:400 
-1 1:112 2:366 
-1 1:118 2:309 
-1 1:122 2:293 
-1 1:124 2:400 
-1 1:126 2:314 
-1 1:128 2:320 
-0.5271664363670406 1:130 2:252 
-0.7751979504209785 1:132 2:199 
-0.6965249757108758 1:134 2:233 
-0.3247148753144588 1:136 2:246 
-1 1:138 2:400 
-0.3467428026362255 1:140 2:281 
-0.6143761355803055 1:144 2:284 
-0.3743032471083017 1:148 2:297 
-0.1735941229270407 1:150 2:305 
-1 1:152 2:400 
-1 1:154 2:302 
-0.3209371840327049 1:156 2:211 
-0.4691645770854999 1:158 2:295 
-0.267900325866237 1:160 2:173 
-1 1:162 2:261 
-1 1:166 2:400 
-0.6528600787632528 1:168 2:240 
-1 1:176 2:224 
-0.792359548407581 1:178 2:234 
-1 1:180 2:248 
-1 1:182 2:400 
-0.06642970867619702 1:184 2:252 
-0.6749544266271672 1:186 2:240 
-0.4023073147844699 1:188 2:260 
-0.6758634371734957 1:192 2:284 
-1 1:196 2:400 
-1 1:198 2:331 
-0.8047400976492297 1:202 2:327 
-0.2892273021408722 1:204 2:349 
-1 1:206 2:355 
-1 1:100 2:388 
-0.4903304167030953 1:104 2:364 
-1 1:108 2:372 
-1 1:110 2:400 
-1 1:112 2:367 
-0.7589932930596256 1:114 2:362 
-0.5407525229283687 1:116 2:347 
-0.7019628690602394 1:118 2:306 
-1 1:124 2:400 
-0.9966571559438094 1:126 2:320 
-1 1:128 2:315 
-0.5234080908096583 1:130 2:240 
-0.5219150247664361 1:132 2:201 
-0.4702802127922132 1:134 2:236 
-0.7070485437048827 1:136 2:232 
-1 1:138 2:400 
-0.6680790485514378 1:140 2:277 
-0.8482876471017119 1:144 2:290 
-0.7355560870657341 1:146 2:180 
-0.6293199013006243 1:148 2:300 
-0.518015188098231 1:150 2:296 
-1 1:152 2:400 
-0.724616389992033 1:154 2:293 
-0.4140934086623813 1:156 2:207 
-1 1:158 2:292 
-1 1:160 2:166 
-0.07614026052435723 1:162 2:251 
-0.2447865403854825 1:164 2:265 
-1 1:166 2:400 
-0.7697540890352871 1:168 2:236 
-0.7355540629992573 1:170 2:117 
-0.8008973970004671 1:176 2:223 
-0.4189435779744242 1:180 2:247 
-1 1:182 2:400 
-1 1:186 2:235 
-1 1:190 2:297 
-0.1492765669263104 1:192 2:286 
-0.3442122444873195 1:194 2:323 
-1 1:196 2:400 
-0.6232573377776014 1:198 2:325 
-1 1:200 2:322 
-1 1:202 2:327 
-1 1:204 2:349 
-1 1:206 2:357 
-0.7485453613560453 1:98 2:395 
-1 1:100 2:389 
-1 1:102 2:378 
-1 1:108 2:373 
-1 1:110 2:400 
-1 1:112 2:369 
-1 1:114 2:358 
-0.6990713874782176 1:118 2:314 
-1 1:122 2:299 
-1 1:124 2:400 
-1 1:126 2:320 
-1 1:128 2:313 
-0.08208939315535994 1:130 2:253 
-0.7620963283294712 1:132 2:213 
-0.01879801350518352 1:134 2:242 
-0.6649041748792789 1:136 2:234 
-1 1:138 2:400 
-0.7671824048668276 1:144 2:292 
-0.7266316032813157 1:146 2:171 
-1 1:148 2:300 
-1 1:150 2:300 
-1 1:152 2:400 
-0.9977301458644309 1:154 2:306 
-1 1:156 2:212 
-0.05787697307728439 1:158 2:298 
-1 1:160 2:165 
-1 1:166 2:400 
-0.871346338680036 1:170 2:123 
-1 1:172 2:196 
-0.6249475378467587 1:176 2:223 
-0.7579988966830609 1:180 2:242 
-1 1:182 2:400 
-0.5580780113207774 1:184 2:246 
-1 1:188 2:264 
-1 1:190 2:293 
-0.5617439703802853 1:192 2:282 
-0.7486422051106209 1:194 2:317 
-1 1:196 2:400 
-1 1:198 2:328 
-0.3096389159099074 1:200 2:328 
-1 1:202 2:330 
-1 1:204 2:349 
-1 1:206 2:359 
-1 1:100 2:388 
-0.6806355754388007 1:102 2:382 
-1 1:104 2:364 
-0.2058040417490182 1:108 2:377 
-1 1:110 2:400 
-1 1:112 2:373 
-1 1:114 2:357 
-0.8128892968046374 1:118 2:319 
-0.1284936022181291 1:120 2:330 
-1 1:122 2:301 
-1 1:124 2:400 
-1 1:126 2:320 
-0.6417319632106302 1:128 2:307 
-0.7751276420948402 1:132 2:203 
-0.5946974871206328 1:134 2:245 
-0.7449966873755309 1:136 2:229 
-1 1:138 2:400 
-0.7528654012949597 1:142 2:298 
-1 1:144 2:290 
-0.8638423200995605 1:146 2:163 
-0.289791563722624 1:148 2:296 
-1 1:152 2:400 
-0.6365119331636713 1:154 2:298 
-1 1:156 2:202 
-0.7385402877747177 1:158 2:298 
-1 1:160 2:153 
-1 1:166 2:400 
-0.4791157171540025 1:170 2:114 
-0.8555172008720275 1:174 2:56 
-1 1:176 2:217 
-0.0006730792540238645 1:180 2:240 
-1 1:182 2:400 
-1 1:184 2:247 
-0.8168196316270859 1:186 2:230 
-1 1:188 2:254 
-1 1:192 2:280 
-1 1:194 2:318 
-1 1:196 2:400 
-0.4151633009157445 1:198 2:321 
-0.5942240760655473 1:200 2:324 
-1 1:202 2:336 
-1 1:204 2:349 
-1 1:206 2:362 
-0.80417313406687 1:98 2:396 
-0.1513252501833615 1:100 2:391 
-1 1:102 2:385 
-1 1:106 2:375 
-1 1:108 2:376 
-1 1:110 2:400 
-1 1:112 2:366 
-0.4610754774680003 1:116 2:353 
-0.4321406357556102 1:118 2:308 
-1 1:120 2:344 
-1 1:122 2:300 
-1 1:124 2:400 
-0.1754508884055689 1:126 2:329 
-1 1:128 2:316 
-1 1:130 2:281 
-0.5380529663641518 1:132 2:189 
-0.7158577256281681 1:134 2:267 
-0.4350353458591691 1:136 2:253 
-1 1:138 2:400 
-0.5710501070295797 1:140 2:297 
-0.6844429923292346 1:142 2:301 
-1 1:144 2:312 
-0.0657858305282549 1:146 2:191 
-1 1:148 2:304 
-0.4716435987747905 1:150 2:323 
-1 1:152 2:400 
-1 1:154 2:322 
-1 1:156 2:218 
-1 1:158 2:294 
-0.7675287997662182 1:160 2:192 
-1 1:162 2:267 
-1 1:166 2:400 
-0.03162189573631648 1:168 2:259 
-0.7026274345313471 1:170 2:107 
-1 1:172 2:214 
-0.9890315482586165 1:174 2:118 
-1 1:176 2:235 
-1 1:178 2:251 
-1 1:180 2:250 
-1 1:182 2:400 
-1 1:184 2:255 
-1 1:188 2:286 
-1 1:190 2:293 
-1 1:192 2:310 
-1 1:196 2:400 
-1 1:198 2:331 
-0.6563023595176606 1:200 2:330 
-0.03338164451976935 1:202 2:339 
-1 1:100 2:387 
-1 1:102 2:382 
-1 1:108 2:374 
-1 1:110 2:400 
-1 1:112 2:368 
-1 1:114 2:368 
-0.4579151191446199 1:118 2:297 
-0.7522504881157932 1:122 2:297 
-1 1:124 2:400 
-1 1:126 2:324 
-0.5871713040235519 1:128 2:311 
-1 1:130 2:280 
-0.8639432913434615 1:132 2:164 
-0.7796942074835955 1:134 2:261 
-0.7536237443325594 1:136 2:239 
-1 1:138 2:400 
-0.2773344016112783 1:140 2:293 
-1 1:144 2:300 
-0.6382862484619558 1:146 2:188 
-0.06650877270721856 1:148 2:287 
-1 1:150 2:315 
-1 1:152 2:400 
-1 1:154 2:320 
-1 1:158 2:277 
-1 1:166 2:400 
-0.8855988022695569 1:168 2:259 
-1 1:174 2:89 
-1 1:176 2:235 
-0.4081243522530931 1:178 2:238 
-0.8317584172644498 1:180 2:240 
-1 1:182 2:400 
-0.9254984489468625 1:186 2:243 
-1 1:188 2:279 
-1 1:190 2:291 
-0.001896676472822434 1:194 2:310 
-1 1:196 2:400 
-1 1:198 2:321 
-0.04603525672504594 1:200 2:329 
-1 1:202 2:329 
-0.9991520389001111 1:204 2:354 
-1 1:206 2:356 
-1 1:98 2:396 
-1 1:100 2:388 
-1 1:102 2:379 
-1 1:106 2:369 
-1 1:108 2:368 
-1 1:110 2:400 
-1 1:112 2:365 
-1 1:114 2:363 
-1 1:116 2:348 
-0.386437190909624 1:120 2:329 
-0.2907502222369049 1:122 2:298 
-1 1:124 2:400 
-1 1:126 2:323 
-1 1:130 2:276 
-0.8637293538601233 1:132 2:170 
-0.7517115325131719 1:134 2:255 
-0.6953685851348426 1:136 2:259 
-1 1:138 2:400 
-1 1:144 2:304 
-0.6096662091200687 1:148 2:294 
-1 1:150 2:312 
-1 1:152 2:400 
-1 1:154 2:319 
-1 1:156 2:211 
-0.0993176131188159 1:158 2:280 
-0.5253245885637015 1:160 2:195 
-1 1:162 2:260 
-1 1:166 2:400 
-0.9212217008278087 1:172 2:184 
-1 1:174 2:86 
-0.8041666900344522 1:176 2:230 
-0.522584462918176 1:178 2:224 
-1 1:182 2:400 
-1 1:184 2:238 
-1 1:186 2:250 
-1 1:188 2:274 
-1 1:190 2:297 
-1 1:192 2:300 
-0.2600218571823794 1:194 2:308 
-1 1:196 2:400 
-1 1:198 2:324 
-0.02173195286810836 1:200 2:331 
-1 1:206 2:358 
-1 1:100 2:387 
-1 1:102 2:380 
-0.7504002162459903 1:104 2:365 
-1 1:108 2:371 
-1 1:110 2:400 
-1 1:114 2:361 
-0.6251078263540892 1:116 2:343 
-0.7962847375300786 1:118 2:302 
-0.3735833998981071 1:122 2:290 
-1 1:124 2:400 
-1 1:126 2:319 
-0.406992387835192 1:130 2:271 
-0.5372166246193602 1:132 2:148 
-0.5494958721498465 1:136 2:252 
-1 1:138 2:400 
-1 1:144 2:300 
-0.6455842559134704 1:146 2:192 
-1 1:150 2:308 
-1 1:152 2:400 
-0.1659581884031826 1:154 2:309 
-0.8433241095702155 1:156 2:194 
-0.2021835078193385 1:158 2:275 
-0.778103981628434 1:160 2:188 
-0.8878029958169453 1:162 2:247 
-1 1:166 2:400 
-0.2049393861679904 1:168 2:256 
-0.2194391184818026 1:172 2:176 
-0.732695278366629 1:174 2:61 
-1 1:176 2:226 
-0.6873344944893272 1:178 2:229 
-0.6384053814731807 1:180 2:234 
-1 1:182 2:400 
-0.03599323957893417 1:184 2:236 
-1 1:186 2:243 
-1 1:188 2:261 
-1 1:190 2:296 
-0.5604324085419736 1:192 2:297 
-0.8371441868965531 1:194 2:303 
-1 1:196 2:400 
-0.05106018028817895 1:198 2:314 
-0.4665741139492464 1:200 2:327 
-1 1:202 2:339 
-1 1:204 2:347 
-0.8427520933683958 1:98 2:397 
-0.2271150179201681 1:100 2:389 
-1 1:102 2:380 
-1 1:106 2:370 
-1 1:108 2:374 
-1 1:110 2:400 
-1 1:112 2:365 
-1 1:114 2:365 
-0.03962215743685232 1:118 2:305 
-0.8231126290282209 1:122 2:289 
-1 1:124 2:400 
-1 1:126 2:313 
-0.9168680764105597 1:128 2:305 
-0.5381064300746423 1:132 2:149 
-0.648030742306809 1:136 2:247 
-1 1:138 2:400 
-0.5024488509117632 1:140 2:295 
-1 1:144 2:295 
-0.6457674488484479 1:146 2:190 
-0.06629446522918482 1:148 2:285 
-1 1:150 2:306 
-1 1:152 2:400 
-1 1:154 2:313 
-0.8502508703550369 1:156 2:191 
-1 1:158 2:281 
-0.3503560090935131 1:160 2:183 
-1 1:166 2:400 
-0.7633327869536811 1:168 2:253 
-0.7534421152398076 1:170 2:99 
-1 1:176 2:235 
-1 1:178 2:237 
-1 1:182 2:400 
-0.6458803121851479 1:184 2:240 
-1 1:186 2:245 
-0.8938653027819604 1:188 2:251 
-1 1:190 2:287 
-0.4943899718958828 1:192 2:298 
-0.8720300036021867 1:194 2:307 
-1 1:196 2:400 
-0.7522245746240172 1:198 2:317 
-1 1:200 2:326 
-1 1:202 2:339 
-1 1:204 2:343 
-1 1:206 2:356 
-1 1:98 2:397 
-1 1:100 2:388 
-1 1:102 2:380 
-0.05043198869266934 1:106 2:372 
-1 1:108 2:374 
-1 1:110 2:400 
-1 1:122 2:290 
-1 1:124 2:400 
-1 1:126 2:319 
-0.3530322359020421 1:128 2:308 
-0.5456506421689523 1:130 2:241 
-0.8639698576774493 1:132 2:177 
-0.6354301889046924 1:134 2:269 
-0.6956094762009983 1:136 2:257 
-1 1:138 2:400 
-0.2201538584351882 1:140 2:294 
-1 1:144 2:299 
-0.7730926255570513 1:146 2:196 
-0.5959976755094514 1:148 2:287 
-0.7277185835649609 1:150 2:304 
-1 1:152 2:400 
-0.7349537358032775 1:154 2:309 
-0.8549028407986179 1:156 2:185 
-0.4714251620302689 1:158 2:280 
-0.700530584788799 1:160 2:180 
-0.4361765037522381 1:162 2:245 
-1 1:164 2:259 
-1 1:166 2:400 
-0.5447195627863611 1:170 2:103 
-0.6835993975677445 1:172 2:165 
-0.02919826320524325 1:174 2:59 
-1 1:176 2:232 
-0.5639813185489388 1:178 2:241 
-0.9312596791797532 1:180 2:236 
-1 1:182 2:400 
-0.7192281533233519 1:184 2:236 
-1 1:186 2:258 
-0.03414573290456431 1:190 2:292 
-1 1:192 2:300 
-0.8802948300423653 1:194 2:310 
-1 1:196 2:400 
-0.7666817354396476 1:198 2:315 
-1 1:200 2:325 
-0.08594265914455614 1:202 2:335 
-1 1:204 2:352 
-1 1:98 2:397 
-1 1:100 2:387 
-1 1:104 2:364 
-1 1:106 2:365 
-1 1:108 2:371 
-1 1:110 2:400 
-0.7834896952179523 1:112 2:350 
-0.3871043664580914 1:114 2:349 
-0.5039332412936821 1:120 2:326 
-0.5562607447078759 1:122 2:294 
-1 1:124 2:400 
-1 1:126 2:322 
-0.9219145599880523 1:128 2:277 
-0.7752312708714127 1:130 2:237 
-0.4654310874727755 1:132 2:246 
-0.3215214110438703 1:134 2:282 
-0.8096440750033478 1:136 2:270 
-1 1:138 2:400 
-0.6661611870010802 1:140 2:307 
-0.6932010535316733 1:142 2:307 
-1 1:144 2:295 
-0.7626586741261768 1:146 2:210 
-0.9224788387229566 1:150 2:307 
-1 1:152 2:400 
-0.3506035565864023 1:154 2:310 
-0.9266003594165018 1:156 2:188 
-1 1:158 2:280 
-1 1:160 2:205 
-1 1:164 2:265 
-1 1:166 2:400 
-0.8956160702875988 1:168 2:258 
-0.7236560752880756 1:170 2:112 
-0.7121399248704254 1:172 2:166 
-0.8539797183277436 1:174 2:70 
-1 1:176 2:211 
-1 1:178 2:241 
-0.7704185647396843 1:180 2:230 
-1 1:182 2:400 
-1 1:184 2:235 
-1 1:186 2:259 
-1 1:188 2:259 
-1 1:190 2:297 
-1 1:192 2:305 
-1 1:196 2:400 
-0.6196287104732842 1:198 2:319 
-0.2921122658473223 1:200 2:323 
-0.8648856166297872 1:202 2:335 
-1 1:206 2:362 
-1 1:98 2:389 
-0.6777124186529045 1:102 2:370 
-1 1:104 2:354 
-1 1:106 2:358 
-0.8051250232455928 1:108 2:358 
-1 1:110 2:400 
-1 1:112 2:350 
-0.3073458292787567 1:114 2:348 
-0.7573999441586421 1:116 2:339 
-0.867665005408244 1:118 2:295 
-0.6215818532755395 1:120 2:313 
-1 1:122 2:282 
-1 1:124 2:400 
-0.4159039749896783 1:126 2:308 
-0.6087595126477566 1:128 2:302 
-1 1:130 2:271 
-1 1:132 2:283 
-1 1:134 2:311 
-0.7726134608376639 1:136 2:282 
-1 1:138 2:400 
-1 1:142 2:314 
-1 1:144 2:309 
-0.7972826334714943 1:146 2:221 
-0.6147402855547546 1:148 2:285 
-1 1:152 2:400 
-0.0927627749377621 1:154 2:299 
-1 1:156 2:224 
-0.5939397017207741 1:158 2:275 
-0.0560124078490767 1:162 2:250 
-1 1:164 2:256 
-1 1:166 2:400 
-1 1:168 2:255 
-0.3643832297924691 1:170 2:118 
-1 1:172 2:186 
-0.7220410331368642 1:174 2:59 
-0.8822098644618623 1:176 2:195 
-1 1:178 2:201 
-0.8456201232241817 1:180 2:209 
-1 1:182 2:400 
-0.7983916519913309 1:184 2:231 
-1 1:186 2:251 
-1 1:188 2:248 
-1 1:190 2:291 
-1 1:196 2:400 
-1 1:200 2:324 
-1 1:202 2:332 
-1 1:206 2:358 
-1 1:98 2:386 
-0.6412179769495195 1:102 2:377 
-1 1:104 2:365 
-1 1:106 2:366 
-0.7665078665488754 1:108 2:367 
-1 1:110 2:400 
-1 1:112 2:360 
-0.4861652722234332 1:114 2:355 
-0.751150064319015 1:116 2:349 
-0.4996089190183512 1:120 2:334 
-1 1:124 2:400 
-0.9104443449422308 1:126 2:332 
-1 1:128 2:330 
-1 1:130 2:299 
-1 1:132 2:303 
-1 1:134 2:324 
-1 1:136 2:299 
-1 1:138 2:400 
-1 1:140 2:325 
-1 1:142 2:329 
-1 1:144 2:323 
-1 1:146 2:240 
-1 1:148 2:306 
-1 1:150 2:323 
-1 1:152 2:400 
-1 1:154 2:318 
-1 1:156 2:244 
-1 1:158 2:305 
-0.4856495952280562 1:160 2:244 
-0.6302303727812826 1:162 2:274 
-0.2215359928266072 1:164 2:279 
-1 1:166 2:400 
-0.670178442549176 1:170 2:146 
-0.6028903933173247 1:172 2:181 
-0.6240178861339015 1:174 2:94 
-1 1:176 2:220 
-0.6230158730745311 1:178 2:219 
-1 1:180 2:222 
-1 1:182 2:400 
-1 1:184 2:236 
-1 1:186 2:260 
-1 1:188 2:252 
-1 1:190 2:293 
-1 1:192 2:315 
-0.2042881818682263 1:194 2:322 
-1 1:196 2:400 
-1 1:198 2:329 
-1 1:200 2:332 
-0.07975331457641964 1:202 2:338 
-0.321654188935118 1:204 2:348 
-1 1:98 2:395 
-1 1:100 2:391 
-1 1:102 2:380 
-1 1:108 2:378 
-1 1:110 2:400 
-1 1:112 2:362 
-1 1:114 2:364 
-1 1:116 2:355 
-1 1:118 2:335 
-0.963455482993866 1:122 2:317 
-1 1:124 2:400 
-1 1:126 2:351 
-0.03940660217968393 1:128 2:345 
-0.6983435697051326 1:130 2:313 
-1 1:132 2:332 
-1 1:134 2:337 
-1 1:136 2:315 
-1 1:138 2:400 
-1 1:140 2:336 
-1 1:142 2:340 
-1 1:144 2:338 
-1 1:146 2:257 
-1 1:148 2:317 
-0.9893633196468572 1:150 2:328 
-1 1:152 2:400 
-1 1:154 2:319 
-0.8460980399077507 1:156 2:265 
-0.8547836489669338 1:158 2:320 
-1 1:160 2:268 
-1 1:162 2:285 
-1 1:164 2:297 
-1 1:166 2:400 
-1 1:168 2:283 
-0.4909658605822642 1:170 2:148 
-1 1:172 2:176 
-0.999323197447564 1:174 2:148 
-1 1:176 2:254 
-1 1:178 2:273 
-1 1:180 2:263 
-1 1:182 2:400 
-1 1:184 2:260 
-1 1:186 2:283 
-1 1:188 2:277 
-1 1:190 2:295 
-0.6170018096934654 1:192 2:328 
-1 1:194 2:335 
-1 1:196 2:400 
-1 1:198 2:341 
-0.5916420852509676 1:200 2:344 
-0.440902255181123 1:202 2:349 
-0.3458369842239845 1:206 2:363 
-1 1:98 2:391 
-1 1:100 2:391 
-1 1:102 2:379 
-0.9835778510600626 1:106 2:374 
-0.7793850096501206 1:108 2:380 
-1 1:110 2:400 
-1 1:112 2:371 
-1 1:116 2:362 
-1 1:118 2:345 
-1 1:120 2:356 
-0.7198554140310232 1:122 2:330 
-1 1:124 2:400 
-1 1:126 2:360 
-1 1:128 2:360 
-0.8819476433907752 1:130 2:327 
-1 1:136 2:328 
-1 1:138 2:400 
-1 1:140 2:344 
-1 1:142 2:346 
-0.6647566921705315 1:144 2:339 
-0.8210403586865372 1:146 2:268 
-1 1:148 2:327 
-1 1:150 2:347 
-1 1:152 2:400 
-1 1:154 2:335 
-0.9162077654201813 1:156 2:276 
-0.8645679537314634 1:158 2:331 
-1 1:160 2:279 
-1 1:162 2:294 
-1 1:164 2:317 
-1 1:166 2:400 
-1 1:168 2:274 
-0.864025111424316 1:170 2:136 
-1 1:172 2:197 
-1 1:174 2:180 
-1 1:176 2:266 
-1 1:178 2:285 
-1 1:180 2:289 
-1 1:182 2:400 
-1 1:184 2:268 
-1 1:186 2:276 
-1 1:188 2:270 
-1 1:190 2:302 
-0.844015692940999 1:194 2:338 
-1 1:196 2:400 
-0.6456935591581094 1:198 2:344 
-1 1:200 2:345 
-0.9970631156441079 1:204 2:357 
-0.2197283823818344 1:206 2:361 
-1 1:98 2:389 
-0.9514822459703811 1:100 2:385 
-0.7717856324014155 1:102 2:372 
-1 1:104 2:364 
-0.8447284603781745 1:108 2:383 
-1 1:110 2:400 
-1 1:114 2:365 
-1 1:116 2:366 
-1 1:118 2:349 
-1 1:120 2:348 
-0.03971443942716071 1:122 2:330 
-1 1:124 2:400 
-1 1:126 2:359 
-1 1:128 2:356 
-1 1:130 2:332 
-0.6651962136819844 1:132 2:346 
-1 1:134 2:347 
-0.4516692610121845 1:136 2:338 
-0.5795874997710376 1:140 2:352 
-0.7554552368889921 1:142 2:353 
-0.846003114930172 1:144 2:348 
-0.7204098210519877 1:146 2:277 
-1 1:148 2:335 
-0.6872320432862297 1:150 2:343 
-1 1:154 2:326 
-0.6831830264014558 1:156 2:285 
-0.8545399871135693 1:158 2:326 
-0.8222302761940027 1:160 2:270 
-1 1:162 2:276 
-1 1:164 2:294 
-0.05128036338506154 1:168 2:244 
-0.9282283922190837 1:170 2:194 
-0.8837554177000168 1:174 2:191 
-0.249181496123709 1:176 2:280 
-0.03172723677645595 1:178 2:295 
-0.6771410278277041 1:180 2:304 
-1 1:184 2:286 
-1 1:186 2:247 
-1 1:188 2:247 
-0.7784364378790793 1:190 2:314 
-0.6594546136124589 1:192 2:327 
-0.8128249203321669 1:194 2:342 
-1 1:198 2:342 
-0.6071393231658124 1:200 2:350 
-0.6490254761489047 1:202 2:347 
-0.156936575402398 1:204 2:361 
-1 1:98 2:388 
-1 1:100 2:379 
-0.008627138825575385 1:102 2:375 
-1 1:104 2:360 
-0.3739314558177844 1:106 2:368 
-1 1:108 2:372 
-1 1:114 2:362 
-1 1:118 2:339 
-1 1:120 2:351 
-0.4386140884021476 1:122 2:318 
-1 1:126 2:355 
-1 1:128 2:357 
-1 1:130 2:293 
-0.6639994034136338 1:132 2:338 
-1 1:136 2:325 
-0.8638970927209877 1:140 2:359 
-1 1:142 2:335 
-0.3681765732851233 1:144 2:340 
-1 1:146 2:273 
-1 1:148 2:324 
-1 1:150 2:336 
-1 1:154 2:323 
-1 1:156 2:236 
-0.8453026254706602 1:158 2:323 
-1 1:162 2:280 
-1 1:164 2:286 
-1 1:168 2:264 
-1 1:170 2:143 
-0.7581747359539356 1:172 2:239 
-1 1:174 2:175 
-0.4496977831512795 1:176 2:288 
-0.9487954844069493 1:178 2:277 
-1 1:180 2:294 
-0.3773631754054142 1:184 2:294 
-0.9019528105677678 1:186 2:274 
-0.8639077291568859 1:188 2:190 
-1 1:190 2:302 
-1 1:192 2:320 
-1 1:194 2:338 
-0.6803691096201804 1:198 2:350 
-1 1:200 2:341 
-0.6475553650714598 1:202 2:344 
-0.7025900882485009 1:206 2:372 
-1 1:98 2:390 
-0.02888307519136033 1:104 2:368 
-1 1:106 2:371 
-1 1:108 2:372 
-0.974012822407442 1:112 2:374 
-1 1:116 2:357 
-1 1:118 2:341 
-0.9942579019156134 1:120 2:350 
-1 1:122 2:322 
-1 1:126 2:358 
-1 1:128 2:354 
-1 1:132 2:334 
-0.7231329029445769 1:140 2:354 
-1 1:142 2:344 
-1 1:144 2:325 
-1 1:146 2:250 
-1 1:148 2:310 
-0.741674336837048 1:150 2:313 
-0.8643180945993016 1:156 2:148 
-1 1:158 2:245 
-0.9457003710621823 1:160 2:221 
-0.3100356713295528 1:162 2:268 
-0.6391798565309987 1:164 2:282 
-0.6763191167472111 1:168 2:257 
-1 1:170 2:178 
-1 1:172 2:257 
-0.2385827581077712 1:174 2:180 
-1 1:178 2:288 
-1 1:180 2:299 
-1 1:184 2:294 
-0.409067032051764 1:186 2:282 
-0.8821972467967149 1:188 2:211 
-1 1:190 2:309 
-0.8432141275120063 1:192 2:331 
-0.4386656791423973 1:194 2:347 
-0.9937275378071084 1:198 2:341 
-0.6793674566334832 1:202 2:361 
-0.6655445239969603 1:204 2:374 
-1 1:98 2:390 
-1 1:102 2:378 
-1 1:106 2:373 
-0.9553476313872803 1:108 2:375 
-1 1:112 2:373 
-1 1:114 2:363 
-1 1:116 2:362 
-0.9664686091424993 1:118 2:338 
-1 1:120 2:345 
-0.3944142387303388 1:122 2:320 
-1 1:126 2:353 
-1 1:128 2:347 
-1 1:130 2:305 
-0.4579559949692784 1:132 2:341 
-1 1:134 2:340 
-0.4216004754681414 1:136 2:332 
-1 1:140 2:350 
-1 1:142 2:334 
-1 1:144 2:313 
-0.7966360065450896 1:148 2:259 
-0.7041841477711577 1:154 2:268 
-0.7610498732802992 1:156 2:162 
-1 1:158 2:270 
-0.8544817991015308 1:160 2:214 
-0.5983416058962331 1:162 2:256 
-1 1:170 2:179 
-0.9621635389697873 1:172 2:247 
-1 1:174 2:184 
-1 1:178 2:291 
-0.08974169641728875 1:180 2:307 
-1 1:186 2:280 
-0.8766226431799002 1:188 2:219 
-0.7899475820963042 1:190 2:316 
-1 1:192 2:336 
-0.7453545951468733 1:198 2:361 
-0.5063932350439907 1:200 2:364 
-0.3626367147851252 1:202 2:368 
-0.3618544458396025 1:204 2:378 
-0.6135626537318304 1:206 2:384 
-1 1:98 2:392 
-1 1:100 2:385 
-0.6490447987798941 1:102 2:374 
-1 1:104 2:368 
-1 1:106 2:371 
-1 1:108 2:377 
-1 1:116 2:354 
-0.7045855548856536 1:118 2:332 
-1 1:120 2:344 
-0.6903610840900927 1:122 2:312 
-1 1:126 2:350 
-1 1:128 2:347 
-1 1:130 2:303 
-0.643606799734994 1:132 2:336 
-1 1:134 2:337 
-1 1:136 2:324 
-1 1:140 2:338 
-1 1:142 2:315 
-0.6885935568191127 1:144 2:253 
-0.5373669509536778 1:146 2:133 
-0.9264419765033178 1:148 2:249 
-0.5533431329787776 1:150 2:262 
-1 1:154 2:272 
-1 1:156 2:155 
-1 1:158 2:250 
-0.6678502136723181 1:160 2:190 
-1 1:162 2:248 
-0.9809560701940385 1:164 2:279 
-1 1:172 2:237 
-0.9851864462809038 1:174 2:188 
-0.9914060995667481 1:176 2:282 
-0.5480247796495897 1:178 2:296 
-0.6273402322962831 1:180 2:308 
-1 1:184 2:297 
-1 1:186 2:268 
-1 1:188 2:243 
-0.4739991550485825 1:190 2:320 
-0.2365155779582622 1:198 2:364 
-0.364924771506722 1:200 2:369 
-0.5514995075193845 1:202 2:374 
-0.5813932507813335 1:98 2:394 
-1 1:100 2:385 
-1 1:106 2:373 
-1 1:108 2:378 
-1 1:114 2:368 
-1 1:116 2:359 
-0.3455398484355165 1:118 2:331 
-1 1:120 2:345 
-0.6210460521985003 1:122 2:317 
-1 1:126 2:347 
-1 1:130 2:302 
-0.6121332125871609 1:132 2:345 
-1 1:134 2:341 
-1 1:136 2:312 
-1 1:140 2:325 
-0.2441293200016504 1:142 2:281 
-0.9586130273258451 1:144 2:263 
-0.631154778795608 1:148 2:268 
-0.6732981241886922 1:150 2:260 
-1 1:156 2:157 
-1 1:158 2:258 
-0.9187196748935473 1:162 2:236 
-0.8018589260204815 1:164 2:269 
-0.4505080014573083 1:170 2:149 
-1 1:172 2:241 
-1 1:174 2:190 
-0.5955019610722518 1:176 2:279 
-1 1:178 2:294 
-1 1:182 2:400 
-1 1:184 2:293 
-1 1:186 2:268 
-0.5264282234574655 1:188 2:257 
-0.7267848258463603 1:190 2:324 
-0.5403813794030694 1:192 2:352 
-1 1:196 2:400 
-1 1:98 2:393 
-1 1:102 2:376 
-0.6285280399416231 1:104 2:370 
-1 1:106 2:371 
-1 1:108 2:380 
-1 1:110 2:400 
-1 1:112 2:373 
-1 1:114 2:370 
-1 1:116 2:357 
-1 1:120 2:342 
-1 1:122 2:322 
-1 1:124 2:400 
-1 1:126 2:356 
-1 1:128 2:345 
-1 1:130 2:303 
-0.8931943462535761 1:134 2:333 
-0.8985472725735089 1:136 2:311 
-1 1:138 2:400 
-1 1:140 2:316 
-0.7023892292923285 1:142 2:283 
-0.5586034205564516 1:144 2:254 
-0.8634720331001882 1:146 2:128 
-0.7278173185878454 1:150 2:264 
-1 1:152 2:400 
-1 1:154 2:275 
-0.7607103306211366 1:156 2:164 
-0.7222086193861017 1:158 2:260 
-0.113755779294949 1:160 2:189 
-0.5458251477864293 1:164 2:275 
-1 1:166 2:400 
-0.798130618907549 1:170 2:151 
-1 1:172 2:243 
-1 1:174 2:169 
-0.7573655883676036 1:176 2:287 
-0.5535945507909571 1:178 2:304 
-1 1:182 2:400 
-0.5107800467281328 1:184 2:289 
-1 1:186 2:271 
-1 1:188 2:271 
-0.6368980864432962 1:190 2:330 
-0.3581873767302012 1:192 2:354 
-1 1:196 2:400 
