svm_type c_svc
kernel_type linear
nr_class 2
total_sv 260
rho 3.48402
label 1 -1
nr_sv 132 128
SV
-1 1:0.0904465 2:-0.082388 3:0.0882271 4:-0.0699915 5:0.00777841 6:0.0415736 7:0.0664152 8:0.083482 9:0.0835991 10:-0.0980736 11:-0.0829682 12:0.0186977 13:0.0174068 14:-0.00920836 15:-0.0769793 16:0.0365463 17:-0.0964673 18:-0.0248434 19:-0.0602698 20:-0.0997298 21:0.0623972 22:0.0036906 23:0.0745618 24:-0.0991767 25:-0.0971005 26:0.0527869 27:0.0883681 28:-0.0711177 29:-0.0931981 30:0.0141694 31:-0.0632918 32:-0.0655308 33:0.00469083 34:0.0636078 35:0.0762251 36:0.050012 37:-0.0535756 38:0.00451746 39:0.0994945 40:-0.0644414 41:0.0100435 42:0.0161321 43:-0.0793337 44:-0.0742651 45:-0.0764937 46:0.057136 47:-0.0784977 48:0.0669326 49:0.0748872 50:0.0335889 51:-0.0350373 52:0.0803006 53:-0.0352019 54:-0.051984 55:0.0214877 56:0.031199 57:0.0709445 58:0.0314895 59:0.0899317 60:0.0559555 61:-0.0792926 62:-0.0516183 63:0.0957766 64:-0.0801929 65:0.0935799 66:-0.0559782 67:-0.0994184 68:-0.0877487 69:-0.0441194 70:0.0109245 71:-0.0598416 72:-0.0518561 73:-0.0754436 74:-0.0896991 75:0.0390318 76:0.00302368 77:-0.045876 78:-0.0497795 79:0.0389085 80:-0.0947037 81:0.098567 82:0.0203586 83:-0.0922784 84:-0.0158799 85:-0.0581545 86:0.0674182 87:-0.0478289 88:-0.0417899 89:0.0437988 90:0.0264356 91:-0.0946601 92:-0.0483941 93:-0.00619573 94:0.0770103 95:0.0956837 96:-0.0287909 97:0.0690285 98:-0.0703161 99:0.0248901 100:-0.0355275
-1 1:0.0813879 2:-0.0547477 3:0.0513793 4:0.022798 5:0.0483591 6:-0.00270744 7:-0.0541683 8:0.0222127 9:0.0593606 10:-0.0859217 11:0.00552763 12:0.0500745 13:0.072522 14:-0.0220155 15:-0.0838674 16:0.0657258 17:-0.0826883 18:-0.0670306 19:-0.0699862 20:-0.0999779 21:0.0944899 22:0.0502148 23:0.0781429 24:-0.0795309 25:-0.0931373 26:0.0806966 27:0.0998129 28:-0.0346097 29:-0.0979969 30:-0.0263073 31:0.0953397 32:-0.0128936 33:0.0234334 34:-0.0650381 35:0.0980093 36:-0.0515658 37:0.00063029 38:0.0939327 39:0.0824113 40:0.0151701 41:0.0985961 42:0.0367157 43:-0.0996642 44:-0.0349972 45:-0.0861238 46:-0.0351588 47:-0.0688323 48:0.0157174 49:0.0998479 50:0.0673439 51:-0.0951508 52:0.0871482 53:0.0796576 54:-0.00543273 55:0.0845267 56:0.0400457 57:0.0876028 58:0.0170764 59:0.0847729 60:-0.0449255 61:-0.0686378 62:-0.0939321 63:0.0605259 64:-0.0789485 65:-0.0107748 66:-0.0466473 67:-0.0115906 68:-0.073256 69:-0.0516307 70:-0.0349245 71:0.0930046 72:0.0330493 73:-0.0748139 74:-0.0891343 75:0.0294609 76:0.0397104 77:-0.0991294 78:-0.0345856 79:0.0464763 80:-0.0990928 81:0.0742568 82:-0.0558553 83:-0.0998693 84:-0.00208645 85:-0.0999804 86:-0.0411061 87:0.0436967 88:0.0246808 89:-0.0419921 90:-0.0653313 91:-0.062532 92:-0.0046082 93:-0.052407 94:0.0196306 95:0.00841998 96:0.0814545 97:-0.00527396 98:-0.0610152 99:0.0695092 100:-0.0235498
1 1:0.0882052 2:-0.0711697 3:0.0931914 4:-0.0846562 5:0.047988 6:0.0143748 7:-0.0248775 8:0.0467863 9:0.0570497 10:-0.0959983 11:-0.0186566 12:-0.0818447 13:-0.00394727 14:0.0575548 15:-0.0384295 16:0.00349799 17:-0.094658 18:-0.0619441 19:0.0453007 20:-0.0978004 21:0.0924325 22:0.025466 23:0.0977815 24:-0.0983632 25:-0.0872929 26:0.0894822 27:0.0991583 28:-0.0997464 29:-0.0992631 30:0.064476 31:-0.00440062 32:0.00130717 33:0.0278347 34:-0.0712439 35:0.0990841 36:0.0432308 37:-0.0983212 38:0.0100149 39:0.0909218 40:-0.0319429 41:0.0988156 42:0.0476512 43:-0.0850754 44:-0.0598011 45:-0.0999983 46:-0.00648452 47:-0.0160828 48:0.0862443 49:0.0998832 50:-0.0938971 51:-0.091496 52:0.0834591 53:-0.00724342 54:0.0650855 55:-0.0347262 56:0.0193671 57:0.074527 58:0.0367637 59:0.0481015 60:-0.092237 61:-0.0519003 62:-0.0913741 63:0.0969648 64:-0.0999265 65:0.000486174 66:-0.0688503 67:-0.0423743 68:-0.084525 69:-0.0387241 70:-0.0606997 71:0.0680604 72:0.0639719 73:-0.0873943 74:-0.0580737 75:0.0862287 76:0.0412061 77:-0.099732 78:-0.0678793 79:0.0432508 80:-0.094132 81:0.0996448 82:0.0402663 83:-0.098334 84:0.0337562 85:-0.0999925 86:0.0397597 87:0.033294 88:0.0723984 89:0.0799348 90:0.0523217 91:-0.0946348 92:-0.00412116 93:0.0212402 94:0.00353309 95:0.0978727 96:0.00411205 97:0.047897 98:-0.0989331 99:0.0882928 100:0.0284532
-1 1:0.0548395 2:-0.077742 3:0.0663214 4:-0.0846144 5:0.0472878 6:0.0651074 7:-0.0419096 8:0.0939553 9:0.0948113 10:-0.0989095 11:-0.025683 12:0.084779 13:0.0888297 14:-0.0196517 15:-0.0972443 16:-0.00618618 17:-0.0750502 18:0.0273093 19:-0.0972959 20:-0.0987145 21:0.0505969 22:-0.0491178 23:0.0876164 24:-0.0994651 25:-0.0768128 26:0.025439 27:0.0769411 28:-0.0693374 29:-0.0810623 30:-0.0553844 31:0.0954318 32:-0.00898234 33:0.0374614 34:0.0500697 35:0.0696107 36:-0.0694719 37:-0.0850652 38:-0.0433421 39:0.0539678 40:-0.0488888 41:0.0952449 42:-0.00698576 43:-0.0998601 44:-0.0789966 45:-0.0998712 46:0.0235234 47:-0.0909807 48:0.045401 49:0.0998329 50:-0.0311042 51:-0.0999272 52:0.0559028 53:0.0869219 54:-0.0177149 55:-0.0567384 56:-0.0471353 57:0.0999912 58:-0.0366737 59:-0.0555417 60:0.0510978 61:-0.0913722 62:-0.0984231 63:-0.0539991 64:-0.037377 65:0.0187336 66:-0.09459 67:-0.00943303 68:0.0103514 69:-0.0598776 70:0.010754 71:0.0271226 72:0.0039748 73:-0.0832031 74:-0.0860778 75:0.0703832 76:-0.0072889 77:-0.0985479 78:0.0503046 79:0.0383163 80:-0.0321524 81:0.090203 82:-0.0146396 83:-0.0356291 84:-0.0720284 85:-0.0875413 86:0.0302145 87:0.0603014 88:0.00972021 89:0.063152 90:-0.0544974 91:-0.0521411 92:-0.0543903 93:0.0368253 94:-0.0478581 95:0.0712692 96:-0.0656787 97:0.0909384 98:-0.0989055 99:0.00633691 100:0.0554705
0.353745 1:0.0371826 2:-0.0687933 3:0.0959489 4:-0.0715215 5:-0.0384842 6:0.0790973 7:-0.0976904 8:0.0995284 9:0.0770749 10:-0.0638948 11:-0.0600083 12:0.0721309 13:0.0955542 14:0.0256427 15:-0.0771156 16:0.0152533 17:-0.0996589 18:-0.0662198 19:-0.00940837 20:-0.0383804 21:0.0984917 22:-0.0256956 23:0.0987136 24:-0.0706615 25:-0.0342582 26:0.0885981 27:0.0992746 28:-0.0921833 29:-0.0949681 30:-0.0387952 31:0.0894426 32:-0.0699123 33:-0.00347928 34:-0.0141866 35:0.0929145 36:-0.000189118 37:-0.0273252 38:0.073637 39:0.0997314 40:-0.0345655 41:0.0505087 42:0.0559674 43:-0.0999559 44:-0.0974393 45:-0.0988759 46:0.0725802 47:-0.0946285 48:0.0461375 49:0.086244 50:-0.00784584 51:-0.0775499 52:0.0580316 53:0.0144391 54:-0.0547066 55:0.0493616 56:-0.029121 57:0.0723817 58:-0.0561185 59:-0.0248468 60:0.0693229 61:-0.0995728 62:-0.0762689 63:0.0298582 64:-0.0727769 65:0.085617 66:-0.0522455 67:0.0137341 68:-0.0074816 69:-0.0984436 70:-0.0777313 71:0.0834637 72:0.0275208 73:-0.0675878 74:-0.0993018 75:0.0861931 76:-0.0180698 77:-0.0973271 78:-0.0342434 79:0.0590119 80:-0.0998929 81:0.0995805 82:-0.0927034 83:-0.0998667 84:-0.0590541 85:-0.0675723 86:0.0586741 87:-0.00158301 88:-0.0338379 89:0.0788067 90:-0.0874381 91:-0.0999991 92:-0.099885 93:0.0316692 94:0.0135011 95:0.0764148 96:-0.048234 97:0.0656242 98:-0.0899923 99:0.00727123 100:-0.00171922
0.664613 1:-0.0749838 2:-0.0388671 3:0.0814922 4:-0.091437 5:0.0362092 6:0.0884928 7:0.0755748 8:0.0960425 9:0.0379082 10:-0.0998624 11:-0.0366905 12:0.0923663 13:-0.0489263 14:0.0198549 15:-0.0907502 16:-0.0484291 17:-0.0823096 18:0.0417431 19:0.0664645 20:-0.0782914 21:0.0999845 22:0.099991 23:0.00828545 24:-0.0859206 25:-0.0347537 26:0.0830398 27:0.0268082 28:-0.0980382 29:-0.0848377 30:-0.0211445 31:-0.0564369 32:-0.0025765 33:0.093618 34:-0.00497093 35:-0.00561468 36:0.0991823 37:-0.0391182 38:-0.00911524 39:-0.0293863 40:-0.0991038 41:-0.00688803 42:0.0954676 43:-0.0996476 44:0.0213957 45:-0.0996137 46:0.040848 47:-0.0063465 48:0.041581 49:0.0757105 50:-0.099007 51:-0.00076894 52:0.0953931 53:-0.0888875 54:-0.0393715 55:-0.0908211 56:-0.0100503 57:0.0195879 58:-0.0409941 59:0.00741017 60:-0.0861271 61:-0.0687952 62:-0.0757028 63:0.0189054 64:-0.0137106 65:0.0931136 66:0.041391 67:-0.099519 68:-0.0109846 69:-0.0780782 70:-0.06219 71:-0.00399496 72:0.00297187 73:-0.0614534 74:-0.00814357 75:-0.0616575 76:0.0766005 77:-0.0567271 78:0.000462031 79:-0.0502484 80:-0.0614118 81:0.0995983 82:0.0597096 83:-0.0810929 84:0.000239813 85:-0.0315898 86:0.0201964 87:-0.0709985 88:-0.0819545 89:0.0891259 90:-0.0975222 91:-0.0982901 92:-0.0509431 93:0.0798931 94:0.0592277 95:0.0515732 96:0.0550361 97:0.0400824 98:-0.0980302 99:-0.0179029 100:0.0468272
-1 1:-0.022252 2:-0.0895275 3:0.0797359 4:-0.0637491 5:-0.0353907 6:0.078189 7:0.0901636 8:0.0395727 9:0.0610679 10:-0.0970534 11:-0.0586703 12:0.0788514 13:-0.0664386 14:0.0747493 15:-0.0940417 16:-0.00649306 17:-0.0856684 18:-0.0639002 19:-0.0140139 20:-0.0818364 21:0.0988433 22:0.0811531 23:0.0731547 24:0.00379932 25:-0.0867487 26:0.0300342 27:0.0878912 28:-0.0916294 29:-0.0999806 30:0.0587082 31:-0.0941658 32:0.0516182 33:0.0963685 34:-0.0238501 35:0.0691858 36:0.0859487 37:-0.0947576 38:-0.0189495 39:0.000128317 40:-0.0643744 41:0.022327 42:0.0896536 43:-0.0875022 44:-0.0998509 45:-0.0998579 46:0.0531915 47:0.0445615 48:0.00290758 49:0.0493432 50:-0.0757952 51:-0.0939091 52:0.0956476 53:-0.0594251 54:-0.0747866 55:-0.0822003 56:0.0309511 57:0.0230486 58:-0.00360897 59:0.0728498 60:-0.00880902 61:-0.0989221 62:-0.0843757 63:0.0407508 64:-0.0878461 65:0.0545768 66:-0.0707369 67:-0.0796856 68:-0.0311876 69:-0.0668008 70:-0.0746582 71:0.00352707 72:0.0838663 73:-0.0998969 74:-0.0340739 75:-0.0407317 76:0.0902628 77:-0.099894 78:0.0266487 79:-0.058151 80:-0.070396 81:0.0986575 82:0.0843329 83:-0.0959705 84:0.0251503 85:0.0188555 86:-0.0238656 87:-0.0703687 88:-0.0612318 89:0.0988873 90:0.0242593 91:-0.0895378 92:-0.0634971 93:0.0533902 94:0.0252743 95:0.0845434 96:0.0788554 97:0.09973 98:-0.0921732 99:0.020697 100:-0.0601952
1 1:-0.0905706 2:-0.064768 3:0.0767356 4:-0.0919079 5:-0.0837716 6:0.0498918 7:-0.0180893 8:0.0964864 9:0.0494074 10:-0.0998108 11:-0.0363039 12:0.0982602 13:0.0121733 14:-0.0485425 15:-0.074179 16:0.0186071 17:-0.0857801 18:-0.0511967 19:0.0349914 20:-0.0630602 21:0.0968645 22:0.0605297 23:0.0940319 24:-0.097514 25:-0.0846434 26:0.0635204 27:0.0203357 28:-0.0999975 29:-0.0949054 30:0.0478275 31:-0.0796186 32:-0.00709742 33:0.0796737 34:0.038197 35:0.0481616 36:0.0994036 37:-0.1 38:0.019758 39:-0.0239598 40:-0.08027 41:-0.0251843 42:0.071751 43:-0.0914892 44:-0.0648597 45:-0.0999001 46:0.0994239 47:-0.0182687 48:-0.0617834 49:0.0577295 50:-0.0184946 51:0.0250885 52:0.0903032 53:-0.0884165 54:-0.0963023 55:-0.0199341 56:0.0163769 57:0.0131409 58:-0.0635235 59:0.0488742 60:0.0520609 61:-0.0950525 62:-0.0125484 63:0.0994463 64:-0.0272534 65:0.0716415 66:-0.00812002 67:-0.0963284 68:-0.0174747 69:-0.0953841 70:-0.0260565 71:0.0609991 72:-0.0193667 73:-0.0951365 74:-0.0982048 75:-0.0711987 76:0.0940458 77:-0.0846631 78:-0.0394788 79:-0.0633892 80:-0.0995075 81:0.0993955 82:0.0265088 83:-0.0923751 84:0.0265258 85:0.024652 86:0.0399847 87:0.0129105 88:-0.0009075 89:0.098434 90:-0.0205398 91:-0.0947462 92:-0.0840579 93:-0.0131401 94:0.034921 95:0.0441011 96:0.0736114 97:0.0838313 98:-0.0973834 99:-0.0881543 100:-0.0676544
-0.0942079 1:-0.0756586 2:-0.0442075 3:0.0150811 4:-0.0410768 5:0.0589049 6:0.00118264 7:-0.0981135 8:0.0999997 9:0.0780242 10:-0.0999027 11:-0.0895701 12:0.0999999 13:-0.0455394 14:0.0382377 15:0.00483277 16:0.00269055 17:0.0138498 18:0.0297104 19:0.0965382 20:-0.03398 21:0.0990389 22:0.0926328 23:0.0927685 24:-0.0695685 25:-0.0451997 26:0.0856258 27:0.0754778 28:0.0366976 29:0.01507 30:0.0312528 31:-0.0891073 32:0.0888858 33:0.0814199 34:-0.0544074 35:-0.0158932 36:-0.0146857 37:-0.025326 38:-0.01158 39:-0.0368855 40:-0.0341522 41:0.0529597 42:0.0999476 43:-0.0749505 44:0.00292735 45:-0.0981137 46:0.0267416 47:-0.012108 48:-0.033591 49:0.0748084 50:-0.0992028 51:-0.00185177 52:0.0540234 53:0.0190199 54:-0.0285877 55:-0.0722423 56:0.0635116 57:-0.0423755 58:0.0368179 59:0.0736968 60:0.0578352 61:-0.0993459 62:-0.0155894 63:-0.0478681 64:-0.0880455 65:0.0997932 66:0.0687415 67:-0.0994314 68:-0.0929157 69:-0.0999268 70:-0.0319321 71:0.0694331 72:-0.00567332 73:-0.0658528 74:-0.0338301 75:0.0437849 76:0.0994926 77:-0.045724 78:-0.0211689 79:-0.0654577 80:-0.0594583 81:0.0986075 82:-0.0381683 83:-0.0989146 84:-0.0070056 85:0.021442 86:0.0683673 87:-0.0769932 88:-0.0516222 89:0.00581508 90:0.0832651 91:-0.0987784 92:-0.0524583 93:0.059877 94:0.0395547 95:0.0746602 96:0.0672735 97:0.0574337 98:0.0294263 99:-0.0648899 100:0.0145126
-1 1:-0.0382733 2:-0.0993366 3:0.099747 4:-0.0988503 5:0.0488321 6:0.00511812 7:0.0974738 8:0.0586845 9:0.0552132 10:0.0419961 11:0.0851866 12:0.0928146 13:0.00941195 14:0.0848112 15:-0.0829528 16:-0.0466588 17:-0.0920135 18:-0.0347881 19:0.0882582 20:-0.0754848 21:0.0908737 22:0.09753 23:0.0621294 24:0.0142224 25:-0.00212633 26:0.0856837 27:0.0373636 28:-0.0999376 29:-0.0946592 30:-0.0138308 31:-0.0572011 32:0.000454423 33:0.0599815 34:-0.0836384 35:0.0546521 36:-0.0109314 37:-0.0258442 38:0.0773181 39:-0.0739562 40:-0.0310639 41:-0.0589549 42:0.0590762 43:0.00952117 44:0.00780024 45:-0.08174 46:0.0445153 47:-0.096829 48:0.0530389 49:0.0716838 50:0.0218719 51:-0.0998681 52:0.0547331 53:-0.0641841 54:-0.0997485 55:-0.0516386 56:0.0811489 57:-0.0343878 58:-0.0176015 59:0.0151517 60:-0.0401961 61:-0.0029108 62:-0.0844668 63:0.071236 64:-0.0972318 65:0.0645269 66:-0.0311501 67:-0.0573408 68:0.0428131 69:-0.0997418 70:-0.0839943 71:0.0999282 72:0.0949498 73:-0.0975582 74:0.0513519 75:-0.098006 76:0.0849271 77:-0.0854515 78:0.0330535 79:-0.0561933 80:-0.0983922 81:0.0562435 82:0.0998366 83:-0.0793864 84:-0.0504231 85:-0.0175242 86:0.006983 87:-0.0153201 88:-0.0170048 89:0.0976786 90:-0.0788453 91:-0.0962232 92:-0.0600743 93:0.00650709 94:0.0857298 95:0.091647 96:0.0150588 97:0.097272 98:-0.0792582 99:-0.0506421 100:-0.0392039
1 1:-0.0468696 2:-0.0853266 3:0.0854784 4:-0.0994916 5:-0.0130183 6:0.0757218 7:0.0700696 8:0.0618872 9:0.0657702 10:-0.099969 11:-0.056957 12:0.0500573 13:-0.051607 14:0.0233121 15:-0.0842967 16:0.0308979 17:-0.0982793 18:-0.048482 19:-0.0346925 20:-0.0521872 21:0.0467348 22:-0.0381012 23:0.0882002 24:0.00739134 25:-0.0949193 26:0.060043 27:0.0746665 28:-0.0549005 29:-0.0975983 30:0.047764 31:-0.0997614 32:0.0999977 33:0.0596682 34:-0.00936673 35:0.0906344 36:0.0989552 37:-0.0786326 38:-0.00827842 39:0.0999295 40:-0.0380923 41:-0.09809 42:0.0929636 43:-0.0926633 44:-0.071291 45:-0.0987255 46:0.0479263 47:0.0678817 48:0.0554467 49:0.0992741 50:0.078229 51:-0.0264762 52:0.0695781 53:-0.00302634 54:-0.0979521 55:-0.0940546 56:0.0515993 57:0.00970622 58:-0.0331823 59:0.0463737 60:0.0248808 61:-0.0706334 62:-0.0725941 63:0.0379025 64:-0.0414731 65:0.0809611 66:-0.0437414 67:-0.0981522 68:-0.0105581 69:-0.0231411 70:-0.0742082 71:0.0292067 72:0.0992534 73:-0.052693 74:0.0836247 75:-0.0847449 76:0.0969411 77:-0.0870066 78:0.0285555 79:0.040209 80:-0.0973837 81:0.0551029 82:0.0989756 83:-0.0969353 84:0.0542435 85:-0.00498837 86:0.0328113 87:-0.0231295 88:-0.053156 89:0.0859394 90:0.0455828 91:-0.0849692 92:-0.0712569 93:0.0080391 94:0.0290706 95:0.099238 96:0.00394431 97:0.0880171 98:-0.0808537 99:-0.0182813 100:-0.0563239
1 1:-0.0909034 2:-0.083957 3:-0.00520432 4:-0.098633 5:-0.032614 6:0.0891292 7:0.0874027 8:0.0989889 9:0.0899963 10:-0.0942421 11:-0.0431224 12:0.0825748 13:-0.0707172 14:-0.0312303 15:-0.026651 16:-0.0241726 17:-0.0999305 18:0.0216776 19:0.0383015 20:-0.0999601 21:0.0427548 22:0.0690041 23:0.0391173 24:-0.0794143 25:-0.0995471 26:0.0889515 27:0.0523336 28:-0.0981084 29:-0.0939182 30:0.0867664 31:-0.0674388 32:0.0293049 33:0.0911132 34:0.0187965 35:0.0946116 36:0.060491 37:-0.0425722 38:-0.0822903 39:-0.0171405 40:-0.0811788 41:-0.0590981 42:0.00727957 43:-0.0996858 44:-0.0320721 45:-0.0729975 46:0.0837411 47:-0.0478407 48:0.0185761 49:0.0431328 50:-0.0999977 51:-0.0129154 52:0.0356143 53:-0.0998491 54:-0.0991144 55:-0.0980772 56:0.082843 57:0.00056839 58:0.0555288 59:-0.0236875 60:0.000367952 61:-0.0829102 62:-0.0183746 63:0.0992538 64:-0.0318184 65:0.076953 66:0.025651 67:-0.0328683 68:-0.0785603 69:-0.0709319 70:-0.0813416 71:0.0648705 72:-0.0154065 73:-0.0994112 74:-0.0945304 75:0.0290482 76:0.05012 77:-0.0129674 78:-0.000812725 79:-0.0765236 80:-0.0914506 81:0.0666555 82:0.0988148 83:-0.0881954 84:-0.0270493 85:0.0289401 86:0.0934741 87:-0.0262683 88:0.00981733 89:0.0919869 90:-0.030931 91:-0.0870978 92:-0.0483798 93:-0.00249465 94:0.0355043 95:0.0854634 96:0.03044 97:0.095983 98:-0.0563583 99:-0.0706682 100:-0.05634
-1 1:-0.00664468 2:-0.0491984 3:0.0299776 4:-0.0842413 5:0.0671186 6:0.086639 7:0.0531971 8:-0.0549317 9:0.0472161 10:-0.0994061 11:-0.0528803 12:0.0474325 13:-0.081846 14:0.0917636 15:-0.0655677 16:0.0120741 17:-0.0999216 18:-0.0707066 19:0.0113402 20:-0.0940453 21:0.0959677 22:0.0994917 23:0.0928413 24:-0.0298376 25:-0.0935299 26:-0.00127891 27:0.0782973 28:-0.0831 29:-0.0970899 30:0.0415857 31:-0.0826542 32:0.0493468 33:0.0932214 34:0.0538494 35:0.0363781 36:0.0601293 37:-0.0910561 38:0.0191398 39:0.0104077 40:-0.0937964 41:-0.00585284 42:-0.00340495 43:-0.0574837 44:-0.0701613 45:-0.0830646 46:0.0530049 47:0.0183012 48:0.0180532 49:0.069933 50:-0.094832 51:-0.057234 52:0.0913654 53:-0.049382 54:-0.0999772 55:-0.0992708 56:0.0870422 57:-0.0361108 58:-0.020151 59:0.0545393 60:0.00528113 61:-0.0999912 62:0.0392773 63:0.0829759 64:-0.0875066 65:0.0628394 66:-0.0799196 67:-0.0952475 68:-0.0475966 69:-0.0601649 70:0.0235746 71:0.0145196 72:0.028102 73:-0.0882123 74:-0.0795385 75:-0.0996952 76:0.0998943 77:-0.0565676 78:-0.0162724 79:-0.0997004 80:-0.0970403 81:0.0987136 82:0.0994 83:-0.0563012 84:0.0769471 85:0.0665688 86:0.00308859 87:-0.0421456 88:0.0582115 89:0.0932517 90:-0.0719279 91:-0.0850882 92:-0.0546236 93:0.0674413 94:-0.00357686 95:-0.0412625 96:0.0863255 97:0.0846605 98:-0.0648784 99:0.0629472 100:-0.0217528
1 1:0.00144288 2:-0.0827672 3:0.0913456 4:-0.0959072 5:0.0852618 6:0.0517464 7:-0.0220544 8:0.0969562 9:0.0941495 10:-0.07266 11:-0.0451432 12:0.0994808 13:0.0996645 14:0.0169869 15:-0.0414034 16:0.0284831 17:-0.00301507 18:0.0209122 19:0.0302428 20:-0.0465121 21:0.0842612 22:0.0395792 23:0.096629 24:-0.0321494 25:-0.0944097 26:0.064705 27:0.0843931 28:-0.0996081 29:-0.0710438 30:0.0750443 31:-0.0371199 32:0.04768 33:0.0673178 34:-0.0594517 35:0.0998552 36:0.0982785 37:-0.0686834 38:0.0898639 39:-0.0539366 40:-0.0638196 41:0.0119689 42:0.0458554 43:-0.098122 44:-0.0756662 45:-0.0681525 46:-0.0553869 47:-0.0999784 48:0.0284202 49:0.0856687 50:-0.0779588 51:-0.0962753 52:0.0440653 53:-0.094372 54:-0.0992337 55:-0.0759511 56:0.0812962 57:-6.6015e-05 58:0.0668758 59:0.0742719 60:0.0071067 61:-0.0989544 62:-0.0255929 63:0.00841979 64:-0.0976577 65:0.0918529 66:0.0616644 67:-0.0516571 68:-0.0879486 69:-0.0889894 70:-0.0928844 71:0.0500564 72:0.0928826 73:-0.0942096 74:-0.0992112 75:-0.0926064 76:0.0998863 77:-0.0510522 78:0.0679654 79:-0.0497736 80:-0.0765702 81:0.0949474 82:0.00833509 83:-0.0904684 84:-0.0182247 85:-0.0353348 86:0.0503974 87:-0.0366889 88:0.015666 89:0.0680351 90:-0.0864211 91:-0.0846293 92:-0.00117147 93:0.055231 94:0.0418754 95:0.0545147 96:0.0979982 97:0.0428938 98:-0.0755566 99:-0.0290914 100:-0.0194068
1 1:0.099829 2:-0.0957539 3:0.096445 4:-0.0209276 5:0.0491062 6:-0.0328279 7:-0.018127 8:0.0811359 9:0.0881087 10:-0.0927949 11:0.0222276 12:-0.0852272 13:-0.0148804 14:0.0478482 15:-0.0320085 16:-0.0170513 17:-0.0997503 18:-0.0415183 19:0.0999239 20:-0.0905761 21:0.0992399 22:0.0379817 23:0.0920848 24:-0.074906 25:-0.066467 26:0.0642124 27:0.0751857 28:-0.0979875 29:-0.0938304 30:0.0336318 31:-0.0430727 32:-0.0980235 33:0.0415156 34:0.0164891 35:0.0218396 36:0.0537386 37:-0.0987864 38:0.0995107 39:0.00743732 40:-0.00489003 41:0.0672907 42:0.070746 43:-0.0811272 44:-0.0680095 45:-0.0999469 46:0.00529255 47:-0.0972493 48:0.0793861 49:0.0748634 50:-0.0779712 51:-0.0556723 52:0.095198 53:-0.0826107 54:0.0492051 55:-0.0222326 56:0.00774641 57:0.033268 58:0.0248836 59:0.0995155 60:-0.043619 61:-0.041346 62:-0.0361498 63:0.0836571 64:-0.0984058 65:0.0737499 66:-0.0674368 67:-0.0656632 68:-0.0964411 69:-0.0832874 70:-0.0622164 71:0.0421856 72:-0.0645515 73:-0.0909379 74:-0.0202601 75:0.0219419 76:-0.00474884 77:-0.0956046 78:-0.0480223 79:0.0592334 80:-0.0886435 81:0.0874642 82:-0.0674438 83:-0.0939484 84:-0.0117544 85:-0.0758367 86:-0.0433538 87:-0.0501243 88:-0.00128644 89:0.00904544 90:-0.0346564 91:-0.0923245 92:-0.0256909 93:-0.0257203 94:0.0902021 95:0.0998521 96:0.0299699 97:0.0828253 98:-0.0199733 99:0.0348327 100:-0.0692033
0.681477 1:0.021142 2:0.0343897 3:0.0965994 4:-0.0987575 5:0.0417269 6:0.0593024 7:0.0754905 8:0.0855639 9:0.0930018 10:-0.0673899 11:-0.0743532 12:0.086985 13:0.0433528 14:0.0556881 15:-0.0711803 16:-0.0261644 17:-0.0784928 18:-0.00158223 19:0.0359441 20:-0.0961383 21:0.0515643 22:-0.0145086 23:0.0980963 24:0.0186828 25:-0.057397 26:0.0861981 27:0.0452782 28:-0.0347398 29:-0.0988435 30:0.0148023 31:-0.0873028 32:0.00586585 33:0.0999955 34:-0.0428148 35:0.0501119 36:0.020942 37:-0.0925069 38:0.0951982 39:0.0309722 40:-0.0607019 41:-0.0597164 42:0.0999364 43:-0.039312 44:-0.085046 45:-0.0843581 46:-0.0695899 47:-0.0883378 48:0.0777705 49:0.0864132 50:-0.0135693 51:-0.0699687 52:0.0998322 53:-0.0700267 54:-0.0993112 55:-0.0999805 56:-0.00939212 57:-0.0564739 58:-0.0155866 59:0.0202572 60:0.0378431 61:-0.072889 62:-0.0999962 63:-0.074304 64:-0.0963137 65:0.0941091 66:-0.028302 67:-0.0862611 68:-0.0264299 69:-0.0580591 70:-0.0837719 71:-0.0874105 72:0.0644819 73:-0.0739349 74:0.0439373 75:-0.0129851 76:0.0209945 77:-0.099929 78:0.0587635 79:0.0929993 80:-0.0565696 81:0.0493567 82:-0.0171555 83:-0.0990389 84:-0.0929417 85:-0.0275835 86:0.0442082 87:-0.0552139 88:-0.096862 89:0.081326 90:-0.0678379 91:-0.0675907 92:-0.0382121 93:0.0668851 94:0.0935256 95:0.0717062 96:0.0281632 97:0.0912439 98:-0.0955362 99:-0.0499157 100:-0.0314446
1 1:0.0568057 2:-0.0428335 3:0.0960201 4:-0.059953 5:0.0563853 6:-0.0435356 7:0.0407679 8:0.0597273 9:-0.00473501 10:-0.0438828 11:-0.078265 12:0.0989005 13:0.000412923 14:0.0132818 15:-0.0417459 16:0.0308641 17:-0.0850194 18:-0.0329475 19:0.046608 20:-0.0863555 21:0.0955421 22:0.0920114 23:0.0933661 24:-0.0932998 25:-0.0748606 26:0.0936942 27:0.0986664 28:-0.0619607 29:-0.0809769 30:0.0217055 31:-0.0919293 32:-0.0170906 33:0.077379 34:-0.0480216 35:0.0171871 36:0.089302 37:-0.0992575 38:0.0977143 39:0.0813066 40:-0.0764326 41:-0.0309482 42:0.00561182 43:-0.0789187 44:0.0114581 45:-0.0866557 46:0.0320458 47:-0.00930761 48:0.0349969 49:0.0990743 50:-0.039965 51:0.0172869 52:0.0897018 53:-0.083226 54:-0.0989202 55:-0.0129555 56:0.0971888 57:-0.000489041 58:-0.0377353 59:0.0747216 60:0.0329508 61:-0.0935441 62:-0.0907943 63:0.0911157 64:-0.0961841 65:0.0990149 66:0.00522621 67:-0.0517558 68:-0.0787379 69:-0.0716306 70:-0.0983099 71:0.0743409 72:0.0303611 73:-0.0805121 74:-0.083255 75:0.0341073 76:0.0887875 77:-0.00815363 78:-0.0899112 79:-0.00483367 80:-0.0716995 81:0.0996495 82:0.0529682 83:-0.0866015 84:0.0320244 85:-0.087747 86:0.0912094 87:-0.0410565 88:-0.0458946 89:0.0155043 90:0.0109869 91:-0.0763353 92:-0.0341125 93:0.041951 94:0.0555089 95:0.0998271 96:0.0267789 97:0.0563335 98:-0.0998942 99:-0.0307587 100:-0.024954
1 1:0.00767093 2:-0.0858148 3:0.0970138 4:-0.0566443 5:-0.0870432 6:0.0409301 7:0.0426741 8:0.0971486 9:0.00518016 10:-0.0906734 11:0.031043 12:-0.00116886 13:0.0892999 14:-0.00410794 15:-0.0291772 16:0.049575 17:-0.035276 18:0.00555897 19:0.0148548 20:-0.0686732 21:0.0999837 22:0.0564971 23:0.0939799 24:-0.099905 25:-0.0109394 26:0.0525788 27:-0.000293607 28:-0.0923169 29:-0.0826107 30:-0.0757696 31:0.0237508 32:-0.0913991 33:0.0139081 34:-0.0210782 35:0.0991161 36:0.0746742 37:-0.0880209 38:0.0891162 39:0.099373 40:-0.0423631 41:0.00339871 42:0.0869103 43:-0.0583836 44:-0.0993124 45:-0.0622323 46:0.0879705 47:-0.0288466 48:-0.0503958 49:0.0612111 50:-0.0563508 51:0.0238557 52:0.0683043 53:0.0193186 54:0.0828774 55:0.0392704 56:0.0282197 57:0.0906094 58:-0.0503596 59:-0.0343165 60:-0.0627703 61:-0.099993 62:-0.0631521 63:0.0987262 64:-0.0792596 65:0.0743501 66:0.019633 67:-0.0598602 68:-0.0671551 69:-0.0751694 70:-0.0173226 71:0.0927518 72:0.0568589 73:-0.0705729 74:-0.0894717 75:0.0097659 76:0.0998315 77:-0.0988771 78:-0.0690602 79:-0.0150398 80:-0.0149554 81:0.096559 82:0.00527902 83:-0.0892443 84:-0.0158311 85:-0.0821049 86:-0.0281765 87:-0.00495014 88:-0.0153007 89:0.0848528 90:-0.0662432 91:-0.071785 92:-0.0466024 93:-0.0666784 94:-0.014031 95:0.0968255 96:0.0214146 97:0.0575247 98:-0.0774856 99:-0.0482959 100:-0.0413357
-1 1:0.0576792 2:-0.0983418 3:0.0730217 4:-0.0999867 5:-0.0250624 6:0.0543302 7:0.0795181 8:0.0503333 9:0.0861901 10:-0.0871666 11:-0.0347126 12:0.0129684 13:0.0329897 14:0.0074463 15:-0.0193906 16:0.014229 17:-0.0845652 18:-0.0795557 19:-0.0617302 20:-0.0957105 21:0.0776305 22:-0.00887954 23:0.082033 24:-0.0798079 25:-0.095112 26:0.0342478 27:0.0829727 28:-0.0985777 29:-0.0998005 30:0.0589877 31:-0.0970535 32:0.025874 33:0.0561785 34:-0.0166676 35:0.0814299 36:0.0989287 37:-0.0691168 38:-0.0298374 39:0.0930071 40:-0.0999974 41:0.03531 42:0.0311158 43:-0.0609312 44:-0.00414081 45:-0.0381364 46:0.0338093 47:0.0252929 48:-0.0193543 49:0.0484295 50:-0.0259424 51:-0.0799009 52:0.0996917 53:-0.00990178 54:-0.0259121 55:-0.064995 56:0.0679047 57:0.064599 58:0.0533989 59:-0.0222063 60:-0.0694283 61:-0.098181 62:-0.0763933 63:0.0731641 64:-0.0807675 65:0.0493225 66:-0.0488534 67:-0.0946136 68:-0.0586672 69:-0.0463983 70:-0.086617 71:0.0865357 72:0.0810226 73:-0.099701 74:-0.0883255 75:-0.0366854 76:0.0995256 77:-0.0969449 78:-0.0526865 79:-0.0126305 80:-0.0945836 81:0.0964649 82:0.0314589 83:-0.0872755 84:0.00418831 85:-0.0223533 86:0.0941772 87:0.0268397 88:0.00535776 89:0.0999701 90:0.0626107 91:-0.0904 92:-0.0203941 93:-0.052939 94:-0.0483708 95:0.096532 96:0.0500507 97:0.00182903 98:-0.0823873 99:0.03502 100:-0.00264124
1 1:0.032986 2:0.0151 3:0.0302161 4:0.00715185 5:0.0778584 6:0.0901085 7:0.0655719 8:0.0967872 9:0.0992403 10:-0.0884221 11:0.0795676 12:0.0581086 13:-0.0951789 14:0.00732233 15:-0.099303 16:-0.045102 17:-0.0428416 18:0.051806 19:0.0663567 20:0.0944239 21:0.0997384 22:0.0996246 23:0.0348273 24:-0.054935 25:-0.0495372 26:-0.0825177 27:0.0759749 28:-0.0409291 29:-0.0864106 30:0.0581937 31:-0.0268193 32:0.040431 33:0.0616702 34:0.02285 35:-0.0646788 36:0.0890204 37:-0.0286941 38:0.0244279 39:0.0787713 40:-0.0985884 41:-0.00370465 42:0.0719309 43:-0.0139712 44:-0.0380577 45:-0.0869031 46:0.0896058 47:-0.0289152 48:0.0554206 49:0.0629313 50:-0.0655816 51:0.0373097 52:-0.0419648 53:-0.00148932 54:-0.0192771 55:-0.0836232 56:0.0160508 57:0.0188867 58:-0.0630324 59:0.0459034 60:-0.0884554 61:-0.0736953 62:0.08687 63:0.0847659 64:0.0323397 65:0.0995916 66:-0.00307985 67:-0.099908 68:-0.0776558 69:-0.0840033 70:0.0377538 71:0.0230959 72:-0.04568 73:-0.0684964 74:-0.0882702 75:0.0143702 76:0.0832408 77:-0.0523816 78:-0.0304402 79:0.0765383 80:-0.0992007 81:0.0761411 82:0.0977785 83:-0.0350546 84:-0.0321041 85:-0.0902606 86:-0.0774302 87:-0.000421587 88:0.081677 89:0.0396481 90:-0.0641322 91:-0.0145733 92:-0.0718261 93:0.0314545 94:0.0991534 95:0.0879669 96:-0.0685937 97:0.018825 98:-0.0858566 99:0.0406986 100:0.0394158
1 1:0.0693983 2:-0.0987296 3:0.0975751 4:0.00840027 5:0.0392252 6:-0.00732726 7:-0.0889048 8:0.099337 9:0.0994518 10:-0.0878332 11:0.0385061 12:0.0981497 13:0.0383768 14:-0.0101884 15:-0.0341191 16:0.013777 17:-0.0757266 18:-0.037156 19:0.0890973 20:-0.0361026 21:0.0790981 22:0.00374846 23:0.0993453 24:-0.063739 25:-0.0523173 26:-0.052103 27:0.0317873 28:-0.0957339 29:-0.0586321 30:0.0539426 31:-0.0587687 32:0.0155725 33:0.0390082 34:0.024159 35:-0.0359198 36:0.0557284 37:-0.0828277 38:0.096543 39:0.00127611 40:-0.0718827 41:0.0427298 42:0.0852136 43:-0.0983879 44:-0.0435943 45:-0.099955 46:0.0174417 47:0.093755 48:0.0555357 49:0.098564 50:0.0742624 51:0.0859994 52:0.0684386 53:-0.00831771 54:-0.0060303 55:0.0105428 56:0.0234176 57:-0.0405802 58:-0.0993669 59:0.0745441 60:-0.0488791 61:-0.0791498 62:0.0648224 63:-0.00965394 64:-0.074785 65:-0.0210233 66:-0.0308489 67:-0.0851145 68:-0.0786835 69:-0.0928469 70:-0.073633 71:0.0300764 72:0.0891061 73:-0.0872461 74:-0.0497736 75:-0.0738756 76:0.0523097 77:-0.0805758 78:-0.0513591 79:0.0972935 80:-0.0988324 81:0.0930493 82:-0.0999244 83:-0.0915723 84:-0.0263345 85:-0.0709493 86:0.0567926 87:0.0352855 88:-0.0204993 89:-0.00527281 90:0.00527896 91:-0.0757997 92:-0.0247937 93:-0.048902 94:0.0423618 95:0.0897191 96:0.0683002 97:0.0997767 98:-0.0728622 99:-0.0192 100:-0.00995795
0.814151 1:0.0985928 2:-0.0863347 3:0.0798359 4:0.0802561 5:0.0544684 6:0.0465128 7:0.0853524 8:0.0633901 9:0.086021 10:-0.095311 11:0.0464686 12:-0.0168022 13:-0.0222685 14:-0.0154065 15:-0.0455209 16:0.0149408 17:-0.0193736 18:-0.030606 19:0.0793291 20:-0.0317075 21:0.0990418 22:0.0739264 23:0.0752365 24:-0.055277 25:-0.0616372 26:0.064943 27:0.0728563 28:-0.0961088 29:-0.0760904 30:0.0153018 31:-0.0893201 32:-0.0629373 33:0.0142418 34:0.0256579 35:0.0859992 36:0.0995085 37:-0.0996019 38:0.0911798 39:0.0963738 40:-0.0760145 41:0.0674493 42:-0.0151929 43:-0.0911692 44:-0.0866571 45:-0.0990303 46:0.0199777 47:0.0464239 48:0.0818328 49:0.0856419 50:-0.044639 51:-0.0108128 52:0.0989499 53:0.0552838 54:0.0560634 55:0.0380561 56:0.0882004 57:0.0293488 58:-0.0459042 59:0.042288 60:-0.0568539 61:-0.0308466 62:0.0167721 63:0.09072 64:-0.0997801 65:0.0777305 66:-0.069616 67:-0.0817107 68:-0.0650936 69:-0.00804201 70:0.0315945 71:0.0963555 72:0.0730386 73:-0.0912237 74:-0.0281058 75:0.0176994 76:0.0999638 77:-0.0251547 78:-0.0846397 79:0.0840235 80:-0.0201144 81:0.0961811 82:0.0360019 83:-0.0979619 84:0.007519 85:-0.0999472 86:0.0531478 87:0.0433784 88:0.0796518 89:-0.0237889 90:-0.092827 91:0.0327622 92:0.00527835 93:-0.0440731 94:-0.0345527 95:0.0982609 96:0.00214752 97:0.0934472 98:-0.0731737 99:0.00993056 100:-0.0585664
1 1:0.0352999 2:-0.0289735 3:0.0999811 4:0.0220758 5:0.0949043 6:-0.0344721 7:0.0244969 8:0.0946352 9:0.0917342 10:-0.00642672 11:0.0828743 12:0.0430174 13:0.0985189 14:-0.0249097 15:-0.0624344 16:0.0328835 17:-0.0967934 18:0.0404613 19:0.080864 20:-0.0957427 21:0.0985883 22:-0.00926924 23:0.0243032 24:-0.0347203 25:-0.057376 26:0.052963 27:0.0275266 28:-0.0733784 29:-0.0952249 30:-0.0336003 31:0.0286329 32:0.0627117 33:0.0596309 34:-0.0109291 35:0.0857827 36:0.0870494 37:-0.0924446 38:0.0425951 39:0.049686 40:-0.055822 41:-0.0922812 42:0.0785014 43:-0.0805233 44:-0.0775983 45:-0.0787065 46:-0.0508801 47:-0.0581321 48:0.0680702 49:0.0738814 50:0.0135017 51:0.021473 52:-0.020193 53:0.0494782 54:-0.0948129 55:-0.0982741 56:0.0748363 57:-0.0288282 58:-0.0774362 59:0.0283933 60:-0.0436002 61:-0.0601099 62:-0.0231114 63:-0.0301842 64:-0.0968505 65:0.0993293 66:-0.0041158 67:-0.00762406 68:-0.0364265 69:-0.0603361 70:-0.0961656 71:0.0577805 72:0.0515725 73:-0.021715 74:-0.0855114 75:-0.0999667 76:0.0995613 77:-0.0985107 78:0.0287618 79:0.0947342 80:-0.0616006 81:0.0544723 82:0.0297375 83:-0.0691541 84:-0.0438944 85:-0.0831764 86:0.03335 87:0.0679303 88:-0.0188028 89:-0.0288374 90:-0.0983863 91:-0.087305 92:0.0348681 93:-0.060746 94:0.0618198 95:0.0463953 96:0.0201126 97:0.0986807 98:-0.0996965 99:-0.0803233 100:0.0125155
1 1:0.0993391 2:0.0135028 3:0.0702041 4:0.00876785 5:0.0724164 6:-0.00134723 7:0.0470194 8:0.034134 9:0.0100878 10:0.000589756 11:0.026494 12:-0.0226407 13:0.0183745 14:0.0761224 15:0.0310995 16:-0.0317439 17:-0.0838267 18:-0.0639583 19:0.0966112 20:-0.0963125 21:0.0908835 22:0.0351508 23:0.0518388 24:-0.0226604 25:-0.050857 26:0.0766218 27:0.0961687 28:-0.0241776 29:-0.0912601 30:0.0995294 31:-0.0875434 32:-0.0769906 33:0.0995912 34:0.0166546 35:0.0247213 36:0.0879971 37:-0.0385535 38:0.0483736 39:0.0413789 40:-0.0717831 41:0.0872345 42:0.0257643 43:0.0348612 44:-0.0364248 45:-0.0655122 46:-0.0528145 47:-0.00797681 48:0.0988214 49:0.0915544 50:-0.0992458 51:-0.0940143 52:0.0974482 53:0.0234925 54:0.0165146 55:-0.0495634 56:0.0949736 57:0.00693227 58:-0.0335336 59:0.0392657 60:-0.0276199 61:-0.0473287 62:0.0690641 63:-0.0657908 64:-0.0843132 65:0.0996015 66:-0.0988412 67:-0.0950536 68:-0.0909578 69:-0.0992888 70:-0.0781508 71:-0.0157254 72:0.0138762 73:-0.0974742 74:-0.00951662 75:0.0686041 76:0.0651681 77:-0.0842199 78:-0.0697023 79:0.099976 80:-0.0628516 81:0.0791511 82:-0.0596211 83:-0.0985876 84:-0.0902774 85:-0.0538858 86:-0.038784 87:-0.0395483 88:0.0540719 89:-0.00467788 90:-0.0890824 91:0.0657706 92:0.0107419 93:-0.0293804 94:0.0387037 95:0.046468 96:0.0366453 97:0.0938115 98:-0.09387 99:0.0504191 100:0.02788
-1 1:0.0996294 2:-0.0737347 3:0.0738654 4:0.0939186 5:0.0945649 6:0.0249605 7:0.0633739 8:0.0842446 9:0.0994019 10:-0.0680495 11:0.0683987 12:0.0840882 13:0.0871662 14:-0.0492318 15:-0.0543018 16:-0.0186296 17:-0.0599608 18:0.0474092 19:0.0839031 20:0.0190202 21:0.0606134 22:0.099104 23:0.0687656 24:-0.0833485 25:-0.0841246 26:-0.051346 27:0.0840645 28:-0.0970622 29:-0.0882824 30:0.041609 31:-0.00126443 32:-0.0347988 33:0.0976636 34:-0.049707 35:-0.0288855 36:0.0649663 37:-0.0995794 38:0.042737 39:0.097482 40:0.0399609 41:0.0433997 42:0.0788017 43:-0.0250259 44:-0.099511 45:-0.0579098 46:-0.0939377 47:-0.098697 48:0.0971974 49:0.077909 50:-0.012939 51:-0.0112104 52:-0.0188582 53:-0.0242553 54:-0.0522407 55:-0.00286593 56:-0.0085779 57:-0.0215633 58:0.030209 59:0.0903956 60:-0.0970263 61:-0.0977397 62:-0.0500351 63:0.0507042 64:-0.0771904 65:0.0958229 66:0.0332959 67:-0.0808473 68:-0.0934514 69:-0.0193867 70:-0.0757451 71:-0.0411185 72:0.0211535 73:-0.0633852 74:-0.058326 75:-0.0564947 76:0.0790471 77:-0.0992267 78:0.00533356 79:0.085279 80:-0.012482 81:0.0952541 82:-0.0642323 83:-0.0872095 84:-0.0917908 85:-0.0982347 86:0.083577 87:-0.0107238 88:-0.0586423 89:-0.0479177 90:0.00272561 91:-0.0133567 92:0.0262186 93:0.00272072 94:0.0989476 95:0.0273263 96:0.0994549 97:0.0962908 98:0.0327853 99:-0.0053114 100:-0.0736596
1 1:0.0902675 2:-0.0980361 3:0.0655818 4:0.0336621 5:0.0656081 6:0.0736167 7:0.0960481 8:0.0242663 9:0.0998639 10:-0.0996811 11:0.0887427 12:0.00638315 13:-0.0294952 14:-0.0040721 15:-0.0758434 16:0.00359501 17:-0.0387713 18:-0.0200919 19:0.0675226 20:-0.00837516 21:0.0317697 22:0.0818114 23:-0.07318 24:-0.0473742 25:-0.0913684 26:0.0946515 27:-0.01056 28:-0.0844395 29:-0.0532102 30:0.0119295 31:-0.0982427 32:0.0218063 33:0.0307986 34:0.0202345 35:0.0852576 36:0.0360911 37:-0.0864389 38:0.0454102 39:0.0854706 40:-0.0698485 41:0.0149092 42:-0.0046617 43:-0.095526 44:-0.0293916 45:-0.068362 46:0.0805089 47:0.0482719 48:0.0647409 49:0.0952095 50:-0.0276741 51:0.011836 52:-0.0079909 53:0.0523185 54:0.00578965 55:0.00298403 56:0.0999658 57:0.0630446 58:0.0653626 59:0.00225638 60:-0.0962283 61:-0.0970947 62:0.0573004 63:0.0959954 64:-0.0378485 65:0.0873473 66:-0.0207459 67:-0.0752468 68:-0.099259 69:-0.0579629 70:-0.0465751 71:0.08561 72:0.0727435 73:-0.0998676 74:-0.0633458 75:-0.0918054 76:0.0984844 77:-0.0293969 78:-0.0454112 79:0.0673224 80:-0.0954168 81:0.0976812 82:0.0698887 83:-0.085142 84:-0.0179437 85:-0.0572083 86:-0.0745726 87:-0.0170948 88:-0.0110327 89:0.0200318 90:-0.0892531 91:-0.00854677 92:-0.0661246 93:-0.0949439 94:-0.0230669 95:0.0493951 96:0.0105219 97:0.0527815 98:-0.0969374 99:0.083025 100:-0.0808882
-1 1:0.0997921 2:-0.0212845 3:0.0839746 4:-0.0169734 5:0.0302849 6:0.0643183 7:0.0396193 8:0.0961806 9:0.0161519 10:-0.0736396 11:0.0435422 12:0.0144597 13:0.0807928 14:-0.0707833 15:-0.0153678 16:0.0362317 17:-0.0462721 18:-0.0616347 19:-0.0163458 20:-0.0768044 21:0.0652059 22:0.0259951 23:0.0210037 24:-0.0999546 25:-0.0319249 26:0.00462952 27:-0.00875742 28:0.0115292 29:0.0139629 30:-0.083527 31:0.0457356 32:-0.0145995 33:-0.0996254 34:0.00498414 35:0.0454393 36:0.0882261 37:-0.0959945 38:0.0411205 39:0.0263607 40:-0.0252782 41:-0.0325237 42:0.0542212 43:-0.0423939 44:-0.099721 45:-0.0190705 46:0.0123521 47:0.0299511 48:0.0878089 49:0.0954209 50:0.077885 51:0.0829491 52:0.0685894 53:0.0181364 54:0.0933777 55:0.0173048 56:-0.0185473 57:0.0262857 58:-0.0240736 59:0.0992882 60:-0.0645726 61:-0.0985712 62:0.0121943 63:-0.00499109 64:-0.0249825 65:-0.0269688 66:0.0970304 67:-0.0999755 68:-0.0142624 69:-0.0101507 70:0.090094 71:0.0599713 72:0.0720504 73:0.0277159 74:-0.0632246 75:-0.0608715 76:0.0127592 77:-0.024339 78:-0.0792767 79:0.0247245 80:-0.0716941 81:0.0799842 82:0.0532159 83:-0.013177 84:0.0979214 85:-0.0960199 86:0.0780444 87:0.0400798 88:0.0155548 89:-0.0886855 90:-0.0323641 91:-0.0277477 92:0.0301738 93:-0.0996744 94:0.0988309 95:0.0693283 96:-0.00365594 97:0.0755429 98:0.029615 99:0.0780689 100:0.0602409
-1 1:0.000709041 2:-0.0860426 3:0.0956126 4:0.0573404 5:0.0538096 6:0.0215186 7:-0.000945248 8:0.0892946 9:0.0860436 10:-0.09741 11:0.0996924 12:0.0913641 13:-0.0198337 14:0.00262157 15:-0.0939884 16:-0.0117672 17:-0.0336166 18:0.0673499 19:0.0936795 20:0.0742425 21:0.0925543 22:0.0121186 23:0.0972594 24:-0.096791 25:-0.0443282 26:-0.0634411 27:0.0242944 28:-0.0837946 29:-0.0399756 30:-0.0205485 31:-0.0116353 32:0.0284495 33:0.0306889 34:-0.0124697 35:0.0899288 36:0.0405667 37:-0.0991167 38:0.0971703 39:0.0895976 40:-0.0971738 41:-0.0404778 42:0.0296327 43:-0.0837162 44:0.053982 45:-0.0841103 46:-0.0349172 47:0.0719023 48:0.0298214 49:0.0656138 50:0.0498184 51:0.0372786 52:0.0182824 53:0.0575345 54:0.08942 55:-0.0454229 56:0.018981 57:0.0881819 58:-0.0325265 59:0.00450808 60:-0.086791 61:-0.099801 62:-0.0572836 63:-0.0616473 64:-0.0515283 65:0.00789593 66:-0.0476458 67:-0.0168282 68:-0.1 69:-0.0145672 70:-0.0740441 71:0.0884675 72:0.0982462 73:-0.0699234 74:0.00479018 75:-0.091685 76:0.0999885 77:-0.0982468 78:0.0250643 79:0.0999999 80:-0.0876148 81:0.0883553 82:-0.0665616 83:-0.0999999 84:0.0096436 85:-0.0858616 86:0.0501311 87:-0.0436267 88:-0.0318506 89:-0.0377262 90:-0.097098 91:-0.052059 92:-0.0210721 93:-0.0545128 94:-0.0549191 95:0.0503023 96:0.0944671 97:0.0999563 98:-0.0471841 99:-0.0108582 100:-0.0900963
-1 1:0.0495268 2:-0.0903373 3:0.0958849 4:-0.0583266 5:0.00745737 6:0.0642984 7:0.0669638 8:0.0472518 9:0.0994998 10:-0.0660688 11:0.0441569 12:0.0722544 13:0.0366896 14:-0.0697873 15:-0.0404146 16:-0.045969 17:-0.0507153 18:0.0971495 19:0.0218524 20:-0.0686409 21:0.0648112 22:-0.03457 23:-0.021497 24:-0.0935636 25:-0.073011 26:0.0358431 27:-0.0631708 28:-0.0983502 29:-0.0524214 30:0.0351634 31:0.0438741 32:0.023806 33:-0.00412998 34:-0.038166 35:0.0939914 36:0.0733757 37:-0.094202 38:-0.0351715 39:0.0880541 40:-0.0978403 41:0.0440167 42:0.0977646 43:-0.0763867 44:-0.0618934 45:-0.00456474 46:-0.0259554 47:-0.00646159 48:0.0965604 49:0.0974466 50:0.000130946 51:0.0873194 52:0.0759451 53:-0.0190956 54:0.0969039 55:-0.0223356 56:-0.0623993 57:0.09875 58:0.0465709 59:-0.0807157 60:-0.0901342 61:-0.0997595 62:-0.0964445 63:-0.0554222 64:0.00585409 65:0.0400729 66:0.0283657 67:-0.0999988 68:-0.0530197 69:-0.0532468 70:-0.0865975 71:0.0270158 72:0.0990522 73:-0.0782292 74:0.0809554 75:-0.066066 76:0.00523694 77:-0.0916111 78:0.039662 79:0.0932917 80:-0.0855922 81:0.0972946 82:-0.0765405 83:-0.0998825 84:-0.0995553 85:-0.0978343 86:0.0855922 87:-0.0456355 88:-0.0615169 89:-0.0184689 90:-0.0223004 91:-0.0955279 92:-0.0030952 93:-0.0670432 94:0.0803654 95:0.0112889 96:0.00849208 97:0.0799308 98:-0.0200462 99:0.0324621 100:0.0227812
-1 1:0.0932737 2:-0.0174181 3:0.0797168 4:0.0373215 5:0.0811516 6:0.0684856 7:0.0895704 8:0.0098286 9:0.0116562 10:-0.0918678 11:-0.00560569 12:-0.0374047 13:0.0172437 14:0.00554798 15:-0.0491821 16:0.0365809 17:-0.053858 18:0.05843 19:0.0999619 20:-0.0344903 21:0.0488298 22:0.00298205 23:0.0181073 24:-0.0643552 25:-0.0999957 26:0.0994698 27:0.0872225 28:-0.0209659 29:-0.0819906 30:-0.0390002 31:0.0778948 32:0.000682098 33:0.0748148 34:-0.0290761 35:0.0586277 36:0.0902022 37:-0.0585803 38:0.0313098 39:0.028011 40:0.0092621 41:0.0672004 42:0.0410936 43:-0.0977829 44:-0.0686606 45:-0.0947172 46:0.090872 47:-0.0771567 48:0.0759975 49:0.0609093 50:-0.0688889 51:0.00686065 52:0.0162359 53:0.0328691 54:-0.0852067 55:0.0253854 56:0.0995917 57:0.0946668 58:0.0826456 59:-0.0578948 60:-0.0986751 61:-0.0840148 62:-0.00417833 63:0.0985422 64:-0.0353897 65:0.0896896 66:0.0760941 67:-0.0485837 68:-0.0829177 69:-0.0187156 70:-0.000949541 71:-0.0537294 72:0.0768685 73:-0.0856443 74:-0.0532024 75:-0.0669247 76:0.0990463 77:-0.0322628 78:-0.0995638 79:0.085273 80:-0.0977414 81:0.099837 82:0.0827006 83:-0.0454135 84:0.0101479 85:-0.0912163 86:-0.0151467 87:0.0106871 88:-0.0444559 89:0.0980382 90:-0.0145148 91:-0.0585249 92:-0.0750828 93:0.0999839 94:-0.0313927 95:0.0346799 96:0.00768527 97:0.0409582 98:-0.0929609 99:0.0937164 100:0.0751302
1 1:0.0806862 2:-0.0918401 3:0.0827572 4:0.078848 5:0.0994082 6:0.0828707 7:0.0869893 8:0.0384656 9:0.0916551 10:-0.0874944 11:0.0646035 12:-0.0335659 13:0.0573421 14:-0.0224053 15:0.000233328 16:0.016914 17:0.0433584 18:0.024657 19:0.0944848 20:0.0133724 21:-0.0217562 22:0.0773304 23:-0.0630699 24:-0.0294536 25:-0.0908051 26:0.046493 27:-0.000583624 28:-0.0205255 29:-0.0878096 30:0.0149859 31:-0.0396344 32:-0.0339967 33:0.08055 34:0.0383267 35:0.000737373 36:0.0954511 37:-0.0787575 38:0.0901724 39:-0.00165499 40:-0.0453722 41:0.0490734 42:0.0513566 43:-0.0576903 44:-0.0788039 45:0.0225305 46:0.0694484 47:-0.0470965 48:0.0999326 49:0.0987768 50:-0.098563 51:0.0300611 52:-0.0512979 53:0.0831929 54:-0.0302443 55:0.022128 56:0.0957703 57:0.0684193 58:0.0633781 59:-0.0280205 60:-0.0997955 61:-0.0795856 62:0.0950631 63:0.0883254 64:-0.0376312 65:0.0946937 66:0.0489787 67:-0.0738591 68:-0.0862363 69:-0.0527237 70:-0.0132423 71:0.096809 72:0.000401728 73:-0.0490754 74:-0.0934719 75:-0.0883956 76:0.0981374 77:-0.0561777 78:-0.0968564 79:0.0957509 80:-0.0685667 81:0.0949852 82:0.035431 83:-0.0412216 84:-0.098191 85:-0.0918491 86:-0.0994242 87:0.00279772 88:-0.0459383 89:0.0705707 90:-0.00890521 91:0.00466729 92:-0.0420189 93:-0.0249079 94:0.0651236 95:-0.0041983 96:0.0130519 97:0.0821562 98:-0.0779875 99:0.0953023 100:0.0606324
-1 1:0.0688266 2:-0.0837724 3:0.0886421 4:0.0555506 5:0.0959615 6:0.0463013 7:0.0947975 8:0.0527402 9:0.0989651 10:-0.0592996 11:0.0785841 12:-0.0201454 13:0.0961777 14:0.0328973 15:0.0413971 16:-0.00564746 17:-0.0090949 18:0.0659445 19:0.0991788 20:-0.029499 21:0.096356 22:0.0697409 23:0.0583875 24:-0.0953388 25:-0.064722 26:0.0348035 27:0.01033 28:-0.076514 29:-0.0443056 30:0.00398605 31:-0.00248811 32:-0.0542783 33:0.0917684 34:-0.0884063 35:0.0330537 36:0.094212 37:-0.0999321 38:0.0787807 39:0.0723329 40:-0.0505476 41:0.0881767 42:0.0677266 43:-0.0844978 44:-0.07706 45:-0.0787452 46:-0.0258159 47:-0.0232538 48:0.0689733 49:0.1 50:-0.099026 51:0.00714851 52:0.0739488 53:0.0358327 54:0.0332283 55:0.0567581 56:0.0787323 57:-0.00267707 58:0.015566 59:-0.0527211 60:-0.0993707 61:-0.0906315 62:-0.0105844 63:-0.0391453 64:-0.0709403 65:0.0902076 66:0.0316134 67:-0.0840704 68:-0.0746487 69:-0.0796451 70:-0.0996096 71:0.0995533 72:0.0889065 73:-0.0877465 74:-0.0704872 75:0.0381834 76:0.0910353 77:-0.099265 78:-0.0406154 79:0.0992594 80:0.0290039 81:0.0857547 82:-0.037273 83:-0.0973691 84:-0.0926223 85:-0.0942659 86:0.0956025 87:0.0131528 88:-0.0823642 89:0.0644186 90:-0.0692657 91:-0.00195676 92:-0.00578736 93:0.0205052 94:0.028068 95:-0.00620842 96:0.0903048 97:0.0991789 98:-0.0660983 99:0.0605202 100:-0.0310189
1 1:0.0758626 2:-0.0437659 3:0.0931015 4:-0.0374402 5:0.0493187 6:0.0776543 7:0.0888142 8:0.0622715 9:0.0999895 10:-0.0768035 11:-0.0187344 12:-0.0257389 13:-0.002093 14:0.0896093 15:0.00306846 16:0.0250891 17:-0.076146 18:0.0192267 19:0.0816464 20:0.035011 21:0.0221937 22:-0.0165074 23:0.0301736 24:-0.0623001 25:-0.0342043 26:0.0935375 27:0.0933122 28:-0.0860915 29:-0.054661 30:-0.032016 31:-0.0431768 32:-0.0635091 33:0.0447178 34:0.00688851 35:0.0748443 36:0.0792167 37:-0.0272538 38:0.0589754 39:0.0442209 40:-0.060395 41:0.00573044 42:0.0738801 43:-0.0797044 44:-0.0292884 45:-0.0666223 46:0.0746672 47:-0.0266929 48:0.0971739 49:0.0986476 50:-0.062107 51:0.0382227 52:0.0982954 53:0.0829959 54:0.00171068 55:-0.0291789 56:0.0432076 57:0.0267761 58:-0.02857 59:-0.088103 60:0.00487974 61:-0.0999325 62:0.0151929 63:0.0546579 64:-0.0782441 65:0.0970806 66:-0.0543918 67:-0.0807781 68:-0.0998318 69:-0.0496033 70:-0.0840504 71:0.0983857 72:0.0546395 73:-0.0976955 74:-0.0676679 75:0.0234427 76:-0.0204351 77:-0.0995881 78:-0.0745182 79:0.0149144 80:-0.0457338 81:0.0334275 82:0.0222406 83:-0.0918794 84:-0.098359 85:-0.0997541 86:-0.0635192 87:0.00244818 88:-0.0996561 89:0.0986032 90:-0.0546778 91:0.0337741 92:-0.0867709 93:0.0349979 94:0.0337032 95:-0.00985512 96:-0.0985582 97:0.0934226 98:-0.0883591 99:0.0643006 100:0.0122996
-1 1:0.0229947 2:-0.0988248 3:0.0992051 4:0.00948155 5:0.0513509 6:0.0944993 7:0.0998714 8:0.0647383 9:0.0975926 10:-0.0936778 11:0.057049 12:0.0993025 13:0.030334 14:-0.084531 15:-0.0736751 16:-0.0547123 17:-0.0549782 18:0.0977177 19:0.0368821 20:0.0113608 21:0.0432831 22:0.0746115 23:-0.0927345 24:-0.0942083 25:-0.0610727 26:0.026946 27:0.00790812 28:-0.0679948 29:-0.00924427 30:0.00269752 31:0.0221697 32:0.0620657 33:-0.0234197 34:-0.075254 35:0.0917792 36:0.0837859 37:-0.0670588 38:-0.0454899 39:0.0850927 40:-0.0930733 41:0.049736 42:0.0296969 43:-0.0963369 44:-0.092692 45:-0.0806081 46:-0.0176225 47:-0.0112597 48:0.0889641 49:0.0862076 50:-0.0737742 51:0.044015 52:0.0171577 53:0.0193817 54:0.047297 55:0.00889418 56:0.00592724 57:0.0585551 58:0.0278836 59:-0.0834242 60:-0.0970477 61:-0.0932715 62:-0.0731367 63:0.0610065 64:-0.0258632 65:0.0970681 66:0.075503 67:-0.0998857 68:-0.0834641 69:-0.0317685 70:-0.0315464 71:0.0342335 72:0.0990864 73:-0.038424 74:-0.0184847 75:-0.0713413 76:0.0819307 77:0.0184982 78:0.0472413 79:0.0567573 80:-0.0298447 81:0.0972555 82:0.0767688 83:-0.0813228 84:-0.085749 85:-0.0984503 86:-0.00741134 87:0.000991708 88:0.0388076 89:-0.0779229 90:-0.0805128 91:-0.0467613 92:-0.0272877 93:-0.0492343 94:0.0711757 95:0.0667966 96:-0.032606 97:0.0421665 98:-0.0539208 99:0.0435643 100:0.00379042
1 1:0.0804225 2:-0.0826294 3:0.064342 4:0.082434 5:0.0347638 6:0.0952506 7:0.098571 8:0.0996891 9:0.0917506 10:-0.097023 11:0.0773382 12:-0.0089086 13:0.0364568 14:-0.0746103 15:-0.0786741 16:-0.00470057 17:0.0890998 18:0.0951189 19:0.0291284 20:0.0339643 21:0.0509324 22:0.0968199 23:-0.0999988 24:0.0491249 25:-0.0753912 26:0.0131432 27:-0.0980887 28:-0.0346959 29:-0.0659029 30:0.0187329 31:0.0258442 32:-0.0339374 33:0.0027665 34:0.0376946 35:0.0910083 36:0.034963 37:-0.0692859 38:0.0130471 39:0.0169968 40:-0.0965539 41:0.088352 42:0.0697233 43:-0.0996787 44:-0.0276375 45:-0.00467417 46:0.0715907 47:0.0442704 48:0.0963113 49:0.0942704 50:-0.0710679 51:0.0526983 52:0.061146 53:0.0978031 54:0.0998524 55:0.0906691 56:0.0574232 57:0.0813463 58:0.0264444 59:-0.0904324 60:-0.0957267 61:-0.0959532 62:0.0299913 63:0.00732958 64:0.0398882 65:0.0777374 66:-0.013611 67:-0.0978069 68:-0.09002 69:-0.0490513 70:0.0329136 71:0.0915294 72:0.0465027 73:-0.0175751 74:-0.0791987 75:-0.0646979 76:0.0938727 77:-0.0297463 78:-0.070517 79:0.0921511 80:-0.0545528 81:0.0990887 82:-0.0609182 83:-0.0813348 84:-0.0998065 85:-0.0999794 86:-0.0958107 87:-0.03007 88:0.0486761 89:-0.0263777 90:-0.0678102 91:-0.0215755 92:-0.0414737 93:-0.0624029 94:-0.0250122 95:0.000686152 96:0.00344429 97:0.0993471 98:-0.0433989 99:0.0801367 100:0.0390436
1 1:0.0963659 2:-0.0988003 3:0.0856842 4:0.0666722 5:0.0827421 6:0.0873474 7:0.0382558 8:0.0746099 9:0.0604755 10:-0.037929 11:0.0539849 12:0.0407345 13:0.0514892 14:-0.096138 15:-0.045666 16:-0.0814075 17:-0.0675037 18:0.0878427 19:0.0936935 20:0.0866811 21:-0.0151576 22:-0.0158452 23:0.0518229 24:-0.0400224 25:-0.0999639 26:-0.0269202 27:0.0200061 28:-0.0978653 29:-0.011689 30:0.0623472 31:0.0881806 32:0.0228972 33:-0.0317844 34:-0.0207035 35:0.0857644 36:0.0998487 37:-0.0992097 38:-0.0916664 39:0.0976595 40:-0.0533574 41:0.0969543 42:0.0946902 43:-0.0999999 44:-0.0876661 45:-0.0451103 46:-0.058187 47:-0.0963043 48:0.0775022 49:0.086302 50:0.00283616 51:-0.0073877 52:-0.069569 53:-0.0258132 54:-0.00204245 55:0.0217052 56:-0.0937166 57:0.0457954 58:0.0978164 59:-0.0600737 60:-0.0998071 61:-0.0998831 62:-0.0567566 63:0.0771945 64:-0.0156992 65:0.0777387 66:0.0303667 67:-0.0994177 68:-0.0996226 69:-0.0162185 70:-0.0251895 71:0.024815 72:0.0605297 73:-0.099601 74:0.00621769 75:-0.0980732 76:-0.00221018 77:-0.0826994 78:0.0786617 79:0.07497 80:-0.0975431 81:0.0996527 82:-0.0449321 83:-0.0963402 84:-0.0988772 85:-0.0983066 86:0.0388248 87:0.0409905 88:-0.0135014 89:0.00398899 90:-0.0363593 91:-0.0230147 92:-0.0664458 93:-0.0171522 94:0.0937476 95:0.00689842 96:0.00913871 97:0.0746495 98:0.0130013 99:0.0684717 100:-0.0530205
-0.137971 1:0.0963287 2:-0.0619844 3:0.0439239 4:0.099286 5:0.0698752 6:-0.0107492 7:0.00203405 8:0.0965745 9:0.0899387 10:0.0178042 11:0.0999965 12:0.038397 13:0.0957104 14:0.0493705 15:-0.0909976 16:0.0999068 17:-0.0360656 18:0.0951392 19:0.0947461 20:0.0647508 21:0.0311697 22:0.0604528 23:0.0853584 24:-0.012009 25:-0.0994292 26:-0.0513662 27:0.0693398 28:0.0989177 29:-0.0625818 30:0.00449239 31:0.0817558 32:-0.000417929 33:0.00815914 34:0.0754459 35:0.0908286 36:0.00309922 37:-0.0322689 38:0.05843 39:0.0361843 40:-0.0913199 41:-0.0905418 42:0.0775844 43:-0.084897 44:0.0775475 45:0.0489887 46:0.09215 47:-0.04169 48:0.0900112 49:0.0374814 50:-0.0627635 51:0.0991834 52:-0.0610411 53:0.0893757 54:0.0242096 55:0.0292475 56:0.0998948 57:0.0809167 58:-0.0311632 59:-0.0346344 60:-0.0438287 61:-0.0631765 62:0.038237 63:0.0166727 64:0.045482 65:0.0845266 66:0.0261578 67:-0.0352738 68:-0.0585457 69:-0.0908332 70:-0.0200953 71:0.0738039 72:-0.0143873 73:0.00655827 74:-0.0404055 75:-0.0544906 76:0.0969656 77:-0.09997 78:-0.0708065 79:0.0540383 80:-0.00429245 81:0.0360163 82:-0.00468579 83:-0.0993643 84:-0.0996315 85:-0.0987903 86:0.0306654 87:-0.038508 88:0.00719977 89:0.0968379 90:-0.0791501 91:-0.0962572 92:-0.0712897 93:-0.0335159 94:0.00395036 95:-0.0932204 96:-0.0414158 97:-0.0128223 98:-0.0998333 99:0.0189017 100:0.0181333
1 1:0.0831485 2:-0.0768151 3:0.0994198 4:0.0868149 5:0.0933771 6:-0.0373927 7:0.0992888 8:0.0426067 9:0.0648468 10:-0.0191108 11:0.0886322 12:0.0443048 13:0.00848255 14:0.0134116 15:-0.0591641 16:0.00497644 17:-0.0701859 18:0.0819349 19:0.0880084 20:-0.0316777 21:0.078481 22:0.0994532 23:0.0872627 24:-0.0680521 25:-0.050077 26:0.0400738 27:0.070741 28:-0.0813663 29:-0.0998623 30:-0.0665919 31:-0.0186657 32:-0.0809028 33:0.0950651 34:-0.00660461 35:0.0561187 36:0.0997843 37:-0.0967852 38:0.0593489 39:0.0978206 40:-0.0477048 41:-0.0224886 42:0.0809057 43:-0.0732865 44:-0.0938443 45:-0.0981072 46:0.0536373 47:-0.0719255 48:0.0247748 49:0.0958408 50:-0.0900367 51:0.0509525 52:0.072926 53:0.0196728 54:-0.0244933 55:-0.019937 56:0.0996012 57:0.0752372 58:0.0191924 59:-0.0431999 60:-0.0661843 61:-0.0999594 62:-0.0615296 63:0.0361378 64:-0.0975304 65:0.084236 66:-0.0299336 67:-0.0242835 68:-0.089968 69:-0.0599388 70:-0.094982 71:0.0687537 72:0.0250259 73:-0.0988832 74:-0.0219296 75:-0.0779862 76:0.097685 77:-0.0826974 78:-0.0700279 79:0.0988804 80:-0.0641889 81:0.0995637 82:0.0395982 83:-0.0986728 84:-0.0789479 85:-0.0987384 86:0.0607299 87:-0.044029 88:-0.0889208 89:0.0276243 90:-0.0732092 91:-0.00196327 92:-0.0553817 93:-0.0129617 94:-0.0136381 95:-0.0172086 96:0.0198496 97:0.0849075 98:-0.0795912 99:-0.0243349 100:-0.0865742
-1 1:0.0998621 2:-0.0948142 3:0.0995464 4:0.0344638 5:0.0195448 6:0.0503183 7:0.0999899 8:0.0976544 9:0.0972777 10:-0.0900282 11:0.0326827 12:0.00774041 13:-0.0361357 14:-0.0572059 15:0.0494664 16:-0.0655774 17:0.0319772 18:0.0890923 19:0.0998448 20:0.0948097 21:0.00522267 22:0.0395867 23:0.0351045 24:0.0338237 25:-0.0262342 26:-0.0288041 27:-0.0539432 28:-0.0736991 29:-0.0224185 30:-0.0749301 31:0.0465176 32:-0.0887885 33:0.0887822 34:0.0301718 35:-0.000470885 36:0.0921614 37:-0.0314141 38:-0.0265009 39:0.0802928 40:-0.0947176 41:0.0347158 42:0.0997969 43:-0.0879072 44:-0.0863024 45:-0.0773927 46:0.0982545 47:-0.0701404 48:0.0581984 49:0.0925345 50:0.0126698 51:0.083202 52:0.0820676 53:0.00150508 54:-0.0228685 55:0.0128313 56:-0.0545284 57:0.061352 58:0.0418802 59:-0.0628174 60:-0.06653 61:-0.0868754 62:-0.0998969 63:0.00426136 64:0.0289455 65:0.0935173 66:-0.0378853 67:-0.0942485 68:-0.0730939 69:-0.0540669 70:-0.0894605 71:0.0787948 72:0.0193335 73:-0.0741253 74:-0.0547181 75:-0.098963 76:-0.00921178 77:-0.0925567 78:-0.0859416 79:-0.0291648 80:-0.0395988 81:0.0972906 82:-0.0295826 83:-0.0989485 84:-0.045291 85:-0.0963241 86:0.0146987 87:0.0273857 88:0.0138145 89:0.0868321 90:-0.0840909 91:0.010874 92:-0.0982069 93:-0.0253539 94:0.0571553 95:-0.0160138 96:-0.0937468 97:0.0968462 98:-0.00988583 99:0.0126689 100:-0.0640403
1 1:0.0870641 2:-0.000952804 3:0.0855335 4:0.0285117 5:0.0965993 6:0.0752398 7:0.0695306 8:0.0412029 9:0.0699294 10:-0.088933 11:-0.0694828 12:0.0990182 13:0.0435765 14:-0.0677439 15:-0.0862982 16:-0.0020156 17:-0.00353004 18:0.0980246 19:-0.0147266 20:-0.0536285 21:0.0398817 22:0.0760783 23:0.0117728 24:-0.0799089 25:-0.0879399 26:0.0576698 27:0.09632 28:-0.0931785 29:-0.0634827 30:-0.0993348 31:0.0786936 32:-0.057309 33:0.0980104 34:0.0823886 35:0.0164035 36:-0.00937652 37:-0.0992747 38:0.0138405 39:0.0614151 40:-0.0393918 41:0.0214188 42:-0.00794568 43:-0.0407768 44:0.00267871 45:-0.0947739 46:0.0910522 47:-0.0978853 48:0.0401498 49:0.0920435 50:-0.0625423 51:0.059257 52:0.0923711 53:0.0661271 54:-0.0724686 55:-0.000178136 56:0.0742233 57:0.0806716 58:0.0204674 59:-0.0997431 60:0.0664372 61:-0.0618642 62:-0.0979792 63:-0.0562062 64:-0.00215614 65:0.0526859 66:-0.0425155 67:-0.0975292 68:-0.0960284 69:-0.0128905 70:0.00111335 71:0.0348677 72:0.0523617 73:-0.0412849 74:-0.0591221 75:-0.0978515 76:0.0672071 77:-0.035112 78:-0.0769201 79:0.0946916 80:-0.0931527 81:0.0804322 82:0.0990167 83:-0.0999734 84:-0.0964194 85:-0.0977822 86:0.016229 87:0.00795015 88:-0.0400413 89:0.0998258 90:-0.0239385 91:0.0167752 92:-0.0950549 93:0.0995379 94:0.00241801 95:0.00292951 96:-0.074417 97:0.0760779 98:-0.0961848 99:-0.0117437 100:0.041054
1 1:-0.0778959 2:-0.0974545 3:0.0771158 4:-0.0911587 5:-0.099934 6:0.0964062 7:0.0749645 8:-0.0244365 9:0.0941878 10:-0.0940965 11:0.0513123 12:0.0705594 13:0.0998199 14:-0.0534665 15:-0.0227171 16:0.0350932 17:-0.0972254 18:0.0804377 19:-0.0646644 20:-0.0847233 21:0.0283507 22:-0.0971468 23:0.0282694 24:-0.0823743 25:-0.0855154 26:0.0765732 27:0.0159902 28:-0.0947978 29:-0.0601587 30:0.047121 31:-0.0313816 32:0.0106957 33:-0.0814334 34:-0.0284589 35:-0.00032402 36:0.0709023 37:-0.0977301 38:-0.0529235 39:0.0887207 40:-0.0956686 41:-0.0399416 42:0.0733617 43:-0.075882 44:-0.0417205 45:0.0747328 46:0.0364041 47:-0.0748863 48:0.0699683 49:0.0490021 50:-0.0260082 51:-0.0210532 52:0.0665446 53:0.00475671 54:0.0858231 55:-0.0275567 56:-0.00799474 57:0.0846218 58:0.0306562 59:-0.05815 60:-0.0641038 61:-0.0908185 62:0.0382192 63:0.0907373 64:-0.0281095 65:0.0991815 66:0.0728976 67:-0.0967168 68:-0.0671656 69:-0.080079 70:-0.0473746 71:0.0188556 72:0.0765609 73:-0.0476081 74:-0.0412223 75:-0.0822012 76:0.0989272 77:-0.0734463 78:0.091971 79:-0.038787 80:-0.0901009 81:0.0632559 82:0.000868235 83:-0.0512111 84:-0.0888833 85:-0.0372507 86:0.0994316 87:-0.00595756 88:0.0940266 89:0.0497507 90:-0.0504321 91:-0.0400645 92:-0.00664247 93:-0.0997232 94:0.0490105 95:0.040188 96:-0.00662524 97:0.0841267 98:-0.0956662 99:-0.0564399 100:-0.0481022
0.3804 1:-0.058782 2:-0.0948734 3:0.091419 4:-0.0516026 5:-0.0516489 6:0.0993053 7:0.0761919 8:0.0828435 9:0.0775252 10:-0.0594479 11:0.0694946 12:0.0985664 13:0.0996363 14:-0.0381517 15:-0.0229625 16:0.0124702 17:-0.0953445 18:-0.0359565 19:0.0522813 20:-0.02647 21:-0.0372344 22:-0.0326234 23:0.0859075 24:-0.051549 25:-0.0229327 26:0.0107302 27:0.0938553 28:-0.0430045 29:-0.0522726 30:-0.0339076 31:-0.00961818 32:0.0385359 33:-0.0559942 34:-0.0804709 35:0.0864587 36:0.0958871 37:-0.0992556 38:0.0881476 39:0.0667091 40:-0.0174857 41:-0.0999919 42:0.0749123 43:-0.0988 44:-0.0975578 45:-0.015161 46:0.0141589 47:-0.0933626 48:0.0836303 49:0.0956117 50:-0.0489847 51:-0.0407142 52:-0.0128213 53:0.0144021 54:-0.051404 55:-0.0894482 56:0.0431764 57:0.00529422 58:0.0019889 59:-0.0508776 60:-0.0914998 61:0.0112758 62:-0.0265928 63:0.0998272 64:-0.070637 65:0.0844777 66:0.0952945 67:-0.0735527 68:0.00621205 69:-0.0680308 70:-0.0912083 71:0.0985432 72:0.0844849 73:0.0108091 74:-0.0999342 75:-0.0989985 76:0.0845263 77:-0.0815046 78:0.025395 79:0.00996639 80:-0.0760159 81:0.0517783 82:0.0783198 83:-0.0948903 84:-0.0122912 85:-0.0498173 86:0.0620147 87:0.0409196 88:0.0613384 89:0.0202553 90:-0.0835097 91:-0.0823806 92:-0.0449806 93:-0.0982528 94:0.0718553 95:0.0589678 96:-0.0281884 97:0.0497591 98:-0.0996367 99:-0.0441026 100:-0.0215789
-1 1:-0.0973814 2:-0.0937779 3:0.0559461 4:-0.0996898 5:0.00154279 6:0.0699077 7:-0.0249287 8:0.0887515 9:0.0649546 10:-0.0460259 11:0.0434881 12:0.0872648 13:0.0506708 14:-0.0664688 15:-0.0922848 16:-0.0150492 17:-0.0766363 18:0.0999846 19:-0.099712 20:-0.0884483 21:0.00446531 22:-0.0217761 23:-0.0167636 24:0.0697343 25:-0.0841768 26:-0.0140892 27:0.0996081 28:0.0592764 29:-0.0837533 30:-0.0963366 31:-0.0106346 32:0.0796952 33:-0.00302163 34:-0.010152 35:-0.0492117 36:0.0790113 37:-0.032332 38:-0.0956474 39:0.0992997 40:-0.0962839 41:-0.0863731 42:0.0377484 43:-0.0907818 44:-0.097094 45:0.0142517 46:-0.00950028 47:-0.0700776 48:0.0324952 49:0.0942678 50:-0.0442031 51:-0.0697551 52:0.05536 53:0.0594243 54:-0.0126535 55:-0.0978263 56:0.0216397 57:0.0870304 58:0.0762087 59:-0.0997176 60:-0.0868907 61:-0.0206552 62:-0.0958305 63:0.0381529 64:0.00882989 65:0.0971281 66:0.0265624 67:-0.0952276 68:-0.0397615 69:0.0590821 70:0.0234862 71:0.0398651 72:0.0278172 73:-0.0250761 74:0.048557 75:-0.0967183 76:0.0778729 77:-0.0537726 78:0.0968498 79:-0.053805 80:-0.0743827 81:0.0451136 82:-0.0010078 83:-0.0299131 84:-0.0253166 85:-0.0561619 86:0.0936908 87:0.00138319 88:-0.0412152 89:0.0556377 90:-0.0993031 91:-0.0844625 92:0.000307995 93:-0.0558592 94:-0.0419379 95:0.0569349 96:-0.0431538 97:0.0590286 98:-0.0982466 99:-0.0565405 100:-0.055107
-1 1:-0.0876749 2:-0.0856114 3:0.0514715 4:-0.0631046 5:0.0488865 6:0.0986101 7:0.0938674 8:0.0973626 9:0.0999875 10:-0.0844045 11:0.0991151 12:0.0997917 13:0.0806051 14:0.0110371 15:-0.0871184 16:-0.000197632 17:-0.0972336 18:0.0572246 19:-0.0116068 20:-0.0708348 21:-0.000520627 22:-0.0939558 23:0.0780054 24:-0.0583373 25:-0.0207923 26:0.0995434 27:0.0628592 28:-0.0195702 29:-0.0719389 30:-0.0956421 31:0.0418097 32:-0.0215872 33:-0.0771623 34:0.0828395 35:0.0266895 36:0.058152 37:-0.0831743 38:0.0589833 39:0.0946083 40:-0.0314766 41:-0.077927 42:0.0464475 43:-0.0757894 44:-0.0959659 45:0.0166092 46:0.00646332 47:-0.0868149 48:0.0721027 49:0.0823568 50:-0.0362451 51:-0.095713 52:-0.000125086 53:0.0848641 54:0.0144653 55:-0.0560559 56:0.0455434 57:0.0767835 58:0.0287436 59:0.00459811 60:-0.0609109 61:-0.0129037 62:-0.00544401 63:0.0756563 64:0.0132881 65:0.0739716 66:-0.0340017 67:-0.0663947 68:-0.00142231 69:-0.0392644 70:-0.00406416 71:0.0039136 72:0.0706377 73:0.0221769 74:-0.0958804 75:-0.0813987 76:0.0995992 77:-0.0798625 78:0.0976781 79:-0.00452269 80:-0.0619406 81:0.0306076 82:0.09882 83:-0.0393245 84:0.00193815 85:0.0177153 86:0.092946 87:-0.0303806 88:-0.00176095 89:-0.0538701 90:-0.0536674 91:-0.0594801 92:-0.0259446 93:-0.0991522 94:0.0201375 95:0.0181864 96:-0.0883422 97:0.09811 98:-0.0879898 99:-0.0531952 100:-0.0633178
1 1:-0.0705105 2:-0.0578406 3:0.0993751 4:-0.0943806 5:-0.014587 6:0.0552069 7:0.0254667 8:0.0643738 9:0.0584874 10:-0.0998381 11:-0.0245142 12:0.0768653 13:0.0933351 14:-0.0674967 15:-0.0276875 16:0.00120757 17:-0.0946805 18:0.0485475 19:-0.0750295 20:-0.0690884 21:0.0958032 22:-0.0506853 23:0.0582718 24:-0.0679293 25:-0.0533597 26:0.0998094 27:0.0734336 28:0.0122855 29:-0.0843471 30:-0.0208963 31:-0.0232862 32:0.0330631 33:-0.0307287 34:-0.0496379 35:0.0970165 36:0.0970023 37:-0.0926869 38:0.0524567 39:0.0308303 40:-0.097664 41:-0.0336883 42:0.0299895 43:-0.0630349 44:-0.0974368 45:-0.0682109 46:-0.0450006 47:0.0176 48:0.00703943 49:0.0834788 50:0.0498301 51:0.0304888 52:0.0999981 53:-0.0561677 54:-0.00740213 55:-0.0511013 56:0.0294249 57:0.0278865 58:-0.0458014 59:-0.0286873 60:-0.0628255 61:-0.0999892 62:-0.0983328 63:-0.0285816 64:-0.0785489 65:0.0764431 66:0.0535493 67:-0.0672774 68:-0.00423724 69:-0.0655265 70:-0.0957698 71:0.0244516 72:0.0896143 73:-0.0303275 74:-0.0441587 75:-0.0176805 76:0.0921094 77:-0.0123186 78:0.0385081 79:-0.0533581 80:-0.0895988 81:0.0986406 82:-0.0295193 83:-0.0838783 84:-0.0126878 85:-0.0705966 86:0.0693522 87:0.000646154 88:-0.00922696 89:-0.0503131 90:0.0183782 91:-0.0611297 92:0.0231101 93:-0.0681096 94:0.0151077 95:0.0999523 96:0.0425335 97:0.0992752 98:-0.0974882 99:-0.0726783 100:0.00879259
-1 1:-0.0323601 2:-0.0966127 3:0.0722521 4:-0.0660374 5:-0.0946109 6:0.0407824 7:0.067366 8:0.0634626 9:-0.00110132 10:-0.0839582 11:0.0503111 12:0.0943578 13:0.0876897 14:-0.041452 15:0.0709497 16:0.0804498 17:-0.0689152 18:0.0674677 19:-0.0138196 20:-0.0771481 21:-0.0566789 22:-0.0270627 23:-0.0206139 24:-0.0565685 25:0.00462036 26:0.0296802 27:-0.0124717 28:-0.0552299 29:-0.0467433 30:-0.0704027 31:-0.0959608 32:-0.0176081 33:-0.0495285 34:-0.0786465 35:0.0827047 36:0.0554794 37:-0.0620752 38:0.0901996 39:-0.0166585 40:-0.0951585 41:-0.0789732 42:0.0940637 43:-0.0360042 44:-0.0591306 45:0.0681922 46:0.0981382 47:0.0645088 48:-0.00675292 49:0.0609203 50:0.0316264 51:0.0792074 52:0.0958389 53:0.0296812 54:0.0697663 55:-0.0134489 56:0.0912787 57:0.0691293 58:-0.032551 59:-0.0995408 60:-0.0962134 61:-0.0257315 62:-0.0455268 63:0.0981172 64:-0.0537242 65:0.0918297 66:0.0990313 67:-0.0972757 68:-0.0441232 69:-0.0500824 70:-0.0903972 71:0.0576629 72:0.0721272 73:-0.00737685 74:-0.0719908 75:-0.0540735 76:0.0583162 77:-0.0756161 78:-0.0833056 79:0.0363723 80:0.0629496 81:0.048203 82:0.0974853 83:-0.0922853 84:-0.0610868 85:-0.0862557 86:0.0286074 87:-0.00756724 88:-0.0645439 89:0.075924 90:0.0533357 91:-0.0691055 92:-0.0215708 93:-0.0780956 94:0.0525307 95:0.0245124 96:-0.0672967 97:-0.015016 98:-0.0953376 99:-0.080057 100:-0.0543393
1 1:-0.0550108 2:-0.0999405 3:0.0980791 4:-0.00262077 5:-0.0192541 6:0.0952833 7:0.0978007 8:0.00221675 9:0.08885 10:-0.0842676 11:0.0842748 12:0.0974112 13:0.0418056 14:-0.0558545 15:-0.0882812 16:-0.00952901 17:-0.0981627 18:0.0987452 19:0.079248 20:0.00935337 21:-0.0152586 22:-0.0197523 23:0.0463079 24:-0.0974153 25:-0.00680003 26:-0.0361561 27:0.0898898 28:-0.0397193 29:-0.0637129 30:-0.086428 31:0.0409465 32:-0.0557856 33:-0.0735156 34:0.0294548 35:0.085451 36:0.0829448 37:-0.0706276 38:0.0550355 39:0.0954796 40:0.011923 41:-0.0954382 42:0.082918 43:-0.0437368 44:0.019665 45:-0.0344618 46:0.0531614 47:-0.0884418 48:0.0937859 49:0.0990712 50:-0.0701601 51:0.0612808 52:0.0266037 53:-0.00623087 54:0.0288247 55:-0.0908541 56:-0.0216552 57:0.0539138 58:-0.00900739 59:0.0140875 60:-0.0627572 61:-0.0195789 62:-0.00850131 63:0.0690702 64:0.00281376 65:0.0501203 66:0.0734292 67:-0.0928586 68:-0.0302683 69:-0.0554345 70:0.0275505 71:-0.0808808 72:-0.0949872 73:0.038197 74:-0.0396645 75:-0.087008 76:0.0711188 77:-0.0397081 78:0.070084 79:0.0502056 80:-0.081849 81:0.0419297 82:0.0981029 83:-0.0998666 84:-0.0677625 85:-0.077054 86:0.087364 87:-0.0460018 88:0.00264425 89:-0.0668431 90:-0.0695357 91:-0.0990695 92:-0.0415663 93:-0.0950149 94:0.0897375 95:0.0664785 96:-0.0982801 97:0.0650515 98:0.00188522 99:-0.0672189 100:-0.0512146
1 1:-0.0796285 2:-0.0112995 3:0.0624496 4:-0.0917467 5:0.00938456 6:0.0932248 7:0.096251 8:0.0992995 9:0.0698408 10:-0.0988868 11:0.0823683 12:0.0659029 13:0.0267158 14:0.00134568 15:-0.0563639 16:0.0075689 17:-0.0730527 18:-0.0306535 19:0.0306571 20:-0.07672 21:0.0100772 22:0.0329664 23:-0.0701724 24:-0.0982345 25:-0.00583236 26:0.0515179 27:0.023659 28:-0.0999717 29:-0.0300015 30:-0.0782443 31:-0.063331 32:0.00793979 33:-0.0632251 34:0.0363615 35:0.0998496 36:0.0476612 37:-0.0910018 38:0.0337833 39:0.0969174 40:-0.0978504 41:-0.0999659 42:0.0661221 43:-0.041355 44:-0.0830322 45:0.0144286 46:0.0744405 47:0.038522 48:0.0202304 49:0.0681412 50:-0.0808717 51:0.0093865 52:0.00571335 53:0.0355307 54:0.0575909 55:-0.0992631 56:0.0849133 57:0.074334 58:-0.0142794 59:-0.0430671 60:-0.0809583 61:-0.0244162 62:0.0519811 63:0.0883933 64:0.0656202 65:0.0981477 66:0.0778425 67:-0.0991225 68:-0.0117156 69:-0.0669737 70:-0.0397699 71:0.0739797 72:0.0553456 73:0.0239864 74:-0.0998265 75:-0.000435067 76:0.0817117 77:-0.0233989 78:-0.0463719 79:-0.0557196 80:-0.0974203 81:0.0894459 82:0.0687976 83:-0.0967206 84:0.0732783 85:0.00211221 86:0.00401645 87:-0.0222364 88:0.0180008 89:0.042467 90:-0.0999966 91:-0.0740409 92:-0.0307973 93:-0.0957735 94:-0.0371169 95:0.0987217 96:-0.00990656 97:0.0679982 98:-0.0981652 99:0.0162797 100:0.0637125
0.394006 1:-0.0975505 2:-0.0954715 3:0.0646981 4:-0.0272712 5:0.0403777 6:0.0789005 7:0.0999993 8:0.0592555 9:0.0892584 10:-0.0796343 11:0.0856638 12:0.0561337 13:0.0891347 14:-0.0958378 15:-0.0532288 16:-0.0322052 17:-0.0998095 18:0.0792849 19:0.0230769 20:-0.0975517 21:0.00290529 22:0.0208498 23:0.0258261 24:-0.0992319 25:-0.0770213 26:0.0475712 27:0.0652566 28:-0.0975901 29:-0.0999414 30:0.00422715 31:-0.0197827 32:0.0505735 33:0.0213679 34:0.0405237 35:0.0927563 36:0.0719391 37:-0.0777995 38:0.0664473 39:0.0560219 40:-0.0967127 41:-0.0988611 42:0.0116251 43:-0.076688 44:-0.073468 45:0.000304889 46:0.0365382 47:-0.0992618 48:0.0742375 49:0.0811447 50:-0.0638881 51:0.0229912 52:-0.0913144 53:-0.0268442 54:-0.0947444 55:-0.0998502 56:0.0717805 57:0.0465029 58:0.0282968 59:-0.0486286 60:-0.0717146 61:0.0103623 62:0.016428 63:0.0138503 64:0.0375135 65:0.0643618 66:0.0648214 67:-0.0901895 68:0.0209204 69:-0.0958124 70:-0.0891519 71:-0.0164406 72:0.0446271 73:0.0063161 74:-0.0989135 75:0.0478844 76:0.0814489 77:-0.0111113 78:0.0647986 79:-0.0311311 80:-0.0536608 81:0.0453143 82:0.0336337 83:-0.0766907 84:-0.0903326 85:0.0144312 86:-0.0476338 87:0.00331653 88:0.024902 89:-0.0344631 90:-0.0751752 91:-0.0778613 92:-0.026208 93:-0.0998398 94:0.0886667 95:0.0478939 96:-0.00129396 97:0.0990926 98:-0.1 99:-0.0726309 100:0.0147981
0.639521 1:-0.0567973 2:-0.0579152 3:0.0535334 4:-0.0625418 5:0.00350515 6:0.0761442 7:0.0922707 8:0.0438246 9:0.0999822 10:-0.0818015 11:0.0627804 12:0.0949075 13:0.0203701 14:-0.0379479 15:-0.0825726 16:-0.0321419 17:-0.088591 18:0.0943943 19:-0.00351101 20:-0.0197106 21:-0.0340679 22:-0.0999606 23:-0.00875049 24:-0.0978308 25:-0.0678604 26:0.0993572 27:0.0999898 28:-0.001654 29:0.00421949 30:-0.0804184 31:-0.0228469 32:0.00216842 33:-0.094822 34:0.0203236 35:0.0363219 36:0.0998869 37:-0.0526915 38:-0.0968737 39:0.0967919 40:-0.0946958 41:-0.0878686 42:-0.00121784 43:-0.0999996 44:-0.0985416 45:-0.0382403 46:0.0105395 47:-0.0996595 48:0.0991834 49:0.0949914 50:0.0059398 51:-0.00833256 52:0.034475 53:-0.00485368 54:0.0123316 55:-0.0938148 56:-0.00608233 57:0.0139621 58:0.0585917 59:-0.0766788 60:-0.0222072 61:-0.0909097 62:-0.0431482 63:0.0999775 64:-0.0078514 65:0.0798634 66:0.0279947 67:-0.0980366 68:-0.0835133 69:-0.00833981 70:-0.0186635 71:0.0132052 72:0.0599111 73:-0.0867983 74:-0.0430668 75:-0.0995647 76:0.082074 77:-0.00104581 78:0.0980886 79:0.0624481 80:-0.0945627 81:0.0550649 82:0.098556 83:-0.067292 84:-0.0603793 85:-0.062686 86:0.0673125 87:-0.001682 88:-0.0240028 89:-0.000888985 90:-0.0972057 91:-0.0803826 92:-0.0595304 93:-0.0883043 94:0.0335412 95:0.0551847 96:-0.0997095 97:0.0824301 98:-0.0803769 99:-0.0518647 100:-0.0979581
-1 1:-0.0804058 2:-0.0546762 3:0.0855485 4:-0.0786883 5:-0.0989916 6:0.0989469 7:0.051989 8:0.0959499 9:0.0967172 10:-0.0992559 11:0.0946354 12:0.098462 13:0.0431078 14:-0.0493893 15:-0.0947475 16:0.0219172 17:0.00203604 18:0.014226 19:0.00623248 20:0.0399489 21:-0.00762794 22:0.0316138 23:0.0476107 24:-0.00805786 25:-0.0555071 26:0.0587724 27:0.0546112 28:-0.0980259 29:-0.0917534 30:0.0178094 31:-0.0881627 32:0.0744507 33:0.0537383 34:-0.0219187 35:0.089808 36:0.097174 37:-0.0843374 38:0.00213797 39:0.0590723 40:-0.099437 41:-0.0999581 42:0.0966294 43:-0.0934231 44:-0.0332747 45:0.034347 46:0.096464 47:-0.027148 48:0.066522 49:0.0792814 50:-0.0792377 51:-0.00756466 52:-0.0369666 53:0.0745882 54:-0.0102699 55:-0.0978462 56:0.048073 57:0.083681 58:0.0152705 59:-0.0647793 60:-0.0971893 61:0.0484438 62:0.0067823 63:0.0989525 64:0.0226892 65:0.099905 66:0.0376384 67:-0.0246316 68:0.0162589 69:-0.0584586 70:-0.012614 71:0.0902732 72:0.0896613 73:-0.0146168 74:-0.0660942 75:-0.0670354 76:0.0248378 77:-0.0979221 78:0.025388 79:-0.0160769 80:-0.0805475 81:0.0162975 82:0.0936239 83:-0.0875025 84:-0.0603123 85:0.00255886 86:0.000714344 87:0.0194731 88:0.0641997 89:0.0926062 90:-0.0997016 91:-0.0769802 92:-0.0482874 93:-0.0946735 94:0.0776217 95:0.0566159 96:-0.0241718 97:0.0908225 98:-0.0995208 99:-0.0338688 100:-0.0432752
-1 1:-0.0856392 2:-0.0994092 3:0.1 4:-0.0999471 5:-0.00517795 6:0.098256 7:0.0548282 8:0.00733786 9:-0.0183671 10:-0.0954961 11:0.0566094 12:0.0995753 13:0.0888208 14:-0.0114663 15:-0.0270742 16:0.0101361 17:-0.099956 18:0.0911417 19:0.0296641 20:-0.0714312 21:-0.0119816 22:-0.0054442 23:0.0636278 24:0.0543116 25:0.0162099 26:0.0849057 27:0.087522 28:0.0142564 29:-0.0537101 30:-0.0885902 31:0.0769939 32:-0.000839004 33:-0.0396474 34:-0.0736388 35:0.0223168 36:0.0491863 37:0.0373034 38:-0.0253712 39:0.0963363 40:0.0538656 41:-0.0899599 42:0.0965034 43:-0.0574523 44:-0.0636593 45:0.024438 46:0.0136486 47:-0.0998541 48:0.0707939 49:0.0995388 50:-0.0992545 51:0.0530478 52:0.0687028 53:0.0194463 54:0.0288741 55:-0.0833063 56:0.00208796 57:0.0454978 58:0.00270273 59:-0.0885752 60:-0.0997574 61:0.0668791 62:-0.0995131 63:0.089887 64:-0.0231259 65:0.0284123 66:0.0988197 67:-0.0272242 68:-0.0141332 69:0.0148107 70:-0.0535374 71:0.0992006 72:0.0956265 73:0.0193176 74:0.00561626 75:-0.0540752 76:0.0928078 77:-0.0828766 78:0.0775009 79:0.0269286 80:-0.00964216 81:-0.0109321 82:0.0123627 83:-0.0518681 84:-0.0542215 85:-0.0988324 86:0.089757 87:0.0135975 88:-0.0815653 89:0.0918355 90:-0.0810676 91:-0.0330984 92:-0.000106178 93:-0.0233972 94:0.0417433 95:0.0483453 96:-0.0962388 97:0.0779191 98:-0.0994507 99:-0.0911931 100:0.0289321
-1 1:-0.0938615 2:-0.0977094 3:0.0998366 4:0.00229449 5:-0.022614 6:0.0361143 7:0.0392043 8:0.0344521 9:0.0660287 10:-0.0563258 11:-0.00555514 12:0.0562312 13:0.0624866 14:-0.0510827 15:-0.0999998 16:-0.0690463 17:-0.0460564 18:0.0999995 19:-0.0467398 20:-0.0577236 21:-0.00560071 22:-0.00987912 23:0.0935337 24:-0.0935962 25:-0.0849225 26:0.0414602 27:-0.0549522 28:-0.0550427 29:-0.0845772 30:-0.0580775 31:0.0913731 32:-0.00809134 33:-0.00606925 34:0.0530809 35:0.0817087 36:0.0686072 37:-0.0803195 38:-0.0623349 39:0.0958991 40:-0.0532245 41:-0.0701597 42:0.0917813 43:-0.0763878 44:-0.0289689 45:-0.0562847 46:0.0373815 47:-0.0912464 48:-0.00497357 49:0.0946001 50:0.0984816 51:0.086136 52:0.0538232 53:-0.0659895 54:-0.0757174 55:-0.0148269 56:-0.0970792 57:0.0769994 58:0.0777491 59:-0.0851546 60:-0.0822902 61:-0.0327586 62:0.00948308 63:-0.0268494 64:0.0940763 65:0.0740988 66:-0.000541294 67:-0.0984821 68:0.0814794 69:-0.0333949 70:-0.0235222 71:-0.000905573 72:-0.0036203 73:0.0186934 74:0.0781546 75:-0.080245 76:0.0461296 77:-0.0925884 78:0.0153846 79:0.0487647 80:-0.083503 81:0.0994539 82:-0.0629118 83:-0.0840851 84:-0.0871925 85:-0.0497782 86:0.0803661 87:-0.0294668 88:-0.0985231 89:-0.0351608 90:-0.099359 91:-0.0303915 92:-0.0844698 93:-0.0666197 94:0.0919142 95:0.0295845 96:0.0291163 97:0.0957315 98:0.0129958 99:-0.0715074 100:-0.0258369
1 1:0.00781915 2:-0.00139799 3:0.0966853 4:0.0218814 5:0.03066 6:0.0779558 7:0.0290003 8:0.0287904 9:0.0630111 10:-0.0941121 11:0.0901221 12:0.0999987 13:0.0746205 14:-0.0897883 15:0.0195884 16:0.00414653 17:-0.0916806 18:0.0868586 19:-0.0511428 20:-0.0724095 21:-0.0983289 22:-0.0731469 23:-0.0406749 24:-0.0872816 25:-0.047157 26:0.0664214 27:0.0972646 28:0.00936864 29:-0.00642479 30:-0.0874752 31:0.0179776 32:-0.0282276 33:-0.0915775 34:0.0384237 35:0.0696826 36:0.0936651 37:-0.0992629 38:0.0398759 39:0.0281038 40:0.038908 41:-0.0994356 42:-0.00976929 43:-0.06991 44:-0.0969768 45:0.09941 46:-0.0408883 47:-0.0838533 48:0.0951298 49:0.0864036 50:-0.00537138 51:-0.00447841 52:-0.0715228 53:0.0819246 54:-0.000511796 55:-0.0928469 56:0.0359488 57:0.00943591 58:0.0555071 59:-0.0743795 60:-0.0881785 61:0.00695055 62:0.0641301 63:0.0927103 64:-0.0292594 65:0.0170374 66:0.0972063 67:-0.0876043 68:-0.0698724 69:-0.0273907 70:-0.0119326 71:-0.0864161 72:0.0493966 73:0.0743197 74:-0.0630421 75:-0.091282 76:0.098649 77:-0.00220079 78:0.0922 79:0.0849576 80:-0.075695 81:0.00228293 82:0.0702697 83:-0.0815123 84:-0.0984978 85:-0.0561193 86:-0.0392186 87:0.0390051 88:0.0025574 89:-0.0740815 90:0.00234676 91:-0.0984726 92:0.0258709 93:-0.0853086 94:0.0988054 95:-0.0359151 96:-0.0880987 97:0.0966562 98:-0.0404456 99:-0.0387233 100:0.00955351
-1 1:-0.0780286 2:-0.0978157 3:0.0889511 4:0.0621122 5:-0.0426041 6:0.00739739 7:0.0429718 8:0.0660937 9:0.0511731 10:-0.0398783 11:0.0960039 12:0.0987622 13:0.0295805 14:-0.0370823 15:-0.0976484 16:0.00953276 17:-0.0989228 18:0.0906578 19:0.0648168 20:0.0233354 21:0.0688953 22:-0.0229267 23:-0.000109676 24:-0.0764288 25:-0.0221083 26:-0.0963322 27:0.074154 28:-0.0984252 29:-0.0955897 30:-0.0723701 31:-0.0405285 32:-0.0814914 33:0.0133484 34:0.0484116 35:0.0993963 36:0.0850984 37:-0.0325915 38:0.0447027 39:-0.0219747 40:-0.0519486 41:-0.0723364 42:0.0215819 43:-0.0997802 44:-0.0923227 45:-0.0602616 46:-0.00878243 47:-0.0992227 48:-0.0602709 49:0.0995402 50:-3.64783e-05 51:0.0148016 52:0.00499655 53:-0.052947 54:0.0302593 55:-0.0976918 56:0.0288294 57:0.0633977 58:-0.0444141 59:0.0609293 60:-0.0638521 61:-0.0755097 62:-0.0379269 63:0.0785247 64:-0.0773793 65:0.0903614 66:0.00102021 67:0.0243776 68:-0.0999053 69:-0.0365181 70:-0.0550682 71:0.0832679 72:-0.0924067 73:-0.0212279 74:-0.0957359 75:-0.0110266 76:0.00629441 77:-0.0996674 78:0.0815486 79:0.0196476 80:-0.0823915 81:0.0999805 82:-0.00157889 83:-0.016198 84:0.0394893 85:-0.00621881 86:0.049612 87:-0.0678279 88:0.0151631 89:-0.0266272 90:-0.0122119 91:-0.098166 92:-0.00761971 93:-0.084325 94:-0.00415517 95:0.0880057 96:0.0977565 97:0.0990174 98:-0.0487811 99:-0.0707778 100:-0.0717083
-1 1:0.0253664 2:-0.0803307 3:0.0986736 4:0.0971329 5:0.0845982 6:-0.079597 7:0.0844446 8:0.082789 9:0.065661 10:-0.0307442 11:0.0852831 12:0.0722849 13:-0.0033581 14:-0.099995 15:-0.0126664 16:0.00211185 17:-0.0768417 18:0.0632516 19:0.0919409 20:-0.0776174 21:0.0993666 22:0.0957876 23:0.0988471 24:-0.0753583 25:-0.0734432 26:0.00665861 27:0.0184817 28:-0.0995273 29:-0.0205446 30:0.0385975 31:-0.0693631 32:0.0166015 33:0.0889698 34:0.0362451 35:-0.0386065 36:0.0496426 37:-0.0998559 38:0.0119898 39:0.0576216 40:-0.0999816 41:-0.0899962 42:0.00842786 43:-0.0775985 44:-0.0706913 45:-0.0999999 46:0.0584264 47:0.0266619 48:-0.000634327 49:0.0966167 50:0.0271586 51:0.0888103 52:-0.00148049 53:-0.0484021 54:-0.0914566 55:-0.0670105 56:0.0953291 57:0.0726015 58:-0.0428794 59:0.0415404 60:-0.0760826 61:-0.0996912 62:-0.0822611 63:0.0462797 64:-0.0602463 65:0.0955941 66:-0.0354714 67:-0.0950668 68:-0.0325542 69:-0.0881254 70:-0.0985552 71:0.0980662 72:0.0856919 73:-0.0655268 74:-0.00171029 75:-0.0939001 76:0.072572 77:-0.0258411 78:-0.0998726 79:0.033519 80:-0.0604112 81:0.0996652 82:-0.0181973 83:-0.0944886 84:-0.0370793 85:-0.0836797 86:-0.0645021 87:0.0221099 88:-0.00843149 89:-0.0959564 90:0.00281679 91:-0.0963196 92:0.0277592 93:-0.0990577 94:0.0788493 95:0.077378 96:0.0492212 97:0.0623221 98:-0.0908165 99:-0.0826173 100:-0.0150235
1 1:0.0828668 2:0.0284664 3:0.0951637 4:0.0331174 5:0.0911691 6:0.0853254 7:0.094179 8:0.0821149 9:0.0971577 10:-0.0999271 11:-0.0331156 12:0.0996406 13:0.0807104 14:-0.0433218 15:-0.0405513 16:0.0125205 17:-0.0799381 18:-0.0242661 19:-0.00575805 20:-0.0246825 21:0.037261 22:0.0475827 23:0.0276467 24:-0.0993877 25:-0.0887396 26:0.0999866 27:0.099034 28:-0.0043421 29:-0.0232561 30:-0.0246169 31:-0.0751741 32:0.0202813 33:-0.00114152 34:-0.00370788 35:0.0987031 36:0.0993188 37:-0.0929097 38:0.0248634 39:0.080755 40:-0.0856599 41:0.0600296 42:-0.0270708 43:-0.0985455 44:-0.0832596 45:-0.0716829 46:-0.0635067 47:0.0184774 48:0.0857998 49:0.0750479 50:0.0507033 51:-0.0447625 52:0.0516269 53:0.0556758 54:-0.0817643 55:0.0311131 56:0.0670295 57:-0.0739551 58:-0.026359 59:-0.0219382 60:-0.0183718 61:-0.0927392 62:0.0157245 63:0.0621061 64:-0.099968 65:0.0986802 66:0.0305915 67:-0.0931119 68:-0.0676603 69:0.0361881 70:0.00370556 71:0.0259083 72:0.0995443 73:-0.0464858 74:-0.0625728 75:-0.0407211 76:0.0991774 77:0.0311536 78:0.0113296 79:0.0991322 80:-0.00198673 81:0.0999656 82:0.0651589 83:-0.0973941 84:-0.0229255 85:-0.0960991 86:0.0313281 87:0.0712818 88:-0.0168692 89:0.0129213 90:-0.0725062 91:0.0730541 92:-0.00938643 93:0.0367625 94:-0.0448342 95:0.0999122 96:0.0345421 97:0.0989013 98:-0.0944857 99:-0.00306129 100:-0.0413014
-1 1:0.0859457 2:0.011005 3:0.0489049 4:-0.0315926 5:0.070293 6:0.0586085 7:0.0968054 8:0.0515865 9:0.089136 10:-0.099236 11:-0.0892143 12:0.0382389 13:-0.0125873 14:0.0274612 15:0.0668835 16:0.00134573 17:-0.0867262 18:0.073106 19:0.0288312 20:-0.0921393 21:0.0707793 22:0.056051 23:-0.00291608 24:-0.0658668 25:-0.084551 26:0.0596351 27:0.0998664 28:-0.0978857 29:-0.0852171 30:-0.0367149 31:-0.0772371 32:-0.050483 33:0.0534252 34:0.0473499 35:0.0750732 36:0.0986785 37:-0.0784425 38:0.0167453 39:0.0951139 40:-0.064848 41:0.0779698 42:-0.015822 43:-0.0875476 44:-0.0933209 45:-0.0694623 46:-0.0599771 47:0.064804 48:0.0811334 49:0.0772224 50:-0.0345628 51:0.063548 52:0.097847 53:0.0142403 54:-0.0414101 55:-0.0386851 56:0.0891897 57:-0.0270004 58:-0.0235181 59:-0.0875637 60:-0.0385106 61:-0.0508806 62:-0.0480726 63:-0.0583012 64:-0.0949699 65:0.1 66:-0.024419 67:-0.0549432 68:-0.0341315 69:0.0414279 70:-0.0780255 71:0.088715 72:0.0951859 73:-0.0924879 74:-0.0676641 75:-0.0732129 76:0.0399323 77:0.0339306 78:-0.0889651 79:0.0680865 80:-0.0327323 81:0.0912637 82:0.018624 83:-0.0976212 84:-0.0787461 85:-0.0933017 86:-0.0196994 87:0.0312762 88:-0.0985094 89:0.0864539 90:-0.0464973 91:0.06891 92:0.0306473 93:0.1 94:-0.0807701 95:0.0960614 96:-0.0375026 97:0.0961582 98:-0.0999993 99:0.0207044 100:0.0824676
1 1:0.0817008 2:-0.0540473 3:0.0744128 4:-0.0304555 5:0.063248 6:0.0999158 7:-0.00493762 8:0.0999731 9:0.084911 10:-0.0924369 11:-0.0743143 12:0.0990574 13:-0.0114497 14:-0.0518118 15:-0.0443973 16:-0.0152233 17:-0.0990091 18:-0.0375523 19:0.00638573 20:-0.0513136 21:0.0582663 22:-0.0116711 23:-0.0282442 24:-0.0825098 25:-0.09884 26:0.0940751 27:0.0926421 28:-0.0920027 29:-0.0713345 30:0.0943246 31:-0.1 32:0.0974672 33:-0.0171544 34:-0.0345522 35:0.0329769 36:0.024713 37:-0.0989975 38:-0.0498919 39:0.0983283 40:-0.0577856 41:0.0791858 42:-0.0340553 43:-0.0789504 44:-0.0928035 45:-0.0997378 46:-0.0285157 47:0.0732852 48:0.0767481 49:0.0799945 50:0.051395 51:0.00254372 52:0.0170825 53:-0.0446729 54:-0.0925601 55:0.0400319 56:0.0410793 57:-0.0630164 58:-0.0193838 59:0.0575609 60:-0.00544433 61:-0.0718302 62:0.0550879 63:0.0798628 64:-0.078047 65:0.071253 66:0.0174658 67:-0.086721 68:-0.09981 69:-0.0547223 70:-0.0634594 71:-0.0631029 72:0.085965 73:-0.0832161 74:0.00235017 75:-0.0420764 76:0.0460682 77:0.0577465 78:0.000992139 79:0.0858598 80:-0.0986567 81:0.0941605 82:-0.015494 83:-0.0432349 84:-0.0397932 85:-0.0861952 86:-0.0940428 87:0.0370778 88:0.0804382 89:-0.025188 90:-0.00998965 91:0.0485122 92:-0.0365304 93:0.0152859 94:0.0745155 95:0.0972181 96:0.0107385 97:0.0999016 98:-0.0997289 99:0.0583897 100:0.0035159
-1 1:0.0359869 2:-0.0940024 3:-0.00784871 4:-0.036848 5:0.0919347 6:0.0994835 7:0.0604784 8:0.0817558 9:0.0954592 10:0.0183792 11:-0.0376501 12:0.0721592 13:-0.0906177 14:-0.0749042 15:-0.0321137 16:-0.0848745 17:-0.000429793 18:0.0295275 19:0.0476701 20:0.00756106 21:0.000502169 22:0.0392801 23:-0.0932829 24:0.00787466 25:-0.0718823 26:0.0978966 27:-0.0568431 28:-0.0833295 29:0.0192001 30:-0.0555379 31:-0.0922941 32:-0.0305553 33:0.0423213 34:0.099041 35:-0.00926635 36:0.0398192 37:-0.0872278 38:-0.094775 39:0.0928601 40:-0.0178506 41:0.00347104 42:-0.000902371 43:-0.0769384 44:-0.0965229 45:-0.0953597 46:0.0546076 47:0.0843682 48:0.0412038 49:0.0960969 50:0.0731046 51:0.0999701 52:0.0470273 53:-0.0624041 54:-0.0671767 55:-0.0571404 56:0.020667 57:-0.0442391 58:0.0234455 59:-0.087596 60:-0.0663392 61:-0.0926841 62:-0.0719985 63:0.0594252 64:0.0632958 65:0.0779685 66:-0.0529878 67:-0.0125181 68:-0.0999344 69:0.0408155 70:0.0078854 71:0.0582574 72:-0.00141744 73:-0.0966986 74:-0.0173845 75:0.020416 76:0.0651885 77:0.0511316 78:-0.0568706 79:0.096032 80:-0.0380395 81:0.0968286 82:0.0759114 83:-0.0890242 84:-0.0354321 85:-0.0389915 86:-0.0361063 87:0.0126008 88:-0.0623525 89:0.0868659 90:-0.0489141 91:0.0991495 92:-0.0803362 93:0.0126964 94:-0.0441672 95:0.0451079 96:-0.0484207 97:0.0432946 98:-0.0736089 99:0.000665945 100:-0.066598
1 1:0.0978399 2:0.0274222 3:0.0631477 4:0.0049155 5:0.056749 6:0.0544456 7:0.0953089 8:0.00615179 9:0.0966519 10:-0.098282 11:-0.0711552 12:0.0537272 13:-0.0668907 14:-0.0357552 15:0.0598065 16:-0.0537411 17:-0.0241171 18:-0.0998127 19:0.0252418 20:-0.0636541 21:0.0372127 22:0.0302131 23:0.0131356 24:0.0160068 25:-0.0416047 26:0.099071 27:0.0897875 28:-0.0979102 29:-0.0750395 30:0.0606061 31:-0.0806951 32:-0.0584325 33:0.0822964 34:0.0705231 35:0.0100638 36:0.099283 37:-0.0364296 38:0.0407345 39:0.0865782 40:-0.099896 41:0.0540948 42:-0.0651869 43:-0.0880561 44:-0.0762819 45:-0.0975883 46:0.0346155 47:0.0709878 48:0.0779104 49:0.0977376 50:0.0143723 51:0.00234375 52:0.0994663 53:0.0179831 54:-0.0927305 55:-0.0269905 56:0.082305 57:-0.0430614 58:-0.0503553 59:-0.0755817 60:0.0130922 61:-0.0775929 62:-0.0450472 63:0.0404659 64:-0.0780563 65:0.0938822 66:-0.0980938 67:-0.0856168 68:-0.097046 69:-0.0399357 70:-0.0866014 71:0.0869438 72:0.0564149 73:-0.0964418 74:-0.0492015 75:-0.0516988 76:0.0831122 77:-0.0231894 78:-0.094028 79:0.0940511 80:-0.0304362 81:0.0889559 82:-0.0773973 83:-0.0975152 84:-0.0858798 85:-0.0511904 86:-0.0916157 87:0.0726047 88:-0.0618074 89:0.0803221 90:-0.0396457 91:0.0951301 92:-0.0629782 93:-0.0132332 94:-0.0348042 95:0.0877289 96:-0.0557063 97:0.0904395 98:-0.0998357 99:0.0195207 100:0.0320803
1 1:0.0680769 2:-0.0444476 3:0.0755497 4:-0.0791489 5:0.021263 6:0.096839 7:0.0999032 8:0.0897813 9:0.0525316 10:-0.0992392 11:-0.03095 12:0.0943697 13:0.0124075 14:-0.0229773 15:0.0805722 16:-0.0556396 17:-0.0576221 18:0.0374187 19:0.0494016 20:-0.0645763 21:0.0646567 22:0.0265682 23:-0.0483903 24:-0.0909638 25:-0.0535321 26:0.0472688 27:0.0354327 28:-0.0973535 29:-0.0273628 30:0.0958839 31:-0.0956857 32:0.0224957 33:0.094732 34:-0.0165753 35:0.000964232 36:0.0523575 37:-0.097609 38:0.0132802 39:0.0481937 40:-0.0919406 41:0.0636325 42:0.023687 43:-0.0750457 44:-0.0877043 45:-0.0374487 46:-0.0120163 47:0.0549417 48:0.0955915 49:0.090439 50:-0.0780655 51:0.0667585 52:0.0480392 53:-0.0324458 54:-0.0453739 55:-0.0643979 56:0.0223896 57:-0.0739788 58:-0.0538709 59:-0.0872132 60:-0.0547927 61:-0.0978464 62:0.0355868 63:-0.0542492 64:-0.0732965 65:0.0998406 66:0.0152554 67:-0.038331 68:-0.0850437 69:-0.0867719 70:-0.0996732 71:-0.0757224 72:0.0850427 73:-0.0923321 74:-0.0178018 75:-0.0991825 76:0.0629638 77:-0.0460074 78:-0.021266 79:0.0997416 80:-0.0203461 81:0.0432013 82:-0.0718365 83:-0.0975259 84:-0.0635418 85:-0.0668123 86:-0.0670318 87:0.031274 88:-0.0562773 89:0.0800235 90:-0.0478059 91:0.0232733 92:-0.0103583 93:-0.0170627 94:0.0899209 95:0.0986326 96:-0.0243114 97:0.044461 98:-0.096752 99:-0.00385545 100:0.0642822
1 1:0.0709645 2:-0.0980867 3:0.0741339 4:-0.0954081 5:0.00848986 6:0.0847138 7:0.0918906 8:0.0481605 9:0.0964759 10:-0.0968053 11:-0.00946793 12:0.0433481 13:-0.0452761 14:0.0222606 15:0.0491368 16:-0.0202726 17:-0.0457972 18:-0.0787379 19:0.0189394 20:-0.0909035 21:0.0755337 22:0.0720454 23:-0.0542361 24:-0.0973855 25:-0.0660074 26:0.0979641 27:0.040185 28:-0.0996428 29:-0.0307354 30:0.0830147 31:-0.0315326 32:0.0582701 33:0.0894522 34:-0.0556961 35:0.0886716 36:0.0331349 37:-0.0992618 38:0.000486294 39:0.093879 40:-0.0573273 41:0.0519989 42:-0.0173842 43:-0.0902 44:-0.00883997 45:-0.0664897 46:0.019772 47:0.0968611 48:0.053919 49:0.0804363 50:-0.076737 51:-0.00116476 52:0.0754927 53:-0.00880868 54:-0.0147406 55:-0.0648483 56:0.0975577 57:-0.0477083 58:-0.0121857 59:-0.0639277 60:-0.0982485 61:-0.097906 62:-0.00681363 63:0.0567716 64:-0.0930775 65:0.07055 66:0.000612523 67:-0.0485756 68:-0.0949374 69:-0.0466777 70:-0.098881 71:0.0922076 72:0.0739837 73:-0.0984818 74:-0.0907554 75:-0.0759265 76:0.0853115 77:-0.0429609 78:-0.0805882 79:0.0363544 80:0.0130116 81:0.0932676 82:0.059912 83:-0.0964958 84:-0.0326939 85:-0.0542734 86:-0.00615976 87:0.0425311 88:-0.00119486 89:0.0959377 90:0.0337536 91:-0.0130894 92:0.00099686 93:-0.0522752 94:-0.0412467 95:0.0885158 96:0.0409189 97:0.0854389 98:-0.0770172 99:0.0455678 100:0.0146547
1 1:0.0863529 2:-0.0583576 3:0.0688072 4:0.0233366 5:0.0761817 6:0.0805676 7:0.0998567 8:0.0798196 9:0.0851725 10:-0.0632354 11:-0.0713484 12:0.0926115 13:0.00122805 14:-0.0983776 15:0.0693872 16:-0.0434432 17:-0.00839333 18:0.00525581 19:0.0348565 20:-0.0742221 21:-0.00967656 22:0.0897387 23:-0.0222476 24:-0.046808 25:-0.0965664 26:0.0889565 27:-0.0797017 28:-0.0930002 29:-0.0838371 30:0.097461 31:-0.0875028 32:0.0117448 33:0.0983418 34:0.0497085 35:-0.0280826 36:0.00487255 37:-0.0796933 38:-0.0208282 39:0.0941553 40:-0.0651533 41:0.0866227 42:0.0430387 43:-0.0974912 44:-0.0854454 45:-0.0233542 46:-0.00801806 47:0.0592862 48:0.0297108 49:0.0947393 50:0.0792268 51:0.0902115 52:-0.0175551 53:-0.0771103 54:-0.0999182 55:0.0559251 56:0.0584855 57:-0.0432112 58:0.0558771 59:-0.0541714 60:-0.0555385 61:-0.0914483 62:-0.0132308 63:-0.0310223 64:-0.0612925 65:0.084361 66:0.0202855 67:0.0187347 68:-0.0849122 69:-0.0245134 70:-0.0877396 71:0.0155777 72:0.0321907 73:-0.099938 74:-0.0447045 75:-0.0722015 76:0.0991662 77:0.00378342 78:-0.0837885 79:0.0967108 80:-0.0376873 81:0.0946731 82:-0.0833298 83:-0.0918583 84:-0.0999474 85:-0.0426831 86:-0.0458106 87:0.032234 88:-0.0996207 89:0.0900572 90:-0.0760936 91:0.0803865 92:-0.0325218 93:0.0117045 94:0.0254584 95:0.0990639 96:0.0989413 97:0.0974232 98:-0.090866 99:0.00121514 100:-0.0300099
0.296672 1:0.0327432 2:-0.0939959 3:0.0978706 4:0.0414003 5:0.0418214 6:0.0694478 7:0.0994335 8:0.0986117 9:0.0650256 10:-0.0645076 11:0.0349805 12:0.0803635 13:0.0502521 14:-0.0662466 15:0.0668096 16:-0.01123 17:0.00374926 18:-0.0136916 19:0.0864758 20:-0.0492495 21:0.0825998 22:0.0952598 23:0.0341289 24:-0.0807459 25:-0.00398044 26:-0.016546 27:0.0365155 28:-0.0960339 29:-0.069732 30:-0.0317085 31:-0.0759034 32:-0.0565379 33:0.0773221 34:-0.00857369 35:0.0406971 36:0.0980593 37:-0.0772566 38:0.0982716 39:0.0980364 40:-0.0532056 41:0.00835754 42:-0.0154646 43:-0.0999011 44:-0.084849 45:-0.0800237 46:0.0536703 47:0.0269376 48:0.0436734 49:0.0998883 50:-0.0984842 51:0.0673778 52:0.0576395 53:0.0198466 54:-0.0436875 55:-0.0212711 56:0.0928306 57:-0.0247795 58:-0.073221 59:-0.0862871 60:-0.0877885 61:-0.087624 62:0.00185603 63:0.0909763 64:-0.0798125 65:0.0967248 66:0.0548593 67:-0.0980111 68:-0.0970053 69:-0.0555815 70:-0.0453557 71:0.0972723 72:0.0770632 73:-0.0426326 74:-0.0263424 75:-0.0916571 76:0.0611898 77:-0.0120242 78:-0.0998491 79:0.0599817 80:0.0245605 81:0.0972054 82:0.0524903 83:-0.0999777 84:-0.0614994 85:-0.0929869 86:0.0136521 87:0.0747844 88:0.00225215 89:0.0612339 90:-0.0704068 91:-0.0307123 92:-0.0119283 93:-0.0335907 94:-0.00357493 95:0.0903246 96:0.0105486 97:0.0999661 98:-0.0987825 99:-0.0530815 100:0.0468901
-0.532005 1:0.0762412 2:0.0602037 3:0.0896645 4:0.0396151 5:0.0881285 6:0.0746011 7:0.039294 8:-0.0586086 9:0.0269296 10:0.0400384 11:-0.0521988 12:0.0535709 13:0.0572801 14:-0.00758186 15:0.05937 16:0.0165137 17:-0.0561986 18:-0.0282332 19:0.0690679 20:0.0279221 21:0.0936741 22:0.09115 23:0.0654615 24:-0.0527403 25:0.0390717 26:0.0384849 27:0.0630461 28:-0.0428642 29:-0.0477851 30:-0.0766584 31:-0.0982323 32:0.0157523 33:0.0974552 34:-0.000322142 35:-0.0738302 36:0.0907826 37:-0.0847789 38:0.0710593 39:0.0437177 40:-0.0975485 41:-0.0159936 42:-0.0994336 43:-0.0962025 44:-0.0997727 45:-0.0430284 46:0.0938479 47:0.0999241 48:-0.00525512 49:0.0878034 50:0.0126985 51:0.0489502 52:0.0591508 53:0.0789994 54:0.00968734 55:-0.0035344 56:0.0900868 57:-0.0874896 58:-0.075961 59:-0.0863741 60:0.0589214 61:-0.0711313 62:0.0480422 63:0.0392573 64:-0.0939782 65:0.0997223 66:0.00064353 67:-0.0799014 68:-0.045706 69:-0.0817644 70:-0.0876092 71:0.0213462 72:0.0942346 73:-0.0436792 74:0.026228 75:-0.0968136 76:0.0791086 77:0.0092299 78:-0.0504204 79:0.0999624 80:-0.0447503 81:0.0976257 82:0.0478141 83:-0.0768615 84:0.0300162 85:-0.0619451 86:-0.098749 87:0.0913249 88:-0.0907901 89:0.0992698 90:-0.086791 91:0.0911121 92:-0.0992305 93:0.0325018 94:-0.080627 95:0.0151214 96:-0.041405 97:0.0562564 98:-0.0457277 99:-0.0263494 100:0.0653311
-1 1:0.0514629 2:0.022665 3:0.0906794 4:-0.035205 5:0.0613068 6:0.0265314 7:0.0641715 8:0.0907562 9:0.049198 10:-0.0777111 11:-0.025383 12:0.0769071 13:0.0926558 14:-0.0559131 15:0.0743973 16:0.0380856 17:-0.0993355 18:0.0320011 19:-0.028751 20:-0.0706165 21:0.0282789 22:0.098526 23:-0.0364016 24:0.0131275 25:-0.0746801 26:0.0997124 27:0.0534896 28:0.0698754 29:-0.0210307 30:-0.0283421 31:-0.0563585 32:0.0947633 33:-0.00266691 34:-0.092743 35:0.0701558 36:0.0965238 37:0.0405865 38:-0.00829997 39:0.0423426 40:-0.0447552 41:0.0323831 42:-0.0999642 43:-0.0996866 44:-0.0829167 45:-0.0704132 46:-0.0303814 47:-0.00657388 48:0.0992161 49:0.0688139 50:-0.0999897 51:-0.013449 52:-0.000543871 53:0.047566 54:-0.0993673 55:-0.0102891 56:0.0996234 57:-0.0997908 58:-0.0307977 59:-0.0999478 60:-0.054512 61:-0.0544682 62:0.013676 63:0.0962415 64:-0.0895704 65:0.0361379 66:0.0736897 67:-0.0922531 68:-0.0995756 69:0.0013633 70:-0.0524491 71:0.0999674 72:-0.0363089 73:-0.0330587 74:-0.098652 75:-0.0607247 76:0.0311714 77:0.0799842 78:0.0242344 79:0.0160152 80:0.0640004 81:0.0442569 82:-0.0187367 83:-0.0999504 84:-0.0514402 85:-0.0828535 86:-0.0195481 87:0.099865 88:0.0796071 89:0.0569253 90:-0.0517844 91:-0.0342514 92:0.0158593 93:0.0148298 94:0.0123507 95:0.095976 96:-0.0529694 97:0.0992877 98:-0.0590286 99:-0.0303249 100:0.0355847
-1 1:0.0990697 2:-0.0593649 3:0.0954797 4:-0.0992172 5:0.0603859 6:0.0684187 7:0.0331434 8:0.0762811 9:0.0331288 10:-0.0906345 11:-0.088914 12:0.0911345 13:0.0786049 14:0.0901537 15:-0.0508358 16:0.0878461 17:-0.0437917 18:-0.018719 19:0.04451 20:0.0317968 21:0.0592461 22:0.0549281 23:0.0723312 24:0.0448533 25:-0.0983776 26:0.0776517 27:-0.02629 28:-0.0611457 29:-0.0644377 30:0.0457404 31:-0.0784216 32:0.0878806 33:0.0375816 34:-0.0944356 35:0.0992586 36:0.0999205 37:-0.0849762 38:-0.0282491 39:0.0828668 40:-0.0846869 41:0.0190114 42:0.035132 43:-0.0997876 44:-0.0693774 45:-0.0996019 46:0.0382531 47:0.0618843 48:0.0999416 49:0.043159 50:-0.0270392 51:0.000244441 52:0.0354794 53:0.0134237 54:-0.0782814 55:0.015459 56:0.0806323 57:-0.0998964 58:-0.0390254 59:-0.0200606 60:0.053103 61:-0.0818142 62:0.0688094 63:0.0992142 64:-0.0933447 65:0.0994385 66:0.0995853 67:-0.0768196 68:-0.0963001 69:-0.0173805 70:-0.0830907 71:0.0976441 72:0.023442 73:-0.0996217 74:0.0777132 75:-0.0223324 76:0.0952236 77:-0.0472072 78:0.044114 79:0.0994858 80:-0.060903 81:0.0548845 82:0.00673926 83:-0.0607747 84:0.0186619 85:-0.0978657 86:-0.00288748 87:0.0691511 88:-0.0480263 89:0.0662492 90:-0.0411402 91:0.00506897 92:-0.082358 93:0.0998908 94:0.0228646 95:0.0802601 96:-0.0276214 97:0.0700973 98:-0.0243355 99:0.0440832 100:-0.0439585
-1 1:0.0595633 2:0.0924814 3:0.0999789 4:0.049053 5:0.0602949 6:0.0999941 7:0.0948805 8:0.0912699 9:0.053743 10:-0.0874601 11:-0.0605308 12:0.0539478 13:0.0327215 14:-0.0671595 15:0.0467079 16:-0.0755044 17:-0.00922268 18:-0.0833731 19:0.0764596 20:0.00566489 21:0.0487219 22:-0.0110027 23:0.00978599 24:-0.00836456 25:-0.0400561 26:-0.0131094 27:0.0176011 28:-0.0681224 29:0.0980449 30:0.0863594 31:-0.0611119 32:-0.0504321 33:0.0811201 34:-0.0235758 35:-0.0277761 36:0.0685188 37:-0.0748273 38:0.0295474 39:0.0957971 40:-0.0968025 41:0.0886943 42:-0.0463952 43:-0.0954294 44:0.0126679 45:-0.0633592 46:-0.085882 47:0.0981038 48:0.0989989 49:0.0997114 50:0.0844076 51:0.0932447 52:0.0671782 53:-0.0326388 54:-0.0567118 55:0.0553197 56:0.00488573 57:-0.0583671 58:-0.0677151 59:-0.0982324 60:-0.0484846 61:-0.0288721 62:0.013471 63:-0.0075384 64:-0.0836846 65:0.0546586 66:-0.00363081 67:-0.0411936 68:-0.0669216 69:-0.0167158 70:-0.1 71:0.0235661 72:0.0972859 73:-0.0736759 74:-0.0942274 75:-0.0163196 76:0.0443445 77:-0.0236753 78:-0.0890263 79:-0.0370559 80:0.0992731 81:0.0997231 82:-0.0979451 83:-0.0979548 84:-0.0693641 85:-0.0972645 86:-0.0508806 87:0.0989188 88:-0.0992511 89:0.0802039 90:-0.0384612 91:0.0716712 92:-0.00211298 93:-0.0274996 94:0.0260657 95:0.0773673 96:0.0177547 97:0.080805 98:-0.0522892 99:-0.000495872 100:-0.0207503
1 1:0.0999858 2:0.0107922 3:0.098207 4:0.0878184 5:0.0707336 6:-0.0281569 7:0.1 8:0.0895491 9:0.0333051 10:-0.075283 11:-0.0115579 12:0.0778403 13:0.00270602 14:-0.0652402 15:0.0374004 16:0.0253694 17:-0.0745686 18:0.0634532 19:0.0605501 20:-0.0866222 21:0.0888409 22:0.0943455 23:0.0221242 24:-0.0180908 25:-0.0506728 26:0.0745601 27:0.041892 28:-0.0574601 29:-0.0948258 30:-0.0691229 31:-0.0528522 32:-0.0832152 33:0.0309968 34:0.0168353 35:-0.00507899 36:0.0992997 37:-0.0999325 38:0.0986579 39:0.0926431 40:-0.0854026 41:0.0113707 42:-0.0787449 43:-0.0810559 44:-0.00829133 45:-0.0947817 46:0.0865779 47:0.00343363 48:0.062975 49:0.097895 50:0.0162137 51:0.0919439 52:0.0979757 53:-0.0156724 54:-0.0582645 55:0.0764928 56:0.0982403 57:0.000292068 58:-0.0501563 59:-0.0282571 60:0.0338547 61:-0.0668835 62:-0.056761 63:0.0977287 64:-0.0952215 65:0.0974452 66:0.00432681 67:-0.0887435 68:-0.0985207 69:-0.0511626 70:-0.0321019 71:0.0850671 72:0.0166389 73:-0.0968112 74:-0.0507897 75:0.0156058 76:0.0743424 77:0.0497344 78:-0.0996848 79:0.0977782 80:-0.0329232 81:0.0989094 82:0.0753894 83:-0.094147 84:-0.0710745 85:-0.0928076 86:0.0362075 87:0.0263947 88:-0.0907913 89:-0.028884 90:-0.0257079 91:0.0149531 92:-0.0527338 93:-0.0471917 94:0.0523877 95:0.0906795 96:-0.0833514 97:0.0949278 98:-0.0540464 99:-0.0381964 100:-0.0660254
1 1:0.0296041 2:0.00280674 3:0.0988882 4:-0.0235204 5:0.0353943 6:0.0749004 7:0.015386 8:0.0621795 9:0.0999248 10:-0.099871 11:-0.0915006 12:0.069657 13:0.0432206 14:0.00951038 15:0.092191 16:0.0415196 17:-0.0966779 18:-0.0783808 19:0.0462421 20:-0.0384079 21:0.0696399 22:-0.0103182 23:0.0945983 24:-0.0998821 25:-0.0998722 26:0.0952462 27:0.0983452 28:-0.0948903 29:-0.0621671 30:0.0992815 31:-0.0965424 32:0.0702986 33:0.060854 34:-0.0778616 35:0.0270622 36:0.0951979 37:-0.0383904 38:0.0371193 39:0.0901259 40:-0.0952442 41:0.0949236 42:0.0107682 43:-0.0996676 44:0.0160506 45:-0.0907679 46:-0.00992019 47:0.0908025 48:0.098788 49:0.085173 50:0.0743985 51:0.0709503 52:0.0825109 53:-0.0134022 54:-0.0961235 55:0.0645525 56:0.0490935 57:-0.0994957 58:-0.0461714 59:0.00548573 60:0.0246053 61:-0.0627629 62:0.0432637 63:0.0956044 64:-0.0818298 65:0.0537315 66:0.0216073 67:-0.0907877 68:-0.0906918 69:-0.0307228 70:-0.0938927 71:0.0728772 72:0.0838027 73:-0.0901477 74:-0.0409056 75:0.0665122 76:0.0401634 77:-0.0734645 78:-0.0877258 79:0.0449237 80:-0.0265811 81:0.0863584 82:0.000152808 83:-0.0737729 84:-0.0885131 85:-0.0995014 86:-0.0481533 87:0.093696 88:-0.0396621 89:0.0997998 90:0.0899561 91:0.0551055 92:-0.0271376 93:0.030893 94:0.0740482 95:0.0973575 96:-0.00581186 97:0.0577585 98:-0.0999533 99:0.05065 100:-0.0106291
-1 1:0.0390888 2:0.0762166 3:0.0922377 4:0.0107725 5:0.0763563 6:0.0394882 7:0.0427982 8:0.00848512 9:0.0981809 10:-0.0510496 11:-0.0531638 12:0.0899312 13:0.00256652 14:0.0365014 15:0.0864703 16:-0.0248623 17:-0.0871645 18:-0.0998142 19:0.0976191 20:-0.0999952 21:0.0929512 22:0.0297076 23:0.0821453 24:-0.0773698 25:-0.0551059 26:0.08513 27:-0.000592853 28:-0.0798997 29:-0.0257994 30:0.0897575 31:-0.0722053 32:0.0561763 33:0.0590519 34:-0.0559412 35:-0.0197195 36:0.0853957 37:-0.0771926 38:0.0998671 39:0.0789215 40:-0.0944645 41:0.0781701 42:-0.0993886 43:-0.0889619 44:-0.0689592 45:-0.095816 46:-0.0841066 47:0.0973585 48:0.083938 49:0.0620554 50:-0.0498176 51:0.0289701 52:0.0260731 53:-0.0175612 54:-0.0991212 55:-0.0866999 56:0.0990029 57:-0.0424654 58:-0.0917506 59:-0.00875729 60:-0.0325677 61:-0.0625261 62:0.0753425 63:0.0749784 64:-0.0594392 65:0.0979543 66:0.00233216 67:-0.0841863 68:-0.0959407 69:-0.046937 70:-0.0901694 71:0.0998538 72:0.0151556 73:-0.0970437 74:0.00139203 75:-0.0562194 76:0.0841091 77:0.0442627 78:-0.0999561 79:0.070485 80:-0.0669017 81:0.0684381 82:0.00320605 83:-0.0809384 84:-0.0440861 85:-0.0996603 86:-0.0900279 87:0.0959228 88:0.0113286 89:0.034844 90:0.0067402 91:0.0922841 92:0.0422955 93:0.028127 94:0.0164383 95:0.0611842 96:-0.0537347 97:0.0930467 98:-0.0768017 99:0.0387641 100:0.0882981
1 1:0.0980004 2:-0.0987127 3:0.0198886 4:0.0213969 5:0.084245 6:0.0741913 7:0.0988024 8:0.0831798 9:0.0865053 10:-0.0880295 11:0.0445133 12:-0.0322988 13:-0.00132289 14:0.00159945 15:-0.0152075 16:-0.00544179 17:0.0348889 18:0.0869953 19:0.0687307 20:-0.0413184 21:0.0862126 22:0.0587894 23:-0.018759 24:-0.0221975 25:-0.0894635 26:0.0858128 27:-0.0564509 28:-0.0380244 29:-0.0507551 30:0.013626 31:-0.0818142 32:-0.0628653 33:0.0762841 34:0.0739616 35:0.0848532 36:0.0393203 37:-0.0952426 38:0.0272052 39:0.0744307 40:-0.0960282 41:0.09212 42:0.0833786 43:-0.0927201 44:0.0250902 45:-0.00436493 46:0.0109791 47:0.0642687 48:0.0423907 49:0.0998094 50:-0.0271456 51:0.0559276 52:0.0784487 53:0.0533168 54:0.0776617 55:0.0175281 56:0.0606987 57:0.0656287 58:0.0124751 59:-0.0709888 60:-0.0876458 61:-0.0591171 62:0.0440421 63:-0.0620969 64:-0.051871 65:0.0686374 66:-0.0594588 67:-0.0972998 68:-0.0339664 69:-0.0207184 70:-0.0408467 71:0.0806956 72:0.0843811 73:-0.0999399 74:-0.0644197 75:-0.0980884 76:0.0880928 77:-0.0700548 78:-0.0348584 79:0.0903788 80:-0.0524268 81:0.0982765 82:-0.0712214 83:-0.0990761 84:-0.0997919 85:-0.0879843 86:0.00807657 87:-0.0150421 88:-0.0875583 89:0.0859155 90:-0.0911389 91:0.0379532 92:-0.00468111 93:0.00871648 94:-0.0710935 95:0.0600829 96:0.0554042 97:0.0961808 98:-0.0762832 99:0.0274733 100:-0.0270918
1 1:0.0610071 2:0.0217024 3:0.0931755 4:-0.0359845 5:0.0976557 6:0.0460429 7:0.0645811 8:0.0742898 9:0.0989519 10:-0.0997807 11:-0.0135568 12:0.0944574 13:-0.0289942 14:-0.012674 15:0.0419365 16:-0.0617537 17:-0.0776494 18:0.00600248 19:0.080296 20:-0.0502922 21:0.0336312 22:-0.0516873 23:0.0329018 24:-0.06894 25:-0.00774477 26:0.0510941 27:0.0785135 28:-0.0906187 29:0.0248891 30:-0.0494758 31:-0.0949892 32:-0.00311369 33:0.0643957 34:0.0344731 35:0.0247374 36:0.0529222 37:-0.093163 38:0.0788548 39:0.0794259 40:-0.0873989 41:-0.0312441 42:0.0965972 43:-0.0487838 44:0.0113688 45:-0.0714797 46:-0.0703268 47:0.0982919 48:0.0261598 49:0.097741 50:0.0974419 51:0.0974324 52:0.0666539 53:-0.00503854 54:-0.0568799 55:-0.0886437 56:0.0282186 57:-0.0705118 58:-0.0681714 59:-0.099918 60:-0.0895402 61:-0.099979 62:-0.0902307 63:-0.0848084 64:-0.0547046 65:0.064803 66:-0.0374142 67:-0.0831516 68:-0.0916263 69:-0.00285745 70:-0.0864959 71:0.0991184 72:0.0946802 73:-0.0896003 74:0.0401527 75:-0.0994149 76:0.0537271 77:-0.068605 78:-0.0588066 79:0.0241409 80:-0.0433936 81:0.0973928 82:-0.0984077 83:-0.0996455 84:-0.0863823 85:-0.0694291 86:-0.0604901 87:0.0352221 88:-0.0395684 89:0.0636593 90:-0.0447577 91:0.0609367 92:-0.0313265 93:0.0164709 94:-0.0679773 95:0.0983801 96:0.0172792 97:0.0915306 98:-0.088962 99:-0.0353064 100:0.0116815
