svm_type c_svc
kernel_type linear
nr_class 2
total_sv 4764
rho 1.00002
label 1 -1
nr_sv 2376 2388
SV
1 1:-1.52 2:-1.15 
1 1:-0.916 2:0.397 
1 1:-1.09 2:0.437 
1 1:-0.584 2:0.0937 
1 1:-1.25 2:-0.286 
1 1:1.7 2:1.21 
1 1:-0.482 2:-0.485 
1 1:0.0809 2:1.93 
1 1:-0.541 2:-0.332 
1 1:-1.69 2:-0.0461 
1 1:1.26 2:1.21 
1 1:-0.863 2:0.496 
1 1:1.16 2:-0.458 
1 1:-0.595 2:-0.651 
1 1:-0.77 2:0.364 
1 1:-0.871 2:-0.825 
1 1:0.996 2:-1.7 
1 1:1.74 2:0.964 
1 1:1.18 2:-0.335 
1 1:2.52 2:1.43 
1 1:0.271 2:-0.591 
1 1:-1.59 2:-0.68 
1 1:0.408 2:0.0673 
1 1:0.00902 2:-0.434 
1 1:-2.14 2:-1.43 
1 1:0.396 2:-0.606 
1 1:0.315 2:-0.182 
1 1:0.00665 2:0.0118 
1 1:-0.352 2:-0.49 
1 1:0.785 2:0.0481 
1 1:1.33 2:1.51 
1 1:1.09 2:-1.37 
1 1:-1.67 2:-1.26 
1 1:-0.508 2:-0.715 
1 1:0.603 2:-0.108 
1 1:-0.323 2:-0.213 
1 1:0.201 2:0.0024 
1 1:0.0238 2:0.0836 
1 1:-0.308 2:2.19 
1 1:0.767 2:-0.248 
1 1:1.23 2:-1.2 
1 1:1.33 2:1.63 
1 1:0.27 2:0.0491 
1 1:-1.69 2:-1.87 
1 1:0.495 2:-0.281 
1 1:1.36 2:-0.732 
1 1:-0.209 2:0.345 
1 1:1.26 2:-1.37 
1 1:-1.78 2:-0.378 
1 1:0.98 2:-0.0439 
1 1:-1.39 2:-0.451 
1 1:1.22 2:-0.361 
1 1:-0.838 2:0.356 
1 1:1.17 2:-1.39 
1 1:-0.0269 2:0.958 
1 1:1.38 2:-1.74 
1 1:1.2 2:1.54 
1 1:2.07 2:1.02 
1 1:-0.462 2:-0.187 
1 1:0.615 2:-0.0228 
1 1:-1.79 2:-0.98 
1 1:-1.79 2:-0.954 
1 1:0.826 2:1.5 
1 1:-1.08 2:0.114 
1 1:0.706 2:1.38 
1 1:-1.26 2:0.23 
1 1:-0.223 2:-0.419 
1 1:-1.86 2:-1.57 
1 1:-0.214 2:0.38 
1 1:0.744 2:1.42 
1 1:1.77 2:1.35 
1 1:-0.903 2:0.101 
1 1:0.309 2:-0.175 
1 1:-0.0962 2:0.19 
1 1:1.02 2:-0.261 
1 1:2.35 2:1.21 
1 1:-1.16 2:0.469 
1 1:0.0179 2:-0.7 
1 1:1.07 2:-0.985 
1 1:1.49 2:1.55 
1 1:-0.0625 2:-0.12 
1 1:-1.77 2:-0.923 
1 1:-0.202 2:0.712 
1 1:1.06 2:-0.427 
1 1:1.71 2:1.1 
1 1:1.86 2:1.14 
1 1:-0.529 2:-0.357 
1 1:0.666 2:1.36 
1 1:-0.296 2:0.255 
1 1:0.741 2:-1.2 
1 1:-0.0987 2:0.966 
1 1:0.896 2:1.58 
1 1:-0.412 2:0.492 
1 1:-0.753 2:-0.0615 
1 1:0.497 2:-0.671 
1 1:-1.04 2:-0.2 
1 1:0.976 2:-1.39 
1 1:0.303 2:-0.143 
1 1:1.1 2:-0.695 
1 1:0.579 2:-1.02 
1 1:0.916 2:0.144 
1 1:-0.877 2:-0.401 
1 1:1.97 2:0.99 
1 1:1.06 2:-0.69 
1 1:1.42 2:-0.32 
1 1:0.535 2:0.504 
1 1:1.14 2:-0.209 
1 1:0.268 2:-1.08 
1 1:-1.77 2:-0.828 
1 1:0.378 2:-0.0609 
1 1:1.19 2:0.113 
1 1:2.07 2:1.21 
1 1:1.23 2:-0.0582 
1 1:0.44 2:0.399 
1 1:0.143 2:0.263 
1 1:1.23 2:-0.615 
1 1:0.0107 2:0.0258 
1 1:0.36 2:-0.715 
1 1:-0.645 2:-0.238 
1 1:-1.86 2:-0.963 
1 1:0.122 2:-0.041 
1 1:1.33 2:1.42 
1 1:0.778 2:-0.694 
1 1:-1.87 2:-1.26 
1 1:-0.956 2:-0.818 
1 1:-1.25 2:0.512 
1 1:0.329 2:-0.37 
1 1:-1.37 2:-0.803 
1 1:1.19 2:-1.34 
1 1:0.983 2:-1.31 
1 1:-1.63 2:-1.41 
1 1:-1.02 2:-0.296 
1 1:-0.387 2:0.26 
1 1:-1.59 2:-1 
1 1:-0.869 2:-0.0393 
1 1:-1.9 2:0.106 
1 1:-0.112 2:-0.841 
1 1:0.842 2:-1.41 
1 1:0.564 2:-1.13 
1 1:-0.0584 2:0.54 
1 1:-1.58 2:-1.26 
1 1:-0.813 2:-0.57 
1 1:-0.579 2:-0.748 
1 1:0.719 2:0.0781 
1 1:-0.274 2:0.0468 
1 1:0.207 2:0.0304 
1 1:1.17 2:-0.567 
1 1:-1.87 2:-1.1 
1 1:-0.946 2:-0.197 
1 1:0.812 2:-0.195 
1 1:0.287 2:-0.517 
1 1:-1.54 2:-0.643 
1 1:-1.18 2:-0.0978 
1 1:0.0431 2:-0.0199 
1 1:0.0788 2:-0.0998 
1 1:-0.24 2:1.72 
1 1:1.29 2:-1.43 
1 1:-0.206 2:-0.474 
1 1:0.298 2:-0.829 
1 1:0.328 2:1.71 
1 1:-1.24 2:-0.352 
1 1:-1.39 2:-0.68 
1 1:1.2 2:-1.56 
1 1:-0.208 2:0.332 
1 1:-0.102 2:-0.13 
1 1:-1.06 2:0.496 
1 1:0.866 2:-0.917 
1 1:1.73 2:1.68 
1 1:1.2 2:-0.948 
1 1:-0.314 2:0.0194 
1 1:-0.0978 2:-0.424 
1 1:-0.201 2:0.0726 
1 1:0.99 2:-0.0762 
1 1:0.569 2:1.62 
1 1:-1.2 2:-0.451 
1 1:-0.853 2:-0.254 
1 1:0.837 2:1.75 
1 1:-0.364 2:-0.0828 
1 1:0.939 2:-0.351 
1 1:1.37 2:-0.331 
1 1:-0.113 2:-0.197 
1 1:0.103 2:0.329 
1 1:-0.533 2:-0.402 
1 1:1.09 2:-1.59 
1 1:1.46 2:-0.417 
1 1:-1.59 2:-0.98 
1 1:-1.58 2:-0.842 
1 1:-0.0203 2:1.92 
1 1:0.351 2:-0.0402 
1 1:2.6 2:0.951 
1 1:-1.29 2:-0.529 
1 1:-1.69 2:-1.2 
1 1:2.16 2:1.16 
1 1:-0.259 2:0.496 
1 1:-0.472 2:0.411 
1 1:-1.73 2:-1.32 
1 1:-1.24 2:-0.919 
1 1:-1.4 2:-0.37 
1 1:-0.288 2:0.305 
1 1:0.778 2:1.44 
1 1:-1.27 2:-0.273 
1 1:0.74 2:1.2 
1 1:0.805 2:-0.237 
1 1:-1.86 2:-1.47 
1 1:0.487 2:-0.13 
1 1:0.96 2:-0.522 
1 1:-1.76 2:-0.903 
1 1:0.0486 2:-0.389 
1 1:-1.46 2:0.0829 
1 1:-1.69 2:-0.542 
1 1:0.707 2:0.0524 
1 1:-0.488 2:-0.566 
1 1:1.84 2:1.18 
1 1:0.529 2:0.788 
1 1:0.571 2:0.197 
1 1:-1.23 2:-0.308 
1 1:-1.33 2:0.0398 
1 1:-1.35 2:0.424 
1 1:0.859 2:-0.952 
1 1:-0.672 2:0.683 
1 1:-1.9 2:-1.1 
1 1:-1.38 2:-0.32 
1 1:-1.01 2:-0.771 
1 1:-0.739 2:0.578 
1 1:0.416 2:1.86 
1 1:-0.181 2:0.344 
1 1:0.422 2:-0.934 
1 1:-0.407 2:0.602 
1 1:-0.0552 2:0.882 
1 1:-2.08 2:-1.78 
1 1:-1.12 2:0.154 
1 1:-1.1 2:0.135 
1 1:0.472 2:0.289 
1 1:-0.413 2:-0.0275 
1 1:-0.875 2:0.591 
1 1:-0.404 2:0.178 
1 1:-0.297 2:-0.467 
1 1:-1.14 2:-0.494 
1 1:-0.0242 2:-0.659 
1 1:-0.641 2:0.516 
1 1:0.701 2:0.0237 
1 1:-0.516 2:0.831 
1 1:0.863 2:-1.02 
1 1:-1.12 2:0.559 
1 1:2.43 2:1.39 
1 1:-1.67 2:-1.73 
1 1:0.743 2:-1.18 
1 1:-1.52 2:-0.658 
1 1:1.28 2:-0.176 
1 1:1.58 2:-1.29 
1 1:-2.15 2:-0.858 
1 1:-0.0307 2:0.678 
1 1:0.642 2:1.65 
1 1:-1.58 2:-1.25 
1 1:0.333 2:-0.845 
1 1:-1.18 2:-0.758 
1 1:1.15 2:-1.52 
1 1:-0.601 2:-0.539 
1 1:-1.57 2:-1.74 
1 1:0.652 2:-0.646 
1 1:0.71 2:0.0529 
1 1:-1.01 2:-1.27 
1 1:0.469 2:-0.321 
1 1:-0.411 2:0.727 
1 1:-0.72 2:0.189 
1 1:-0.00329 2:-0.0777 
1 1:-0.937 2:-0.086 
1 1:2.21 2:1.02 
1 1:0.37 2:0.312 
1 1:-1.41 2:-0.214 
1 1:-0.0246 2:-0.141 
1 1:-1.35 2:-0.485 
1 1:-0.198 2:1.67 
1 1:-0.8 2:-0.282 
1 1:0.168 2:0.345 
1 1:1.45 2:-1.24 
1 1:-0.457 2:-0.322 
1 1:0.902 2:-1.08 
1 1:1.01 2:-1.05 
1 1:-0.287 2:-0.726 
1 1:0.205 2:-0.471 
1 1:-0.623 2:-0.737 
1 1:0.899 2:-0.235 
1 1:0.834 2:-0.584 
1 1:0.15 2:-0.256 
1 1:-1.23 2:-0.336 
1 1:0.866 2:-0.807 
1 1:-1.3 2:-1.17 
1 1:0.527 2:-0.251 
1 1:-0.748 2:-0.57 
1 1:0.105 2:0.103 
1 1:0.563 2:0.137 
1 1:0.317 2:-0.0233 
1 1:-1.31 2:0.00723 
1 1:0.576 2:1.7 
1 1:-0.106 2:-0.316 
1 1:-1.46 2:-0.909 
1 1:0.552 2:-1.07 
1 1:-1.14 2:0.304 
1 1:-1.64 2:0.143 
1 1:0.775 2:0.0171 
1 1:-1.71 2:-1.29 
1 1:-0.636 2:-0.988 
1 1:0.0949 2:-0.854 
1 1:-0.0238 2:0.000407 
1 1:0.939 2:1.69 
1 1:0.324 2:1.68 
1 1:-1.31 2:-0.229 
1 1:1.01 2:-0.94 
1 1:0.0219 2:-0.388 
1 1:-0.146 2:0.132 
1 1:1.21 2:-1.02 
1 1:1.39 2:-0.872 
1 1:0.502 2:-0.536 
1 1:-1.35 2:-1.19 
1 1:-1.11 2:0.439 
1 1:-1.87 2:-0.451 
1 1:-1.66 2:-0.735 
1 1:0.243 2:0.304 
1 1:0.169 2:1.86 
1 1:-1.11 2:0.655 
1 1:-1.62 2:-1.85 
1 1:0.377 2:0.198 
1 1:-0.118 2:1.7 
1 1:1.2 2:-0.598 
1 1:-1.89 2:-0.727 
1 1:0.833 2:-0.254 
1 1:-1.7 2:-0.845 
1 1:0.272 2:1.82 
1 1:-1.07 2:0.534 
1 1:0.195 2:-0.296 
1 1:0.808 2:-0.831 
1 1:0.755 2:0.22 
1 1:1.32 2:1.36 
1 1:-0.558 2:0.572 
1 1:0.27 2:0.696 
1 1:-0.606 2:-0.546 
1 1:-0.556 2:-0.505 
1 1:0.143 2:0.337 
1 1:1.47 2:-0.312 
1 1:-0.377 2:0.607 
1 1:0.816 2:0.306 
1 1:1.16 2:-1.08 
1 1:0.378 2:-0.56 
1 1:0.934 2:0.258 
1 1:1.01 2:-0.743 
1 1:0.96 2:-0.9 
1 1:-0.249 2:0.0234 
1 1:2.51 2:1.11 
1 1:0.154 2:-0.653 
1 1:-0.264 2:-0.768 
1 1:-0.573 2:-0.789 
1 1:-0.61 2:-0.306 
1 1:0.184 2:1.7 
1 1:0.0317 2:-0.821 
1 1:-2.14 2:-0.476 
1 1:-0.466 2:0.145 
1 1:0.59 2:-0.796 
1 1:-0.235 2:-0.617 
1 1:0.796 2:0.429 
1 1:-1.97 2:-0.271 
1 1:-0.39 2:-0.209 
1 1:0.165 2:-0.405 
1 1:0.218 2:-0.368 
1 1:-0.283 2:1.88 
1 1:0.313 2:0.189 
1 1:-0.341 2:-0.0358 
1 1:-1.73 2:-1.3 
1 1:-0.451 2:0.775 
1 1:-1.62 2:-0.712 
1 1:-0.862 2:-0.0613 
1 1:-0.255 2:0.387 
1 1:0.118 2:0.13 
1 1:-0.786 2:-0.64 
1 1:-0.0895 2:1.65 
1 1:2.46 2:1.23 
1 1:0.976 2:-1.53 
1 1:1.47 2:1.21 
1 1:-1.97 2:-0.674 
1 1:0.748 2:-0.558 
1 1:-1.45 2:-0.203 
1 1:-1.68 2:-0.51 
1 1:-0.232 2:-0.843 
1 1:1.66 2:1.42 
1 1:1.37 2:-1.52 
1 1:0.802 2:0.431 
1 1:0.913 2:-0.318 
1 1:0.854 2:-0.827 
1 1:-1.47 2:-0.212 
1 1:1.24 2:-1.33 
1 1:0.659 2:-0.057 
1 1:1.51 2:-1.15 
1 1:1.05 2:-2.08 
1 1:-1.42 2:-1.51 
1 1:-1.59 2:-0.766 
1 1:0.903 2:-1.17 
1 1:-0.323 2:-0.264 
1 1:-1.26 2:-0.296 
1 1:0.874 2:-1.41 
1 1:-1.52 2:-0.74 
1 1:-0.716 2:-0.194 
1 1:-0.579 2:-0.397 
1 1:1.45 2:-1.78 
1 1:1.39 2:-1.11 
1 1:-0.238 2:0.126 
1 1:-0.576 2:-0.463 
1 1:0.258 2:0.309 
1 1:-0.827 2:-0.506 
1 1:1.08 2:1.42 
1 1:0.146 2:-0.151 
1 1:-1.19 2:-0.529 
1 1:0.0176 2:0.0932 
1 1:-0.0618 2:0.358 
1 1:-1.78 2:-1.49 
1 1:-1.86 2:-0.977 
1 1:-0.699 2:-0.000578 
1 1:-0.233 2:0.593 
1 1:-1.66 2:-0.792 
1 1:-0.673 2:0.313 
1 1:-1.24 2:-0.72 
1 1:-1.25 2:0.104 
1 1:1.85 2:1.38 
1 1:0.546 2:-0.195 
1 1:-1.13 2:-1.08 
1 1:-1.13 2:0.193 
1 1:-1.07 2:-1.11 
1 1:0.0438 2:0.536 
1 1:0.156 2:0.152 
1 1:-0.311 2:0.995 
1 1:-1.42 2:-0.36 
1 1:1.52 2:-1.34 
1 1:-1.91 2:-2.24 
1 1:2.06 2:1.12 
1 1:0.0584 2:-0.638 
1 1:0.486 2:0.245 
1 1:-0.0227 2:0.163 
1 1:1.15 2:1.16 
1 1:-2.03 2:-1.65 
1 1:0.522 2:1.36 
1 1:-0.801 2:-0.24 
1 1:-0.178 2:-0.238 
1 1:-1.94 2:-1.03 
1 1:0.322 2:1.68 
1 1:0.407 2:1.67 
1 1:0.683 2:-0.0347 
1 1:-2.05 2:-1.4 
1 1:-0.679 2:-0.0957 
1 1:2.23 2:0.895 
1 1:-0.122 2:-0.0671 
1 1:1.41 2:-0.808 
1 1:-0.68 2:0.314 
1 1:-0.347 2:0.574 
1 1:0.265 2:-0.182 
1 1:0.896 2:0.36 
1 1:-1.26 2:-1.01 
1 1:-1.65 2:-0.723 
1 1:1.87 2:1.19 
1 1:0.839 2:-0.0819 
1 1:1.26 2:-0.912 
1 1:2.81 2:1.3 
1 1:0.725 2:-0.54 
1 1:-0.709 2:-0.262 
1 1:-1 2:0.078 
1 1:2.17 2:1.24 
1 1:0.433 2:0.38 
1 1:-1.32 2:-0.403 
1 1:-0.812 2:-0.411 
1 1:1.16 2:1.48 
1 1:-0.54 2:-0.601 
1 1:-1.48 2:-0.682 
1 1:1.41 2:-1.48 
1 1:-1.63 2:-1.16 
1 1:-1.08 2:-0.0594 
1 1:-0.334 2:0.18 
1 1:-0.477 2:0.676 
1 1:1.12 2:-0.756 
1 1:-0.0662 2:-0.479 
1 1:-0.32 2:0.707 
1 1:1.76 2:1.33 
1 1:-0.254 2:0.403 
1 1:0.636 2:1.34 
1 1:-0.804 2:0.396 
1 1:1.89 2:0.834 
1 1:-1.03 2:-0.422 
1 1:0.713 2:2.04 
1 1:-1.44 2:-0.358 
1 1:1.79 2:1.5 
1 1:-0.27 2:0.0117 
1 1:2.17 2:1.45 
1 1:1.66 2:1.3 
1 1:2.12 2:1.1 
1 1:-0.252 2:0.623 
1 1:-0.966 2:0.487 
1 1:-1.95 2:-0.9 
1 1:0.395 2:0.423 
1 1:-0.947 2:0.445 
1 1:0.112 2:0.238 
1 1:-0.322 2:-0.356 
1 1:-0.339 2:0.806 
1 1:-0.711 2:0.0759 
1 1:-0.651 2:0.369 
1 1:1.76 2:1.48 
1 1:0.584 2:-0.212 
1 1:-1.2 2:-0.248 
1 1:0.073 2:-0.00169 
1 1:-0.0281 2:-0.323 
1 1:-1.42 2:-0.0747 
1 1:0.237 2:0.0367 
1 1:0.604 2:-0.709 
1 1:0.686 2:-0.19 
1 1:1.2 2:-0.754 
1 1:1.78 2:1.35 
1 1:-0.629 2:-0.118 
1 1:2.64 2:0.966 
1 1:0.323 2:-0.796 
1 1:-2.11 2:-1.45 
1 1:-1.28 2:0.213 
1 1:-0.577 2:0.206 
1 1:2.71 2:1.35 
1 1:-1.15 2:0.406 
1 1:0.216 2:1.96 
1 1:-0.852 2:-0.59 
1 1:1 2:1.69 
1 1:1.93 2:1.34 
1 1:1.33 2:-0.486 
1 1:-0.0767 2:0.000168 
1 1:-1.87 2:-1.17 
1 1:0.133 2:-0.227 
1 1:-0.719 2:-0.384 
1 1:1.57 2:1.43 
1 1:-0.656 2:-0.334 
1 1:1.07 2:-0.221 
1 1:-0.0692 2:1.73 
1 1:2.36 2:1.33 
1 1:-0.903 2:-0.0822 
1 1:0.271 2:-0.0382 
1 1:-0.112 2:1.85 
1 1:0.74 2:1.53 
1 1:0.451 2:-0.00833 
1 1:-2.1 2:-0.859 
1 1:-0.198 2:-0.536 
1 1:1.54 2:1.24 
1 1:0.734 2:-0.212 
1 1:-2.12 2:-0.575 
1 1:-1.89 2:-0.799 
1 1:-0.975 2:-0.182 
1 1:0.616 2:-1.07 
1 1:-1.41 2:-1.02 
1 1:-0.286 2:-0.571 
1 1:0.526 2:1.36 
1 1:-0.251 2:0.846 
1 1:-1.51 2:-0.593 
1 1:-0.162 2:-0.0223 
1 1:-0.628 2:-0.267 
1 1:-0.61 2:0.00888 
1 1:0.275 2:-0.202 
1 1:0.908 2:-0.506 
1 1:-0.628 2:0.601 
1 1:-0.5 2:-0.0595 
1 1:-0.341 2:0.169 
1 1:0.0554 2:-0.139 
1 1:-0.116 2:0.0815 
1 1:-0.71 2:-0.874 
1 1:1.51 2:1.59 
1 1:-1.95 2:-0.16 
1 1:2.36 2:1.5 
1 1:-1.46 2:-0.891 
1 1:0.637 2:0.00536 
1 1:0.384 2:-0.314 
1 1:-0.744 2:0.196 
1 1:0.553 2:-0.817 
1 1:-0.532 2:-0.179 
1 1:-1.25 2:-0.897 
1 1:0.524 2:-0.648 
1 1:0.791 2:1.69 
1 1:0.768 2:-0.917 
1 1:1.18 2:1.25 
1 1:0.32 2:-0.465 
1 1:-1.27 2:-0.704 
1 1:-0.468 2:0.245 
1 1:1.44 2:-1.52 
1 1:-1.62 2:-1.16 
1 1:1.89 2:1.1 
1 1:-1.81 2:-0.643 
1 1:-0.747 2:0.468 
1 1:1.19 2:-0.966 
1 1:0.748 2:1.81 
1 1:0.74 2:1.35 
1 1:0.371 2:-0.589 
1 1:-0.752 2:-0.319 
1 1:2.51 2:1.3 
1 1:-1.55 2:-0.663 
1 1:0.0188 2:0.0512 
1 1:-0.71 2:0.465 
1 1:-1.43 2:-1.18 
1 1:-1.39 2:-0.282 
1 1:0.0256 2:0.228 
1 1:-1.01 2:-0.211 
1 1:-1.02 2:0.899 
1 1:-0.707 2:-0.378 
1 1:2.21 2:1.21 
1 1:0.25 2:0.466 
1 1:2.34 2:1.13 
1 1:0.614 2:-0.157 
1 1:-1.64 2:-1.27 
1 1:0.779 2:-0.815 
1 1:-0.707 2:-0.568 
1 1:-1.01 2:0.412 
1 1:1.61 2:1.4 
1 1:-1.26 2:-0.503 
1 1:-0.845 2:-0.377 
1 1:1.31 2:-0.566 
1 1:1.15 2:-1.56 
1 1:-0.0017 2:0.282 
1 1:-0.617 2:-0.458 
1 1:-0.221 2:0.12 
1 1:0.876 2:-0.969 
1 1:-0.0237 2:0.303 
1 1:0.0052 2:0.24 
1 1:-0.806 2:0.575 
1 1:0.423 2:-0.334 
1 1:1.08 2:1.36 
1 1:0.908 2:1.48 
1 1:0.355 2:0.562 
1 1:0.149 2:-0.295 
1 1:-1.94 2:-0.273 
1 1:0.222 2:0.214 
1 1:-1.44 2:-0.43 
1 1:0.265 2:-0.375 
1 1:-0.295 2:0.565 
1 1:-1.55 2:-1.02 
1 1:-1.18 2:0.422 
1 1:1.26 2:-0.328 
1 1:1.48 2:-1.05 
1 1:0.0828 2:-0.879 
1 1:-2.01 2:-1.85 
1 1:-1.44 2:-0.225 
1 1:0.287 2:1.45 
1 1:-0.278 2:-0.815 
1 1:1.46 2:-0.509 
1 1:-0.836 2:-0.507 
1 1:-0.742 2:0.36 
1 1:1.35 2:1.21 
1 1:-1.07 2:-0.616 
1 1:1.04 2:-1.13 
1 1:-0.528 2:0.953 
1 1:-1.78 2:-1.58 
1 1:-0.455 2:0.494 
1 1:1.44 2:1.38 
1 1:-1.39 2:-1.09 
1 1:-0.413 2:0.0554 
1 1:0.271 2:0.38 
1 1:1.29 2:-1.04 
1 1:-0.0601 2:2.04 
1 1:1.42 2:-0.697 
1 1:-1.55 2:-1.6 
1 1:-1.34 2:0.146 
1 1:-0.269 2:0.961 
1 1:0.433 2:1.65 
1 1:-1.03 2:-0.858 
1 1:-1.92 2:-1.06 
1 1:-0.541 2:-0.65 
1 1:1.38 2:-1.36 
1 1:-0.247 2:0.775 
1 1:-0.19 2:0.168 
1 1:0.714 2:-1.19 
1 1:-1.97 2:-1.72 
1 1:-0.491 2:-0.429 
1 1:-0.158 2:0.358 
1 1:1.26 2:-2.39 
1 1:1.44 2:-1.73 
1 1:0.109 2:1.65 
1 1:-0.347 2:-0.556 
1 1:1.47 2:1.39 
1 1:0.646 2:1.82 
1 1:-0.468 2:-0.206 
1 1:-0.162 2:-0.334 
1 1:0.724 2:-0.574 
1 1:-1.03 2:0.153 
1 1:0.0586 2:-0.133 
1 1:1.05 2:-0.362 
1 1:-1.34 2:-0.462 
1 1:-0.213 2:0.77 
1 1:1.03 2:1.55 
1 1:0.155 2:0.0373 
1 1:0.153 2:-0.875 
1 1:-0.353 2:1.98 
1 1:0.876 2:-0.807 
1 1:-0.685 2:0.459 
1 1:-1.84 2:-1.23 
1 1:-0.102 2:-0.306 
1 1:-0.479 2:0.0719 
1 1:0.115 2:-0.443 
1 1:1.09 2:-1.24 
1 1:-1.57 2:-0.401 
1 1:-0.274 2:0.489 
1 1:0.764 2:1.98 
1 1:2.41 2:0.946 
1 1:-0.348 2:0.119 
1 1:1.08 2:-1.83 
1 1:2.12 2:1.07 
1 1:-1.18 2:-0.522 
1 1:0.32 2:0.282 
1 1:0.72 2:-0.154 
1 1:0.92 2:-0.717 
1 1:0.511 2:-0.773 
1 1:-0.681 2:-0.586 
1 1:1.13 2:-0.541 
1 1:-0.439 2:-0.884 
1 1:0.139 2:-0.803 
1 1:1.09 2:-1.1 
1 1:0.269 2:0.605 
1 1:0.305 2:1.63 
1 1:0.557 2:-0.255 
1 1:2.53 2:1.5 
1 1:1.33 2:1.7 
1 1:0.387 2:-0.000653 
1 1:-0.639 2:0.522 
1 1:-1.78 2:-0.491 
1 1:0.391 2:-0.0901 
1 1:-1.27 2:0.184 
1 1:-1.08 2:-0.612 
1 1:-0.717 2:0.455 
1 1:-1.11 2:0.00172 
1 1:-1.51 2:-0.966 
1 1:0.605 2:1.86 
1 1:-0.818 2:0.654 
1 1:0.941 2:-0.254 
1 1:1.59 2:1.72 
1 1:-1.51 2:-1.16 
1 1:0.413 2:0.473 
1 1:-0.559 2:0.0594 
1 1:-0.0342 2:0.145 
1 1:0.743 2:-1.01 
1 1:1.01 2:1.82 
1 1:0.768 2:-1.25 
1 1:0.424 2:0.547 
1 1:-0.201 2:0.287 
1 1:0.44 2:0.246 
1 1:-0.554 2:-0.38 
1 1:-1.53 2:-1.17 
1 1:-1.5 2:-1.14 
1 1:0.528 2:-1.04 
1 1:-0.987 2:-0.735 
1 1:0.885 2:-0.372 
1 1:-0.0574 2:-0.208 
1 1:0.952 2:-1.9 
1 1:-0.21 2:0.11 
1 1:-1.71 2:-0.653 
1 1:0.587 2:-0.311 
1 1:-0.55 2:0.236 
1 1:1.4 2:-0.874 
1 1:-0.0468 2:-0.332 
1 1:-0.507 2:0.69 
1 1:1.41 2:-1.38 
1 1:-0.141 2:-0.119 
1 1:1.38 2:-1.02 
1 1:1.18 2:-1.19 
1 1:0.913 2:-1.6 
1 1:-1.1 2:0.145 
1 1:1.37 2:1.29 
1 1:0.816 2:-0.133 
1 1:-0.813 2:-0.665 
1 1:0.742 2:1.56 
1 1:-1.31 2:0.118 
1 1:0.0336 2:0.323 
1 1:0.856 2:-1.11 
1 1:0.532 2:-0.0431 
1 1:-0.171 2:1.68 
1 1:-0.305 2:0.247 
1 1:-0.422 2:-0.241 
1 1:-1.07 2:-0.017 
1 1:-1.31 2:-0.32 
1 1:-1.33 2:-0.581 
1 1:-1.76 2:-1.58 
1 1:0.395 2:1.35 
1 1:-1.39 2:-0.156 
1 1:-1.82 2:-0.847 
1 1:-1.11 2:0.276 
1 1:1.29 2:-1.19 
1 1:0.387 2:1.59 
1 1:0.247 2:0.41 
1 1:0.249 2:-0.451 
1 1:0.923 2:0.166 
1 1:-0.237 2:-0.0378 
1 1:0.714 2:-1.08 
1 1:-0.215 2:0.549 
1 1:0.306 2:-0.161 
1 1:1.51 2:1.52 
1 1:-0.761 2:0.373 
1 1:-0.383 2:0.671 
1 1:-1.11 2:-0.44 
1 1:0.496 2:-0.614 
1 1:-0.0529 2:-0.0168 
1 1:2.09 2:1.1 
1 1:-1.28 2:-1.17 
1 1:0.402 2:-0.39 
1 1:0.122 2:0.599 
1 1:1.42 2:1.49 
1 1:0.854 2:0.0949 
1 1:-0.268 2:0.75 
1 1:-0.57 2:0.502 
1 1:0.236 2:0.443 
1 1:0.898 2:-0.719 
1 1:1.14 2:-0.938 
1 1:0.671 2:0.181 
1 1:-0.175 2:0.0644 
1 1:0.796 2:0.423 
1 1:-0.824 2:-0.471 
1 1:-0.93 2:-0.502 
1 1:2.45 2:1.25 
1 1:-0.737 2:-0.0677 
1 1:0.281 2:0.343 
1 1:-1.13 2:-0.0974 
1 1:-0.211 2:-0.334 
1 1:-1.27 2:-0.673 
1 1:0.833 2:-0.0565 
1 1:0.478 2:1.31 
1 1:-1.14 2:-0.245 
1 1:0.667 2:-1.01 
1 1:2.17 2:0.926 
1 1:-0.129 2:0.877 
1 1:-0.581 2:0.582 
1 1:0.427 2:1.77 
1 1:-0.138 2:0.425 
1 1:-0.337 2:0.559 
1 1:0.325 2:-0.153 
1 1:-0.232 2:-0.364 
1 1:1.33 2:-0.774 
1 1:-1.81 2:-0.543 
1 1:-1.52 2:-1.4 
1 1:-1.45 2:-0.701 
1 1:0.616 2:1.77 
1 1:-0.0222 2:-0.202 
1 1:-0.763 2:-0.573 
1 1:-0.581 2:-0.182 
1 1:-0.179 2:0.19 
1 1:0.945 2:0.239 
1 1:0.576 2:-0.342 
1 1:0.0381 2:0.167 
1 1:-0.219 2:-0.195 
1 1:-1.41 2:-0.856 
1 1:-0.298 2:-0.243 
1 1:1.31 2:-0.36 
1 1:1.78 2:1.19 
1 1:-1.33 2:-0.647 
1 1:-1.6 2:-0.541 
1 1:1.01 2:1.57 
1 1:0.576 2:-0.665 
1 1:0.729 2:1.49 
1 1:0.661 2:0.0147 
1 1:-1.05 2:-0.382 
1 1:-0.235 2:0.352 
1 1:1.71 2:1.39 
1 1:0.905 2:-0.551 
1 1:-1.21 2:0.357 
1 1:0.622 2:-0.546 
1 1:-1.51 2:-1.39 
1 1:-1.13 2:0.164 
1 1:2.33 2:1.21 
1 1:0.855 2:-0.265 
1 1:-1.67 2:-0.212 
1 1:-0.394 2:-0.338 
1 1:1.11 2:1.33 
1 1:-1.24 2:0.323 
1 1:-1.23 2:-0.806 
1 1:1.31 2:-1.72 
1 1:-1.15 2:-0.647 
1 1:1.21 2:-1.77 
1 1:1.57 2:1.16 
1 1:-0.241 2:0.897 
1 1:0.978 2:-1.33 
1 1:-1.67 2:-0.00451 
1 1:-1.87 2:-0.78 
1 1:1.04 2:-0.24 
1 1:-1.21 2:-0.785 
1 1:1.34 2:-1.8 
1 1:0.175 2:0.652 
1 1:-0.0814 2:2.18 
1 1:1.27 2:1.6 
1 1:-0.759 2:0.366 
1 1:1.23 2:-0.785 
1 1:-1.36 2:-0.258 
1 1:1.05 2:-0.467 
1 1:-1.21 2:-0.733 
1 1:-0.597 2:0.232 
1 1:0.575 2:-0.19 
1 1:-1.34 2:-0.31 
1 1:-0.129 2:-0.061 
1 1:0.377 2:-0.643 
1 1:-1.25 2:-0.689 
1 1:2.34 2:1.18 
1 1:0.957 2:-0.786 
1 1:-1.08 2:0.356 
1 1:1.17 2:-1.4 
1 1:-0.961 2:-0.102 
1 1:-0.968 2:-0.226 
1 1:-0.322 2:0.535 
1 1:-1.26 2:-0.515 
1 1:0.62 2:-0.986 
1 1:1.21 2:1.31 
1 1:1.45 2:1.33 
1 1:0.137 2:-0.247 
1 1:-0.0999 2:1.97 
1 1:-0.369 2:0.692 
1 1:0.458 2:-0.709 
1 1:-1.33 2:-0.392 
1 1:0.227 2:1.71 
1 1:-0.715 2:0.0859 
1 1:0.364 2:1.98 
1 1:0.269 2:1.62 
1 1:0.11 2:0.553 
1 1:0.171 2:1.59 
1 1:0.409 2:-0.0572 
1 1:0.0413 2:0.345 
1 1:-0.543 2:-0.0204 
1 1:0.0734 2:-0.162 
1 1:-0.779 2:0.676 
1 1:1.53 2:-1.05 
1 1:0.145 2:-0.626 
1 1:0.534 2:1.86 
1 1:2.03 2:1.1 
1 1:-0.546 2:0.442 
1 1:1.42 2:1.8 
1 1:1.41 2:-2.09 
1 1:-0.566 2:-0.563 
1 1:-0.973 2:0.495 
1 1:0.932 2:1.43 
1 1:0.74 2:0.053 
1 1:0.37 2:-0.0513 
1 1:-0.563 2:-0.164 
1 1:1.27 2:-0.675 
1 1:-1.32 2:-0.146 
1 1:0.561 2:1.74 
1 1:0.473 2:0.339 
1 1:-1.72 2:-0.41 
1 1:0.18 2:-0.0627 
1 1:0.211 2:1.71 
1 1:-0.755 2:-0.759 
1 1:0.544 2:-0.842 
1 1:1.67 2:0.974 
1 1:-1.61 2:-0.39 
1 1:1.8 2:1.53 
1 1:0.405 2:-0.555 
1 1:-1.64 2:-0.562 
1 1:-0.146 2:1.83 
1 1:1.19 2:-0.319 
1 1:1.73 2:1.26 
1 1:0.316 2:1.43 
1 1:2.43 2:0.869 
1 1:-1.17 2:0.126 
1 1:-0.125 2:0.521 
1 1:0.646 2:-0.932 
1 1:-2.09 2:-1.22 
1 1:-1.64 2:-0.962 
1 1:1.62 2:-1.16 
1 1:-1.11 2:-0.653 
1 1:0.576 2:-1.05 
1 1:0.635 2:1.67 
1 1:0.336 2:0.611 
1 1:-1.58 2:-1.61 
1 1:-0.249 2:0.505 
1 1:0.335 2:-0.483 
1 1:0.133 2:-0.568 
1 1:1.08 2:-1.02 
1 1:2.08 2:1.35 
1 1:1.03 2:-0.382 
1 1:-0.705 2:0.129 
1 1:1.35 2:1.1 
1 1:-1.37 2:-0.123 
1 1:-1.9 2:-1.32 
1 1:0.982 2:-0.452 
1 1:-0.507 2:0.357 
1 1:0.0853 2:0.789 
1 1:-1.51 2:-0.276 
1 1:1.19 2:-1.25 
1 1:-1.49 2:0.228 
1 1:-0.606 2:-0.129 
1 1:0.108 2:-0.304 
1 1:0.418 2:-0.897 
1 1:-0.119 2:2.06 
1 1:1.31 2:1.62 
1 1:-0.107 2:-0.232 
1 1:-0.212 2:-0.155 
1 1:-0.0683 2:-0.404 
1 1:0.533 2:0.541 
1 1:0.98 2:-0.832 
1 1:-0.135 2:0.0707 
1 1:0.416 2:0.1 
1 1:-1.3 2:-0.829 
1 1:-0.0299 2:0.617 
1 1:-1.78 2:-0.843 
1 1:0.0984 2:0.629 
1 1:-1.68 2:-0.528 
1 1:0.423 2:0.598 
1 1:0.00295 2:-0.125 
1 1:-1.33 2:-0.276 
1 1:0.595 2:0.546 
1 1:-0.219 2:0.524 
1 1:-0.907 2:0.416 
1 1:-1.39 2:-0.322 
1 1:-0.166 2:0.165 
1 1:-1.02 2:-0.146 
1 1:-0.439 2:0.331 
1 1:0.136 2:1.46 
1 1:-0.669 2:0.51 
1 1:-1.49 2:-0.0266 
1 1:0.812 2:-0.15 
1 1:-2.04 2:-0.978 
1 1:-1.06 2:-0.86 
1 1:0.0914 2:0.493 
1 1:-1.17 2:0.222 
1 1:0.553 2:-0.159 
1 1:0.759 2:0.0328 
1 1:0.974 2:-0.951 
1 1:-1.02 2:-0.305 
1 1:-0.635 2:1.94 
1 1:2.22 2:1.31 
1 1:-1.18 2:-0.122 
1 1:0.219 2:1.59 
1 1:1.15 2:1.68 
1 1:0.955 2:-0.23 
1 1:-0.103 2:0.0369 
1 1:-1.43 2:-0.357 
1 1:-1.09 2:0.289 
1 1:-0.436 2:0.821 
1 1:0.6 2:-0.38 
1 1:-0.124 2:0.181 
1 1:-1.71 2:-1.27 
1 1:-1.46 2:-0.179 
1 1:1.34 2:1.37 
1 1:1.95 2:1.09 
1 1:-0.839 2:0.111 
1 1:-1.63 2:-0.363 
1 1:-1.56 2:-1.05 
1 1:0.929 2:-0.902 
1 1:-1.66 2:-1.52 
1 1:-1.85 2:-0.347 
1 1:-1.02 2:-0.0308 
1 1:0.569 2:-0.538 
1 1:0.154 2:0.629 
1 1:-1.5 2:-0.829 
1 1:0.271 2:0.0595 
1 1:0.82 2:-0.514 
1 1:-1.38 2:-1.11 
1 1:-1.01 2:-0.155 
1 1:0.683 2:1.6 
1 1:-1.62 2:-0.896 
1 1:-1.42 2:-1.28 
1 1:-1.8 2:-1.26 
1 1:-1.76 2:-0.632 
1 1:1.16 2:-1.3 
1 1:0.00921 2:-0.00839 
1 1:-0.821 2:-0.855 
1 1:-0.912 2:-0.484 
1 1:1.15 2:-1.69 
1 1:0.589 2:0.557 
1 1:-1.85 2:-0.35 
1 1:-1.49 2:-0.498 
1 1:-1.9 2:-1.46 
1 1:0.307 2:0.12 
1 1:0.173 2:-0.428 
1 1:-0.818 2:-0.69 
1 1:-0.768 2:-0.0166 
1 1:0.995 2:0.131 
1 1:1.32 2:-0.616 
1 1:0.993 2:0.397 
1 1:0.811 2:0.00911 
1 1:0.304 2:-0.00393 
1 1:-0.78 2:-0.43 
1 1:0.247 2:-0.233 
1 1:-0.561 2:0.473 
1 1:-1.99 2:-0.912 
1 1:0.899 2:1.4 
1 1:0.417 2:0.348 
1 1:-0.461 2:0.343 
1 1:-1.02 2:-0.469 
1 1:-1.67 2:-0.875 
1 1:-1.17 2:-0.95 
1 1:0.418 2:-0.711 
1 1:0.295 2:-0.273 
1 1:-1.37 2:-0.904 
1 1:-0.994 2:0.192 
1 1:-1.07 2:-0.622 
1 1:1.95 2:1.53 
1 1:0.281 2:-0.4 
1 1:0.586 2:-0.273 
1 1:-0.0272 2:1.86 
1 1:-1.65 2:-0.0692 
1 1:-1.53 2:0.132 
1 1:-1.51 2:-0.248 
1 1:-0.211 2:-0.492 
1 1:-1.28 2:-1.07 
1 1:1.2 2:-0.68 
1 1:0.942 2:1.89 
1 1:-0.82 2:-0.76 
1 1:0.72 2:-0.316 
1 1:-0.201 2:0.596 
1 1:-1.07 2:0.0456 
1 1:-2.06 2:-1.23 
1 1:0.785 2:0.158 
1 1:0.867 2:-1.19 
1 1:1 2:0.285 
1 1:0.873 2:-1.03 
1 1:1.25 2:-1.62 
1 1:-0.149 2:0.816 
1 1:-1.93 2:-0.0856 
1 1:-1.16 2:-0.285 
1 1:1.1 2:-0.374 
1 1:0.19 2:0.969 
1 1:-1.79 2:-1.46 
1 1:0.893 2:-0.327 
1 1:1.01 2:-1.12 
1 1:-1.58 2:-0.352 
1 1:1.52 2:-1.12 
1 1:-0.991 2:0.114 
1 1:-1.38 2:-1.08 
1 1:0.0919 2:-0.154 
1 1:-1.89 2:-0.418 
1 1:2.22 2:1.18 
1 1:0.641 2:1.72 
1 1:-0.539 2:0.648 
1 1:0.883 2:-1 
1 1:2.32 2:1.3 
1 1:-1.25 2:-1.14 
1 1:2.69 2:1.12 
1 1:1.39 2:1.52 
1 1:-0.121 2:-0.498 
1 1:-0.193 2:-0.288 
1 1:-0.957 2:0.848 
1 1:-0.484 2:0.615 
1 1:-0.795 2:0.276 
1 1:-0.000689 2:2 
1 1:1.42 2:-1.1 
1 1:-0.379 2:0.638 
1 1:0.878 2:-0.856 
1 1:0.13 2:-0.469 
1 1:0.224 2:1.57 
1 1:2.13 2:1.16 
1 1:0.799 2:-0.834 
1 1:2.46 2:1.21 
1 1:-1.17 2:-0.556 
1 1:1.08 2:-1.76 
1 1:2.03 2:0.984 
1 1:-0.522 2:0.206 
1 1:1.46 2:-1.61 
1 1:-1.53 2:0.0251 
1 1:1.63 2:-2.16 
1 1:0.159 2:0.586 
1 1:0.262 2:-0.538 
1 1:-1.83 2:-0.964 
1 1:-1.65 2:-0.731 
1 1:0.737 2:-0.183 
1 1:0.953 2:1.14 
1 1:1.47 2:-1.29 
1 1:-0.89 2:-1.18 
1 1:-0.451 2:0.723 
1 1:-0.515 2:0.625 
1 1:-1.55 2:-0.132 
1 1:-0.325 2:0.388 
1 1:-0.595 2:0.625 
1 1:-1.03 2:-0.95 
1 1:0.452 2:1.95 
1 1:-0.872 2:-0.461 
1 1:0.425 2:0.0454 
1 1:0.524 2:0.283 
1 1:0.347 2:-0.242 
1 1:-0.106 2:0.552 
1 1:-1.28 2:-0.00494 
1 1:-0.172 2:-0.676 
1 1:0.455 2:-0.869 
1 1:-1.85 2:-0.467 
1 1:0.632 2:1.45 
1 1:0.552 2:-0.199 
1 1:-0.688 2:0.709 
1 1:-0.0708 2:0.439 
1 1:-0.135 2:0.136 
1 1:-0.288 2:0.385 
1 1:-0.974 2:-0.818 
1 1:-1.51 2:-0.193 
1 1:0.565 2:1.56 
1 1:-1.13 2:-0.622 
1 1:1.09 2:-0.538 
1 1:1.36 2:-1.06 
1 1:0.614 2:-0.705 
1 1:0.823 2:-0.248 
1 1:0.894 2:-0.992 
1 1:-1.03 2:0.277 
1 1:0.889 2:-0.566 
1 1:1.2 2:-0.944 
1 1:1.46 2:1.69 
1 1:0.587 2:0.322 
1 1:1.11 2:-0.476 
1 1:-1.29 2:-1.03 
1 1:0.74 2:0.203 
1 1:-1.05 2:-0.4 
1 1:0.501 2:0.0251 
1 1:0.133 2:2.04 
1 1:0.764 2:0.381 
1 1:1.02 2:-0.549 
1 1:-0.167 2:-0.633 
1 1:0.995 2:-1.63 
1 1:0.115 2:1.41 
1 1:0.00914 2:0.431 
1 1:-0.95 2:0.144 
1 1:0.297 2:-1.11 
1 1:-0.683 2:0.419 
1 1:0.182 2:-0.0823 
1 1:1.32 2:-1.23 
1 1:0.977 2:-1.01 
1 1:-1.81 2:0.0758 
1 1:-0.0677 2:-0.394 
1 1:0.175 2:-0.345 
1 1:-1.07 2:-0.456 
1 1:0.534 2:-0.763 
1 1:0.875 2:1.82 
1 1:0.28 2:0.429 
1 1:1.19 2:-1.33 
1 1:1.3 2:-1.28 
1 1:1.46 2:-1.32 
1 1:0.475 2:-0.381 
1 1:-1.33 2:-0.0457 
1 1:0.49 2:-0.0477 
1 1:2.2 2:0.935 
1 1:-0.409 2:0.349 
1 1:1.07 2:-1.38 
1 1:0.209 2:-0.455 
1 1:0.521 2:0.375 
1 1:0.575 2:1.42 
1 1:-1.23 2:-1.15 
1 1:-0.629 2:0.809 
1 1:1.15 2:-1.01 
1 1:0.238 2:-0.551 
1 1:-1.02 2:0.409 
1 1:1.14 2:-1.57 
1 1:-1.82 2:-0.665 
1 1:-1.2 2:0.4 
1 1:1.1 2:-0.364 
1 1:-0.113 2:0.626 
1 1:-0.48 2:0.0507 
1 1:1.28 2:-0.341 
1 1:0.399 2:-0.594 
1 1:1.01 2:-0.205 
1 1:-1.53 2:-1.72 
1 1:0.0745 2:-0.607 
1 1:2.75 2:1.47 
1 1:-1.19 2:-1 
1 1:0.844 2:-0.402 
1 1:0.224 2:1.75 
1 1:1.31 2:-1.08 
1 1:-0.275 2:1.52 
1 1:-1.63 2:0.279 
1 1:1.13 2:1.51 
1 1:-1.26 2:-0.457 
1 1:0.377 2:1.72 
1 1:-0.528 2:0.296 
1 1:-2 2:-2.1 
1 1:0.83 2:1.67 
1 1:0.927 2:-1.12 
1 1:-1.81 2:-1.21 
1 1:-0.0982 2:0.395 
1 1:0.47 2:-0.765 
1 1:0.621 2:1.48 
1 1:-1.4 2:-0.386 
1 1:-2.14 2:-1.59 
1 1:0.947 2:-0.888 
1 1:1.52 2:-0.85 
1 1:-1.82 2:-0.899 
1 1:-1.42 2:-0.617 
1 1:-0.927 2:-0.406 
1 1:-1.06 2:0.181 
1 1:2.55 2:1.4 
1 1:-0.248 2:0.514 
1 1:1.91 2:1.37 
1 1:-1.35 2:-0.688 
1 1:0.409 2:0.212 
1 1:-1.51 2:0.213 
1 1:0.923 2:1.54 
1 1:-0.687 2:-0.458 
1 1:1.01 2:-0.935 
1 1:0.921 2:1.12 
1 1:-1.65 2:-2.05 
1 1:-1.57 2:-0.772 
1 1:2.32 2:1.32 
1 1:-0.64 2:-0.238 
1 1:0.592 2:0.235 
1 1:-1.64 2:-1.91 
1 1:-1.74 2:-0.521 
1 1:-2.1 2:-1.06 
1 1:-0.856 2:-0.664 
1 1:0.0844 2:1.72 
1 1:-0.792 2:-0.132 
1 1:-1.39 2:-1.35 
1 1:1.03 2:-1.12 
1 1:-1.3 2:-0.811 
1 1:-1.38 2:0.0973 
1 1:0.388 2:-0.0851 
1 1:-1.38 2:-0.149 
1 1:0.0971 2:1.58 
1 1:0.606 2:1.77 
1 1:0.689 2:-0.506 
1 1:0.318 2:1.82 
1 1:1.89 2:1.34 
1 1:1.85 2:1.61 
1 1:1.15 2:1.49 
1 1:0.261 2:0.214 
1 1:-0.108 2:-0.793 
1 1:-0.0615 2:0.299 
1 1:0.905 2:-0.994 
1 1:0.318 2:0.621 
1 1:1.18 2:1.36 
1 1:-1.04 2:-0.0359 
1 1:-0.492 2:0.124 
1 1:1.23 2:-1.4 
1 1:-1.82 2:-1.78 
1 1:-0.0723 2:-0.428 
1 1:0.974 2:-1.47 
1 1:0.896 2:0.363 
1 1:2.59 2:1.16 
1 1:-1.12 2:-0.297 
1 1:-0.621 2:0.425 
1 1:-0.537 2:-0.223 
1 1:-0.0434 2:-0.442 
1 1:-0.219 2:0.128 
1 1:1.05 2:-1.05 
1 1:0.208 2:-0.427 
1 1:-1.51 2:-0.196 
1 1:-1.15 2:-0.508 
1 1:0.757 2:-0.208 
1 1:1.01 2:1.21 
1 1:-0.232 2:0.626 
1 1:-1.74 2:-1.83 
1 1:0.0968 2:0.589 
1 1:0.15 2:0.442 
1 1:0.832 2:-1.29 
1 1:-1.19 2:-1.14 
1 1:0.289 2:0.598 
1 1:-0.679 2:0.536 
1 1:-1.78 2:-1.07 
1 1:0.277 2:-0.324 
1 1:0.613 2:-0.211 
1 1:-0.744 2:-0.415 
1 1:0.203 2:0.617 
1 1:1.49 2:1.59 
1 1:-0.658 2:0.554 
1 1:-1.29 2:-1.14 
1 1:-1.61 2:-0.364 
1 1:-1.45 2:-0.0697 
1 1:-1.5 2:-0.39 
1 1:-0.921 2:0.894 
1 1:0.31 2:0.57 
1 1:-0.243 2:1.76 
1 1:0.812 2:-0.751 
1 1:-0.838 2:0.644 
1 1:1.18 2:-0.917 
1 1:-0.599 2:-0.521 
1 1:1.26 2:-1.57 
1 1:-1.37 2:0.15 
1 1:-0.431 2:-0.346 
1 1:0.883 2:0.106 
1 1:-0.206 2:-0.0207 
1 1:-0.384 2:-0.397 
1 1:-1.05 2:-0.832 
1 1:-0.326 2:0.168 
1 1:1.13 2:1.38 
1 1:0.331 2:0.185 
1 1:1.67 2:-1.77 
1 1:0.166 2:-0.33 
1 1:0.847 2:-0.61 
1 1:0.956 2:0.558 
1 1:-2.11 2:-1.51 
1 1:-1.44 2:-0.775 
1 1:0.841 2:-0.0776 
1 1:-1.64 2:-0.121 
1 1:-1.55 2:-0.744 
1 1:0.811 2:-1.65 
1 1:-1.53 2:-0.665 
1 1:-1.39 2:-0.118 
1 1:-1.8 2:-1.62 
1 1:0.569 2:0.481 
1 1:0.923 2:-1.02 
1 1:0.637 2:1.55 
1 1:-1.78 2:-0.582 
1 1:-2.04 2:-0.584 
1 1:0.747 2:-1.05 
1 1:1.32 2:-0.311 
1 1:2.03 2:1.32 
1 1:-0.851 2:0.405 
1 1:0.981 2:0.26 
1 1:-1.25 2:-0.576 
1 1:-0.849 2:-0.187 
1 1:0.472 2:0.0979 
1 1:-0.651 2:-0.159 
1 1:-0.473 2:0.085 
1 1:0.251 2:0.171 
1 1:1.03 2:0.252 
1 1:-2.13 2:-0.347 
1 1:-0.847 2:-0.213 
1 1:-0.11 2:-0.372 
1 1:-0.425 2:0.996 
1 1:1.22 2:-0.607 
1 1:0.101 2:1.93 
1 1:-0.316 2:0.177 
1 1:-0.896 2:0.207 
1 1:0.915 2:-1.27 
1 1:2.44 2:1.37 
1 1:0.4 2:1.68 
1 1:1.25 2:1.2 
1 1:-1.39 2:-0.474 
1 1:-1.07 2:0.256 
1 1:0.84 2:-0.176 
1 1:-1.5 2:-1.22 
1 1:1.22 2:-1.58 
1 1:2.25 2:1.21 
1 1:0.75 2:1.92 
1 1:-0.472 2:-0.0198 
1 1:0.833 2:-0.593 
1 1:0.423 2:1.74 
1 1:0.325 2:-0.0325 
1 1:-1.43 2:-0.546 
1 1:-1.48 2:-1.23 
1 1:-1.19 2:-0.638 
1 1:-1.07 2:0.00513 
1 1:-0.264 2:0.0571 
1 1:0.408 2:0.0179 
1 1:-0.952 2:0.000432 
1 1:0.667 2:1.92 
1 1:-0.945 2:-0.639 
1 1:-0.387 2:0.104 
1 1:-0.633 2:-0.698 
1 1:-0.692 2:0.759 
1 1:-0.935 2:0.321 
1 1:0.465 2:0.283 
1 1:-0.987 2:-0.814 
1 1:-0.427 2:-0.485 
1 1:-0.502 2:1.84 
1 1:1.32 2:-0.331 
1 1:0.454 2:1.48 
1 1:0.321 2:0.299 
1 1:-1.92 2:-1.5 
1 1:-1.23 2:-0.703 
1 1:2.34 2:1.16 
1 1:-0.0753 2:0.267 
1 1:-0.179 2:-0.0492 
1 1:1.8 2:1.32 
1 1:-0.142 2:0.231 
1 1:-0.924 2:-0.102 
1 1:0.151 2:0.322 
1 1:-0.616 2:0.413 
1 1:0.347 2:0.414 
1 1:0.325 2:0.213 
1 1:0.926 2:-1.17 
1 1:0.0109 2:-0.378 
1 1:1.05 2:-0.96 
1 1:0.105 2:-0.208 
1 1:0.558 2:-1.06 
1 1:1.96 2:1.31 
1 1:-0.0253 2:0.0742 
1 1:0.552 2:-0.244 
1 1:0.95 2:-0.0297 
1 1:-0.298 2:0.158 
1 1:1.27 2:-0.573 
1 1:-0.292 2:-0.224 
1 1:-0.174 2:-0.478 
1 1:-0.364 2:1.7 
1 1:-1.4 2:-0.107 
1 1:0.171 2:2.11 
1 1:-0.99 2:0.231 
1 1:1.2 2:-0.778 
1 1:2.34 2:1.64 
1 1:-1.45 2:-0.167 
1 1:-1.83 2:-0.746 
1 1:-0.971 2:-0.906 
1 1:0.482 2:-0.653 
1 1:-0.14 2:-0.694 
1 1:0.358 2:-0.887 
1 1:1.8 2:1.36 
1 1:1.14 2:-0.286 
1 1:-0.153 2:1.97 
1 1:2.47 2:1.12 
1 1:0.097 2:-0.593 
1 1:-1.8 2:-1.71 
1 1:0.185 2:0.261 
1 1:1.97 2:1.41 
1 1:-0.889 2:-0.417 
1 1:-0.59 2:-0.328 
1 1:2.43 2:1.31 
1 1:-0.877 2:0.263 
1 1:-0.899 2:0.0621 
1 1:-0.973 2:-0.126 
1 1:-0.914 2:-0.522 
1 1:1.64 2:1.53 
1 1:0.16 2:0.189 
1 1:-1.71 2:-0.319 
1 1:0.383 2:-0.824 
1 1:-1.64 2:-1.05 
1 1:-0.739 2:-0.066 
1 1:1.22 2:-1.46 
1 1:1.48 2:1.01 
1 1:-0.876 2:0.232 
1 1:0.316 2:-0.601 
1 1:-1.87 2:-1 
1 1:0.403 2:0.0297 
1 1:-1.31 2:-1.11 
1 1:1.31 2:-1.81 
1 1:0.617 2:-0.585 
1 1:-0.345 2:0.376 
1 1:1.37 2:-0.8 
1 1:-0.197 2:0.544 
1 1:0.913 2:-0.374 
1 1:0.834 2:-0.177 
1 1:-0.874 2:0.719 
1 1:1.09 2:-0.384 
1 1:-0.972 2:-1.08 
1 1:1.75 2:1.33 
1 1:-1.45 2:-0.0461 
1 1:0.928 2:-0.102 
1 1:0.824 2:-0.673 
1 1:-0.0275 2:-0.582 
1 1:1.19 2:-1.67 
1 1:-0.0839 2:1 
1 1:2.42 2:1.5 
1 1:-0.341 2:0.0621 
1 1:-1.78 2:-0.572 
1 1:0.2 2:-0.609 
1 1:-1.51 2:0.348 
1 1:0.418 2:0.616 
1 1:0.83 2:-0.939 
1 1:-1.37 2:-0.213 
1 1:-0.453 2:-0.0737 
1 1:-0.0215 2:0.704 
1 1:-0.00124 2:-0.938 
1 1:-0.145 2:0.471 
1 1:-0.637 2:0.942 
1 1:-0.0254 2:-0.79 
1 1:1.09 2:-0.643 
1 1:0.366 2:0.164 
1 1:-0.132 2:1.68 
1 1:-1.6 2:-0.0414 
1 1:1.23 2:-2.2 
1 1:1.93 2:1.41 
1 1:1.87 2:1.13 
1 1:0.785 2:-0.601 
1 1:0.886 2:-0.292 
1 1:1.12 2:-1.72 
1 1:0.456 2:0.278 
1 1:-1.17 2:0.564 
1 1:0.264 2:-0.605 
1 1:-0.222 2:0.156 
1 1:0.000725 2:-0.0366 
1 1:1.1 2:1.38 
1 1:1.32 2:-1.48 
1 1:-0.845 2:-0.00258 
1 1:0.635 2:0.559 
1 1:-0.964 2:0.108 
1 1:-0.186 2:-0.0925 
1 1:0.0585 2:-0.378 
1 1:-0.0876 2:0.255 
1 1:1.47 2:-2.05 
1 1:0.113 2:0.462 
1 1:-1.32 2:0.516 
1 1:-1.07 2:-0.306 
1 1:-1.7 2:-1.16 
1 1:0.598 2:0.133 
1 1:-0.973 2:0.107 
1 1:-1.48 2:-0.297 
1 1:-1.31 2:-0.627 
1 1:-1.02 2:0.521 
1 1:-0.0666 2:0.0656 
1 1:-1.3 2:-1.08 
1 1:0.388 2:0.484 
1 1:1.06 2:-0.453 
1 1:0.903 2:-0.339 
1 1:-0.815 2:0.334 
1 1:1.35 2:-0.387 
1 1:-1.96 2:-0.942 
1 1:-1.67 2:-0.266 
1 1:-0.856 2:-0.235 
1 1:1.24 2:1.45 
1 1:0.177 2:0.731 
1 1:-0.394 2:-0.253 
1 1:0.319 2:1.61 
1 1:-0.44 2:0.298 
1 1:-0.651 2:-0.103 
1 1:0.0605 2:2.06 
1 1:2.62 2:1.12 
1 1:-0.499 2:-0.241 
1 1:-1.46 2:-0.108 
1 1:0.0165 2:-0.639 
1 1:-1.23 2:-1.3 
1 1:1.77 2:1.59 
1 1:-1.79 2:-0.0728 
1 1:-2.07 2:-0.521 
1 1:-1.44 2:0.0919 
1 1:-0.784 2:-0.00647 
1 1:-1.55 2:0.121 
1 1:1.24 2:-0.687 
1 1:1.05 2:-0.723 
1 1:-1.26 2:-0.119 
1 1:1.41 2:1.63 
1 1:0.933 2:-1.24 
1 1:-1.14 2:0.0337 
1 1:-1.8 2:-1.25 
1 1:0.145 2:-0.415 
1 1:1.26 2:-0.553 
1 1:-0.187 2:-0.267 
1 1:-1.31 2:-1.16 
1 1:1.08 2:0.148 
1 1:-1.82 2:-0.705 
1 1:1.53 2:-1.81 
1 1:-1.03 2:-0.357 
1 1:0.389 2:-0.804 
1 1:0.168 2:1.97 
1 1:0.677 2:0.108 
1 1:1.23 2:-0.146 
1 1:0.73 2:-0.99 
1 1:-0.968 2:0.348 
1 1:2.51 2:0.901 
1 1:0.643 2:-0.403 
1 1:-0.975 2:-0.273 
1 1:0.321 2:0.393 
1 1:-1.24 2:-0.0104 
1 1:0.0817 2:0.418 
1 1:1.95 2:0.902 
1 1:-0.67 2:-0.55 
1 1:-0.33 2:0.301 
1 1:-0.736 2:0.683 
1 1:0.71 2:1.7 
1 1:0.207 2:0.65 
1 1:1.02 2:-0.351 
1 1:-0.21 2:0.171 
1 1:-1.08 2:-0.868 
1 1:-1.52 2:0.246 
1 1:-0.241 2:0.774 
1 1:-1.93 2:-0.315 
1 1:1.21 2:-0.774 
1 1:-2.05 2:-1.93 
1 1:-0.959 2:0.41 
1 1:2.12 2:0.978 
1 1:-1.86 2:-1.3 
1 1:0.464 2:-0.792 
1 1:1.21 2:-0.873 
1 1:0.292 2:-0.159 
1 1:2.68 2:1.17 
1 1:-0.463 2:0.0231 
1 1:0.572 2:-0.812 
1 1:-0.114 2:-0.147 
1 1:0.566 2:-0.977 
1 1:1.37 2:1.45 
1 1:-0.543 2:7.6e-05 
1 1:-1.4 2:0.261 
1 1:-1.53 2:-0.466 
1 1:0.26 2:-0.54 
1 1:1.96 2:1.28 
1 1:-2.1 2:-0.604 
1 1:0.276 2:-0.218 
1 1:-1.07 2:-0.039 
1 1:1.35 2:-1.51 
1 1:-1.21 2:-0.392 
1 1:-0.793 2:0.905 
1 1:1.39 2:-0.631 
1 1:1.23 2:0.0999 
1 1:0.445 2:0.0484 
1 1:-0.204 2:-0.181 
1 1:-2.18 2:-1.88 
1 1:-0.474 2:0.264 
1 1:1.1 2:-0.313 
1 1:1.26 2:-1.03 
1 1:0.961 2:-1.33 
1 1:0.326 2:0.00626 
1 1:0.279 2:0.149 
1 1:-1.43 2:0.0281 
1 1:0.449 2:-0.0489 
1 1:-1.09 2:-0.463 
1 1:-0.391 2:-0.547 
1 1:0.703 2:-0.583 
1 1:-1.44 2:-0.505 
1 1:-0.0433 2:0.605 
1 1:-1.56 2:-0.329 
1 1:-0.448 2:-0.354 
1 1:0.491 2:0.194 
1 1:2 2:1.28 
1 1:0.562 2:0.172 
1 1:0.278 2:0.383 
1 1:-0.711 2:0.465 
1 1:-1.07 2:-0.709 
1 1:-0.296 2:0.538 
1 1:-1.72 2:0.142 
1 1:-1.52 2:-0.368 
1 1:1.38 2:-0.645 
1 1:1.45 2:-1.25 
1 1:-1.12 2:0.589 
1 1:0.613 2:-0.0651 
1 1:1.33 2:-1.71 
1 1:-1.05 2:0.219 
1 1:0.434 2:0.295 
1 1:-0.385 2:-0.734 
1 1:0.85 2:-0.829 
1 1:0.244 2:1.84 
1 1:-1.84 2:-0.958 
1 1:0.367 2:-0.451 
1 1:-0.416 2:0.246 
1 1:-1.07 2:-0.552 
1 1:1.55 2:1.1 
1 1:0.928 2:1.45 
1 1:1.38 2:1.25 
1 1:-0.866 2:-0.197 
1 1:0.221 2:0.147 
1 1:1.25 2:-1.38 
1 1:0.991 2:-1.1 
1 1:-0.927 2:-0.595 
1 1:0.952 2:-0.782 
1 1:-0.215 2:-0.217 
1 1:-0.223 2:1.65 
1 1:-0.747 2:-0.509 
1 1:0.009 2:0.928 
1 1:0.521 2:0.56 
1 1:0.605 2:0.378 
1 1:-0.582 2:-0.587 
1 1:1.49 2:-1.53 
1 1:0.459 2:1.69 
1 1:-0.104 2:0.48 
1 1:-1.96 2:-0.442 
1 1:-1.76 2:-1.33 
1 1:-1.92 2:-1.17 
1 1:0.332 2:-0.527 
1 1:0.171 2:-0.502 
1 1:-2.13 2:-1.85 
1 1:-0.0897 2:-0.115 
1 1:0.603 2:1.8 
1 1:-0.0911 2:-0.0844 
1 1:1.37 2:1.24 
1 1:-1.22 2:-0.107 
1 1:-0.683 2:0.139 
1 1:1.45 2:-1.03 
1 1:-0.169 2:-0.601 
1 1:-1.89 2:-1.16 
1 1:0.624 2:-0.285 
1 1:1.22 2:1.48 
1 1:0.918 2:1.72 
1 1:-1.14 2:-0.927 
1 1:0.188 2:1.59 
1 1:-1.51 2:-0.27 
1 1:1.05 2:-1.11 
1 1:0.385 2:-1.07 
1 1:-0.139 2:-0.363 
1 1:0.953 2:-1.3 
1 1:-1.88 2:-1.26 
1 1:0.484 2:-0.427 
1 1:-0.618 2:-0.506 
1 1:-0.169 2:-0.135 
1 1:-1.28 2:-0.542 
1 1:1.16 2:-0.357 
1 1:-0.764 2:0.218 
1 1:0.901 2:-0.952 
1 1:0.955 2:0.142 
1 1:-0.844 2:0.371 
1 1:-1.43 2:0.0911 
1 1:-0.978 2:-1.05 
1 1:0.942 2:1.83 
1 1:-1.54 2:-0.598 
1 1:0.707 2:-0.778 
1 1:-1.84 2:-0.284 
1 1:-0.685 2:0.727 
1 1:0.875 2:-1.47 
1 1:-0.079 2:0.227 
1 1:0.731 2:1.74 
1 1:-1.15 2:-0.659 
1 1:-0.114 2:0.846 
1 1:-0.397 2:0.563 
1 1:-0.262 2:1.71 
1 1:1.13 2:-1.75 
1 1:-0.336 2:0.182 
1 1:1.04 2:0.0909 
1 1:0.553 2:-0.172 
1 1:-0.882 2:-0.608 
1 1:-0.539 2:0.292 
1 1:-1.34 2:-1.05 
1 1:-0.326 2:0.0769 
1 1:0.452 2:-0.204 
1 1:0.554 2:-0.454 
1 1:-1.29 2:-0.264 
1 1:-1.18 2:-0.898 
1 1:1.08 2:1.37 
1 1:-0.325 2:0.969 
1 1:-1.58 2:-0.798 
1 1:0.332 2:-0.69 
1 1:1.12 2:-0.447 
1 1:-0.23 2:2 
1 1:-0.176 2:-0.207 
1 1:-1.75 2:-1.92 
1 1:0.101 2:0.881 
1 1:-0.428 2:-0.509 
1 1:-0.302 2:-0.116 
1 1:-0.0411 2:0.32 
1 1:-1.78 2:-0.607 
1 1:0.916 2:-0.0255 
1 1:-0.995 2:-0.507 
1 1:-1.39 2:-0.943 
1 1:-1.75 2:-1.63 
1 1:-1.75 2:-1.27 
1 1:-0.238 2:1.74 
1 1:-1.64 2:-1.16 
1 1:-0.415 2:0.463 
1 1:0.435 2:0.397 
1 1:1.04 2:-1.17 
1 1:-1.28 2:-1.12 
1 1:-1.4 2:0.247 
1 1:-1.68 2:-0.472 
1 1:0.655 2:1.72 
1 1:-0.58 2:-0.579 
1 1:0.688 2:-0.878 
1 1:0.252 2:0.258 
1 1:-1.5 2:0.0847 
1 1:-0.403 2:-0.636 
1 1:1.94 2:1.25 
1 1:-1.31 2:0.239 
1 1:0.0821 2:-0.398 
1 1:-0.639 2:0.68 
1 1:-1.49 2:-0.221 
1 1:-0.006 2:-0.32 
1 1:0.782 2:-0.139 
1 1:-1.19 2:-0.774 
1 1:-1.29 2:-0.23 
1 1:0.76 2:-1.16 
1 1:-0.992 2:-0.0156 
1 1:1.24 2:-1.33 
1 1:-0.159 2:-0.12 
1 1:1.03 2:-0.805 
1 1:-1.79 2:-0.124 
1 1:1.12 2:-0.908 
1 1:-1.28 2:-0.259 
1 1:-0.752 2:-0.117 
1 1:-1.1 2:0.322 
1 1:1.09 2:1.49 
1 1:-0.867 2:0.214 
1 1:0.596 2:-0.172 
1 1:0.429 2:1.94 
1 1:0.381 2:1.61 
1 1:-1.01 2:-0.0908 
1 1:-0.651 2:-0.528 
1 1:0.0439 2:2.03 
1 1:-0.553 2:-0.687 
1 1:-1.47 2:-0.817 
1 1:-0.673 2:-0.177 
1 1:0.221 2:0.946 
1 1:-1.7 2:-1.79 
1 1:-0.977 2:0.639 
1 1:1.16 2:-1.1 
1 1:0.167 2:-0.793 
1 1:-1.28 2:-0.471 
1 1:0.435 2:1.31 
1 1:-1.41 2:-0.357 
1 1:-0.00145 2:-0.7 
1 1:0.355 2:-0.222 
1 1:-1.33 2:-0.12 
1 1:0.975 2:-1.34 
1 1:0.431 2:1.64 
1 1:-0.516 2:-0.92 
1 1:-0.834 2:-0.258 
1 1:0.473 2:-1.11 
1 1:2.2 2:1.14 
1 1:-0.452 2:-0.717 
1 1:2.18 2:1.13 
1 1:-0.29 2:0.7 
1 1:-1.22 2:0.177 
1 1:0.799 2:-0.99 
1 1:-0.508 2:-0.694 
1 1:2.07 2:1.37 
1 1:1.78 2:1.01 
1 1:-0.743 2:0.685 
1 1:0.192 2:1.94 
1 1:-1.44 2:-0.47 
1 1:-0.077 2:1.87 
1 1:1.35 2:-0.962 
1 1:0.234 2:-0.413 
1 1:-1.38 2:-0.826 
1 1:1.01 2:-0.437 
1 1:1.1 2:-1.17 
1 1:0.999 2:-1.12 
1 1:0.817 2:-0.941 
1 1:0.184 2:0.558 
1 1:0.974 2:-1.32 
1 1:-0.209 2:-0.356 
1 1:-0.891 2:-0.617 
1 1:0.545 2:-0.165 
1 1:0.364 2:-0.269 
1 1:-1.11 2:0.308 
1 1:0.629 2:-0.617 
1 1:0.424 2:0.0533 
1 1:0.252 2:-0.389 
1 1:-1.31 2:0.0708 
1 1:-0.719 2:0.242 
1 1:-0.633 2:0.257 
1 1:-1.84 2:-0.366 
1 1:-0.565 2:-0.0822 
1 1:-0.561 2:-0.787 
1 1:0.617 2:1.34 
1 1:-1.77 2:-1.19 
1 1:0.229 2:0.613 
1 1:1.05 2:-0.655 
1 1:-1.15 2:-0.545 
1 1:0.643 2:-0.351 
1 1:-0.0744 2:-0.463 
1 1:0.478 2:0.46 
1 1:0.625 2:1.38 
1 1:-0.648 2:-0.713 
1 1:0.762 2:-0.334 
1 1:0.137 2:1.94 
1 1:1.34 2:-0.632 
1 1:-1.57 2:-0.561 
1 1:-0.529 2:0.365 
1 1:1.46 2:-1.06 
1 1:2.4 2:1.2 
1 1:1.57 2:-0.909 
1 1:0.123 2:-0.283 
1 1:-1.35 2:-0.57 
1 1:-1.52 2:-0.00335 
1 1:0.0271 2:1.83 
1 1:-1.98 2:-0.655 
1 1:0.458 2:-0.157 
1 1:-1.45 2:-1.22 
1 1:-0.0208 2:1.76 
1 1:-1.24 2:0.1 
1 1:-1.77 2:-0.455 
1 1:0.75 2:1.63 
1 1:0.894 2:-0.742 
1 1:0.756 2:-0.0709 
1 1:0.426 2:0.194 
1 1:0.258 2:0.482 
1 1:-2.28 2:-1.02 
1 1:-1.55 2:-0.61 
1 1:-1.36 2:-0.324 
1 1:-0.424 2:0.0207 
1 1:0.621 2:1.32 
1 1:-0.0367 2:-0.144 
1 1:-0.482 2:0.0903 
1 1:-0.814 2:0.23 
1 1:-0.422 2:-0.241 
1 1:0.996 2:1.46 
1 1:0.591 2:-0.427 
1 1:-0.698 2:-0.726 
1 1:-0.53 2:0.101 
1 1:-0.305 2:0.194 
1 1:-0.752 2:0.342 
1 1:0.135 2:0.0532 
1 1:-0.699 2:-0.359 
1 1:-0.222 2:0.259 
1 1:-1.6 2:-1.44 
1 1:-0.665 2:0.357 
1 1:0.938 2:-0.255 
1 1:-0.854 2:-0.379 
1 1:-1.01 2:0.357 
1 1:-0.728 2:-0.76 
1 1:-1.3 2:0.651 
1 1:0.5 2:0.762 
1 1:-1.15 2:-0.562 
1 1:0.884 2:-0.766 
1 1:-1.6 2:-1.32 
1 1:-1.32 2:0.0399 
1 1:-1.52 2:-0.993 
1 1:-1.27 2:-0.688 
1 1:0.157 2:-0.652 
1 1:0.603 2:0.145 
1 1:0.689 2:-0.187 
1 1:-1.94 2:-0.761 
1 1:0.344 2:1.38 
1 1:-1.5 2:0.282 
1 1:0.121 2:0.219 
1 1:-1.51 2:-0.626 
1 1:0.845 2:0.00714 
1 1:-0.914 2:0.317 
1 1:1.43 2:-0.816 
1 1:-0.0652 2:0.631 
1 1:0.16 2:-0.616 
1 1:-1.45 2:-1.14 
1 1:-0.113 2:2.13 
1 1:-0.241 2:-0.374 
1 1:-1.69 2:-0.176 
1 1:-0.972 2:0.473 
1 1:0.535 2:1.46 
1 1:-1.4 2:-0.183 
1 1:-0.996 2:-0.984 
1 1:0.587 2:0.0331 
1 1:0.0368 2:-0.239 
1 1:1.5 2:1.5 
1 1:-0.472 2:0.267 
1 1:-0.0439 2:0.305 
1 1:-1.96 2:-1.09 
1 1:-1.78 2:-0.253 
1 1:0.457 2:0.191 
1 1:-0.714 2:-0.161 
1 1:0.508 2:-0.331 
1 1:0.862 2:-1.24 
1 1:0.466 2:0.281 
1 1:1.73 2:0.979 
1 1:0.0981 2:0.465 
1 1:2.37 2:1.07 
1 1:0.396 2:1.81 
1 1:-1.84 2:-0.846 
1 1:1.16 2:-1.24 
1 1:-0.0932 2:0.472 
1 1:-1.22 2:0.0836 
1 1:0.109 2:-0.522 
1 1:1.62 2:1.19 
1 1:-0.853 2:0.358 
1 1:-1.69 2:-1.14 
1 1:0.725 2:-0.99 
1 1:-1.22 2:0.569 
1 1:-0.149 2:-0.0185 
1 1:0.471 2:-0.445 
1 1:-0.672 2:-0.0414 
1 1:-0.64 2:0.705 
1 1:0.966 2:-0.199 
1 1:0.839 2:-1.15 
1 1:1.18 2:1.42 
1 1:1.09 2:-1.12 
1 1:0.9 2:-1.36 
1 1:1.11 2:-1.1 
1 1:0.242 2:0.347 
1 1:-1.2 2:-0.826 
1 1:-0.787 2:-0.113 
1 1:-0.452 2:0.524 
1 1:0.29 2:-0.515 
1 1:-1.1 2:0.419 
1 1:1.34 2:1.44 
1 1:-0.198 2:-0.661 
1 1:-1.22 2:-0.68 
1 1:1.25 2:-1.25 
1 1:0.712 2:1.49 
1 1:-0.678 2:-0.417 
1 1:-1.94 2:-1.61 
1 1:0.825 2:-1.28 
1 1:2.18 2:1.21 
1 1:0.634 2:0.366 
1 1:-0.336 2:-0.0523 
1 1:0.283 2:0.394 
1 1:0.247 2:1.65 
1 1:-0.852 2:-0.298 
1 1:-1.77 2:-0.592 
1 1:-0.251 2:0.327 
1 1:-2.19 2:-1.3 
1 1:2.11 2:0.942 
1 1:-0.214 2:-0.235 
1 1:-0.863 2:0.174 
1 1:0.0725 2:0.596 
1 1:0.911 2:-0.832 
1 1:0.282 2:-0.761 
1 1:-0.192 2:0.791 
1 1:0.424 2:1.64 
1 1:2.04 2:1.36 
1 1:-1.11 2:-0.351 
1 1:-1.86 2:-1.78 
1 1:-1.12 2:-0.315 
1 1:0.726 2:-0.626 
1 1:-1.21 2:-1.16 
1 1:0.673 2:0.172 
1 1:1.26 2:-1.25 
1 1:0.408 2:-0.664 
1 1:0.00275 2:-0.0555 
1 1:-0.836 2:-0.65 
1 1:-1.4 2:-1.54 
1 1:-0.88 2:0.407 
1 1:-1.19 2:-0.328 
1 1:-0.131 2:1.76 
1 1:-0.532 2:0.181 
1 1:0.704 2:-0.91 
1 1:-0.301 2:1.82 
1 1:0.0561 2:-0.479 
1 1:1.13 2:-1.27 
1 1:-1.21 2:-0.854 
1 1:-2.03 2:-1.23 
1 1:0.414 2:0.141 
1 1:0.466 2:0.322 
1 1:1.1 2:1.58 
1 1:-1.24 2:-0.706 
1 1:0.214 2:-0.45 
1 1:-1.04 2:-0.131 
1 1:-0.403 2:-0.488 
1 1:1.47 2:-1.44 
1 1:2 2:1.71 
1 1:-0.184 2:-0.751 
1 1:0.608 2:-1.18 
1 1:0.957 2:-0.572 
1 1:1.35 2:1.33 
1 1:1.71 2:1.17 
1 1:-0.178 2:-0.551 
1 1:0.512 2:-0.49 
1 1:-2.17 2:-0.523 
1 1:-0.00948 2:-0.336 
1 1:0.142 2:-0.698 
1 1:-1.01 2:-0.363 
1 1:1.34 2:-1.07 
1 1:1.28 2:1.35 
1 1:-1.82 2:-0.341 
1 1:1.42 2:-0.208 
1 1:-0.261 2:0.204 
1 1:-1.24 2:-0.497 
1 1:-0.074 2:1.97 
1 1:1.4 2:-1.13 
1 1:-1.51 2:-0.285 
1 1:1.12 2:-1.22 
1 1:0.608 2:0.0135 
1 1:0.0285 2:1.72 
1 1:0.222 2:1.47 
1 1:-0.356 2:-0.0513 
1 1:-1.17 2:-0.073 
1 1:-0.768 2:0.209 
1 1:-0.101 2:-0.122 
1 1:-0.825 2:0.481 
1 1:1.23 2:-1.55 
1 1:-0.785 2:-0.361 
1 1:-1.53 2:-1.01 
1 1:0.327 2:0.17 
1 1:1.35 2:-1.23 
1 1:-0.522 2:0.877 
1 1:-1.54 2:-0.641 
1 1:1.16 2:0.151 
1 1:-0.17 2:-0.346 
1 1:-0.879 2:0.499 
1 1:2.37 2:1.14 
1 1:-1.42 2:0.592 
1 1:0.612 2:1.8 
1 1:1.25 2:-0.146 
1 1:0.93 2:-0.375 
1 1:-0.102 2:1.57 
1 1:-0.918 2:-0.578 
1 1:1.01 2:1.53 
1 1:-0.0443 2:-0.335 
1 1:-0.957 2:0.039 
1 1:-0.216 2:-0.353 
1 1:-1.33 2:-0.861 
1 1:-1.87 2:-1.32 
1 1:0.257 2:0.154 
1 1:0.29 2:-0.481 
1 1:-1.54 2:0.516 
1 1:0.209 2:0.755 
1 1:-1.66 2:-0.56 
1 1:-1.1 2:0.641 
1 1:-0.016 2:-0.448 
1 1:-1.56 2:-1.1 
1 1:-1.31 2:-0.354 
1 1:-0.208 2:-0.646 
1 1:-0.622 2:0.804 
1 1:2.29 2:1.22 
1 1:0.309 2:-0.689 
1 1:-1.37 2:-0.177 
1 1:-0.988 2:-0.191 
1 1:-0.0273 2:0.739 
1 1:-1.89 2:-1.7 
1 1:-1.61 2:-0.451 
1 1:-1.81 2:-0.488 
1 1:1.08 2:-0.996 
1 1:0.445 2:0.135 
1 1:0.369 2:0.428 
1 1:-0.139 2:0.132 
1 1:-0.987 2:-0.863 
1 1:0.434 2:-0.189 
1 1:-1.57 2:-1.47 
1 1:0.659 2:-0.985 
1 1:-1.42 2:-0.327 
1 1:1.82 2:1.43 
1 1:-0.487 2:-0.536 
1 1:0.235 2:1.48 
1 1:-1.44 2:-0.0746 
1 1:-0.163 2:-0.398 
1 1:-0.18 2:0.595 
1 1:-1.29 2:-0.754 
1 1:-1.45 2:-1.25 
1 1:1.02 2:-0.728 
1 1:-1.78 2:-0.687 
1 1:-0.966 2:-0.628 
1 1:1.12 2:-0.659 
1 1:0.0235 2:-0.18 
1 1:-1.17 2:0.156 
1 1:-0.105 2:-0.442 
1 1:-0.256 2:-0.115 
1 1:0.617 2:-0.0096 
1 1:2.29 2:1.32 
1 1:0.501 2:0.0553 
1 1:0.141 2:0.0947 
1 1:0.0436 2:0.0126 
1 1:-1.84 2:-1.64 
1 1:-1.22 2:-0.119 
1 1:0.773 2:-0.747 
1 1:-1.93 2:-0.92 
1 1:-1.69 2:-1.27 
1 1:0.00168 2:0.262 
1 1:0.878 2:-1.38 
1 1:-1.11 2:-0.821 
1 1:2.41 2:1.26 
1 1:-1.56 2:-0.172 
1 1:0.000519 2:0.282 
1 1:-1.88 2:-0.979 
1 1:-0.895 2:-1.07 
1 1:0.235 2:0.772 
1 1:0.735 2:1.63 
1 1:0.0737 2:0.124 
1 1:-0.2 2:1.74 
1 1:0.382 2:0.175 
1 1:-1.57 2:-0.205 
1 1:0.774 2:-1.22 
1 1:1.21 2:-1.24 
1 1:0.397 2:0.513 
1 1:1.07 2:-1.38 
1 1:-1.37 2:-0.205 
1 1:-0.33 2:0.0829 
1 1:-0.882 2:-0.582 
1 1:1.16 2:-0.768 
1 1:-0.757 2:0.298 
1 1:-0.377 2:-0.617 
1 1:1.15 2:-1.14 
1 1:-0.501 2:0.0787 
1 1:-1.81 2:-0.994 
1 1:-0.748 2:-0.034 
1 1:0.627 2:-0.0629 
1 1:2.35 2:1.14 
1 1:0.233 2:-0.275 
1 1:-0.781 2:-0.113 
1 1:-0.327 2:0.612 
1 1:-1.25 2:-0.656 
1 1:1.99 2:1.18 
1 1:2.2 2:1.26 
1 1:0.276 2:0.397 
1 1:1.98 2:1.27 
1 1:-0.279 2:-0.0928 
1 1:-0.318 2:0.317 
1 1:-1.32 2:-0.088 
1 1:1.46 2:-0.91 
1 1:-2 2:-1.72 
1 1:-1.43 2:-1.02 
1 1:0.739 2:0.139 
1 1:0.369 2:0.49 
1 1:-1.64 2:-1.8 
1 1:-1.31 2:-0.498 
1 1:-1.59 2:-1.36 
1 1:-0.724 2:0.215 
1 1:1.33 2:1.43 
1 1:-0.91 2:-0.607 
1 1:-0.914 2:0.425 
1 1:-1.46 2:-0.298 
1 1:-0.328 2:0.232 
1 1:0.941 2:-0.789 
1 1:0.874 2:-0.769 
1 1:-0.521 2:0.726 
1 1:-0.76 2:-0.698 
1 1:-2.25 2:-1.96 
1 1:-0.749 2:0.0101 
1 1:1.01 2:-0.984 
1 1:0.544 2:1.63 
1 1:-0.213 2:0.259 
1 1:0.112 2:0.0285 
1 1:1.56 2:-0.367 
1 1:0.0968 2:-0.225 
1 1:-0.391 2:0.181 
1 1:0.298 2:0.509 
1 1:0.557 2:-1.04 
1 1:0.412 2:-0.124 
1 1:-1.55 2:-1.47 
1 1:1.9 2:1.27 
1 1:0.838 2:-0.115 
1 1:0.854 2:-0.537 
1 1:-0.00294 2:0.513 
1 1:-1.53 2:-1.21 
1 1:0.352 2:0.333 
1 1:1.54 2:1.75 
1 1:-1.87 2:-0.555 
1 1:-0.282 2:1.78 
1 1:0.428 2:-0.494 
1 1:-1.21 2:-0.409 
1 1:-1.31 2:0.175 
1 1:-0.753 2:-0.321 
1 1:-1.15 2:-0.0498 
1 1:1.6 2:-1.36 
1 1:-0.902 2:-0.36 
1 1:-0.66 2:-0.0708 
1 1:2.57 2:0.989 
1 1:-1.13 2:-0.0634 
1 1:-1.01 2:-0.397 
1 1:1.43 2:-1.21 
1 1:-0.103 2:-0.414 
1 1:1.44 2:-1.7 
1 1:-2.02 2:-0.792 
1 1:0.824 2:0.587 
1 1:-1.34 2:-0.419 
1 1:0.566 2:0.0815 
1 1:0.578 2:-0.622 
1 1:0.753 2:1.89 
1 1:-0.184 2:-0.0314 
1 1:0.56 2:1.7 
1 1:-0.613 2:0.775 
1 1:0.819 2:0.0462 
1 1:-1.61 2:-1.13 
1 1:1.06 2:-0.0531 
1 1:0.764 2:-0.804 
1 1:-1.76 2:-1.17 
1 1:-0.234 2:-0.656 
1 1:-1.45 2:-1.29 
1 1:0.234 2:-0.822 
1 1:-1.84 2:-0.865 
1 1:-1.63 2:-1.32 
1 1:-0.551 2:0.288 
1 1:0.0224 2:1.43 
1 1:-0.693 2:-0.113 
1 1:-1.18 2:0.0302 
1 1:1.31 2:-1.4 
1 1:1.06 2:-0.0553 
1 1:-0.904 2:-0.203 
1 1:0.661 2:-0.199 
1 1:0.896 2:-1.27 
1 1:-1.54 2:-0.618 
1 1:1.29 2:-0.657 
1 1:-1.67 2:-1.5 
1 1:-1.36 2:-0.848 
1 1:0.722 2:-0.975 
1 1:1.02 2:-0.625 
1 1:1.26 2:-0.181 
1 1:0.933 2:-0.277 
1 1:-0.815 2:-0.682 
1 1:-1.51 2:-0.769 
1 1:1.2 2:-1.65 
1 1:-1.06 2:-0.549 
1 1:0.527 2:0.51 
1 1:1.15 2:-0.451 
1 1:-0.171 2:0.0105 
1 1:-0.138 2:-0.0524 
1 1:0.0574 2:-0.134 
1 1:-1.73 2:-0.242 
1 1:0.631 2:-0.674 
1 1:-0.973 2:-0.047 
1 1:-0.4 2:0.00463 
1 1:-1.14 2:-1.27 
1 1:0.43 2:-0.654 
1 1:0.698 2:-0.655 
1 1:-1.22 2:-0.0961 
1 1:-0.253 2:-0.406 
1 1:-1.13 2:-0.443 
1 1:1.64 2:1.46 
1 1:1.48 2:1.78 
1 1:-1.61 2:-0.363 
1 1:-1.52 2:-1.23 
1 1:-0.653 2:0.433 
1 1:2.48 2:1.21 
1 1:0.842 2:-0.372 
1 1:-0.291 2:0.561 
1 1:-1.02 2:-0.224 
1 1:0.45 2:-0.104 
1 1:-1.88 2:-0.454 
1 1:-0.582 2:-0.752 
1 1:-1.49 2:-0.00325 
1 1:0.406 2:-0.707 
1 1:1.15 2:0.0436 
1 1:-1.13 2:0.411 
1 1:-0.872 2:0.26 
1 1:-0.415 2:0.256 
1 1:0.801 2:-0.639 
1 1:0.762 2:0.125 
1 1:0.524 2:-0.231 
1 1:-1.47 2:-0.0358 
1 1:-0.851 2:0.189 
1 1:-0.776 2:0.127 
1 1:-0.674 2:-0.62 
1 1:0.244 2:-0.69 
1 1:-0.974 2:0.511 
1 1:-1.98 2:-0.88 
1 1:0.308 2:0.117 
1 1:-0.954 2:0.687 
1 1:0.768 2:-0.966 
1 1:1.64 2:1.12 
1 1:-1.7 2:-0.554 
1 1:0.404 2:0.00999 
1 1:0.704 2:-0.906 
1 1:0.335 2:1.39 
1 1:-1.7 2:-0.569 
1 1:2.64 2:1.14 
1 1:-0.255 2:-0.142 
-1 1:1.14 2:-0.114 
-1 1:-1.05 2:0.72 
-1 1:-0.122 2:-0.808 
-1 1:-1.02 2:0.619 
-1 1:-0.768 2:-1.04 
-1 1:0.724 2:0.989 
-1 1:-1.01 2:-1.36 
-1 1:1.28 2:0.691 
-1 1:0.925 2:0.895 
-1 1:-0.687 2:-1.29 
-1 1:-1.41 2:1.11 
-1 1:-0.75 2:-0.881 
-1 1:1.16 2:0.978 
-1 1:-0.522 2:-1.34 
-1 1:-1.41 2:0.894 
-1 1:0.041 2:-1.13 
-1 1:0.0483 2:0.866 
-1 1:-2.11 2:0.193 
-1 1:0.522 2:1.46 
-1 1:0.536 2:0.921 
-1 1:-0.123 2:-1.07 
-1 1:-0.0701 2:-1.23 
-1 1:-0.149 2:-1.2 
-1 1:-1.62 2:0.593 
-1 1:-0.0314 2:-1.01 
-1 1:-0.285 2:-1.1 
-1 1:-0.223 2:-1.28 
-1 1:-0.0341 2:-1.07 
-1 1:1.22 2:1.13 
-1 1:-0.124 2:-1.12 
-1 1:-0.439 2:-0.961 
-1 1:0.812 2:0.708 
-1 1:0.415 2:-1 
-1 1:-0.519 2:-0.799 
-1 1:-1.99 2:0.549 
-1 1:-1.03 2:0.654 
-1 1:0.431 2:-1.33 
-1 1:-0.0583 2:-1.15 
-1 1:-0.446 2:-0.861 
-1 1:-0.0868 2:-1.33 
-1 1:-1.12 2:0.576 
-1 1:-0.28 2:-1.3 
-1 1:-0.697 2:1.35 
-1 1:0.408 2:1.16 
-1 1:1.27 2:0.589 
-1 1:-0.101 2:-0.765 
-1 1:-0.819 2:1.26 
-1 1:0.845 2:0.766 
-1 1:-0.476 2:-1.49 
-1 1:1.01 2:0.48 
-1 1:1.39 2:-0.376 
-1 1:0.357 2:-1.07 
-1 1:0.77 2:1.4 
-1 1:-0.795 2:-1.43 
-1 1:-0.833 2:-0.569 
-1 1:-0.562 2:-0.873 
-1 1:0.926 2:0.972 
-1 1:-0.806 2:0.941 
-1 1:-0.0418 2:-1.02 
-1 1:-0.634 2:-0.969 
-1 1:-1.62 2:0.102 
-1 1:0.529 2:0.133 
-1 1:0.386 2:1.55 
-1 1:-0.536 2:1.13 
-1 1:-0.876 2:-1 
-1 1:-0.982 2:-1.08 
-1 1:-1.74 2:0.693 
-1 1:-1.1 2:1.16 
-1 1:-0.62 2:-0.984 
-1 1:-1.52 2:0.66 
-1 1:0.917 2:0.525 
-1 1:-0.0482 2:1.52 
-1 1:-0.584 2:1.01 
-1 1:-1.7 2:0.872 
-1 1:-0.411 2:-1.3 
-1 1:0.162 2:-0.791 
-1 1:-0.0347 2:1.3 
-1 1:-0.52 2:-1.17 
-1 1:-1.33 2:1.08 
-1 1:0.0131 2:-0.969 
-1 1:-0.0674 2:1.85 
-1 1:1.15 2:0.243 
-1 1:-0.478 2:-0.796 
-1 1:-0.447 2:-1 
-1 1:-0.89 2:-1.17 
-1 1:0.312 2:-1.23 
-1 1:0.291 2:-0.795 
-1 1:-1.54 2:0.685 
-1 1:0.254 2:-0.862 
-1 1:1.63 2:0.475 
-1 1:0.945 2:0.309 
-1 1:0.121 2:-1.3 
-1 1:0.912 2:-0.114 
-1 1:-0.75 2:1.14 
-1 1:-1.03 2:-1.09 
-1 1:-0.168 2:1.32 
-1 1:-1.07 2:0.707 
-1 1:-1.19 2:0.309 
-1 1:1.19 2:0.697 
-1 1:-0.723 2:0.633 
-1 1:-0.63 2:0.949 
-1 1:1.22 2:-0.0172 
-1 1:0.139 2:-1.01 
-1 1:0.308 2:-1.06 
-1 1:1.15 2:0.715 
-1 1:-0.531 2:-1.27 
-1 1:0.0681 2:-0.76 
-1 1:-0.595 2:1.46 
-1 1:0.0692 2:-0.828 
-1 1:0.863 2:0.765 
-1 1:-0.574 2:1.32 
-1 1:-0.467 2:-1.51 
-1 1:1.43 2:0.484 
-1 1:-0.592 2:-1.17 
-1 1:0.909 2:0.118 
-1 1:-0.705 2:-0.93 
-1 1:1.05 2:0.453 
-1 1:-0.786 2:-1.33 
-1 1:0.07 2:1.7 
-1 1:-0.36 2:-1.28 
-1 1:-1.25 2:0.985 
-1 1:0.178 2:1.49 
-1 1:-1.03 2:1.18 
-1 1:0.0345 2:-0.691 
-1 1:-0.187 2:-1.38 
-1 1:-1.24 2:1 
-1 1:0.529 2:1.62 
-1 1:-0.23 2:1.08 
-1 1:-0.619 2:-0.748 
-1 1:-0.914 2:1.07 
-1 1:0.163 2:-1.31 
-1 1:1.69 2:-0.724 
-1 1:-1.75 2:0.722 
-1 1:-1.06 2:-1.07 
-1 1:-0.509 2:-1.41 
-1 1:1.08 2:0.79 
-1 1:0.498 2:0.567 
-0.3846328942885484 1:-0.796 2:-1.63 
-1 1:-0.3 2:-1.04 
-1 1:-2.34 2:0.246 
-1 1:-0.0263 2:-1.35 
-1 1:0.404 2:-0.868 
-1 1:-0.639 2:-0.938 
-1 1:0.0346 2:1.7 
-0.4138785460380963 1:1.63 2:-0.251 
-1 1:-0.207 2:-0.745 
-1 1:-0.717 2:1 
-1 1:0.661 2:1.69 
-1 1:-1.13 2:0.6 
-1 1:-0.109 2:-1.25 
-1 1:0.68 2:0.702 
-1 1:-0.562 2:-1.01 
-1 1:0.262 2:-0.673 
-1 1:-0.358 2:-1.02 
-1 1:-0.392 2:-1.27 
-1 1:-1.2 2:-1.02 
-1 1:-0.337 2:-1.45 
-1 1:-0.473 2:-0.749 
-1 1:-0.496 2:-1.09 
-1 1:-0.636 2:1.35 
-1 1:-0.983 2:1.06 
-1 1:-0.972 2:-1.06 
-1 1:0.313 2:-1.07 
-1 1:0.553 2:1.54 
-1 1:0.354 2:-1.19 
-1 1:-0.74 2:-1.53 
-1 1:-0.769 2:1.35 
-1 1:-0.0381 2:-0.791 
-1 1:-0.481 2:1.09 
-1 1:1.06 2:0.266 
-1 1:-0.516 2:-0.935 
-1 1:-0.893 2:-1.27 
-1 1:0.763 2:1.15 
-1 1:0.794 2:0.762 
-1 1:1.37 2:-0.643 
-1 1:-1.97 2:0.611 
-1 1:1.28 2:0.902 
-1 1:-1.69 2:-0.175 
-1 1:-0.298 2:-1.26 
-1 1:0.301 2:-1.17 
-1 1:0.379 2:1.36 
-1 1:-0.48 2:-0.913 
-1 1:1.34 2:-0.261 
-1 1:0.286 2:1.23 
-1 1:-0.52 2:-1.52 
-1 1:-0.513 2:1.29 
-1 1:-0.648 2:-0.631 
-1 1:-0.941 2:0.976 
-1 1:-0.395 2:-0.756 
-1 1:-0.724 2:-1.26 
-1 1:0.159 2:1.51 
-1 1:-0.581 2:-1.27 
-1 1:-0.268 2:-1.26 
-1 1:-0.52 2:1.2 
-1 1:-1.52 2:0.934 
-1 1:1.05 2:0.444 
-1 1:-0.322 2:-1.12 
-1 1:-0.654 2:-0.999 
-1 1:-0.00264 2:-1.02 
-1 1:0.54 2:-1.26 
-1 1:-0.324 2:-1.03 
-1 1:-0.455 2:0.868 
-1 1:-0.232 2:-1.4 
-1 1:0.685 2:1.69 
-1 1:-0.0537 2:-1.52 
-1 1:-0.758 2:-1.21 
-1 1:-0.127 2:-1.33 
-1 1:-0.784 2:-1.05 
-1 1:0.275 2:-0.987 
-1 1:-1.07 2:0.963 
-1 1:-0.262 2:1.28 
-1 1:1.23 2:-0.493 
-1 1:-0.994 2:1.14 
-1 1:0.489 2:0.904 
-1 1:-0.617 2:-1.02 
-1 1:-0.66 2:0.965 
-1 1:-0.0508 2:-1.19 
-1 1:-1.21 2:0.778 
-1 1:-0.891 2:1 
-1 1:-1.04 2:1.19 
-1 1:1.31 2:-0.254 
-1 1:1.8 2:-0.811 
-1 1:1.49 2:-0.156 
-1 1:-2.07 2:0.0318 
-1 1:0.682 2:1.5 
-1 1:0.307 2:-0.678 
-0.9792085348703389 1:-0.37 2:1.48 
-1 1:0.234 2:0.958 
-1 1:-0.107 2:-1.5 
-1 1:0.592 2:0.973 
-1 1:1.27 2:-0.441 
-1 1:-0.704 2:-0.802 
-1 1:0.088 2:-1.25 
-1 1:0.952 2:0.427 
-1 1:1.39 2:-0.218 
-1 1:-1.08 2:-1.3 
-1 1:1.25 2:-0.35 
-1 1:0.183 2:-1.21 
-1 1:-0.0765 2:-1.12 
-1 1:0.975 2:0.809 
-1 1:-0.946 2:1.02 
-1 1:1.11 2:-0.106 
-1 1:-0.794 2:1.07 
-1 1:-0.652 2:-1.1 
-1 1:-0.631 2:-0.867 
-1 1:-0.856 2:-1.31 
-1 1:-0.215 2:-1.01 
-1 1:-0.134 2:-1.1 
-1 1:0.844 2:0.243 
-1 1:-0.698 2:-1.26 
-1 1:-0.346 2:-1.5 
-1 1:-0.495 2:-1.2 
-1 1:-0.803 2:-0.782 
-1 1:-0.0874 2:-0.948 
-1 1:-1.04 2:0.679 
-1 1:-0.677 2:-1.41 
-1 1:-0.864 2:-1.56 
-1 1:-0.779 2:-1.14 
-1 1:0.61 2:0.488 
-1 1:-0.227 2:-1.19 
-1 1:0.13 2:1.38 
-1 1:-1.08 2:0.72 
-1 1:0.987 2:0.858 
-1 1:1.57 2:-0.389 
-1 1:-0.606 2:-0.997 
-1 1:-0.192 2:1.66 
-1 1:1.07 2:-0.0433 
-1 1:-0.477 2:-1.25 
-1 1:0.996 2:0.225 
-1 1:-1.25 2:-1.28 
-1 1:0.851 2:1.46 
-1 1:-1.02 2:-1.18 
-1 1:-1.31 2:0.916 
-1 1:0.0744 2:1.04 
-1 1:-0.904 2:0.953 
-1 1:-0.11 2:-0.911 
-1 1:0.441 2:-1.13 
-1 1:-0.625 2:1.14 
-1 1:-0.254 2:-0.932 
-1 1:-0.817 2:-1.19 
-1 1:-1.73 2:0.87 
-1 1:0.176 2:1.94 
-1 1:1.07 2:0.0877 
-1 1:-0.374 2:-1.08 
-1 1:-1.16 2:0.381 
-1 1:1.02 2:0.997 
-1 1:0.15 2:1.3 
-1 1:1.42 2:-0.146 
-1 1:-1.2 2:0.932 
-1 1:-1.14 2:0.488 
-1 1:-0.151 2:1.66 
-1 1:1.36 2:-0.425 
-1 1:1.41 2:0.83 
-1 1:0.176 2:-1.11 
-1 1:-0.526 2:1.26 
-1 1:-0.189 2:-1.24 
-1 1:-0.598 2:1.22 
-1 1:1.52 2:0.409 
-1 1:0.548 2:-0.959 
-1 1:-0.0723 2:-1.08 
-1 1:0.726 2:0.289 
-1 1:-1.29 2:0.511 
-1 1:-0.506 2:-1.09 
-1 1:0.341 2:-1.32 
-1 1:-0.978 2:0.931 
-1 1:1.29 2:0.677 
-1 1:-0.647 2:-1.22 
-1 1:-0.31 2:-1.38 
-1 1:1.38 2:0.877 
-1 1:0.24 2:-1.14 
-1 1:-1.01 2:-1.53 
-1 1:-0.623 2:1.24 
-1 1:-1.42 2:0.83 
-1 1:-0.0908 2:-0.846 
-1 1:-0.166 2:-0.986 
-1 1:0.152 2:1.53 
-1 1:0.308 2:0.933 
-1 1:-0.109 2:-0.884 
-1 1:1.04 2:0.816 
-1 1:-0.145 2:1.67 
-1 1:-0.984 2:-0.807 
-1 1:0.379 2:-0.755 
-1 1:-0.918 2:1.13 
-1 1:-0.43 2:-0.722 
-1 1:-0.329 2:-0.858 
-1 1:-0.108 2:-1.3 
-1 1:0.826 2:0.744 
-1 1:-1.1 2:0.811 
-1 1:-0.951 2:0.533 
-1 1:-0.874 2:0.922 
-1 1:-0.0715 2:1.41 
-1 1:0.373 2:-1.17 
-1 1:-0.504 2:1.03 
-1 1:1.12 2:0.862 
-1 1:0.802 2:0.133 
-1 1:-1.74 2:0.254 
-1 1:1.19 2:-0.404 
-1 1:-0.16 2:-1.36 
-1 1:1.29 2:0.153 
-1 1:-0.853 2:-1.17 
-1 1:-0.567 2:-1.14 
-1 1:1.45 2:-0.26 
-1 1:-0.497 2:1.07 
-1 1:0.827 2:0.755 
-1 1:0.604 2:0.374 
-1 1:0.792 2:0.988 
-0.2028918551462955 1:-0.0338 2:1.52 
-1 1:1.59 2:-0.522 
-1 1:0.781 2:0.415 
-1 1:0.118 2:-1.37 
-1 1:-1.57 2:0.942 
-1 1:-1.21 2:-0.934 
-1 1:0.0154 2:-1.41 
-1 1:-0.0789 2:-1.35 
-1 1:-0.397 2:1.32 
-1 1:-0.433 2:-1.13 
-1 1:1.3 2:0.555 
-1 1:0.0991 2:-1.05 
-1 1:-0.934 2:-1.58 
-1 1:-0.347 2:-1.5 
-1 1:-0.342 2:-1.31 
-1 1:-0.00698 2:-1.15 
-1 1:-0.828 2:-0.839 
-1 1:-1.01 2:1.07 
-1 1:1.02 2:0.858 
-1 1:-0.803 2:-0.705 
-1 1:-0.618 2:-1.2 
-1 1:-0.012 2:1.42 
-1 1:0.199 2:-0.86 
-1 1:0.56 2:0.491 
-1 1:0.216 2:-1.12 
-1 1:1.33 2:0.825 
-1 1:1.18 2:0.08 
-1 1:-1.59 2:0.138 
-1 1:0.00564 2:-1.14 
-1 1:0.379 2:1.37 
-1 1:-0.106 2:-0.933 
-1 1:-0.314 2:-0.984 
-1 1:-0.474 2:-0.911 
-1 1:1.83 2:0.349 
-1 1:-0.237 2:-1.4 
-1 1:0.016 2:-1.13 
-1 1:-0.104 2:-1.09 
-1 1:-0.724 2:-1.48 
-1 1:1.24 2:-0.145 
-1 1:-0.776 2:-1.26 
-1 1:1.16 2:0.0489 
-1 1:0.143 2:1.05 
-1 1:1.21 2:0.642 
-1 1:0.551 2:1.48 
-1 1:0.191 2:1.72 
-1 1:0.345 2:-0.891 
-1 1:-0.396 2:-1.38 
-1 1:1.18 2:0.913 
-1 1:-0.302 2:-1.22 
-1 1:-0.885 2:1.05 
-1 1:-1.52 2:0.388 
-1 1:1.57 2:-0.566 
-1 1:-0.702 2:-1.2 
-1 1:-0.366 2:-0.882 
-1 1:-1.22 2:0.831 
-1 1:0.969 2:0.921 
-1 1:0.659 2:1.07 
-1 1:0.171 2:-0.886 
-1 1:0.893 2:0.345 
-1 1:-1.49 2:0.885 
-1 1:-0.609 2:-0.917 
-1 1:0.374 2:-1.39 
-1 1:-0.784 2:0.969 
-1 1:-1.93 2:0.603 
-1 1:-0.734 2:-1.09 
-1 1:1.37 2:0.625 
-1 1:-0.929 2:-1.39 
-1 1:1.14 2:-0.0771 
-1 1:-0.85 2:-0.92 
-1 1:-0.995 2:-1.39 
-0.6892801451679584 1:-0.415 2:1.48 
-1 1:-0.152 2:-0.669 
-1 1:0.73 2:-0.37 
-1 1:0.134 2:-0.922 
-1 1:0.604 2:1.03 
-1 1:-0.262 2:-1.2 
-1 1:-1.43 2:0.707 
-1 1:0.512 2:-1.34 
-1 1:-0.138 2:-0.951 
-1 1:1.15 2:0.824 
-1 1:0.233 2:-1.29 
-1 1:-0.124 2:-1.27 
-1 1:0.834 2:1.24 
-1 1:0.0205 2:1.23 
-1 1:1.16 2:1.05 
-1 1:-1.07 2:1.16 
-1 1:0.413 2:-1.3 
-1 1:1.32 2:0.0928 
-1 1:-0.292 2:-1.32 
-1 1:0.206 2:1.19 
-1 1:-0.639 2:-1.37 
-1 1:0.144 2:1.56 
-1 1:-1.58 2:0.588 
-1 1:-1.58 2:0.807 
-1 1:-0.668 2:-1.13 
-1 1:-0.547 2:-1.31 
-1 1:0.0296 2:1.2 
-1 1:-0.56 2:-1.41 
-1 1:0.0598 2:-1.26 
-1 1:0.51 2:-1.15 
-1 1:-0.502 2:-1.04 
-1 1:-0.155 2:1.29 
-1 1:1.18 2:0.0819 
-1 1:1.8 2:-1 
-1 1:-0.653 2:-0.734 
-1 1:1.3 2:0.648 
-1 1:-0.945 2:-1.43 
-1 1:0.167 2:0.87 
-1 1:-0.917 2:-0.863 
-1 1:-0.786 2:-1.02 
-1 1:0.56 2:-1.05 
-1 1:1.18 2:-0.0513 
-1 1:-1.29 2:0.891 
-1 1:0.126 2:-0.865 
-1 1:1.31 2:-0.238 
-1 1:1.62 2:-0.919 
-1 1:0.211 2:-1.28 
-1 1:1.18 2:-0.0335 
-1 1:-0.0936 2:-1.28 
-1 1:0.933 2:1.21 
-1 1:0.642 2:0.909 
-1 1:0.663 2:1.7 
-1 1:0.0329 2:1.88 
-1 1:0.981 2:-0.0572 
-1 1:1.36 2:0.482 
-1 1:-0.259 2:0.996 
-1 1:-1.4 2:0.553 
-1 1:0.1 2:-1.48 
-0.5485389462217787 1:1.37 2:0.428 
-1 1:-0.437 2:-0.984 
-1 1:-0.615 2:-1.36 
-1 1:0.387 2:1.71 
-1 1:-0.238 2:-1.49 
-1 1:0.656 2:0.844 
-1 1:-0.745 2:0.987 
-1 1:0.127 2:1.22 
-1 1:0.418 2:-1.12 
-1 1:0.16 2:-1.4 
-1 1:-0.93 2:0.758 
-1 1:0.0236 2:-1.07 
-1 1:0.517 2:-0.931 
-1 1:0.213 2:-0.752 
-1 1:-0.377 2:-0.973 
-1 1:-0.76 2:-0.862 
-1 1:-1.15 2:0.587 
-1 1:0.923 2:0.246 
-1 1:0.157 2:-0.934 
-1 1:0.235 2:-1.05 
-1 1:-0.111 2:-1.33 
-1 1:0.0386 2:-1.26 
-1 1:-1.02 2:-1.01 
-1 1:-0.824 2:0.858 
-0.689623579679717 1:0.191 2:1.94 
-1 1:-0.259 2:1.34 
-1 1:-1.22 2:1.12 
-1 1:0.48 2:-1.15 
-1 1:0.0967 2:-1.4 
-1 1:0.375 2:1.24 
-1 1:-1.63 2:0.101 
-1 1:0.02 2:-1.54 
-1 1:0.0071 2:-0.924 
-1 1:0.784 2:0.972 
-1 1:-0.795 2:1.17 
-1 1:-0.0247 2:-1.5 
-1 1:0.904 2:1.04 
-1 1:-0.948 2:-0.982 
-1 1:-1.59 2:0.763 
-1 1:0.255 2:0.412 
-1 1:0.0428 2:-1.04 
-1 1:0.973 2:0.457 
-1 1:-0.639 2:1.28 
-1 1:1.23 2:-0.00847 
-1 1:-1.12 2:-1.39 
-1 1:-1.14 2:0.693 
-1 1:0.0328 2:1.22 
-1 1:0.0496 2:-1.05 
-1 1:0.121 2:1.63 
-1 1:-0.0275 2:-1.42 
-1 1:-0.204 2:-1.54 
-1 1:-0.299 2:-1.14 
-1 1:-0.567 2:-1.14 
-1 1:-0.236 2:-1.17 
-1 1:1.22 2:-0.0466 
-1 1:-1.06 2:0.917 
-1 1:0.595 2:1.02 
-1 1:1.05 2:0.768 
-1 1:0.996 2:1.04 
-1 1:0.799 2:0.995 
-1 1:0.725 2:1.39 
-1 1:-0.791 2:-1.43 
-1 1:1.64 2:-0.605 
-1 1:1.13 2:0.33 
-1 1:-1.58 2:0.456 
-1 1:-0.892 2:1.25 
-1 1:0.785 2:0.173 
-1 1:1.04 2:0.779 
-1 1:-0.693 2:0.953 
-1 1:0.682 2:-0.146 
-1 1:-0.167 2:1.07 
-1 1:-0.621 2:-1.12 
-1 1:0.871 2:1.29 
-1 1:0.314 2:1.84 
-1 1:0.551 2:0.921 
-1 1:-1.52 2:0.946 
-1 1:-0.156 2:-1.16 
-1 1:0.0652 2:-0.766 
-1 1:-1.15 2:0.771 
-1 1:-0.599 2:-0.965 
-1 1:-1.6 2:0.682 
-1 1:0.838 2:0.603 
-1 1:1.34 2:-0.689 
-1 1:-1.52 2:0.506 
-1 1:-1.21 2:0.488 
-1 1:-1.6 2:0.632 
-1 1:-1.37 2:0.645 
-1 1:-0.421 2:-0.731 
-1 1:1.1 2:0.253 
-1 1:-0.0531 2:-1.26 
-1 1:0.835 2:-0.0137 
-1 1:-0.505 2:1.17 
-1 1:-0.524 2:-0.857 
-1 1:0.611 2:0.649 
-1 1:-0.614 2:-1.43 
-1 1:-0.859 2:0.885 
-1 1:-0.155 2:-1.03 
-1 1:-1.8 2:0.529 
-1 1:-0.746 2:-0.93 
-1 1:0.935 2:0.556 
-1 1:1.01 2:0.829 
-1 1:1.26 2:0.0903 
-1 1:-0.638 2:-1.01 
-1 1:0.552 2:0.961 
-1 1:-0.239 2:-0.848 
-1 1:-1.83 2:0.601 
-1 1:-0.507 2:1.24 
-1 1:1.16 2:0.703 
-1 1:-0.751 2:-1.37 
-1 1:-0.889 2:-0.884 
-1 1:-0.455 2:-1.3 
-1 1:1.35 2:-0.25 
-1 1:1.67 2:-0.978 
-1 1:-0.116 2:-1.36 
-1 1:1.75 2:-1.03 
-1 1:1.24 2:0.828 
-1 1:-0.526 2:1.19 
-1 1:-0.0866 2:-1.37 
-1 1:0.431 2:0.266 
-1 1:1.35 2:0.644 
-1 1:-0.45 2:-1.59 
-1 1:1.31 2:1.07 
-1 1:-0.696 2:-1.2 
-1 1:-0.861 2:-0.862 
-1 1:-0.631 2:-0.914 
-1 1:-0.501 2:1.1 
-1 1:1.29 2:1.07 
-1 1:1.24 2:0.00235 
-1 1:0.0066 2:-0.994 
-1 1:-1.19 2:-1.03 
-1 1:0.899 2:0.538 
-1 1:0.904 2:0.195 
-1 1:-1.25 2:0.479 
-1 1:-0.798 2:-1.21 
-1 1:1.11 2:0.0482 
-1 1:-0.27 2:-1.28 
-1 1:-0.369 2:-0.984 
-1 1:-0.538 2:-1.15 
-1 1:-0.509 2:0.912 
-0.01226700424442682 1:0.137 2:1.69 
-1 1:-0.129 2:1.57 
-1 1:-0.717 2:-1.03 
-1 1:0.598 2:0.484 
-1 1:1.02 2:0.508 
-1 1:-1.32 2:1.12 
-1 1:-1.7 2:0.422 
-1 1:-0.037 2:-1.35 
-1 1:-1.25 2:-1.1 
-1 1:1.5 2:0.637 
-1 1:-0.827 2:-0.757 
-1 1:1.54 2:-0.26 
-1 1:-0.0979 2:-1.01 
-1 1:-1.01 2:-1.29 
-1 1:-0.878 2:-1.16 
-1 1:-1.34 2:0.717 
-1 1:-0.568 2:-1.36 
-1 1:-0.712 2:-1.1 
-1 1:-0.68 2:-1.07 
-1 1:0.55 2:0.857 
-1 1:-0.43 2:-1.4 
-1 1:0.403 2:-0.997 
-1 1:0.904 2:0.97 
-1 1:-0.639 2:1.25 
-1 1:-0.0782 2:-1.1 
-1 1:0.595 2:0.429 
-1 1:-0.93 2:-0.895 
-1 1:-0.203 2:-1.08 
-1 1:-0.499 2:-0.766 
-1 1:0.12 2:-1.12 
-1 1:-0.338 2:-0.91 
-1 1:0.909 2:0.522 
-1 1:0.395 2:0.0856 
-1 1:-0.7 2:-1.25 
-1 1:-0.832 2:-1.33 
-1 1:-1.55 2:0.695 
-1 1:-0.755 2:-1.09 
-1 1:-0.83 2:0.993 
-1 1:0.824 2:0.45 
-1 1:-2.56 2:-0.0784 
-1 1:0.066 2:-1.23 
-1 1:0.34 2:-1.03 
-1 1:1.95 2:-1.02 
-1 1:-0.0397 2:-1.09 
-1 1:-1.15 2:0.729 
-1 1:0.854 2:1.15 
-1 1:-1.04 2:1.04 
-1 1:-0.921 2:-1.19 
-1 1:-0.0184 2:-1.13 
-1 1:-1.55 2:0.386 
-1 1:-0.539 2:-1.21 
-1 1:-1.2 2:0.659 
-1 1:0.731 2:1.31 
-1 1:-0.882 2:1.29 
-1 1:-0.754 2:1.1 
-1 1:1.12 2:0.173 
-1 1:-0.783 2:-1.33 
-1 1:-1.1 2:-1.17 
-1 1:0.101 2:-1.39 
-1 1:-0.484 2:-1.2 
-1 1:-0.984 2:1.03 
-1 1:0.494 2:-1.01 
-1 1:-0.0853 2:-1.12 
-1 1:1.41 2:0.607 
-1 1:1.27 2:-0.159 
-1 1:-0.0373 2:-1.32 
-1 1:0.69 2:0.745 
-1 1:0.354 2:1.06 
-1 1:1.29 2:0.525 
-1 1:-0.836 2:0.959 
-1 1:0.552 2:0.942 
-1 1:0.428 2:-1.43 
-1 1:-0.0255 2:-1.3 
-1 1:-0.892 2:1.02 
-1 1:-0.132 2:-1.35 
-1 1:-1.85 2:0.545 
-1 1:-0.475 2:-1.02 
-1 1:-0.807 2:0.992 
-1 1:1.19 2:0.115 
-1 1:-0.596 2:-1.33 
-1 1:1.63 2:-0.56 
-1 1:-1.12 2:1.1 
-1 1:0.0551 2:1.34 
-1 1:-0.388 2:-1.08 
-1 1:0.136 2:-1.36 
-1 1:-0.79 2:-0.823 
-1 1:0.735 2:0.571 
-1 1:-0.777 2:-1.33 
-1 1:-0.31 2:1.45 
-1 1:-0.0693 2:-1.3 
-1 1:0.385 2:-0.744 
-1 1:1.23 2:-0.115 
-1 1:-1.49 2:0.796 
-1 1:-0.84 2:-1.05 
-1 1:0.351 2:-1.42 
-1 1:0.523 2:1.05 
-1 1:-0.665 2:1.23 
-1 1:0.495 2:1.54 
-1 1:0.582 2:0.232 
-1 1:0.35 2:0.889 
-1 1:0.321 2:1.58 
-1 1:-0.783 2:0.931 
-1 1:1.08 2:0.925 
-1 1:0.614 2:0.908 
-1 1:0.0762 2:-1.27 
-1 1:0.282 2:-1.43 
-1 1:0.265 2:1.4 
-1 1:0.29 2:0.591 
-1 1:0.662 2:1.49 
-1 1:-0.689 2:-1.45 
-1 1:-0.214 2:-1.27 
-1 1:-0.119 2:-0.842 
-1 1:-0.995 2:-0.937 
-1 1:-1.31 2:0.463 
-1 1:0.698 2:0.784 
-1 1:1.27 2:-0.194 
-1 1:-0.22 2:-1.38 
-1 1:-0.414 2:-1.28 
-1 1:0.207 2:-1.38 
-1 1:-0.519 2:-1 
-1 1:-0.00634 2:-1 
-1 1:-0.638 2:1.32 
-1 1:1.11 2:0.205 
-1 1:0.087 2:-1.28 
-1 1:-0.016 2:-1.26 
-1 1:0.424 2:-0.84 
-1 1:0.488 2:1.31 
-1 1:-1.04 2:1.27 
-1 1:1.33 2:-0.704 
-1 1:-1.23 2:0.89 
-1 1:-0.329 2:-0.955 
-1 1:0.174 2:-1.11 
-1 1:-0.699 2:0.755 
-1 1:-0.137 2:-1.16 
-1 1:-0.0172 2:-1.03 
-1 1:-0.527 2:-1.38 
-1 1:-0.514 2:-1.07 
-1 1:-0.325 2:-1.32 
-1 1:0.986 2:0.843 
-1 1:0.746 2:0.441 
-1 1:-1.32 2:0.907 
-1 1:1.59 2:-0.378 
-1 1:-0.914 2:-0.919 
-1 1:0.866 2:1.14 
-1 1:-0.391 2:1.1 
-1 1:-0.351 2:-1 
-0.6952956787988487 1:-0.834 2:1.48 
-1 1:1.45 2:-0.507 
-1 1:1.23 2:-0.0997 
-1 1:0.191 2:-1.29 
-1 1:0.0543 2:-0.967 
-1 1:1.29 2:-0.391 
-1 1:-0.612 2:-1.42 
-1 1:-0.779 2:1.09 
-1 1:0.0179 2:-1.01 
-1 1:-0.216 2:-1.38 
-1 1:0.0698 2:-1.25 
-1 1:-0.869 2:0.625 
-1 1:-0.175 2:-0.909 
-1 1:-0.468 2:-1.17 
-1 1:1.77 2:0.239 
-1 1:1.04 2:0.285 
-1 1:0.736 2:1.64 
-1 1:-0.137 2:-1.39 
-1 1:-0.496 2:1.03 
-1 1:-1.04 2:0.984 
-1 1:-1.95 2:0.614 
-1 1:-0.866 2:0.751 
-1 1:0.322 2:-1.04 
-1 1:-0.486 2:-1.53 
-1 1:-0.384 2:-1.08 
-1 1:0.746 2:0.991 
-1 1:0.758 2:-1.45 
-1 1:-1.53 2:0.658 
-1 1:-0.162 2:-1.24 
-1 1:-0.735 2:-1.19 
-1 1:1.31 2:0.628 
-1 1:-0.0785 2:-1.16 
-1 1:0.844 2:1.22 
-1 1:-0.244 2:-1.2 
-1 1:0.0643 2:-1.28 
-1 1:0.483 2:-1.23 
-1 1:-0.869 2:0.634 
-1 1:-0.0547 2:-1.06 
-1 1:-1.49 2:0.744 
-1 1:1.45 2:-0.188 
-1 1:-0.791 2:-1.44 
-1 1:0.308 2:-1.34 
-1 1:-1.56 2:0.514 
-1 1:0.137 2:-0.862 
-1 1:-0.258 2:-1.06 
-1 1:-0.253 2:-0.809 
-1 1:0.446 2:-1.07 
-1 1:1.52 2:0.795 
-1 1:1.44 2:0.898 
-1 1:1.04 2:0.952 
-1 1:-1.2 2:-1.19 
-1 1:0.268 2:1.14 
-1 1:-0.935 2:1.02 
-1 1:0.247 2:-0.96 
-1 1:0.722 2:0.153 
-1 1:-1.19 2:-0.939 
-1 1:0.0209 2:-0.973 
-1 1:0.637 2:0.984 
-1 1:0.205 2:-1.28 
-1 1:-0.706 2:-0.697 
-1 1:-0.638 2:-0.752 
-1 1:-1.55 2:0.588 
-1 1:-0.381 2:-0.959 
-1 1:-0.432 2:1.13 
-1 1:0.463 2:0.935 
-1 1:-0.23 2:-1.02 
-1 1:0.168 2:1.7 
-1 1:-2.04 2:0.401 
-1 1:0.0735 2:-1.01 
-1 1:0.848 2:0.402 
-1 1:-0.821 2:-1.44 
-1 1:-0.364 2:-1.4 
-1 1:0.784 2:1.39 
-1 1:-1.02 2:0.883 
-1 1:-0.369 2:-0.965 
-1 1:-0.749 2:1.26 
-1 1:-0.566 2:1.19 
-1 1:-1.25 2:-1.47 
-1 1:-0.307 2:0.938 
-1 1:-1.18 2:0.732 
-1 1:-1.68 2:0.93 
-1 1:0.246 2:-0.767 
-1 1:1.42 2:-0.0465 
-1 1:-0.139 2:-1.27 
-1 1:-0.721 2:1.19 
-1 1:-0.709 2:-0.942 
-1 1:-0.891 2:0.593 
-1 1:-1.18 2:0.862 
-1 1:1.3 2:-0.028 
-1 1:0.855 2:0.959 
-1 1:-1.08 2:-1.17 
-1 1:-0.596 2:-0.989 
-1 1:0.444 2:1.14 
-1 1:1.01 2:0.397 
-1 1:-1.2 2:0.455 
-1 1:1.38 2:0.583 
-1 1:-0.223 2:1.04 
-1 1:-1 2:-1.22 
-1 1:-0.394 2:1.39 
-1 1:-0.573 2:-0.88 
-1 1:-2.19 2:0.0991 
-1 1:0.308 2:-0.913 
-1 1:0.515 2:0.884 
-1 1:1.32 2:-0.144 
-1 1:1.22 2:-0.159 
-1 1:0.639 2:-0.815 
-1 1:-2 2:0.403 
-1 1:-0.158 2:-1.08 
-1 1:-0.0949 2:-0.821 
-1 1:0.781 2:1.08 
-1 1:0.123 2:-1.24 
-1 1:1.01 2:0.446 
-1 1:-0.666 2:-1.34 
-1 1:-0.819 2:-0.943 
-1 1:0.202 2:-1.17 
-1 1:0.745 2:0.681 
-1 1:-0.461 2:-1.07 
-1 1:1.05 2:0.409 
-1 1:0.751 2:0.608 
-1 1:-0.0247 2:-0.765 
-1 1:0.21 2:-1.26 
-1 1:-0.389 2:-1.2 
-1 1:-0.116 2:-1.23 
-1 1:0.372 2:1.6 
-1 1:-0.254 2:-1.37 
-1 1:-0.67 2:1.22 
-1 1:1.04 2:0.93 
-1 1:1.39 2:0.504 
-1 1:-0.529 2:-1.02 
-1 1:-0.137 2:1.44 
-1 1:0.8 2:0.662 
-1 1:1.14 2:-0.0829 
-1 1:-0.634 2:1.26 
-1 1:-0.617 2:-0.792 
-1 1:-1.42 2:0.728 
-1 1:-0.847 2:-0.896 
-1 1:-0.843 2:-1.14 
-1 1:0.357 2:0.647 
-1 1:0.977 2:0.597 
-1 1:-0.717 2:1.23 
-1 1:0.955 2:-0.0158 
-1 1:-0.593 2:1.28 
-1 1:1.14 2:0.814 
-1 1:0.447 2:0.92 
-1 1:-1.54 2:0.643 
-1 1:1.27 2:0.0842 
-1 1:-1.73 2:0.562 
-1 1:0.957 2:0.0986 
-1 1:-0.639 2:-1.04 
-1 1:0.303 2:-1.35 
-1 1:-0.439 2:1.37 
-1 1:-0.287 2:-1.07 
-1 1:1.46 2:0.651 
-1 1:-0.0107 2:-0.96 
-1 1:1.21 2:0.0512 
-1 1:0.786 2:0.859 
-1 1:0.0909 2:-1.39 
-1 1:-1.34 2:0.805 
-1 1:-0.647 2:1.08 
-1 1:-0.811 2:-1.35 
-1 1:-2.32 2:0.0861 
-1 1:0.196 2:1.08 
-1 1:-0.974 2:-1.43 
-1 1:0.272 2:0.813 
-1 1:-0.0527 2:-0.746 
-1 1:-0.188 2:-0.998 
-1 1:-0.226 2:-1.06 
-1 1:-1.26 2:-0.912 
-1 1:-0.753 2:1.1 
-1 1:-0.435 2:-1.08 
-1 1:0.922 2:0.93 
-1 1:-0.416 2:-0.941 
-1 1:-1.37 2:0.968 
-1 1:0.353 2:1.58 
-1 1:0.571 2:-1.53 
-1 1:0.907 2:0.191 
-1 1:0.484 2:-1.3 
-1 1:-0.0305 2:-1.09 
-1 1:1 2:-0.0897 
-1 1:1.09 2:0.299 
-1 1:0.659 2:0.913 
-1 1:-0.542 2:-0.739 
-1 1:-1.63 2:0.293 
-1 1:1.49 2:0.627 
-1 1:-0.583 2:-1.05 
-1 1:-0.807 2:1.12 
-1 1:-0.683 2:1.38 
-1 1:0.388 2:1.64 
-1 1:0.584 2:0.679 
-1 1:0.678 2:0.335 
-1 1:0.204 2:-1.06 
-1 1:1.43 2:0.498 
-1 1:-0.779 2:-1.2 
-1 1:-1.3 2:0.577 
-1 1:1.03 2:0.0331 
-1 1:-0.532 2:-1.17 
-1 1:0.119 2:-1.28 
-1 1:-0.481 2:-0.904 
-1 1:0.858 2:0.399 
-1 1:0.126 2:0.819 
-1 1:-0.88 2:-1.27 
-1 1:-0.214 2:1.76 
-1 1:-0.53 2:-0.944 
-1 1:-0.936 2:-1.5 
-1 1:0.695 2:0.651 
-1 1:0.88 2:0.275 
-1 1:0.832 2:0.442 
-1 1:0.712 2:0.837 
-1 1:0.661 2:1.2 
-1 1:0.902 2:0.947 
-1 1:-0.0571 2:-1.5 
-1 1:-0.261 2:-1.27 
-1 1:0.134 2:-1.18 
-1 1:-0.279 2:-1.06 
-1 1:0.499 2:-1.17 
-1 1:-0.171 2:-1.09 
-1 1:-0.175 2:-0.946 
-1 1:1.54 2:-0.336 
-1 1:0.833 2:0.653 
-1 1:0.69 2:1.57 
-1 1:-0.542 2:0.918 
-1 1:-2.01 2:0.439 
-1 1:-0.472 2:-1.16 
-1 1:1.07 2:0.438 
-1 1:0.569 2:-0.858 
-1 1:-0.983 2:1.1 
-1 1:-0.829 2:1.06 
-1 1:0.22 2:-0.867 
-1 1:-0.021 2:-1.09 
-1 1:1.13 2:-0.0116 
-1 1:-0.838 2:-1.17 
-1 1:0.102 2:-1.03 
-1 1:0.32 2:-0.998 
-1 1:-0.986 2:-1.27 
-1 1:-0.486 2:-0.887 
-1 1:0.0965 2:-1.1 
-1 1:-0.1 2:-1.05 
-0.5778265006881858 1:0.431 2:-1.56 
-1 1:-0.995 2:-0.832 
-1 1:-0.981 2:-1.04 
-1 1:-0.494 2:-0.719 
-1 1:0.995 2:0.502 
-1 1:-0.0659 2:-1.33 
-1 1:-1.03 2:0.681 
-1 1:0.409 2:1.76 
-1 1:-0.951 2:-1.3 
-1 1:1.14 2:0.148 
-1 1:0.724 2:0.417 
-1 1:-1.57 2:0.905 
-1 1:-0.951 2:-1.33 
-1 1:-1.36 2:0.887 
-1 1:1.08 2:-0.000817 
-1 1:0.318 2:-0.87 
-1 1:0.632 2:1.74 
-1 1:-0.499 2:-1.31 
-1 1:0.296 2:1.51 
-1 1:0.314 2:-1.25 
-1 1:-0.528 2:-1.23 
-1 1:0.17 2:-0.719 
-1 1:0.202 2:-1.37 
-1 1:-0.491 2:1.22 
-1 1:-0.733 2:-1.34 
-1 1:0.0578 2:-1.32 
-1 1:-1.7 2:0.869 
-1 1:-0.8 2:-1.38 
-1 1:-0.145 2:-1.39 
-1 1:0.386 2:-0.997 
-1 1:-0.303 2:-0.883 
-1 1:-0.621 2:1.16 
-1 1:-0.772 2:0.933 
-1 1:-1.04 2:-1.24 
-1 1:0.33 2:-1.48 
-1 1:0.44 2:1.16 
-0.3047043212011513 1:-0.97 2:-1.6 
-1 1:1.46 2:0.0665 
-1 1:1.09 2:0.812 
-1 1:0.619 2:1.65 
-1 1:-0.765 2:-1.13 
-1 1:-0.664 2:1.18 
-1 1:-0.766 2:1.06 
-1 1:1.03 2:-0.0835 
-1 1:1.47 2:0.574 
-1 1:0.716 2:0.487 
-1 1:0.0337 2:-1.13 
-1 1:-0.432 2:-1.34 
-1 1:1.29 2:-0.151 
-1 1:0.0319 2:1.39 
-1 1:-0.956 2:-0.77 
-1 1:1.08 2:0.839 
-1 1:0.0624 2:-1.05 
-1 1:-1.06 2:-1.24 
-1 1:-0.366 2:-1.52 
-1 1:1.05 2:1.07 
-1 1:-0.47 2:-1.12 
-1 1:-1.45 2:0.377 
-1 1:1.61 2:0.582 
-1 1:0.208 2:-1.21 
-1 1:1.43 2:-0.366 
-1 1:-1.59 2:0.176 
-1 1:0.801 2:1.14 
-1 1:0.188 2:0.914 
-1 1:1.02 2:0.0541 
-1 1:0.804 2:0.6 
-1 1:-0.00515 2:1.75 
-1 1:-0.473 2:-1.55 
-1 1:-0.316 2:-1.36 
-1 1:-0.899 2:-1.25 
-1 1:-0.236 2:-1.54 
-1 1:0.546 2:-1.12 
-1 1:1.63 2:-0.43 
-1 1:-0.826 2:0.682 
-1 1:0.371 2:-1.23 
-1 1:0.309 2:-1.03 
-1 1:0.365 2:0.632 
-1 1:-0.714 2:-1.36 
-1 1:-0.467 2:1.3 
-1 1:0.177 2:-1.07 
-1 1:0.676 2:0.892 
-1 1:-1.28 2:0.72 
-1 1:0.166 2:-1.25 
-1 1:0.448 2:0.71 
-1 1:-0.922 2:0.533 
-1 1:0.328 2:0.553 
-1 1:-0.847 2:-0.871 
-1 1:1.08 2:0.437 
-1 1:-0.583 2:-0.743 
-1 1:-2.04 2:0.131 
-1 1:-1.16 2:-1.01 
-1 1:-0.462 2:-0.707 
-1 1:-1.94 2:0.598 
-1 1:0.341 2:-1.43 
-1 1:-0.524 2:-1.09 
-1 1:-2 2:-0.0624 
-1 1:0.794 2:1.01 
-1 1:-0.299 2:-1.4 
-1 1:-0.192 2:1.04 
-1 1:0.108 2:-0.769 
-1 1:-0.58 2:1.34 
-1 1:-0.124 2:-0.95 
-1 1:0.0175 2:1.47 
-1 1:1.64 2:0.513 
-1 1:0.557 2:1.38 
-1 1:-0.878 2:0.659 
-1 1:0.961 2:0.454 
-1 1:1.22 2:-0.345 
-1 1:-1.2 2:-1.04 
-1 1:-0.687 2:1.01 
-1 1:0.479 2:-0.821 
-1 1:1.08 2:-0.133 
-1 1:-1.52 2:0.497 
-1 1:0.198 2:-1.41 
-1 1:0.0647 2:-1.22 
-1 1:-0.0779 2:-0.967 
-1 1:0.369 2:1.69 
-1 1:-0.826 2:-0.966 
-1 1:-0.817 2:-1.11 
-1 1:0.666 2:-1.52 
-1 1:0.152 2:-0.964 
-1 1:-0.594 2:-1.21 
-1 1:1.05 2:0.397 
-1 1:-1.12 2:-1.2 
-1 1:1.5 2:-0.38 
-1 1:0.624 2:-1.31 
-1 1:-0.509 2:-0.932 
-1 1:-0.565 2:-0.853 
-1 1:0.0852 2:-0.852 
-1 1:0.399 2:-1.48 
-1 1:-0.441 2:-1.45 
-1 1:-1.01 2:-1.47 
-1 1:-0.144 2:-1.03 
-1 1:0.893 2:0.691 
-1 1:-0.136 2:-1.41 
-1 1:0.569 2:1.44 
-1 1:-0.903 2:-0.988 
-1 1:0.486 2:1.05 
-1 1:-0.0145 2:-1.15 
-1 1:-0.678 2:-1.32 
-1 1:1.29 2:-0.499 
-1 1:-0.116 2:1.26 
-1 1:1.06 2:0.913 
-1 1:-0.487 2:-1.19 
-1 1:-0.0388 2:-0.984 
-1 1:1.38 2:-0.244 
-1 1:0.136 2:-1.49 
-1 1:0.538 2:-1.39 
-1 1:-0.503 2:1.35 
-1 1:0.675 2:-1.53 
-1 1:-0.581 2:-1.34 
-1 1:-0.298 2:-0.823 
-1 1:-1.01 2:1.21 
-1 1:0.0608 2:-1.23 
-1 1:0.677 2:1.03 
-1 1:0.934 2:0.358 
-1 1:0.0105 2:-1.26 
-1 1:-0.86 2:-1.27 
-1 1:-0.529 2:-1.22 
-1 1:1.21 2:-0.132 
-1 1:0.126 2:-1.08 
-1 1:-0.967 2:1.22 
-1 1:0.994 2:0.348 
-1 1:-0.545 2:-1.31 
-1 1:1.06 2:-0.232 
-1 1:1.06 2:0.763 
-1 1:-0.512 2:-0.954 
-1 1:-0.701 2:1.17 
-1 1:-0.676 2:0.797 
-1 1:1.47 2:-0.0839 
-1 1:0.514 2:0.715 
-1 1:-0.451 2:-1.34 
-1 1:1.17 2:0.868 
-1 1:-2.06 2:-0.332 
-1 1:-0.285 2:1.39 
-1 1:0.0524 2:-0.853 
-1 1:-1.14 2:1.16 
-1 1:-1.08 2:1.19 
-1 1:-0.604 2:-1.2 
-1 1:-0.109 2:-1.32 
-1 1:0.0803 2:-1.15 
-1 1:0.383 2:-0.987 
-1 1:0.866 2:0.612 
-1 1:0.897 2:0.294 
-1 1:-0.267 2:1.37 
-1 1:-1.49 2:0.555 
-1 1:-0.448 2:0.91 
-1 1:1.05 2:0.776 
-1 1:1.2 2:0.0691 
-1 1:-0.973 2:0.712 
-1 1:0.0399 2:-1.28 
-1 1:-0.912 2:1.34 
-1 1:-0.375 2:-1.39 
-1 1:0.388 2:0.863 
-1 1:0.237 2:-1.26 
-1 1:0.711 2:0.787 
-1 1:-0.284 2:-1.02 
-1 1:-0.499 2:-0.858 
-1 1:1.16 2:0.776 
-1 1:0.372 2:-0.809 
-1 1:0.656 2:1.25 
-1 1:-1.24 2:0.788 
-1 1:0.83 2:0.692 
-1 1:1.29 2:0.622 
-1 1:-0.353 2:-0.836 
-1 1:0.303 2:-1.18 
-1 1:-0.964 2:-1.17 
-1 1:0.177 2:-1.37 
-1 1:-0.511 2:-0.734 
-1 1:0.449 2:0.648 
-1 1:1.19 2:0.19 
-1 1:0.651 2:-1.08 
-1 1:-0.542 2:1.12 
-0.6402787572012459 1:1.57 2:0.171 
-1 1:-0.399 2:1.3 
-1 1:-0.731 2:-0.906 
-1 1:0.017 2:-1.26 
-1 1:-0.487 2:-1.13 
-1 1:0.816 2:0.762 
-1 1:-0.375 2:1.36 
-1 1:0.985 2:1.16 
-1 1:1.18 2:-0.789 
-1 1:0.921 2:0.3 
-1 1:-0.835 2:-1.04 
-1 1:-1.04 2:-1.42 
-1 1:-0.356 2:-1.16 
-1 1:-0.879 2:-0.975 
-1 1:-0.603 2:1.3 
-1 1:-0.501 2:-1.43 
-1 1:-0.55 2:-1.07 
-1 1:1.5 2:0.541 
-1 1:-0.741 2:0.979 
-1 1:0.4 2:-1.39 
-1 1:0.45 2:1.6 
-1 1:0.44 2:-0.778 
-1 1:-0.785 2:-1.11 
-1 1:-0.762 2:-1.11 
-1 1:0.395 2:-1.04 
-1 1:-1.16 2:1.03 
-1 1:-0.0267 2:-1.09 
-1 1:-1.39 2:1.09 
-1 1:-0.544 2:-0.773 
-1 1:-0.737 2:-0.617 
-1 1:-0.291 2:-0.858 
-1 1:-0.753 2:-1.25 
-1 1:0.0526 2:-1.31 
-1 1:-0.0198 2:-1.22 
-1 1:-0.926 2:0.694 
-1 1:0.685 2:0.546 
-1 1:-0.943 2:-1.26 
-1 1:0.226 2:-1.02 
-1 1:-0.343 2:-1.39 
-1 1:0.301 2:-0.928 
-1 1:0.343 2:-1.14 
-1 1:-0.625 2:-1.14 
-1 1:-0.429 2:1.13 
-1 1:-0.761 2:-1.44 
-1 1:1.11 2:0.989 
-1 1:-0.595 2:1.09 
-1 1:-0.0743 2:-1.38 
-1 1:0.393 2:1.64 
-1 1:0.636 2:0.756 
-1 1:-1.14 2:0.915 
-1 1:-1.42 2:0.275 
-1 1:-1.64 2:0.767 
-1 1:-0.415 2:-1.3 
-1 1:-0.4 2:-1.37 
-1 1:-0.239 2:-0.619 
-1 1:0.26 2:-1.17 
-1 1:1.08 2:1.03 
-1 1:-0.239 2:-1.17 
-1 1:1.09 2:1.21 
-1 1:1.29 2:-0.12 
-0.9464047534850218 1:-1.42 2:1.13 
-1 1:0.948 2:1.41 
-1 1:-0.999 2:0.906 
-1 1:1.24 2:0.809 
-1 1:0.0941 2:1.44 
-0.2711495656822692 1:0.249 2:-1.46 
-1 1:-1.02 2:0.675 
-1 1:-0.292 2:1.32 
-1 1:0.391 2:-1.42 
-1 1:-0.00835 2:1.76 
-1 1:0.317 2:-1.13 
-1 1:1 2:-0.0347 
-1 1:0.0394 2:-1.35 
-1 1:-0.633 2:-1.18 
-1 1:0.0927 2:-1.02 
-1 1:-0.389 2:-1.32 
-1 1:1.12 2:1.01 
-1 1:0.176 2:1.23 
-1 1:-0.0545 2:-1.45 
-1 1:-1.78 2:0.819 
-1 1:-0.0207 2:-1.14 
-1 1:0.915 2:0.611 
-1 1:1.41 2:0.9 
-1 1:-1.53 2:0.39 
-1 1:0.805 2:1.21 
-1 1:0.974 2:0.898 
-1 1:-1.16 2:-0.641 
-1 1:0.39 2:-1.2 
-1 1:0.64 2:1.35 
-1 1:-0.2 2:-1.02 
-1 1:-0.0611 2:-1.4 
-1 1:-0.56 2:1.06 
-1 1:1.79 2:-0.834 
-1 1:0.362 2:1.59 
-1 1:-0.908 2:1.26 
-1 1:-0.69 2:-1.33 
-1 1:-0.44 2:1.22 
-1 1:1.21 2:-0.271 
-1 1:0.484 2:1.04 
-1 1:1.26 2:-0.25 
-1 1:-0.659 2:-1.27 
-1 1:0.0558 2:1.88 
-1 1:-1.7 2:-0.087 
-1 1:0.739 2:0.673 
-1 1:0.67 2:0.784 
-1 1:0.487 2:1.33 
-1 1:-0.772 2:-1.38 
-1 1:-0.954 2:0.848 
-1 1:1.4 2:0.855 
-1 1:1.3 2:1.04 
-1 1:0.299 2:-0.819 
-1 1:-1.1 2:-1.13 
-1 1:-0.178 2:-1.15 
-1 1:-1.01 2:-1.23 
-1 1:0.484 2:1.04 
-1 1:0.646 2:0.778 
-1 1:-1.3 2:0.867 
-1 1:-1.02 2:0.849 
-1 1:-0.811 2:-1.15 
-1 1:0.326 2:1.45 
-1 1:-0.655 2:-1.44 
-1 1:-1.08 2:-1.39 
-1 1:0.342 2:-0.701 
-1 1:0.851 2:0.598 
-1 1:-0.66 2:1.41 
-1 1:0.908 2:0.127 
-1 1:0.999 2:0.811 
-1 1:0.409 2:-1.15 
-1 1:1.31 2:0.936 
-1 1:-0.0681 2:-1.24 
-1 1:-0.96 2:0.644 
-1 1:0.0292 2:-1.21 
-1 1:-0.852 2:1.32 
-1 1:-0.777 2:1.22 
-1 1:-0.489 2:-1.13 
-1 1:1.03 2:0.766 
-1 1:0.856 2:0.669 
-1 1:1.28 2:-0.588 
-1 1:-0.999 2:1.2 
-1 1:-0.834 2:-1.36 
-1 1:0.3 2:-1.18 
-1 1:-0.0203 2:-1.42 
-1 1:-0.157 2:1.84 
-1 1:-0.21 2:1.35 
-1 1:1.46 2:-0.14 
-1 1:-0.78 2:-1.52 
-1 1:-0.00816 2:-1.38 
-1 1:-0.591 2:-1.08 
-1 1:-0.0202 2:-1.26 
-1 1:0.288 2:1.62 
-1 1:-1.51 2:0.384 
-1 1:0.245 2:-0.681 
-1 1:-0.242 2:-1.47 
-1 1:0.651 2:0.744 
-1 1:1.4 2:0.746 
-1 1:0.0426 2:-1.18 
-1 1:-1.67 2:0.809 
-1 1:-0.31 2:-1.27 
-1 1:-0.202 2:1.64 
-1 1:-0.82 2:-1.04 
-1 1:-0.804 2:0.687 
-1 1:0.148 2:1.26 
-1 1:0.577 2:0.628 
-1 1:1.63 2:-0.539 
-1 1:-0.128 2:-1.14 
-1 1:0.468 2:0.986 
-1 1:0.295 2:-1.36 
-1 1:0.563 2:0.661 
-1 1:0.407 2:1.8 
-1 1:0.0169 2:-1.22 
-1 1:-0.295 2:-1.22 
-1 1:0.851 2:0.95 
-1 1:-0.738 2:1.01 
-1 1:-1.1 2:-1.24 
-1 1:-0.0633 2:-0.699 
-1 1:1.12 2:-0.422 
-1 1:-1.08 2:0.989 
-1 1:0.686 2:1.2 
-1 1:-0.135 2:-1.12 
-1 1:0.477 2:0.791 
-1 1:-0.711 2:-1.13 
-1 1:-0.269 2:-1.47 
-1 1:1.03 2:-0.209 
-1 1:-1.2 2:0.92 
-1 1:0.0538 2:-1.01 
-1 1:0.247 2:-1.28 
-1 1:1.21 2:0.197 
-1 1:1.93 2:0.165 
-1 1:1.24 2:0.608 
-1 1:0.262 2:-1.16 
-1 1:-0.803 2:-1.21 
-1 1:0.677 2:0.964 
-1 1:-0.148 2:-1.37 
-1 1:-0.811 2:-1.21 
-1 1:-0.372 2:-1.38 
-1 1:-0.00621 2:1.56 
-1 1:0.68 2:0.739 
-1 1:-0.411 2:-1.41 
-1 1:-0.917 2:-1.08 
-1 1:-0.0791 2:-1.38 
-1 1:0.329 2:1.11 
-1 1:0.451 2:-1.23 
-1 1:0.829 2:1.56 
-1 1:0.0291 2:-1.12 
-1 1:0.823 2:1.04 
-1 1:0.196 2:-0.779 
-1 1:1.16 2:0.654 
-1 1:0.35 2:1.22 
-1 1:0.487 2:1.45 
-1 1:-0.182 2:-1.54 
-1 1:-0.463 2:-1.01 
-1 1:0.311 2:1.68 
-1 1:0.388 2:1.72 
-1 1:-1.03 2:1.31 
-1 1:-0.122 2:-1.14 
-1 1:0.258 2:-0.85 
-1 1:-0.581 2:1.36 
-1 1:-0.419 2:1.4 
-1 1:0.932 2:0.501 
-1 1:-0.132 2:0.954 
-1 1:0.218 2:1.32 
-1 1:-0.72 2:-1.39 
-1 1:1.44 2:-0.0447 
-1 1:-0.654 2:-1.02 
-1 1:-1.66 2:0.835 
-1 1:-0.515 2:0.976 
-1 1:-0.231 2:-0.75 
-1 1:0.271 2:-1.28 
-1 1:-0.335 2:-0.81 
-1 1:-0.483 2:1.16 
-1 1:0.247 2:-0.9 
-1 1:-0.278 2:-1.32 
-1 1:1.43 2:0.57 
-1 1:-1.77 2:0.457 
-1 1:-0.552 2:-1.18 
-1 1:0.91 2:0.665 
-1 1:-0.431 2:1.21 
-1 1:-0.579 2:0.79 
-1 1:-0.383 2:-1.04 
-1 1:-0.833 2:-1.23 
-1 1:-0.975 2:0.725 
-1 1:0.139 2:-0.762 
-1 1:-0.106 2:-1.14 
-1 1:1.22 2:-0.106 
-1 1:-0.555 2:-1.02 
-1 1:-0.851 2:0.681 
-1 1:-0.401 2:-1.17 
-1 1:0.707 2:0.948 
-1 1:-1.06 2:0.665 
-1 1:-0.381 2:1.41 
-1 1:-0.0819 2:1.64 
-1 1:-1.48 2:0.74 
-1 1:-0.957 2:1 
-1 1:-0.153 2:-1.15 
-1 1:-1.98 2:0.345 
-1 1:-0.675 2:1.18 
-1 1:-0.357 2:-0.944 
-1 1:-0.35 2:-1.49 
-1 1:-0.747 2:-0.72 
-1 1:-0.294 2:-1.54 
-1 1:-1.49 2:0.738 
-1 1:-0.855 2:-1.33 
-1 1:0.0526 2:1.42 
-1 1:1.72 2:-0.793 
-1 1:-0.583 2:-1.35 
-0.242683411084666 1:0.0745 2:1.78 
-1 1:1.24 2:0.79 
-1 1:-1.33 2:0.719 
-1 1:-0.803 2:1.25 
-1 1:-0.265 2:1.28 
-1 1:-1.59 2:0.913 
-1 1:1.07 2:0.441 
-1 1:-0.139 2:-1.26 
-1 1:-0.632 2:1.35 
-1 1:-0.949 2:1 
-1 1:1.19 2:-0.278 
-1 1:1.35 2:0.472 
-1 1:-0.779 2:-1.04 
-1 1:0.745 2:0.366 
-1 1:-0.0187 2:-1.55 
-1 1:0.168 2:-1.06 
-1 1:-0.228 2:-1.06 
-1 1:-1.06 2:-0.881 
-1 1:0.479 2:1.48 
-1 1:-0.445 2:-1.24 
-1 1:0.89 2:0.864 
-1 1:-0.115 2:-0.719 
-1 1:1.21 2:0.227 
-1 1:0.514 2:1.52 
-1 1:-0.644 2:-0.78 
-1 1:0.63 2:-1.23 
-1 1:-1.57 2:0.679 
-1 1:0.962 2:0.851 
-1 1:-0.588 2:-1.35 
-1 1:1.08 2:0.378 
-1 1:-0.0685 2:0.931 
-1 1:-0.279 2:-1.25 
-1 1:1.05 2:-0.23 
-1 1:-0.862 2:1.01 
-1 1:-0.383 2:-1.26 
-1 1:-0.953 2:1.06 
-1 1:-1.24 2:1.14 
-1 1:-1.11 2:1.1 
-1 1:-1.58 2:0.272 
-1 1:-1.66 2:0.75 
-1 1:-1.75 2:0.318 
-1 1:0.57 2:1.42 
-1 1:0.802 2:1.21 
-1 1:1.25 2:-0.202 
-1 1:0.941 2:1.16 
-1 1:-0.163 2:-0.759 
-1 1:1.36 2:0.86 
-1 1:1.18 2:0.204 
-1 1:-0.459 2:-1.11 
-1 1:-1.05 2:0.966 
-1 1:-0.593 2:-1.58 
-1 1:-0.974 2:1.05 
-1 1:-1.96 2:0.445 
-1 1:0.361 2:0.931 
-1 1:1.35 2:-0.461 
-1 1:0.0727 2:-1.46 
-1 1:-0.813 2:-1.23 
-1 1:0.56 2:-1.02 
-1 1:-0.693 2:1.28 
-1 1:-0.666 2:-1.1 
-1 1:-0.239 2:-1.42 
-1 1:-0.315 2:-1.3 
-1 1:0.589 2:0.714 
-1 1:0.605 2:1.28 
-1 1:-1.21 2:1.19 
-1 1:-0.724 2:-0.973 
-1 1:-1.67 2:0.672 
-1 1:-0.0939 2:1.68 
-1 1:-1.49 2:0.415 
-1 1:-0.722 2:1.19 
-1 1:0.407 2:-0.94 
-1 1:0.463 2:-1.28 
-1 1:-0.246 2:-0.739 
-1 1:-1.8 2:0.676 
-0.2674970973302151 1:0.291 2:1.34 
-1 1:-0.267 2:-0.896 
-1 1:0.0885 2:-1.22 
-1 1:-1.42 2:0.624 
-1 1:0.66 2:0.835 
-1 1:0.217 2:-0.961 
-1 1:-0.141 2:-0.797 
-1 1:0.104 2:-1.04 
-1 1:-0.278 2:-1.09 
-1 1:0.238 2:1.74 
-1 1:-1.84 2:0.0932 
-1 1:-0.19 2:-1.42 
-1 1:0.187 2:-1.02 
-1 1:0.793 2:0.836 
-1 1:-0.048 2:-1.06 
-1 1:-0.769 2:-1.46 
-1 1:-1.53 2:0.656 
-1 1:0.713 2:0.948 
-1 1:0.994 2:0.0734 
-1 1:-0.84 2:-1.16 
-1 1:1.18 2:-0.277 
-1 1:-0.85 2:0.963 
-1 1:0.415 2:0.986 
-1 1:0.0128 2:1.29 
-1 1:0.834 2:0.925 
-1 1:0.39 2:1.27 
-1 1:0.265 2:-1.06 
-1 1:0.0311 2:-0.978 
-1 1:0.586 2:0.402 
-1 1:-0.0264 2:-0.952 
-1 1:-1.19 2:1.23 
-1 1:-1.19 2:-1.32 
-1 1:-0.534 2:1.15 
-1 1:0.0194 2:-1.13 
-1 1:-0.652 2:-1.54 
-1 1:-0.835 2:0.671 
-1 1:-0.598 2:-1.38 
-1 1:0.633 2:0.901 
-1 1:-0.77 2:0.637 
-1 1:-0.756 2:-0.943 
-1 1:-1.02 2:0.968 
-1 1:-0.494 2:-1.22 
-1 1:0.595 2:0.677 
-1 1:-0.26 2:1.36 
-1 1:-0.467 2:-0.945 
-1 1:-0.369 2:-1.14 
-1 1:-0.376 2:1.33 
-1 1:-1.43 2:0.245 
-1 1:-0.96 2:1.34 
-1 1:0.0951 2:-1.39 
-1 1:0.439 2:-1.09 
-1 1:1.22 2:0.834 
-1 1:-1.3 2:1.16 
-1 1:0.675 2:0.667 
-1 1:-0.815 2:1.18 
-1 1:-0.497 2:-1.29 
-1 1:-0.64 2:-0.939 
-1 1:-0.865 2:-1.1 
-1 1:-1.51 2:0.481 
-1 1:0.518 2:1.7 
-1 1:0.00273 2:-0.973 
-1 1:1.27 2:-0.685 
-1 1:1.03 2:0.28 
-1 1:-0.132 2:-1.37 
-1 1:-0.56 2:-1.12 
-1 1:-0.0189 2:-1.28 
-1 1:0.378 2:0.987 
-1 1:1.49 2:-0.886 
-1 1:-0.138 2:-1.37 
-1 1:1.71 2:0.569 
-1 1:1.19 2:0.812 
-1 1:-0.607 2:-0.894 
-1 1:-1.02 2:-1.29 
-1 1:0.752 2:1.58 
-1 1:0.615 2:0.375 
-1 1:-0.142 2:1.65 
-0.9204292470873604 1:1.22 2:0.247 
-1 1:-0.245 2:-1.18 
-1 1:0.409 2:-1.51 
-1 1:-1.19 2:-0.976 
-1 1:-0.911 2:-0.908 
-1 1:0.185 2:0.617 
-1 1:-1.08 2:-0.952 
-1 1:1.41 2:-0.447 
-1 1:0.0886 2:-0.844 
-1 1:0.604 2:0.555 
-1 1:-0.808 2:-1.5 
-1 1:-0.634 2:1.08 
-1 1:0.0116 2:-1.09 
-1 1:-1.04 2:0.937 
-1 1:0.627 2:0.234 
-1 1:-0.436 2:1.45 
-1 1:1.42 2:-0.656 
-1 1:1.35 2:-0.177 
-1 1:-0.26 2:-1.23 
-1 1:-0.259 2:1.52 
-1 1:1.27 2:-0.747 
-1 1:0.477 2:1.83 
-1 1:-0.195 2:1.31 
-1 1:1.22 2:1.04 
-1 1:-0.236 2:1.44 
-1 1:-0.767 2:-1.3 
-1 1:0.814 2:0.817 
-1 1:0.85 2:0.726 
-1 1:0.624 2:0.621 
-1 1:0.00356 2:1.87 
-1 1:0.178 2:-1.24 
-1 1:0.91 2:0.864 
-1 1:0.769 2:0.855 
-1 1:-1.25 2:0.857 
-1 1:-0.0656 2:1.24 
-1 1:-0.177 2:-1.12 
-1 1:-1.68 2:0.398 
-1 1:0.272 2:-1.12 
-1 1:-0.0686 2:1.72 
-1 1:-0.102 2:-1.31 
-1 1:0.538 2:-1.25 
-1 1:-0.877 2:-1.08 
-1 1:-0.509 2:-0.824 
-1 1:0.235 2:-1.06 
-1 1:-0.59 2:-1.23 
-1 1:1.08 2:0.72 
-1 1:0.527 2:-1.13 
-1 1:0.0243 2:-0.719 
-1 1:1.57 2:0.483 
-1 1:0.88 2:-0.241 
-1 1:-0.834 2:-1.19 
-1 1:1.29 2:0.23 
-1 1:1.02 2:0.976 
-1 1:-0.506 2:-1.2 
-1 1:1.35 2:0.657 
-1 1:1.3 2:0.739 
-1 1:0.832 2:1.33 
-1 1:0.432 2:0.749 
-1 1:1.54 2:-0.193 
-1 1:-0.539 2:-1.39 
-1 1:0.445 2:-1.38 
-0.7461438930470745 1:-0.951 2:1.39 
-1 1:0.477 2:-1.24 
-1 1:-0.254 2:-1.27 
-1 1:-0.449 2:1.04 
-1 1:-0.311 2:-1.07 
-1 1:1.47 2:0.486 
-1 1:-0.707 2:-1.43 
-1 1:0.721 2:0.731 
-1 1:-0.234 2:-0.974 
-1 1:-0.527 2:0.887 
-1 1:1.03 2:0.805 
-1 1:0.507 2:1.02 
-1 1:0.306 2:-1.13 
-1 1:0.204 2:-1.29 
-1 1:-1.34 2:0.626 
-1 1:0.021 2:-0.905 
-1 1:-0.614 2:-1.22 
-1 1:0.753 2:0.781 
-1 1:-0.959 2:1.07 
-1 1:0.904 2:1.15 
-1 1:-0.876 2:0.92 
-1 1:-0.224 2:-1.02 
-1 1:-0.18 2:-0.639 
-1 1:0.465 2:0.842 
-1 1:-0.49 2:1.25 
-1 1:0.368 2:-0.856 
-1 1:-0.0242 2:-1.28 
-1 1:-1.3 2:0.469 
-1 1:1.01 2:0.865 
-1 1:1.55 2:-0.649 
-1 1:0.447 2:-1.18 
-1 1:-1.37 2:0.808 
-1 1:-0.672 2:1.35 
-1 1:0.883 2:0.598 
-1 1:-0.11 2:-1.21 
-1 1:1.24 2:0.908 
-1 1:-0.058 2:-0.904 
-1 1:0.195 2:-1.27 
-1 1:-0.605 2:-1.52 
-1 1:0.38 2:-1.35 
-1 1:-0.958 2:0.812 
-1 1:0.952 2:0.836 
-1 1:0.917 2:0.231 
-1 1:-1.53 2:0.257 
-1 1:0.102 2:-1.36 
-1 1:0.289 2:1.01 
-1 1:-0.405 2:-1.09 
-1 1:0.819 2:0.546 
-1 1:1.58 2:-0.468 
-1 1:-0.0677 2:1.74 
-1 1:1.21 2:0.00827 
-1 1:-1.13 2:-1.06 
-0.195551035041114 1:0.0114 2:1.66 
-1 1:0.344 2:0.908 
-1 1:-0.716 2:-1.19 
-1 1:-0.932 2:-1.15 
-1 1:0.23 2:-1.15 
-1 1:-0.599 2:1.44 
-1 1:-0.817 2:-0.783 
-1 1:-0.314 2:-0.919 
-1 1:0.802 2:0.852 
-1 1:0.517 2:1.71 
-1 1:-0.207 2:-1.37 
-1 1:-0.882 2:-0.726 
-1 1:1.27 2:-0.519 
-1 1:-1.17 2:0.586 
-1 1:-1.01 2:0.768 
-1 1:0.125 2:-1.24 
-1 1:-0.471 2:-0.919 
-1 1:1.4 2:0.541 
-1 1:0.183 2:-1.16 
-1 1:-0.0541 2:-1.31 
-1 1:0.728 2:0.752 
-1 1:-1.13 2:0.654 
-1 1:-0.265 2:1.71 
-1 1:0.675 2:0.886 
-1 1:-1.42 2:-1.4 
-1 1:-0.39 2:-1.01 
-1 1:-0.634 2:1.21 
-1 1:-0.218 2:-1.05 
-1 1:0.0273 2:-0.683 
-1 1:-0.0232 2:-1.24 
-1 1:-1.48 2:0.944 
-1 1:-0.0127 2:-1.12 
-1 1:-0.587 2:1.01 
-1 1:0.163 2:-1.13 
-1 1:0.93 2:0.65 
-1 1:0.404 2:-1.1 
-1 1:-0.642 2:-1.35 
-1 1:-0.181 2:-1.1 
-1 1:-0.218 2:-0.882 
-1 1:-0.305 2:1.18 
-1 1:-1.19 2:0.814 
-1 1:-0.758 2:0.794 
-1 1:0.811 2:1.07 
-1 1:-0.0199 2:-1.32 
-1 1:-0.396 2:-1.45 
-1 1:-1.08 2:0.89 
-1 1:-0.437 2:-0.789 
-1 1:-0.961 2:0.755 
-1 1:-1.64 2:0.572 
-1 1:1.16 2:-0.254 
-1 1:-0.38 2:-1.34 
-1 1:-0.516 2:1.46 
-1 1:1.21 2:0.151 
-1 1:0.725 2:1.33 
-1 1:0.0966 2:-1.06 
-1 1:-0.347 2:-1.15 
-1 1:-0.121 2:-1.05 
-1 1:-0.446 2:-1.53 
-1 1:0.298 2:-0.878 
-1 1:-1.12 2:-1.17 
-1 1:-0.0845 2:1.15 
-1 1:-0.899 2:-1.38 
-1 1:1.35 2:0.677 
-1 1:1.35 2:-0.518 
-1 1:1.12 2:1.14 
-1 1:-0.715 2:-1.49 
-1 1:-1 2:-0.885 
-1 1:-0.859 2:1.26 
-1 1:0.8 2:1.56 
-1 1:-1.53 2:0.795 
-1 1:-1.62 2:0.213 
-1 1:-0.836 2:-1.36 
-1 1:-1.6 2:0.788 
-1 1:-1.14 2:1.08 
-1 1:0.143 2:0.845 
-1 1:0.678 2:0.961 
-1 1:-0.872 2:0.663 
-1 1:-1.2 2:-1.4 
-1 1:1.08 2:0.088 
-1 1:0.523 2:-1.38 
-1 1:1.23 2:-0.0874 
-1 1:-0.466 2:-0.851 
-1 1:0.134 2:-1.06 
-1 1:0.547 2:1.15 
-1 1:-1.47 2:0.96 
-1 1:0.543 2:0.913 
-1 1:0.843 2:0.634 
-1 1:0.974 2:0.877 
-1 1:-1.04 2:-1.07 
-1 1:0.72 2:0.677 
-1 1:0.803 2:0.349 
-1 1:1.3 2:-0.346 
-1 1:-0.0128 2:-1.27 
-1 1:-1.83 2:0.379 
-1 1:-1.21 2:1 
-1 1:-0.76 2:-1.26 
-1 1:-0.599 2:1.25 
-1 1:-0.298 2:-1.16 
-1 1:1.01 2:0.257 
-1 1:-0.479 2:0.91 
-1 1:-1.74 2:0.367 
-1 1:0.157 2:0.956 
-1 1:0.934 2:0.32 
-1 1:-0.226 2:-1.45 
-1 1:-0.667 2:-0.895 
-1 1:-0.0337 2:-1.36 
-1 1:-0.495 2:1.31 
-1 1:-0.823 2:0.729 
-1 1:-0.563 2:1.29 
-1 1:0.742 2:0.744 
-1 1:-0.435 2:-1.53 
-1 1:0.175 2:-0.887 
-1 1:-1.33 2:0.878 
-1 1:0.99 2:1.02 
-1 1:-0.211 2:-0.637 
-1 1:-0.104 2:-1.15 
-1 1:-0.0169 2:-0.939 
-1 1:-0.897 2:-0.972 
-1 1:-2.25 2:0.167 
-1 1:1.54 2:-0.749 
-1 1:-0.851 2:-1.26 
-1 1:-0.138 2:-1.03 
-1 1:-0.651 2:1.12 
-1 1:-0.562 2:-1.12 
-1 1:-0.0113 2:-0.78 
-1 1:-1.33 2:0.897 
-1 1:-0.396 2:1.21 
-1 1:-0.665 2:-1.04 
-1 1:-0.22 2:-1.12 
-1 1:-1.54 2:0.562 
-1 1:-0.625 2:1.38 
-1 1:-0.309 2:1.16 
-1 1:-0.625 2:-0.675 
-1 1:-0.704 2:0.71 
-1 1:0.672 2:1.57 
-1 1:1.38 2:0.698 
-1 1:-1.34 2:0.54 
-1 1:0.129 2:-0.889 
-1 1:-2.37 2:-0.01 
-1 1:1.36 2:-0.412 
-0.0611932555267099 1:1.92 2:0.0429 
-1 1:1.05 2:0.899 
-1 1:0.942 2:0.248 
-1 1:-1.02 2:-1.19 
-1 1:-0.496 2:1.41 
-1 1:-0.878 2:-1.46 
-1 1:0.983 2:0.203 
-1 1:1.1 2:0.74 
-1 1:1.5 2:-0.993 
-1 1:-0.819 2:-1.21 
-1 1:1.78 2:0.272 
-1 1:-1.04 2:1.13 
-1 1:-0.536 2:-0.814 
-1 1:-0.663 2:-1.47 
-1 1:0.486 2:0.991 
-1 1:0.0479 2:-1.06 
-1 1:-1.04 2:-1.08 
-1 1:-0.767 2:-1.2 
-1 1:0.613 2:1.35 
-1 1:-0.734 2:1.25 
-1 1:-0.443 2:1.02 
-1 1:-0.568 2:-0.873 
-1 1:0.14 2:1.25 
-1 1:-0.276 2:-1.19 
-1 1:-0.0163 2:-1.07 
-1 1:1.51 2:-0.355 
-1 1:0.431 2:-1.46 
-1 1:-0.264 2:-1.14 
-1 1:-0.0175 2:-1.21 
-1 1:-0.295 2:-1.27 
-1 1:0.405 2:-1.2 
-1 1:0.351 2:-0.964 
-1 1:-0.867 2:1.09 
-1 1:1.21 2:0.752 
-1 1:0.985 2:0.114 
-1 1:-0.544 2:-0.831 
-1 1:1.12 2:0.293 
-1 1:-0.956 2:1.11 
-1 1:-0.861 2:-1.21 
-1 1:-1.37 2:0.928 
-1 1:0.395 2:1.21 
-1 1:-0.381 2:-0.917 
-1 1:-0.334 2:-1.34 
-1 1:0.0545 2:-1.32 
-1 1:-0.421 2:-1.09 
-1 1:0.849 2:0.907 
-1 1:-1.17 2:1.08 
-1 1:0.179 2:1.87 
-1 1:1.36 2:-0.117 
-1 1:-0.549 2:1.03 
-1 1:1.27 2:0.775 
-1 1:-0.0192 2:-1.03 
-1 1:-0.491 2:-1.55 
-1 1:-0.457 2:-0.983 
-1 1:0.401 2:-1.31 
-1 1:-1.74 2:0.697 
-1 1:0.745 2:0.877 
-1 1:1.09 2:0.155 
-1 1:0.0899 2:-1.09 
-1 1:-0.555 2:0.908 
-1 1:1.45 2:0.211 
-1 1:0.132 2:-1.49 
-1 1:-0.487 2:-0.797 
-1 1:-0.0476 2:-1.24 
-1 1:-0.398 2:-1.28 
-1 1:0.335 2:1.15 
-1 1:-0.397 2:-1.1 
-1 1:-0.4 2:-1.15 
-1 1:-0.726 2:-1.17 
-1 1:-1.13 2:1.01 
-1 1:-0.0261 2:-1.38 
-1 1:-1.21 2:-1.22 
-1 1:1.55 2:0.482 
-1 1:-0.794 2:1.24 
-1 1:0.329 2:0.606 
-1 1:-1.82 2:0.474 
-1 1:0.948 2:0.985 
-1 1:-0.488 2:-1.31 
-1 1:-1.67 2:0.88 
-1 1:-0.144 2:1.68 
-1 1:-1.23 2:-0.977 
-1 1:-1.69 2:0.614 
-1 1:1.71 2:-0.945 
-1 1:-0.135 2:-1.1 
-1 1:-0.0117 2:-1.34 
-1 1:0.976 2:1.24 
-1 1:-1.4 2:0.98 
-1 1:-0.45 2:-0.928 
-1 1:-2.09 2:0.604 
-1 1:0.455 2:0.877 
-1 1:0.193 2:1.72 
-1 1:-0.0237 2:-1 
-1 1:-0.184 2:-1.4 
-1 1:-0.152 2:-1.11 
-1 1:-1.06 2:-1.54 
-1 1:0.715 2:1.3 
-1 1:1.88 2:-1.13 
-1 1:-0.734 2:0.881 
-1 1:0.301 2:-1.29 
-1 1:0.194 2:-1.27 
-1 1:0.869 2:0.576 
-1 1:-0.201 2:1.35 
-1 1:-0.0882 2:1.17 
-1 1:0.831 2:1.35 
-1 1:0.762 2:0.344 
-1 1:0.777 2:0.312 
-1 1:0.813 2:1.06 
-1 1:0.163 2:-1.08 
-1 1:-0.9 2:0.858 
-1 1:0.273 2:1.79 
-1 1:1.47 2:-0.531 
-1 1:0.0432 2:-1.39 
-1 1:-0.536 2:1.19 
-1 1:0.0878 2:-1.08 
-1 1:1.29 2:0.0437 
-1 1:-0.534 2:-1.23 
-1 1:-0.269 2:1.37 
-1 1:-0.803 2:-1.09 
-1 1:0.915 2:1.15 
-1 1:0.676 2:0.925 
-1 1:-0.615 2:-0.97 
-1 1:-0.926 2:0.916 
-1 1:-0.611 2:-1.28 
-1 1:-1.19 2:1.14 
-1 1:-0.768 2:-0.909 
-1 1:0.229 2:1.63 
-1 1:0.513 2:0.741 
-1 1:-0.0773 2:-1.22 
-1 1:-0.114 2:-1.5 
-1 1:-0.83 2:-1.08 
-1 1:0.781 2:0.911 
-1 1:-0.855 2:1.22 
-1 1:0.0893 2:-1.1 
-1 1:-0.355 2:1.28 
-1 1:0.273 2:-1.45 
-1 1:-1.18 2:1.17 
-1 1:-0.736 2:-1.14 
-1 1:0.722 2:0.368 
-1 1:-0.38 2:-1.27 
-1 1:-0.118 2:-1.26 
-1 1:-0.886 2:-1.27 
-1 1:-1.47 2:0.52 
-1 1:0.41 2:1.01 
-1 1:-0.78 2:-1.37 
-1 1:0.22 2:-1.36 
-1 1:-0.621 2:1.11 
-1 1:0.707 2:1.37 
-1 1:0.44 2:-0.936 
-1 1:0.941 2:1.46 
-1 1:-1.87 2:0.373 
-1 1:0.533 2:1.76 
-1 1:-0.203 2:1.26 
-1 1:-0.52 2:1.35 
-1 1:-0.0696 2:-0.896 
-1 1:-0.688 2:-1.14 
-1 1:1.07 2:0.399 
-1 1:-0.411 2:-1.34 
-1 1:0.924 2:0.861 
-1 1:-0.901 2:-1.13 
-1 1:-0.572 2:1.16 
-1 1:0.155 2:1.88 
-1 1:-0.858 2:-1.2 
-1 1:-1.53 2:0.501 
-1 1:-0.49 2:-1.45 
-1 1:-0.861 2:-0.972 
-1 1:1.14 2:0.212 
-1 1:-0.44 2:-1.3 
-1 1:-0.98 2:-1.49 
-1 1:0.84 2:1.42 
-1 1:-0.668 2:0.919 
-1 1:0.732 2:0.493 
-1 1:-0.534 2:-1.4 
-1 1:0.0125 2:-0.665 
-1 1:0.835 2:1.24 
-1 1:-0.942 2:-1.15 
-1 1:-0.744 2:-1.39 
-1 1:0.304 2:1.61 
-1 1:-1.21 2:0.918 
-1 1:0.998 2:0.37 
-1 1:0.513 2:1.5 
-1 1:0.0722 2:1.8 
-1 1:1.33 2:-0.0673 
-1 1:0.417 2:-1.54 
-1 1:-0.314 2:-0.72 
-1 1:-1.08 2:1.01 
-1 1:0.143 2:-0.786 
-1 1:0.032 2:-1.5 
-1 1:0.538 2:1.38 
-1 1:0.0325 2:-1.46 
-1 1:-0.391 2:1.32 
-1 1:-0.695 2:1.08 
-1 1:-0.824 2:1.1 
-1 1:0.7 2:1.14 
-1 1:-0.17 2:1.18 
-1 1:0.164 2:-1.18 
-1 1:-0.188 2:-1.27 
-1 1:0.25 2:-1.1 
-1 1:0.627 2:0.125 
-1 1:-0.0699 2:-1.2 
-1 1:-0.901 2:-1.56 
-1 1:1.02 2:0.0975 
-1 1:-0.226 2:-1.09 
-1 1:1.11 2:0.685 
-1 1:-0.301 2:1.69 
-1 1:-0.827 2:1.23 
-1 1:0.606 2:-0.877 
-1 1:0.14 2:-0.8 
-1 1:0.425 2:-1.21 
-1 1:0.603 2:-1 
-1 1:-0.463 2:-1.2 
-1 1:1.46 2:-0.111 
-1 1:0.669 2:0.98 
-1 1:-1.13 2:0.928 
-1 1:-0.799 2:1.11 
-1 1:-0.108 2:1.7 
-1 1:-1.18 2:0.692 
-1 1:-0.412 2:-0.689 
-1 1:-0.518 2:-0.914 
-1 1:-1.46 2:0.594 
-1 1:-0.613 2:1.1 
-1 1:1.34 2:-0.0272 
-1 1:-0.146 2:-0.869 
-1 1:0.0726 2:-1.31 
-1 1:-0.0776 2:-1.35 
-1 1:1.34 2:0.0998 
-1 1:-0.516 2:-0.915 
-1 1:-1.63 2:0.728 
-1 1:-0.514 2:-1.21 
-1 1:1.12 2:0.822 
-1 1:-0.076 2:-1.12 
-1 1:-0.897 2:-1.04 
-1 1:-0.756 2:-0.679 
-1 1:0.108 2:-1.21 
-1 1:1.26 2:0.799 
-1 1:-0.702 2:-0.811 
-1 1:1.3 2:0.749 
-1 1:0.212 2:1.81 
-1 1:1.08 2:-0.628 
-1 1:0.417 2:-1.28 
-1 1:-0.12 2:-1.22 
-1 1:1.05 2:0.219 
-1 1:0.244 2:1.42 
-1 1:-1.34 2:0.869 
-1 1:-0.0874 2:-1.07 
-1 1:-0.452 2:-1.22 
-1 1:0.303 2:-0.94 
-0.757316588915334 1:1.7 2:-0.554 
-1 1:0.659 2:1.28 
-1 1:-0.59 2:-1.04 
-1 1:-0.932 2:-1.02 
-1 1:-1.46 2:0.657 
-1 1:-0.347 2:-1.13 
-1 1:0.541 2:1.41 
-1 1:0.334 2:1.04 
-1 1:1.31 2:0.118 
-1 1:1.14 2:0.866 
-1 1:-0.372 2:-1.11 
-1 1:1.29 2:0.644 
-1 1:0.339 2:0.881 
-1 1:0.838 2:1.5 
-1 1:0.786 2:1.31 
-1 1:0.987 2:0.258 
-1 1:-1.53 2:0.679 
-1 1:-1.12 2:0.699 
-1 1:0.829 2:-0.305 
-1 1:1.16 2:0.847 
-1 1:-0.434 2:-1.1 
-1 1:-0.177 2:-1.45 
-1 1:0.189 2:1.35 
-1 1:0.0963 2:-1.38 
-1 1:-0.989 2:0.48 
-1 1:-0.206 2:-1.15 
-1 1:-0.413 2:1.17 
-1 1:1.01 2:0.555 
-1 1:0.879 2:1.03 
-1 1:0.724 2:0.706 
-1 1:0.97 2:1.15 
-1 1:0.719 2:0.759 
-1 1:-0.753 2:-1.08 
-1 1:0.179 2:-1.04 
-1 1:0.364 2:-0.858 
-1 1:0.273 2:1.68 
-1 1:-0.436 2:-0.954 
-1 1:0.00854 2:1.31 
-1 1:1.13 2:1.07 
-1 1:-1.1 2:0.737 
-1 1:-0.711 2:0.96 
-1 1:-0.381 2:-1.08 
-1 1:-1.34 2:0.824 
-1 1:-0.243 2:-1.24 
-1 1:0.914 2:0.26 
-1 1:0.701 2:0.564 
-1 1:0.387 2:-0.798 
-1 1:-1.02 2:-1.43 
-1 1:-0.434 2:-1.16 
-1 1:1.18 2:0.766 
-1 1:-1.28 2:0.559 
-1 1:-0.274 2:-0.99 
-1 1:-1.36 2:0.976 
-1 1:0.423 2:1.74 
-1 1:-1.69 2:0.706 
-1 1:0.411 2:1.47 
-1 1:-0.652 2:1.14 
-1 1:-0.315 2:-1.09 
-1 1:-0.376 2:-0.975 
-1 1:-0.42 2:1.11 
-1 1:-0.816 2:0.562 
-1 1:1.02 2:0.44 
-1 1:-0.828 2:-0.82 
-1 1:-0.183 2:1.15 
-1 1:-1.55 2:0.378 
-1 1:1.61 2:-0.387 
-1 1:-1.04 2:0.621 
-1 1:0.424 2:0.471 
-1 1:-0.0567 2:-1.41 
-1 1:-0.391 2:1.03 
-1 1:0.0114 2:-1.46 
-1 1:0.809 2:0.942 
-1 1:0.602 2:1.06 
-1 1:-1.06 2:-0.937 
-1 1:-1.06 2:0.817 
-1 1:0.809 2:0.741 
-1 1:1.22 2:0.217 
-1 1:1.28 2:-0.236 
-1 1:-0.298 2:-1.26 
-1 1:-0.626 2:-1.18 
-1 1:0.805 2:0.42 
-1 1:-0.958 2:0.536 
-1 1:-0.051 2:-0.972 
-1 1:0.822 2:0.501 
-1 1:-0.337 2:1.66 
-1 1:-0.266 2:-1.2 
-1 1:-1.1 2:0.817 
-1 1:0.568 2:0.244 
-1 1:-0.672 2:-0.601 
-1 1:0.847 2:1.4 
-1 1:-0.125 2:-1.48 
-1 1:0.504 2:0.0752 
-1 1:-0.269 2:1.6 
-1 1:-2.06 2:0.392 
-1 1:-1.14 2:0.849 
-1 1:1.55 2:-0.466 
-1 1:0.299 2:1.56 
-1 1:-0.418 2:-1.26 
-1 1:-0.0554 2:-1.28 
-1 1:0.463 2:0.498 
-1 1:-1.03 2:1.01 
-1 1:-0.634 2:-1.15 
-1 1:1.26 2:0.144 
-1 1:-0.162 2:1.84 
-1 1:-0.532 2:0.978 
-1 1:0.527 2:-1.02 
-1 1:-0.58 2:-1.09 
-1 1:-0.25 2:-1.23 
-0.2985279872720442 1:0.504 2:1.78 
-1 1:0.625 2:1.67 
-1 1:-0.165 2:-0.697 
-1 1:-0.317 2:1.77 
-1 1:1.14 2:0.647 
-1 1:0.611 2:0.978 
-1 1:1.25 2:0.794 
-1 1:-1.34 2:0.595 
-1 1:-1.57 2:0.629 
-1 1:0.764 2:0.469 
-1 1:-0.367 2:-1.04 
-1 1:-1.54 2:0.503 
-1 1:0.196 2:1.27 
-1 1:1.25 2:-0.322 
-1 1:1.33 2:-0.0802 
-1 1:-1.32 2:0.995 
-1 1:-1.57 2:0.378 
-1 1:0.414 2:1.16 
-1 1:-1.37 2:0.648 
-1 1:0.774 2:0.617 
-1 1:0.981 2:0.532 
-1 1:-1.16 2:0.41 
-1 1:1.25 2:-0.00263 
-1 1:1.03 2:1.29 
-1 1:0.217 2:-1.21 
-1 1:-1.06 2:1.03 
-1 1:0.598 2:0.855 
-1 1:0.822 2:0.192 
-1 1:-0.539 2:1.41 
-1 1:-0.742 2:-1.02 
-1 1:-1.31 2:-0.903 
-1 1:0.465 2:-1.26 
-1 1:-0.855 2:-1.05 
-1 1:1.87 2:-1.16 
-1 1:1.2 2:-0.213 
-1 1:1.03 2:-0.191 
-1 1:-0.739 2:1.32 
-1 1:0.952 2:0.616 
-1 1:1.1 2:0.131 
-1 1:-0.718 2:-1.25 
-1 1:-0.676 2:1.3 
-1 1:0.572 2:-1.24 
-1 1:0.67 2:1.15 
-1 1:0.0301 2:-0.894 
-1 1:-0.685 2:0.989 
-1 1:0.13 2:1.41 
-1 1:0.648 2:1.41 
-1 1:0.981 2:0.0921 
-1 1:0.318 2:1.4 
-1 1:-1.12 2:0.494 
-1 1:-0.944 2:1.02 
-1 1:-0.533 2:1.22 
-1 1:-0.446 2:-1.28 
-1 1:0.498 2:-1.02 
-1 1:-0.954 2:-1.19 
-1 1:-2.03 2:0.359 
-1 1:-0.235 2:-1.22 
-1 1:-1.93 2:0.525 
-1 1:-1.41 2:1.09 
-1 1:0.0489 2:-1.36 
-1 1:0.253 2:-1.3 
-1 1:-1.59 2:0.322 
-1 1:-0.172 2:-1.31 
-1 1:0.949 2:0.422 
-1 1:1.06 2:0.842 
-1 1:0.275 2:1.18 
-1 1:-0.695 2:-0.736 
-1 1:0.974 2:0.512 
-1 1:1.38 2:0.749 
-1 1:0.521 2:-1.04 
-1 1:-0.965 2:-0.978 
-1 1:0.44 2:0.9 
-1 1:1.19 2:0.997 
-1 1:1.11 2:0.375 
-1 1:-0.967 2:0.592 
-1 1:0.803 2:1.35 
-1 1:-0.00626 2:-0.959 
-1 1:0.198 2:-1.19 
-1 1:-0.729 2:1.37 
-1 1:-0.968 2:-0.912 
-1 1:-0.566 2:-1.33 
-0.7325029026697849 1:-0.271 2:1.59 
-1 1:0.897 2:1.07 
-1 1:1.39 2:-0.498 
-1 1:0.374 2:0.966 
-1 1:-0.791 2:-1.26 
-1 1:0.615 2:0.558 
-1 1:-0.153 2:-1.2 
-1 1:-0.109 2:-1.07 
-1 1:0.243 2:1.61 
-1 1:0.48 2:-1.1 
-1 1:1.34 2:0.878 
-1 1:0.00865 2:-0.918 
-1 1:-0.212 2:-1.18 
-1 1:0.823 2:-1.21 
-1 1:-0.835 2:-1.06 
-1 1:-0.536 2:1.05 
-1 1:-1.09 2:0.531 
-1 1:0.709 2:0.872 
-1 1:0.923 2:0.933 
-1 1:0.614 2:-1.46 
-1 1:-0.598 2:-1.35 
-1 1:1 2:0.254 
-1 1:-0.969 2:1.02 
-1 1:1.09 2:1.03 
-1 1:1.08 2:0.0163 
-1 1:0.0403 2:-1.51 
-1 1:-0.0957 2:-1.06 
-1 1:1.05 2:0.472 
-1 1:-0.268 2:-1.52 
-1 1:-1.4 2:0.475 
-1 1:-0.523 2:-1.31 
-1 1:0.34 2:-1.34 
-1 1:1.07 2:0.457 
-1 1:1.11 2:-0.0628 
-1 1:0.226 2:-1.38 
-1 1:-1.19 2:1.01 
-1 1:1.25 2:-0.118 
-1 1:-0.715 2:-0.969 
-1 1:0.0973 2:-1.33 
-1 1:1.39 2:-0.013 
-1 1:-0.338 2:-1.33 
-1 1:0.0533 2:-1.02 
-1 1:-0.153 2:-1.22 
-1 1:0.485 2:0.635 
-1 1:-0.674 2:0.842 
-1 1:-0.658 2:-1.31 
-1 1:-0.405 2:-1.25 
-1 1:0.117 2:-1.07 
-1 1:-1.32 2:1.1 
-0.4221734993118143 1:0.0529 2:1.52 
-1 1:-1.39 2:0.862 
-1 1:-1.63 2:0.524 
-1 1:0.826 2:1.42 
-1 1:-0.754 2:1.19 
-1 1:0.877 2:0.161 
-1 1:0.647 2:0.317 
-1 1:0.42 2:1.1 
-1 1:-0.276 2:1.05 
-1 1:-1.38 2:0.678 
-1 1:-0.0657 2:-1.19 
-1 1:-0.959 2:1.08 
-1 1:-0.402 2:-1.11 
-1 1:-0.594 2:1.24 
-1 1:0.552 2:1.04 
-1 1:1.06 2:0.443 
-1 1:0.612 2:1.37 
-1 1:-0.753 2:1.18 
-1 1:0.0343 2:-1.18 
-1 1:-0.0262 2:-1.18 
-1 1:1.29 2:0.152 
-1 1:-0.961 2:1 
-1 1:0.37 2:1.03 
-1 1:-1.62 2:0.468 
-1 1:-0.843 2:-1.08 
-1 1:1 2:1.17 
-1 1:0.769 2:0.772 
