svm_type c_svc
kernel_type linear
nr_class 2
total_sv 1046
rho -0.0493641
label 1 -1
nr_sv 523 523
SV
1 1:-0.0968482 2:0.0891206 3:0.0859237 4:-0.0795805 5:-0.0695356 6:0.0956662 7:0.096141 8:0.0995254 9:0.0997225 10:0.0631764 11:-0.0108135 12:0.00914745 13:0.089404 14:0.0572156 15:0.08381 16:-0.0517194 17:-0.0133546 18:0.0159317 19:0.0886791 20:0.0312942 21:0.0818186 22:-0.0264573 23:-0.0636341 24:0.037615 25:-0.0873562 26:0.0760978 27:0.0725693 28:-0.0677805 29:-0.0997351 30:0.0996744 31:-0.063555 32:0.00739301 33:-0.083664 34:-0.0974397 35:-0.0196673 36:-0.0997296 37:0.0764332 38:-0.0743542 39:-0.0426876 40:-0.0546694 41:-0.0220814 42:0.0473348 43:-0.095659 44:0.0843361 45:0.0166273 46:-0.0175304 47:0.0482084 48:-0.0610448 49:0.0362409 50:-0.0224598 51:-0.0342259 52:0.0180116 53:0.0574696 54:-0.0983806 55:-0.0999164 56:-0.0691354 57:0.0999079 58:-0.0685172 59:-0.0284497 60:-0.0252233 61:0.0661896 62:-0.0942499 63:0.098632 64:-0.0423918 65:0.0656423 66:-0.0954565 67:0.0999984 68:-0.0688559 69:0.0230931 70:0.0469249 71:-0.0290746 72:-0.0729816 73:0.0667328 74:0.0694444 75:0.0255056 76:-0.0152609 77:-0.0417606 78:-0.0962481 79:0.0583422 80:0.0982603 81:0.0988123 82:0.0964713 83:-0.0796026 84:0.0250344 85:-0.0325431 86:0.0807898 87:0.0305373 88:-0.0829509 89:0.0691562 90:0.0992835 91:0.033051 92:-0.0383632 93:0.0918611 94:0.0938524 95:-0.0522664 96:-0.0135596 97:-0.0778043 98:-0.0559473 99:-0.0505141 100:0.046396
-1 1:-0.0983142 2:0.0927168 3:0.0789035 4:-0.0818879 5:-0.0747897 6:0.0948773 7:0.099999 8:0.0991689 9:0.0984915 10:0.0822393 11:-0.0269355 12:0.0245633 13:0.0883831 14:0.0766456 15:0.0821728 16:-0.0473335 17:-0.0303055 18:0.0123428 19:0.0968757 20:0.00294567 21:0.0997003 22:-0.024142 23:-0.0862631 24:0.0488048 25:-0.0753216 26:0.091554 27:0.0542797 28:-0.0437049 29:-0.0997932 30:0.0996881 31:-0.076529 32:0.0187446 33:-0.0920063 34:-0.0984889 35:-0.0222996 36:-0.0994852 37:0.0788132 38:-0.0870858 39:-0.0150396 40:-0.0579056 41:-0.00129298 42:0.0496416 43:-0.0990688 44:0.0722433 45:-0.00700315 46:0.000173585 47:0.04292 48:-0.0522759 49:0.0484426 50:0.0181599 51:-0.0442372 52:0.0354635 53:0.0316805 54:-0.0937288 55:-0.0999478 56:-0.0652559 57:0.099522 58:-0.0315332 59:-0.0197063 60:-0.045313 61:0.0704242 62:-0.0795132 63:0.0972788 64:-0.037796 65:0.0598021 66:-0.0999964 67:0.0964715 68:-0.0700658 69:0.00453898 70:0.0372561 71:-0.0241333 72:-0.0576599 73:0.0738125 74:0.0833801 75:0.0187277 76:-0.0139916 77:-0.066397 78:-0.095648 79:0.0691049 80:0.0957073 81:0.0957157 82:0.0940126 83:-0.0883996 84:0.041456 85:-0.0229403 86:0.0839211 87:0.011106 88:-0.0942314 89:0.0848365 90:0.0999887 91:0.0358148 92:-0.0426848 93:0.0962811 94:0.0895887 95:-0.0613129 96:-0.0341554 97:-0.0901885 98:-0.0639606 99:-0.0428872 100:0.0581281
-1 1:0.0302167 2:0.067064 3:0.0880275 4:-0.0362821 5:-0.0998791 6:0.0285108 7:-0.026715 8:0.0760152 9:0.0954578 10:-0.0997229 11:0.0412849 12:-0.095069 13:0.00459015 14:-0.0880924 15:-0.0523356 16:-0.0572647 17:0.0540952 18:0.0970373 19:-0.099975 20:0.074449 21:0.0918282 22:-0.0949247 23:0.0197581 24:-0.0539543 25:-0.0615098 26:-0.0866172 27:0.00753268 28:-0.081521 29:-0.0781118 30:0.091829 31:-0.0785607 32:-0.0787316 33:0.0954853 34:-0.0844706 35:0.0957206 36:-0.00463825 37:-0.0964233 38:0.0946976 39:0.093177 40:-0.0350586 41:-0.0682385 42:-0.0974154 43:0.0169831 44:0.00576704 45:-0.0489036 46:-0.0969649 47:0.0999998 48:-0.0973555 49:-0.0692918 50:0.0754656 51:-0.0474419 52:-0.0916834 53:0.0882246 54:-0.0944798 55:-0.046841 56:-0.0155258 57:-0.0798441 58:0.0968022 59:0.0166168 60:0.0977792 61:-0.0652698 62:0.0320149 63:-0.00877682 64:-0.0870221 65:0.0947154 66:0.0727022 67:0.00612394 68:-0.0304869 69:0.0999544 70:0.0925845 71:-0.0772397 72:-0.041025 73:-0.0994894 74:0.0465233 75:-0.0147028 76:0.0174952 77:0.0477219 78:-0.0254618 79:0.000637347 80:0.0922096 81:0.0927241 82:0.053607 83:-0.00593554 84:-0.001276 85:-0.0999265 86:0.0942655 87:0.0323758 88:0.0752286 89:-0.0879553 90:0.0805561 91:-0.0547907 92:-0.0710809 93:-0.0306329 94:0.0995147 95:0.039177 96:0.0972311 97:0.0852553 98:0.0596777 99:-0.0999935 100:-0.0674524
-1 1:0.0586241 2:0.0701169 3:0.0843233 4:-0.0285159 5:-0.0963969 6:-0.00838988 7:-0.0243003 8:0.0607755 9:0.0867651 10:-0.0998711 11:0.0300078 12:-0.0978009 13:-0.0264901 14:-0.0891859 15:-0.0843216 16:-0.0520048 17:0.0462347 18:0.0999988 19:-0.0953572 20:0.049516 21:0.0992079 22:-0.0759415 23:-0.0197164 24:-0.0584007 25:-0.0583576 26:-0.0884811 27:-0.0137951 28:-0.0861539 29:-0.0683018 30:0.0858765 31:-0.094913 32:-0.0831654 33:0.099994 34:-0.0841969 35:0.0701913 36:0.00567076 37:-0.0970722 38:0.0991912 39:0.0981552 40:-0.0354647 41:-0.0492121 42:-0.0705198 43:0.0293336 44:-0.0481556 45:-0.0867484 46:-0.0974089 47:0.0982263 48:-0.0975879 49:-0.0751216 50:0.0930529 51:-0.0648344 52:-0.0940569 53:0.0676683 54:-0.0793994 55:-0.0323912 56:0.00868495 57:-0.0997801 58:0.0999544 59:0.0416641 60:0.0919347 61:-0.0839251 62:0.0407839 63:-0.0555155 64:-0.0645973 65:0.0953255 66:0.0779535 67:0.00774279 68:-0.0216629 69:0.0999882 70:0.0930725 71:-0.0816638 72:-0.0244034 73:-0.0949644 74:0.0961225 75:-0.0356498 76:0.0278947 77:0.0268981 78:0.0125636 79:0.00667055 80:0.0928502 81:0.0954259 82:0.0240133 83:-0.00928768 84:0.0193232 85:-0.0993001 86:0.0984489 87:-0.00114207 88:0.080353 89:-0.0917643 90:0.0541413 91:-0.069897 92:-0.0824904 93:-0.0469201 94:0.0979417 95:-0.0282908 96:0.0982565 97:0.0914357 98:0.0720339 99:-0.0988632 100:-0.0746412
-1 1:0.0439393 2:0.0616443 3:0.0807389 4:-0.0307731 5:-0.0999308 6:0.0165798 7:-0.0499107 8:0.0743338 9:0.0964829 10:-0.0974951 11:0.0521772 12:-0.099022 13:-0.00155543 14:-0.0971922 15:-0.0598776 16:-0.0597891 17:0.0653196 18:0.0989592 19:-0.0960859 20:0.0856133 21:0.0971849 22:-0.0902783 23:-0.0234205 24:-0.0645147 25:-0.0438983 26:-0.0971897 27:-0.0204143 28:-0.0643871 29:-0.0751584 30:0.0904825 31:-0.0732748 32:-0.085956 33:0.0998627 34:-0.0816285 35:0.0900382 36:0.0145353 37:-0.0995162 38:0.0997665 39:0.0998735 40:-0.0316835 41:-0.047152 42:-0.0921084 43:0.0346844 44:0.00954885 45:-0.0768427 46:-0.0997252 47:0.0994274 48:-0.0991917 49:-0.0792522 50:0.097131 51:-0.0432266 52:-0.097531 53:0.0953747 54:-0.0968437 55:-0.0368147 56:-0.0141052 57:-0.0903911 58:0.0973552 59:0.0150394 60:0.0893805 61:-0.0745105 62:0.0600304 63:-0.0154439 64:-0.0792848 65:0.0968762 66:0.0896788 67:-0.0179581 68:-0.0266641 69:0.0987419 70:0.09601 71:-0.0813501 72:-0.0183393 73:-0.0994675 74:0.0784597 75:-0.0138532 76:0.019065 77:0.0657087 78:-0.0136176 79:-0.0109633 80:0.0880397 81:0.088027 82:0.0529143 83:0.00860641 84:-0.0122574 85:-0.099528 86:0.0939594 87:0.0052253 88:0.0895716 89:-0.0971856 90:0.0807378 91:-0.0612038 92:-0.0712583 93:-0.0464462 94:0.0999706 95:0.0117326 96:0.0999747 97:0.095664 98:0.0701396 99:-0.0991626 100:-0.0781621
-1 1:0.0613227 2:0.0627984 3:0.076997 4:-0.0254456 5:-0.0988913 6:-0.00662793 7:-0.0516022 8:0.0653852 9:0.0925925 10:-0.094364 11:0.0475539 12:-0.0998475 13:-0.0204472 14:-0.0982141 15:-0.0793549 16:-0.0571766 17:0.0627278 18:0.099991 19:-0.0871746 20:0.0762153 21:0.0805598 22:-0.0773374 23:-0.0501783 24:-0.0681749 25:-0.0392628 26:-0.0984444 27:-0.0359329 28:-0.0655345 29:-0.0689229 30:0.0867748 31:-0.0848105 32:-0.0889189 33:0.0986823 34:-0.0810549 35:0.0724362 36:0.0229609 37:-0.0975738 38:0.0996599 39:0.090716 40:-0.0314626 41:-0.0313359 42:-0.0733033 43:0.0437393 44:-0.0222104 45:-0.0945257 46:-0.0999207 47:0.0973778 48:-0.0994256 49:-0.0832754 50:0.0999763 51:-0.0533719 52:-0.0987227 53:0.0888875 54:-0.0910568 55:-0.0267389 56:0.000121061 57:-0.0996941 58:0.0895823 59:0.0296634 60:0.0818837 61:-0.0853837 62:0.0675406 63:-0.0438934 64:-0.0637806 65:0.0973899 66:0.0931745 67:-0.0202462 68:-0.0209923 69:0.0977873 70:0.096594 71:-0.0842323 72:-0.00500223 73:-0.0930776 74:0.0989647 75:-0.0260555 76:0.025314 77:0.0577862 78:0.0101862 79:-0.00904487 80:0.0878829 81:0.0894793 82:0.0360743 83:0.00862649 84:-0.00176469 85:-0.0978778 86:0.0967528 87:-0.0182001 88:0.0929246 89:-0.0988417 90:0.0665966 91:-0.0704572 92:-0.0781779 93:-0.0571967 94:0.0997197 95:-0.0315159 96:0.0999398 97:0.098312 98:0.0778051 99:-0.0974491 100:-0.0829282
-1 1:0.0603049 2:0.0617366 3:0.0763163 4:-0.025504 5:-0.0992996 6:-0.0044721 7:-0.054628 8:0.0667296 9:0.0935725 10:-0.093448 11:0.0500372 12:-0.0999085 13:-0.018126 14:-0.0987539 15:-0.0772568 16:-0.0580309 17:0.0648572 18:0.0999999 19:-0.086844 20:0.0797963 21:0.0786845 22:-0.0787666 23:-0.0516523 24:-0.0690371 25:-0.0370997 26:-0.0989806 27:-0.0373633 28:-0.062306 29:-0.0695408 30:0.0872147 31:-0.0822976 32:-0.089336 33:0.0986627 34:-0.0806898 35:0.074462 36:0.0244068 37:-0.0981732 38:0.0995361 39:0.0907783 40:-0.0309731 41:-0.0303546 42:-0.0755726 43:0.044754 44:-0.0161632 45:-0.0943146 46:-0.099982 47:0.0974911 48:-0.099552 49:-0.0838868 50:0.0998755 51:-0.0510204 52:-0.0989972 53:0.0914118 54:-0.0927532 55:-0.0268733 56:-0.00214505 57:-0.0993958 58:0.0879709 59:0.0269132 60:0.0810787 61:-0.0847668 62:0.0698895 63:-0.0401024 64:-0.0651013 65:0.0975687 66:0.0942621 67:-0.0235126 68:-0.0213825 69:0.0973431 70:0.0969068 71:-0.0843139 72:-0.00364818 73:-0.0936346 74:0.0985479 75:-0.0238219 76:0.0244713 77:0.0619229 78:0.00790984 79:-0.0111744 80:0.0871845 81:0.0884447 82:0.0390038 83:0.0108718 84:-0.00530705 85:-0.0978367 86:0.0962884 87:-0.0183997 88:0.0938458 89:-0.0991922 90:0.0693291 91:-0.0697975 92:-0.0770554 93:-0.0575816 94:0.0998514 95:-0.0284452 96:0.0998327 97:0.0986588 98:0.0778984 99:-0.0974167 100:-0.0835001
1 1:0.0611111 2:0.0613043 3:0.0756606 4:-0.0251023 5:-0.0993009 6:-0.00527668 7:-0.0562189 8:0.0666364 9:0.0936939 10:-0.0926365 11:0.0508745 12:-0.0999554 13:-0.0184832 14:-0.0990379 15:-0.0776007 16:-0.0582385 17:0.0656813 18:0.0999967 19:-0.0857413 20:0.0807044 21:0.0756996 22:-0.078261 23:-0.0543307 24:-0.0697385 25:-0.0356485 26:-0.0992632 27:-0.0392592 28:-0.0607759 29:-0.0693242 30:0.087114 31:-0.0818836 32:-0.0897551 33:0.0983567 34:-0.0804625 35:0.0737761 36:0.0257797 37:-0.0979542 38:0.0993366 39:0.0894777 40:-0.0307146 41:-0.0285514 42:-0.0748347 43:0.0459526 44:-0.0157034 45:-0.0951423 46:-0.0999982 47:0.0973252 48:-0.0996224 49:-0.0844809 50:0.0996414 51:-0.0506546 52:-0.0991851 53:0.0920111 54:-0.0930202 55:-0.0261178 56:-0.00211445 57:-0.0995354 58:0.086221 59:0.0267159 60:0.0799792 61:-0.0852339 62:0.071565 63:-0.0404197 64:-0.0643811 65:0.0976914 66:0.0949824 67:-0.025288 68:-0.0211169 69:0.0970101 70:0.0970968 71:-0.0845745 72:-0.00190654 73:-0.0931311 74:0.0989985 75:-0.0236914 76:0.024555 77:0.0632711 78:0.00869652 79:-0.012065 80:0.0868217 81:0.08804 82:0.0390423 83:0.0119741 84:-0.00620326 85:-0.0976308 86:0.0962557 87:-0.0203469 88:0.0944933 89:-0.0994174 90:0.06943 91:-0.0701778 92:-0.0770309 93:-0.0585904 94:0.099882 95:-0.0302902 96:0.0997277 97:0.0989479 98:0.0785141 99:-0.097222 100:-0.0841284
-1 1:0.0338809 2:0.0612821 3:0.0828186 4:-0.0336417 5:-0.099137 6:0.0284768 7:-0.0481705 8:0.0784701 9:0.0978782 10:-0.0987946 11:0.0540359 12:-0.0982068 13:0.00826875 14:-0.0963222 15:-0.0479426 16:-0.0609829 17:0.0661776 18:0.0974149 19:-0.0988458 20:0.0891825 21:0.0999922 22:-0.0949953 23:-0.00732473 24:-0.0622019 25:-0.0469267 26:-0.0961112 27:-0.0112544 28:-0.0645809 29:-0.0781861 30:0.0921812 31:-0.0666785 32:-0.0840652 33:0.0985482 34:-0.0820314 35:0.0958959 36:0.00948233 37:-0.0964847 38:0.098806 39:0.0987234 40:-0.0319304 41:-0.0554848 42:-0.0976386 43:0.0292901 44:0.0252329 45:-0.0628365 46:-0.0995167 47:0.0999152 48:-0.0990015 49:-0.0766994 50:0.092452 51:-0.0380631 52:-0.0965936 53:0.0974388 54:-0.0986014 55:-0.0421398 56:-0.0212358 57:-0.0806064 58:0.0995463 59:0.00758843 60:0.0928232 61:-0.0676896 62:0.0549691 63:-0.000160611 64:-0.0859249 65:0.0965213 66:0.0870806 67:-0.015848 68:-0.0296398 69:0.099219 70:0.0955772 71:-0.0796535 72:-0.0258676 73:-0.0999142 74:0.0581889 75:-0.0076484 76:0.0158233 77:0.0688169 78:-0.0258649 79:-0.0114666 80:0.0883005 81:0.0874773 82:0.0607467 83:0.00801631 84:-0.0170642 85:-0.0999324 86:0.0922517 87:0.0180875 88:0.0871493 89:-0.0957909 90:0.0865322 91:-0.0559219 92:-0.0674673 93:-0.0401145 94:0.0999999 95:0.0342615 96:0.0998211 97:0.093522 98:0.0655107 99:-0.0997113 100:-0.0751551
1 1:0.0717373 2:0.0640267 3:0.0747251 4:-0.0218971 5:-0.0959731 6:-0.0226351 7:-0.0512881 8:0.0583109 9:0.0887504 10:-0.0921519 11:0.0432822 12:-0.0999984 13:-0.033454 14:-0.0985213 15:-0.0896357 16:-0.0550371 17:0.0599811 18:0.0992566 19:-0.0790014 20:0.067061 21:0.0638306 22:-0.0656057 23:-0.0649243 24:-0.0700878 25:-0.0371855 26:-0.0988421 27:-0.0449483 28:-0.067714 29:-0.0642455 30:0.0838272 31:-0.0915836 32:-0.0904946 33:0.0954666 34:-0.0808451 35:0.0559354 36:0.0277148 37:-0.0903648 38:0.0984797 39:0.0773988 40:-0.031544 41:-0.0209454 42:-0.0547899 43:0.0489725 44:-0.0444891 45:-0.0995666 46:-0.0999634 47:0.0951792 48:-0.0995008 49:-0.0854222 50:0.0983894 51:-0.0606327 52:-0.0991881 53:0.0817214 54:-0.0847381 55:-0.0199281 56:0.0104656 57:-0.0984924 58:0.0828422 59:0.0400856 60:0.0764478 61:-0.0911922 62:0.0710586 63:-0.062029 64:-0.0512042 65:0.0976211 66:0.094624 67:-0.0202237 68:-0.0170682 69:0.0972439 70:0.0968092 71:-0.0859585 72:0.00314325 73:-0.084812 74:0.0977863 75:-0.0348146 76:0.0297225 77:0.0502459 78:0.0265165 79:-0.00680554 80:0.0880974 81:0.0908221 82:0.0229348 83:0.00760202 84:0.00673568 85:-0.096195 86:0.0982735 87:-0.0329421 88:0.094389 89:-0.0994155 90:0.0542921 91:-0.0762073 92:-0.0827053 93:-0.0635693 94:0.0993123 95:-0.0582301 96:0.0998118 97:0.0992759 98:0.0822291 99:-0.0958552 100:-0.0855054
-1 1:0.0702915 2:0.0811003 3:0.0907625 4:-0.0279722 5:-0.0799075 6:-0.0338747 7:0.019951 8:0.0420502 9:0.0659194 10:-0.0959453 11:-0.00484253 12:-0.0932958 13:-0.0528548 14:-0.065185 15:-0.0987893 16:-0.0405558 17:0.0136298 18:0.0988756 19:-0.0977092 20:-0.019007 21:0.0962629 22:-0.055241 23:0.00249616 24:-0.0456566 25:-0.0793708 26:-0.0615876 27:0.00588457 28:-0.0999959 29:-0.0603656 30:0.0798176 31:-0.0970292 32:-0.076126 33:0.0999935 34:-0.0881347 35:0.0404091 36:-0.0131466 37:-0.0826846 38:0.095377 39:0.0980465 40:-0.0414056 41:-0.0604423 42:-0.036188 43:0.0152608 44:-0.0952288 45:-0.0899196 46:-0.0882609 47:0.0969564 48:-0.0929686 49:-0.0650783 50:0.0741816 51:-0.0865188 52:-0.0838401 53:0.00197356 54:-0.0375966 55:-0.0310804 56:0.0356892 57:-0.095 58:0.0915267 59:0.0705048 60:0.0974526 61:-0.0907047 62:0.00133115 63:-0.0891106 64:-0.0474415 65:0.0918025 66:0.048082 67:0.0475913 68:-0.0169669 69:0.0971479 70:0.0863029 71:-0.0804558 72:-0.0407903 73:-0.0875874 74:0.0999392 75:-0.0603699 76:0.0379359 77:-0.0360503 78:0.0392325 79:0.0327066 80:0.0980053 81:0.0999759 82:-0.0145037 83:-0.0365834 84:0.0591745 85:-0.0995971 86:0.099911 87:0.00218242 88:0.0571921 89:-0.0748193 90:0.0114058 91:-0.0774098 92:-0.092788 93:-0.0412777 94:0.0897972 95:-0.062391 96:0.0888016 97:0.0783442 98:0.0704631 99:-0.0991599 100:-0.065279
1 1:0.0753195 2:0.0730809 3:0.0822546 4:-0.0231702 5:-0.0870724 6:-0.0348176 7:-0.018946 8:0.0474136 9:0.0768626 10:-0.099442 11:0.0192656 12:-0.0988269 13:-0.0481683 14:-0.0883721 15:-0.0973647 16:-0.0474046 17:0.038064 18:0.0983177 19:-0.0869106 20:0.0240059 21:0.0901397 22:-0.0547381 23:-0.0430287 24:-0.0602625 25:-0.0582608 26:-0.0879941 27:-0.0261279 28:-0.0908622 29:-0.0602343 30:0.080527 31:-0.0999185 32:-0.0853475 33:0.0976376 34:-0.0843717 35:0.040199 36:0.0109294 37:-0.081725 38:0.099996 39:0.0842126 40:-0.0362492 41:-0.0359785 42:-0.0364568 43:0.0361837 44:-0.0808418 45:-0.0988057 46:-0.0971841 47:0.0949752 48:-0.0974442 49:-0.0779701 50:0.098418 51:-0.0767875 52:-0.0948207 53:0.0440366 54:-0.0611806 55:-0.0221523 56:0.0269586 57:-0.0938064 58:0.0983527 59:0.0593561 60:0.0868696 61:-0.0931362 62:0.0433373 63:-0.0823035 64:-0.0433575 65:0.0954596 66:0.0791821 67:0.0123813 68:-0.0152582 69:0.0999713 70:0.092907 71:-0.0842838 72:-0.0143164 73:-0.0816801 74:0.0959115 75:-0.0508725 76:0.0355239 77:0.0067048 78:0.0394768 79:0.0129511 80:0.0938088 81:0.0974578 82:-0.000664039 83:-0.0139091 84:0.0361991 85:-0.0975761 86:0.0998841 87:-0.0234265 88:0.0819209 89:-0.0929577 90:0.0285438 91:-0.0791428 92:-0.0895061 93:-0.0565704 94:0.0956872 95:-0.0703597 96:0.0983981 97:0.0939482 98:0.0791022 99:-0.0970786 100:-0.0783192
1 1:0.0754249 2:0.0687122 3:0.0780001 4:-0.0217573 5:-0.0912115 6:-0.0317293 7:-0.0363606 8:0.0516246 9:0.0825032 10:-0.0963194 11:0.03115 12:-0.0997851 13:-0.0431638 14:-0.0949708 15:-0.095253 16:-0.050989 17:0.049309 18:0.0984879 19:-0.0812078 20:0.0455511 21:0.0748716 22:-0.0577246 23:-0.0580935 24:-0.0659657 25:-0.0471501 26:-0.0952212 27:-0.0380896 28:-0.080671 29:-0.0613234 30:0.0816117 31:-0.0979 32:-0.0885241 33:0.0957863 34:-0.0825221 35:0.0446269 36:0.0208037 37:-0.0841493 38:0.0994335 39:0.0775632 40:-0.0338114 41:-0.0260171 42:-0.0417379 43:0.0441054 44:-0.0673867 45:-0.0997387 46:-0.0992231 47:0.0945347 48:-0.0987431 49:-0.082523 50:0.0999098 51:-0.0700888 52:-0.0977213 53:0.0635984 54:-0.0727817 55:-0.0195508 56:0.020513 57:-0.0951616 58:0.0910588 59:0.0515801 60:0.0806586 61:-0.0931296 62:0.0595348 63:-0.0755085 64:-0.0446505 65:0.0967326 66:0.0888601 67:-0.00475354 68:-0.0153801 69:0.0990237 70:0.0951929 71:-0.085531 72:-0.00348387 73:-0.0811617 74:0.0948796 75:-0.0443644 76:0.0334069 77:0.0284972 78:0.0360363 79:0.00308467 80:0.0910755 81:0.0946915 82:0.00891204 83:-0.00287126 84:0.0227465 85:-0.0965152 86:0.09944 87:-0.0314985 88:0.0896788 89:-0.0974313 90:0.039498 91:-0.0787322 92:-0.0869394 93:-0.0616238 94:0.0977884 95:-0.0689104 96:0.0998868 97:0.0976712 98:0.0816716 99:-0.09611 100:-0.0828125
-1 1:0.062395 2:0.059441 3:0.0734753 4:-0.0241354 5:-0.0995368 6:-0.00576201 7:-0.0621209 8:0.0673474 9:0.0946263 10:-0.0895787 11:0.0546542 12:-0.0999936 13:-0.0177273 14:-0.0997654 15:-0.0769447 16:-0.0593559 17:0.0691435 18:0.0999866 19:-0.0825314 20:0.0851024 21:0.0658607 22:-0.0779971 23:-0.0617601 24:-0.0720531 25:-0.030396 26:-0.099904 27:-0.044914 28:-0.0543647 29:-0.0692188 30:0.087172 31:-0.0788717 32:-0.0910427 33:0.0974338 34:-0.0796217 35:0.0734775 36:0.030206 37:-0.097806 38:0.098517 39:0.0859201 40:-0.0297169 41:-0.0232774 42:-0.0745735 43:0.0496184 44:-0.0102086 45:-0.0968235 46:-0.0999145 47:0.0969742 48:-0.0998285 49:-0.0863264 50:0.0981639 51:-0.0480267 52:-0.0996823 53:0.0948203 54:-0.0946953 55:-0.0243137 56:-0.00364586 57:-0.0996389 58:0.0798891 59:0.0242513 60:0.0764723 61:-0.0859521 62:0.0770683 63:-0.038493 64:-0.0635031 65:0.0980972 66:0.0971304 67:-0.0319596 68:-0.0207279 69:0.0956822 70:0.0977363 71:-0.0852749 72:0.0034214 73:-0.0922204 74:0.0996139 75:-0.0217691 76:0.0241657 77:0.0692569 78:0.0090509 79:-0.015795 80:0.0853623 81:0.0861929 82:0.0411934 83:0.0163121 84:-0.0109514 85:-0.0970402 86:0.0958199 87:-0.0253296 88:0.0964604 89:-0.0999118 90:0.0715545 91:-0.0706588 92:-0.0761564 93:-0.0613427 94:0.0999815 95:-0.0327125 96:0.0991533 97:0.0996482 98:0.0800866 99:-0.0966774 100:-0.0860293
-1 1:0.0732868 2:0.0608032 3:0.0709222 4:-0.0203527 5:-0.0971143 6:-0.0227973 7:-0.0617793 8:0.0599563 9:0.0910241 10:-0.0865042 11:0.0502881 12:-0.0997967 13:-0.031657 14:-0.0998712 15:-0.088448 16:-0.0571132 17:0.0664009 18:0.0991319 19:-0.0726855 20:0.0769091 21:0.0443765 22:-0.0655835 23:-0.0756299 24:-0.0739641 25:-0.0281417 26:-0.099983 27:-0.0539943 28:-0.0569882 29:-0.0642519 30:0.0840675 31:-0.0874068 32:-0.0925403 33:0.0930344 34:-0.0793963 35:0.0560508 36:0.035121 37:-0.0902234 38:0.0963753 39:0.0693764 40:-0.0298102 41:-0.0120367 42:-0.0550689 43:0.0549528 44:-0.0347465 45:-0.0999999 46:-0.0998506 47:0.094472 48:-0.0998699 49:-0.0883851 50:0.0936128 51:-0.0560715 52:-0.0998967 53:0.0891145 54:-0.0891724 55:-0.0170335 56:0.00738334 57:-0.0983273 58:0.0705821 59:0.0355568 60:0.0700502 61:-0.091952 62:0.0802423 63:-0.0584048 64:-0.0500493 65:0.0983042 66:0.0980911 67:-0.0318956 68:-0.0165519 69:0.0948995 70:0.097919 71:-0.0870455 72:0.0120297 73:-0.0829383 74:0.0958443 75:-0.031215 76:0.0288725 77:0.0620314 78:0.0264414 79:-0.0134073 80:0.0856207 81:0.0878315 82:0.0274395 83:0.0152053 84:-0.00189365 85:-0.0949671 86:0.0976726 87:-0.0406128 88:0.0975296 89:-0.0999989 90:0.0591104 91:-0.0767373 92:-0.0811682 93:-0.0678197 94:0.0997915 95:-0.060781 96:0.0987507 97:0.0999862 98:0.0845327 99:-0.0947672 100:-0.088501
-1 1:0.0780527 2:0.0646195 3:0.0728805 4:-0.019389 5:-0.0931336 6:-0.033083 7:-0.05185 8:0.0534156 9:0.0859409 10:-0.0900853 11:0.0408716 12:-0.0999471 13:-0.0417338 14:-0.0988453 15:-0.0945924 16:-0.05373 17:0.0585732 18:0.0980932 19:-0.0720603 20:0.0610569 21:0.048975 22:-0.0566638 23:-0.074379 24:-0.071621 25:-0.0351469 26:-0.0992003 27:-0.0513936 28:-0.0684381 29:-0.0609635 30:0.081716 31:-0.0948471 32:-0.0916324 33:0.0920579 34:-0.0806023 35:0.0433514 36:0.0313937 37:-0.0829979 38:0.0970582 39:0.0650325 40:-0.0314762 41:-0.0131939 42:-0.0405055 43:0.0528119 44:-0.057505 45:-0.0997251 46:-0.099992 47:0.0932847 48:-0.0995806 49:-0.086997 50:0.095579 51:-0.0649417 52:-0.0995014 53:0.0766812 54:-0.0800257 55:-0.0150936 56:0.0171369 57:-0.0941504 58:0.0766071 59:0.0465042 60:0.0719949 61:-0.0943467 62:0.0740005 63:-0.0724291 64:-0.0419768 65:0.0978208 66:0.0957789 67:-0.0210466 68:-0.014382 69:0.0966938 70:0.0970341 71:-0.0871405 72:0.0092307 73:-0.0774812 74:0.0898472 75:-0.0402862 76:0.0325876 77:0.0458545 78:0.0370888 79:-0.00576957 80:0.0880732 81:0.0914847 82:0.0141827 83:0.0074544 84:0.0118109 85:-0.0947031 86:0.098999 87:-0.0429559 88:0.095521 89:-0.0997514 90:0.0456538 91:-0.0797978 92:-0.0853768 93:-0.0679145 94:0.098992 95:-0.0735084 96:0.0996294 97:0.0997524 98:0.085104 99:-0.0944915 100:-0.0873365
1 1:0.0785 2:0.0646803 3:0.0727563 4:-0.0192045 5:-0.0928785 6:-0.0338664 7:-0.0518385 8:0.0530249 9:0.0857008 10:-0.0899456 11:0.0406499 12:-0.0999384 13:-0.0423624 14:-0.0988593 15:-0.0949116 16:-0.053619 17:0.0584313 18:0.0979833 19:-0.0715292 20:0.0605255 21:0.0478694 22:-0.0559491 23:-0.0750005 24:-0.0717174 25:-0.0350352 26:-0.0992167 27:-0.0518308 28:-0.0685432 29:-0.0607081 30:0.0815485 31:-0.0950792 32:-0.0917064 33:0.0917742 34:-0.0805909 35:0.0423477 36:0.0316362 37:-0.0823575 38:0.0969423 39:0.0640436 40:-0.0314797 41:-0.0126421 42:-0.0393629 43:0.0530715 44:-0.0584923 45:-0.0996263 46:-0.0999928 47:0.0931315 48:-0.0995842 49:-0.0870992 50:0.0953353 51:-0.0652844 52:-0.0995183 53:0.0762276 54:-0.079615 55:-0.0147369 56:0.0176593 57:-0.0937064 58:0.0761581 59:0.0470072 60:0.071674 61:-0.094557 62:0.0741727 63:-0.0731829 64:-0.0412574 65:0.0978322 66:0.0958425 67:-0.0210504 68:-0.0141787 69:0.0966607 70:0.097045 71:-0.0872236 72:0.00965062 73:-0.0768797 74:0.0890316 75:-0.0407163 76:0.0328096 77:0.0454505 78:0.03788 79:-0.00565728 80:0.0880832 81:0.0915478 82:0.0134851 83:0.007405 84:0.0122406 85:-0.094586 86:0.0990485 87:-0.0436651 88:0.0955857 89:-0.0997674 90:0.0449476 91:-0.0800592 92:-0.0855795 93:-0.068217 94:0.0989612 95:-0.0745473 96:0.0996172 97:0.0997751 98:0.0853033 99:-0.0943854 100:-0.087457
-1 1:0.0785084 2:0.0640938 3:0.072151 4:-0.0190302 5:-0.0932948 6:-0.0334786 7:-0.0537434 8:0.0535352 9:0.0862929 10:-0.089029 11:0.0420346 12:-0.0998945 13:-0.0417262 14:-0.0991514 15:-0.0945958 16:-0.0540487 17:0.0596804 18:0.0980078 19:-0.0706151 20:0.0627725 21:0.0448482 22:-0.0563246 23:-0.0764084 24:-0.0723472 25:-0.0335162 26:-0.0994758 27:-0.0531566 28:-0.0667091 29:-0.0608448 30:0.0816822 31:-0.0944261 32:-0.0920202 33:0.0914121 34:-0.0803446 35:0.042903 36:0.0328044 37:-0.0826661 38:0.0965834 39:0.0629689 40:-0.0311742 41:-0.0113608 42:-0.0400237 43:0.0539725 44:-0.056441 45:-0.0995342 46:-0.0999998 47:0.0930706 48:-0.099657 49:-0.0875583 50:0.0944796 51:-0.0643511 52:-0.0996415 53:0.0780651 54:-0.0807757 55:-0.0144148 56:0.016847 57:-0.0938879 58:0.0741712 59:0.0459796 60:0.0706856 61:-0.0945544 62:0.075721 63:-0.0722353 64:-0.0414256 65:0.0979487 66:0.0964545 67:-0.0231194 68:-0.0141956 69:0.0962841 70:0.0972431 71:-0.0873652 72:0.0109843 73:-0.0768143 74:0.0888441 75:-0.0398752 76:0.0325443 77:0.0478786 78:0.0374478 79:-0.00687941 80:0.0876587 81:0.0910363 82:0.014664 83:0.00877034 84:0.0105068 85:-0.0944086 86:0.0989474 87:-0.0445902 88:0.0961216 89:-0.0998767 90:0.0462358 91:-0.0800074 92:-0.0852268 93:-0.0687785 94:0.0991054 95:-0.0743718 96:0.099462 97:0.0998719 98:0.085579 99:-0.0942322 100:-0.0879073
1 1:0.0781824 2:0.0628757 3:0.071036 4:-0.0188273 5:-0.0942613 6:-0.0321068 7:-0.0574371 8:0.0548347 9:0.0876026 10:-0.0872276 11:0.0449093 12:-0.0997866 13:-0.0399757 14:-0.0995959 15:-0.093679 16:-0.0549784 17:0.0622124 18:0.0981388 19:-0.0691974 20:0.0674423 21:0.0396182 22:-0.0576073 23:-0.0786455 24:-0.0735026 25:-0.0305754 26:-0.0998298 27:-0.0554133 28:-0.0628771 29:-0.06131 30:0.0820726 31:-0.0928089 32:-0.0925696 33:0.090906 34:-0.0798628 35:0.0447598 36:0.0349153 37:-0.0837496 38:0.0959204 39:0.0615947 40:-0.0305668 41:-0.00924801 42:-0.0421927 43:0.0555402 44:-0.0514877 45:-0.0994279 46:-0.0999577 47:0.0930688 48:-0.0997785 49:-0.0883686 50:0.0928187 51:-0.062207 52:-0.0998241 53:0.0818161 54:-0.083271 55:-0.0140518 56:0.0148356 57:-0.0945665 58:0.0704272 59:0.0435376 60:0.0689476 61:-0.0943883 62:0.0785372 63:-0.0697191 64:-0.0423087 65:0.0981614 66:0.0974853 67:-0.0271748 68:-0.0143848 69:0.0955114 70:0.097607 71:-0.0875802 72:0.0132939 73:-0.0771488 74:0.089113 75:-0.037869 76:0.0318483 77:0.0528666 78:0.0359809 79:-0.00937799 80:0.0867911 81:0.0899306 82:0.0175206 83:0.0115019 84:0.00673939 85:-0.0941439 86:0.098689 87:-0.045869 88:0.0970401 89:-0.0999891 90:0.0492833 91:-0.0797037 92:-0.0843576 93:-0.0696496 94:0.0993775 95:-0.0732209 96:0.0990924 97:0.0999787 98:0.0859682 99:-0.094008 100:-0.088687
1 1:0.0571222 2:0.0554966 3:0.0714079 4:-0.0249063 5:-0.0999589 6:0.00412115 7:-0.0711048 8:0.0726854 9:0.0974963 10:-0.0857554 11:0.0630102 12:-0.0998983 13:-0.00766655 14:-0.099943 15:-0.0669036 16:-0.0624748 17:0.0759217 18:0.0999127 19:-0.082612 20:0.0943115 21:0.0608622 22:-0.0840843 23:-0.0639579 24:-0.074473 25:-0.0231659 26:-0.099785 27:-0.0480751 28:-0.0415803 29:-0.0719776 30:0.0890236 31:-0.0667814 32:-0.092054 33:0.0978354 34:-0.0783775 35:0.0819671 36:0.0341895 37:-0.0997159 38:0.0979243 39:0.0881698 40:-0.0280448 41:-0.0215984 42:-0.0838937 43:0.0520703 44:0.0142924 45:-0.0951392 46:-0.0994024 47:0.0976688 48:-0.0999845 49:-0.0878479 50:0.0966135 51:-0.0383796 52:-0.0999722 53:0.0994566 54:-0.0987135 55:-0.025867 56:-0.0129119 57:-0.0973061 58:0.0737505 59:0.0130114 60:0.0743554 61:-0.0827508 62:0.0830911 63:-0.0218064 64:-0.0696935 65:0.0985564 66:0.098993 67:-0.0424054 68:-0.0226715 69:0.0936202 70:0.0985085 71:-0.0852626 72:0.00665396 73:-0.0950818 74:0.0972541 75:-0.0126625 76:0.0205896 77:0.0815324 78:-0.00132011 79:-0.0232103 80:0.0826909 81:0.0817942 82:0.0525401 83:0.0239052 84:-0.0240352 85:-0.0971524 86:0.0935486 87:-0.0235917 88:0.0982571 89:-0.0999373 90:0.0812139 91:-0.067415 92:-0.0712794 93:-0.0615665 94:0.0998424 95:-0.0175313 96:0.0979316 97:0.099964 98:0.0796668 99:-0.0968116 100:-0.0873706
-1 1:0.0472351 2:0.0562061 3:0.0750614 4:-0.0283012 5:-0.0994105 6:0.016278 7:-0.0667285 8:0.0765085 9:0.09836 10:-0.0908402 11:0.0627477 12:-0.0999649 13:0.00151923 14:-0.099923 15:-0.0564443 16:-0.0630155 17:0.0749349 18:0.0991808 19:-0.0904942 20:0.095207 21:0.081507 22:-0.0902424 23:-0.0464786 24:-0.0712148 25:-0.0293719 26:-0.0999819 27:-0.0367103 28:-0.045743 29:-0.0751588 30:0.0907824 31:-0.0620256 32:-0.0899006 33:0.0997731 34:-0.0792812 35:0.0901172 36:0.0269991 37:-0.0995718 38:0.0996155 39:0.097034 40:-0.0288492 41:-0.0336563 42:-0.0922997 43:0.0451687 44:0.026529 45:-0.0858017 46:-0.0998244 47:0.0989704 48:-0.0998881 49:-0.0848393 50:0.099857 51:-0.0348021 52:-0.0996074 53:0.0997434 54:-0.0994484 55:-0.0322887 56:-0.019066 57:-0.0910518 58:0.0854919 59:0.00712541 60:0.0814513 61:-0.076551 62:0.0767039 63:-0.00812888 64:-0.0779132 65:0.0981075 66:0.0971341 67:-0.0369147 68:-0.0258308 69:0.0955825 70:0.0979359 71:-0.08336 72:-0.00387023 73:-0.0987254 74:0.0857791 75:-0.00768304 76:0.0176476 77:0.0813268 78:-0.0137091 79:-0.0216441 80:0.0838768 81:0.0823538 82:0.0591814 83:0.0209567 84:-0.0260634 85:-0.0986303 86:0.0921716 87:-0.0082681 88:0.0962478 89:-0.0998563 90:0.0859814 91:-0.0622741 92:-0.0681306 93:-0.0544068 94:0.0998091 95:0.00650931 96:0.0990804 97:0.0992075 98:0.0748419 99:-0.0982299 100:-0.0839697
-1 1:0.0803389 2:0.0662842 3:0.0736224 4:-0.018824 5:-0.0906561 6:-0.0380606 7:-0.0472586 8:0.0501411 9:0.0831915 10:-0.091384 11:0.0364339 12:-0.0999782 13:-0.0464648 14:-0.098092 15:-0.096769 16:-0.0521373 17:0.0548514 18:0.0974174 19:-0.0713713 20:0.0527137 21:0.0500946 22:-0.0519623 23:-0.0743124 24:-0.0706475 25:-0.0380623 26:-0.0985117 27:-0.0505853 28:-0.0730626 29:-0.0592919 30:0.08051 31:-0.0972296 32:-0.0912793 33:0.0913863 34:-0.08111 35:0.0366954 36:0.0299399 37:-0.0787369 38:0.0972487 39:0.0622803 40:-0.0322034 41:-0.0132701 42:-0.0328577 43:0.0520694 44:-0.0670337 45:-0.0993341 46:-0.0999137 47:0.0926077 48:-0.0994061 49:-0.0864492 50:0.0961542 51:-0.068823 52:-0.0992525 53:0.0695919 54:-0.0749096 55:-0.0139671 56:0.0217523 57:-0.0911489 58:0.0787177 59:0.051463 60:0.0725807 61:-0.0954139 62:0.0711872 63:-0.0783269 64:-0.03777 65:0.0976003 66:0.094548 67:-0.0162203 68:-0.013274 69:0.0973347 70:0.0966085 71:-0.0872463 72:0.00833279 73:-0.0744023 74:0.0857275 75:-0.0444608 76:0.0343662 77:0.0378932 78:0.0422016 79:-0.00233359 80:0.0890842 81:0.0929297 82:0.00775163 83:0.00401424 84:0.0180718 85:-0.0944939 86:0.0994356 87:-0.0445187 88:0.0945181 89:-0.0994849 90:0.0388317 91:-0.0812716 92:-0.0872097 93:-0.068191 94:0.0984264 95:-0.0791418 96:0.0998448 97:0.0995836 98:0.0855041 99:-0.0942857 100:-0.0869071
1 1:0.0559687 2:0.0551142 3:0.0714127 4:-0.025194 5:-0.0998907 6:0.0059056 7:-0.0717439 8:0.0734636 9:0.0977922 10:-0.0856598 11:0.0638416 12:-0.0999017 13:-0.00603968 14:-0.0999192 15:-0.065145 16:-0.0628322 17:0.076539 18:0.0998587 19:-0.0831585 20:0.0950933 21:0.0617473 22:-0.0850812 23:-0.0632063 24:-0.0745324 25:-0.0227707 26:-0.0997405 27:-0.0477403 28:-0.0404255 29:-0.0724596 30:0.0893214 31:-0.0650856 32:-0.0920353 33:0.0980472 34:-0.0782991 35:0.0833252 36:0.034179 37:-0.09987 38:0.0979982 39:0.0890863 40:-0.0279159 41:-0.0221612 42:-0.0853423 43:0.0519198 44:0.0176079 45:-0.0945017 46:-0.0993559 47:0.0978292 48:-0.0999887 49:-0.0878321 50:0.0967472 51:-0.0371143 52:-0.0999767 53:0.0996871 54:-0.0990275 55:-0.0264229 56:-0.0142615 57:-0.0966394 58:0.0738636 59:0.011453 60:0.0745856 61:-0.0820404 62:0.0833262 63:-0.0191697 64:-0.0708451 65:0.0985764 66:0.0990553 67:-0.0431566 68:-0.0230685 69:0.0935099 70:0.0985497 71:-0.0851492 72:0.00636071 73:-0.0956262 74:0.0964066 75:-0.0113896 76:0.0200316 77:0.0826586 78:-0.00317119 79:-0.0238944 80:0.0824694 81:0.0813306 82:0.0541023 83:0.0245245 84:-0.0255227 85:-0.0972684 86:0.093199 87:-0.0224927 88:0.0983152 89:-0.0999269 90:0.0824324 91:-0.0667597 92:-0.0705526 93:-0.0611703 94:0.0997923 95:-0.0144488 96:0.0978565 97:0.0999641 98:0.0793429 99:-0.0969228 100:-0.0873151
-1 1:0.0763355 2:0.0596993 3:0.0685459 4:-0.0187526 5:-0.0967203 6:-0.0269255 7:-0.0659665 8:0.0587948 9:0.0909788 10:-0.0827269 11:0.0521839 12:-0.0994303 13:-0.0341783 14:-0.0999979 15:-0.0902021 16:-0.0574588 17:0.0683987 18:0.0986544 19:-0.0669293 20:0.0786601 21:0.0291223 22:-0.0622211 23:-0.0824944 24:-0.0760247 25:-0.0235598 26:-0.099894 27:-0.0598139 28:-0.0526211 29:-0.0630032 30:0.0833728 31:-0.0872436 32:-0.0936822 33:0.0903295 34:-0.0786949 35:0.05138 36:0.0394481 37:-0.0875326 38:0.094428 39:0.0605352 40:-0.0290745 41:-0.00534915 42:-0.0498453 43:0.0587142 44:-0.0361633 45:-0.0994541 46:-0.0995632 47:0.0934116 48:-0.0999612 49:-0.0900297 50:0.0887782 51:-0.0559428 52:-0.0999999 53:0.0902865 54:-0.0893803 55:-0.0139784 56:0.00871398 57:-0.0968314 58:0.0617172 59:0.0362578 60:0.065344 61:-0.0934665 62:0.0844311 63:-0.0612719 64:-0.0460442 65:0.0986106 66:0.0991989 67:-0.036829 68:-0.0153064 69:0.0934386 70:0.0983681 71:-0.0879138 72:0.0179445 73:-0.0792818 74:0.0915034 75:-0.0318995 76:0.0296371 77:0.0650311 78:0.0305324 79:-0.0156873 80:0.0845391 81:0.0868101 82:0.0259588 83:0.0182244 84:-0.0034472 85:-0.0937642 86:0.0977762 87:-0.047378 88:0.0986839 89:-0.0997886 90:0.0579252 91:-0.0783459 92:-0.0816376 93:-0.0710718 94:0.0998616 95:-0.0677923 96:0.0978602 97:0.099899 98:0.086464 99:-0.0937029 100:-0.0902417
-1 1:0.0728706 2:0.0557568 3:0.0659343 4:-0.0191447 5:-0.0989834 6:-0.0187616 7:-0.0748313 8:0.0641009 9:0.0946224 10:-0.077335 11:0.0605993 12:-0.0989101 13:-0.0256196 14:-0.0993411 15:-0.0839489 16:-0.0605181 17:0.0752435 18:0.0993227 19:-0.065744 20:0.0896782 21:0.0198302 22:-0.0689095 23:-0.0852474 24:-0.0785678 25:-0.0156464 26:-0.0986794 27:-0.0636444 28:-0.0394686 29:-0.0655452 30:0.0852078 31:-0.0778684 32:-0.0947002 33:0.0904565 34:-0.0773482 35:0.0609328 36:0.0439495 37:-0.092461 38:0.0928987 39:0.0619691 40:-0.027341 41:-0.00229731 42:-0.0607764 43:0.0616325 44:-0.0141726 45:-0.0997566 46:-0.0986291 47:0.0941695 48:-0.0999878 49:-0.0915743 50:0.0842632 51:-0.0472993 52:-0.099815 53:0.097302 54:-0.095313 55:-0.0148183 56:0.000262616 57:-0.0991774 58:0.0522254 59:0.0261892 60:0.0619523 61:-0.0916736 62:0.0898304 63:-0.0481423 64:-0.0520007 65:0.0990302 66:0.0999807 67:-0.0474414 68:-0.0168885 69:0.0907319 70:0.0990487 71:-0.0880851 72:0.0221781 73:-0.0830101 74:0.0954187 75:-0.0236959 76:0.026489 77:0.0779161 78:0.0219929 79:-0.0231449 80:0.0817193 81:0.0825161 82:0.0371168 83:0.0259715 84:-0.0162154 85:-0.0936469 86:0.0961874 87:-0.0473109 88:0.0997233 89:-0.0988655 90:0.0686117 91:-0.0760104 92:-0.077637 93:-0.0719333 94:0.0999783 95:-0.0578442 96:0.0959137 97:0.0993762 98:0.086534 99:-0.0936395 100:-0.0916388
-1 1:0.083196 2:0.0665762 3:0.0726431 4:-0.0175102 5:-0.0886387 6:-0.0432268 7:-0.0475901 8:0.0474693 9:0.0814968 10:-0.0902778 11:0.0351657 12:-0.0999163 13:-0.050521 14:-0.0982956 15:-0.0982384 16:-0.0514511 17:0.0541094 18:0.0964826 19:-0.0673816 20:0.0492513 21:0.0417119 22:-0.0468526 23:-0.0787533 24:-0.0714529 25:-0.0369844 26:-0.098739 27:-0.0538696 28:-0.0733861 29:-0.0575168 30:0.0793356 31:-0.0982186 32:-0.0918601 33:0.0891695 34:-0.0809808 35:0.0295802 36:0.0318635 37:-0.0737284 38:0.0963502 39:0.0548009 40:-0.0321635 41:-0.00918296 42:-0.0247622 43:0.0540504 44:-0.072644 45:-0.0979536 46:-0.0999427 47:0.0914519 48:-0.0994538 49:-0.0872579 50:0.0942613 51:-0.0708706 52:-0.0994198 53:0.0664734 54:-0.0719908 55:-0.0114284 56:0.025146 57:-0.0871678 58:0.0752511 59:0.0545884 60:0.0701426 61:-0.0966436 62:0.0727563 63:-0.0826563 64:-0.032693 65:0.0977077 66:0.0951808 67:-0.0166847 68:-0.0118706 69:0.0970537 70:0.0967334 71:-0.0878418 72:0.0115109 73:-0.0698654 74:0.0785263 75:-0.0471777 76:0.0358306 77:0.0355103 78:0.0473831 79:-0.00181309 80:0.0890658 81:0.0932288 82:0.00314317 83:0.00395887 84:0.0206461 85:-0.0936045 86:0.0996535 87:-0.0495042 88:0.0951245 89:-0.0996667 90:0.0340188 91:-0.0829747 92:-0.0884316 93:-0.0703634 94:0.0981937 95:-0.0851749 96:0.0997631 97:0.0997888 98:0.0868932 99:-0.0934859 100:-0.0878354
1 1:0.0628921 2:0.0523506 3:0.0663454 4:-0.0220718 5:-0.0999635 6:-0.00169964 7:-0.0796902 8:0.0719804 9:0.0979636 10:-0.0769015 11:0.067974 12:-0.0990959 13:-0.0103935 14:-0.098626 15:-0.0698801 16:-0.0637973 17:0.0805289 18:0.099998 19:-0.0730917 20:0.0972097 21:0.0321586 22:-0.0807414 23:-0.0791993 24:-0.0787958 25:-0.0126083 26:-0.0977351 27:-0.0600569 28:-0.0291761 29:-0.0704483 30:0.0883247 31:-0.0631975 32:-0.0944069 33:0.0944982 34:-0.0767096 35:0.0775049 36:0.043244 37:-0.0987829 38:0.0944255 39:0.0763491 40:-0.026251 41:-0.00861009 42:-0.0792009 43:0.0598053 44:0.0170303 45:-0.0991399 46:-0.0980307 47:0.0964249 48:-0.0999358 49:-0.0912342 50:0.0876236 51:-0.0358195 52:-0.0997334 53:0.0999994 54:-0.0993566 55:-0.0205129 56:-0.0125186 57:-0.0990892 58:0.0549958 59:0.0118146 60:0.06514 61:-0.0861276 62:0.0910446 63:-0.0244974 64:-0.0646864 65:0.0991431 66:0.0999932 67:-0.0534243 68:-0.0207794 69:0.0897591 70:0.0992914 71:-0.0869891 72:0.018658 73:-0.0915152 74:0.0999563 75:-0.0119114 76:0.0212496 77:0.087738 78:0.00439748 79:-0.0291126 80:0.0797504 81:0.0782907 82:0.0525737 83:0.0312085 84:-0.0298226 85:-0.0953162 86:0.0932971 87:-0.0368306 88:0.0998541 89:-0.0985913 90:0.0816104 91:-0.0701781 92:-0.0711906 93:-0.0681462 94:0.0995377 95:-0.0309014 96:0.0951185 97:0.0994678 98:0.0836532 99:-0.0951583 100:-0.0909765
1 1:0.0827252 2:0.0728901 3:0.0793637 4:-0.0197105 5:-0.08214 6:-0.0467865 7:-0.0233635 8:0.0415996 9:0.0732847 10:-0.0979431 11:0.0184124 12:-0.0996209 13:-0.0568263 14:-0.0910061 15:-0.0996571 16:-0.0464011 17:0.0383679 18:0.0962435 19:-0.078172 20:0.0188998 21:0.0743341 22:-0.0428841 23:-0.0603425 24:-0.0635973 25:-0.0537625 26:-0.0911092 27:-0.0373945 28:-0.0896391 29:-0.0561244 30:0.0778461 31:-0.0999155 32:-0.0877493 33:0.0936553 34:-0.0837196 35:0.0237366 36:0.0177691 37:-0.0700786 38:0.0994869 39:0.0684398 40:-0.0356712 41:-0.0244531 42:-0.0177621 43:0.0429862 44:-0.0887768 45:-0.0997264 46:-0.0980721 47:0.0923725 48:-0.0979625 49:-0.0812894 50:0.0999853 51:-0.0798974 52:-0.096482 53:0.0388172 54:-0.055192 55:-0.0155125 56:0.0338032 57:-0.0846949 58:0.0934963 59:0.0649333 60:0.0810557 61:-0.0965087 62:0.0514905 63:-0.0901265 64:-0.0313767 65:0.0960726 66:0.0840584 67:0.00785019 68:-0.0118689 69:0.0997108 70:0.0938133 71:-0.0861001 72:-0.00442464 73:-0.0713438 74:0.0823806 75:-0.0559235 76:0.0386456 77:0.00487258 78:0.0513823 79:0.0122591 80:0.0932688 81:0.0974539 82:-0.00998671 83:-0.0118614 84:0.0395252 85:-0.0957329 86:0.0999994 87:-0.0380883 88:0.0860784 89:-0.0955548 90:0.0185627 91:-0.0833014 92:-0.0916793 93:-0.0634308 94:0.0952625 95:-0.0859905 96:0.0992674 97:0.0966599 98:0.0834827 99:-0.0953436 100:-0.0819969
1 1:0.0656549 2:0.052037 3:0.0649996 4:-0.0209801 5:-0.0999993 6:-0.00544159 7:-0.0809856 8:0.0707868 9:0.0977203 10:-0.0745122 11:0.0681989 12:-0.0987504 13:-0.0131373 14:-0.0981736 15:-0.0726885 16:-0.0636833 17:0.080926 18:0.0999456 19:-0.0695071 20:0.0970931 21:0.0228094 22:-0.0783978 23:-0.0831804 24:-0.0797702 25:-0.0104093 26:-0.0970728 27:-0.0632914 28:-0.0274797 29:-0.0694212 30:0.0877469 31:-0.0644758 32:-0.0949601 33:0.09293 34:-0.0763805 35:0.0742899 36:0.0454945 37:-0.0978521 38:0.0931047 39:0.0710391 40:-0.0259581 41:-0.0045464 42:-0.0757176 43:0.0618662 44:0.013519 45:-0.0998225 46:-0.0976717 47:0.0957952 48:-0.0998934 49:-0.0920273 50:0.0841421 51:-0.0367807 52:-0.0995486 53:0.0999951 54:-0.0991799 55:-0.0184247 56:-0.0107034 57:-0.0997143 58:0.0494626 59:0.0134851 60:0.0622778 61:-0.0877062 62:0.0924823 63:-0.0284681 64:-0.0617652 65:0.0992499 66:0.0998985 67:-0.0552216 68:-0.0197908 69:0.0888233 70:0.099412 71:-0.0875449 72:0.0220356 73:-0.0894611 74:0.099784 75:-0.0133331 76:0.0221223 77:0.087965 78:0.0081903 79:-0.0297454 80:0.0792749 81:0.0779968 82:0.0505768 83:0.0322726 84:-0.0294226 85:-0.0945771 86:0.093673 87:-0.0413991 88:0.0999706 89:-0.0980426 90:0.0801321 91:-0.0716501 92:-0.07208 93:-0.0701934 94:0.0995413 95:-0.0379075 96:0.0943738 97:0.0990738 98:0.0849622 99:-0.0945005 100:-0.0918584
-1 1:0.0554284 2:0.051808 3:0.0684032 4:-0.0245164 5:-0.0993882 6:0.00878822 7:-0.0790979 8:0.0757774 9:0.0989093 10:-0.0801105 11:0.0696782 12:-0.0995406 13:-0.00184428 14:-0.0989742 15:-0.0605267 16:-0.0648953 17:0.0813876 18:0.0997896 19:-0.0798392 20:0.0986392 21:0.0486132 22:-0.0866858 23:-0.070514 24:-0.0773938 25:-0.0149507 26:-0.0982975 27:-0.0540033 28:-0.0286169 29:-0.0732699 30:0.0899627 31:-0.0563892 32:-0.0934494 33:0.0972312 34:-0.0770049 35:0.0855628 36:0.0396749 37:-0.0999924 38:0.0964619 39:0.086373 40:-0.0263645 41:-0.016376 42:-0.0877668 43:0.0561487 44:0.0309304 45:-0.0956776 46:-0.0983349 47:0.0977433 48:-0.099965 49:-0.0898958 50:0.092736 51:-0.0309288 52:-0.0999023 53:0.0997385 54:-0.0999366 55:-0.0251987 56:-0.0188504 57:-0.0955604 58:0.0634489 59:0.0051038 60:0.070048 61:-0.0816501 62:0.0890919 63:-0.0112633 64:-0.0720449 65:0.0990077 66:0.0999598 67:-0.0524611 68:-0.023351 69:0.090792 70:0.099166 71:-0.0858144 72:0.0126139 73:-0.0957526 74:0.0964664 75:-0.00634486 76:0.0184238 77:0.0897837 78:-0.00635334 79:-0.0298986 80:0.079861 81:0.0774279 82:0.059578 83:0.0311489 84:-0.0342584 85:-0.0966963 86:0.0917003 87:-0.0267256 88:0.0995776 89:-0.0991725 90:0.0867073 91:-0.0661119 92:-0.0678239 93:-0.0638558 94:0.0992969 95:-0.0116136 96:0.0959017 97:0.0998638 98:0.0807058 99:-0.0964159 100:-0.0893903
1 1:0.0470009 2:0.0529337 3:0.0721186 4:-0.0275249 5:-0.098569 6:0.018705 7:-0.0747185 8:0.0785653 9:0.0992733 10:-0.0861021 11:0.0686148 12:-0.0999638 13:0.00537768 14:-0.0997864 15:-0.051863 16:-0.0650391 17:0.0799227 18:0.0990646 19:-0.0876827 20:0.0986629 21:0.0707982 22:-0.0913695 23:-0.0554534 24:-0.0743126 25:-0.0215371 26:-0.0995446 27:-0.0436879 28:-0.034175 29:-0.0758271 30:0.0913211 31:-0.053327 32:-0.0915483 33:0.0994003 34:-0.077994 35:0.0916247 36:0.0328273 37:-0.0992143 38:0.0987653 39:0.0952835 40:-0.0272897 41:-0.0277049 42:-0.0938383 43:0.0497798 44:0.0390014 45:-0.0880307 46:-0.099163 47:0.0988761 48:-0.0999987 49:-0.087213 50:0.0982592 51:-0.0287397 52:-0.0999773 53:0.0997007 54:-0.0999993 55:-0.030889 56:-0.0233734 57:-0.0896633 58:0.0768553 59:0.00100964 60:0.0772658 61:-0.0763336 62:0.0836604 63:-0.00066009 64:-0.0787217 65:0.0986195 66:0.0991747 67:-0.0466321 68:-0.026006 69:0.0932347 70:0.0986968 71:-0.0841177 72:0.00269904 73:-0.0987134 74:0.0864002 75:-0.0028339 76:0.0161437 77:0.0886817 78:-0.0164287 79:-0.0276825 80:0.0813437 81:0.0785583 82:0.0641672 83:0.0276828 84:-0.0346425 85:-0.0981742 86:0.0906401 87:-0.0130764 88:0.0983687 89:-0.099924 90:0.0896423 91:-0.0617735 92:-0.0654498 93:-0.0574715 94:0.0993358 95:0.00854876 96:0.0976528 97:0.0999012 98:0.0764773 99:-0.0977991 100:-0.0863837
-1 1:0.0821929 2:0.0755371 3:0.0822232 4:-0.020851 5:-0.0790792 6:-0.0478164 7:-0.0117293 8:0.0391982 9:0.069391 10:-0.0995876 11:0.0107627 12:-0.0989165 13:-0.0591592 14:-0.0858536 15:-0.0999086 16:-0.0441428 17:0.0309036 18:0.0962503 19:-0.0827836 20:0.00475448 21:0.0859021 22:-0.0416611 23:-0.0499236 24:-0.0596928 25:-0.06087 26:-0.0854173 27:-0.0290601 28:-0.0946192 29:-0.0556932 30:0.0772963 31:-0.0990205 32:-0.0855465 33:0.0954807 34:-0.0849091 35:0.0218895 36:0.0110177 37:-0.0689955 38:0.099979 39:0.0746563 40:-0.0372482 41:-0.0316366 42:-0.015501 43:0.037494 44:-0.0935669 45:-0.0999983 46:-0.0963427 47:0.0928966 48:-0.0969667 49:-0.0781358 50:0.0990732 51:-0.0833178 52:-0.0942969 53:0.0251928 54:-0.0470913 55:-0.0176376 56:0.0372724 57:-0.0840518 58:0.0981015 59:0.0689717 60:0.0854699 61:-0.0963141 62:0.0402571 63:-0.0925462 64:-0.031359 65:0.0951739 66:0.0769484 67:0.0189466 68:-0.0120263 69:0.0999999 70:0.0921757 71:-0.0852033 72:-0.0119859 73:-0.0725133 74:0.0847784 75:-0.0594212 76:0.0397474 77:-0.00905774 78:0.0526043 79:0.0185111 80:0.0948507 81:0.0986928 82:-0.0153766 83:-0.0189457 84:0.0473477 85:-0.0966348 86:0.099955 87:-0.0321029 88:0.0804495 89:-0.0921032 90:0.0119596 91:-0.0832627 92:-0.0928755 93:-0.0598341 94:0.0935415 95:-0.0857438 96:0.0978316 97:0.0939346 98:0.0816427 99:-0.096157 100:-0.0788837
1 1:0.0820606 2:0.0760563 3:0.082785 4:-0.0210923 5:-0.0784575 6:-0.0479825 7:-0.00934721 8:0.0387326 9:0.0685949 10:-0.0997695 11:0.00921708 12:-0.0987276 13:-0.0595943 14:-0.0846755 15:-0.0999381 16:-0.0436885 17:0.0293751 18:0.0962604 19:-0.0836818 20:0.00190522 21:0.0878949 22:-0.0414574 23:-0.0476647 24:-0.0588769 25:-0.0622614 26:-0.0841021 27:-0.0273133 28:-0.0954345 29:-0.0556209 30:0.0771948 31:-0.0987274 32:-0.0850741 33:0.0958256 34:-0.0851457 35:0.0215764 36:0.00962773 37:-0.0688214 38:0.0999993 39:0.0758937 40:-0.0375662 41:-0.0331021 42:-0.0151123 43:0.0363476 44:-0.0943588 45:-0.0999963 46:-0.0959255 47:0.0930095 48:-0.0967406 49:-0.0774629 50:0.0985953 51:-0.0839616 52:-0.0937885 53:0.0223983 54:-0.0454311 55:-0.0180875 56:0.0379412 57:-0.0839603 58:0.0987094 59:0.0697422 60:0.0863123 61:-0.0962641 62:0.0378826 63:-0.0929736 64:-0.0313985 65:0.0949799 66:0.0753601 67:0.0211709 68:-0.0120698 69:0.099986 70:0.0918203 71:-0.0850133 72:-0.013535 73:-0.072785 74:0.0852993 75:-0.0600954 76:0.0399577 77:-0.0118421 78:0.0528091 79:0.0197635 80:0.0951458 81:0.0988931 82:-0.016424 83:-0.0203678 84:0.0488695 85:-0.0968099 86:0.0999331 87:-0.0308304 88:0.0791973 89:-0.0912831 90:0.0106591 91:-0.0832411 92:-0.0930988 93:-0.0590707 94:0.0931659 95:-0.085648 96:0.0974472 97:0.0932801 98:0.0812465 99:-0.0963174 100:-0.0782173
-1 1:0.0811176 2:0.0583332 3:0.0649213 4:-0.0161817 5:-0.0957227 6:-0.0341242 7:-0.0712828 8:0.0563807 9:0.0904883 10:-0.0765263 11:0.0542574 12:-0.0985514 13:-0.038936 14:-0.0996334 15:-0.0931631 16:-0.0576894 17:0.0707451 18:0.0975886 19:-0.057128 20:0.0800599 21:0.0046312 22:-0.0559455 23:-0.0909548 24:-0.0788727 25:-0.0170402 26:-0.0990784 27:-0.0680044 28:-0.0467825 29:-0.0607368 30:0.0820548 31:-0.0878062 32:-0.0952011 33:0.0852115 34:-0.0777058 35:0.0426551 36:0.045644 37:-0.0820314 38:0.0907329 39:0.0448274 40:-0.028087 41:0.00491682 42:-0.0400308 43:0.0641059 44:-0.0404902 45:-0.0963671 46:-0.0989158 47:0.0914708 48:-0.0999991 49:-0.0922347 50:0.0792079 51:-0.056583 52:-0.0998092 53:0.0911468 54:-0.0889898 55:-0.0090538 56:0.0116554 57:-0.0930866 58:0.0470808 59:0.0383481 60:0.0577571 61:-0.0956817 62:0.0895968 63:-0.0668168 64:-0.0389081 65:0.098993 66:0.0999589 67:-0.0433285 68:-0.0131789 69:0.0910718 70:0.0989028 71:-0.089208 72:0.0267053 73:-0.0724546 74:0.081108 75:-0.0337868 76:0.0311526 77:0.0682012 78:0.037691 79:-0.0185088 80:0.0830488 81:0.0855488 82:0.0224587 83:0.0221646 84:-0.0045997 85:-0.0916311 86:0.0980667 87:-0.0574828 88:0.0997093 89:-0.0988525 90:0.0548717 91:-0.0809948 92:-0.0827433 93:-0.0758175 94:0.0999152 95:-0.0784712 96:0.0962036 97:0.0990875 98:0.0892561 99:-0.091841 100:-0.0925796
1 1:0.054206 2:0.0504096 3:0.0674494 4:-0.0245655 5:-0.0989247 6:0.0112814 7:-0.081658 8:0.0771342 9:0.0993276 10:-0.0781213 11:0.0720779 12:-0.0993824 13:0.00092688 14:-0.098364 15:-0.0573348 16:-0.0658372 17:0.0832682 18:0.0996899 19:-0.079295 20:0.0995311 21:0.0451801 22:-0.087979 23:-0.0720396 24:-0.078301 25:-0.0121405 26:-0.0974663 27:-0.0556041 28:-0.0237469 29:-0.0739431 30:0.0904126 31:-0.0518223 32:-0.093846 33:0.0971771 34:-0.0765237 35:0.0873068 36:0.0413431 37:-0.0999765 38:0.0959922 39:0.0863865 40:-0.0257651 41:-0.0150828 42:-0.0895919 43:0.0573021 44:0.0377736 45:-0.095493 46:-0.0978454 47:0.0978595 48:-0.0999133 49:-0.0904864 50:0.0913735 51:-0.0278016 52:-0.0997794 53:0.0989938 54:-0.0999879 55:-0.0253203 56:-0.021466 57:-0.094413 58:0.0600628 59:0.00171505 60:0.0688039 61:-0.0808691 62:0.0908073 63:-0.00637441 64:-0.0734105 65:0.0991398 66:0.0999955 67:-0.0558545 68:-0.0237955 69:0.0897335 70:0.0993479 71:-0.0859183 72:0.0142826 73:-0.0962461 74:0.0956347 75:-0.00362223 76:0.0174188 77:0.09233 78:-0.0090014 79:-0.032339 80:0.078802 81:0.0756819 82:0.0625305 83:0.0337168 84:-0.0381947 85:-0.0966237 86:0.0908421 87:-0.0270506 88:0.0998164 89:-0.0987331 90:0.0888145 91:-0.0653092 92:-0.0662651 93:-0.0643282 94:0.0989799 95:-0.00793171 96:0.0950684 97:0.0997056 98:0.0808379 99:-0.0963596 100:-0.0899536
-1 1:0.0771386 2:0.0536506 3:0.0618497 4:-0.0167618 5:-0.0987764 6:-0.0242984 7:-0.0806811 8:0.0628861 9:0.0948522 10:-0.0695466 11:0.0639159 12:-0.097671 13:-0.028718 14:-0.0977874 15:-0.0864275 16:-0.061291 17:0.0784145 18:0.0987077 19:-0.056031 20:0.0921906 21:-0.00564405 22:-0.0645978 23:-0.0930093 24:-0.081592 25:-0.00783371 26:-0.0963693 27:-0.0717992 28:-0.030864 29:-0.0639128 30:0.0843549 31:-0.0765951 32:-0.0961852 33:0.085639 34:-0.0761184 35:0.054979 36:0.0505306 37:-0.0891933 38:0.0886318 39:0.0474563 40:-0.0260675 41:0.00808242 42:-0.0541769 43:0.0671495 44:-0.0144135 45:-0.0975482 46:-0.0973497 47:0.0925722 48:-0.0998519 49:-0.0937552 50:0.0727631 51:-0.0462934 52:-0.0991194 53:0.0984915 54:-0.0959292 55:-0.0102718 56:0.00151622 57:-0.0975553 58:0.0352936 59:0.0263648 60:0.0537783 61:-0.0937903 62:0.0944865 63:-0.0515954 64:-0.0465472 65:0.0993901 66:0.0995591 67:-0.0551315 68:-0.0151541 69:0.0874832 70:0.0995117 71:-0.0893457 72:0.0312337 73:-0.0777526 74:0.0885338 75:-0.0240085 76:0.0273664 77:0.0824007 78:0.0274548 79:-0.0271636 80:0.0796185 81:0.0802614 82:0.0359427 83:0.0310744 84:-0.0196494 85:-0.0915715 86:0.0962277 87:-0.0569821 88:0.0999704 89:-0.0969031 90:0.0679074 91:-0.0782437 92:-0.0780293 93:-0.0765656 94:0.0998969 95:-0.0676795 96:0.0933113 97:0.097793 98:0.0892151 99:-0.0918426 100:-0.0939262
1 1:0.0823736 2:0.0773673 3:0.0839554 4:-0.0213905 5:-0.0762353 6:-0.0495016 7:-0.00355889 8:0.036944 9:0.0661 10:-0.0999847 11:0.0051048 12:-0.0982837 13:-0.0614838 14:-0.0817393 15:-0.0999999 16:-0.0424037 17:0.0253955 18:0.0960486 19:-0.0851466 20:-0.0060035 21:0.0913334 22:-0.0397436 23:-0.0433895 24:-0.0570589 25:-0.065399 26:-0.0808357 27:-0.0238279 28:-0.0971838 29:-0.0550323 30:0.0766623 31:-0.0976222 32:-0.0840607 33:0.0963095 34:-0.0856941 35:0.0191399 36:0.00665994 37:-0.0671074 38:0.0999578 39:0.0775214 40:-0.0383371 41:-0.0358044 42:-0.0122668 43:0.0340035 44:-0.0965636 45:-0.0999698 46:-0.0948619 47:0.0930411 48:-0.0961789 49:-0.0760114 50:0.0973363 51:-0.085827 52:-0.0925753 53:0.0145093 54:-0.0404 55:-0.0186251 56:0.0402975 57:-0.0826302 58:0.0996067 59:0.072179 60:0.087911 61:-0.0964092 62:0.0324268 63:-0.0945224 64:-0.0303323 65:0.0945239 66:0.0715827 67:0.0264854 68:-0.0118603 69:0.0998616 70:0.090961 71:-0.0846898 72:-0.0166173 73:-0.0724369 74:0.0850761 75:-0.0622744 76:0.0407955 77:-0.0192068 78:0.054412 79:0.0229409 80:0.0958322 81:0.099336 82:-0.02001 83:-0.0238555 84:0.0530478 85:-0.0970808 86:0.0998321 87:-0.0289019 88:0.0762553 89:-0.0893073 90:0.00629425 91:-0.0835595 92:-0.0938337 93:-0.0577283 94:0.0920882 95:-0.0866314 96:0.09645 97:0.0917722 98:0.0806239 99:-0.0965626 100:-0.0768176
-1 1:0.0799635 2:0.0554527 3:0.0624137 4:-0.0159499 5:-0.0974706 6:-0.0302596 7:-0.0776997 8:0.0595325 9:0.0929776 10:-0.0712112 11:0.0601474 12:-0.0978126 13:-0.0343457 14:-0.098522 15:-0.0903866 16:-0.0597527 17:0.0755886 18:0.0980219 19:-0.0542794 20:0.087677 21:-0.00642821 22:-0.0595013 23:-0.0935026 24:-0.0809753 25:-0.0105184 26:-0.0973706 27:-0.0717517 28:-0.0367443 29:-0.0620277 30:0.08307 31:-0.0821276 32:-0.0960432 33:0.0842277 34:-0.0766114 35:0.0477618 36:0.0496593 37:-0.085059 38:0.0886303 39:0.0427235 40:-0.0267536 41:0.00887686 42:-0.0459504 43:0.0669085 44:-0.02723 45:-0.0961301 46:-0.0979008 47:0.0916585 48:-0.0999239 49:-0.0935136 50:0.073163 51:-0.0511041 52:-0.0993417 53:0.0960857 54:-0.0931786 55:-0.00866879 56:0.00666809 57:-0.0950636 58:0.0371559 59:0.0322169 60:0.0538291 61:-0.0951368 62:0.0933314 63:-0.0598787 64:-0.0416524 65:0.0992906 66:0.0998172 67:-0.0513107 68:-0.0138188 69:0.0885427 70:0.099353 71:-0.0895529 72:0.031071 73:-0.0739552 74:0.0830135 75:-0.028806 76:0.029383 77:0.0771163 78:0.0336012 79:-0.0239353 80:0.0808347 81:0.0824031 82:0.0292778 83:0.0279718 84:-0.0132375 85:-0.0910993 86:0.0971926 87:-0.0592815 88:0.0999998 89:-0.0974882 90:0.0616957 91:-0.0800561 92:-0.080437 93:-0.0771994 94:0.0999956 95:-0.0749864 96:0.0942068 97:0.0980774 98:0.0897946 99:-0.0914115 100:-0.0937819
-1 1:0.081611 2:0.0570386 3:0.0632893 4:-0.015587 5:-0.0962006 6:-0.0341683 7:-0.0746245 8:0.0570333 9:0.0913228 10:-0.0733113 11:0.0567919 12:-0.0980657 13:-0.0382502 14:-0.0991272 15:-0.0927868 16:-0.0584748 17:0.0729595 18:0.0975079 19:-0.0540445 20:0.0832199 21:-0.00426047 22:-0.0559507 23:-0.0932024 24:-0.0801715 25:-0.0134125 26:-0.0982527 27:-0.0708726 28:-0.0420541 29:-0.0607446 30:0.082155 31:-0.0860144 32:-0.0957789 33:0.0837166 34:-0.0771179 35:0.0427239 36:0.0482826 37:-0.0819724 38:0.0891368 39:0.0407456 40:-0.0274154 41:0.00836443 42:-0.0401715 43:0.0661398 44:-0.0367095 45:-0.0953416 46:-0.0984072 47:0.0911254 48:-0.0999735 49:-0.0930977 50:0.0748275 51:-0.0547849 52:-0.0995656 53:0.0932749 54:-0.0905192 55:-0.00793512 56:0.0104646 57:-0.0929654 58:0.0404483 59:0.0365969 60:0.0547797 61:-0.0958865 62:0.0918653 63:-0.0654937 64:-0.0384492 65:0.0991697 66:0.0999745 67:-0.0474638 68:-0.0129838 69:0.0896703 70:0.0991626 71:-0.0895791 72:0.0299771 73:-0.0715515 74:0.0793324 75:-0.032397 76:0.0308237 77:0.0721076 78:0.0376471 79:-0.0210072 80:0.081964 81:0.0841943 82:0.0242095 83:0.0250196 84:-0.00791471 85:-0.0909791 86:0.0978328 87:-0.0600316 88:0.0999468 89:-0.0981077 90:0.0567479 91:-0.0811743 92:-0.0821566 93:-0.0772053 94:0.0999782 95:-0.079201 96:0.0951239 97:0.0984735 98:0.0899636 99:-0.0912883 100:-0.0934352
-1 1:0.0607772 2:0.048858 3:0.0636144 4:-0.02193 5:-0.0994029 6:0.00350072 7:-0.0858436 8:0.0751729 9:0.0991877 10:-0.0709852 11:0.07386 12:-0.098428 13:-0.0043277 14:-0.0965336 15:-0.0634328 16:-0.0660749 17:0.0851308 18:0.0999778 19:-0.0707171 20:0.099743 21:0.0207828 22:-0.0838816 23:-0.0832415 24:-0.0811389 25:-0.00520095 26:-0.0949356 27:-0.0644751 28:-0.016813 29:-0.0719065 30:0.0893541 31:-0.0527651 32:-0.0954038 33:0.0939477 34:-0.0754434 35:0.0818843 36:0.0477376 37:-0.0996321 38:0.0926168 39:0.0751568 40:-0.0247186 41:-0.00445149 42:-0.0839885 43:0.0629894 44:0.033355 45:-0.0991651 46:-0.0965254 47:0.0966361 48:-0.099717 49:-0.0927259 50:0.082297 51:-0.0285143 52:-0.0991243 53:0.0986498 54:-0.0999971 55:-0.0203114 56:-0.0185069 57:-0.0977973 58:0.0445611 59:0.00398982 60:0.0611857 61:-0.0848332 62:0.0948589 63:-0.0137443 64:-0.0676386 65:0.0994464 66:0.0993738 67:-0.0618682 68:-0.0216306 69:0.086711 70:0.0996794 71:-0.0873649 72:0.0234767 73:-0.0927323 74:0.0996841 75:-0.00564371 76:0.0190239 77:0.0939745 78:-0.00115407 79:-0.0351828 80:0.077004 81:0.073935 82:0.0596203 83:0.0376658 84:-0.0393713 85:-0.0949285 86:0.091438 87:-0.0386968 88:0.0999567 89:-0.0968956 90:0.0870255 91:-0.0686735 92:-0.0677321 93:-0.0697255 94:0.0987968 95:-0.0239664 96:0.0925774 97:0.0985428 98:0.0842675 99:-0.0948418 100:-0.0924203
1 1:0.0823873 2:0.0782887 3:0.0848468 4:-0.0217083 5:-0.0747789 6:-0.0502326 7:0.000718799 8:0.035843 9:0.0643988 10:-0.099977 11:0.00218993 12:-0.0978858 13:-0.0625705 14:-0.0793924 15:-0.0999838 16:-0.0415127 17:0.0225179 18:0.0959722 19:-0.0863929 20:-0.0114713 21:0.0937559 22:-0.0388925 23:-0.0397111 24:-0.0556365 25:-0.067694 26:-0.0782055 27:-0.0209678 28:-0.0981947 29:-0.0547389 30:0.0763651 31:-0.0966901 32:-0.083238 33:0.0967457 34:-0.0860984 35:0.0179134 36:0.00432792 37:-0.0662719 38:0.0998441 39:0.0791147 40:-0.0389031 41:-0.0380554 42:-0.0108168 43:0.032104 44:-0.0977132 45:-0.0999079 46:-0.0939867 47:0.0931464 48:-0.0957298 49:-0.074841 50:0.0960334 51:-0.0870184 52:-0.0915762 53:0.00899117 54:-0.036939 55:-0.01921 56:0.0417653 57:-0.0820124 58:0.0999496 59:0.0737199 60:0.0891437 61:-0.096425 62:0.0281939 63:-0.095372 64:-0.0299438 65:0.0941649 66:0.0685629 67:0.0303633 68:-0.0118138 69:0.0996817 70:0.0902895 71:-0.0844004 72:-0.0191041 73:-0.0725256 74:0.0854184 75:-0.0636613 76:0.0412986 77:-0.024347 78:0.0552059 79:0.0252149 80:0.0963033 81:0.0995836 82:-0.0222774 83:-0.0263873 84:0.055864 85:-0.0973179 86:0.0997419 87:-0.0270674 88:0.0738958 89:-0.0876669 90:0.00348236 91:-0.0836665 92:-0.0942819 93:-0.0565456 94:0.0912905 95:-0.086934 96:0.0955881 97:0.0904902 98:0.0800369 99:-0.0967817 100:-0.0756732
1 1:0.0587713 2:0.0483811 3:0.0638655 4:-0.0225092 5:-0.0990557 6:0.00654026 7:-0.086266 8:0.0763608 9:0.0994261 10:-0.0712681 11:0.0747814 12:-0.0985185 13:-0.0016674 14:-0.0964277 15:-0.0604273 16:-0.0665516 17:0.0857288 18:0.0999161 19:-0.0722612 20:0.0999262 21:0.0239198 22:-0.0855678 23:-0.0818253 24:-0.0810422 25:-0.00505347 26:-0.0948278 27:-0.0635244 28:-0.0154594 29:-0.0727235 30:0.0898391 31:-0.0499354 32:-0.0952926 33:0.0946777 34:-0.0753928 35:0.0841624 36:0.0473323 37:-0.0999024 38:0.0930502 39:0.0777542 40:-0.0245975 41:-0.00594031 42:-0.0863947 43:0.0624477 44:0.0381197 45:-0.0985793 46:-0.0964606 47:0.096991 48:-0.0997052 49:-0.092577 50:0.0833643 51:-0.0265896 52:-0.0991404 53:0.0980238 54:-0.0999273 55:-0.0214308 56:-0.0206037 57:-0.0967096 58:0.0457881 59:0.00160127 60:0.0620665 61:-0.0836281 62:0.0948341 63:-0.00945607 64:-0.0696916 65:0.0994471 66:0.0993736 67:-0.0624373 68:-0.0223351 69:0.0866876 70:0.0996899 71:-0.0871252 72:0.0225 73:-0.0939045 74:0.0989977 75:-0.0036843 76:0.0181224 77:0.094813 78:-0.00429254 79:-0.0359487 80:0.0767586 81:0.0732695 82:0.0619015 83:0.0382678 84:-0.0413097 85:-0.0952614 86:0.0908253 87:-0.0364868 88:0.0999598 89:-0.096935 90:0.0885888 91:-0.0675407 92:-0.0665473 93:-0.0688811 94:0.0986182 95:-0.0186103 96:0.0925487 97:0.0986397 98:0.0836466 99:-0.0951431 100:-0.0922134
1 1:0.0532335 2:0.0486535 3:0.0660603 4:-0.0244423 5:-0.098269 6:0.0136506 7:-0.0847352 8:0.0785456 9:0.0996825 10:-0.0752115 11:0.0748913 12:-0.0991085 13:0.0037986 14:-0.0973455 15:-0.0539411 16:-0.0669397 17:0.0854704 18:0.0995861 19:-0.0780962 20:0.099988 21:0.0394557 22:-0.0891609 23:-0.0746021 24:-0.0795353 25:-0.0083719 26:-0.0961151 27:-0.0580697 28:-0.0175091 29:-0.0745834 30:0.0908559 31:-0.046368 32:-0.0944036 33:0.0969276 34:-0.0758824 35:0.0888897 36:0.0437147 37:-0.0998545 38:0.0951943 39:0.0857286 40:-0.0249924 41:-0.0128423 42:-0.0912281 43:0.0590298 44:0.0452134 45:-0.0956256 46:-0.0971035 47:0.0979183 48:-0.09981 49:-0.0913116 50:0.0890697 51:-0.0241646 52:-0.0995309 53:0.0974838 54:-0.0997209 55:-0.02512 56:-0.0242974 57:-0.0932285 58:0.0549275 59:-0.00208524 60:0.0668143 61:-0.0802313 62:0.0929141 63:-0.00116005 64:-0.0745953 65:0.0993032 66:0.0998153 67:-0.0601087 68:-0.0241653 69:0.0882223 70:0.0995544 71:-0.0861404 72:0.0168596 73:-0.0965934 74:0.0950309 75:-0.00058093 76:0.0163545 77:0.094954 78:-0.0115469 79:-0.0353541 80:0.0774114 81:0.0734514 82:0.0656755 83:0.0369521 84:-0.0427809 85:-0.0964309 86:0.0898339 87:-0.0282443 88:0.0999841 89:-0.0979811 90:0.0909489 91:-0.0646014 92:-0.0645129 93:-0.0652563 94:0.0985216 95:-0.00473863 96:0.0938303 97:0.0993749 98:0.0812361 99:-0.0961964 100:-0.0907671
1 1:0.0870398 2:0.0692196 3:0.0735458 4:-0.0162396 5:-0.0828686 6:-0.0520465 7:-0.0401567 8:0.0412593 9:0.0759477 10:-0.0919864 11:0.0275605 12:-0.0999605 13:-0.0586139 14:-0.0968694 15:-0.0998776 16:-0.0486792 17:0.0477309 18:0.0946756 19:-0.0650366 20:0.033597 21:0.0411496 22:-0.0373014 23:-0.079843 24:-0.0701297 25:-0.0412533 26:-0.0974047 27:-0.0535287 28:-0.0801108 29:-0.0542556 30:0.0769528 31:-0.0999251 32:-0.0914696 33:0.0872256 34:-0.0817399 35:0.0163115 36:0.0301032 37:-0.0638232 38:0.0964205 39:0.0477118 40:-0.0333014 41:-0.00814941 42:-0.00958578 43:0.0534401 44:-0.0856604 45:-0.0957466 46:-0.0997002 47:0.0898739 48:-0.0991441 49:-0.0866233 50:0.0947368 51:-0.0769801 52:-0.099032 53:0.0522695 54:-0.0615551 55:-0.00891503 56:0.0332196 57:-0.0787431 58:0.0776869 59:0.0627262 60:0.0704008 61:-0.0981294 62:0.0686207 63:-0.0906995 64:-0.0242583 65:0.0973766 66:0.0932428 67:-0.00909441 68:-0.00971111 69:0.0979109 70:0.0960524 71:-0.0881695 72:0.0109855 73:-0.0628774 74:0.0667257 75:-0.0542155 76:0.0390141 77:0.021505 78:0.0563225 79:0.00378467 80:0.0905781 81:0.0952775 82:-0.00840656 83:-0.00151883 84:0.0310534 85:-0.0929703 86:0.0999784 87:-0.0532337 88:0.0936162 89:-0.099217 90:0.0211566 91:-0.0855486 92:-0.0912667 93:-0.0713845 94:0.0968847 95:-0.0927512 96:0.0999703 97:0.0995885 98:0.0878601 99:-0.0928901 100:-0.0874265
-1 1:0.0647248 2:0.0473313 3:0.0605546 4:-0.0201222 5:-0.09955 6:-0.00108196 7:-0.0890554 8:0.0742278 9:0.0992138 10:-0.0648192 11:0.0757595 12:-0.0974116 13:-0.00706953 14:-0.094506 15:-0.0664936 16:-0.0665305 17:0.0868744 18:0.0999898 19:-0.0638922 20:0.0999458 21:0.00185934 22:-0.0812353 23:-0.0897263 24:-0.0832407 25:0.000482973 26:-0.0922167 27:-0.0705522 28:-0.0104141 29:-0.0706892 30:0.0887466 31:-0.0519594 32:-0.0964415 33:0.091014 34:-0.0745307 35:0.078336 36:0.0524876 37:-0.0988903 38:0.0894844 39:0.0657932 40:-0.0238072 41:0.00331333 42:-0.0802474 43:0.0670467 44:0.0324451 45:-0.0999917 46:-0.0951985 47:0.0956883 48:-0.0994684 49:-0.0942435 50:0.0736446 51:-0.0280185 52:-0.0982965 53:0.0979686 54:-0.0999836 55:-0.016871 56:-0.0172876 57:-0.0990847 58:0.0317198 59:0.00449003 60:0.0551276 61:-0.0871087 62:0.0972762 63:-0.0172577 64:-0.0638853 65:0.0996446 66:0.0981169 67:-0.0667598 68:-0.0202752 69:0.0840048 70:0.0998655 71:-0.0883477 72:0.0301945 73:-0.0899186 74:0.0998173 75:-0.00617886 76:0.0198111 77:0.0955827 78:0.00341967 79:-0.0378695 80:0.0753716 81:0.0721146 82:0.0585245 83:0.041124 84:-0.0413891 85:-0.0935366 86:0.0915738 87:-0.0464741 88:0.0994879 89:-0.0948696 90:0.0864265 91:-0.070671 92:-0.0682454 93:-0.0733587 94:0.0985346 95:-0.0335664 96:0.0902033 97:0.0970513 98:0.0864828 99:-0.0936251 100:-0.0940602
1 1:0.0444856 2:0.0496296 3:0.0697845 4:-0.0274668 5:-0.0968971 6:0.0238244 7:-0.0812013 8:0.0813457 9:0.0998828 10:-0.0816684 11:0.0741924 12:-0.0997799 13:0.0113704 14:-0.098763 15:-0.0443581 16:-0.0671966 17:0.084378 18:0.0986422 19:-0.0862466 20:0.0999985 21:0.0629208 22:-0.0934896 23:-0.0604697 24:-0.0766874 25:-0.0146924 26:-0.098101 27:-0.04823 28:-0.0226402 29:-0.0771715 30:0.0922076 31:-0.0424643 32:-0.09268 33:0.0992551 34:-0.0768352 35:0.0943006 36:0.0371844 37:-0.0980779 38:0.0979342 39:0.0949144 40:-0.0258485 41:-0.0241305 42:-0.0963877 43:0.052935 44:0.0535228 45:-0.0878791 46:-0.0981812 47:0.0990115 48:-0.0999494 49:-0.0888726 50:0.0961313 51:-0.0215241 52:-0.0999423 53:0.0971662 54:-0.099362 55:-0.0308442 56:-0.029094 57:-0.0860354 58:0.0693179 59:-0.00661614 60:0.0742513 61:-0.0746206 62:0.0885878 63:0.0101001 64:-0.0811443 65:0.0989888 66:0.0999389 67:-0.0550199 68:-0.0268782 69:0.0908724 70:0.0992194 71:-0.0844695 72:0.00716734 73:-0.0991918 74:0.0835288 75:0.00328712 76:0.0139322 77:0.0944161 78:-0.0219049 79:-0.0334779 80:0.0788434 81:0.0744412 82:0.070315 83:0.0338695 84:-0.0436303 85:-0.0979718 86:0.0885437 87:-0.0146401 88:0.0994689 89:-0.0993384 90:0.0935657 91:-0.0600708 92:-0.0618322 93:-0.059005 94:0.0985265 95:0.0159184 96:0.0959314 97:0.0999838 98:0.0770609 99:-0.0976238 100:-0.0880049
-1 1:0.0857236 2:0.0744911 3:0.0797209 4:-0.0186697 5:-0.0773146 6:-0.0532052 7:-0.0182614 8:0.0370307 9:0.0688645 10:-0.0983601 11:0.0131232 12:-0.0995796 13:-0.0624392 14:-0.089266 15:-0.0999847 16:-0.0444526 17:0.0338068 18:0.0948855 19:-0.0762769 20:0.00728885 21:0.0729316 22:-0.0357403 23:-0.0622153 24:-0.0628281 25:-0.056065 26:-0.0893058 27:-0.03779 28:-0.0924431 29:-0.053701 30:0.0760671 31:-0.0989442 32:-0.0875727 33:0.0923509 34:-0.0841514 35:0.0138678 36:0.0169591 37:-0.0625175 38:0.0994383 39:0.0632378 40:-0.0363814 41:-0.0230994 42:-0.00650247 43:0.0429442 44:-0.0947084 45:-0.0989216 46:-0.0975205 47:0.0912166 48:-0.0976279 49:-0.0809797 50:0.0999821 51:-0.0835306 52:-0.0960068 53:0.0274425 54:-0.0468204 55:-0.0134663 56:0.0393969 57:-0.0781763 58:0.0940001 59:0.0701488 60:0.0808283 61:-0.0976985 62:0.048605 63:-0.0945724 64:-0.025061 65:0.0958272 66:0.0821984 67:0.0126289 68:-0.0102406 69:0.0998566 70:0.0932659 71:-0.0864337 72:-0.00419466 73:-0.066165 74:0.0741528 75:-0.0606026 76:0.0409117 77:-0.00491842 78:0.057839 79:0.0158895 80:0.0940366 81:0.0982866 82:-0.0181043 83:-0.0153364 84:0.046163 85:-0.0952613 86:0.0999182 87:-0.0415555 88:0.0847377 89:-0.0948109 90:0.00918757 91:-0.0852308 92:-0.0934142 93:-0.0645525 94:0.0939525 95:-0.0917389 96:0.0989187 97:0.0963519 98:0.0844369 99:-0.0948924 100:-0.0818807
1 1:0.0777736 2:0.0512821 3:0.0590224 4:-0.0158559 5:-0.0992461 6:-0.0238619 7:-0.0853707 8:0.0641681 9:0.0959732 10:-0.063455 11:0.0679792 12:-0.0966281 13:-0.027063 14:-0.0958126 15:-0.0851961 16:-0.0626617 17:0.0817648 18:0.098663 19:-0.0510438 20:0.0955582 21:-0.020033 22:-0.0650266 23:-0.0960348 24:-0.0836222 25:-0.00159178 26:-0.0936621 27:-0.0761979 28:-0.0220053 29:-0.0640837 30:0.0846158 31:-0.0721057 32:-0.0970203 33:0.0833103 34:-0.0750789 35:0.0556788 36:0.0547704 37:-0.0894403 38:0.0856995 39:0.041222 40:-0.0249004 41:0.0136484 42:-0.0550649 43:0.070361 44:-0.00662148 45:-0.0962104 46:-0.0959857 47:0.0921161 48:-0.0996259 49:-0.0950172 50:0.064544 51:-0.0426945 52:-0.0982767 53:0.0997232 54:-0.0975428 55:-0.00857467 56:-0.000887266 57:-0.0976114 58:0.0235732 59:0.0228579 60:0.0487017 61:-0.0940714 62:0.0970837 63:-0.0483538 64:-0.0462348 65:0.0996104 66:0.0983693 67:-0.0616203 68:-0.0149484 69:0.0846548 70:0.0997769 71:-0.0899301 72:0.0365119 73:-0.0767115 74:0.0866225 75:-0.0212437 76:0.0266481 77:0.0875207 78:0.0268521 79:-0.0314316 80:0.0775646 81:0.0774874 82:0.0392344 83:0.0358749 84:-0.0254944 85:-0.0905281 86:0.0955977 87:-0.0609599 88:0.0995188 89:-0.0948439 90:0.0710725 91:-0.0783998 92:-0.0767396 93:-0.0787396 94:0.099666 95:-0.0684547 96:0.090858 97:0.0961912 98:0.0903182 99:-0.0909651 100:-0.0951798
1 1:0.0835717 2:0.0564594 3:0.0616349 4:-0.0144429 5:-0.0957149 6:-0.0373595 7:-0.076663 8:0.0559057 9:0.0910744 10:-0.0702073 11:0.057603 12:-0.0974851 13:-0.0404022 14:-0.0986218 15:-0.0940029 16:-0.0585477 17:0.0738783 18:0.0969204 19:-0.0493232 20:0.0836756 21:-0.0151243 22:-0.0529993 23:-0.0956723 24:-0.0813236 25:-0.0105649 26:-0.0974608 27:-0.0740868 28:-0.0394626 29:-0.0597028 30:0.0815417 31:-0.0863528 32:-0.0963395 33:0.0810271 34:-0.0766823 35:0.0386351 36:0.0508707 37:-0.0791875 38:0.0870998 39:0.0331227 40:-0.0269932 41:0.0128481 42:-0.0355647 43:0.0683499 44:-0.0388191 45:-0.0928658 46:-0.0979693 47:0.090166 48:-0.0999323 49:-0.0939254 50:0.0694348 51:-0.0551478 52:-0.0992739 53:0.0935285 54:-0.0902946 55:-0.00574207 56:0.0118397 57:-0.0908052 58:0.0333661 59:0.0376112 60:0.0512038 61:-0.0967129 62:0.0935679 63:-0.0679774 64:-0.0351518 65:0.0993019 66:0.0997896 67:-0.0501069 68:-0.0120271 69:0.0884642 70:0.099334 71:-0.0901183 72:0.0337048 73:-0.0681908 74:0.073294 75:-0.0333046 76:0.03152 77:0.073281 78:0.0408171 79:-0.0221747 80:0.0812938 81:0.083637 82:0.0225552 83:0.0266665 84:-0.00830557 85:-0.0899062 86:0.097974 87:-0.0641457 88:0.0999989 89:-0.0973134 90:0.0552897 91:-0.0823094 92:-0.0826766 93:-0.0791265 94:0.0999864 95:-0.0833139 96:0.0941614 97:0.0977143 98:0.0910625 99:-0.0903655 100:-0.0943043
-1 1:0.0856747 2:0.0596663 3:0.0639627 4:-0.0142049 5:-0.0926983 6:-0.043321 7:-0.0696553 8:0.0514138 9:0.0875319 10:-0.0753935 11:0.0506395 12:-0.0982046 13:-0.0467574 14:-0.0997075 15:-0.0969578 16:-0.0560411 17:0.0682325 18:0.0959509 19:-0.0507635 20:0.0733788 21:-0.00668693 22:-0.0470305 23:-0.0942308 24:-0.0793183 25:-0.0172027 26:-0.0991672 27:-0.0711655 28:-0.0503119 29:-0.0576122 30:0.0799653 31:-0.0923367 32:-0.0956141 33:0.0810823 34:-0.0778141 35:0.030191 36:0.0472114 37:-0.073484 38:0.0889153 39:0.0322866 40:-0.0284214 41:0.0100895 42:-0.0258274 43:0.0660143 44:-0.0548505 45:-0.0919952 46:-0.0989931 47:0.0894621 48:-0.1 49:-0.0928027 50:0.0748482 51:-0.0617214 52:-0.0997652 53:0.0861452 54:-0.0841441 55:-0.00521366 56:0.0184802 57:-0.0863686 58:0.0424764 59:0.0453114 60:0.0544632 61:-0.0975675 62:0.0899174 63:-0.0765459 64:-0.0301832 65:0.0990056 66:0.0999705 67:-0.0415376 68:-0.0108116 69:0.0910176 70:0.0988623 71:-0.0899543 72:0.0301441 73:-0.0645916 74:0.0673938 75:-0.0396477 76:0.0339677 77:0.0622516 78:0.0470049 79:-0.0160809 80:0.0836516 81:0.0870637 82:0.0133519 83:0.02033 84:0.00205471 85:-0.0901012 86:0.0988894 87:-0.0639094 88:0.0997628 89:-0.0987127 90:0.0457916 91:-0.0838785 92:-0.0855249 93:-0.0783813 94:0.0997115 95:-0.0883365 96:0.0961832 97:0.0987601 98:0.0909406 99:-0.0904939 100:-0.0933054
-1 1:0.0560728 2:0.0465971 3:0.0630459 4:-0.0229829 5:-0.098118 6:0.0112588 7:-0.0886461 8:0.0785363 9:0.0998174 10:-0.0691622 11:0.077637 12:-0.0983148 13:0.00305515 14:-0.095269 15:-0.0549079 16:-0.0678194 17:0.0877947 18:0.0997591 19:-0.0727578 20:0.0998527 21:0.0224342 22:-0.0880397 23:-0.0820177 24:-0.0818108 25:-0.00211076 26:-0.0933649 27:-0.0642985 28:-0.00945491 29:-0.0739889 30:0.090633 31:-0.042987 32:-0.0955499 33:0.0951131 34:-0.0748599 35:0.0874772 36:0.0486369 37:-0.0999794 38:0.0927272 39:0.079595 40:-0.0239063 41:-0.00572451 42:-0.0898483 43:0.0631407 44:0.048065 45:-0.0979269 46:-0.0957127 47:0.0973674 48:-0.0995668 49:-0.0929789 50:0.0821897 51:-0.0219921 52:-0.0988389 53:0.0957041 54:-0.0993767 55:-0.0223725 56:-0.0247314 57:-0.0946548 58:0.0428322 59:-0.00354115 60:0.0613517 61:-0.0819573 62:0.0959911 63:-0.00139531 64:-0.0725457 65:0.0995451 66:0.0988786 67:-0.0659407 68:-0.0232961 69:0.0854171 70:0.0998028 71:-0.0870481 72:0.0234226 73:-0.0952522 74:0.0976495 75:0.000479461 76:0.0164536 77:0.0970596 78:-0.00923914 79:-0.0388874 80:0.0754477 81:0.0708889 82:0.0663763 83:0.0411967 84:-0.0464991 85:-0.0954141 86:0.0894436 87:-0.0351689 88:0.0998267 89:-0.0961698 90:0.0915347 91:-0.0659026 92:-0.0640687 93:-0.0687043 94:0.0980281 95:-0.0109769 96:0.0914262 97:0.0982856 98:0.0833084 99:-0.0952945 100:-0.0925495
-1 1:0.087627 2:0.069906 3:0.0739725 4:-0.0161119 5:-0.0815027 6:-0.0536188 7:-0.0379266 8:0.0399538 9:0.0746081 10:-0.0926221 11:0.025595 12:-0.0999781 13:-0.0601637 14:-0.0963349 15:-0.0999759 16:-0.0480061 17:0.0460057 18:0.094323 19:-0.0651084 20:0.0296227 21:0.0425145 22:-0.0354817 23:-0.0794083 24:-0.0696027 25:-0.0426396 26:-0.0968786 27:-0.0528515 28:-0.0818174 29:-0.0536404 30:0.0764783 31:-0.0999991 32:-0.0912521 33:0.0870996 34:-0.0819759 35:0.0137982 36:0.0292566 37:-0.0618653 38:0.0966072 39:0.0470869 40:-0.0336314 41:-0.00858388 42:-0.00670965 43:0.0529138 44:-0.0880086 45:-0.0954494 46:-0.0995841 47:0.0896359 48:-0.0990323 49:-0.0862939 50:0.0952123 51:-0.0782894 52:-0.098865 53:0.0485699 54:-0.0589727 55:-0.00865198 56:0.0348957 57:-0.0770143 58:0.0789566 59:0.06443 60:0.0709119 61:-0.0983344 62:0.0671028 63:-0.0920567 64:-0.0227607 65:0.0972578 66:0.092499 67:-0.00683889 68:-0.00934601 69:0.098169 70:0.0958223 71:-0.0881588 72:0.0102712 73:-0.0617065 74:0.0647229 75:-0.055704 76:0.0396569 77:0.0178698 78:0.0579213 79:0.00528406 80:0.090992 81:0.0957531 82:-0.0108646 83:-0.0030679 84:0.0335156 85:-0.0929571 86:0.0999975 87:-0.0534307 88:0.093027 89:-0.0990055 90:0.0183204 91:-0.0859758 92:-0.0918253 93:-0.0712978 94:0.0965078 95:-0.0937977 96:0.0999956 97:0.0994727 98:0.0878976 99:-0.0928699 100:-0.087143
-1 1:0.0717603 2:0.0476912 3:0.0579904 4:-0.017498 5:-0.0999932 6:-0.0118351 7:-0.0898377 8:0.0703159 9:0.0984174 10:-0.0600846 11:0.0744771 12:-0.096329 13:-0.0156881 14:-0.0934708 15:-0.0753053 16:-0.0655364 17:0.0863684 18:0.0996139 19:-0.0547776 20:0.0995199 21:-0.017905 22:-0.0742117 23:-0.0951254 24:-0.0846704 25:0.00347241 26:-0.0907199 27:-0.0761057 28:-0.0102045 29:-0.0676843 30:0.0869885 31:-0.0587563 32:-0.0972297 33:0.0862101 34:-0.0741186 35:0.068641 36:0.05625 37:-0.0956244 38:0.0858331 39:0.0507832 40:-0.0235856 41:0.0118502 42:-0.0696626 43:0.0706834 44:0.0188516 45:-0.0987102 46:-0.0945258 47:0.0938403 48:-0.0993321 49:-0.0953839 50:0.0640257 51:-0.0327741 52:-0.0976061 53:0.0991235 54:-0.0998406 55:-0.0118126 56:-0.0109568 57:-0.0999442 58:0.0202266 59:0.0110911 60:0.0488162 61:-0.0909929 62:0.0983939 63:-0.0303989 64:-0.0555213 65:0.0997404 66:0.0970545 67:-0.0681458 68:-0.017589 69:0.0823581 70:0.0999255 71:-0.0895008 72:0.036606 73:-0.083619 74:0.0952851 75:-0.0116669 76:0.0226502 77:0.0944234 78:0.0144005 79:-0.0374498 80:0.0750533 81:0.072816 82:0.051506 83:0.0415931 84:-0.0374415 85:-0.0915211 86:0.0931581 87:-0.0562665 88:0.0989239 89:-0.0932803 90:0.0813429 91:-0.0746207 92:-0.0715677 93:-0.0774244 94:0.098855 95:-0.0520176 96:0.0887368 97:0.0954775 98:0.0891379 99:-0.0918644 100:-0.0953811
-1 1:0.0816951 2:0.0533437 3:0.0592579 4:-0.0145534 5:-0.0977781 6:-0.0319907 7:-0.0826173 8:0.0598318 9:0.0938371 10:-0.0646996 11:0.0637932 12:-0.0966413 13:-0.0345285 14:-0.0968202 15:-0.0905419 16:-0.0608346 17:0.0787783 18:0.0976522 19:-0.0475046 20:0.0911828 21:-0.0238927 22:-0.0580435 23:-0.0970095 24:-0.0832089 25:-0.00407768 26:-0.0949426 27:-0.0769697 28:-0.0285944 29:-0.0615103 30:0.0828966 31:-0.0794308 32:-0.0970032 33:0.0807059 34:-0.0755658 35:0.0458182 36:0.0544321 37:-0.083685 38:0.0850806 39:0.0331505 40:-0.02562 41:0.0158326 42:-0.0438487 43:0.0706634 44:-0.022978 45:-0.0933796 46:-0.0966465 47:0.0907071 48:-0.0997439 49:-0.0949566 50:0.0634434 51:-0.0487512 52:-0.0985319 53:0.0979622 54:-0.0946987 55:-0.00602101 56:0.00575483 57:-0.0939981 58:0.0238955 59:0.0303147 60:0.0477502 61:-0.0958906 62:0.0963648 63:-0.0593327 64:-0.0393669 65:0.0995405 66:0.0988498 67:-0.0578916 68:-0.0130626 69:0.0856933 70:0.0996711 71:-0.0903204 72:0.0373233 73:-0.071075 74:0.0777582 75:-0.0273612 76:0.0292943 77:0.0821432 78:0.0352054 79:-0.0278713 80:0.0789075 81:0.0800685 82:0.0307747 83:0.0326085 84:-0.0178912 85:-0.0896159 86:0.0968983 87:-0.0647518 88:0.0997073 89:-0.0954578 90:0.0633847 91:-0.0809049 92:-0.0798776 93:-0.0799874 94:0.0999234 95:-0.078352 96:0.0917987 97:0.0963617 98:0.0912773 99:-0.0901533 100:-0.0952366
-1 1:0.0880029 2:0.0679112 3:0.0716192 4:-0.0152735 5:-0.0834821 6:-0.0530501 7:-0.0454497 8:0.0415587 9:0.0770912 10:-0.0893474 11:0.0307513 12:-0.0997981 13:-0.0586483 14:-0.0981308 15:-0.0998836 16:-0.0495346 17:0.0508554 18:0.0942844 19:-0.0607698 20:0.0388892 21:0.0295613 22:-0.0362218 23:-0.0845099 24:-0.0720717 25:-0.0370451 26:-0.0986443 27:-0.0580768 28:-0.0762802 29:-0.0538998 30:0.0768373 31:-0.099739 32:-0.0924858 33:0.0850266 34:-0.0810764 35:0.0149195 36:0.0338344 37:-0.0625349 38:0.0949636 39:0.0412852 40:-0.0325126 41:-0.00325225 42:-0.00809246 43:0.0564771 44:-0.0839169 45:-0.0938445 46:-0.0999245 47:0.0891658 48:-0.0994191 49:-0.0881029 50:0.0913259 51:-0.0756931 52:-0.0995089 53:0.0570216 54:-0.0640845 55:-0.00708394 56:0.0325362 57:-0.0774027 58:0.0711458 59:0.0615494 60:0.066798 61:-0.0984463 62:0.0734346 63:-0.09043 64:-0.0226376 65:0.0977382 66:0.0953813 67:-0.0146395 68:-0.00919947 69:0.0969921 70:0.0966712 71:-0.0887406 72:0.0156149 73:-0.0606418 74:0.062108 75:-0.0532584 76:0.0389235 77:0.0273026 78:0.0572249 79:0.000873625 80:0.0895886 81:0.0943675 82:-0.00719749 83:0.00194603 84:0.0277961 85:-0.0920548 86:0.0999552 87:-0.0572751 88:0.0954198 89:-0.0997541 90:0.0227644 91:-0.0860398 92:-0.0909705 93:-0.0735539 94:0.0973942 95:-0.0940072 96:0.0997487 97:0.0999259 98:0.0889948 99:-0.0920963 100:-0.0889056
0.523695 1:0.0400418 2:0.0495028 3:0.0709854 4:-0.0287848 5:-0.0957908 6:0.0290802 7:-0.0805712 8:0.08296 9:0.0999745 10:-0.0835011 11:0.0747698 12:-0.0999066 13:0.0156875 14:-0.0990169 15:-0.0386341 16:-0.0676634 17:0.0845866 18:0.09796 19:-0.0890687 20:0.0999678 21:0.0706347 22:-0.0953471 23:-0.0543433 24:-0.0757733 25:-0.0163242 26:-0.0984814 27:-0.0444322 28:-0.0229407 29:-0.0784922 30:0.0929099 31:-0.0388201 32:-0.0920384 33:0.0997662 34:-0.0770568 35:0.0964635 36:0.0349642 37:-0.0963471 38:0.098662 39:0.0974826 40:-0.0259856 41:-0.0284341 42:-0.0982302 43:0.0506783 44:0.0592664 45:-0.0832814 46:-0.0984011 47:0.0993842 48:-0.0999693 49:-0.0879837 50:0.0978191 51:-0.0191347 52:-0.0999882 53:0.0963341 54:-0.098886 55:-0.0333318 56:-0.0321277 57:-0.0813713 58:0.0737198 59:-0.00987965 60:0.0767895 61:-0.071649 62:0.087176 63:0.0168146 64:-0.0841237 65:0.0988916 66:0.0998101 67:-0.0540757 68:-0.0282146 69:0.0915388 70:0.0991241 71:-0.0837631 72:0.00360318 73:-0.0998064 74:0.075931 75:0.00601295 76:0.0124897 77:0.0949533 78:-0.027306 79:-0.0336017 80:0.0790384 81:0.0741626 82:0.0732262 83:0.0335184 84:-0.0454602 85:-0.0984863 86:0.0875735 87:-0.00878584 88:0.0991841 89:-0.0995979 90:0.0951042 91:-0.0577124 92:-0.0600008 93:-0.056381 94:0.0983633 95:0.0260753 96:0.0964248 97:0.0999915 98:0.0752005 99:-0.0981228 100:-0.0869511
1 1:0.0402594 2:0.0493471 3:0.0707781 4:-0.0286807 5:-0.0957682 6:0.0289266 7:-0.0809225 8:0.0829662 9:0.099978 10:-0.0831396 11:0.074987 12:-0.0998898 13:0.0156499 14:-0.0989331 15:-0.0386903 16:-0.0677323 17:0.0847765 18:0.0979898 19:-0.0887962 20:0.0999525 21:0.0696918 22:-0.0952987 23:-0.0550805 24:-0.0759608 25:-0.015859 26:-0.0983661 27:-0.0449535 28:-0.0223378 29:-0.0784558 30:0.0928978 31:-0.0385384 32:-0.0921447 33:0.0997326 34:-0.076982 35:0.0964113 36:0.035351 37:-0.096407 38:0.0985732 39:0.0973026 40:-0.0259037 41:-0.0279291 42:-0.09819 43:0.0510097 44:0.0594883 45:-0.0836507 46:-0.0983298 47:0.0993638 48:-0.0999632 49:-0.0881352 50:0.097608 51:-0.0189572 52:-0.0999809 53:0.0961869 54:-0.0988413 55:-0.0331389 56:-0.032173 57:-0.0815345 58:0.0730183 59:-0.0100042 60:0.0764512 61:-0.0717928 62:0.0875212 63:0.0168255 64:-0.084011 65:0.0989167 66:0.099849 67:-0.0545531 68:-0.0281549 69:0.0913669 70:0.0991552 71:-0.0838356 72:0.00409875 73:-0.099785 74:0.0763869 75:0.00610538 76:0.0124911 77:0.0951356 78:-0.0271586 79:-0.0338755 80:0.0788967 81:0.0739716 82:0.0732868 83:0.0338481 84:-0.0457502 85:-0.0984403 86:0.0875368 87:-0.00931553 88:0.0992558 89:-0.0995451 90:0.095144 91:-0.0578091 92:-0.0599575 93:-0.056662 94:0.0983255 95:0.0256572 96:0.0962963 97:0.0999971 98:0.0753755 99:-0.0980786 100:-0.0871142
1 1:0.0880493 2:0.0714037 3:0.0753535 4:-0.0163349 5:-0.079192 6:-0.0554174 7:-0.0323934 8:0.0379507 9:0.0721306 10:-0.0943865 11:0.0214092 12:-0.0999991 13:-0.0623208 14:-0.0947619 15:-0.0999859 16:-0.0466775 17:0.042154 18:0.0939737 19:-0.0669397 20:0.0215472 21:0.0490421 22:-0.0333233 23:-0.0766142 24:-0.0679996 25:-0.0463082 26:-0.0952706 27:-0.0499001 28:-0.0854977 29:-0.0529089 30:0.0758438 31:-0.0998264 32:-0.0904798 33:0.087803 34:-0.0825812 35:0.0107874 36:0.0264557 37:-0.0595678 38:0.097368 39:0.0488418 40:-0.0344306 41:-0.0112505 42:-0.00322832 43:0.0508524 44:-0.0915771 45:-0.0957636 46:-0.0991937 47:0.0895902 48:-0.0987107 49:-0.0851556 50:0.0968983 51:-0.0805955 52:-0.0983101 53:0.0409818 54:-0.0540418 55:-0.00904464 56:0.0375479 57:-0.0750462 58:0.0830712 59:0.0672725 60:0.0730687 61:-0.0984835 62:0.0626776 63:-0.0939055 64:-0.0213001 65:0.0969159 66:0.0902393 67:-0.00127443 68:-0.00903996 69:0.0987901 70:0.0951897 71:-0.0878998 72:0.00729865 73:-0.0609628 74:0.0637608 75:-0.0581835 76:0.0406077 77:0.010153 78:0.0597947 79:0.00863762 80:0.0919471 81:0.0967019 82:-0.0148611 83:-0.00672646 84:0.0383115 85:-0.0933072 86:0.0999868 87:-0.0519838 88:0.0912154 89:-0.0982571 90:0.0135658 91:-0.0863732 92:-0.0927046 93:-0.0702398 94:0.0956756 95:-0.094689 96:0.0999502 97:0.0989967 98:0.0874611 99:-0.0931632 100:-0.0860713
1 1:0.0852616 2:0.07766 3:0.0831425 4:-0.0200058 5:-0.0729506 6:-0.054674 7:-0.00382461 8:0.033854 9:0.0636198 10:-0.0999011 11:0.00356436 12:-0.098645 13:-0.0653438 14:-0.0823242 15:-0.0997519 16:-0.0415987 17:0.0243898 18:0.09483 19:-0.0819425 20:-0.0104572 21:0.0868757 22:-0.0338854 23:-0.0497942 24:-0.058013 25:-0.0645299 26:-0.0816122 27:-0.0277087 28:-0.0973367 29:-0.0530597 30:0.0752972 31:-0.0963823 32:-0.0848609 33:0.0946985 34:-0.0855856 35:0.0111466 36:0.00873778 37:-0.0607268 38:0.0999965 39:0.070989 40:-0.0383135 41:-0.031746 42:-0.00322686 43:0.0362783 44:-0.0984262 45:-0.0997698 46:-0.0950923 47:0.0918424 48:-0.0962948 49:-0.0770952 50:0.0986155 51:-0.0873902 52:-0.0931226 53:0.00982714 54:-0.0360481 55:-0.0159539 56:0.0437241 57:-0.0769447 58:0.098952 59:0.0748925 60:0.0861232 61:-0.0975546 62:0.0345663 63:-0.0967993 64:-0.0247554 65:0.0946851 66:0.0729655 67:0.0261246 68:-0.0103588 69:0.0999171 70:0.0911555 71:-0.0853726 72:-0.0133271 73:-0.0674441 74:0.0772208 75:-0.0648361 76:0.0423292 77:-0.0220449 78:0.0595185 79:0.0235535 80:0.0958352 81:0.0994408 82:-0.0248806 83:-0.0239935 84:0.0554889 85:-0.0963812 86:0.0996561 87:-0.0345605 88:0.0774861 89:-0.0901928 90:0.000693857 91:-0.08527 92:-0.0947548 93:-0.0602866 94:0.0915253 95:-0.0917311 96:0.0967859 97:0.0928131 98:0.0823016 99:-0.0958961 100:-0.0780705
-1 1:0.0886055 2:0.0674375 3:0.070763 4:-0.0147653 5:-0.0834483 6:-0.0539354 7:-0.0474611 8:0.0413779 9:0.0773203 10:-0.0881171 11:0.0318217 12:-0.0996868 13:-0.0590583 14:-0.0985465 15:-0.0999171 16:-0.0497857 17:0.0519487 18:0.0939944 19:-0.0586214 20:0.0404841 21:0.0240488 22:-0.0352277 23:-0.0865086 24:-0.0728801 25:-0.035306 26:-0.0990326 27:-0.0600905 28:-0.0747776 29:-0.0535687 30:0.0766606 31:-0.0996795 32:-0.0929133 33:0.0838503 34:-0.0808072 35:0.013598 36:0.0354425 37:-0.0613944 38:0.0942185 39:0.0378767 40:-0.0322072 41:-0.000948708 42:-0.00663038 43:0.0578166 44:-0.0836861 45:-0.0926883 46:-0.0999728 47:0.0887464 48:-0.0995147 49:-0.0887249 50:0.0895226 51:-0.0753941 52:-0.0996613 53:0.0584195 54:-0.0646839 55:-0.00611541 56:0.0326248 57:-0.076282 58:0.0680501 59:0.0614058 60:0.0651027 61:-0.0986374 62:0.0753367 63:-0.0906555 64:-0.0214581 65:0.0978798 66:0.0961501 67:-0.01679 68:-0.0088554 69:0.096566 70:0.096906 71:-0.0890142 72:0.0177028 73:-0.0592196 74:0.0592121 75:-0.0531662 76:0.0390414 77:0.0292275 78:0.0580674 79:-0.000180583 80:0.0891974 81:0.0940299 82:-0.00722385 83:0.00325972 84:0.0268142 85:-0.091581 86:0.0999519 87:-0.0592623 88:0.0960863 89:-0.0998893 90:0.0228431 91:-0.0863845 92:-0.0909691 93:-0.0745741 94:0.0975469 95:-0.0948182 96:0.0995951 97:0.0999875 98:0.0895428 99:-0.0916854 100:-0.0895363
1 1:0.0426097 2:0.0990058 3:0.0819665 4:0.0157522 5:0.0972859 6:-0.0409942 7:0.0855608 8:-0.08498 9:-0.0809095 10:-0.0988926 11:-0.0944027 12:-0.0998229 13:-0.0462036 14:-0.0223818 15:0.0963261 16:0.0114455 17:-0.076915 18:-0.011718 19:0.0229772 20:-0.0150594 21:-0.0335459 22:0.0948461 23:-0.0988591 24:-0.0501157 25:-0.0919262 26:-0.02081 27:-0.0689779 28:-0.0311283 29:0.0271949 30:0.00653969 31:0.0981826 32:-0.0883002 33:-0.00305356 34:-0.0921858 35:-0.0355553 36:0.0118186 37:0.076472 38:0.0891006 39:-0.0999295 40:-0.0522606 41:0.0378632 42:-0.00826133 43:0.0563123 44:0.0777491 45:0.0797808 46:-0.0699311 47:0.0245583 48:-0.0843602 49:-0.0803765 50:0.0877162 51:-0.0438821 52:-0.0827808 53:-0.025483 54:0.0849421 55:0.0510992 56:0.0874399 57:0.0675566 58:0.0925168 59:0.0412467 60:0.0567277 61:-0.0282226 62:-0.0122566 63:0.0984136 64:0.099269 65:0.0895516 66:0.0307676 67:0.0943318 68:0.0376442 69:0.0922745 70:0.0763734 71:-0.0960109 72:0.02363 73:0.0990534 74:0.00677111 75:-0.0788722 76:0.0899129 77:-0.0555298 78:0.0282339 79:0.087523 80:0.0985662 81:0.0668255 82:-0.063534 83:-0.0835824 84:0.0669578 85:-0.0643769 86:0.0318884 87:-0.0988206 88:0.0509712 89:-0.0725786 90:-0.0583038 91:-0.0872371 92:-0.0618827 93:-0.0952377 94:0.0169895 95:0.0980668 96:0.0782263 97:0.0934525 98:0.0998987 99:-0.0673354 100:-0.0865578
1 1:0.0418175 2:0.0988424 3:0.0810372 4:0.0162495 5:0.0970549 6:-0.0406888 7:0.08368 8:-0.0847651 9:-0.0801507 10:-0.0993659 11:-0.0936833 12:-0.0999226 13:-0.046458 14:-0.0256842 15:0.0962238 16:0.0107992 17:-0.0754641 18:-0.0121816 19:0.0258472 20:-0.0187255 21:-0.0399533 22:0.094748 23:-0.0980782 24:-0.0514936 25:-0.0908306 26:-0.024473 27:-0.0711669 28:-0.0346848 29:0.0273 30:0.00656174 31:0.0977088 32:-0.088983 33:-0.0053326 34:-0.0919206 35:-0.035231 36:0.0140542 37:0.0761577 38:0.0877874 39:-0.0997195 40:-0.0518299 41:0.0403489 42:-0.00859983 43:0.0579942 44:0.0793132 45:0.0815847 46:-0.0715508 47:0.0238157 48:-0.085089 49:-0.0813976 50:0.0850654 51:-0.0451383 52:-0.0840689 53:-0.0290743 54:0.0861151 55:0.0519072 56:0.0877653 57:0.0670337 58:0.0902517 59:0.0423012 60:0.0544228 61:-0.0275051 62:-0.00827519 63:0.0982539 64:0.0991889 65:0.0899775 66:0.0343485 67:0.0931638 68:0.0378448 69:0.0931788 70:0.077253 71:-0.0961935 72:0.0261681 73:0.0992214 74:0.00957319 75:-0.0794194 76:0.0898405 77:-0.0586518 78:0.0279705 79:0.0866366 80:0.0987898 81:0.0681512 82:-0.0643395 83:-0.0824069 84:0.0686093 85:-0.0633861 86:0.032562 87:-0.0983956 88:0.0537279 89:-0.074749 90:-0.0593947 91:-0.0870512 92:-0.0623599 93:-0.0957448 94:0.0183573 95:0.0977797 96:0.0799021 97:0.0944764 98:0.0998322 99:-0.0665095 100:-0.0874331
1 1:0.0474896 2:0.0995378 3:0.0858698 4:0.0131933 5:0.0978076 6:-0.0441462 7:0.0922574 8:-0.0852698 9:-0.0833095 10:-0.0952517 11:-0.0968086 12:-0.0988675 13:-0.0466696 14:-0.00804301 15:0.0960779 16:0.0138286 17:-0.0823314 18:-0.00838011 19:0.00883424 20:-0.0011671 21:-0.00210574 22:0.0958846 23:-0.0998087 24:-0.0438826 25:-0.0958737 26:-0.0048397 27:-0.0580658 28:-0.0161248 29:0.0259766 30:0.00717027 31:0.099389 32:-0.0849808 33:0.00831714 34:-0.0932704 35:-0.0394789 36:0.00173831 37:0.0795295 38:0.0942392 39:-0.0988515 40:-0.054047 41:0.0258016 42:-0.00372747 43:0.04833 44:0.0727619 45:0.0692241 46:-0.0626031 47:0.0286756 48:-0.0810697 49:-0.0754872 50:0.0966617 51:-0.039554 52:-0.0766134 53:-0.0118193 54:0.0805685 55:0.0468621 56:0.086698 57:0.0719979 58:0.0990609 59:0.0380778 60:0.0667748 61:-0.032735 62:-0.0293037 63:0.0985762 64:0.0997258 65:0.087606 66:0.0147575 67:0.0980635 68:0.036322 69:0.0877398 70:0.0724454 71:-0.095068 72:0.0117667 73:0.0976919 74:-0.00957729 75:-0.0772574 76:0.0899596 77:-0.0426247 78:0.0313707 79:0.0908143 80:0.0974337 81:0.0613367 82:-0.0614738 83:-0.0880497 84:0.0605276 85:-0.0690786 86:0.0298901 87:-0.0999651 88:0.0383385 89:-0.0622219 90:-0.0552699 91:-0.0885156 92:-0.0606331 93:-0.0924169 94:0.0117474 95:0.0995124 96:0.0703135 97:0.087857 98:0.0999825 99:-0.0712798 100:-0.0822358
1 1:0.0403647 2:0.0985126 3:0.0792891 4:0.0171553 5:0.0966096 6:-0.0401306 7:0.0799834 8:-0.0843698 9:-0.0787332 10:-0.0998919 11:-0.0922636 12:-0.0999997 13:-0.0469211 14:-0.0316268 15:0.0960339 16:0.00961946 17:-0.0727215 18:-0.0130263 19:0.0310208 20:-0.0253404 21:-0.0511281 22:0.0945667 23:-0.0961407 24:-0.053972 25:-0.088663 26:-0.03106 27:-0.0749847 28:-0.0410399 29:0.0274918 30:0.00660195 31:0.0967055 32:-0.0901784 33:-0.00948051 34:-0.0914261 35:-0.0346385 36:0.0181116 37:0.0755799 38:0.0852144 39:-0.0989787 40:-0.0510413 41:0.0448046 42:-0.00921683 43:0.0609979 44:0.0820342 45:0.084677 46:-0.074407 47:0.022458 48:-0.0863767 49:-0.0831962 50:0.0796293 51:-0.0474059 52:-0.0862991 53:-0.0355155 54:0.0881402 55:0.0533687 56:0.0883486 57:0.0660715 58:0.0854011 59:0.0442094 60:0.0501134 61:-0.0261928 62:-0.000985405 63:0.0979432 64:0.0990323 65:0.0907325 66:0.0407479 67:0.0907644 68:0.0382101 69:0.0946874 70:0.0788194 71:-0.0965155 72:0.0307489 73:0.0994857 74:0.0146618 75:-0.0804009 76:0.0897077 77:-0.0641234 78:0.0274896 79:0.084948 80:0.0991492 81:0.0705117 82:-0.0657903 83:-0.0801695 84:0.071531 85:-0.0615523 86:0.0337861 87:-0.0974545 88:0.0586081 89:-0.078507 90:-0.0613559 91:-0.0867088 92:-0.063224 93:-0.0965974 94:0.0208423 95:0.0972055 96:0.0828029 97:0.0961248 98:0.0996683 99:-0.0649825 100:-0.0889581
1 1:0.0431624 2:0.0983256 3:0.0792665 4:0.0165205 5:0.0954857 6:-0.0437249 7:0.0786779 8:-0.0829756 9:-0.0767899 10:-0.0999152 11:-0.0912875 12:-0.0999994 13:-0.0500978 14:-0.0330816 15:0.0944495 16:0.00858334 17:-0.0711989 18:-0.0105306 19:0.0290424 20:-0.0306527 21:-0.049169 22:0.0958323 23:-0.0966759 24:-0.0541823 25:-0.0882005 26:-0.0325401 27:-0.0744883 28:-0.0436997 29:0.0260032 30:0.00806074 31:0.0952852 32:-0.0901532 33:-0.00722992 34:-0.0913032 35:-0.0396054 36:0.0181598 37:0.0790078 38:0.0855923 39:-0.0994976 40:-0.0507703 41:0.0437346 42:-0.00319795 43:0.0607404 44:0.0861122 45:0.0822768 46:-0.0750734 47:0.0240771 48:-0.0866827 49:-0.0831869 50:0.0802245 51:-0.0500969 52:-0.0865625 53:-0.0407967 54:0.0902798 55:0.0523084 56:0.0897357 57:0.0704917 58:0.0854997 59:0.0473452 60:0.0506972 61:-0.028848 62:8.72932e-05 63:0.096553 64:0.0994651 65:0.0908557 66:0.0417653 67:0.0899258 68:0.0373776 69:0.0949332 70:0.0791757 71:-0.0963942 72:0.0302085 73:0.0990046 74:0.00724309 75:-0.0820791 76:0.0891385 77:-0.067516 78:0.0314128 79:0.0840805 80:0.0992645 81:0.0718039 82:-0.0688495 83:-0.0792716 84:0.0739227 85:-0.0623813 86:0.0358427 87:-0.0979696 88:0.0592592 89:-0.0789577 90:-0.0650397 91:-0.0876643 92:-0.0649973 93:-0.096318 94:0.0226924 95:0.0985916 96:0.0833075 97:0.0961547 98:0.0997549 99:-0.0657082 100:-0.0888685
1 1:0.0363439 2:0.0996917 3:0.0844849 4:0.0162843 5:0.0996387 6:-0.0307777 7:0.092788 8:-0.0892669 9:-0.0877557 10:-0.0965037 11:-0.0979291 12:-0.0993705 13:-0.0355411 14:-0.00854402 15:0.0994495 16:0.0163166 17:-0.0844287 18:-0.017897 19:0.0210651 20:0.0117432 21:-0.0217741 22:0.0905505 23:-0.0996234 24:-0.0455742 25:-0.0955257 26:-0.00587817 27:-0.0643267 28:-0.0123991 29:0.0313373 30:0.0020949 31:0.099964 32:-0.0864006 33:-0.00352237 34:-0.0932288 35:-0.0210995 36:0.00546328 37:0.0660787 38:0.0915035 39:-0.0998043 40:-0.0542401 41:0.0342379 42:-0.0251528 43:0.0523733 44:0.0560031 45:0.0824927 46:-0.0629558 47:0.0217582 48:-0.0812081 49:-0.0774602 50:0.0926831 51:-0.0317446 52:-0.0780135 53:0.00169789 54:0.0724322 55:0.0520765 56:0.0815769 57:0.0547749 58:0.0971226 59:0.0283316 60:0.061278 61:-0.0222045 62:-0.0262606 63:0.0999652 64:0.0977949 65:0.0879139 66:0.0173644 67:0.0982616 68:0.0395801 69:0.0884368 70:0.0726808 71:-0.0958851 72:0.0182101 73:0.0998546 74:0.0212364 75:-0.0715691 76:0.0917003 77:-0.0341344 78:0.0169824 79:0.0918572 80:0.097245 81:0.0586729 82:-0.0510134 83:-0.0887789 84:0.0537082 85:-0.0646765 86:0.0236792 87:-0.0987911 88:0.0408868 89:-0.0645362 90:-0.0428218 91:-0.0847881 92:-0.0548936 93:-0.0947548 94:0.00753629 95:0.0934279 96:0.0714162 97:0.090047 98:0.0999047 99:-0.0674806 100:-0.0843137
-1 1:0.056744 2:0.0983463 3:0.0828238 4:0.0120355 5:0.0910813 6:-0.0584215 7:0.0817403 8:-0.0778693 9:-0.0718465 10:-0.0987091 11:-0.0906154 12:-0.0996314 13:-0.0612256 14:-0.0263434 15:0.086346 16:0.00695134 17:-0.0711467 18:0.00131579 19:0.00966441 20:-0.0378806 21:-0.0155267 22:0.0993731 23:-0.0999997 24:-0.0497314 25:-0.0910811 26:-0.0245341 27:-0.0637565 28:-0.0410949 29:0.0195742 30:0.0137906 31:0.0912887 32:-0.0874152 33:0.0106338 34:-0.0918752 35:-0.0592917 36:0.00968883 37:0.0911149 38:0.091906 39:-0.0976807 40:-0.0513709 41:0.0295567 42:0.0220631 43:0.0531381 44:0.0946181 45:0.0623507 46:-0.0717575 47:0.0332981 48:-0.085208 49:-0.0792175 50:0.0922783 51:-0.0559306 52:-0.0828619 53:-0.0482823 54:0.0941808 55:0.0447447 56:0.0935444 57:0.0868365 58:0.0949033 59:0.0555732 60:0.0618118 61:-0.0418796 62:-0.011139 63:0.0891648 64:0.0997912 65:0.0897495 66:0.0322613 67:0.0920839 68:0.0332261 69:0.0927706 70:0.0773019 71:-0.0951299 72:0.0181426 73:0.0939353 74:-0.0329032 75:-0.0864013 76:0.0870359 77:-0.0698882 78:0.047452 79:0.0843545 80:0.0990455 81:0.0720693 82:-0.0773445 83:-0.0806127 84:0.077336 85:-0.0693158 86:0.0413877 87:-0.0999986 88:0.0514893 89:-0.072755 90:-0.0748575 91:-0.0917446 92:-0.0700674 93:-0.0928327 94:0.0248167 95:0.0986791 96:0.0792325 97:0.0924855 98:0.0999665 99:-0.0716271 100:-0.0850915
1 1:0.0296489 2:0.0985708 3:0.0768237 4:0.0203047 5:0.0986508 6:-0.028182 7:0.078459 8:-0.0877323 9:-0.0823092 10:-0.0999569 11:-0.0930246 12:-0.0998678 13:-0.03771 14:-0.0353889 15:0.0990812 16:0.0110879 17:-0.0733446 18:-0.0216124 19:0.0437217 20:-0.0183212 21:-0.0702515 22:0.0894606 23:-0.0898935 24:-0.056717 25:-0.0868152 26:-0.0356125 27:-0.0812173 28:-0.0416927 29:0.0321788 30:0.00227424 31:0.0986541 32:-0.0917975 33:-0.0218622 34:-0.0910953 35:-0.0183401 36:0.0235448 37:0.0630647 38:0.0799861 39:-0.0933832 40:-0.0507563 41:0.0538536 42:-0.0278119 43:0.0657591 44:0.0717031 45:0.0938406 46:-0.0762406 47:0.0156564 48:-0.0871912 49:-0.0855788 50:0.0687574 51:-0.042314 52:-0.0884092 53:-0.0282183 54:0.0838139 55:0.0584504 56:0.0846217 57:0.0498858 58:0.0768544 59:0.0372282 60:0.0420958 61:-0.0162542 62:0.00591773 63:0.0998991 64:0.0965654 65:0.0913783 66:0.0463543 67:0.0896305 68:0.0411887 69:0.0958386 70:0.0798732 71:-0.0972684 72:0.0385606 73:0.0998737 74:0.0427954 75:-0.0764515 76:0.091157 77:-0.0610804 78:0.0147826 79:0.0851104 80:0.0992428 81:0.0698181 82:-0.0581352 83:-0.0796473 84:0.0681146 85:-0.056364 86:0.0292488 87:-0.0934574 88:0.0631808 89:-0.0820375 90:-0.0524432 91:-0.0831164 92:-0.0589564 93:-0.0982637 94:0.0187136 95:0.0887176 96:0.0850872 97:0.0978691 98:0.0989001 99:-0.0605566 100:-0.0911616
1 1:0.0333252 2:0.0981116 3:0.0759045 4:0.0197793 5:0.0972859 6:-0.0335589 7:0.0744474 8:-0.0856574 9:-0.0789225 10:-0.0997669 11:-0.0908693 12:-0.0997748 13:-0.0429203 14:-0.0402098 15:0.097652 16:0.00898325 17:-0.0697122 18:-0.0183088 19:0.0431932 20:-0.0294562 21:-0.0719955 22:0.0919602 23:-0.0895278 24:-0.0581411 25:-0.0848736 26:-0.0407409 27:-0.0820813 28:-0.048489 29:0.0300651 30:0.00448588 31:0.0966217 32:-0.0922557 33:-0.0204527 34:-0.0906644 35:-0.0258759 36:0.0254803 37:0.0688437 38:0.0791921 39:-0.0944889 40:-0.0499766 41:0.0542857 42:-0.0193042 43:0.0667042 44:0.080417 45:0.0924076 46:-0.078433 47:0.0174753 48:-0.0881936 49:-0.0863229 50:0.0665421 51:-0.0475126 52:-0.0896733 53:-0.039276 54:0.0883973 55:0.0575793 56:0.0872522 57:0.057045 58:0.0739099 59:0.0429805 60:0.0408665 61:-0.0197025 62:0.0109226 63:0.0989841 64:0.0977035 65:0.0918849 66:0.0506437 67:0.0869091 68:0.0401252 69:0.0967083 70:0.081086 71:-0.097239 72:0.039834 73:0.0999999 74:0.0346866 75:-0.0796272 76:0.0902956 77:-0.0686837 78:0.0206125 79:0.0829582 80:0.0995242 81:0.0728251 82:-0.0637614 83:-0.0771473 84:0.0731669 85:-0.0567646 86:0.0329529 87:-0.0939644 88:0.0662066 89:-0.0841694 90:-0.0593078 91:-0.0845357 92:-0.0621279 93:-0.0982392 94:0.0226549 95:0.0925555 96:0.0869694 97:0.098391 98:0.0989892 99:-0.060946 100:-0.0916566
1 1:0.0557003 2:0.0975188 3:0.079823 4:0.0133182 5:0.0888305 6:-0.0591551 7:0.0739924 8:-0.0762277 9:-0.0678045 10:-0.0999124 11:-0.0869376 12:-0.0999764 13:-0.0633665 14:-0.0374019 15:0.0843566 16:0.00435047 17:-0.0650923 18:0.00107555 19:0.0180318 20:-0.051021 21:-0.0357423 22:0.0994884 23:-0.0990594 24:-0.0542185 25:-0.0869297 26:-0.0367435 27:-0.0707516 28:-0.0530277 29:0.0191602 30:0.0145847 31:0.086712 32:-0.0896009 33:0.00446882 34:-0.0909315 35:-0.0605433 36:0.0168753 37:0.0915804 38:0.0881519 39:-0.0993115 40:-0.0498406 41:0.0371543 42:0.0239381 43:0.0584545 44:0.0977856 45:0.0681141 46:-0.0769974 47:0.0317652 48:-0.087575 49:-0.0824863 50:0.0847505 51:-0.0608312 52:-0.0869485 53:-0.0606881 54:0.0969765 55:0.0468758 56:0.0947842 57:0.0872111 58:0.0878111 59:0.060047 60:0.0548725 61:-0.0409565 62:0.00220654 63:0.0863781 64:0.0998091 65:0.0911331 66:0.0439909 67:0.0868787 68:0.0334569 69:0.0954969 70:0.080194 71:-0.0956946 72:0.0260574 73:0.0946437 74:-0.0278728 75:-0.0884901 76:0.086456 77:-0.0794569 78:0.0484812 79:0.0806335 80:0.0996007 81:0.0765356 82:-0.0806694 83:-0.0759521 84:0.0826897 85:-0.066676 86:0.0444388 87:-0.0997163 88:0.060411 89:-0.0796392 90:-0.0791305 91:-0.0916489 92:-0.0722503 93:-0.0945578 94:0.0300119 95:0.0988508 96:0.0845179 97:0.0957215 98:0.0999952 99:-0.0694414 100:-0.0878951
1 1:0.0576254 2:0.0976263 3:0.0806843 4:0.0125434 5:0.0883051 6:-0.0609818 7:0.0754198 8:-0.0756402 9:-0.0675257 10:-0.0997388 11:-0.0872818 12:-0.0999175 13:-0.0645616 14:-0.035228 15:0.0831196 16:0.00442313 17:-0.0658076 18:0.00275759 19:0.0143457 20:-0.0504831 21:-0.0287246 22:0.0996985 23:-0.0996304 24:-0.0530932 25:-0.0878842 26:-0.0342677 27:-0.0684751 28:-0.0513509 29:0.0183035 30:0.0152879 31:0.0865128 32:-0.0889822 33:0.00767186 34:-0.091125 35:-0.0628965 36:0.01487 37:0.0927985 38:0.0894973 39:-0.0985098 40:-0.0501026 41:0.034297 42:0.027153 43:0.0567946 44:0.0980826 45:0.0643961 46:-0.0759744 47:0.0332124 48:-0.0871144 49:-0.0815759 50:0.0874432 51:-0.061039 52:-0.0860104 53:-0.0602529 54:0.0970507 55:0.0455598 56:0.0950701 57:0.0889483 58:0.0901756 59:0.0606097 60:0.0572455 61:-0.0428289 62:-0.000906527 63:0.0852453 64:0.0996341 65:0.0908285 66:0.0413731 67:0.087892 68:0.0328464 69:0.0949422 70:0.0796156 71:-0.0954498 72:0.0234676 73:0.093577 74:-0.0338603 75:-0.0887786 76:0.0862112 77:-0.0787141 78:0.0504825 79:0.0811231 80:0.099526 81:0.0760713 82:-0.0813226 83:-0.076713 84:0.0825175 85:-0.0679351 86:0.0448398 87:-0.0999207 88:0.0583616 89:-0.0780643 90:-0.0798266 91:-0.0921695 92:-0.072664 93:-0.093858 94:0.0297072 95:0.0980237 96:0.0834084 97:0.0949128 98:0.099997 99:-0.0705078 100:-0.0870636
1 1:0.0247396 2:0.0993994 3:0.0798413 4:0.0204156 5:0.0999416 6:-0.0195378 7:0.0872622 8:-0.0911117 9:-0.0882967 10:-0.0995799 11:-0.0968577 12:-0.0999982 13:-0.0283366 14:-0.0220398 15:0.0999982 16:0.01558 17:-0.081035 18:-0.0263651 19:0.0404503 20:0.00645619 21:-0.0589808 22:0.0848489 23:-0.0932434 24:-0.0522085 25:-0.0915358 26:-0.0211749 27:-0.0767791 28:-0.0242322 29:0.0355073 30:-0.00144801 31:0.0999459 32:-0.0900348 33:-0.0207583 34:-0.0922039 35:-0.00609583 36:0.016867 37:0.0532608 38:0.0837412 39:-0.093528 40:-0.0527119 41:0.0495405 42:-0.0410069 43:0.0616934 44:0.0510545 45:0.094458 46:-0.0698909 47:0.0137885 48:-0.0843128 49:-0.0828207 50:0.0777013 51:-0.0312838 52:-0.0842576 53:-0.00322996 54:0.0722955 55:0.0587115 56:0.0791074 57:0.0381985 58:0.0861323 59:0.0255923 60:0.0479398 61:-0.0116149 62:-0.00864051 63:0.0991359 64:0.0945052 65:0.0898546 66:0.0334953 67:0.0952112 68:0.0426454 69:0.0928436 70:0.076423 71:-0.0970766 72:0.0326122 73:0.0993789 74:0.0518712 75:-0.0697372 76:0.0926044 77:-0.041815 78:0.00538565 79:0.0896685 80:0.0982544 81:0.0623728 82:-0.0466929 83:-0.0852751 84:0.0560891 85:-0.0573391 86:0.0219052 87:-0.0939975 88:0.0537622 89:-0.0750247 90:-0.0383054 91:-0.0809722 92:-0.0526656 93:-0.0977844 94:0.00994096 95:0.081974 96:0.0791752 97:0.0955777 98:0.0990394 99:-0.0612741 100:-0.0890914
-1 1:0.0324027 2:0.0978623 3:0.0747253 4:0.020331 5:0.097027 6:-0.0332063 7:0.0717552 8:-0.0854222 9:-0.0780359 10:-0.0994082 11:-0.0898562 12:-0.0995983 13:-0.04321 14:-0.0436615 15:0.0975601 16:0.00825912 17:-0.0678954 18:-0.0188216 19:0.0461525 20:-0.0334025 21:-0.0771223 22:0.0918244 23:-0.0871658 24:-0.0595864 25:-0.0832403 26:-0.0445425 27:-0.0839917 28:-0.0521266 29:0.0301816 30:0.00451056 31:0.0959103 32:-0.0928794 33:-0.0229414 34:-0.0903417 35:-0.0255014 36:0.0279087 37:0.0684484 38:0.077232 39:-0.0930401 40:-0.0494876 41:0.0567957 42:-0.0196766 43:0.0683933 44:0.0820633 45:0.0936581 46:-0.079996 47:0.0166325 48:-0.0889061 49:-0.0872865 50:0.0620332 51:-0.0488863 52:-0.0907983 53:-0.0430778 54:0.0895521 55:0.0584375 56:0.0876182 57:0.0563943 58:0.0695602 59:0.0441482 60:0.0380191 61:-0.0188832 62:0.0153571 63:0.0988397 64:0.0975471 65:0.0923057 66:0.0542474 67:0.0849911 68:0.0403468 69:0.0973602 70:0.081975 71:-0.0974086 72:0.0425032 73:0.0999873 74:0.0376163 75:-0.0802285 76:0.0902161 77:-0.0717102 78:0.0203122 79:0.0818162 80:0.0996628 81:0.0741864 82:-0.064659 83:-0.0756274 84:0.0748551 85:-0.0555737 86:0.0337027 87:-0.0929457 88:0.068873 89:-0.0860519 90:-0.0605152 91:-0.0843086 92:-0.0626598 93:-0.0985781 94:0.0241649 95:0.0919442 96:0.0884386 97:0.0989339 98:0.0987743 99:-0.0599564 100:-0.0924319
-1 1:0.0411791 2:0.0972234 3:0.0749019 4:0.0183192 5:0.0934627 6:-0.0442212 7:0.0677423 8:-0.0812608 9:-0.0721183 10:-0.0993253 11:-0.0866273 12:-0.0996648 13:-0.0527063 14:-0.0470583 15:0.0929794 16:0.00529774 17:-0.0633308 18:-0.0112608 19:0.039909 20:-0.0477539 21:-0.0714989 22:0.0960458 23:-0.0904282 24:-0.0598861 25:-0.0819227 26:-0.0479106 27:-0.0823467 28:-0.058718 29:0.0257073 30:0.00888338 31:0.0907236 32:-0.0926848 33:-0.0157691 34:-0.0900186 35:-0.0407009 36:0.0275402 37:0.0793918 38:0.0790058 39:-0.097176 40:-0.0487683 41:0.0532765 42:-0.00163146 43:0.067324 44:0.092573 45:0.0879448 46:-0.0814533 47:0.0217103 48:-0.0895864 49:-0.0870615 50:0.0652805 51:-0.0564604 52:-0.0912215 53:-0.0571235 54:0.0947877 55:0.0551717 56:0.0915912 57:0.0705 58:0.0709017 59:0.0531475 60:0.0404839 61:-0.027115 62:0.0176023 63:0.0945759 64:0.0993605 65:0.0925555 66:0.0562969 67:0.0822062 68:0.037817 69:0.0977449 70:0.08278 71:-0.0970501 72:0.040393 73:0.0994351 74:0.0154452 75:-0.0849675 76:0.0885228 77:-0.0799171 78:0.0322491 79:0.0791804 80:0.0998327 81:0.0775051 82:-0.0734401 83:-0.0729736 84:0.0810585 85:-0.0584259 86:0.0396681 87:-0.0955618 88:0.0700644 89:-0.0867756 90:-0.0709946 91:-0.0873539 92:-0.0678024 93:-0.0979135 94:0.0293286 95:0.098124 96:0.0893876 97:0.0988781 98:0.0992885 99:-0.0624378 100:-0.0920438
